// Neural Network File Format by Kyle Julian, Stanford 2016
6,5,5,30,
5,30,30,30,30,30,5,
0.000,
-36655.999999,-36656.000000,-3.141600,100.000000,0.000000,
36656.000000,36656.000000,3.141600,472.000000,1200.000000,
-431.467101,-0.000000,0.000000,249.000000,532.000000,9.330048,
73311.999999,73312.000000,6.283200,372.000000,1200.000000,423.773936,
-2.22692e-01,-7.15036e-02,-6.44832e-02,2.51859e-01,2.82103e-01,
-1.30296e+00,1.40227e+00,9.78419e-02,-3.57207e-02,1.33667e-01,
1.87464e-01,-7.30941e-01,3.28324e-02,2.63977e-01,3.84283e-01,
1.35239e+00,2.24422e-01,4.38371e-01,-3.76844e-02,-5.54042e-01,
1.18112e+00,1.01032e+00,-4.80174e-02,-7.26025e-02,1.17310e-01,
-5.06451e-01,1.39539e+00,6.91456e-01,3.09935e-02,-5.64334e-03,
6.07562e-01,-1.67810e+00,-1.62315e-01,9.70103e-03,2.20769e-01,
-3.42585e-01,-1.35860e-02,-6.36701e-01,8.22108e-02,6.54663e-01,
-2.23177e+00,-1.31381e-01,-2.69331e-02,9.66515e-02,3.82617e-01,
-4.86417e-02,-3.79931e-02,-3.23976e-01,-1.43786e-02,2.10449e-01,
1.35602e+00,-1.10581e+00,-9.35230e-02,-2.30693e-02,-4.17174e-01,
1.12888e-01,1.30257e+00,1.79257e-01,2.14557e-01,9.64995e-02,
-1.09919e+00,5.65616e-01,-6.14992e-02,1.97737e-02,-1.34754e-01,
1.45498e-01,6.46048e-01,7.16940e-01,9.22927e-03,3.65874e-01,
1.71808e+00,1.71827e+00,2.28796e-02,2.92413e-02,4.91972e-02,
6.86279e-01,-6.13110e-01,5.07735e-02,-2.97797e-02,1.42744e-01,
1.38549e+00,1.48697e+00,-6.35047e-01,3.73844e-02,-3.49888e-01,
8.37137e-01,-2.26211e-01,-1.74089e-01,-1.78240e-01,6.76834e-01,
1.68717e-01,-7.80968e-01,-1.10012e-01,1.92502e-01,-6.78151e-01,
-1.59684e+00,-9.51895e-01,1.13883e-02,1.09300e-01,-3.11004e-01,
7.24609e-01,-7.82540e-01,8.86684e-01,1.52006e-02,-4.64990e-02,
-7.08504e-01,1.57512e+00,-3.75317e-01,1.20433e-01,-4.68717e-01,
-1.36185e-01,-4.62898e-01,1.17566e+00,4.99584e-02,1.53449e-01,
1.92196e-01,2.96261e+00,-2.06785e-02,2.96408e-02,-7.54913e-01,
-1.66018e+00,1.09770e-01,-6.35918e-01,1.51448e-02,-1.43264e-02,
1.38075e-01,1.90172e-01,1.31464e-01,-2.59179e-01,6.74360e-01,
8.20883e-01,-1.14694e+00,-6.63194e-01,-6.26969e-02,-2.97797e-02,
7.05075e-02,1.00207e+00,-8.36571e-01,-3.37591e-02,4.30282e-01,
4.40968e-01,1.17621e+00,5.38119e-01,6.61692e-02,-4.57716e-01,
-1.65913e+00,-4.68376e-01,7.09646e-01,8.09346e-02,-4.11856e-02,
-3.21328e-02,
5.29374e-02,
2.85363e-01,
-3.62022e-01,
1.10034e-01,
6.77158e-03,
1.77957e-01,
1.57274e-01,
2.53334e-01,
1.92222e-01,
-8.16297e-02,
2.21144e-01,
1.83668e-01,
2.12307e-01,
3.19772e-02,
1.06568e-01,
-1.39864e-01,
1.40091e-01,
-6.86399e-02,
-1.70547e-03,
6.85345e-03,
1.73423e-02,
-1.97070e-01,
-1.43963e-01,
2.17542e-02,
2.02417e-01,
1.00828e-01,
-1.80762e-01,
-2.14046e-01,
-1.52223e-02,
-2.07348e-01,-5.20842e-01,-1.97676e-01,7.41010e-01,2.80701e-02,9.94029e-03,-6.09105e-02,2.81949e-01,1.40139e-01,2.01473e-01,-1.26487e-01,2.19432e-01,-1.78767e-01,-3.89305e-01,4.79797e-01,2.60014e-01,-4.82583e-01,-1.56868e-01,-3.93860e-01,-9.20085e-02,7.21145e-01,1.55165e-01,-6.15577e-02,-1.50389e-01,5.17010e-01,-2.55838e-01,-1.94448e-01,2.15693e-01,-6.06269e-01,-1.78866e-02,
-8.96545e-02,-2.83083e-01,9.12905e-02,3.11218e-01,-5.21511e-01,-2.67328e-01,1.80027e-01,-3.97652e-01,2.87493e-01,-1.87418e-01,8.91460e-02,-1.23786e-01,2.54472e-01,3.34170e-01,-3.23794e-01,5.22099e-01,-5.87146e-01,-2.34923e-01,5.08859e-01,-1.40481e-01,3.78885e-01,-2.98133e-01,8.84241e-01,-3.03302e-01,7.44206e-01,-1.89778e-02,-1.53691e-01,4.90809e-02,6.17159e-02,5.83885e-01,
-3.63608e-01,-5.24099e-01,1.12397e-01,-4.67987e-01,-2.32391e-01,7.22778e-02,-1.78477e-01,4.19579e-01,2.14883e-01,7.19754e-02,2.46628e-02,-5.58432e-01,-1.74123e-01,1.03148e-01,-9.59427e-04,-2.32223e-01,2.42879e-01,4.22064e-01,4.09843e-01,3.37270e-01,-2.41279e-02,1.73970e-01,-2.68999e-01,2.70415e-01,2.39095e-01,-6.99538e-01,-1.78329e-01,4.83698e-01,-4.84284e-01,-1.87628e-01,
5.16901e-01,5.89756e-01,7.27292e-02,-7.03389e-01,1.18332e-01,-6.52884e-01,4.27608e-01,-4.50829e-01,4.34722e-01,-7.53867e-02,-2.40580e-01,-4.08125e-01,2.53135e-01,-8.80089e-02,-7.34290e-01,6.72301e-02,2.05034e-01,-5.19023e-01,-3.71829e-01,6.36282e-01,-4.18266e-01,-2.00947e-01,-4.45591e-01,8.71506e-02,-2.05574e-01,6.92379e-01,-5.05052e-02,-1.38131e+00,2.65899e+00,-2.32846e-01,
6.12210e-02,3.31270e-01,-3.54753e-01,1.24961e-02,7.56980e-02,6.83845e-02,2.21145e-02,9.17590e-01,-2.17149e-01,-4.41410e-02,3.64827e-01,-3.61243e-01,3.58547e-01,-4.12550e-01,-1.18063e-02,-4.03389e-01,6.52083e-01,-1.18415e-01,-1.02877e-01,-3.65915e+00,6.42839e-01,7.72196e-02,-2.97714e+00,-3.21986e-01,-5.54627e-01,-3.44832e-01,5.25785e-02,8.70706e-01,1.70692e-01,2.47393e-01,
9.76199e-03,-1.21869e-01,3.85761e-01,1.46786e-01,1.40349e-01,5.75518e-01,3.59536e-01,-1.23803e-01,-6.78552e-01,-8.88618e-02,2.51252e-01,2.48174e-01,-3.37903e-01,1.19018e-01,5.38838e-01,2.93347e-01,-2.42384e-01,-5.28429e-01,3.58427e-01,-1.10209e+00,4.03078e-02,-2.34200e-01,-5.47917e-01,-5.41010e-02,-2.85820e-01,3.72283e-01,6.93843e-01,-6.46900e-01,7.24230e-01,-8.37602e-01,
-1.64955e-03,-4.36673e-02,3.62508e-02,8.22400e-02,1.04126e-01,1.43525e-01,-4.29922e-01,-1.71943e-01,3.71560e-01,-1.82322e-01,5.90576e-02,-1.77443e-01,3.00738e-02,3.85017e-01,-4.36953e-01,-1.50705e-01,3.42556e-01,5.36930e-01,4.34417e-01,2.44866e-01,-1.16404e-01,3.15147e-01,4.57708e-01,8.03618e-01,-1.05813e+00,-4.57168e-01,-4.00239e-01,-1.58661e+00,-3.68684e-01,5.04304e-01,
-5.48546e-02,1.93119e-01,-1.05611e-01,8.74909e-01,-2.76373e-01,-2.96667e-01,-2.17239e-02,7.12085e-02,-1.10050e-01,1.80157e-01,-3.44582e-01,1.92312e-01,8.31884e-02,-2.23663e-01,3.48960e-01,-3.85785e-01,5.08005e-01,3.12420e-01,-6.56437e-01,-3.80689e-01,8.87476e-01,5.14396e-01,4.99240e-01,-7.65746e-01,7.32768e-02,1.51634e-01,-3.56100e-01,-8.14666e-02,1.83538e-02,3.02237e-02,
1.92718e-01,-4.50090e-01,2.85117e-01,3.51785e-01,1.21800e-03,8.87637e-01,-1.94859e-02,-3.35049e-01,-2.87208e-01,-1.58856e+00,-3.80214e-01,-3.52688e-01,-4.80796e-01,-5.21667e-02,1.62457e-02,7.63832e-02,8.60716e-02,4.07599e-01,-1.73872e-01,-1.11199e+00,4.36699e-01,-5.46025e-01,6.33654e-01,-2.43176e-01,-2.80749e-02,3.63419e-01,-2.22656e-01,1.39857e+00,5.81805e-02,1.37151e-01,
-4.86200e-02,6.95429e-01,-2.98418e-01,-3.55936e-01,1.04775e-01,-1.55990e-01,-2.74808e-01,4.80166e-02,1.48591e-01,1.73225e-01,-3.99040e-01,-4.15754e-02,3.04948e-01,6.29415e-01,-8.67270e-02,-4.66880e-02,5.89034e-01,2.41272e-01,-1.61904e-01,4.08508e-01,-1.13163e-01,5.83398e-01,2.07327e-01,3.73485e-01,-4.46733e-01,-4.55547e-01,-4.82230e-01,-3.30587e-04,-9.54316e-01,5.04329e-01,
2.82456e-01,2.57817e-02,-4.38620e-01,1.12567e+00,-1.37477e-01,-2.32852e-01,-4.68955e-01,1.96755e-01,2.35798e-01,-2.56752e-01,2.19455e-01,1.88922e-01,4.94941e-01,-1.24404e-01,-2.88579e-01,-1.99926e-02,-2.19171e-01,-3.44519e-02,-1.60779e-01,-2.74822e-01,-8.28922e-02,6.83429e-02,6.61838e-03,-2.75182e-02,1.49965e-02,-1.97417e-01,-1.28556e-01,-2.39652e-02,6.61580e-01,-4.51166e-01,
3.50371e-01,-5.92184e-01,3.00581e-04,-8.37502e-02,3.07306e-01,5.84924e-01,3.42977e-02,-4.79766e-01,-3.12181e-01,9.79707e-02,-9.48124e-02,1.29267e-01,1.23825e-01,1.88070e-01,-6.26536e-01,4.20517e-01,3.32490e-01,1.25236e-01,-2.96706e-01,-2.55609e-01,-3.27869e-02,3.82428e-01,-4.11328e-01,4.74383e-01,2.52706e-01,2.29252e-01,5.15439e-02,1.45284e-01,-1.76934e-01,2.91534e-01,
1.29454e-01,-3.39221e-01,1.70603e-01,6.35215e-01,-3.75896e-01,1.81614e-01,1.93931e-01,1.68272e-01,3.54430e-01,3.18795e-01,-6.47829e-02,-2.91168e-01,-5.65204e-02,-8.46768e-01,-5.03355e-01,1.40364e-01,-6.51303e-01,4.00298e-02,8.78482e-02,-6.04920e-02,-1.77237e-02,-3.48800e-01,-1.00981e+00,-3.42005e-01,4.07976e-01,-1.71768e-01,3.62511e-01,-5.70111e-01,1.57002e+00,-9.15830e-01,
-3.59024e-01,-3.64227e-01,1.24871e-01,1.45680e+00,-4.73490e-01,-1.38492e-01,2.62619e-01,1.76866e-01,4.37658e-01,2.82943e-01,1.71044e-01,1.29265e-01,-1.22997e-01,-6.88677e-01,3.10295e-01,-2.50896e-02,2.62292e-01,1.21107e-01,-2.33274e-02,1.26143e-01,-9.22490e-01,6.01783e-01,-1.30862e-01,-6.47578e-02,1.61072e-01,-3.51115e-01,-5.09525e-03,1.07658e-01,1.02729e-01,1.38553e-01,
-7.12166e-02,-2.02319e-01,-1.87432e-01,4.09077e-01,-6.39953e-01,-3.42307e-01,-3.39106e-01,6.03573e-01,3.04389e-02,1.06714e-01,-1.60172e-01,3.42089e-02,4.49138e-01,-2.81131e-01,1.91707e-01,7.04986e-03,-8.48416e-02,-3.95699e-02,1.66319e-01,-3.05349e-01,3.82588e-01,1.87329e-01,-1.17548e+00,-2.51338e-02,5.18889e-01,-3.09850e-02,-2.05268e-01,3.50431e-02,3.15750e-01,1.48271e-01,
-3.99032e-01,-2.79663e-01,4.71575e-01,7.41910e-01,6.82755e-02,4.26354e-01,2.16563e-02,-2.50351e-01,5.59485e-01,-5.08297e-02,-6.92166e-01,2.58725e-01,-6.28561e-02,3.90072e-01,1.62782e-01,-6.03899e-02,-4.96766e-02,-4.74842e-01,-5.67116e-01,9.38926e-02,-8.55750e-02,-1.65636e-01,1.63822e-02,-2.38237e-01,-4.10186e-01,-2.76173e-01,2.37035e-01,2.00461e-01,-8.31882e-02,2.21756e-01,
-4.63601e-01,-1.33101e-01,2.21097e-01,-2.48992e-01,-4.40236e-01,1.03583e-01,-7.09542e-02,3.25128e-01,-2.20965e-01,2.42645e-01,9.51798e-02,6.34659e-01,-2.35197e-01,-2.88098e-01,1.46707e-01,4.22072e-02,-1.98215e-02,5.41296e-01,4.08628e-01,2.68165e-01,4.98016e-01,1.02224e-01,-1.28988e-01,-4.09023e-01,5.51281e-01,-3.15872e-01,3.07168e-01,-2.52926e-01,3.28671e-01,-3.09391e-01,
-2.02699e-02,-4.16719e-01,9.58643e-02,1.58461e-01,-3.18850e-01,1.09302e-01,1.33427e-01,-3.97312e-01,4.23194e-01,3.29008e-01,-3.08079e-01,1.51095e-01,-7.69857e-02,-6.37422e-01,5.31333e-02,3.06764e-03,-3.41568e-01,5.04742e-01,1.85381e-01,-6.45971e-01,5.27453e-02,4.03083e-01,-3.28047e-01,-2.28518e-01,-2.42965e-01,2.05333e-01,-2.13058e-01,4.99483e-01,-5.51769e-01,1.42880e-02,
1.36002e-01,-1.26076e-01,-6.97855e-02,2.31267e-01,1.85302e-01,1.25638e-02,-6.64998e-02,9.06957e-02,-6.28940e-01,4.58675e-01,-8.07346e-01,1.12832e-01,-5.34294e-02,-1.62903e-02,7.34683e-01,1.00091e-01,-6.16090e-03,-4.25531e-01,1.46108e-01,-7.12028e-01,3.28714e-01,-4.32459e-01,3.10666e-01,5.92081e-01,1.10906e-01,-1.19846e-02,1.81635e-01,-2.05552e-01,6.87580e-02,-2.22100e-01,
-1.08084e-01,-1.43763e+00,1.07875e-01,1.76919e-01,-3.35046e-01,-5.99262e-01,9.90719e-02,-1.74462e-01,4.12295e-02,-6.66317e-01,-6.84094e-03,-1.37021e-01,5.49637e-01,1.52111e-01,2.68269e-02,2.80329e-01,2.03652e-01,-2.76124e-01,-1.61029e-01,-1.75914e-01,5.16174e-01,-4.24396e-01,8.44809e-01,-4.80949e-01,-3.59905e-01,8.09509e-02,-7.51575e-01,1.51848e-01,-3.24476e-01,5.03268e-01,
-2.10992e-01,3.12934e-01,3.06297e-01,3.59176e-01,-4.83383e-01,-2.09255e-01,-2.10477e-01,-2.28615e-02,1.51916e-01,1.46470e-02,2.32198e-01,2.40923e-01,-2.54184e-01,1.78303e-01,-1.78757e-01,-5.63129e-02,4.53729e-01,-3.61264e-01,-4.99127e-02,-4.09221e-02,1.82060e-01,2.72871e-01,-9.85162e-01,4.30641e-01,-3.87672e-01,-3.24246e-01,-2.69628e-01,-6.39507e-01,-9.37034e-01,9.42745e-02,
-2.36164e-01,2.29733e-01,5.97005e-01,7.82344e-01,5.88179e-01,-8.33510e-01,-5.61126e-02,3.15481e-02,-3.04316e-01,2.06297e-01,-5.76760e-02,-1.49128e-02,-2.87220e-01,-2.44682e-01,1.63885e-01,2.38985e-01,2.21683e-01,5.62417e-02,-4.83274e-01,1.67898e-01,-1.15045e-01,2.12221e-01,-1.71304e-01,-4.96111e-01,-4.91417e-01,4.97883e-02,-9.82602e-02,-1.23424e-01,2.22120e-01,7.90819e-01,
1.28504e-01,-1.44627e-01,-1.56406e-01,-2.35240e-01,3.69682e-01,-2.01948e-01,1.79654e-01,-2.16053e-01,8.43940e-02,1.64222e-01,7.07638e-01,-4.75708e-01,7.41956e-02,2.20946e-01,-3.81845e-01,4.55142e-01,-1.73190e-02,4.08966e-02,1.00956e-01,1.71646e-01,-4.09725e-01,-9.10070e-02,-1.27941e-01,6.76157e-01,-4.42110e-01,-3.91348e-01,1.16165e-01,2.50338e-01,-1.54900e-01,1.06543e+00,
-4.99025e-01,1.54749e-01,4.83447e-01,-1.24554e-01,-1.31720e-01,5.36834e-03,5.10581e-01,-3.60893e-01,1.07130e+00,3.53178e-02,-1.33351e-01,4.63115e-01,-1.03824e-01,-6.94518e-02,1.56272e-01,-1.43946e-02,-1.94358e-01,4.16130e-01,-1.29722e-01,6.05434e-01,4.65703e-01,-3.03611e-02,-5.98653e-01,-1.89665e-01,6.14519e-01,4.36771e-02,-1.16720e-01,-5.77686e-01,-4.09447e-01,1.44227e-01,
2.64643e-03,-9.03910e-02,-1.83350e-01,-2.28619e-01,6.57027e-01,-1.47637e-01,-4.01783e-01,4.50237e-02,2.04132e-01,-9.26869e-02,-7.07390e-01,3.04242e-01,2.05687e-01,-1.65353e-01,5.23739e-01,-2.66236e-01,2.63657e-01,2.71199e-01,-5.03902e-01,-2.34469e-01,2.73393e-01,3.96694e-01,2.30838e-01,1.02469e+00,-6.78749e-02,-2.13517e-01,-1.30309e-01,1.89264e-01,-1.08092e-01,-1.19646e-01,
1.21855e-01,-4.72656e-01,2.25238e-01,1.06161e+00,2.04229e-01,3.98636e-01,4.93026e-01,-2.00926e-01,-4.68261e-01,-2.31873e-02,1.71875e-01,2.28567e-02,-4.37331e-01,4.04266e-01,3.44160e-01,2.31095e-01,-1.38076e-01,-4.07415e-01,-1.54283e-01,-4.26148e-01,-1.22259e+00,-3.03603e-01,-6.31213e-01,-7.09909e-02,-4.71352e-01,3.75527e-01,2.65736e-01,-1.40550e-01,3.78596e-01,-1.04835e-01,
-2.36428e-01,1.55228e-01,4.78691e-02,4.08031e-02,1.56058e-01,7.60616e-01,-5.55377e-01,-4.76096e-01,1.79435e-01,1.41565e-01,-1.25745e-02,6.39322e-01,2.09227e-01,1.87045e-01,3.23973e-01,7.13124e-02,-1.94060e-01,1.37751e-01,-3.40174e-02,-7.65646e-01,-5.86119e-01,-2.27797e-01,-2.48578e-01,1.47938e-01,-5.50900e-01,3.43828e-01,-1.72904e-01,-5.57577e-01,3.70301e-01,-5.54115e-02,
-2.04297e-01,3.85676e-01,4.93464e-01,9.57607e-02,-2.17820e-01,4.35703e-01,1.07246e-02,-1.29802e-01,-3.07659e-01,4.57758e-03,2.41857e-01,-1.84273e-01,2.14249e-02,-1.90313e-01,-1.63165e-01,-2.35788e-01,4.06339e-01,-1.81643e-01,5.32339e-01,-2.37819e-01,-1.15253e-01,-5.82053e-01,3.53018e-01,1.82991e-02,-1.36309e-01,-4.47988e-02,-8.76544e-02,9.04064e-01,1.08252e-01,3.70363e-01,
1.39095e-02,5.11664e-01,2.62542e-01,-1.89892e-01,2.59891e-01,7.59383e-01,5.68868e-02,-4.08029e-01,-4.84655e-02,-2.79130e-01,-8.10993e-01,-1.89842e-01,-2.12038e-01,1.30772e-01,6.30603e-01,-2.63317e-01,3.53617e-01,-5.35433e-02,-5.87860e-02,7.57847e-01,-7.92450e-01,-1.65090e-01,-3.01863e-01,2.17082e-01,-4.99951e-01,1.98425e-01,2.12393e-01,-6.41778e-01,-3.10095e-01,9.29636e-01,
-1.53462e-01,-6.02591e-01,-4.77498e-02,1.00860e+00,1.06767e-02,-8.29440e-01,2.26938e-03,1.93823e-01,2.89961e-01,-2.12875e-01,1.27964e-01,3.44483e-01,1.82646e-01,-2.11335e-01,-5.90129e-01,2.61395e-01,-3.28385e-01,-4.32127e-01,1.67352e-01,1.93907e-01,-1.43764e-01,-2.80939e-01,1.08324e-01,-3.84735e-01,1.45822e-01,2.22330e-01,-2.10232e-01,2.19144e-01,1.81518e-01,-6.43501e-01,
1.95884e-01,
1.34286e-01,
2.49430e-01,
-5.55803e-02,
-3.26018e-01,
-7.90367e-02,
-2.64742e-02,
1.53549e-01,
-5.88327e-01,
-8.24869e-02,
2.49703e-01,
4.77248e-02,
1.54722e-01,
1.24175e-01,
2.39528e-01,
1.56188e-01,
-6.58153e-03,
2.24434e-01,
2.54789e-01,
-3.61551e-01,
2.20664e-01,
1.65998e-01,
1.22920e-01,
-1.01502e-02,
-1.29365e-01,
8.90306e-02,
2.13529e-01,
1.48244e-01,
2.18105e-01,
3.23162e-01,
3.89808e-01,-2.81897e-01,3.12881e-01,3.27987e-01,-1.02278e+00,-6.31899e-03,7.29161e-02,2.37292e-01,-2.83021e-01,3.31850e-01,-6.63266e-01,2.21756e-01,-2.35038e-01,3.44396e-01,-4.32641e-01,1.32513e-02,5.84780e-01,2.15883e-01,4.43689e-02,1.21083e+00,2.14975e-01,1.42097e-01,-5.43448e-02,-3.49166e-01,-5.51511e-01,-3.96994e-01,4.94222e-02,3.91518e-01,3.41948e-01,-4.73620e-02,
-1.74024e-01,8.62903e-02,1.38033e-01,3.91599e-01,-9.25395e-02,3.57070e-01,-7.46632e-01,9.73120e-03,2.99584e-02,2.73364e-01,1.39018e-02,-2.53403e-01,4.98285e-01,-2.82409e-01,2.57918e-04,1.61147e-01,-2.53601e-01,-2.77295e-02,-9.39061e-02,8.66687e-01,-5.64173e-02,-1.14281e-01,3.76036e-01,-1.00418e-01,3.92016e-01,3.96787e-02,-1.39367e-01,1.96686e-01,-7.18297e-02,-2.18329e-01,
1.72989e-01,2.27469e-01,-6.28090e-01,-4.54401e-01,1.89675e-01,3.25901e-01,1.34377e-01,-3.22951e-01,-6.07209e-02,-3.37885e-01,1.95621e-01,1.01908e-02,3.48415e-02,-8.35174e-01,3.46364e-01,2.05452e-01,1.70059e-01,-3.09467e-01,1.69306e-01,-6.26359e-01,-4.07628e-01,-3.47547e-01,-1.58073e-01,-2.39789e-01,-1.97075e-01,3.66005e-01,-6.55344e-02,-3.44688e-01,-2.50399e-01,-1.45239e-01,
1.16027e-01,-7.27991e-02,3.08480e-02,5.37329e-02,-4.39414e-02,-2.67664e-01,-2.25735e-01,9.87424e-02,-3.40364e-01,1.53752e-01,4.01864e-01,1.38478e-01,1.06892e+00,4.55096e-03,3.38248e-02,-1.91584e-01,6.02166e-02,-2.60538e-01,1.79614e-01,-7.15727e-02,-6.18145e-03,-1.40496e-01,2.56695e-01,-1.73705e-01,-2.47810e-02,2.86412e-01,8.33742e-02,-3.57643e-01,1.10920e-01,-5.16660e-01,
-4.00681e-01,3.10023e-01,1.45997e-01,3.21877e-01,-2.18078e+00,7.49240e-02,-6.05292e-01,6.52657e-03,3.73281e-01,-6.64317e-01,3.04817e-01,-4.24954e-02,-1.21302e+00,1.21913e-01,7.66772e-02,1.57835e-01,-8.47160e-01,-7.79610e-02,-3.49878e-01,-2.04997e-01,2.10973e-01,1.80777e-01,-9.38060e-02,6.61260e-03,3.30628e-01,-5.30690e-01,1.61798e-01,-2.40949e-01,-2.33950e-01,2.12023e-01,
-1.43720e-01,-4.85643e-01,1.73310e-01,7.50993e-01,-2.54134e-01,-1.24981e+00,3.77038e-02,1.07335e-01,-3.51553e-02,-1.22328e+00,3.33935e-01,1.62830e-01,-1.10164e-01,1.91300e-01,-3.29394e-01,4.89526e-01,5.09709e-01,3.07986e-01,5.98111e-01,-2.85204e-01,4.28748e-01,3.95900e-01,2.16424e-01,-9.02287e-01,-1.06514e+00,-1.08892e+00,1.80685e-01,1.37400e-01,2.73886e-01,-1.58917e-01,
-2.27459e-01,-2.21044e-01,-5.78996e-02,4.70214e-01,1.04161e+00,-3.00448e-01,-1.59877e-01,9.96257e-02,-6.04078e-01,4.36182e-01,1.07282e-01,8.08548e-02,-4.53738e-01,-4.96400e-02,-3.74154e-01,4.34898e-01,-8.03710e-02,1.21301e-01,1.55920e-01,-1.66591e+00,1.35479e+00,3.35490e-01,2.05643e-01,-6.69973e-01,-1.80219e-01,7.22525e-02,-2.76279e-01,-1.21049e-01,-3.36955e-01,5.80662e-01,
4.80178e-01,3.71858e-01,3.44970e-01,8.53362e-02,3.94964e-01,-5.46593e-03,-4.47881e-01,4.74891e-01,2.43831e-01,-2.38697e-02,-1.46552e-01,2.26492e-01,5.62993e-02,5.26465e-01,3.00847e-01,-3.12891e-01,2.34951e-02,-2.82971e-01,-2.87225e-02,-6.69546e-01,9.07252e-02,-3.58873e-01,-2.12025e-01,-1.00747e-01,2.96353e-01,-3.04411e-01,-1.27104e-01,-1.46152e-01,-1.90155e-01,8.17108e-02,
2.93918e-02,2.66699e-01,2.49065e-02,3.00762e-01,2.56114e+00,-4.93388e-01,-1.29821e-01,-4.48259e-01,-8.21606e-01,2.61196e-01,3.50431e-01,3.07554e-01,5.23334e-02,-2.12587e-01,3.61775e-01,1.52051e-01,-5.01015e-01,-2.52044e-01,-1.49145e-01,2.77059e-01,-3.42987e-01,-6.08875e-01,4.29125e-01,-5.48609e-01,-6.65597e-01,-4.15150e-01,-1.91475e-01,2.67232e-02,-4.93943e-01,1.17576e-01,
3.75189e-01,1.50799e-01,1.28900e-01,5.98609e-01,-7.33497e-01,-8.09765e-01,-3.26792e-01,-4.57429e-01,3.08831e-01,-6.54134e-01,6.04473e-02,3.17589e-01,-8.23276e-01,1.15211e-01,-2.28079e-02,1.37650e-01,-2.40799e-01,2.87071e-01,6.81863e-01,-4.72871e-02,-7.29941e-03,7.29993e-02,-3.02976e-01,-1.71560e-01,-1.04844e+00,-1.86455e+00,-3.32388e-02,-2.56130e-01,-1.63945e-01,3.92637e-01,
-1.92280e-01,6.28546e-01,4.03194e-01,-3.21720e-01,-4.86974e-01,-2.23520e-01,3.08314e-01,-5.90158e-01,-1.85006e-01,-2.85552e-01,1.62630e-01,2.54532e-01,1.59292e+00,-6.24426e-02,-2.47974e-01,-2.66521e-01,-2.87564e-01,-1.06944e-01,-5.84133e-01,1.66650e+00,-5.44673e-02,-2.80561e-01,-8.42998e-02,1.45136e-01,-3.57224e-01,2.34901e-01,1.51287e-01,2.83829e-02,-3.36263e-02,1.44731e-01,
5.64566e-02,-9.87735e-02,-2.18302e-02,-1.92307e-04,-1.71865e+00,-7.10655e-01,2.30682e-01,-2.43972e-01,-1.67800e+00,-9.32171e-01,3.76540e-01,5.01751e-01,1.66679e-01,-1.66017e-01,2.46846e-01,-4.57867e-01,-5.30459e-01,-3.47957e-01,2.83495e-01,1.01253e+00,1.04176e-01,-1.10137e+00,4.01248e-01,-1.38193e+00,-1.28926e+00,5.64136e-01,1.49651e-01,-1.69452e-02,9.92586e-02,-3.14736e-01,
9.26789e-02,-7.76313e-01,-2.52784e-01,1.50840e-01,-8.04458e-01,3.92389e-01,-8.76385e-01,-1.50988e-01,8.01952e-02,-4.42281e-01,-4.13573e-01,-5.45490e-03,6.37008e-01,1.06520e-01,-1.15980e-01,-9.03769e-02,-7.19357e-02,6.08391e-01,2.83316e-01,-2.84017e+00,-4.97118e-01,2.40383e-02,2.66376e-01,1.92266e-01,-1.48110e-01,-3.37087e-01,-2.23545e-01,4.40742e-02,-2.95135e-01,5.73856e-01,
5.47281e-01,-7.52219e-01,2.53728e-01,-3.14132e-01,4.24356e-01,2.89824e-01,-6.24901e-01,-4.68628e-01,-1.37434e+00,1.37270e-01,-9.43676e-01,-2.68095e-01,3.88388e-01,-1.36189e-01,-5.88207e-01,4.34170e-01,-4.14210e-01,-8.01720e-01,4.27170e-01,1.29716e+00,4.00072e-01,-3.41147e-01,7.49331e-01,3.47210e-01,-3.37957e-01,2.62697e-02,4.54415e-01,-2.79400e-01,-3.22666e-01,1.54676e-01,
-1.77035e-01,-2.18366e-01,-2.29616e-01,2.72881e-01,-1.27454e-01,-1.05806e-01,-9.33366e-02,-1.46240e-01,2.37495e-01,1.15883e-01,2.87766e-01,-1.89590e-01,2.25137e-01,-1.87372e-01,-3.51724e-01,-9.30897e-02,1.91701e-02,-2.20862e-01,-1.70564e-01,-1.23605e-01,4.11613e-02,-1.55351e-01,2.54198e-01,-1.81216e-01,1.03644e-01,2.28547e-01,-3.07500e-01,9.79528e-02,-1.65388e-01,-1.52637e-01,
9.98403e-02,1.23317e-01,1.00469e-02,1.88578e-01,1.65373e-01,4.78568e-01,-9.66209e-02,5.83616e-01,2.28296e-01,2.45334e-01,4.06710e-01,-1.91062e-01,-4.74976e-01,-2.71082e-01,3.94824e-01,-1.84179e-01,1.79081e-01,1.57356e-01,-3.06155e-01,9.81072e-02,-1.62260e-01,-4.83151e-02,1.44506e-01,4.22416e-02,4.84716e-01,-1.59196e-01,-4.71874e-01,-8.14478e-02,-5.04008e-02,-9.38049e-02,
-4.50261e-01,-5.30850e-01,3.51297e-01,5.23984e-02,-4.00271e-01,4.92587e-01,-4.30874e-02,-3.09995e-01,-4.40837e-01,1.16737e-01,2.67104e-01,-9.00685e-02,2.56917e-01,1.12119e-01,-2.18573e-01,7.42148e-01,-2.95654e-01,1.03665e-01,2.69253e-01,-4.11266e-02,1.84684e-02,-2.93293e-01,3.82568e-02,-1.63883e-01,-4.50034e-01,-1.34768e+00,5.35657e-01,-1.95866e-01,4.79508e-01,-1.90699e-01,
2.32689e-01,4.23584e-01,2.69449e-01,-6.04295e-01,-2.21821e-01,1.22938e-01,2.74461e-01,-2.79748e-01,-2.55206e-01,4.18684e-01,2.45860e-01,8.48059e-02,5.23577e-01,3.37130e-01,6.04057e-04,4.11461e-01,-2.81192e-01,1.86748e-02,-5.72801e-02,-1.40835e+00,4.62812e-02,-1.58556e-02,3.03428e-01,-5.47566e-01,-2.62300e-01,3.61592e-01,-3.72652e-02,-2.02613e-01,2.95011e-01,6.94009e-01,
2.76038e-02,4.05579e-02,3.29459e-01,1.94944e-01,8.11494e-01,-3.96606e-01,-6.05669e-01,1.08177e-02,3.53066e-02,-4.68418e-01,3.68026e-01,1.46611e-01,4.71368e-01,2.12970e-01,3.70112e-01,2.15640e-01,1.41155e-01,2.48356e-01,2.81055e-01,-4.34685e-01,-1.38345e-01,-4.76458e-02,3.93692e-01,-1.62464e-01,-2.29503e-02,-3.87165e-01,-5.95981e-02,4.07466e-01,-2.38355e-01,1.81673e-01,
1.05225e-01,1.67984e-01,1.67437e-01,1.86821e-01,5.63468e-01,1.17851e-01,-5.51212e-01,-1.69395e-02,1.06756e-01,-1.14555e-01,4.53675e-01,1.05509e-02,-4.89626e-01,7.67801e-02,2.36314e-01,-6.06861e-02,-2.28532e-01,7.63734e-02,2.29820e-01,-5.39373e-01,9.33188e-02,-8.33600e-02,2.70733e-01,-1.60628e-01,1.50838e-01,-6.52520e-01,-1.89456e-01,2.63953e-01,-3.99780e-01,-4.24874e-03,
-2.03248e-01,-2.16054e-01,-7.60300e-01,1.25505e-01,2.08857e-01,-1.49882e-01,-4.50283e-01,7.49837e-03,-6.21784e-01,-2.74014e-01,5.54941e-01,4.33214e-01,1.08593e-01,3.02362e-01,-1.77083e-01,1.08540e-01,-7.91443e-02,-2.24579e-01,-1.73739e-02,8.10558e-01,-4.87468e-02,4.64041e-02,1.39204e-01,4.46796e-02,-1.49061e-01,-2.53919e-01,2.99806e-01,-1.52547e-01,-6.87569e-02,2.63210e-01,
3.49396e-01,-3.13721e-01,-2.66903e-01,1.85731e-01,1.33897e-02,-2.69188e-01,-2.12451e-01,-2.89950e-01,-3.06899e-01,2.56372e-02,-9.60167e-02,-2.12482e-01,2.48553e-01,-3.58102e-01,3.81951e-01,9.64274e-02,1.27417e-01,-9.92456e-02,5.63101e-01,-6.98096e-01,2.06409e-02,-3.67830e-01,-6.03323e-01,-2.41055e-01,-4.87875e-01,-6.26058e-01,4.10099e-01,1.32615e-01,2.94658e-01,1.96770e-02,
-8.10055e-02,-2.04283e-01,-6.46190e-02,5.75571e-01,1.92218e-01,-7.94767e-02,1.48893e-02,3.24024e-01,-5.23811e-01,-1.65174e-01,-7.01832e-02,7.61351e-01,-3.27477e-01,-6.04415e-01,7.22345e-02,1.51121e-01,2.51206e-01,-5.08263e-02,2.04444e-01,-9.97738e-01,5.52561e-02,-7.88038e-02,1.37021e-01,-1.24276e-01,-2.17567e-01,-1.68684e-01,1.49566e-01,-1.00293e-01,-2.92038e-01,4.98459e-02,
2.09187e-01,2.01896e-01,-1.30491e-01,-4.52789e-01,-1.40149e-01,-1.96882e-01,8.73930e-01,2.17129e-02,4.05558e-01,4.24628e-02,-2.90081e-01,1.95792e-02,2.28086e-01,-1.37846e-01,8.46379e-02,-1.02335e-01,1.93085e-02,9.14974e-02,-4.30257e-01,-9.60711e-01,4.25919e-01,-1.72931e-02,3.38661e-01,9.99160e-02,1.69124e-01,7.43195e-01,8.85814e-02,2.30991e-01,-2.32581e-02,-7.49750e-02,
1.02770e-01,2.75317e-01,2.63779e-01,-4.10118e-01,-3.06406e-01,-3.21360e-01,-4.92787e-01,-2.00278e-02,2.75798e-01,6.20006e-02,-1.98111e-01,2.97205e-02,-2.92925e-01,9.18045e-03,-6.05578e-02,-2.83545e-01,-1.18637e-01,-9.64285e-02,-5.18609e-01,8.23102e-01,-2.93072e-01,3.07790e-01,5.51247e-02,-8.88357e-02,-1.70263e-01,4.60605e-01,9.77508e-02,8.97151e-02,6.61902e-01,1.71611e-01,
5.12526e-01,-2.80679e-01,-5.75700e-01,-3.44723e-01,1.41467e-01,2.61955e-01,-4.27262e-01,-6.66166e-01,-1.31222e+00,-3.48937e-03,-9.48185e-02,-6.97072e-02,-1.14469e-01,-5.29264e-01,-5.54718e-01,-2.56207e-01,1.35648e-01,-6.18866e-02,3.04024e-01,-1.86011e+00,-2.81684e-01,3.13886e-01,1.56724e-01,-9.55734e-02,2.41998e-02,-3.98493e-01,4.61638e-01,-6.36492e-01,9.69079e-02,-1.80586e-01,
1.05811e-02,4.44678e-02,1.41760e-01,8.91994e-02,-2.15058e-02,5.68033e-01,-2.20124e-01,1.46536e-01,6.21881e-02,3.48319e-01,5.01963e-01,-4.15304e-01,7.53511e-02,1.73285e-01,6.94566e-02,2.16864e-01,-1.88983e-01,-3.10145e-01,-1.52849e-01,4.23705e-01,2.37910e-01,7.28235e-02,5.45749e-01,-9.75681e-02,3.28516e-01,-1.90997e-01,-3.35236e-01,2.70020e-01,1.88802e-01,2.66313e-01,
1.64362e-01,4.16539e-01,3.96172e-01,3.85138e-01,1.06338e+00,-1.95400e-01,6.10100e-02,7.62149e-02,1.21026e+00,-5.77052e-01,4.65850e-01,-1.79518e-02,1.78406e-01,5.26450e-01,5.91085e-01,-2.06858e-01,1.73742e-01,1.84442e-02,-7.06928e-02,1.04838e+00,3.38080e-01,-5.84579e-01,-2.45547e-01,1.44809e-02,7.47883e-01,-1.92070e-01,-4.11963e-01,3.72031e-01,-7.76790e-01,3.47604e-01,
-4.08902e-01,-8.17469e-02,1.56842e-01,8.20992e-01,-4.47094e-03,-3.53816e-01,3.83509e-01,9.40501e-02,1.28532e+00,-1.19272e+00,3.15471e-01,-3.51177e-01,-2.33024e-02,-1.99466e-01,8.57263e-02,1.87230e-01,3.53020e-01,-5.40299e-01,-3.18373e-01,-2.46902e-01,9.89760e-02,-7.93196e-02,1.04587e-01,-1.88538e-01,-7.45754e+00,2.45457e-01,-2.00191e-01,5.13300e-01,-4.17785e-01,1.51848e-01,
-9.24214e-02,1.57388e-01,2.61543e-02,-2.13260e-01,-9.63691e-01,4.36025e-01,-8.94689e-01,-1.13508e-01,-9.04851e-01,9.63674e-01,-1.30155e-01,1.16395e-01,-6.79375e-03,6.58010e-02,-1.35268e-01,1.01418e-01,-1.37683e-02,1.41227e-01,-2.42640e-01,4.25266e-01,4.36411e-02,3.65122e-01,3.04696e-01,-2.36985e-01,-5.31152e-01,8.32198e-01,2.22817e-01,-5.76368e-01,4.33260e-01,2.89286e-01,
3.75823e-02,
3.19364e-01,
-1.30260e-01,
3.30386e-01,
2.60311e-01,
-6.66449e-02,
-1.12789e-01,
3.90043e-03,
2.23623e-01,
6.55023e-02,
-1.00624e-01,
3.85391e-02,
5.72314e-02,
-1.19186e-01,
-2.15834e-01,
6.85681e-02,
-1.22243e-01,
-3.09481e-01,
4.83808e-02,
3.13932e-01,
4.50514e-01,
2.18870e-01,
2.34091e-01,
-4.33850e-02,
1.68059e-01,
2.87823e-01,
-3.21964e-01,
-2.87102e-01,
3.11958e-01,
-2.31134e-02,
1.05288e-01,7.31705e-02,-3.15487e-01,4.58595e-01,-1.43653e-01,3.35395e-01,-2.36634e-01,1.28986e-01,9.65764e-04,7.36408e-02,5.22206e-02,6.61135e-01,-1.39043e-01,-3.48615e-01,-1.73564e-01,2.86395e-02,-1.45892e-01,1.25861e-01,1.36345e-01,2.55891e-01,1.61880e-02,5.18994e-02,1.67997e-02,8.28644e-02,1.39412e-01,-1.87425e-01,-2.12741e-01,-2.63803e-01,-8.78796e-01,9.38359e-02,
9.06275e-02,1.81053e-01,2.85952e-01,5.20355e-02,1.06476e-01,-1.54393e-01,-7.56262e-02,-1.16144e-01,-2.05821e-01,8.46780e-01,5.56777e-02,1.21969e-01,-6.34384e-03,2.23946e-01,-1.44690e-01,3.86628e-01,4.30754e-01,9.74654e-02,8.00518e-02,3.64618e-02,-1.85327e-02,-1.33327e-01,-1.35622e-01,1.90347e-01,-2.30275e-01,4.37767e-01,1.63045e-01,-5.53026e-02,3.16949e-01,2.36310e-01,
-1.26263e-01,-1.53681e-01,1.16696e-01,1.19476e-01,2.12358e-01,9.90679e-01,-3.01724e-01,4.83265e-01,-1.32969e-01,8.60992e-01,-6.72554e-01,1.42722e+00,-3.14837e-01,-3.15972e+00,-7.88466e-02,2.72861e-01,-5.11578e-01,-4.87330e-01,-5.08572e-02,2.54622e-01,3.50830e-01,-9.55517e-02,-1.60341e-01,1.23116e-02,1.64990e-01,-4.28153e-01,3.30398e-02,-1.28511e+00,6.33898e-02,-2.15798e-01,
5.20163e-02,-2.02088e-01,1.42546e-01,1.40664e-01,4.51118e-01,-4.48415e-01,4.91331e-02,-1.60917e-02,-4.60662e-01,3.79887e-01,2.04904e-01,-1.68455e-01,4.20546e-02,6.67833e-02,-1.63790e-01,2.45826e-01,2.98022e-01,-2.93512e-01,1.34198e-01,1.11480e-01,4.52241e-02,-1.88024e-01,1.67550e-01,2.13285e-01,-2.09577e-02,1.01528e-01,-4.54268e-02,-9.57717e-02,-3.97376e-01,5.83434e-02,
1.70453e-01,-1.90421e-01,-2.49947e-01,-1.00283e-01,-2.91513e-01,-2.67879e-01,2.04924e-01,-1.10975e-01,7.14015e-02,-1.74751e-01,1.88082e-01,4.13464e-02,1.24528e-01,-1.93888e-01,-1.84553e-01,-6.07826e-02,-2.31524e-01,-3.40442e-01,-7.58937e-02,-3.10645e-01,1.92773e-01,-1.37980e-01,-7.13884e-02,-2.38295e-01,-3.18754e-01,2.99983e-01,2.76980e-01,1.81125e-02,3.85155e-02,-1.07557e-01,
-1.80614e-01,3.34716e-02,1.45693e-01,-2.14251e-02,1.80367e-01,6.41649e-02,2.31923e-01,-1.29138e-01,9.55823e-03,2.83980e-01,1.85801e-01,-5.70568e-02,6.22391e-02,1.44472e-01,3.35585e-02,-3.00857e-01,-6.35410e-02,-3.24072e-01,-1.58801e-01,2.56071e-01,4.22912e-03,1.11315e-01,-4.95790e-03,-3.01085e-02,-2.70444e-01,-1.02391e-03,1.72954e-01,9.46629e-02,2.21819e-01,-2.23912e-01,
-1.27147e-02,4.10284e-01,-1.87634e-01,1.40327e-01,6.75822e-02,7.65701e-02,-2.38364e-01,-1.78845e-01,1.01325e+00,3.27513e-01,-1.78764e-01,9.49506e-01,7.19951e-02,-4.18252e-01,-1.72506e-01,-2.53166e-01,3.93168e-01,4.49116e-01,-2.13641e-01,-7.73511e-02,-3.25486e-01,-4.26099e-01,6.77704e-02,-1.87780e-01,1.96378e-01,-2.06648e-01,-3.04489e-01,3.74659e-01,3.88738e-01,2.35936e-01,
-7.44369e-02,-6.19880e-03,3.01614e-02,7.10617e-02,7.57765e-02,-2.96882e-01,-1.18823e-01,2.05058e-02,1.86885e-01,8.26439e-02,2.01293e-02,6.57248e-02,2.10912e-01,1.35534e-02,2.38322e-01,-1.19685e-01,7.10962e-02,-2.35612e-01,-1.93147e-01,-2.88405e-01,-2.57267e-01,1.07092e-01,-1.14208e-01,-1.86465e-01,6.07812e-02,6.10690e-02,-1.02168e-02,-8.98893e-02,3.33287e-04,-1.81307e-01,
-2.14973e-01,-4.70684e-02,-2.78238e-01,2.67120e-01,1.10920e-01,7.78233e-02,1.13291e-01,2.16973e-01,-2.03170e-01,-3.10635e-01,-2.39937e-02,7.20918e-02,-2.28652e-02,-1.84830e-01,9.60690e-02,-1.18710e-01,-2.67209e-01,-1.86413e-01,5.03585e-02,-1.69919e-01,7.62463e-02,1.43531e-01,-2.19794e-01,-2.33363e-01,-3.43216e-01,-1.56748e-01,-1.86485e-01,-1.67022e-01,9.29348e-02,9.00067e-02,
-3.75991e-01,2.99989e-01,1.68976e-01,1.82241e-01,-2.95736e-01,-7.19855e-01,6.45949e-02,-8.55845e-02,2.21554e-01,7.35499e-01,2.12716e-01,-2.68696e-01,-2.10427e-02,2.02800e-01,3.15590e-01,4.47117e-01,5.80359e-01,2.43369e-01,-2.08430e-01,-5.32602e-02,-3.75292e-01,-1.70949e-01,-2.99320e-01,5.38444e-02,-1.11402e-01,3.68003e-01,-2.40377e-02,1.84005e-01,-6.17120e-02,4.94322e-01,
-3.83374e-01,1.23439e-01,-3.17373e-01,1.23593e-01,-3.74051e-01,-2.73474e-01,2.87807e-02,-6.27885e-02,-7.75044e-02,3.53846e-01,3.38582e-01,2.41777e-01,-2.67200e-01,1.39835e-01,2.60642e-01,4.33844e-01,4.60639e-01,1.91580e-02,-4.45427e-02,4.15859e-03,1.37241e-01,4.29066e-01,3.32623e-01,3.18170e-01,2.25616e-01,-2.11614e-02,-1.83815e-04,6.88609e-01,-6.75916e-01,1.38821e-01,
-6.53092e-01,-1.96318e-01,-7.44349e-02,-5.80062e-02,4.61565e-01,6.28065e-02,5.74359e-01,-3.79572e-01,3.64601e-02,-2.31026e-01,-3.66568e-01,-1.08043e+00,-6.91339e-02,-2.20262e+00,1.45288e-01,-3.13589e-01,-6.42996e-01,-9.09015e-02,3.97408e-01,8.74099e-02,3.52243e-01,2.71201e-01,-5.33885e-02,-1.65198e-01,2.64180e-01,-2.53528e-01,-1.93261e-01,-1.07120e-01,1.18722e-02,-6.80122e-02,
7.58836e-02,2.63831e-01,-2.00295e-01,5.06660e-02,1.19045e-01,1.97575e-01,-4.44970e-01,-5.22417e-01,-3.37232e-01,2.88579e-02,-4.62769e-02,6.14003e-03,9.25615e-01,-1.27307e+00,-3.23745e-01,-1.03564e-01,-6.86132e-02,-1.97337e-01,-5.05160e-01,-3.10091e-01,3.05685e-01,1.57487e-01,5.20291e-01,-3.11636e-02,3.95919e-01,7.13184e-01,-3.52414e-01,1.73394e-02,4.22610e-01,2.33823e-01,
-6.12913e-02,4.61960e-02,-1.34193e-02,-2.43769e-01,3.60384e-02,-8.06213e-02,-2.15365e-01,1.88455e-02,1.78049e-01,-2.81469e-02,-1.07659e-01,2.82230e-01,-2.70463e-01,-2.53270e-01,2.73710e-01,-2.85816e-01,-9.79061e-02,1.73454e-01,-2.21969e-01,2.26343e-01,-2.98823e-01,-1.50891e-01,-9.57629e-02,-2.04755e-01,-1.58226e-01,1.67248e-01,-8.60681e-02,7.53112e-03,7.92535e-02,4.90865e-02,
-1.88192e-01,1.03724e-01,2.86836e-01,-3.72940e-01,3.54235e-01,7.80913e-02,1.44064e-01,-1.86890e-01,-3.26030e-01,3.58016e-01,-5.16072e-01,1.33791e-02,-7.35976e-01,-4.10679e-02,-1.13589e-01,-1.91694e-02,-3.78494e-01,-8.57866e-02,-4.44466e-01,2.59402e-01,3.34215e-01,4.03800e-01,-4.11993e-02,1.04491e-01,-4.89739e-01,2.97572e-01,7.22663e-02,-1.13418e+00,-5.50000e-01,1.92340e-01,
4.47547e-02,3.66942e-01,8.68189e-02,2.74240e-01,-5.48760e-02,9.39855e-02,-1.96164e-01,1.25103e-02,6.58283e-02,6.23858e-01,-5.73068e-01,-3.95656e-01,2.46878e-01,-1.17042e-01,2.44110e-02,4.56171e-01,-6.62075e-01,-2.49866e-01,5.73468e-02,-4.05663e-01,-7.59026e-02,-2.89775e-01,-2.32944e-01,3.53255e-01,5.19269e-01,-2.02663e-01,8.85100e-02,1.17190e-01,2.27445e-02,-7.45106e-02,
-2.17799e-01,-1.58862e-01,4.10047e-02,-3.25832e-01,-5.10776e-02,-9.04355e-02,5.92414e-03,-1.07959e-01,-5.90400e-02,-1.48736e-01,1.78058e-01,-6.36821e-02,2.38488e-01,-2.13436e-01,-8.91307e-03,-4.07851e-02,-2.18135e-01,-2.59805e-01,2.62214e-01,-1.38543e-01,8.78481e-02,2.86160e-01,8.61770e-02,-2.03965e-01,-2.51059e-01,1.49084e-01,3.15637e-01,-2.64982e-01,-2.01781e-01,-3.04318e-01,
-8.49605e-02,5.39241e-01,-2.90374e-01,2.04608e-01,1.61576e-01,5.89038e-01,-9.90767e-02,-5.37878e-02,-7.94490e-02,-1.78440e-01,-2.40009e-01,9.00346e-02,-2.88921e-02,-7.02043e-01,-2.37957e-02,1.55718e-01,-1.08504e+00,-4.51909e-02,-1.90893e-01,2.31696e-02,5.61543e-01,2.51533e-01,1.83810e-01,-5.60147e-02,1.46257e-01,6.59554e-01,-8.14924e-01,-1.16950e-01,6.71323e-01,5.74389e-01,
-2.64091e-01,-1.94813e-01,1.28220e-01,2.60767e-01,5.47462e-02,-4.48080e-01,4.09373e-01,1.14084e-01,2.32781e-01,-1.10305e-01,6.29964e-01,-8.37624e-02,2.41064e-01,1.06325e+00,-1.89036e-01,-5.85113e-02,7.52101e-01,5.01065e-01,-3.00021e-01,-1.37521e-01,6.69917e-02,-5.08332e-01,1.67278e-01,1.32473e-01,2.54224e-01,-2.93822e-02,-2.43835e-01,1.02671e+00,-2.02414e-01,9.14894e-02,
1.70359e-01,3.25951e-01,-1.29077e-02,2.02863e-01,-2.51036e-01,-4.13372e-01,-3.30533e-01,1.16675e-01,3.40094e-01,-3.19084e-01,-2.65421e-02,-1.92178e-01,1.69345e-01,2.00426e-01,-2.00236e-02,1.63970e-01,1.29815e-01,8.61674e-01,-1.14770e-02,-8.18165e-02,6.41548e-02,-3.00785e-01,-2.10845e-01,3.28445e-01,2.29720e-01,3.25662e-01,-2.77980e-02,-8.73774e-02,3.49875e-02,1.71262e-01,
-3.80234e-01,1.03279e-01,-2.03109e-01,1.52783e-01,4.28429e-02,3.30976e-01,2.00583e-01,1.65160e-01,5.61579e-01,5.47019e-01,1.32693e-01,7.62203e-01,-2.91594e-03,4.81728e-01,8.39227e-02,1.47079e-01,5.40428e-01,-1.66388e-01,-1.53049e-01,-3.53638e-02,6.92050e-02,4.21234e-01,4.45486e-01,3.73685e-01,-5.00962e-02,-3.08497e-01,8.96380e-02,1.95857e-01,-5.89468e-01,8.89634e-02,
-1.27551e-01,-8.00214e-02,2.09815e-01,-1.98731e-01,4.65278e-01,-2.93519e-02,1.49853e-01,-3.41834e-01,1.61299e-01,-2.69417e-01,-1.97313e-01,-4.59650e-01,1.44345e-01,1.38001e-01,-2.64503e-01,-2.49740e-01,4.81119e-01,5.89660e-01,-3.54175e-01,5.33727e-01,-3.21642e-01,-2.12894e-01,-4.39737e-01,2.51484e-01,1.42403e-01,-5.91780e-01,5.23134e-01,-1.14055e-02,1.11573e-01,-7.18091e-01,
-1.42263e-02,-3.17670e-01,3.01832e-01,4.29958e-02,-4.44479e-02,2.45476e-01,-8.31173e-01,-1.77369e-01,-5.38703e-01,2.76417e-01,3.91233e-01,-7.83528e-02,5.76157e-01,-8.66445e-02,1.23862e-01,-2.59166e-01,-1.46803e-01,-1.21876e-01,-7.65965e-03,-2.59340e-01,3.52192e-01,-1.86974e-03,-5.34910e-02,-1.16357e-01,1.65360e-02,7.77189e-02,1.96611e-01,-2.04216e-01,-8.13435e-01,1.69403e-01,
5.26849e-01,-1.08755e-01,-3.68513e-01,1.18225e-01,4.63339e-02,-5.79215e-01,-2.67914e-01,-4.46135e-01,4.38064e-01,3.23503e-01,-2.54197e-01,-5.54090e-01,-2.93950e-01,-8.14208e-01,1.89121e-01,-2.61189e-02,-6.51549e-01,1.03472e-01,2.59115e-01,4.17313e-01,3.80751e-01,2.83502e-01,1.49139e-01,-1.48140e-01,-2.00590e-01,-3.27990e-01,-4.96621e-01,-2.32879e-01,3.65463e-01,-1.70452e-01,
-7.44990e-02,1.02198e-01,9.91563e-02,-1.02190e-01,-2.27596e-01,1.96382e-01,-1.08189e-01,-1.96673e-01,1.52314e-01,1.28326e-01,8.72502e-02,-1.23572e-01,4.07349e-02,2.73561e-01,-2.78792e-01,-2.60107e-01,-5.98882e-02,2.38343e-01,-1.31343e-01,4.68699e-02,1.14260e-01,3.00340e-01,-1.04839e-01,2.19529e-01,-2.45665e-01,6.75280e-02,-1.85546e-01,-1.18905e-01,1.34558e-01,-3.22088e-01,
-1.47187e-01,3.21673e-01,-1.26181e-01,4.77161e-01,4.65467e-01,5.90470e-01,-6.83919e-01,1.01919e-01,9.01130e-02,5.32012e-01,-1.54814e+00,2.07712e-01,-3.36083e-01,-2.95198e+00,1.03265e-01,-4.71927e-01,-4.29190e-01,-1.79935e-01,-1.52545e-01,4.70103e-01,6.37675e-02,-4.01836e-01,-1.90668e-01,-3.24542e-01,8.25114e-02,-7.16856e-01,-2.53372e-01,-6.62180e-01,7.53813e-02,-4.28332e-01,
-2.56956e-01,3.10694e-01,1.10754e-01,-3.60879e-01,-1.94176e-01,-1.15253e-01,7.63132e-01,-2.78449e-02,4.11942e-01,-9.01880e-01,5.75117e-01,1.48540e-01,2.64290e-01,2.87924e-01,2.25628e-01,-6.47604e-01,7.00101e-01,6.81727e-01,-6.80973e-02,-7.29465e-02,-3.05469e-01,-4.33382e-01,1.90391e-01,1.35661e-01,7.20457e-02,-1.26353e-01,-1.86036e-01,7.63080e-01,-4.26165e-01,3.71252e-01,
1.22348e-01,-1.44749e-02,3.07885e-01,-9.37936e-02,-2.50893e-01,-4.57108e-01,2.15564e-01,-5.85555e-02,-4.52519e-02,-2.94726e-01,1.01412e-01,-1.46208e-01,-3.47775e-02,7.78909e-01,8.60353e-02,4.75174e-02,3.89456e-01,-2.11167e-01,-4.07397e-02,1.46855e-02,3.20446e-01,6.61767e-02,-9.60246e-02,-1.20089e-01,-4.82657e-01,3.32277e-02,3.73614e-01,5.09191e-01,7.90478e-01,-9.33221e-02,
-2.80940e-01,6.50850e-02,1.70436e-01,2.16656e-02,-2.78072e-01,8.06623e-01,2.10469e-01,-8.87673e-02,2.35869e-01,-2.72516e-01,2.35998e-01,-5.82771e-01,2.06839e-01,-3.68663e-02,-2.20758e-01,1.93608e-01,2.14894e-01,1.07152e-01,-2.39626e-01,-1.79767e-01,-2.00322e-01,-2.23866e-01,-8.04679e-02,1.45895e-01,2.71832e-01,6.60864e-02,-1.00271e-01,4.03992e-01,-5.64005e-02,2.09038e-03,
3.87249e-01,5.58594e-03,-1.45129e-01,1.40848e-02,2.49799e-01,-3.13294e-01,-2.56029e-01,1.61318e-01,1.80267e-02,-1.74917e-01,-1.70092e-01,2.47458e-01,1.08386e-01,9.35214e-02,-9.44380e-02,-1.15779e-01,-1.32376e-01,1.94652e-01,2.21914e-01,3.48034e-02,4.38633e-01,1.41692e-01,3.34756e-01,4.23917e-01,1.59543e-01,-1.07437e-01,1.13820e-01,-2.50825e-01,-1.35253e-01,-2.54596e-01,
9.43310e-02,
-1.42409e-01,
-1.97202e-01,
-1.83084e-02,
-3.57373e-01,
-3.85625e-01,
1.14519e-01,
2.12386e-02,
-2.35524e-01,
1.50793e-02,
-2.16805e-01,
-2.72730e-02,
-7.30793e-02,
6.80884e-02,
2.20295e-01,
-1.50090e-02,
-2.06425e-01,
-4.53918e-02,
-1.92643e-02,
-2.06299e-01,
4.30601e-02,
2.02456e-01,
2.83475e-01,
-1.39613e-01,
-3.14860e-01,
-1.38644e-01,
-7.37769e-02,
2.41735e-01,
-7.43913e-02,
1.25867e-01,
2.26769e-02,9.99326e-02,-4.75521e-01,1.41484e-02,4.99631e-02,1.01138e-01,2.60120e-01,2.62263e-02,1.96325e-02,-4.47433e-01,2.12879e-01,-7.73570e-01,3.34739e-01,5.48087e-02,-8.81442e-03,3.56224e-01,-3.01556e-03,6.66664e-02,2.01079e-01,1.21246e-01,3.87757e-02,6.71277e-01,2.24658e-01,-5.39902e-01,-2.04411e-01,6.45764e-01,-2.15643e-01,2.34122e-01,-1.37516e-02,-4.49411e-01,
2.69224e-01,2.20197e-02,1.44834e-01,1.03524e-02,2.50865e-01,1.24249e-01,-7.51070e-02,-1.17728e-01,-1.85152e-01,-2.65828e-01,5.16275e-02,1.29937e-01,2.13885e-01,-2.08585e-01,5.78175e-01,-6.65312e-02,-1.55794e-01,-2.87894e-01,3.38734e-01,3.44430e-01,2.60196e-01,1.64097e-01,-7.70882e-02,-8.33602e-02,-2.78080e-02,-1.35373e-01,-3.38849e-01,-1.88246e-01,1.55163e-01,-1.12230e-01,
-1.09800e-01,-3.14387e-01,-3.97358e-01,-4.22428e-02,1.16741e-02,1.81976e-01,3.48279e-01,2.78725e-01,-2.48003e-01,-7.22703e-02,4.40726e-01,-8.45344e-01,5.19744e-01,-1.75057e-01,-2.90593e-02,3.23461e-01,2.04447e-01,-1.74429e-02,3.92046e-01,1.26103e-01,-2.95609e-01,8.69946e-01,3.71077e-01,-6.73580e-01,5.85961e-03,1.09214e+00,-4.88137e-01,2.58636e-01,-2.04505e-01,-2.29365e-01,
4.38842e-01,1.74640e-01,-1.97901e-01,-1.19389e-01,-2.41716e-01,1.04707e-01,-5.50698e-01,-1.86217e-01,9.38224e-02,1.93617e-01,-2.09347e-01,2.46607e-01,1.17720e-01,1.96692e-01,-8.62297e-02,-8.48835e-02,1.28141e-01,-4.04149e-02,-1.91268e-01,-4.56691e-01,1.80572e-01,-4.04766e-01,-8.86549e-01,1.62137e-01,-6.25056e-02,9.04961e-01,2.82592e-01,-2.22300e-01,8.61447e-03,2.19746e-02,
-1.27077e-01,-2.83398e-02,7.96051e-01,5.53021e-01,1.55273e-01,-2.02080e-01,4.71182e-01,-2.95769e-01,-1.26050e-01,-2.35162e-02,1.90367e-01,1.87189e-01,-6.59871e-01,-1.80381e-02,-8.23446e-01,2.63188e-02,1.87996e-01,5.35965e-01,-1.45784e-01,-2.80451e-01,-3.48150e-01,-1.40665e-01,-1.49317e-02,2.70452e-01,3.04732e-01,7.22008e-01,3.09896e-01,-1.68142e-01,-2.45388e-01,1.55148e-01,
-1.50137e-01,8.19916e-02,-1.76994e-01,1.73452e-01,-2.79797e-01,-2.48190e-02,1.46901e-01,-3.00219e-01,1.13696e-01,-1.60959e-01,8.72976e-02,-3.01127e-01,-5.08603e-03,-9.42198e-02,2.43494e-01,-1.13567e-01,-5.09591e-02,-1.19950e-01,-1.37102e-01,2.05237e-01,-4.74377e-02,-1.51714e-01,-6.01224e-02,-2.98825e-01,-2.86205e-01,1.85832e-03,-3.10762e-01,2.67272e-02,4.50542e-02,1.08029e-01,
-3.37505e-01,-7.61226e-03,-2.16796e-01,1.82333e-01,-2.85371e-01,-1.75922e-01,-2.65687e-01,1.82290e-01,-3.10092e-01,1.83997e-01,-1.05190e-01,1.40060e-01,1.03730e-01,2.43558e-01,5.65635e-02,-6.93108e-02,2.53158e-01,-2.58890e-01,-2.56138e-01,-1.69497e-01,1.56962e-01,-8.65359e-02,2.25805e-02,5.57060e-02,-3.25131e-02,-1.35489e-01,-1.41983e-01,-2.46745e-01,1.47597e-01,-1.60564e-01,
8.05861e-02,1.35133e-01,-1.58609e-01,-8.17645e-02,-3.64578e-02,-1.38553e-01,-4.29027e-02,8.04700e-02,8.09490e-03,-1.10075e-01,-4.44639e-02,2.72680e-03,-9.25720e-02,1.32385e-01,-7.37104e-02,-1.17026e-01,1.30447e-01,5.30847e-02,-7.45856e-02,-1.50395e-02,5.15567e-02,-7.51911e-02,3.03998e-02,1.33098e-01,-7.77705e-03,2.86675e-01,7.29720e-02,-3.77634e-02,1.78589e-01,-1.45564e-01,
7.22498e-02,-1.54100e-01,-2.61535e-01,1.29139e-01,-2.68358e-01,1.34531e-01,4.13028e-01,2.00541e-01,-6.46119e-02,-3.31525e+00,1.18912e-01,6.04923e-01,-2.79363e-01,-7.22102e-02,-6.52773e-02,-8.33527e-01,2.45682e-01,1.38581e-02,4.58484e-01,4.76282e-01,-8.14434e-02,-1.74269e-01,1.41353e-01,7.26202e-02,1.94938e-01,-4.92434e-01,-9.63642e-01,-4.11686e-01,1.70731e-01,-2.04263e-01,
-2.66733e-01,-6.48782e-02,2.73248e-01,-1.01263e-01,2.41573e-02,-4.86805e-02,-2.58574e-01,2.75576e-01,1.47042e-01,1.80824e-01,-5.69240e-02,-8.01868e-02,1.45192e-01,2.62444e-01,-1.16885e-01,1.97997e-01,-1.39010e-01,3.38936e-02,-1.50895e-01,-2.86004e-01,-1.45358e-02,-1.04381e-01,1.85783e-01,2.13443e-01,-1.95524e-02,1.39170e-01,-2.20144e-01,-9.99809e-02,1.56343e-01,-1.06138e-02,
-2.81737e-01,-4.04765e-01,-2.12751e-01,5.94841e-02,-1.30248e-01,4.58036e-02,-1.83225e-01,-4.22493e-02,2.70835e-01,2.09407e-01,1.87260e-01,-4.30703e-01,5.06722e-01,2.63439e-01,2.59811e-01,5.27550e-02,-3.03871e-01,-3.75371e-01,3.67565e-01,4.76913e-01,-1.99867e-01,2.87476e-01,2.26606e-01,-2.48915e-01,5.29528e-02,-2.56842e-01,-5.24218e-01,1.62999e-01,-4.43896e-01,-1.69865e-01,
1.78817e-01,2.29049e-01,1.73448e-01,-3.11861e-02,6.74026e-02,9.03588e-02,9.34751e-02,-2.00156e-01,-8.13689e-02,5.40844e-02,-1.79343e-01,2.79646e-01,-2.85782e-01,1.81304e-01,-1.29021e-01,7.17417e-02,5.40390e-02,2.07427e-01,-1.64228e-01,-4.09793e-01,7.39180e-02,-1.28165e-01,-1.50734e-01,1.31137e-01,3.49170e-02,7.33380e-01,2.87875e-01,-4.06957e-02,2.09067e-01,2.83987e-01,
-9.16553e-04,-1.29505e-01,-7.77415e-01,1.66637e-02,4.51594e-02,2.44046e-01,-1.37877e-01,1.14788e-01,2.25012e-01,1.27533e-01,-1.13875e-01,-4.91467e-01,1.61292e-01,2.61576e-01,-7.72117e-03,-6.30192e-02,-1.59160e-01,7.71311e-03,-8.06462e-02,2.28102e-02,5.17059e-02,1.71973e-01,1.95159e-01,2.74338e-01,2.37667e-01,7.47745e-01,9.16041e-03,2.52760e-01,3.25408e-01,-2.76015e-01,
-1.99269e-01,-1.78847e-01,-1.50690e-01,2.18787e-01,1.58975e-01,1.89405e-01,-3.07138e-02,-2.66206e-01,2.81809e-01,3.05872e-01,8.51910e-02,2.03071e-01,-1.99415e-01,-1.36633e-01,-2.32552e-01,-2.42235e-01,-2.94185e-01,7.66861e-02,-2.49855e-01,-2.20959e-01,1.50286e-01,3.61857e-02,1.72281e-01,1.47302e-01,2.77387e-02,-2.14874e-01,-3.15585e-01,-2.27722e-01,-5.97326e-02,-8.40894e-02,
3.41188e-02,-8.22789e-02,-1.19661e-01,-1.96984e-02,1.87498e-01,-8.53989e-04,-1.14254e-01,-2.64499e-01,3.07471e-02,1.02836e-01,5.56231e-02,-3.41052e-02,1.83823e-01,-1.78010e-01,1.33500e-01,8.68523e-02,1.95861e-01,-9.44998e-02,7.75613e-02,1.03148e-01,-3.62169e-02,8.15022e-02,4.11714e-02,-2.31297e-01,-2.56588e-02,-1.60867e-01,-1.07757e-01,1.58215e-01,-8.50358e-02,2.47105e-01,
-2.32506e-02,-1.08183e-01,-2.17379e-01,-1.24639e-01,-2.58481e-01,-3.60951e-02,-2.14630e-01,7.32258e-02,2.09765e-01,-3.46259e+00,-6.14098e-02,1.60103e-01,1.99455e-01,-1.55651e-02,1.66387e-01,-3.84898e+00,-1.72141e-01,-1.88477e-01,-1.59847e-01,-3.44464e-01,2.71937e-01,-2.81785e-02,-1.84788e-01,2.61924e-01,-2.24729e-01,9.17626e-02,3.16947e-01,-5.92087e-01,-1.58363e-01,5.94409e-02,
-1.07998e-02,-2.23418e-01,-7.15320e-02,-2.17744e-01,-3.74275e-02,-2.87766e-01,-1.17237e-01,-7.13601e-02,-1.53741e-01,-1.38101e-01,-5.28439e-02,7.27387e-02,-1.87432e-01,-9.09082e-02,-1.26988e-01,2.28694e-01,-8.35551e-02,-9.22900e-02,1.19286e-01,-2.14875e-01,1.96679e-01,-3.03791e-01,-1.09738e-01,6.96935e-02,1.26299e-01,-3.09526e-01,8.89649e-02,-2.24879e-01,-1.11712e-01,-2.15013e-01,
3.40747e-01,-1.70398e-01,1.47700e-01,2.20052e-02,-2.74035e-01,-3.47872e-02,1.71881e-01,2.37531e-01,3.10162e-01,9.93807e-02,-2.18685e-01,3.68541e-01,-4.92992e-01,-4.02655e-02,-2.22183e-01,1.19627e-01,4.30177e-02,3.50094e-01,-5.77970e-01,-6.94114e-01,2.04741e-01,-1.66726e-01,-3.11174e-01,1.76580e-01,6.67884e-02,4.37749e-01,8.04756e-01,-1.92178e-01,4.89421e-01,7.87273e-02,
4.58830e-01,-7.49746e-01,-1.72682e+00,-4.35133e-01,-2.47472e-01,-2.93058e-01,-5.81389e-01,3.36288e-02,2.42105e-01,-1.71069e+00,-7.78868e-03,-3.63863e-01,-4.94582e-04,5.05635e-02,-5.22851e-02,7.29273e-02,1.56990e-01,3.59862e-01,-4.30345e-01,-1.18359e+00,2.27124e-01,4.82908e-01,-3.47410e-01,-8.94980e-02,-2.77324e-01,6.12590e-01,7.56535e-01,1.69725e-01,-1.35854e+00,-1.14561e-01,
-9.61681e-02,-1.74620e-01,-6.05538e-01,-3.46944e-01,2.70957e-01,-1.77850e-01,-9.53687e-01,2.38753e-01,-2.89087e-01,-7.00015e+00,-1.56896e-01,5.50969e-01,-3.46696e-01,-1.41901e-01,2.42595e-02,6.95691e-02,-1.60263e-01,2.75491e-01,5.00574e-01,7.45812e-01,-1.06469e-02,-4.68649e-01,3.03967e-01,-2.04611e-02,1.09101e-01,-6.41964e-01,-9.60254e-01,-4.27073e-01,6.05932e-02,-3.60536e-01,
7.77424e-02,6.56248e-02,2.08123e-02,3.27198e-02,-3.53897e-02,4.27734e-02,1.48023e-01,5.91690e-02,2.88440e-02,-1.58607e-03,-2.25609e+00,-1.90132e-01,-5.33518e-01,1.42751e-01,-2.69501e-03,1.59459e-02,-2.00750e-01,3.20492e-01,9.94710e-02,-6.91211e-01,-3.81344e-01,1.20595e-01,3.23967e-01,3.48273e-01,3.14795e-01,3.60662e-01,-1.10679e-01,-2.54126e-01,-4.37288e-02,-3.11166e-01,
-1.73082e-01,-2.18495e-01,-9.85447e-02,-2.50554e-02,1.78137e-01,9.78704e-02,8.50503e-03,1.30544e-01,-2.13371e-01,4.59850e-01,-4.80103e-02,-1.43899e-01,6.89667e-02,-1.35436e-01,9.61851e-02,-8.79939e-02,2.37197e-01,-6.94712e-02,3.18615e-02,-2.60424e-01,-9.37106e-02,-4.92115e-02,-2.90909e-02,2.40642e-02,-1.41217e-01,2.04144e-01,2.30603e-02,-1.19248e-01,3.04007e-02,2.21926e-01,
7.24799e-02,-1.05907e-01,7.36952e-02,-1.39458e-02,1.44869e-01,1.48709e-01,-9.78692e-02,1.15625e-01,-2.63266e-01,-5.76834e-02,1.68761e-01,-8.70461e-02,4.75996e-01,2.67175e-01,6.92154e-01,8.32549e-04,-2.03892e-01,-4.17914e-01,4.59573e-01,3.22811e-01,1.50759e-01,2.40592e-01,-4.82702e-02,-2.66313e-01,-3.00555e-01,-4.80653e-01,-4.45446e-01,-1.71820e-01,-1.06323e-01,6.86561e-02,
1.00703e-01,-2.41044e-01,-3.58862e-01,1.63964e-01,-2.71122e-01,2.79513e-01,-5.21904e-01,3.13746e-01,1.51614e-01,3.14662e-01,-8.56289e-02,-7.76855e-02,-6.73335e-01,2.63149e-01,-3.71425e-01,7.73595e-02,-1.43479e-01,3.20369e-01,-3.22154e-01,-3.06756e-01,3.72120e-01,-3.24265e-01,-3.58225e-01,1.87657e-01,3.59148e-02,3.85580e-01,4.25356e-01,-3.61143e-01,-2.80626e-01,2.79319e-01,
-3.50420e-01,7.45077e-02,1.88925e-01,-3.84239e-01,-1.07094e-01,-2.09269e-01,1.45143e-02,7.64312e-02,1.22809e-01,-2.22805e-01,4.64953e-01,-9.17887e-02,1.80688e-01,2.02637e-01,-3.67692e-01,9.73690e-02,-3.06129e-01,1.37196e-02,1.84326e-01,3.45396e-01,-3.16551e-01,1.72838e-01,4.04009e-01,-1.55204e-01,1.15193e-01,-8.13351e-01,-2.57416e-01,2.27128e-02,-4.49194e-01,-2.80863e-02,
3.52402e-01,-4.21717e-02,3.05908e-01,1.86400e-01,8.74841e-02,-6.27230e-02,-1.22159e-01,2.49660e-01,-3.06300e-02,-8.67862e-02,9.15802e-02,-4.07032e-02,2.57028e-01,2.09037e-01,3.18764e-01,-1.48385e-01,3.10001e-01,-1.12693e-01,-1.73748e-01,7.62946e-02,8.41869e-02,-1.30853e-01,-2.50895e-01,-1.60149e-01,-9.56621e-02,-9.83937e-02,8.57471e-02,2.31790e-01,-1.26746e-02,2.29509e-01,
-1.42175e-02,-1.64293e-01,2.97547e-01,2.63082e-01,2.47405e-01,-2.49860e-02,1.68440e-01,-1.39759e-01,1.45736e-01,1.96107e-01,-1.79736e-01,1.10825e-01,5.89360e-02,2.41031e-01,5.61307e-01,7.45432e-02,2.30643e-01,-2.17032e-01,2.70859e-01,-1.92589e-01,2.20932e-01,7.93635e-02,-3.22123e-01,-1.59293e-02,-3.34659e-02,4.39417e-02,-1.08240e-01,-3.72035e-01,1.90994e-02,5.32588e-02,
1.10289e-01,-3.63932e-01,-4.78731e-01,-1.46261e-01,3.12182e-01,-2.29072e-02,-9.18072e-02,-9.92643e-02,1.55925e-01,-2.12582e-01,-9.22536e-02,2.52884e-02,-2.48877e-01,1.55006e-02,5.70124e-01,-9.66298e-02,-9.01434e-02,6.65837e-02,9.08418e-02,1.79880e-01,-9.79949e-02,-1.70480e-01,3.44257e-02,1.55421e-01,4.26263e-02,2.79212e-01,5.86275e-02,-8.76325e-02,-3.82511e-01,1.68227e-01,
2.17991e-02,-8.56575e-02,6.48997e-02,3.42313e-01,-8.31005e-02,-2.85770e-01,-6.56765e-02,1.44682e-01,-1.65419e-01,1.14900e-01,-2.19010e-01,2.90862e-01,-1.83458e-01,-1.20375e-01,-1.26913e-02,-1.11474e-01,2.03305e-01,1.41755e-02,-2.24273e-01,2.04135e-02,2.48350e-02,-3.09225e-01,-1.96699e-01,3.26909e-02,2.56133e-01,5.07933e-03,1.35993e-01,4.47320e-02,1.51433e-01,1.60445e-01,
-2.14529e-01,-1.98085e-01,-3.23426e-02,2.34613e-02,-3.02746e-01,-6.20416e-03,8.85029e-02,-1.55572e-01,-2.68483e-02,-2.69889e-01,-2.93163e-01,-8.12166e-02,-1.43221e-01,2.50682e-01,-7.70937e-02,-2.42238e-01,1.44908e-01,2.42862e-01,1.23417e-01,9.23189e-02,-2.53656e-01,-9.40234e-02,2.42360e-01,3.12246e-01,9.19552e-02,1.21419e-01,1.39255e-01,-8.13990e-02,-2.53222e-01,-3.25550e-01,
-9.56457e-02,
2.65068e-02,
-2.08026e-01,
-1.67630e-02,
-1.23526e-01,
-2.59717e-01,
-8.36668e-03,
3.65313e-01,
-5.59405e-02,
-3.10162e-01,
9.22074e-04,
3.62290e-01,
1.14538e-01,
-1.59143e-01,
1.75504e-01,
1.92491e-02,
-2.36938e-02,
-5.89667e-02,
-3.03435e-02,
5.43595e-02,
7.88087e-02,
2.41295e-01,
-4.04245e-02,
-2.48965e-01,
8.89082e-02,
-3.55320e-02,
4.15585e-01,
-2.33426e-01,
6.16110e-02,
-3.19838e-01,
-4.13456e-01,-4.47181e-02,3.15252e-01,5.45616e-03,-1.88485e-02,-3.88474e-01,4.84310e-02,1.02098e-01,1.82347e-01,-4.13018e-01,8.21877e-02,3.98217e-01,9.78927e-02,-2.29969e-01,2.22094e-01,-4.67647e-01,-3.65276e-01,3.69752e-01,-1.55643e-01,-1.93611e-01,-4.44267e-01,1.02844e-02,6.74396e-04,1.91956e-01,1.26941e-02,3.31694e-03,7.26283e-02,-2.57596e-01,8.61538e-02,-1.79318e-01,
-5.63914e-02,5.05776e-02,3.21727e-02,6.53881e-02,-1.65703e-02,-2.97099e-01,3.11026e-01,2.82132e-01,3.37642e-01,-2.35586e-01,1.57180e-01,3.00194e-01,6.06982e-02,3.03311e-01,4.29414e-02,-5.53965e-01,-8.70911e-03,2.57054e-01,-7.23468e-02,-1.20373e-02,-3.82120e-01,-1.81728e-02,-1.17526e-01,2.06409e-01,1.63131e-01,8.70358e-02,1.73911e-01,-1.62625e-01,5.44897e-02,2.23630e-01,
2.45722e-02,-1.52935e-02,-4.40765e-04,2.39305e-02,8.88408e-04,1.56230e-01,2.75055e-01,1.82817e-01,3.75113e-01,2.30276e-01,1.76612e-01,3.51022e-01,-4.77692e-02,-3.16547e-01,-1.39048e-01,-4.04487e-01,1.96743e-01,3.13746e-01,-1.13596e-01,6.48725e-02,-3.44721e-01,7.47822e-02,1.02103e-01,7.36710e-02,1.48316e-02,4.19196e-03,-7.03942e-02,-1.92069e-01,9.98562e-03,3.23704e-01,
-9.00593e-03,2.14851e-01,-2.56288e-02,2.52785e-01,-2.39241e-02,-5.69457e-02,3.96424e-01,8.45399e-02,4.75041e-01,-1.13624e-01,1.32045e-01,1.94961e-01,1.18116e-01,2.59352e-01,4.52728e-02,-5.42964e-01,-1.63426e-01,2.08168e-01,-6.77653e-02,-2.40874e-02,-4.01734e-01,1.69373e-02,-3.26884e-01,2.39081e-01,2.42051e-01,1.41383e-01,2.42164e-01,-1.11362e-01,7.84645e-02,2.60731e-01,
-2.27591e-03,-5.40090e-02,-1.22203e-02,-1.17251e-01,2.19518e-01,4.32931e-03,3.42222e-01,-1.26102e-01,4.50724e-01,2.56629e-01,4.28235e-02,1.37854e-01,2.32778e-02,-3.69568e-02,-2.40355e-01,-1.98076e-01,6.26352e-02,2.44440e-01,-1.17250e-02,1.73654e-02,-6.65749e-02,-4.22125e-02,1.69960e-01,1.64711e-01,-2.41577e-02,-1.83861e-02,-1.09934e-01,-1.20572e-01,2.59314e-02,-2.07659e-01,
-3.42431e-01,
-3.04445e-01,
-1.76765e-01,
-2.54701e-01,
8.36529e-02,
