// Neural Network File Format by Kyle Julian, Stanford 2016
6,5,5,30,
5,30,30,30,30,30,5,
0.000,
-36655.999999,-36656.000000,-3.141600,100.000000,0.000000,
36656.000000,36656.000000,3.141600,472.000000,1200.000000,
-431.467101,-0.000000,0.000000,249.000000,532.000000,9.330048,
73311.999999,73312.000000,6.283200,372.000000,1200.000000,423.773936,
6.89488e-01,8.54433e-01,3.91077e-01,-1.11003e-01,3.03948e-01,
-8.56507e-01,-1.30115e+00,3.23117e-01,-2.73691e-02,-2.05263e-02,
-2.93483e+00,-1.64808e+00,-8.39980e-02,-6.05661e-03,-1.57036e-02,
-1.06613e-01,-9.90466e-01,1.17430e-01,1.35555e-01,-8.29798e-01,
-3.68955e-01,-7.84952e-01,9.21878e-01,-2.50026e-02,2.06227e-01,
6.26832e-01,1.54179e+00,-5.11996e-01,-6.02602e-02,6.47807e-02,
3.86860e-01,5.28262e-01,-4.40348e-02,-1.53000e-01,5.03534e-01,
-2.11461e+00,6.45104e-01,5.42163e-02,6.11178e-02,2.53569e-01,
-1.83103e-01,7.28827e-01,-9.53968e-01,-6.04907e-02,3.49547e-01,
-1.15594e+00,1.18232e+00,-6.62091e-01,3.25671e-02,-3.18253e-02,
9.43004e-02,-2.68634e+00,5.43139e-02,4.85731e-03,-7.90861e-03,
-1.91852e+00,2.33995e+00,-6.70708e-02,8.40454e-03,-1.15599e-01,
1.59060e+00,-7.79164e-01,-4.26932e-02,-1.15233e-01,-3.26661e-01,
2.60470e-01,-6.84213e-01,-4.20344e-01,-1.73776e-01,4.50776e-01,
-1.93425e-01,1.01902e+00,8.46488e-02,1.20112e-01,-7.64889e-01,
-2.21779e-01,1.57886e-01,8.53254e-01,5.29297e-02,-1.76791e-01,
-2.90591e-01,-4.75424e-01,-9.48525e-01,3.03699e-02,4.99754e-02,
-7.04487e-02,4.63856e-01,3.38818e-02,-1.41016e-01,-6.74176e-02,
9.59368e-02,-1.50456e-02,-9.89586e-03,-1.99603e-01,-7.15988e-01,
2.24919e-01,-3.35509e-01,4.90967e-01,1.80747e-02,-5.73645e-01,
-1.21121e+00,-8.72238e-01,-9.88015e-02,7.70132e-02,-1.08665e-01,
-2.90319e-02,-3.53176e-02,1.82545e-02,-1.74379e-01,-1.64930e-01,
8.01573e-02,1.33357e+00,-5.46231e-01,1.32002e-01,-1.18827e-01,
1.20490e+00,8.96219e-01,5.44491e-02,1.44061e-01,-1.99410e-01,
7.82157e-01,2.33271e+00,1.20957e-01,-6.55290e-03,1.32451e-02,
-9.53611e-01,-5.52221e-01,7.98389e-02,-1.35757e-01,4.25415e-01,
-3.26752e-01,3.44416e+00,1.75965e-01,-4.81829e-03,5.97057e-02,
4.50549e-01,-1.19305e+00,8.20244e-01,-1.05818e-02,8.86981e-02,
2.38973e-01,2.74139e-01,3.56048e-03,-1.07882e-01,-4.89608e-01,
3.54845e-03,-1.96245e+00,-6.64322e-01,-1.73006e-02,4.42071e-02,
1.58990e-01,
1.99933e-01,
8.33900e-02,
-2.09665e-01,
-1.34429e-01,
4.54365e-02,
8.20877e-02,
1.28714e-01,
-2.31559e-01,
-2.76520e-02,
-2.97730e-02,
1.63873e-01,
-1.41933e-01,
1.47903e-01,
-1.67936e-01,
3.65635e-02,
6.66845e-02,
1.42212e-01,
-3.34514e-01,
-2.63885e-01,
1.70502e-01,
2.01310e-02,
-8.80832e-02,
-1.40936e-02,
-5.36903e-03,
1.06326e-01,
2.11290e-01,
-3.01124e-01,
-1.22725e-01,
4.49919e-02,
3.22072e-01,-3.15582e-01,3.79702e-02,4.52122e-01,2.03619e-01,-9.45052e-02,3.78250e-01,-2.60553e-02,-3.14638e-01,-2.36678e-01,1.47245e-02,2.33797e-01,-5.59171e-02,1.53552e-01,-4.49544e-01,-3.71452e-01,-1.13171e-01,-1.41635e-01,-1.26587e-01,-2.20643e-01,-2.17515e-01,5.06208e-01,-3.32042e-01,-2.09250e-01,-2.14312e-01,-1.76521e-01,2.77037e-01,-4.27612e-01,2.64939e-01,4.57296e-01,
2.81552e-01,4.61115e-01,-2.31415e-01,-4.68351e-02,2.50685e-02,3.36797e-01,4.53817e-01,4.07216e-01,-8.88882e-02,3.52381e-01,8.11108e-01,-3.82181e-01,1.09905e-01,-1.38209e-01,-1.00187e+00,8.49179e-01,-1.16172e-02,2.75679e-02,-3.04535e+00,-6.01419e-01,2.81933e-01,-6.40236e-02,-2.27123e-01,-1.48356e-02,-1.53370e-02,-2.51585e-02,-2.01589e-01,3.79818e-01,-3.81180e-01,1.03076e-01,
4.62039e-01,4.13412e-02,-1.28773e+00,-6.45414e-01,-1.07226e-01,2.12937e-02,9.11857e-02,-3.88824e-01,-2.24665e-01,-2.68790e-01,1.46735e-01,-1.06469e-01,-6.70317e-02,1.49741e-01,5.50891e-01,-4.66265e-01,-2.29711e-01,-2.22274e-01,-2.70287e-01,-1.00374e+00,-1.33051e-02,-6.66835e-02,8.45475e-02,-3.64126e-01,1.13323e-01,-3.70102e-01,-1.72389e-01,-8.24463e-01,-1.06965e-01,2.58762e-01,
-1.42379e-01,2.05868e-01,-4.83143e-02,-6.86743e-01,6.77451e-01,2.50574e-02,2.36948e-01,5.54490e-03,-2.66045e-01,1.11101e-01,-5.98883e-01,-2.09500e-01,-2.67990e-01,-2.15195e-01,2.96947e-01,2.75488e-01,1.38492e-01,-4.05218e-02,-8.88514e-01,-8.51743e-02,2.60356e-01,4.24173e-01,4.34936e-01,-4.12039e-01,5.27935e-01,-1.32770e-01,-1.78449e-01,1.30305e+00,2.02709e-01,-5.19092e-02,
-3.73478e-01,1.21411e-01,-2.25606e-01,-2.08963e-01,5.92479e-01,3.39647e-02,-4.57486e-01,4.01695e-01,-6.14982e-01,-5.79412e-01,-9.34532e-02,-5.01997e-02,-1.33846e-01,-3.25983e-01,8.09987e-01,-3.63449e-01,-5.89716e-01,1.84887e-01,1.13405e+00,-5.28248e-01,-7.27464e-02,3.64446e-02,-1.55100e-01,-1.07347e-02,-1.02779e-02,6.94162e-01,9.94664e-02,7.03324e-02,3.29290e-01,-2.37359e-01,
4.04503e-01,-2.55083e-01,3.61526e-02,-7.69309e-01,-2.70143e-03,-5.65476e-01,2.58674e-02,6.18284e-02,-2.09619e-01,-2.75119e-01,1.70491e-01,-1.08435e-01,-7.93016e-02,4.18300e-01,1.30468e-01,1.28523e-01,6.00080e-01,-1.88219e-01,-4.14845e-01,-4.35055e-01,-3.39827e-01,7.36319e-02,-9.23697e-02,2.11331e-01,1.10666e+00,8.42152e-02,1.63272e-01,-1.95043e-01,-2.59083e-01,2.24222e-01,
6.84333e-03,3.05027e-01,2.02223e-01,-3.22370e-01,3.77290e-01,3.66054e-01,2.61673e-02,2.08031e-01,1.88750e-01,-3.25049e-01,5.63467e-01,4.63423e-01,-4.43876e-01,-2.30606e-02,7.19970e-02,-3.85051e-02,-1.81996e-01,-2.85487e-01,3.88175e-02,-1.93251e-01,-1.82872e-01,-2.41223e-01,1.58673e-01,-1.51378e-02,3.27815e-01,-2.82748e-01,1.53653e-01,-2.43385e-01,-4.63379e-02,-4.29962e-01,
2.82719e-01,-2.90853e-01,-1.35364e-01,3.42751e-01,-5.55816e-01,-5.27127e-01,3.24809e-01,3.80727e-01,-6.43420e-01,-3.27079e-03,2.77795e-01,-1.00282e-01,8.11461e-03,-2.05749e-01,8.97228e-02,-1.15348e-01,8.95509e-02,-5.42131e-01,-2.20645e-01,7.98807e-01,6.61168e-02,-2.57298e-01,-3.76696e-01,7.85999e-01,3.59277e-01,-2.37304e-01,5.21363e-03,-3.08230e-01,-9.90044e-02,3.84250e-01,
-5.31602e-02,1.86586e-01,-1.72789e-01,-3.10982e-03,1.04286e-01,-5.30260e-01,9.52792e-02,-2.52391e-01,-1.43265e-01,2.47823e-01,4.17801e-01,2.76560e-01,-3.74624e-01,2.03306e-01,2.52400e-01,3.89620e-01,3.74125e-02,4.83900e-01,-5.52476e-02,-1.80201e-01,-1.55441e-01,2.67110e-03,-2.70377e-01,3.50225e-01,6.77557e-01,3.01671e-01,6.97094e-02,-3.28671e-01,3.59461e-01,-1.06637e-01,
-8.93628e-01,6.17490e-02,-7.22922e-01,5.02175e-01,-1.96891e-01,1.09051e+00,4.55658e-02,-7.62428e-02,4.19120e-01,3.32622e-01,1.76741e-01,4.75739e-01,4.01889e-01,2.43884e-01,-2.54689e-01,-2.19250e-01,7.27973e-01,5.59416e-02,6.88218e-01,6.21026e-01,-2.41526e-01,-6.46719e-02,4.10415e-01,2.13572e-01,-9.31040e-01,3.06791e-03,1.16533e-01,-1.30637e+00,2.05997e-01,2.99231e-02,
-2.62699e-01,-2.69180e-02,3.99356e-01,3.73600e-02,2.49377e-01,-3.64135e-02,6.07398e-01,-3.57761e-01,5.93063e-01,-3.63728e-01,2.92958e-03,5.32026e-01,-7.10055e-02,-4.56272e-01,9.20456e-01,2.41109e-01,-3.27441e-01,-2.84073e-01,2.72525e-01,-5.59874e-01,6.09935e-01,-1.26842e-01,-2.43248e-01,-6.13504e-01,2.95341e-01,-1.11625e+00,-4.96752e-01,-1.51702e-01,2.86212e-01,2.50228e-01,
-5.18955e-01,1.89818e-01,3.16621e-01,1.18555e-01,-5.66235e-03,5.11853e-02,1.39732e-01,2.84330e-01,-2.27298e-01,1.24418e-01,-3.02808e-01,2.04796e-01,-9.37895e-01,2.01952e-01,2.84931e-02,5.77603e-02,2.88859e-01,3.02097e-01,-1.62255e+00,3.48806e-01,2.51723e-02,2.71733e-02,5.92011e-01,-2.27055e-01,-8.97243e-01,1.90816e-01,5.10122e-01,-7.33292e-01,-2.62652e-01,-5.06240e-01,
-6.33655e-02,2.64639e-01,-4.84463e-01,-3.35004e-03,9.72328e-01,4.89263e-01,-3.86201e-02,2.47197e-01,-4.72919e-01,-4.32318e-01,-2.63860e+00,-3.71050e-02,-2.25771e-01,-3.82127e-01,4.39675e-01,4.30363e-01,-7.63189e-01,-2.19400e-02,9.95604e-01,3.58828e-01,3.48153e-01,-1.31229e-01,-3.28319e-02,-3.80772e-02,5.13166e-01,-5.76776e-02,-3.92514e-01,1.89520e-01,-1.13653e-01,-1.92117e-01,
1.06344e-01,1.07233e-01,1.21497e+00,3.35678e-02,-1.81877e-01,-3.58433e-01,-3.74927e-01,7.00294e-01,-1.01082e-01,1.00712e-01,3.25120e-01,3.12985e-01,-5.22173e-01,5.84838e-03,1.65055e-01,1.76910e-02,-1.10686e-01,2.57256e-01,-4.19947e-01,5.34202e-02,5.43146e-02,7.07799e-02,-2.15830e-01,-1.76429e-01,4.50546e-01,8.31091e-02,1.24696e-01,6.37383e-02,1.78539e-02,5.24099e-01,
1.87078e-02,-3.33600e-01,-3.44408e-01,6.74965e-01,-2.66063e-01,-5.14424e-02,2.17435e-01,-8.00251e-02,-6.51144e-01,5.56648e-01,3.74103e-01,1.08707e-01,1.38789e-01,2.26729e-01,-6.23922e-01,-1.51261e-01,-2.28438e-01,1.98429e-01,5.72700e-01,5.25056e-01,1.66817e-01,-9.44690e-02,-3.72546e-01,5.09092e-02,4.31683e-02,1.29004e-01,8.14516e-02,-1.18043e+00,6.15777e-02,4.23777e-01,
2.13266e-01,4.74721e-01,3.00625e-01,-3.49216e-02,4.29861e-01,5.94560e-01,6.20051e-03,4.52222e-02,-3.46208e-01,2.08672e-01,2.88021e-01,-1.25158e-01,1.92444e-01,3.79592e-01,-2.67651e-01,4.10860e-02,-2.91758e-01,-5.47615e-01,-1.50765e-01,3.09122e-01,7.94065e-02,1.45731e-01,1.87671e-01,-8.91394e-02,-1.10469e+00,1.88501e-01,3.14599e-01,1.91474e-01,-3.65240e-01,-1.34219e-01,
-5.17327e-01,3.35560e-01,3.07852e-01,6.83894e-01,3.35231e-01,2.73431e-01,3.15723e-01,-4.04200e-02,5.87520e-01,4.80097e-01,1.81966e-01,-1.45041e-01,1.57057e-01,-1.96594e-02,-5.05357e-01,2.30154e-02,2.95116e-01,9.13367e-02,3.75209e-01,1.42397e-01,2.20049e-01,-1.01980e-01,1.90957e-01,-5.65365e-02,4.01804e-01,-6.45105e-02,-5.52504e-01,5.37837e-01,-1.66498e-01,-2.25181e-02,
2.29737e-01,-2.29158e-01,2.17491e-01,-6.45781e-01,5.37243e-02,2.01933e-01,-2.29165e-02,3.15877e-01,6.92806e-01,-2.71676e-01,4.48874e-01,2.80428e-01,3.20435e-01,1.22993e-01,6.49462e-01,5.30582e-02,-2.14603e-01,1.21121e-01,4.11913e-01,2.95236e-01,2.56579e-01,5.32230e-01,3.72510e-01,-3.99438e-01,2.22535e-01,-5.12296e-01,9.76792e-02,1.10050e-01,5.77691e-02,-1.05094e-01,
-3.73895e-01,3.91520e-01,1.74335e-01,2.16354e-01,1.65443e-02,-2.42074e-01,2.53965e-01,-8.31707e-02,-2.99692e-01,4.70681e-01,-3.03159e-01,2.74642e-01,-9.66174e-02,-1.64710e-01,-1.01358e+00,-1.68925e-01,4.05561e-01,1.38455e-01,1.50240e-01,1.44759e+00,2.40661e-01,-2.22236e-01,1.38880e-01,2.05533e-01,-6.40595e-01,3.80077e-01,5.29142e-02,-5.48445e-01,-4.76113e-01,-1.80187e-02,
-2.16662e-01,-1.23511e-01,1.03873e-01,5.46453e-01,-1.46373e-02,4.11884e-01,4.30560e-01,3.04472e-01,1.66554e-01,5.51646e-01,-4.96382e-01,-7.50668e-01,1.50604e-01,-1.65822e-01,-2.40937e-01,3.77241e-03,-1.69069e-01,-4.25323e-01,1.60423e+00,-1.92979e-01,-1.45410e-02,-2.74849e-02,-5.59290e-02,-1.00372e-01,-8.55975e-01,-1.56352e-01,1.83993e-01,3.73263e-01,2.19123e-01,-5.77609e-01,
1.59881e-01,-6.03466e-01,5.50722e-02,1.14478e-01,4.16975e-01,5.14823e-01,-1.36115e+00,4.83731e-01,1.63544e-01,3.37733e-02,7.61806e-01,-1.63725e-01,5.22007e-02,-4.80447e-01,4.53353e-02,-5.19646e-01,-6.06387e-01,4.46679e-01,5.82035e-02,6.13732e-01,-5.15206e-01,-3.31991e-01,-2.29125e-01,4.56277e-01,2.06195e-01,-2.44259e-01,-1.51023e-01,-5.39736e-01,6.98934e-01,3.84605e-01,
4.64226e-02,4.05408e-01,3.79976e-01,-8.19545e-02,-9.18730e-02,1.20241e-01,-1.85815e-01,4.89156e-01,1.73611e-02,4.98538e-01,-3.26062e-01,4.63682e-01,-1.09362e-01,-1.66548e-01,-1.17736e-02,-6.60455e-02,-1.48069e-01,3.01105e-01,5.66792e-01,5.24946e-02,6.03166e-02,-3.62465e-02,1.23673e-01,1.90954e-01,-2.53011e+00,7.32410e-02,2.81684e-01,6.64327e-01,5.10527e-01,-4.14774e-01,
-1.75777e-01,-1.31425e-01,-2.70122e-01,-2.22890e-01,-1.19507e-01,-2.76053e-01,-1.15688e-01,8.04027e-02,2.98953e-01,6.69161e-02,-1.80400e-01,2.92698e-01,2.31390e-01,-9.20712e-02,-2.82279e-01,-9.20230e-02,-2.03333e-01,-2.83642e-02,1.22600e-02,-1.59884e-01,8.14906e-03,-7.17843e-02,1.44558e-01,-3.18028e-01,-2.31486e-02,-3.11083e-02,-1.85281e-01,-1.98390e-01,2.13869e-01,2.31252e-01,
-2.54211e-01,5.57725e-01,-1.87191e-01,-7.45411e-04,1.15728e-01,-4.52363e-01,-1.38346e-01,-4.42214e-01,2.17868e-01,-1.55907e-01,2.13987e-01,-8.67466e-01,2.41856e-01,8.92294e-02,4.32453e-01,-1.04290e-01,-6.96817e-02,-2.30849e-01,1.21549e-01,1.30282e-01,-6.40902e-03,1.11073e-01,1.76864e-01,2.51702e-02,-8.02578e-01,1.51289e-01,-6.67697e-01,-1.53946e-01,2.53712e-01,4.27393e-01,
1.86291e-01,1.93247e-01,-1.29755e-01,-2.60661e-01,4.74372e-01,7.79813e-01,1.16971e-01,5.05855e-01,-5.52485e-01,-1.29339e+00,2.74469e-01,-1.71376e-02,-2.02373e-01,-5.10414e-01,-5.01172e-02,3.54275e-01,-1.52573e+00,3.59871e-02,-8.60209e-01,-2.54849e-01,2.64609e-01,5.00716e-02,-5.88950e-01,-9.96953e-02,-2.78555e-01,3.92702e-01,5.33266e-01,6.92146e-01,-1.73838e-01,-9.70365e-01,
-3.30136e-01,2.96197e-01,3.47941e-01,4.12911e-01,-5.48147e-01,-5.51446e-02,1.19209e-02,1.66054e-01,-4.73153e-01,3.43216e-01,-1.39219e-01,2.74481e-01,1.81931e-01,6.57663e-01,-4.31123e-01,-9.71863e-01,1.44909e-01,5.84331e-03,4.60345e-01,1.76616e+00,1.93848e-01,1.83373e-01,-6.47452e-02,5.69383e-02,1.61771e-01,-1.56254e-01,-5.79258e-02,-5.79553e-02,2.23463e-01,4.18642e-01,
2.62488e-01,-3.10069e-01,-4.64897e-01,-6.95340e-01,-2.52408e-01,-5.31701e-01,-3.06499e-01,-9.16122e-02,-4.41273e-01,-9.34497e-02,8.52677e-01,-5.49194e-02,-2.35537e-01,5.31038e-01,-1.18292e-01,-3.92640e-01,-6.99857e-01,-4.57086e-02,-8.55999e-01,-3.02245e-01,-2.74439e-01,9.05629e-02,-3.24015e-01,6.41570e-02,3.38792e-01,-4.59714e-02,2.12171e-01,-8.84261e-01,-1.36291e-01,-3.58821e-02,
2.47062e-01,6.53918e-02,1.94631e-01,-3.22329e-01,-2.01738e-01,3.77754e-01,1.97064e-02,1.75056e-01,-6.24383e-02,-2.77116e-01,1.36691e-01,1.55309e-01,3.04455e-01,4.68882e-02,-9.58742e-01,-1.48179e-01,-8.71478e-01,1.10951e-01,-7.12933e-01,-2.63952e-01,-5.63675e-01,3.53899e-01,1.34425e-01,-2.99920e-01,5.29643e-01,7.49486e-01,-1.42580e-01,-4.30058e-01,1.43956e-01,-6.95862e-01,
-1.01613e-01,5.16413e-02,-2.32147e-01,1.86906e-01,-4.21978e-03,-2.91235e-01,-2.88765e-01,1.13334e-01,3.22465e-01,-3.59702e-01,-8.84006e-01,-6.03063e-01,-5.96910e-02,-7.32712e-02,-4.05629e-02,2.13275e-01,1.98249e-01,-4.44285e-03,1.84996e-01,-2.28192e-02,4.26467e-01,2.23294e-01,1.21518e-02,-2.37804e-01,3.02062e-01,8.92890e-02,-7.51945e-01,3.70940e-01,2.64350e-01,3.40432e-01,
-5.30148e-02,-1.69450e-02,-4.24806e-02,2.38814e-01,-5.84893e-01,-3.14674e-01,3.79301e-03,4.61656e-01,-6.91938e-01,1.14501e-01,1.28080e-01,3.02094e-01,-1.93045e-01,-8.75447e-02,4.91035e-01,2.88284e-01,-1.80624e-01,-9.00488e-02,7.64401e-01,-5.21504e-01,3.99633e-01,-1.17587e-01,-6.07816e-01,1.63831e-01,-2.17331e-01,3.15191e-01,3.47864e-01,-1.39207e+00,2.39836e-01,-1.26863e-01,
1.78745e-01,
-1.70805e-01,
4.37989e-01,
7.14604e-02,
2.07048e-01,
1.05884e-01,
2.33463e-01,
3.64113e-01,
-3.13304e-02,
-8.03661e-02,
1.37268e-01,
-2.09228e-02,
-1.20611e-01,
-2.31213e-01,
8.64279e-02,
-3.66245e-02,
2.68478e-02,
-6.37569e-02,
1.44627e-01,
3.04327e-01,
1.27611e-01,
-5.99738e-02,
-1.86140e-01,
4.22742e-01,
-2.46205e-01,
3.99473e-02,
5.48503e-01,
2.42863e-01,
4.23905e-01,
2.04476e-01,
-4.82784e-01,2.18489e-01,-2.64032e-03,-1.58582e-01,2.42209e-01,-5.70813e-01,-8.86034e-03,-3.69680e-01,4.06868e-01,-6.07675e-02,-8.82257e-02,-3.47974e-01,7.75825e-02,-2.59860e-01,1.51423e-01,-2.74121e-02,-1.16547e-01,-1.26745e-01,4.07431e-01,-1.71926e-01,-8.86414e-01,-6.96036e-02,8.61555e-02,3.89162e-02,-3.99245e-01,3.06857e-01,2.57749e-01,5.19247e-01,3.75407e-01,1.62805e-01,
3.34911e-02,2.05851e-01,1.02805e-01,3.08535e-01,-1.88599e-01,-8.54194e-01,2.17372e-02,-3.68470e-01,7.00217e-01,-4.91382e-02,-2.96398e-01,1.48336e-01,4.39388e-01,5.88851e-02,-1.25263e-02,8.19336e-02,-4.80253e-01,-2.25771e-02,-8.86869e-02,-3.17219e-01,-1.55176e-01,2.82879e-01,3.86803e-02,1.55315e-01,-1.46958e+00,7.10322e-02,-2.82249e-01,4.53812e-01,8.43926e-03,-8.63883e-03,
-1.55877e-01,4.72625e-01,1.20796e-01,1.86574e-01,2.17396e-01,6.13688e-02,1.08618e-01,2.03937e-01,3.12265e-01,2.68188e-01,-3.52229e-01,7.47843e-02,3.29506e-01,-1.98430e-02,-1.40246e-02,-1.75146e-01,-1.59128e-01,-2.21970e-01,-1.06813e-01,3.60414e-01,-6.68968e-01,-2.06533e-01,-5.22420e-02,4.19995e-01,-1.34591e-01,-1.28574e-01,4.06965e-02,-2.75504e-02,2.35742e-01,-2.43250e-01,
7.37463e-02,-7.26022e-01,3.89909e-01,-3.40367e-02,-3.80236e-01,5.00095e-01,-7.52437e-02,1.95671e-01,2.54041e-02,-5.52067e-01,1.72879e-02,-3.97774e-01,1.73879e-01,7.91294e-02,2.36450e-01,4.99479e-02,7.94468e-01,-2.37551e-01,-9.06048e-02,-2.42939e-01,-7.00912e-01,-3.25108e-01,3.10127e-01,5.31482e-01,2.96226e-01,4.04003e-01,5.72457e-01,3.49715e-01,1.15574e-01,3.00558e-02,
2.93599e-01,-2.50052e-03,-1.62568e-01,-1.10368e-01,1.05881e-01,-3.45987e-02,-4.43732e-01,-2.19720e-01,1.10256e-01,4.91785e-02,5.11341e-01,2.20851e-01,-1.01614e-01,-7.76176e-01,1.58890e-01,-8.21464e-01,-6.12577e-02,-4.85773e-01,3.10818e-01,-4.25411e-01,4.85564e-01,-7.20949e-02,1.55481e-01,-3.14742e-01,7.03398e-01,-5.10954e-01,-2.80538e-01,-4.45806e-01,2.38436e-01,7.99227e-02,
-2.96659e-01,2.66874e-01,-2.58750e-01,8.23344e-02,1.41771e-01,1.12106e-01,2.62540e-01,-1.36223e-01,1.82948e-01,-2.41644e-01,5.76033e-01,6.46221e-01,-2.24717e-01,-1.98398e-01,9.68558e-02,-2.00547e-01,7.75243e-01,2.34190e-01,5.09193e-01,3.75770e-02,4.61134e-01,-4.90813e-02,1.02761e-01,5.29575e-02,6.46789e-01,2.40420e-01,-4.62517e-01,-3.99860e-01,-7.47717e-02,2.81080e-01,
1.19743e-01,-2.97890e-01,2.74480e-01,-3.88183e-01,-6.74825e-01,2.56626e-01,-9.95188e-02,5.25173e-02,-2.24998e-01,-4.92448e-01,-5.82565e-01,2.89933e-02,4.52990e-01,3.24298e-01,-4.23865e-01,-3.52051e-01,-1.31243e-01,-9.51789e-02,-1.30156e-01,-2.53510e-01,-2.33265e-01,-6.97156e-02,2.82999e-01,2.74704e-01,-8.45339e-01,4.59114e-01,6.80438e-01,1.64214e-01,3.68854e-02,-1.60833e-01,
-2.57908e-01,1.22440e-01,-5.34525e-02,5.52056e-02,2.83958e-01,4.32819e-01,-1.38930e-01,1.96060e-01,7.26817e-02,-1.11880e-01,3.42802e-01,5.46553e-01,-9.63612e-01,-4.46579e-02,-5.75905e-01,-3.40926e-01,2.06823e-01,1.07025e-01,6.93537e-01,3.03514e-01,2.14791e-01,-2.08542e-01,-9.88109e-02,-1.81675e-01,9.29141e-01,3.99128e-02,-3.17583e-01,-5.26962e-01,1.57703e-01,-1.58980e-01,
-6.08514e-02,2.83740e-01,-5.18424e-02,6.16694e-01,3.68213e-01,-3.48697e-01,2.73929e-01,1.43453e-01,-9.22506e-02,-9.70235e-02,-1.20501e-01,9.50868e-02,-8.33480e-01,-5.75034e-02,3.34680e-01,-7.32704e-02,9.39812e-01,2.12172e-01,2.63211e-01,-5.89724e-01,-3.13616e-01,-3.74105e-01,2.63005e-01,1.13132e-01,-2.73676e-01,-6.91752e-01,4.24905e-02,1.10374e-01,-3.22262e-01,3.49355e-01,
1.92332e-01,-2.09888e-01,1.90563e-01,-3.15729e-01,-4.20439e-01,3.82713e-01,-2.75646e-01,-2.09506e-02,3.07727e-01,8.00832e-02,-7.31180e-01,2.94510e-01,-2.71611e-01,1.02625e-01,-4.12530e-01,1.85645e-01,1.96884e-01,1.86506e-01,2.99031e-03,1.52766e-01,3.14642e-01,-1.93631e-01,-1.72749e-01,5.82811e-01,-8.29932e-02,-3.52642e-01,3.69941e-01,3.09620e-01,4.27539e-02,-2.22026e-01,
6.67971e-02,5.06193e-01,-4.72264e-02,6.75279e-02,1.59677e-01,-1.78840e-01,-1.94688e-01,-2.53661e-01,6.07376e-02,4.87269e-01,-3.28512e-01,-3.63021e-01,2.90669e-01,1.06430e-01,-2.32343e-01,1.30147e-01,-3.70760e-01,3.32669e-01,3.21346e-01,4.46668e-01,-1.05103e+00,4.72383e-01,-1.37525e-01,-2.14705e-01,4.69697e-03,-3.85601e-02,4.75228e-02,2.19974e-01,-1.08751e-01,1.93910e-01,
9.69447e-02,1.13836e-01,-3.09206e-01,4.42163e-02,2.01977e-01,-1.35936e-01,2.82216e-01,-3.15067e-01,6.21164e-02,3.65864e-01,3.27697e-01,3.29290e-01,-2.25965e-01,4.03448e-01,-1.94866e-01,1.03977e-01,-1.42496e-01,3.77106e-01,2.71596e-01,-1.29499e-01,7.23325e-01,5.03731e-01,2.42922e-01,-8.58023e-01,3.03390e-02,-1.22211e-01,-3.80248e-01,-3.37769e-02,-6.23784e-01,4.83105e-01,
4.78107e-02,-2.87643e-01,1.26721e-01,2.86933e-01,-2.47634e-01,4.09449e-01,-3.35248e-01,2.28236e-01,2.50906e-01,-5.79043e-01,4.74965e-02,3.51682e-02,3.68932e-01,2.56790e-01,4.49124e-01,-4.63400e-01,4.78624e-01,-4.13567e-03,-9.22708e-02,2.94919e-01,6.23867e-01,-4.22380e-01,-4.81073e-02,9.49842e-02,-1.70909e-01,6.45404e-02,2.26984e-01,-5.03391e-02,5.55010e-01,8.97406e-02,
3.66853e-01,4.00252e-01,1.04109e-01,-2.52685e-01,-4.45489e-01,-6.76886e-01,2.38757e-01,2.03771e-01,1.10404e-01,-3.97874e-01,-3.79034e-01,-6.54471e-01,7.14234e-01,5.38254e-02,1.35112e-01,1.28393e-01,-5.93589e-01,3.24991e-01,-4.82199e-01,5.85320e-02,-5.01972e-01,4.02980e-01,-1.66197e-01,-1.25128e-01,-5.92670e-01,-9.10109e-02,4.98317e-01,4.67135e-01,-4.31951e-01,4.47400e-02,
-4.77581e-03,-7.30233e-01,-2.59616e-01,-5.19719e-01,-3.26266e-01,1.53374e-01,1.68523e-01,1.36981e-01,-7.54438e-02,-4.81662e-01,-4.39078e-01,-1.57223e-01,-2.41363e-01,2.37636e-03,3.89386e-01,4.21465e-01,4.05288e-01,-4.92722e-01,9.79555e-02,-1.17126e-01,3.87021e-01,1.63697e-01,-2.20533e-01,3.74724e-01,8.87494e-01,2.23551e-01,3.50970e-02,3.37381e-01,2.65651e-01,-2.73503e-01,
-7.34933e-02,1.33866e-01,1.27406e-02,-3.85095e-03,2.93411e-01,-5.09070e-01,3.30845e-01,1.17142e-01,1.54423e-01,6.45408e-01,-3.59131e-01,-5.39885e-02,-9.59819e-02,-3.42520e-01,-6.28349e-01,2.03675e-01,4.08369e-01,-3.40398e-01,2.49832e-01,-6.64770e-01,1.86643e-01,-1.21287e-01,-2.15776e-01,2.82517e-02,-4.41787e-01,-3.25601e-01,-2.49762e-01,1.98290e-01,9.66455e-02,3.87717e-01,
-6.86610e-02,-2.00937e-01,8.35670e-01,-7.30796e-01,-3.02608e-01,-3.41891e-01,-2.47736e-02,2.56396e-01,1.19696e-01,-1.00866e-01,-6.42008e-01,3.86181e-03,3.54732e-01,1.53288e-01,2.02524e-01,2.45762e-01,1.91000e-01,-5.01605e-02,1.38325e-01,-1.49335e-01,-1.06286e-01,1.39859e-01,-2.12681e-02,1.80086e-02,3.93514e-01,-1.49455e-01,-3.76170e-02,1.73393e-01,-9.45460e-02,-2.65516e-01,
-4.50126e-02,2.56479e-01,-3.70464e-02,4.32621e-01,1.01668e-01,-8.08518e-01,5.94244e-01,5.29634e-01,2.61679e-01,-6.89229e-01,4.16198e-02,-1.24674e-01,1.63669e-01,2.98886e-01,-5.74292e-01,1.39758e-01,-1.52171e+00,-9.71032e-02,3.47481e-01,-4.79712e-02,-7.22067e-01,-1.39057e-01,5.48502e-02,-1.16752e-01,-4.81113e-01,-2.40507e-01,4.04505e-01,6.47347e-01,-2.59255e-01,3.32007e-02,
-3.24477e-01,3.93531e-01,-3.95097e-01,2.49835e-01,4.85851e-01,1.14905e-01,2.41364e-01,-2.13856e-01,4.13868e-02,3.46472e-01,2.71794e-01,4.73716e-01,-5.75076e-01,-5.27699e-02,-1.90269e-01,-2.92316e-01,5.52295e-01,-8.66143e-02,8.59506e-02,-4.44198e-01,-4.93839e-02,1.72853e-01,-1.95611e-03,-5.23543e-01,7.47289e-01,-3.70125e-01,-3.90894e-01,-3.28384e-01,-1.38028e-01,5.92804e-01,
-1.53957e-01,1.89630e-01,-4.37265e-02,-4.20681e-02,3.76481e-01,-1.76324e-01,-2.95243e-02,5.75101e-01,2.75408e-01,3.94142e-02,-4.11507e-01,1.63373e-02,-3.00564e-01,2.40420e-01,-1.79512e-01,5.19622e-01,3.29648e-01,-5.68544e-01,-2.09229e-01,2.03960e-01,8.87281e-01,-2.98336e-01,-1.63098e-01,-2.93468e-01,-5.66723e-01,1.11996e-01,-2.27313e-01,4.52840e-01,9.80222e-02,9.31422e-02,
8.42784e-02,2.75371e-02,5.14377e-01,2.55517e-02,2.08611e-01,-3.93254e-01,-2.49773e-01,4.86111e-02,5.04057e-01,9.60646e-01,-1.83988e-01,-9.44878e-02,-3.07350e-02,-4.85906e-01,-7.63397e-02,2.09036e-01,-3.98528e-01,3.30930e-02,-4.18452e-02,-2.59254e-02,8.84748e-02,2.42404e-01,-1.93961e-01,-7.54420e-01,-1.36621e-02,-5.01499e-01,1.34060e-01,-1.70736e-01,-3.85217e-01,6.07375e-01,
-2.60166e-01,-2.36635e-01,1.04091e-01,-1.15272e-03,2.38580e-01,1.65317e-01,-5.31086e-01,-9.95069e-02,-1.73259e-01,1.55028e-01,1.92441e-01,1.50494e-01,2.62706e-01,-1.32541e+00,-3.40621e-02,-2.05649e-01,5.58209e-01,4.93978e-01,-3.70712e-03,-3.75600e-01,-9.81442e-02,-1.86029e-01,2.89785e-01,-2.64424e-01,1.19462e+00,-6.32764e-03,-3.57376e-01,-4.81444e-01,3.48783e-01,5.51546e-01,
-3.19133e-02,2.68106e-02,2.44544e-01,-1.00986e-01,-2.91684e-01,-5.89236e-02,-1.51978e-01,-9.73284e-02,1.86267e-01,-2.03714e-01,2.26742e-02,-1.26995e-01,-1.42867e-01,-9.72103e-02,2.19831e-01,2.86144e-01,-2.40769e-01,-2.08904e-02,2.36090e-01,-3.10177e-01,-4.66029e-02,-2.30139e-01,-6.45286e-02,-2.44615e-01,-8.66004e-02,-2.66705e-01,-1.97054e-01,-1.92818e-01,-2.44090e-01,1.46198e-01,
1.75377e-01,2.63670e-01,2.32507e-01,2.32265e-01,2.48113e-01,2.31704e-01,-2.37641e-01,1.56670e-01,2.26224e-01,2.44339e-01,5.88044e-01,2.11440e-02,-9.65758e-01,-1.99365e-01,-1.24279e-01,3.86719e-02,-1.25262e-03,2.10563e-02,2.35346e-01,-1.15433e-01,2.32128e-01,3.05353e-01,-2.34343e-01,-1.85275e-01,2.37796e-01,-2.54811e-01,-6.20067e-01,-2.41443e-01,3.00439e-01,1.75965e-01,
8.90305e-02,1.45350e-01,-5.04407e-01,1.11065e-01,1.76461e-02,3.24728e-01,1.05714e-01,-4.12113e-01,1.49043e-01,-6.45243e-02,1.01824e+00,4.29266e-01,1.51481e-01,-6.10201e-01,3.81339e-01,3.60906e-01,6.91128e-02,-1.42238e-01,2.99260e-01,2.91628e-01,-2.56169e-01,-1.00297e-01,-2.18846e-01,-2.99855e-01,-1.88423e-01,8.23082e-02,-1.72395e-01,-2.07242e-01,2.44678e-02,5.51870e-02,
9.03412e-02,-2.01491e-01,8.95085e-02,7.57631e-03,-1.67271e-01,-4.58891e-01,-3.28798e-01,-3.30591e-01,-2.70201e-01,1.37041e-01,2.24175e-01,6.68402e-01,1.94614e-01,-2.54349e-01,2.28459e-01,2.84599e-01,-9.62799e-01,-1.69092e-01,3.23318e-01,3.14966e-01,5.82116e-01,5.46687e-01,-2.76077e-01,1.44254e-01,-1.17410e-01,-3.24390e-02,2.88801e-01,2.76353e-02,-9.02339e-02,4.22576e-02,
-4.59682e-01,3.03702e-01,-9.07101e-02,-3.97796e-01,-1.10712e-02,-8.77211e-02,-2.21934e-01,5.77520e-01,-4.75680e-02,1.50816e-02,-8.29006e-01,-2.80984e-01,-4.82277e-01,-1.57706e-01,7.32592e-02,-1.73149e-01,2.36888e-01,1.23507e-01,2.15273e-01,-3.90096e-01,1.26327e+00,1.90891e-01,6.54361e-02,-2.21567e-02,1.15166e+00,-3.51463e-03,-1.53487e-01,2.16977e-01,-5.02942e-01,1.18099e-01,
-2.45426e-01,4.97902e-01,-2.97062e-02,1.64497e-02,-2.92604e-02,3.81530e-01,3.13361e-01,-2.34116e-01,-2.70243e-01,6.67406e-01,2.78292e-01,4.44936e-02,-1.61213e-01,4.04655e-01,-3.91638e-01,1.32676e-01,-5.45764e-01,-4.77736e-04,1.20081e-02,-2.14626e-01,2.19080e-01,3.17150e-01,-7.17831e-02,-1.83647e-01,-7.16157e-02,-3.10329e-01,4.38286e-02,-6.82494e-02,-4.88004e-02,2.88093e-01,
-5.61352e-01,4.95244e-01,-2.23273e-02,-2.38488e-01,9.41026e-01,1.03111e-01,-1.45275e-01,-3.39368e-01,5.33966e-01,5.94782e-01,-1.48942e+00,-1.15827e-01,2.23750e-01,-9.89578e-01,-2.82353e-01,-7.93458e-01,-6.71372e-02,1.73490e-01,-3.95161e-01,1.43787e-01,9.32535e-01,3.65723e-01,5.20813e-02,3.51840e-02,-1.24027e-01,-1.01905e-01,-7.67387e-01,-3.13150e-01,-3.48422e-01,6.15852e-01,
2.86131e-01,-2.67526e-01,7.64533e-01,-4.36615e-02,9.17188e-04,-6.36297e-02,-1.69383e-01,1.26701e-01,-1.30807e-01,3.88405e-01,-5.47028e-01,-2.51988e-01,4.28455e-01,-1.04324e+00,-4.21016e-02,-6.64300e-02,-6.18729e-01,-1.74424e-01,-1.04285e-01,3.56761e-01,-4.30707e-01,-2.33476e-01,-1.62526e-01,-3.36549e-02,-4.67804e-01,-4.17881e-01,3.82835e-01,1.11845e-01,6.63867e-01,-3.29110e-01,
9.57772e-02,
-1.07528e-02,
-5.41716e-03,
-2.17896e-01,
4.48019e-01,
-2.61627e-01,
4.08747e-01,
-1.73373e-01,
9.07481e-02,
8.34483e-02,
2.08025e-01,
-1.04698e-01,
5.14877e-02,
1.50991e-01,
2.41680e-01,
1.61552e-01,
1.74619e-01,
-1.02709e-01,
3.30112e-02,
1.67460e-01,
3.91478e-02,
-1.34778e-01,
3.37762e-02,
2.67516e-02,
1.17747e-01,
1.91899e-01,
2.46942e-01,
8.32868e-03,
-3.69297e-03,
-4.34105e-02,
3.48561e-01,3.17342e-01,1.18757e-01,-2.35532e-01,3.57199e-01,-3.31569e-01,-2.39575e-01,-2.57758e-01,3.70934e-01,-2.98390e-01,-6.21742e-02,1.09464e-01,-2.38370e-02,-1.98321e-01,2.16981e-01,2.13065e-01,1.27010e-03,9.26735e-02,-2.39274e-01,1.68985e-01,2.50457e-01,-2.05577e-01,-1.61821e-01,-1.32809e-01,2.54371e-01,-1.45708e-01,-3.10610e-01,5.67957e-02,-4.22711e-01,2.97231e-01,
2.88679e-01,3.67082e-02,-4.04474e-02,9.51913e-02,-2.87451e-01,-9.31143e-02,-2.24961e-01,1.06916e-01,-1.54127e-02,2.95349e-01,3.65829e-01,3.04884e-01,1.57827e-01,1.04253e-01,4.16195e-02,-1.12787e-01,1.41325e-01,-4.73428e-01,-4.36016e-01,-1.53617e-01,3.31238e-01,-8.27874e-02,1.38316e-01,3.74488e-01,2.49871e-01,-8.52145e-02,9.02908e-02,-2.34284e-01,-9.79266e-01,-3.01395e-01,
4.79829e-02,9.29692e-01,3.08898e-01,-1.69563e-01,4.39158e-01,-5.40498e-01,-2.63607e-01,3.30715e-01,-2.81031e-01,3.50695e-01,3.11554e-01,-5.18611e-01,-1.08403e-01,-2.06047e-01,-6.12274e-01,3.48855e-01,-2.91292e-01,3.83242e-02,-5.82647e-01,-3.01322e-01,-1.67274e-01,5.48476e-03,1.30092e-01,2.97657e-01,-5.75823e-02,4.70998e-01,-1.50066e-01,5.55153e-02,-8.26745e-01,-3.49377e-01,
1.47859e-01,3.94764e-02,-3.23422e-01,-5.84726e-03,1.47163e-01,-3.01099e-01,-3.26762e-01,-9.11346e-02,1.45351e-01,-1.88328e-01,-2.54883e-01,-2.96910e-01,1.43775e-01,-3.25320e-01,-8.28010e-02,-5.54858e-03,-1.89372e-01,3.63524e-02,-2.29993e-01,-1.03711e-01,1.20656e-01,-2.04158e-01,-7.80606e-02,-2.45605e-01,5.05420e-02,-2.41503e-01,-2.46023e-01,-3.16846e-01,1.33166e-01,-1.87443e-01,
1.04415e-01,-3.51135e-03,-2.49221e-01,7.55161e-02,-2.08543e-01,1.04217e-01,5.41952e-01,2.83583e-02,-1.08679e-01,3.05642e-01,-1.07226e-01,5.53268e-02,-3.55963e-01,4.67250e-01,2.07440e-01,-7.10344e-01,-2.19075e-01,3.20773e-01,4.31465e-02,1.25476e-01,4.96965e-01,-4.73982e-02,-2.61610e-01,3.45042e-01,-6.15263e-01,-3.20738e-01,-1.46861e-01,-2.92384e-01,2.53025e-01,8.45670e-02,
3.59091e-01,-4.72049e-01,3.78065e-01,-1.46196e-01,1.33117e-01,-6.16375e-01,-3.66551e-01,-7.05286e-02,2.31355e-01,-2.53922e-01,3.96984e-03,-5.30313e-01,-8.38359e-03,3.13363e-01,6.90251e-02,2.70932e-01,-6.14578e-01,7.26646e-01,-5.13135e-01,-4.50547e-02,-9.72742e-01,5.90445e-01,-1.02322e-01,1.36160e-01,9.87465e-02,2.42935e-01,9.62135e-02,-8.93969e-02,-7.61883e-03,-3.06522e-01,
3.05209e-02,6.82600e-02,6.74961e-02,-9.19225e-02,-1.13961e-02,7.42283e-02,2.15504e-01,1.34700e-01,-4.99128e-01,4.52222e-01,-9.55908e-03,-4.06422e-01,-1.19955e-01,-9.65242e-02,-2.41232e-01,-3.37614e-02,1.28476e-01,1.00606e-01,4.82984e-01,2.33124e-01,-6.82381e-01,-2.41663e-01,-2.21524e-01,-1.44511e-01,1.73692e-01,1.39308e-01,-1.35952e-01,1.42362e-01,2.90222e-01,-9.22488e-02,
-4.46015e-02,2.68602e-01,-3.70559e-02,-5.37401e-02,6.91050e-01,-1.60714e-01,2.66674e-01,-3.93911e-02,-6.23639e-02,9.72889e-02,2.78427e-01,-1.52098e-02,-2.90035e-01,-3.03031e-01,-2.66494e-01,1.57518e-01,1.01742e-01,3.16657e-01,-2.77044e-01,2.73163e-01,1.50986e-01,4.22471e-02,-1.21897e-01,-1.32509e-01,-5.35313e-02,-1.24096e-01,-1.35920e-01,-2.23042e-02,-7.43155e-01,-2.40002e-01,
2.51549e-01,2.08150e-01,1.24615e-01,-1.41517e-01,-2.18675e-01,-2.23029e-01,8.93892e-02,2.62737e-01,-7.51072e-02,1.49390e-01,-2.83090e-02,1.36350e-01,3.42503e-01,-1.00946e-01,-9.66843e-03,-9.72894e-02,2.53624e-01,1.87244e-02,-4.88908e-01,2.41258e-01,2.90579e-01,2.89345e-01,-7.53793e-02,-2.09431e-01,5.08276e-01,-1.15818e-01,3.44357e-02,-6.62648e-02,-2.92564e-01,-3.07136e-01,
-6.08569e-01,-6.22913e-03,-1.93501e-01,-5.62031e-01,4.05649e-01,3.20916e-02,5.22959e-01,9.17732e-02,-4.55627e-02,-1.36440e-01,2.14848e-01,-2.73222e-01,-3.77945e-01,2.57964e-02,-1.74638e-02,-1.71698e-01,2.14528e-01,3.57025e-02,-2.57309e-01,-1.45500e-01,6.59549e-01,2.10034e-01,-1.22153e-01,-6.50876e-01,2.14572e-02,6.95837e-02,3.47963e-02,2.10132e-02,-4.03208e-02,-6.92278e-01,
3.16932e-01,3.71445e-01,-1.75734e-01,-1.04871e-01,-8.90935e-01,-1.09489e-01,2.69479e-01,-8.03187e-01,-2.00988e-01,-1.60015e-01,2.41147e-01,-3.40121e-01,-6.32741e-01,4.24215e-02,2.23200e-01,-2.84862e-02,-3.20552e-01,6.19561e-02,2.67161e-01,4.64024e-01,-8.15534e-02,-6.09634e-01,-2.52307e-01,1.39362e-01,-1.87266e-01,2.13840e-01,-7.34166e-01,3.33789e-02,-1.28954e+00,-3.86281e+00,
3.78382e-01,7.80986e-01,-1.76936e-01,1.46796e-01,-4.70125e-01,-9.16057e-02,-1.30062e-01,7.27710e-02,3.12371e-01,1.10678e-01,-9.96480e-03,-8.42679e-02,-8.17203e-02,-9.69025e-03,-6.53282e-02,-3.19439e-01,-3.94773e-01,1.00114e-01,-5.41108e-02,1.84424e-01,4.63421e-02,1.65141e-01,2.65474e-01,-3.36344e-01,1.72049e-01,-1.31962e-01,-4.08002e-02,2.79028e-02,-1.91433e-02,7.70786e-01,
-2.05013e-01,6.02246e-02,1.37343e-01,-8.34239e-01,2.20148e-01,1.74869e-01,-2.02926e-01,-1.78713e-01,2.42691e-01,2.39941e-01,-6.99493e-02,-4.42872e+00,-4.26296e-01,1.46684e-01,1.79178e-01,-1.77147e-01,2.01048e-01,-7.06875e-02,5.54073e-02,-9.14307e-04,3.96547e-01,1.36562e-01,8.89928e-02,-4.96563e-01,2.18448e-01,6.99083e-01,-2.31075e-01,8.16818e-02,1.00849e+00,-2.46617e+00,
-3.69159e-01,5.86329e-01,-1.06717e-01,-1.47751e-03,-5.80636e-01,1.12714e-01,-9.83551e-02,-4.64158e-01,-3.25878e-01,-3.89264e-01,1.72023e-01,-7.88282e-01,-9.16332e-02,-5.15760e-01,-3.88754e-01,4.50233e-03,-1.43566e-01,-3.76949e-01,5.96573e-01,1.08196e-01,2.92238e-01,-5.95382e-01,2.77923e-01,-1.36954e-01,3.73048e-01,1.27676e-01,2.90121e-01,1.19607e-01,6.24721e-02,-6.76239e-01,
2.89181e-01,1.78254e-01,1.25035e-01,-4.13139e-01,1.84050e-01,-5.40213e-01,-1.01707e-01,-1.73129e-01,1.61789e-01,1.04817e-01,4.44793e-02,1.42546e-02,-2.91565e-01,-7.19935e-02,-3.42297e-01,2.71599e-01,-1.05439e-01,5.39673e-01,-2.46086e-01,5.78913e-01,3.37436e-01,5.63230e-01,-1.61500e-01,1.20743e-01,-5.61176e-01,4.22301e-02,-2.63974e-01,4.04906e-01,-1.15486e-01,-2.16980e-01,
-8.18434e-02,-4.78509e-02,3.05477e-02,2.62133e-01,1.47348e-01,3.00538e-02,1.74843e-01,2.15640e-02,9.44638e-02,-2.34400e-01,-5.04909e-01,1.40424e-01,-1.22381e-01,4.67739e-01,2.08853e-03,-8.56299e-02,-1.26181e-01,1.44948e-01,4.26766e-01,-6.51106e-02,7.08937e-02,2.98037e-01,2.87165e-01,-3.52787e-02,8.44620e-02,-3.72216e-02,7.62308e-02,-3.19552e-01,6.05583e-01,-1.36632e-01,
3.85457e-01,2.45164e-02,-3.17468e-01,-1.76411e-01,2.32053e-01,-8.03573e-01,2.08993e-01,2.95718e-01,-3.39745e-01,-6.07074e-01,3.30015e-01,-3.91350e-01,-1.55078e-01,3.32075e-01,-3.46420e-01,-4.99653e-01,-1.81683e-01,-6.49371e-02,-2.78519e-01,-2.49826e-01,-1.28332e-01,1.16999e+00,-2.30901e-01,1.13987e-02,2.53996e-01,3.65869e-01,2.85606e-01,-3.02387e-01,-4.01911e-01,-2.04831e-01,
3.88506e-01,3.21792e-01,-2.17392e-01,-4.81220e-01,2.30641e-01,-2.70988e-01,1.30406e-01,-4.33287e-01,-1.00512e-02,-7.78583e-02,2.99656e-01,-2.32246e-01,2.65705e-01,-6.20946e-02,-9.96255e-02,4.15237e-01,-3.11604e-01,-1.58507e-01,-2.69241e-01,-7.08726e-01,-3.18963e-01,2.08893e-01,2.24544e-01,1.73253e-01,-1.82819e-01,1.58861e-01,-2.06698e-02,7.86149e-02,-9.08362e-01,-2.51879e-02,
2.08755e-01,-1.10366e-01,1.60262e-01,3.00398e-01,-2.75412e-01,-2.09751e-02,2.67780e-01,-3.71314e-01,1.18168e-01,-2.59612e-01,1.11496e-01,1.06533e-02,4.53636e-02,-3.71086e-01,6.38936e-02,-7.07685e-03,-5.84440e-01,2.85935e-02,9.29820e-02,1.78997e-01,3.21611e-01,-3.77787e-01,2.69314e-01,1.73302e-01,3.18100e-02,-3.83096e-01,-1.23023e-01,-1.85509e-02,7.74782e-01,5.59155e-01,
1.52269e-01,-2.83154e-01,2.37257e-01,-9.24272e-02,-2.60084e-01,7.74323e-02,-7.48554e-02,-7.13174e-02,-7.65550e-03,-9.50097e-02,-1.18624e-01,8.19616e-02,1.55626e-01,-5.30512e-01,4.64242e-02,2.19443e-01,1.33923e-01,-2.41389e-01,-1.85700e-01,-7.77276e-02,5.45376e-02,-2.65903e-02,-3.60576e-01,2.45013e-01,3.02358e-01,2.99752e-01,3.35971e-01,3.55368e-01,3.37179e-02,-3.35851e-01,
1.98084e-01,4.35254e-02,4.53247e-01,-1.33444e-01,-2.63495e-01,-4.02047e-02,1.31759e-01,8.15272e-02,-1.71769e-01,-1.57111e-01,6.86779e-02,1.45285e-01,2.86404e-01,-4.20543e-01,6.49642e-02,-8.60872e-02,-7.80369e-03,-4.27617e-01,-4.93954e-01,-1.35183e-01,-4.35923e-01,-3.61074e-02,9.45340e-02,-8.47925e-02,-1.25399e-01,-1.34110e-02,6.93591e-02,1.72597e-01,-3.94866e-01,-2.47043e-01,
-8.56008e-02,1.82808e-01,-6.33402e-02,2.18169e-01,-3.98921e-02,4.72695e-01,3.05248e-01,-5.91049e-02,4.31421e-03,-2.46733e-01,-1.57574e-01,-2.28721e-03,-4.64504e-02,-1.78063e-01,1.32294e-01,-2.73878e-01,-1.58551e-01,-5.34640e-01,5.26737e-04,-3.71834e-01,-8.23342e-01,-4.47964e-01,1.83891e-01,6.97299e-02,3.07788e-01,-1.12669e-01,2.71317e-01,-3.00508e-01,2.55551e-01,5.45708e-01,
-2.04697e-01,-9.76620e-02,1.47730e-01,-5.13424e-01,1.07610e-01,1.74014e-01,-6.05552e-01,-4.91461e-01,1.53482e-01,3.22401e-01,1.46377e-01,-3.91552e-01,-8.56754e-01,-5.44583e-01,-3.19272e-02,2.20563e-01,2.35174e-01,-2.67150e-01,2.73228e-01,-1.11957e-01,2.97303e-01,-4.39583e-01,-1.02482e-01,-6.34384e-03,9.66203e-02,6.44954e-01,-1.01258e-01,2.68661e-01,-1.77085e+00,-9.37587e-01,
8.97074e-02,1.96673e-01,2.94368e-01,-4.10656e-01,1.47952e+00,-4.14020e-01,-1.21944e-01,2.55907e-01,-5.69492e-01,2.66616e-01,1.44609e-01,-4.86737e-01,-1.00080e-01,-1.18397e-03,1.34966e-01,2.34825e-01,2.16498e-01,-3.68898e-02,-4.97496e-01,1.90810e-01,-1.35403e-01,2.04007e-01,2.21070e-01,-2.78076e-01,-1.54785e-01,3.86592e-01,-3.36799e-01,9.33909e-01,-1.43453e+00,-2.29013e-02,
2.91885e-01,2.17565e-02,1.45716e-01,-2.97297e-01,7.04162e-01,-7.52661e-01,-1.07702e-01,3.55523e-01,-2.57577e-01,-1.44553e-01,2.12530e-01,-3.76532e-01,-2.42154e-01,-1.41641e-01,-1.15875e-01,1.90358e-01,4.07891e-02,1.47298e-01,-3.59535e-01,1.20810e-01,-1.48526e-01,4.46079e-01,-2.07099e-01,-1.27510e-01,3.91984e-01,4.10625e-01,-1.70926e-01,-4.47697e-02,-4.51656e-01,-3.83106e-01,
1.62220e-01,9.76212e-02,-9.77428e-02,-3.78567e-01,-6.56271e-01,-3.84206e-02,-3.15301e-01,-4.00095e-01,6.60354e-01,-1.24505e-01,1.05609e-01,-2.76189e-01,1.56067e-01,-6.01011e-01,-1.44377e-01,-8.41743e-02,1.34304e-01,-2.33187e-01,2.08070e-01,-9.49982e-03,-2.62141e-01,2.87415e-02,-2.14843e-01,-7.49793e-02,4.81310e-01,4.32487e-01,7.03828e-02,2.20023e-01,6.83304e-01,-3.38789e-01,
-1.13642e-02,-2.26454e-01,-2.17786e-01,1.44199e-01,-1.79045e-01,6.87309e-02,-5.76938e-01,-9.28021e-01,6.51404e-02,-1.40578e-01,1.18286e-01,-1.88683e-01,-6.52804e-02,1.83536e-01,-2.52161e-01,5.56669e-01,-1.69144e-01,8.15195e-01,4.81261e-01,1.01602e-01,4.16823e-01,-1.13966e-01,-5.76016e-02,-5.08673e-02,-1.07851e-01,-1.40420e-01,6.88153e-02,1.87771e-01,-4.41504e-01,-3.60136e-01,
-9.96902e-02,-2.89207e-05,3.46855e-01,-4.25993e-01,3.85977e-01,-2.91421e-01,-1.37353e-01,-6.41734e-02,3.24815e-01,-6.63766e-02,-3.89643e-01,4.44219e-01,2.09165e-01,6.89775e-01,9.58354e-02,-5.14308e-01,-1.42768e-01,4.55088e-01,-3.53328e-01,1.02013e-01,5.22627e-01,8.36873e-01,3.03601e-01,-2.01559e-01,-5.11574e-01,-6.67682e-02,-7.55589e-02,-3.19397e-01,3.52229e-01,7.50131e-02,
-2.52261e-01,-2.68019e-01,-2.69728e-01,-2.73873e-01,2.88916e-01,-1.26652e-01,2.26448e-01,6.29318e-02,2.34207e-01,4.37138e-02,-4.67392e-02,-2.26142e-01,-3.12397e-01,2.80862e-01,-2.42815e-01,5.73342e-02,4.30434e-02,-1.41892e-01,-2.32378e-01,1.42827e-01,2.86449e-02,-8.58603e-02,2.40512e-01,-1.78316e-03,-1.58642e-01,8.10246e-02,-1.98851e-01,5.10148e-02,7.98295e-02,1.03785e-01,
3.78404e-01,-1.09473e-01,-1.20181e-01,-5.70719e-01,1.04764e+00,-4.60178e-01,4.28388e-01,-2.27575e-02,3.54003e-01,-3.67621e-02,3.80563e-01,3.60947e-02,-2.81585e-01,-3.23927e-01,-7.74746e-02,1.65730e-01,-1.05991e-01,-4.05808e-02,-6.96034e-01,1.20303e-01,-2.37670e-01,8.04459e-01,-2.03962e-01,-3.53909e-01,-4.51568e-02,1.78813e-01,-3.95559e-02,1.34620e-01,-6.51136e-01,-1.86836e-01,
2.71355e-01,
-6.41306e-02,
1.85912e-01,
1.00431e-01,
-9.01691e-02,
5.91076e-03,
1.00240e-01,
1.77463e-01,
-1.97094e-01,
2.10061e-01,
-2.00606e-02,
1.73178e-01,
-2.72217e-02,
1.84622e-01,
-2.41354e-02,
1.98314e-01,
3.58954e-01,
3.26706e-01,
-1.84192e-01,
-9.21289e-02,
3.65417e-01,
2.95113e-01,
-2.34591e-01,
-1.15158e-01,
4.41422e-01,
-1.86998e-01,
-7.75951e-02,
6.49777e-02,
-1.86406e-01,
-3.70628e-02,
3.66474e-01,1.56830e-01,-2.92083e-02,-6.71135e-02,-9.08383e-01,-2.56223e-01,-7.78454e-03,3.23732e-01,-4.50304e-01,1.53396e-01,8.23050e-02,3.13213e-01,6.56275e-01,2.73339e-01,-6.40313e-02,-4.12507e-01,2.48350e-01,3.13724e-01,-2.36329e-01,-2.67264e-01,-5.26230e-02,-5.90117e-01,-6.84191e-01,-7.06045e-01,8.07627e-02,-3.73362e-01,-5.41285e-01,-1.55956e-01,-2.39795e-02,6.66927e-02,
-5.20415e-02,2.72893e-02,3.04993e-02,-4.43308e-02,2.45286e-01,1.09956e-01,3.02213e-01,4.07900e-03,1.22034e-01,-1.16617e-01,-1.78333e-01,-1.08858e-01,-1.10079e+00,-2.42874e-01,3.69042e-01,6.98357e-02,-3.99186e-02,1.87341e-01,-6.75730e-02,7.76637e-02,-3.39489e-02,3.84257e-01,2.35536e-01,-7.75522e-02,-1.73594e-01,2.49444e-01,1.75987e-01,3.67436e-01,-1.38056e-01,-4.42992e-01,
-2.02955e-01,3.86443e-01,-2.12165e-01,-2.19168e-01,6.49576e-01,1.55078e-01,6.24582e-02,-4.66109e-02,1.30217e-02,8.33953e-02,-7.75080e-02,-7.01855e-02,3.45520e-01,-1.36722e-01,-1.41116e-01,-1.58349e-02,-1.36993e-01,-4.57008e-02,-3.81816e-02,1.68284e-02,-2.65265e-01,3.15266e-01,6.25196e-02,1.66504e-01,-6.16997e-03,1.54494e-01,5.25737e-01,8.61098e-03,2.20479e-01,2.09791e-01,
2.61448e-01,-1.21531e-01,2.30370e-02,1.67348e-01,-1.05440e-02,2.07269e-01,-3.84836e-01,-6.33682e-01,-2.79617e-01,3.16963e-01,2.94621e-01,3.01327e-01,6.74663e-01,-7.18338e-01,-5.96242e-01,2.04156e-01,-2.24431e-01,2.92252e-01,-1.66860e-01,7.14705e-02,4.86911e-01,-4.71212e-01,-2.60502e+00,2.47803e-01,-5.81732e-03,-4.01124e-01,-1.75042e-01,-5.99447e-01,-5.59943e-02,2.89446e-01,
-3.26163e-01,1.33330e-01,2.33549e-03,7.57173e-03,3.51901e-02,2.27664e-01,-1.83707e-01,-3.59770e-01,-1.40713e-01,2.45815e-01,3.43517e-02,-9.42131e-02,-3.09828e-01,-1.93217e-01,8.10253e-02,6.23020e-02,-8.18625e-02,-1.37774e-01,-2.61910e-01,-1.10003e-01,-2.98654e-01,-3.44891e-01,3.67037e-02,3.01812e-01,-3.11534e-01,-1.20779e-02,-6.09505e-02,-1.77827e-01,2.09498e-01,1.87011e-01,
-1.54049e-01,1.02234e-01,-1.05396e-01,-9.67546e-02,7.50153e-02,-2.78646e-01,1.59288e-01,1.42052e-01,6.77694e-02,-1.21478e-01,-2.32980e-01,-1.19580e-01,-1.64313e-01,2.91323e-01,4.37010e-01,2.17780e-01,-1.80950e-01,7.56224e-02,4.14241e-02,-5.12658e-02,-2.24128e-01,-5.68269e-02,2.26832e-01,-5.78210e-02,2.26660e-01,-1.79181e-01,1.19526e-01,4.97678e-01,1.62657e-01,-7.96874e-02,
-1.61528e-01,3.61777e-02,2.19305e-01,7.62809e-02,3.19464e-01,1.57069e-01,1.10192e-01,-7.64705e-02,1.69910e-01,1.57078e-01,-3.69465e-01,-1.34531e-01,-2.47691e-01,-1.79632e-01,4.58262e-02,5.02931e-03,7.20457e-01,2.04733e-01,1.33760e-03,6.97335e-02,-1.84109e-01,2.47351e-01,1.49907e-01,-3.31025e-01,2.82141e-01,1.45624e-01,1.72412e-01,5.09272e-02,-6.63420e-02,6.23752e-01,
-7.76761e-02,1.61761e-01,1.18322e-01,2.85130e-01,-1.96435e-01,-1.01961e-01,-4.82023e-01,-1.63586e-01,-1.65182e-01,5.47407e-01,1.40620e-01,1.63481e-01,-7.45204e-01,1.56243e-02,2.64832e-02,-6.67336e-01,1.94931e-01,3.90405e-01,7.47435e-02,-3.12611e-01,4.72582e-01,-4.03899e-01,2.60889e-01,-2.64273e-01,3.19980e-01,1.55802e-01,-8.38752e-02,2.17013e-01,7.39411e-02,-1.54918e-01,
-1.07017e-01,6.39117e-02,-1.62302e-01,8.89354e-02,-2.49772e-03,-7.75768e-01,-3.19423e-01,-6.57147e-02,-8.66463e-01,8.23043e-02,4.38913e-01,-2.02592e-01,1.03196e+00,4.63720e-01,2.43632e-01,1.02593e-01,4.16215e-01,4.25134e-02,-1.90544e-01,-2.99190e-01,-2.13986e-01,-3.68242e-01,-3.76130e-02,2.08149e-01,1.52077e-01,-2.57841e-02,-3.18422e-01,-1.96977e-01,-2.28360e-01,-2.82936e-01,
3.59082e-02,2.16606e-01,2.05922e-01,-2.27238e-01,-1.96217e-01,1.36554e-01,-2.49371e-01,-1.75256e-01,9.42391e-02,1.32659e-01,-2.35390e-01,-2.73513e-01,-2.48227e-01,-3.10757e-01,6.38718e-02,-1.51781e-01,2.16456e-01,-2.28663e-01,-1.76342e-01,6.01612e-02,-4.03540e-02,1.59417e-01,-2.10285e-01,-2.73989e-01,-7.46347e-02,-7.74620e-03,3.17647e-02,-7.87475e-03,4.05740e-02,2.37118e-01,
4.31643e-01,-7.44432e-02,4.34655e-01,2.99824e-01,-5.25587e-02,3.61620e-01,-3.22932e-02,-6.14440e-02,-6.60300e-02,2.56709e-01,2.28248e-01,-4.11854e-01,2.44945e-01,7.74218e-02,-2.13996e-03,-2.81015e-01,1.85419e-01,9.98635e-02,-1.10054e-01,-3.95580e-01,-4.05914e-02,-4.24036e-01,-1.99126e-01,-1.43017e-01,1.77842e-01,-2.96399e-01,-3.37956e-01,-3.47376e-01,-3.06848e-01,3.75420e-01,
-2.24121e-01,3.22424e-01,-5.98292e-01,-4.14091e-02,6.89111e-01,-2.64131e-01,-8.98808e-02,5.76112e-02,-2.03161e-01,-2.95467e-01,-2.23138e-01,3.92672e-02,6.69456e-02,-4.13762e-01,-2.03561e-01,1.16365e-01,2.83804e-01,1.75109e-01,1.75978e-01,3.26064e-01,1.30552e-01,3.39939e-01,1.64349e-01,3.32090e-01,-5.72984e-01,5.48110e-01,4.07455e-01,-5.58344e-02,1.82868e-01,-1.73238e-01,
-6.40630e-02,1.97063e-01,1.99008e-01,2.94176e-01,2.13504e-01,8.79770e-02,-1.28370e-01,-6.48156e-02,-1.56973e-01,-7.11845e-02,2.67960e-01,3.19045e-02,3.80433e-01,-3.94037e-01,-7.63615e-02,9.56531e-02,3.23123e-01,1.86980e-03,3.48446e-01,4.02868e-01,1.12846e-01,-4.99520e-02,5.39006e-02,2.82278e-01,-1.82333e-01,2.30131e-01,3.58567e-02,-2.15090e-01,-3.06405e-01,2.73784e-01,
-5.29508e-01,2.39277e-01,3.20983e-01,2.14055e-01,1.01094e-01,2.72380e-01,1.28869e-01,2.46993e-02,1.88390e-01,3.14744e-01,1.77487e-01,-4.66251e-01,9.15968e-01,4.11705e-01,1.11516e-01,-8.33912e-01,-4.00899e-02,2.93422e-01,2.81518e-01,-1.90850e-01,3.33058e-02,-7.18930e-01,-1.24239e+00,-1.31236e-01,1.28027e-01,-2.11769e+00,6.66472e-02,6.23783e-02,-2.43100e-01,-2.29558e-01,
3.50062e-02,-8.97281e-03,-1.16618e-01,-7.39639e-02,1.30382e-02,-1.58218e-01,1.57403e-01,-1.43924e-01,2.57160e-03,-1.05750e-01,9.63836e-02,3.07186e-02,4.24981e-01,3.58057e-02,1.10544e-01,-1.02834e-01,1.63379e-01,1.37372e-01,-2.98547e-02,7.67011e-02,-1.82593e-01,6.90791e-03,4.68684e-02,-2.78031e-01,-6.72994e-02,-1.96254e-01,9.60123e-02,1.12131e-01,-1.91382e-01,5.21880e-02,
-5.44910e-02,3.01836e-01,-7.16452e-02,1.48887e-01,5.00157e-01,1.97134e-01,2.46292e-01,-1.29544e-02,2.10914e-01,-3.42862e-01,-3.04621e-01,4.83798e-02,-7.57236e-01,-8.89081e-02,5.23417e-01,1.30368e-01,2.47924e-02,-4.92580e-02,-8.46535e-02,2.40243e-01,-3.63469e-01,5.19659e-01,3.65550e-01,-1.13838e-02,3.60754e-02,1.39156e-01,4.69322e-01,2.77973e-01,-2.55454e-01,-2.70628e-01,
-2.07070e-01,-3.37876e-03,1.83540e-01,-1.30819e-02,2.14028e-01,2.08190e-02,-1.43739e-01,1.14565e-01,-2.80045e-01,1.59197e-01,2.41117e-01,-1.35498e-01,-1.81331e-01,-3.98884e-01,-2.02210e-01,-8.86777e-02,1.53590e-01,3.95232e-01,1.05802e-01,-7.54073e-02,1.81689e-01,-9.55707e-03,-1.04220e-01,1.45387e-02,-7.17177e-02,4.01250e-01,-5.90525e-02,-8.63364e-02,2.79972e-01,-3.63100e-02,
2.44717e-01,-6.38336e-02,-6.58802e-02,1.20315e-01,-1.47053e-01,-4.47169e-01,2.69093e-02,4.15362e-01,1.09884e-02,5.09643e-02,-4.31131e-01,1.87997e-01,-1.91016e-01,5.59237e-01,-1.51560e-01,3.96653e-01,-1.19104e+00,-3.48321e-01,-1.85531e-01,-7.46055e-02,4.77805e-01,1.34242e-01,4.03869e-02,3.08005e-01,-2.52921e-02,1.98186e-01,1.11177e-01,2.81753e-01,4.92760e-02,1.18426e-02,
-2.14508e-01,-4.29949e-01,-2.06580e-01,-8.59706e-02,1.73940e-01,-2.10154e-01,-2.89945e-01,2.65595e-01,-1.05186e-01,-4.13481e-01,-3.65526e-01,-7.58601e-02,-4.37233e-01,1.66729e-01,2.28518e-02,-2.92940e-01,-1.17459e-01,2.71756e-01,-1.34222e+00,-5.53010e-01,-9.56936e-02,3.67771e-01,3.77907e-01,-1.06472e+00,7.51407e-01,1.56740e-01,-1.17480e-01,-5.13035e-02,-2.60699e-01,-1.57932e-01,
1.16117e-01,-4.32912e-01,4.51549e-01,1.69223e-01,-1.02853e+00,2.73461e-01,-3.54699e-02,8.54345e-02,3.29639e-01,2.52695e-01,3.11123e-01,2.67396e-01,-9.25510e-02,5.23624e-01,2.04144e-01,-3.47251e-02,1.39742e-01,1.69857e-01,-2.51919e-01,-1.93007e-01,-1.51695e-01,-1.93584e-01,-1.92415e-01,-2.43042e-01,-1.58311e-02,-5.62000e-01,-4.60027e-01,8.56428e-02,7.48753e-02,-2.06185e-01,
1.18950e-01,-2.11966e-01,-1.00528e-03,-2.25418e-01,-2.14942e-01,-4.55786e-02,-1.57834e-01,1.62400e-01,4.95064e-02,-7.26264e-02,-1.44493e-01,-3.02937e-02,8.37983e-02,-2.89228e-01,9.09508e-02,1.24468e-01,1.05996e-01,-2.56182e-01,-2.59558e-01,-2.43438e-01,6.83656e-02,-2.28399e-01,-1.79094e-01,-4.16008e-02,1.87031e-01,5.27957e-02,-2.33088e-01,-1.88536e-01,1.89432e-01,2.05385e-01,
-7.14642e-02,1.36417e-01,-1.88546e-01,-2.60995e-01,1.70759e-01,1.48284e-02,-3.51215e-01,1.52326e-01,-5.84950e-02,6.86128e-02,-3.49373e-01,-3.18560e-01,4.84183e-02,-5.96674e-03,1.53055e-01,-1.96641e-01,-1.04451e-01,-1.99100e-01,-7.04534e-02,-2.82962e-01,-2.98573e-01,-1.35858e-01,1.18769e-01,8.89883e-02,9.72386e-02,7.88610e-02,1.55755e-01,1.70122e-01,-6.83155e-02,1.94792e-01,
-1.18451e-01,6.03379e-02,6.72815e-01,-2.00554e-01,-2.22504e-02,3.46254e-01,4.98956e-02,1.23229e-01,4.90514e-02,5.69773e-01,3.65319e-01,-4.92532e-02,-4.99931e-02,-7.41491e-02,-3.08704e-02,-4.70221e-03,-1.76724e-01,7.76940e-02,1.81318e-01,3.94767e-02,-6.45329e-02,-9.27048e-03,-2.65124e-02,2.12849e-01,-2.70993e-01,6.54737e-03,3.77422e-02,7.53472e-02,-1.26990e-01,3.19590e-01,
2.06893e-01,-1.72270e-01,1.41847e-01,-2.70769e-01,-4.54863e-02,-5.48788e-02,2.44005e-03,-8.76175e-02,-1.69251e-01,2.78590e-01,2.30816e-01,3.92773e-02,-1.02512e-01,-1.39200e-01,-7.82504e-05,3.54414e-02,-6.44459e-02,-2.51874e-01,-1.09548e-01,4.39810e-02,1.76630e-01,-9.52004e-03,-6.08739e-02,-4.40336e-01,-2.21266e-02,3.02752e-01,-1.26161e-01,-4.99004e-02,7.87344e-02,1.39173e-01,
2.09994e-01,1.88839e-01,-4.88392e-02,2.65162e-01,1.38700e-01,2.19496e-01,-1.45043e-01,-2.27947e-02,-1.70868e-01,-2.21617e-02,2.70557e-01,-1.19311e-01,5.24797e-01,-2.36608e-01,-7.63803e-02,3.31767e-01,1.52240e-01,6.52379e-02,1.26430e-01,7.98662e-02,3.01598e-01,-2.55623e-01,-1.11885e-01,5.29749e-01,-6.52517e-01,2.94543e-01,-9.23218e-02,-2.22286e-01,-9.70497e-02,-1.62136e-01,
2.51227e-01,1.35020e-01,1.67904e-01,-2.84441e-01,1.29147e-01,2.80655e-01,-1.13643e-01,1.54029e-02,-1.14867e-03,-1.47517e-01,7.80021e-02,1.83814e-01,1.55931e-01,-2.92712e-01,1.22044e-01,1.20165e-01,6.05225e-01,5.47643e-01,-3.11679e-02,-4.50758e-02,-5.19221e-03,-1.99861e-01,-1.80739e-01,1.11567e-01,-2.03963e-02,1.85548e-01,2.74911e-02,-2.36955e-01,-9.74241e-02,1.28208e-01,
-7.73782e-02,5.86181e-02,-1.01872e+00,-7.31571e-02,1.66484e-01,-4.00853e-01,4.91306e-01,-4.05111e-01,1.23163e-01,-1.71541e-02,-2.10702e-01,-1.12348e-01,1.59175e-01,-8.86629e-02,1.87613e-01,9.75482e-02,-2.87650e-01,1.70323e-01,1.38338e-01,1.70114e-01,-1.22308e-01,-7.07322e-03,1.75571e-01,-9.28568e-02,-1.83536e-01,-1.79624e-01,2.70999e-01,6.00743e-01,-2.51031e-01,-6.33333e-01,
-9.26889e-03,-2.56032e-02,-1.99108e-01,-1.44474e-01,-1.55401e-01,-2.13457e-01,2.43388e-01,-2.65725e-01,2.07903e-01,-1.07198e-01,-2.12450e-01,7.72455e-02,1.63095e-01,8.04640e-02,-2.32535e-02,-6.44826e-02,-4.62984e-02,-6.89147e-02,9.91145e-02,1.16267e-01,-8.24285e-02,-4.54664e-02,4.03119e-02,1.16225e-01,-8.79048e-03,-3.67159e-01,8.74070e-02,2.07187e-01,-9.85807e-02,-2.31979e-01,
2.81143e-03,-8.35173e-01,2.62421e-01,-1.89853e-01,-8.61771e-01,-1.90670e-01,9.04845e-02,5.60405e-01,2.14795e-01,-1.25642e-01,6.01449e-02,8.07373e-02,-4.67627e-01,1.94206e-02,-1.24802e+00,-8.45722e-03,3.95682e-01,3.87203e-01,-4.13924e-01,-2.63457e-02,1.89204e-01,-8.60099e-02,-2.00585e-01,-6.30620e-01,-5.67909e-02,-1.11914e-01,-8.31884e-01,-1.92620e+00,2.64971e-01,-7.24478e-01,
1.62572e-01,1.72284e-02,-1.93855e-01,-2.77253e-01,2.32679e-01,-3.86515e-01,1.23869e-01,2.15501e-01,5.63053e-02,3.02704e-02,-4.33301e-01,3.02293e-01,-3.56030e-01,-1.99032e-01,1.32964e-02,3.37583e-01,-2.70302e-02,3.04733e-01,2.17519e-02,8.00503e-02,2.76900e-01,6.65874e-02,-1.03582e-02,8.39976e-02,-1.56061e-01,5.13055e-01,2.77208e-01,2.78980e-01,-2.03965e-01,-8.22934e-02,
7.81036e-02,
1.28138e-01,
1.04660e-01,
-9.24257e-02,
-5.25474e-02,
1.55654e-01,
-8.48160e-02,
-2.75867e-01,
1.24143e-01,
-3.12049e-01,
2.68344e-01,
-1.70048e-01,
8.57215e-02,
-2.64425e-02,
1.32706e-01,
-1.86813e-01,
3.68343e-01,
2.28301e-02,
-4.83877e-03,
2.71347e-01,
-2.49526e-01,
-2.46511e-01,
1.45599e-03,
1.59453e-01,
7.84259e-02,
2.19899e-01,
-6.22593e-02,
3.15505e-01,
1.65425e-01,
-1.40163e-01,
2.20264e-01,8.33912e-05,1.35681e-01,7.17842e-02,3.38305e-02,2.69632e-02,7.37195e-02,2.41876e-01,1.74020e-01,1.09647e-01,3.04689e-01,-2.79105e-01,2.80953e-01,3.53801e-01,-3.16643e-02,3.68717e-02,1.86250e-01,1.23999e-01,1.42362e-01,3.06490e-01,3.64070e-01,-2.97035e-01,-1.70033e-01,1.70796e-02,-9.73528e-02,3.47617e-02,-1.41351e-02,6.86892e-02,-1.83016e-01,-2.36719e-02,
2.11555e-01,1.28988e-01,1.52974e-04,8.36245e-03,1.23737e-01,8.41037e-02,1.16968e-01,1.75354e-01,2.94167e-01,-2.20852e-01,1.80582e-01,6.23590e-02,8.30692e-02,2.98166e-01,7.88553e-02,-1.41882e-01,9.35352e-03,1.55570e-01,3.21188e-01,1.02970e-01,-2.09370e-01,-2.70178e-01,6.15680e-02,4.95662e-02,-1.15441e-01,2.51544e-01,-2.89039e-02,6.98338e-02,-4.55943e-02,-1.85012e-01,
1.71046e-01,-1.28279e-01,-1.41435e-01,2.01425e-01,-2.54880e-01,2.78100e-02,1.43129e-01,2.60182e-01,1.68979e-01,-4.37600e-02,2.43214e-01,1.03638e-01,-1.01102e-01,1.77452e-01,3.10747e-02,1.27017e-01,2.18270e-01,1.48825e-01,3.88945e-01,-2.46670e-03,7.89855e-02,-6.01506e-02,7.71364e-02,7.87302e-02,-7.15845e-04,1.99528e-01,3.52970e-03,2.22954e-01,-7.43990e-03,-1.93253e-01,
2.50839e-01,2.84811e-01,5.53675e-02,-2.17080e-01,-1.48726e-01,1.48171e-01,1.12415e-01,1.79039e-01,3.17493e-01,-3.84193e-01,1.08690e-01,1.44215e-01,1.25110e-01,3.23206e-01,4.82642e-02,-3.32507e-01,-1.53995e-01,1.63330e-01,4.05801e-01,7.48344e-02,-9.27744e-03,-1.93033e-01,1.11713e-01,1.07002e-01,-1.99899e-01,3.53013e-01,-4.15489e-02,4.00331e-02,-5.57779e-02,-2.47410e-01,
1.94946e-01,-1.96236e-01,-1.65455e-01,2.20048e-01,2.01221e-01,-1.71002e-01,7.62921e-02,3.51149e-01,1.38572e-02,1.58231e-01,9.14593e-02,-1.53851e-02,-1.32528e-02,3.24845e-01,-3.60308e-02,1.74131e-01,1.15133e-01,1.19226e-01,4.34582e-01,-7.00562e-03,8.85678e-02,2.88896e-01,3.58763e-02,-1.31778e-01,-8.09932e-02,1.19274e-01,2.64287e-01,-2.31149e-01,3.55641e-02,-1.02949e-01,
-1.92212e-01,
-1.47625e-01,
-1.74456e-01,
-1.68018e-01,
1.24847e-01,
