// Neural Network File Format by Kyle Julian, Stanford 2016
6,5,5,30,
5,30,30,30,30,30,5,
0.000,
-36655.999999,-36656.000000,-3.141600,100.000000,0.000000,
36656.000000,36656.000000,3.141600,472.000000,1200.000000,
-431.467101,-0.000000,0.000000,249.000000,532.000000,9.330048,
73311.999999,73312.000000,6.283200,372.000000,1200.000000,423.773936,
4.61505e-01,2.32198e-01,1.31043e+00,-2.33023e-02,-4.43925e-02,
4.47505e-01,1.88848e-01,-4.66197e-01,2.30910e-01,9.68613e-02,
-7.09017e-01,-3.02530e+00,7.61845e-02,9.58761e-03,-5.06666e-02,
2.88721e-01,1.66029e+00,5.25726e-02,2.08318e-01,1.75513e-01,
-8.40729e-01,1.12177e+00,1.33608e-01,3.60686e-02,4.26382e-02,
6.85349e-03,-1.78189e-01,-9.58160e-02,2.91778e-01,-2.32049e-02,
9.32661e-01,-1.08932e+00,8.14762e-01,3.74474e-03,9.58812e-03,
6.42537e-01,-4.99405e-01,-1.87570e-02,-4.14821e-02,5.38567e-01,
-4.68774e-01,1.26468e-01,1.23489e+00,3.19249e-02,1.75832e-02,
4.67170e-01,1.53381e+00,-7.61097e-02,-1.06965e-01,8.11413e-02,
-2.42371e-01,-1.11393e+00,2.39088e-01,9.40794e-02,-5.71856e-01,
8.14230e-02,1.56169e-01,-3.22221e-01,-1.18878e-01,-1.15264e-01,
-1.85716e+00,3.03333e+00,-2.97562e-01,-4.69595e-03,-2.60922e-04,
-4.26609e-01,7.06522e-02,1.09104e+00,5.62736e-02,-3.78820e-02,
-1.46043e+00,-6.02940e-01,-1.03501e+00,9.06655e-02,-9.07176e-02,
2.67278e-01,1.40198e+00,-8.37615e-01,3.25443e-02,-7.14436e-02,
1.03006e-02,9.88767e-03,-1.44869e-01,1.73319e-01,-7.65311e-01,
-6.23233e-01,1.33284e-01,1.02755e-01,1.24716e-01,-1.64526e-01,
-7.64979e-01,1.42255e+00,3.59894e-01,6.27365e-02,-4.59850e-01,
-2.99247e+00,-1.44446e+00,-2.20218e-03,-4.94564e-03,-5.30218e-03,
-7.42444e-01,-3.85350e-01,-2.79005e-01,1.00054e-01,-3.23701e-01,
1.05988e+00,8.98984e-01,-7.17323e-01,-1.50888e-02,3.49709e-02,
7.22644e-01,-1.51279e+00,-2.69216e-01,-1.08660e-02,-5.84233e-02,
1.64309e+00,1.14887e+00,4.31153e-01,-1.14452e-01,2.48622e-01,
9.60072e-01,1.07000e+00,4.86524e-01,-5.63048e-02,5.00045e-02,
7.27436e-01,3.43190e-01,-4.92878e-03,-2.13194e-01,4.90086e-01,
1.95782e+00,3.86975e-01,1.72625e-01,-3.35643e-02,5.68648e-02,
1.05902e+00,6.99577e-01,-7.04250e-01,-5.93045e-02,1.93552e-02,
-1.64487e+00,3.17595e-01,-1.15999e-01,3.57430e-02,-3.48766e-02,
-2.04095e-01,-4.87608e-01,-8.66229e-01,3.50733e-02,1.42778e-02,
2.28303e-01,
-2.51436e-02,
7.98744e-02,
1.99754e-01,
2.04137e-01,
1.57801e-01,
-3.48702e-01,
2.67830e-01,
6.18069e-02,
1.59886e-01,
-1.66284e-01,
1.67354e-01,
1.69708e-01,
-1.94698e-01,
-1.14143e-01,
-2.01494e-01,
-1.24757e-01,
1.44787e-01,
-2.94952e-02,
4.28318e-02,
6.99968e-02,
-3.66082e-01,
1.34608e-01,
4.36721e-02,
-1.07450e-01,
7.36942e-02,
1.88922e-02,
1.03387e-01,
2.56644e-01,
4.94201e-02,
7.04722e-01,-4.06004e-01,6.00811e-01,-2.61562e-01,-2.34924e-01,2.76213e-01,1.94575e-01,4.25121e-01,-9.47541e-02,-1.15616e-01,6.64077e-02,9.09562e-02,-3.24490e-01,-5.02471e-01,5.65221e-01,2.05772e-01,3.34080e-01,3.12936e-01,5.16444e-02,1.92854e-01,-1.35299e-01,1.26271e-01,1.73917e-01,1.90333e-01,-6.03470e-02,4.16510e-03,-2.57800e-01,1.31928e-01,-2.48272e-01,-1.23959e-01,
-7.01689e-03,8.69718e-02,-2.09929e-01,-8.33249e-02,2.00019e-02,4.10377e-01,-3.15521e-01,1.74592e-01,3.25471e-01,-2.35734e-02,1.64020e-01,-6.87906e-02,5.82193e-01,-5.91322e-01,-3.99782e-01,-6.43964e-01,-1.89830e-01,3.25564e-02,-2.27129e-01,-2.01381e-01,4.63445e-02,-9.04229e-01,4.26892e-01,4.27278e-01,3.71556e-02,-8.00964e-02,-2.49737e-01,1.79503e-01,-6.19249e-01,1.70770e-02,
6.01556e-01,-9.98449e-02,-2.10060e-01,2.13717e-02,1.20404e-01,2.06159e-01,8.23765e-01,-6.33916e-02,1.71323e-01,-1.27111e-01,-1.08411e-01,-5.27750e-02,1.36969e-01,-3.96287e-01,8.02397e-01,7.13306e-02,-1.20350e-02,2.98629e-01,-2.93537e-01,6.51713e-02,1.39092e-01,-5.60507e-01,-2.84528e-01,2.25476e-01,-2.87956e-01,-1.79956e-02,-2.55914e-01,4.77729e-01,-2.16556e-01,-3.58368e-01,
8.38628e-02,-7.40906e-01,-5.09055e-01,-2.05343e-01,4.29006e-01,2.24247e-01,-3.58175e-01,5.81872e-02,2.17331e-01,-2.69910e-01,6.01184e-02,1.81882e-01,-1.26340e+00,3.93943e-01,1.70675e-01,-3.69023e-01,8.53928e-01,4.07509e-01,2.37580e-01,-9.80849e-01,3.86754e-01,-2.88480e-01,-1.08344e-01,2.55277e-02,-2.56918e-01,-1.54929e-01,2.77089e-01,2.06464e-01,-3.04802e-01,-1.94338e-01,
-1.49622e-01,1.02868e-01,-4.36791e-01,1.37387e-01,-5.92779e-02,1.79708e-01,-5.18865e-01,-1.89584e-01,-2.53808e-01,2.18118e-01,-1.20020e+00,4.32332e-01,-2.68826e-01,-3.95993e-01,5.97169e-01,-5.37623e-01,1.08608e-01,-7.57132e-02,-7.51996e-02,-1.39899e+00,-1.62171e-01,-7.60533e-01,3.11680e-01,8.95186e-01,-1.44772e-01,-2.51485e-01,1.18121e-01,-2.35671e-01,-2.79628e-01,-5.59268e-01,
1.59605e-01,-6.75230e-02,-5.86400e-01,3.90585e-01,5.60224e-01,-6.22506e-02,-3.70105e-01,-3.52836e-01,1.23184e-01,4.22242e-01,1.06420e-01,-6.72797e-02,-8.33398e-01,-1.17229e-01,6.62177e-01,2.77682e-01,2.73334e-01,3.82667e-01,8.54589e-01,-3.57965e-01,-6.52772e-01,2.24160e-01,-4.70191e-03,-2.19375e-01,1.84983e-01,4.02638e-01,1.21428e-01,4.05764e-02,4.47526e-01,-2.75265e-03,
1.93959e-01,-3.57759e-01,1.45768e-01,-2.30262e-01,7.44961e-02,3.01822e-01,6.18653e-01,-4.11136e-01,4.90703e-01,2.16590e-01,3.01740e-01,-6.25763e-01,6.19068e-03,5.81729e-01,-1.04628e+00,-8.70549e-01,5.21533e-01,2.89374e-01,1.15435e-01,-9.29062e-03,2.05026e-01,8.63073e-01,-3.66908e-01,2.54846e-01,-4.72236e-01,2.75950e-01,-4.23486e-01,6.28555e-01,4.56947e-01,-2.67617e-01,
1.72934e-01,8.35647e-01,-1.53362e-01,-1.33224e-01,-2.57480e-01,-6.14565e-01,4.17185e-01,1.46173e-01,2.99460e-01,2.00269e-01,-9.71616e-02,2.53594e-01,1.05268e-01,-2.66717e-01,3.83110e-01,-5.84917e-02,-1.30455e-03,-2.67913e-01,-1.98870e-01,-1.40616e-01,4.56396e-04,4.56022e-01,1.42092e-01,-5.19353e-01,1.31695e-01,-6.93035e-02,-3.07500e-01,3.15174e-01,2.56843e-01,5.67689e-01,
-2.00242e-01,-5.42121e-01,4.43716e-01,3.82757e-01,3.59206e-01,9.16941e-02,-3.99377e-01,2.53329e-01,-3.09555e-02,-2.44782e-01,-1.03876e+00,5.49340e-02,-3.64671e-01,6.63339e-03,-8.63941e-01,6.68975e-01,-3.83119e-01,5.53850e-02,-5.79820e-01,1.16130e-01,-1.01549e-01,-4.12895e-01,-2.40821e-01,-4.99811e-01,1.00273e+00,4.61044e-01,-2.75757e-01,8.36914e-02,-1.92400e-02,-6.39509e-03,
9.49723e-02,-3.56849e-03,1.03470e-01,2.79132e-01,9.00474e-02,-3.33766e-01,-4.54631e-01,4.76862e-01,2.49926e-01,6.43024e-02,-1.13697e+00,-1.72634e-02,-2.49757e-02,1.32879e-01,4.84504e-01,-3.43635e-02,7.18476e-02,-3.49576e-01,-1.64736e-01,-3.40217e-01,-5.21748e-01,5.18777e-01,-7.93613e-02,5.17629e-02,-6.56862e-01,4.49956e-01,1.63589e-01,3.07792e-01,-2.40212e-01,-4.69430e-02,
-1.49816e-01,-3.24495e-01,3.20311e-01,2.55347e-02,-1.92036e-01,-1.63552e-01,1.30880e+00,1.80342e-01,-1.08070e-02,-3.99365e-01,-2.66493e-01,-3.14804e-01,3.98032e-01,4.05071e-01,-1.11945e-03,5.33713e-01,1.00365e-01,4.57795e-01,-2.14433e-01,1.52148e-01,7.25396e-02,3.34872e-02,-6.55000e-02,1.31704e-01,-7.17915e-02,6.69842e-02,-1.18837e+00,-4.56140e-01,-5.79537e-02,3.95929e-01,
6.04272e-01,2.90327e-01,-1.32076e-01,-2.76973e-01,1.10268e-02,-4.58873e-02,-8.82791e-03,-1.47395e-01,-1.19041e-01,4.85236e-01,-7.93277e-01,4.69784e-02,2.74830e-02,-6.44497e-01,-3.34289e-01,-1.38367e-01,-2.38165e-01,2.41477e-02,3.23202e-01,5.62213e-02,-1.86555e-01,1.06786e+00,3.01729e-01,-4.39752e-01,-7.10121e-02,-4.05676e-01,5.44339e-02,-2.89709e-02,1.82446e-01,-1.89630e-01,
1.09743e-01,-2.00990e-02,-5.46634e-02,-5.29190e-01,-4.39325e-01,1.60114e-01,8.82073e-02,-8.82236e-01,2.50237e-01,3.25233e-01,4.74574e-01,2.78730e-01,-1.00329e-02,-3.80042e-01,-7.10458e-01,1.13695e+00,2.09450e-01,-1.12586e-02,-1.12929e-01,2.29182e-01,4.17897e-01,1.68312e-01,5.80103e-01,-2.73214e-01,6.12913e-01,-6.20443e-01,6.29662e-01,-3.05598e-01,-4.66034e-01,4.48363e-02,
-5.43538e-01,-7.79061e-01,1.05661e-01,-2.43580e-01,-4.63554e-01,-2.07482e-01,3.54082e-01,1.58054e-02,9.18519e-01,3.65669e-01,1.89767e-01,2.09811e-01,4.37691e-02,-2.50812e+00,4.47802e-01,-4.15891e-01,7.16040e-01,-5.05105e-01,-2.31494e-01,1.11098e-02,9.01927e-02,-2.80314e-01,2.24778e-01,-2.83183e-01,6.24813e-01,1.21878e-01,-1.50643e-01,5.30529e-01,-1.01793e-01,-4.73616e-01,
-1.01491e+00,-1.11042e-01,9.73854e-02,9.30547e-02,4.37892e-01,-3.87205e-01,-8.57459e-01,1.25772e-01,-3.93676e-01,4.85301e-02,3.76150e-01,-2.77568e-01,3.89261e-01,-4.95873e+00,9.12750e-02,6.48677e-02,-4.64126e-01,-4.37354e-02,7.06298e-02,7.56135e-01,-4.79784e-01,2.66708e-02,1.96292e-01,9.36729e-02,-6.31557e-02,-3.59724e-01,6.66864e-01,-2.11769e-01,-1.35943e-01,-6.53809e-01,
2.22820e-01,1.23010e-01,-1.97910e-01,-1.20668e-01,-2.01212e-02,3.50096e-01,-2.96052e-02,2.78776e-01,-4.53226e-01,-8.12868e-02,4.08865e-01,4.46987e-01,-1.93177e-02,-5.83651e-02,8.14691e-01,8.99729e-01,4.17819e-01,-4.19734e-02,4.56055e-03,-4.60839e-02,2.95368e-02,-1.53729e-02,1.72115e-01,-3.66261e-01,2.83997e-01,-1.37683e-01,3.39496e-01,-2.08557e-01,-3.17742e-01,5.13146e-01,
3.35567e-01,-8.03258e-02,4.04142e-02,-5.40047e-01,9.72621e-02,-1.06381e-01,1.15515e-01,-5.26705e-01,7.01144e-01,4.42243e-02,2.46535e-01,1.33212e-01,3.33582e-01,1.08911e-01,6.51321e-01,8.80020e-02,-8.70488e-02,3.55663e-01,2.77350e-02,-3.65658e-01,-1.26703e-01,-2.57135e-01,-5.72499e-02,-1.62749e-01,-4.67890e-01,4.54230e-01,1.97091e-01,4.87541e-01,-4.08971e-01,2.79980e-02,
3.30933e-01,-1.55411e-01,1.58354e-01,-2.85450e-02,-2.77742e-01,-3.75705e-01,-2.64912e-01,4.01940e-01,-4.56951e-01,-1.67008e-01,-5.35896e-02,-2.99757e-02,3.80450e-01,-1.65506e-01,7.02885e-01,1.74747e-01,2.98251e-01,-2.10498e-01,-3.03285e-01,3.88218e-01,-3.54539e-01,-8.72900e-01,2.90330e-01,2.23967e-01,-2.78647e-01,-1.25263e-01,3.33136e-01,-3.46684e-01,-3.64186e-01,-5.71874e-01,
2.17064e-01,-1.54863e-01,-2.34908e-01,1.22954e-01,2.75971e-01,2.44416e-01,7.26026e-01,2.36291e-01,9.16940e-02,-2.71119e-01,-3.28753e-01,1.55875e-01,-8.62255e-02,-5.48237e-01,5.72162e-01,9.15442e-01,2.64623e-01,2.40115e-01,2.17788e-01,1.29407e-01,-1.16021e-01,2.24897e-01,-2.83693e-01,-1.59658e-01,-4.74831e-01,2.12261e-01,-2.71093e-01,-9.29628e-02,1.69566e-01,9.16564e-02,
-4.60033e-02,-4.01839e-01,3.72962e-01,5.65212e-02,6.98472e-02,1.64825e-01,2.98915e-01,3.69599e-01,1.98311e-01,-3.64178e-01,1.70986e-01,-5.33562e-02,3.70383e-02,-1.21313e-01,1.06132e-01,-2.55708e-01,1.33396e-03,-1.50406e-01,-5.07290e-01,3.84459e-01,1.98834e-02,-7.23160e-01,2.56114e-01,-1.98364e-01,7.46307e-01,4.00447e-01,4.51109e-01,-8.77403e-02,2.07317e-01,-1.19893e-01,
1.00243e-01,2.15862e-01,2.55809e-03,-1.95425e-02,-5.82259e-01,1.67434e-01,1.80671e-01,3.42987e-01,-2.65984e-01,-1.06319e-01,2.77040e-03,1.20897e-01,-8.12573e-02,1.46334e-01,-1.35781e-01,-4.11695e-01,-4.03853e-01,-1.75515e-01,-2.69060e-03,1.35653e+00,1.47493e-01,-3.16140e-01,4.21647e-02,3.25980e-01,-4.94225e-01,-5.73473e-01,1.29633e+00,3.35083e-01,1.34190e-01,1.48031e-01,
-1.37538e-01,1.86325e-02,-1.02199e-01,-1.68997e-01,-2.27570e-01,-2.20055e-02,7.26757e-01,-1.19271e+00,1.00239e-01,1.23992e-01,-6.96428e-01,3.77821e-01,3.14112e-02,4.40979e-01,-1.02564e+00,6.07660e-01,8.45729e-01,3.04006e-01,1.46776e-02,3.62946e-01,-1.01569e-01,-8.97096e-02,-4.22925e-01,2.09402e-01,-8.61748e-02,-8.50812e-01,4.70765e-01,4.37683e-02,-5.16062e-02,1.83116e-01,
3.17315e-01,-1.49196e-01,-5.94442e-02,-6.02366e-01,-4.08493e-01,1.82257e-01,1.90493e-01,-5.69436e-01,8.89647e-02,4.41385e-01,6.20147e-01,-3.61278e-01,6.28620e-02,-6.12337e-01,3.47758e-01,-2.28900e-01,4.34443e-01,3.43154e-01,-3.88817e-01,-2.12516e-01,2.08826e-01,3.38310e-02,1.44646e-01,1.67219e-01,1.69912e-01,-1.42338e-01,-3.27640e-01,8.34236e-02,3.22786e-01,-7.19407e-01,
-7.27771e-02,-1.27221e-01,-2.36326e-01,6.92516e-02,-1.07330e-01,-1.72738e-01,-1.51343e-01,-1.77943e-01,-2.47001e-01,1.39828e-01,-1.76999e-02,-2.86511e-01,-6.03935e-02,1.00653e-01,7.67246e-03,-1.61708e-01,-1.87730e-01,7.37689e-02,-1.64324e-01,-1.29941e-02,-1.54982e-01,2.53268e-01,-1.78069e-01,-8.91765e-02,-1.85086e-01,-2.55971e-01,-7.51933e-03,1.08204e-01,-2.52942e-01,2.68874e-01,
-2.55763e-02,1.70408e-01,5.82123e-01,-3.64982e-01,-1.69576e-01,1.79354e-01,1.27858e-01,2.00017e-01,-1.10707e-01,-3.41975e-01,3.11917e-01,-9.13257e-02,-4.90690e-01,4.42481e-01,-6.86990e-01,2.09221e-02,-1.51932e-02,6.41288e-03,-1.47003e-01,3.19198e-01,2.71927e-01,-1.20547e+00,1.36882e-01,-2.16231e-01,-1.94161e-01,1.00675e-01,3.34441e-01,3.50424e-01,-1.49642e-01,3.58766e-01,
1.44724e-01,-1.78139e-01,-3.15877e-01,3.17145e-01,3.24106e-01,-5.03939e-02,-8.17068e-01,-4.57832e-01,3.72484e-01,3.34487e-01,5.71138e-03,-1.49085e-01,7.21872e-01,-3.60153e-01,3.29108e-01,-2.20992e-01,6.95538e-02,2.59478e-01,4.38301e-01,9.10501e-01,-2.49195e-01,9.10146e-01,-3.75116e-01,-3.70402e-02,1.11589e-01,1.72589e-01,3.96070e-01,1.54561e-01,2.64991e-01,8.04730e-02,
-8.71150e-01,-1.26871e-01,3.22584e-01,6.32864e-02,3.53853e-01,1.51918e-01,-9.80102e-01,-6.21465e-01,4.31479e-01,1.01812e-02,-6.78994e-01,-3.09367e-01,1.49277e-01,-9.95623e-01,4.67557e-01,1.21394e-03,6.20754e-01,-7.26406e-02,-1.09151e-01,2.18042e-01,2.94725e-01,5.11853e-01,4.21496e-01,-1.11605e-02,-5.33633e-01,5.69870e-01,-8.57909e-02,1.42043e-01,-1.30745e-01,-7.38189e-01,
-1.50070e-01,1.76059e-01,-8.85032e-02,6.04112e-02,6.97202e-02,8.15122e-02,3.13077e-01,1.41231e-01,1.13819e-01,2.03800e-01,8.92755e-02,4.24504e-01,-3.13907e-01,3.69695e-01,3.66377e-01,3.29318e-02,6.97746e-01,1.28933e-01,2.46779e-01,-4.38465e+00,3.20209e-02,-8.21809e-01,1.04968e-01,2.86801e-01,5.93853e-01,-1.15512e-01,-5.76014e-02,3.89169e-01,-2.30404e-01,1.74660e-01,
-5.90717e-01,-1.62062e-01,3.02156e-01,9.30233e-02,2.70148e-01,4.99593e-02,-9.26504e-01,-2.98855e-01,-4.99341e-01,-1.43434e-01,1.12615e-01,9.31004e-02,-8.80147e-02,1.71964e-01,5.83403e-01,-4.79423e-01,-2.21893e-01,-2.34884e-01,1.77337e-01,-8.45292e-02,-3.18102e-01,-6.78564e-01,3.30314e-01,5.94761e-01,3.71709e-01,1.02736e-01,3.85455e-01,-5.71850e-01,-3.54821e-01,-1.74327e-02,
1.27250e-01,3.44873e-01,2.32602e-01,-4.63672e-01,-4.37602e-02,-7.56440e-03,3.35138e-01,3.09523e-01,-6.03285e-01,-5.31725e-01,2.64979e-01,1.69477e-01,2.14828e-01,5.79612e-01,-1.91960e-01,-3.52614e-01,4.61924e-01,-4.45907e-02,2.19252e-01,-3.12702e-01,-3.85069e-01,2.62018e-01,4.31457e-01,-3.22964e-01,1.05824e+00,-4.26832e-01,1.36474e-01,-3.55620e-01,6.20206e-01,1.95814e-01,
-1.19578e-01,
1.36527e-01,
-8.93207e-02,
4.35956e-02,
1.84284e-01,
-2.74049e-01,
-1.72626e-01,
8.04679e-02,
2.86412e-01,
9.56304e-02,
2.53667e-01,
2.19309e-01,
-1.81604e-01,
-1.33247e-02,
2.53628e-01,
4.78200e-02,
-1.63248e-01,
2.38659e-01,
5.36571e-02,
-1.43691e-02,
-7.31145e-02,
-3.79469e-04,
-1.44828e-01,
-8.67331e-02,
9.93078e-02,
-2.79923e-01,
-2.73324e-01,
-1.90716e-01,
3.44293e-01,
7.99344e-02,
-5.20932e-01,1.43693e-01,2.17954e-01,7.00915e-02,-9.36851e-02,2.63227e-01,4.23582e-01,-5.08473e-02,6.28144e-01,-9.41663e-02,-1.93999e-01,3.87064e-02,-5.24515e-02,-4.01507e-01,-1.01887e-02,5.60302e-01,-1.86246e-01,2.16520e-01,-2.53346e-01,3.85204e-01,9.73483e-02,-2.58901e-01,2.19645e-01,5.75334e-02,6.95809e-03,8.93406e-02,-2.32592e-02,-1.78072e-01,-1.84307e-01,-1.57191e-02,
1.52477e-01,-4.10559e-02,5.90949e-03,-3.03656e-02,-4.31111e-01,-4.92324e-01,1.29298e-01,3.11830e-01,6.53628e-02,-3.03786e-02,-3.23331e-01,3.07217e-01,1.00499e-01,5.80435e-01,-2.60816e-01,-3.34861e-01,-1.59481e-01,1.97964e-01,4.65168e-01,-2.76085e-02,7.87471e-02,1.08142e-02,-5.72351e-01,-2.80412e-01,-3.91074e-01,9.42167e-02,-1.58460e-01,1.32210e-01,-2.29970e-01,-1.79354e-01,
-4.89321e-01,1.10957e-01,-4.36620e-03,6.75359e-01,-9.00148e-01,-1.25744e-01,1.64444e-01,2.37609e-02,1.42234e-01,-1.97060e-02,-1.25499e-01,2.40550e-01,-1.02558e+00,1.56106e-01,2.38746e-01,8.80688e-02,1.65165e-01,1.68105e-01,2.95571e-01,-3.14643e-01,-8.22193e-01,4.59030e-01,-1.68564e-01,3.60011e-02,-1.23948e+00,-5.28580e-01,-7.80469e-01,2.12009e-01,6.01321e-01,1.41819e-01,
2.43705e-01,1.67197e-01,-6.58426e-01,7.37894e-01,-3.44131e-01,-3.89854e-01,-1.20372e+00,-2.60524e-01,-2.49110e-01,1.92744e-01,2.06574e-01,2.73191e-01,-6.41969e-02,3.06520e-01,4.65752e-01,-6.91938e-01,-1.82361e-01,-2.54374e-01,-2.95860e-01,1.97899e-01,1.94415e-01,-3.08031e-01,-7.79794e-01,-1.84029e-01,-3.55078e-02,1.59588e-01,6.18934e-02,9.92856e-02,-1.44981e+00,3.20894e-01,
3.57653e-01,5.43035e-01,1.40183e-01,-3.24117e-01,-1.37276e-01,6.23021e-01,-8.61129e-01,2.46342e-01,6.80662e-02,-2.35765e-01,-3.00520e-01,-1.07243e-01,-3.52171e-01,-1.16381e-01,5.77116e-01,-3.20115e-01,2.37962e-01,-1.37091e-01,2.45134e-01,7.91475e-02,-1.33112e-01,4.03298e-01,-4.36487e-01,-6.75867e-02,-1.25665e-01,-1.12037e-01,-3.24806e-01,3.71896e-01,-1.12406e+00,-2.76842e-01,
6.04421e-01,1.24732e-01,-2.37615e-01,5.57487e-01,-1.09029e+00,-4.62911e-03,-3.80130e-01,1.45152e-02,1.01958e-01,-2.06630e-01,1.45945e-02,2.56837e-01,-2.71996e-01,1.55182e-01,2.37218e-01,7.32683e-02,1.38225e-01,7.44864e-02,2.55408e-01,-3.97328e-01,4.31183e-02,-1.06185e-01,-1.58549e-01,-1.85812e-01,-5.75386e-01,-1.29295e-01,7.95195e-01,2.13538e-01,-1.94599e-01,-1.12868e-01,
-3.27601e-02,-4.15137e-01,-1.73719e-01,-5.97786e-02,5.98140e-02,1.61008e-01,-1.19365e-01,3.25960e-01,2.93676e-01,-9.74558e-01,-1.46049e-01,4.77020e-01,-2.13981e+00,8.10779e-01,5.15568e-01,-1.83591e-01,5.63639e-01,7.27058e-01,-3.02911e-01,-6.07057e-01,-7.81914e-01,-4.27622e-02,-1.37119e-01,4.71210e-02,-1.49732e-01,-4.94815e-01,-2.49679e-01,-7.23273e-02,-3.12861e-01,3.42734e-01,
-2.43418e-01,4.28008e-02,-4.65114e-02,-7.86149e-02,-8.11932e-02,1.91511e-01,4.44364e-01,3.29917e-01,2.50666e-02,1.22548e-01,3.76059e-01,-3.69975e-01,7.92576e-01,-4.48160e-01,-1.62482e-01,-4.54482e-02,-4.94173e-01,9.91894e-02,1.68715e-01,3.31051e-01,-2.29092e-01,-3.70851e-01,1.13642e-01,1.54677e-01,-2.15066e-01,-2.95557e-01,1.01291e+00,1.87378e-01,8.88403e-01,4.60288e-01,
-1.66679e-01,-1.55014e-01,-3.07769e-01,4.65156e-01,-3.48771e-01,2.06726e-01,-4.51628e-01,2.64831e-01,5.30768e-01,-3.35192e-01,3.27454e-02,-2.95606e-01,6.95831e-02,-4.38522e-02,2.07688e-01,3.17993e-01,3.96511e-01,3.73499e-01,-2.97067e-01,-5.73222e-01,2.22452e-02,-2.47988e-01,6.57842e-01,2.01583e-01,-8.58455e-02,1.02216e-01,1.81071e-01,-4.12856e-01,-1.26887e-01,4.85431e-01,
-1.83262e-01,4.82880e-01,1.35297e-01,2.37311e-01,-2.62104e-01,7.60003e-01,2.32885e-01,7.62235e-02,2.71411e-01,1.28254e-01,-2.04925e-01,5.96190e-02,1.01566e+00,-1.80104e-01,1.34626e-01,2.00336e-01,-2.68259e-01,-5.09441e-02,2.22204e-01,-5.91085e-02,9.55228e-02,-4.63664e-01,-5.77445e-02,-2.61308e-01,1.28280e-01,-5.81466e-01,1.56286e+00,-4.47291e-02,2.02096e-01,-3.96022e-01,
2.10595e-01,-3.74098e-01,1.03985e-01,-2.79444e-01,-5.46290e-01,-6.61057e-01,2.63402e-01,2.06202e-01,-5.81132e-02,2.67969e-02,5.18180e-01,-7.07205e-02,-2.35559e-01,-1.89295e-01,-4.90980e-01,1.00448e-01,-6.68353e-02,7.08777e-02,1.28621e-01,1.12909e-01,-3.40949e-02,3.95494e-02,1.30275e-01,-1.46860e-01,4.51149e-01,1.07039e+00,-3.28854e-01,-1.78107e-01,9.41354e-01,3.35491e-01,
-2.91680e-01,1.25900e-01,-4.80758e-02,-6.07091e-01,7.06581e-01,4.85679e-01,6.33652e-01,5.48296e-01,2.46331e-01,1.31655e-01,-4.27395e-01,3.39234e-02,1.55433e-01,-1.68003e-01,-1.43523e-01,-4.26912e-01,-3.31308e-01,-8.52712e-02,1.74493e-01,3.60778e-01,-1.59230e-01,-3.40394e-01,6.77722e-01,6.43128e-02,1.63703e-01,-7.01764e-02,4.14536e-01,-3.53123e-01,2.63905e-01,3.99572e-01,
-6.21491e-02,-1.34961e-01,-6.19669e-03,-8.48566e-02,1.97878e-01,-3.93135e-01,1.90474e-01,1.29429e-02,1.23845e-01,3.28044e-01,-5.35099e-01,1.95378e-01,5.07695e-01,2.00601e-01,-1.21209e-01,-1.05006e-01,-1.12722e-01,-7.23658e-02,1.35734e-01,4.06916e-01,3.46771e-01,9.41474e-02,-9.09157e-01,-1.86407e-01,-1.33841e-01,7.84707e-01,-8.66042e-01,2.53565e-01,1.32341e-01,-2.27681e-02,
1.17145e-01,3.54634e-01,1.93647e-01,3.38131e-01,-2.17236e-01,4.76671e-01,-6.86670e-01,-1.66786e-01,-2.60591e-01,1.24189e-01,4.86026e-02,3.68457e-01,2.69889e-01,1.71565e-01,-7.22996e-01,3.77561e-01,1.17128e-01,5.21425e-01,4.30176e-01,-2.14025e-01,-1.39279e-01,1.19417e+00,-6.26648e-01,1.73311e-01,-4.90770e-01,2.68079e-01,2.28298e-02,-1.46669e-01,4.18616e-01,-3.34165e-01,
-3.63079e-01,3.12700e-03,3.14076e-01,-5.24624e-01,-8.79825e-01,6.94093e-01,4.17755e-01,2.24763e-01,-1.55352e-01,1.91501e-01,8.82047e-02,3.74719e-02,-1.93689e-01,-5.35524e-01,-6.94681e-01,8.09110e-02,-2.25102e-01,1.10336e-01,2.84569e-01,3.37787e-01,-3.38274e-01,3.20438e-01,-1.42623e-01,-3.11172e-01,-4.31810e-01,1.13682e-01,-4.16321e-02,-4.82408e-01,7.66534e-01,3.24198e-02,
3.92487e-02,1.75603e-01,-1.41037e-01,-3.10563e-01,-2.23255e-01,-9.36036e-02,6.11881e-02,-1.63432e-01,-3.40549e-01,-3.09609e-01,-3.10047e-01,-4.10055e-01,3.89916e-02,-1.28855e-01,-1.85867e-01,1.94296e-02,-2.00456e-01,2.10061e-01,-3.80445e-01,-1.75824e-01,-2.57555e-02,-1.40260e-01,2.56449e-01,-1.13096e-01,-1.60946e-01,1.05171e-01,2.27278e-02,-8.96394e-03,8.67026e-02,-9.27202e-02,
6.35909e-02,-2.62292e-01,-3.07695e-01,-1.04293e-03,1.63002e-01,-2.52879e-01,1.75880e-01,-2.04977e-01,-1.15731e-01,-2.45540e-01,-8.22665e-02,-1.53327e-01,1.69719e-01,2.11517e-01,1.29629e-01,1.10299e-01,-9.96299e-02,7.23491e-02,-4.17976e-02,-2.08152e-01,9.15066e-02,-1.36236e-01,6.17430e-02,1.74038e-01,3.77945e-02,-5.04351e-02,-2.78614e-01,-1.90553e-01,-3.22674e-01,-1.57209e-01,
-3.17871e-01,-5.94380e-01,2.16113e-01,-2.94817e-01,6.25319e-01,-2.16105e-01,2.32892e-01,-2.47542e-01,3.66141e-01,-2.13585e-01,-2.52749e-01,5.39588e-01,1.29785e+00,-5.15816e-01,-1.77858e-01,2.99508e-01,-2.15463e-01,1.43698e-01,2.09734e-01,2.35711e-01,-1.55864e-02,-2.81240e-01,-1.08570e+00,9.40964e-02,1.60388e-01,5.74169e-02,1.69304e-02,-5.22681e-02,2.65256e-01,-1.27770e-01,
-4.00026e-01,2.11589e-01,-5.53429e-02,4.21167e-02,8.81685e-01,-1.20101e-01,5.77615e-02,-5.63795e-01,-9.33401e-02,7.52753e-03,-3.08344e-01,-2.60181e-02,7.11248e-01,3.91060e-01,1.44819e-02,3.85766e-01,-2.72243e-02,-1.90961e-01,-1.29505e-02,-5.31353e-02,-1.46298e-01,7.44518e-01,9.24924e-01,2.76852e-01,5.87671e-01,1.47662e-01,-5.45967e-02,-4.30517e-01,7.74462e-01,2.67218e-01,
-5.66463e-02,-2.38875e-01,-2.03850e-01,-1.76538e-01,2.29074e-01,-1.76218e-01,1.08690e-01,-2.13452e-01,2.98833e-01,-2.33864e-01,2.02840e-01,-3.00760e-01,-3.09660e-01,2.51402e-01,-3.04842e-01,-2.53894e-01,-2.54224e-01,1.38224e-01,1.25528e-01,-3.46521e-01,-1.05465e-01,-9.28372e-02,1.26784e-01,-3.13365e-01,-1.06855e-01,9.46466e-02,-1.02806e-01,-6.92816e-02,-4.92650e-02,-6.19129e-02,
-9.59189e-02,3.46550e-02,1.73968e-01,1.79301e-01,8.73744e-01,-1.91351e-01,6.65503e-01,3.31290e-01,2.05466e-01,-9.45701e-02,3.41234e-02,4.09096e-02,1.42994e+00,-3.59350e-01,5.58430e-01,2.01731e-01,-1.82228e-01,1.11542e-01,1.15722e-01,1.58076e-02,1.79227e-01,-1.28208e+00,-2.47260e-02,1.07264e-01,1.00703e-01,-6.05241e-02,-3.08998e-01,-4.99498e-01,1.00681e+00,7.68606e-02,
-2.60310e-01,2.91159e-02,-1.62201e-01,-2.30617e-01,6.50269e-02,-1.08979e-01,1.87632e-01,-3.11534e-01,-5.27602e-03,-3.02850e-01,-1.39098e-01,3.46620e-02,2.09777e-01,-3.09800e-01,-6.66261e-04,1.28090e-01,-1.01298e-01,-1.63811e-01,-1.53556e-01,-1.79925e-01,-2.26851e-01,-1.00408e-01,-2.02294e-01,-5.73750e-02,-1.29462e-01,1.47245e-01,-1.96989e-01,-1.56973e-02,-2.56490e-01,-2.17345e-01,
9.88967e-02,2.22284e-01,1.41052e-01,-5.40646e-01,2.41956e-01,6.32510e-01,6.11542e-01,3.80436e-01,-2.05863e-01,1.55884e-01,-1.22824e-02,-4.22501e-01,1.50200e-01,-3.58155e-01,-1.23239e-01,2.56076e-01,-1.44323e-01,8.16831e-02,-1.73280e-01,5.99137e-02,-9.59150e-02,2.49886e-01,3.53184e-01,-7.73439e-02,9.27764e-02,5.62479e-02,-7.97070e-02,-1.05390e+00,1.26948e+00,3.11276e-01,
3.06832e-01,-6.32654e-01,2.24232e-01,-2.13990e-01,-7.99844e-01,8.53492e-02,3.62233e-01,-5.47766e-02,-2.97500e-01,4.82107e-02,1.61419e-01,1.24532e-01,-3.90640e-01,-2.47598e-02,2.62811e-01,-2.71847e-01,-2.67214e-01,-7.22517e-02,1.24352e-02,9.82190e-03,1.94919e-01,3.26299e-01,6.46032e-01,3.05280e-01,-2.51273e-01,-5.02251e-01,-1.80228e+00,9.40904e-01,-4.15078e+00,7.82437e-02,
-1.07373e+00,8.68118e-02,3.93159e-01,4.51461e-01,-6.21496e-01,-1.07147e-01,-2.58111e-01,-2.49602e-02,-4.25271e-01,3.21657e-02,4.72696e-02,-1.02478e-01,2.78115e-01,1.14274e-01,-1.08031e+00,-1.85371e-01,-6.83345e-02,3.24453e-01,2.05918e-02,2.70261e-01,-2.88744e-01,8.39740e-01,-4.85693e-01,-6.04063e-04,-1.62271e+00,5.15914e-01,-1.96779e-01,2.35327e-01,-8.77216e-01,-1.53950e-01,
-4.37076e-02,-8.07937e-01,3.41618e-01,2.70017e-02,-1.90174e-01,3.88995e-01,1.48050e-01,3.48931e-01,-1.17373e-01,2.29527e-02,-1.32924e+00,-1.82148e-03,-5.78230e-01,-1.56805e-01,-2.44130e+00,-5.78679e-01,1.84479e-01,-1.75718e-01,4.11140e-01,3.71705e-01,2.34455e-01,1.42042e-01,1.07926e+00,1.35626e-02,-1.01943e+00,-8.58981e-01,-1.39511e-01,2.30871e-01,-1.85534e-01,-6.45733e-03,
1.81893e-01,-1.33760e-01,-1.02484e-01,1.30662e-01,-1.74362e-01,4.60172e-01,5.39618e-02,1.29128e-01,5.44234e-01,-8.40359e-01,-5.86724e-02,3.33266e-01,-2.08501e-01,5.26247e-01,-7.30779e-01,3.30092e-01,1.81961e-01,-2.25625e-01,-3.54362e-01,-3.97892e-01,-1.13750e+00,-2.02672e-01,4.67460e-02,2.96303e-01,-6.50337e-01,-1.23897e+00,1.23375e-01,-3.06580e-01,6.11265e-01,1.93124e-01,
2.30898e-01,-2.64581e-01,-2.30126e-01,6.78118e-02,-1.39333e-02,-2.66128e-01,-2.77080e-01,6.05825e-02,-3.78997e-02,-1.90219e-02,-9.44569e-02,1.94778e-01,-1.54306e-01,-2.94266e-01,8.31757e-02,9.47184e-02,2.47177e-02,8.29384e-02,-1.61746e-01,2.34800e-01,-1.32183e-01,2.72548e-01,8.81174e-03,2.76731e-01,-4.52127e-02,-7.80986e-02,4.26176e-02,-1.43872e-01,-1.54821e-01,-2.99804e-01,
-2.52942e-01,-2.33502e-01,2.76738e-01,-2.35246e-01,-1.77454e-01,-3.15147e-01,-2.38690e-01,-2.73902e-01,-2.69458e-01,2.16906e-01,-1.65580e-01,-2.96287e-01,-8.42949e-02,7.14011e-02,1.29524e-01,-2.99243e-01,1.43120e-01,1.11889e-01,-1.72256e-01,-4.28880e-02,1.69060e-01,-1.42661e-01,3.12261e-01,-2.80298e-01,-2.84575e-01,-2.19307e-01,-4.99071e-02,-4.39944e-02,-2.63466e-01,-5.46431e-02,
-4.38618e-01,3.62870e-01,-9.96929e-03,3.64637e-01,1.17160e+00,-6.04371e-01,2.10744e-02,1.51979e-02,-4.07153e-01,-3.10588e-01,1.10116e-01,6.39884e-02,8.18787e-01,3.19709e-01,-6.44240e-01,-1.18390e-01,1.56026e-02,-8.33285e-01,-3.42277e-01,1.21287e-02,-4.60634e-01,1.22329e-02,1.36878e-01,-3.15591e-01,-4.65285e-01,6.74666e-02,1.77368e+00,1.01453e-01,4.55530e-01,3.14679e-01,
-8.32357e-02,
1.80275e-01,
1.33371e-01,
1.92838e-01,
1.84156e-01,
2.47809e-01,
-1.24978e-01,
9.09779e-02,
1.86202e-01,
-7.83160e-02,
-2.13898e-01,
1.06808e-01,
-6.80997e-02,
-2.06440e-01,
1.02999e-01,
3.58045e-02,
-2.05623e-01,
4.62207e-02,
2.84189e-01,
-2.13775e-01,
-2.09292e-01,
-3.56003e-01,
-1.33776e-01,
-2.14124e-01,
2.24766e-01,
-2.35109e-02,
1.70520e-01,
-2.09339e-01,
2.26282e-02,
1.81070e-01,
2.83871e-01,-3.06096e-01,3.09515e-01,1.54058e-01,2.61751e-01,-2.62850e-01,2.64613e-01,-1.66946e-01,-8.41203e-02,-3.19953e-01,-2.12069e-01,1.86824e-01,-1.11876e-01,-8.56591e-02,-3.12062e-01,1.75795e-01,1.54180e-01,-2.76980e-01,-2.03638e-01,1.28323e-01,2.57385e-01,-2.03948e-01,1.87405e-01,-2.28403e-01,9.59805e-02,-1.29986e-01,-2.03755e-01,2.38731e-01,2.35255e-01,-2.58038e-01,
3.66472e-01,8.14501e-02,1.78903e-01,1.50656e-02,-4.28791e-02,1.72037e-01,3.91583e-02,-2.36386e-01,-1.81878e-01,1.19251e-01,4.14178e-04,-2.01595e-01,5.96713e-02,8.15951e-02,2.73135e-01,-2.98128e-02,-1.62849e-01,2.28766e-01,-1.24647e-01,-2.44435e-01,-2.31710e-01,-2.21539e-01,1.11979e-01,-5.69518e-01,-1.67402e-01,2.00090e-01,3.16270e-01,1.88742e-01,7.45559e-02,-1.75088e-01,
-1.80482e-01,4.52904e-02,1.14216e-01,6.25073e-01,5.30048e-01,2.02453e-01,3.56861e-01,-9.94258e-03,1.76208e-01,6.78508e-02,-3.44855e-01,-1.25771e-01,-1.29829e-01,-7.44982e-01,-3.21171e-01,-1.61832e-01,-9.40975e-02,-1.29529e-01,-5.25409e-01,8.45422e-02,-2.29593e-01,-2.83519e-01,5.14753e-02,-5.80794e-01,-6.21650e-01,3.55915e-01,-6.09530e-01,-2.62319e-01,-2.06839e-01,7.09974e-01,
8.42546e-03,5.13572e-01,-4.86104e-01,2.82658e-01,1.13432e-01,1.67407e-01,3.40353e-02,4.13715e-01,-2.71765e-01,4.95410e-02,-5.87857e-01,3.22272e-01,-5.62887e-01,4.34268e-02,6.98110e-02,2.69545e-01,2.07339e-01,-2.80803e-01,-6.66878e-01,-2.15860e-01,3.26920e-01,1.06253e-01,-4.86664e-02,-4.96039e-01,1.32878e-01,-5.41807e-01,-2.09662e-01,1.47385e-01,-7.87658e-02,2.09692e-01,
-6.46569e-02,-2.81240e-01,2.98163e-01,-7.32063e-02,-3.14599e-01,-1.90046e-01,-2.80331e-01,-2.35083e-01,-2.24265e-01,-2.19744e-01,3.12562e-02,-2.53679e-02,-2.60123e-01,-2.99070e-01,-1.90770e-01,1.52991e-02,5.21698e-02,-1.41671e-01,-2.03186e-01,1.93773e-01,1.80267e-01,1.93007e-01,1.81457e-01,3.98004e-02,2.46852e-01,1.38620e-03,-9.07478e-02,1.56803e-01,-1.69894e-01,-2.07235e-01,
-8.57883e-02,9.43354e-02,1.48556e-01,7.49711e-02,7.39562e-02,-2.42744e-01,4.29930e-01,7.35355e-02,-9.69735e-02,6.80311e-03,9.51608e-03,-2.15321e-01,3.33436e-01,6.19184e-02,-3.07933e-01,-2.13585e-01,1.09472e-01,3.92852e-01,-7.60724e-02,-2.68841e-01,8.58603e-03,-1.35449e-01,3.87118e-01,-1.55461e-01,2.52360e-01,2.45663e-01,-4.43794e-01,-1.28486e-02,3.44322e-02,8.69097e-02,
-9.88858e-02,1.41308e-01,5.63176e-02,1.09375e-02,2.35997e-01,1.01372e-02,1.57500e+00,-4.37066e-01,3.24048e-01,-5.16229e-01,-1.47333e-01,2.31367e-01,-2.12877e-01,-1.90182e-01,-1.23784e-01,1.89750e-01,-2.54213e-01,3.32085e-02,-2.55014e-01,1.09142e-01,-2.47125e-01,-1.06534e-02,1.59156e-01,2.90159e-01,-4.41656e-02,1.65757e-01,6.00436e-01,-2.76115e-01,4.41303e-02,-2.01213e-02,
7.63501e-02,1.04177e-01,-2.27872e-01,-4.30462e-01,-3.18111e-01,-6.21437e-02,-4.32365e-01,8.43505e-02,-1.01702e-01,-1.20087e-01,2.16737e-01,2.27539e-01,2.00446e-02,4.57150e-01,1.99935e-01,1.49462e-01,-8.19449e-02,-4.98311e-02,1.85675e-01,2.51625e-01,1.20894e-01,3.29716e-02,-1.67426e-01,2.29573e-02,4.37109e-01,-1.77471e-01,-1.01215e-02,-2.08549e-01,1.06024e-01,-1.81397e-01,
-2.91190e-01,9.83559e-02,4.72387e-01,-8.92375e-01,-2.15854e-01,-2.29317e-01,-1.71760e-01,7.48266e-02,1.29629e-01,-5.95203e-01,-4.25610e-01,2.24669e-01,-6.43821e-01,4.52955e-01,3.99801e-01,-1.37369e-01,-2.71183e-01,3.60066e-01,-2.26793e-01,-1.07858e-01,-9.04962e-02,1.94143e-01,-1.46923e-01,-2.46643e-01,-4.47839e-01,6.48429e-01,2.17312e-01,-1.99399e-01,1.23504e-01,7.58225e-02,
-8.71616e-02,1.36630e-01,-1.84018e-01,-2.14480e-01,2.18870e-01,-7.48083e-02,2.38220e-01,-2.09936e-01,-1.02997e-01,-7.33416e-03,-7.66895e-02,-1.00520e-01,-1.09348e-01,-3.28985e-01,7.80851e-02,3.16029e-01,-6.01459e-02,-2.67599e-01,4.57525e-02,-2.35761e-01,2.38523e-01,-5.36693e-02,-2.06420e-01,2.63001e-01,3.60706e-02,-1.42473e-01,9.14007e-02,-1.89720e-01,-4.97885e-02,1.84975e-01,
1.07445e-02,-1.46656e-01,5.14266e-03,-8.76590e-02,-1.90831e-01,-3.23038e-01,2.35528e-01,-1.70406e-01,-2.38754e-01,-2.05616e-02,-2.49830e-01,-1.43909e-01,-2.23090e-01,-7.48177e-02,-2.57967e-01,1.86112e-01,-1.09100e-01,-2.03270e-02,-2.55323e-02,2.17697e-01,1.39700e-02,-2.32508e-02,2.48604e-01,2.55623e-01,-1.48978e-02,1.60777e-01,-1.55586e-01,1.78629e-01,-2.55097e-02,1.75964e-01,
1.20686e-01,1.37883e-01,2.69036e-01,5.88484e-01,-1.14108e-01,-7.37147e-03,6.25861e-01,1.67435e-01,-1.11195e-01,-6.81759e-02,-6.51737e-01,-2.43995e-01,-4.97444e-01,-4.56878e-02,1.69774e-01,2.68632e-01,-1.50249e-01,2.99159e-02,-2.61728e-01,1.58540e-01,-4.39823e-01,1.61574e-01,2.92734e-01,-1.85832e-01,-6.22579e-01,3.39087e-01,6.19174e-01,-1.78675e-01,1.14814e-02,-9.81871e-02,
6.70416e-02,-1.13389e-01,-8.42446e-02,-6.41669e-02,-3.34457e-02,1.52568e-02,2.13269e+00,5.13486e-02,2.45019e-02,4.30611e-02,4.38049e-02,9.69533e-02,-1.34614e-02,1.38775e-02,1.11370e-01,-2.24278e-02,2.28230e-01,-1.91730e-01,9.21621e-02,5.42211e-02,-1.15199e-02,3.10831e-01,-1.24886e-01,5.39670e-02,-7.63131e-02,-4.17915e-01,1.05283e+00,-6.19259e-02,-2.38513e-01,-9.74417e-02,
3.05601e-01,4.50870e-01,2.17217e-01,2.85520e-01,1.87261e-01,5.44638e-02,-1.37627e-02,8.82469e-02,-5.54337e-01,-1.94028e-01,-1.64524e-01,2.37288e-01,-1.39337e-01,5.15518e-01,-7.98162e-01,1.70692e-01,-2.53668e-01,1.35507e-01,-4.73919e-01,2.81126e-02,1.68375e-01,1.86931e-01,5.63866e-01,3.38870e-01,4.77840e-01,-2.93809e-01,-3.96257e-01,2.44619e-01,6.71187e-03,3.54599e-01,
-4.93688e-01,2.47898e-01,3.17163e-01,2.14823e-01,4.96639e-02,-1.13704e-01,7.50683e-01,-2.38673e-01,7.00568e-02,9.23406e-02,-4.17791e-02,5.42388e-02,2.55224e-01,-9.73138e-02,-7.91361e-02,-3.73567e-02,-1.88889e-01,4.85611e-01,-1.75220e-01,-1.55061e-01,-1.40385e-02,3.44311e-02,3.62010e-01,1.53782e-02,1.88002e-01,-1.18257e-01,-1.95141e-01,6.94648e-02,4.97019e-02,1.72401e-01,
1.59900e-01,-2.15596e-01,-2.59763e-01,-2.44578e-01,-2.17780e-01,-2.91871e-01,-2.05302e-01,-2.77256e-01,-2.23197e-01,-3.67761e-01,-2.96148e-01,-2.42720e-01,1.87894e-01,1.83404e-01,2.24033e-01,-2.80068e-01,-8.07803e-02,-1.48958e-01,-2.24237e-01,2.54328e-01,-3.74798e-01,6.28679e-02,-9.73469e-02,-3.16292e-01,-5.85741e-02,1.75046e-01,2.70300e-01,-8.23062e-02,-2.31646e-02,2.75876e-01,
3.34645e-01,-5.46290e-01,1.42951e-01,7.73195e-01,5.23926e-01,1.64158e-01,2.14101e-03,1.68234e-02,5.19946e-02,1.26577e-01,-1.08195e+00,-2.89910e-01,-2.75990e-01,6.27160e-02,1.21180e-02,6.75777e-02,-1.76376e-01,-1.20259e-01,-3.50308e-01,-2.92699e-01,-2.41727e-01,-9.21670e-02,5.28769e-02,5.11491e-02,-5.18944e-01,1.19981e-01,6.45221e-02,-1.92082e-01,1.82993e-01,1.47977e-01,
-2.95509e-01,-1.38981e-01,-1.19943e-01,1.75667e-01,-6.79338e-02,-1.22321e-01,5.08811e-02,-3.38690e-01,-1.35678e-01,-2.17226e-01,-2.30652e-01,9.94542e-02,1.87906e-01,-8.52791e-02,1.43659e-02,-3.13146e-02,9.05867e-02,5.79092e-02,7.93637e-02,2.23666e-01,-2.55618e-01,1.29881e-01,2.13597e-01,-1.89091e-01,-2.61216e-01,1.33730e-02,2.35903e-01,5.70982e-02,2.52255e-01,-1.99865e-01,
6.55501e-02,-1.00310e-01,-3.52376e-01,-2.61989e-01,-2.09100e-01,-2.21824e-01,1.76363e-02,1.96266e-01,-4.17565e-03,3.38280e-02,2.17843e-01,1.06235e-01,2.92627e-01,2.12742e-01,8.61058e-03,5.98317e-02,1.60010e-01,-2.75862e-02,2.03281e-01,1.27576e-01,7.52809e-03,-2.22174e-01,-7.21906e-02,-1.50478e-01,2.63813e-01,2.94051e-01,-2.95316e-01,2.29065e-02,-2.67291e-01,-3.03183e-01,
2.51463e-01,2.24883e-01,2.80760e-01,-2.82940e-01,9.95577e-02,3.13964e-01,-7.41108e-01,-2.19612e-01,7.90016e-02,-4.69967e-01,-7.88285e-01,1.46403e-01,-5.14850e-01,-3.10864e-01,4.16777e-02,-9.18816e-02,1.91380e-02,3.40161e-01,-1.99769e-01,-3.19094e-02,-3.71286e-01,-2.27427e-01,7.33186e-01,2.84192e-01,-2.75223e-01,3.73633e-02,-9.08680e-02,1.21844e-01,-9.45444e-02,-2.45723e-01,
3.81581e-01,5.31114e-01,1.43520e-01,4.14630e-02,1.59235e-03,5.59194e-02,-3.36236e-01,-4.06885e-02,-2.48768e-01,-1.95285e-01,-1.43142e-01,-1.54326e-01,-1.21225e-01,2.92104e-01,-2.73767e-01,2.85412e-01,2.66156e-01,2.04362e-01,-1.92380e-01,-2.70952e-01,9.56594e-02,2.33756e-01,4.71633e-01,-2.03819e-02,2.50780e-01,-6.44573e-01,-5.69047e-01,-2.71913e-01,2.74650e-01,4.41061e-01,
-8.87874e-02,3.06704e-01,4.61629e-01,5.06272e-01,5.10447e-01,-1.17852e-01,5.00900e-01,-2.14707e-01,1.96237e-01,5.14110e-01,-1.58194e-01,-2.26956e-01,-1.61640e-01,-1.55849e-01,5.50876e-01,2.19263e-01,2.73721e-01,1.97548e-01,7.81176e-02,-2.90499e-01,-8.12249e-02,2.20679e-01,1.42361e-01,2.19535e-01,-7.46202e-02,-4.75977e-03,2.46481e-01,5.79567e-02,-7.50716e-02,4.96081e-01,
6.27253e-02,-2.95308e-01,-6.66581e-01,-8.81127e-01,-3.16808e-01,-2.69733e-01,-1.62307e+00,2.02150e-01,1.60175e-01,-1.54006e-01,3.99713e-01,-3.37217e-02,-5.03972e-02,1.58944e-01,5.68165e-02,2.69186e-01,-1.60979e-01,-2.06150e-01,2.34620e-01,3.02636e-01,2.24092e-01,1.74018e-01,-6.23407e-01,1.42777e-01,2.08161e-01,9.51742e-01,2.81939e-01,-1.71158e-01,1.26179e-01,-4.82017e-01,
-1.22327e-01,8.61092e-02,-7.10922e-01,-5.83238e-01,-3.78019e-01,-2.13005e-01,-5.43496e-01,-7.69977e-02,4.44222e-01,-7.32760e-02,2.68838e-01,2.52366e-01,-4.37532e-02,-5.12357e-03,1.90269e-01,-3.04372e-02,8.96063e-02,-1.19521e-01,8.03013e-02,1.62780e-01,1.23461e-01,-1.97147e-01,-5.04422e-01,4.14576e-02,1.71583e-01,4.67564e-01,7.47458e-02,1.66023e-01,3.81325e-02,-2.96540e-01,
-7.62020e-01,5.01101e-01,3.25681e-01,8.60277e-01,2.38643e-01,-3.80067e-01,-2.60641e-01,-2.74256e-01,-4.49394e-02,-1.93596e-02,-5.40334e-01,-1.48209e-01,1.27717e-01,3.19172e-01,2.68854e-02,-9.04929e-02,-4.71542e-02,-1.11926e-01,2.32275e-01,-5.11968e-02,6.76507e-02,1.72577e-01,4.60619e-01,-2.25200e+00,-7.46683e-02,1.51783e-01,7.38681e-01,-2.71061e-01,2.05291e-01,-2.16487e-02,
2.48258e-01,2.59655e-01,2.59179e-01,8.10796e-01,3.99302e-01,1.99151e-01,2.58546e-01,-3.25372e-01,-6.08336e-01,1.36661e-01,-3.69130e-01,-6.07186e-01,-3.12955e-02,-2.67779e-01,3.02783e-01,1.58081e-01,-1.31071e-01,2.84062e-01,-2.33069e-01,-3.07541e-01,-2.68323e-01,-2.58701e-02,5.89686e-01,-3.77674e-01,-5.63336e-01,-5.09019e-01,-9.08935e-03,-2.29935e-01,-2.59788e-01,6.47411e-01,
-1.94565e-01,-1.77460e-02,-1.34396e-01,-6.03320e-01,-3.14680e-01,-1.83208e-01,1.29745e-01,6.22327e-02,-6.66973e-02,-1.22819e-01,3.06311e-01,1.56597e-01,6.53950e-02,4.45501e-01,2.06783e-01,-7.67436e-03,-1.89887e-01,1.02376e-01,1.84368e-01,2.69024e-01,1.89876e-01,8.43483e-02,-2.53198e-01,1.92347e-01,5.22416e-01,-3.60600e-01,-4.54137e-02,1.17355e-01,-5.08734e-02,-2.53947e-01,
-3.47317e-03,1.81745e-01,6.23782e-01,4.18043e-01,5.02693e-02,2.11449e-01,4.61871e-01,8.76719e-02,-4.12117e-01,1.33843e-02,-1.24276e-01,2.46673e-01,1.85979e-01,4.58522e-01,2.28986e-01,-4.12856e-02,1.48983e-01,1.01365e-01,1.33365e-01,2.74526e-01,-1.33469e-01,-7.24846e-03,3.21721e-01,-2.65562e-01,3.68689e-01,4.18465e-01,1.33415e-01,5.50588e-02,1.24584e-01,1.51828e-01,
-1.80691e-01,9.88404e-02,-2.14444e-02,5.79164e-01,1.79916e-01,2.57485e-01,1.75308e+00,1.18478e-01,-1.49057e-01,4.59366e-02,-2.90174e-01,-2.29997e-01,-3.89394e-02,-2.15898e-01,-9.32060e-02,-1.09635e-01,-1.44521e-01,3.75458e-01,-7.61269e-02,1.98228e-02,-2.73063e-01,5.71817e-02,2.98705e-01,9.65887e-02,-2.74526e-02,8.14272e-01,9.77924e-01,1.72214e-01,4.36062e-02,1.31055e-01,
-4.13076e-01,1.67183e-02,2.68053e-01,4.85456e-01,5.07684e-02,8.62622e-02,-1.70957e-01,2.33490e-01,3.82894e-01,-4.70520e-02,-1.98188e+00,-7.31185e-01,1.01983e-01,-2.72631e-02,1.18764e+00,-5.02640e-02,-7.93491e-02,-7.21588e-02,-8.10383e-02,2.23535e-01,2.69535e-01,-7.52175e-02,-5.94131e-02,4.13363e-01,-2.88015e+00,3.55018e-02,6.30121e-02,-3.89445e-02,-2.22726e-01,4.03976e-01,
-2.08443e-01,
-2.36845e-01,
2.60363e-01,
5.59210e-02,
-2.87034e-01,
-6.28635e-02,
7.26195e-02,
-1.17436e-01,
-6.47426e-03,
-2.33951e-01,
2.47559e-02,
3.81408e-01,
9.41205e-02,
-4.07144e-02,
1.34949e-01,
-2.02899e-01,
1.04925e-01,
-2.08437e-01,
2.45360e-01,
5.28427e-02,
1.86566e-01,
-2.20759e-01,
1.14795e-01,
2.83408e-01,
-4.12663e-01,
8.17557e-03,
7.54782e-02,
-5.85192e-02,
2.26768e-01,
-1.69912e-01,
2.39778e-01,8.00147e-02,-2.95999e-02,5.70834e-02,2.46259e-01,-2.35544e-02,-2.26940e-01,4.13132e-03,1.51452e-01,7.16730e-02,1.99799e-01,2.61475e-01,-1.79277e-01,-1.16004e-01,-2.75401e-01,2.26286e-01,-9.61663e-02,3.10562e-01,2.86666e-01,-7.26700e-02,2.03919e-01,-1.59728e-01,-2.60096e-01,-6.11529e-02,1.56304e-01,2.79714e-01,-2.02704e-01,-2.30803e-01,-2.60826e-01,3.04394e-01,
9.37724e-02,9.96301e-03,1.59484e-01,-2.09638e-01,2.41724e-01,2.79201e-01,-7.04841e-02,-4.47075e-02,-2.79780e-01,-1.06781e-01,3.15478e-01,2.54286e-01,-3.60596e-01,-2.24380e-01,2.10684e-01,-1.55527e-01,2.30422e-02,1.13727e-01,-6.26459e-02,2.37577e-01,-3.16157e-01,-3.57251e-02,-2.34565e-01,-1.09854e-01,9.67627e-02,-2.13780e-01,2.45035e-02,-7.65393e-02,-3.17272e-01,7.57744e-02,
7.11280e-03,9.65816e-02,8.76403e-02,1.14443e-01,2.28635e-01,-3.03348e-01,-1.72715e-01,-5.04083e-02,-2.97960e-01,8.23489e-03,-9.89871e-02,-1.45873e-01,-4.17820e-01,-9.13323e-02,-1.73838e-01,-1.98204e-01,-2.59157e-01,-9.12190e-02,1.45770e-01,2.76839e-01,-2.57253e-01,-3.69645e-01,9.33643e-02,6.00550e-02,1.02475e-01,3.10510e-01,1.09587e-01,-3.76946e-02,-8.20117e-02,3.14799e-01,
-1.68107e-01,4.86969e-02,-3.61133e-01,-2.70460e-01,2.63040e-01,-8.48611e-02,1.04341e-01,-9.76933e-02,-1.36836e-01,-6.52776e-02,3.81138e-02,-4.13250e-02,1.68875e-01,7.24897e-02,-1.82197e-01,1.13498e-01,4.24266e-01,-2.89573e-01,6.20001e-02,1.97444e-01,2.13106e-01,-6.89959e-03,-4.53334e-01,4.62796e-01,1.78585e-01,2.23724e-02,3.88236e-01,-8.68624e-02,1.02118e-01,-3.59545e-01,
-1.40294e-02,3.18486e-02,-1.84995e-01,6.06357e-02,-2.52731e-02,7.59696e-01,-9.55745e-02,-2.41545e-01,-8.24539e-01,5.91170e-02,-5.18634e-02,-1.59419e-01,4.04956e-01,-6.42372e-02,-8.34326e-01,3.77893e-03,-6.16168e-01,-1.98261e-01,-3.42080e-01,2.80244e-01,8.87614e-02,-1.66995e-03,-7.58078e-01,5.12416e-01,-7.53333e-02,1.09639e-01,4.26976e-01,-1.83820e-02,1.96610e-01,-6.97902e-01,
-2.78010e-02,9.02753e-04,8.20587e-02,1.32886e-02,-1.36711e-01,1.38379e-01,-1.99255e-01,-2.73043e-01,-1.57206e-01,-2.52541e-01,2.27878e-01,-2.97515e-01,-1.02049e-01,-7.60721e-03,1.91829e-01,-3.48103e-01,2.33274e-01,-1.57794e-02,1.88541e-01,-4.39440e-01,2.89067e-01,2.29929e-01,-7.16251e-02,5.55311e-02,-5.85474e-02,1.33799e-01,-6.76185e-02,2.03560e-01,9.82168e-02,7.84280e-02,
-2.93442e-01,2.98670e-01,1.05307e-01,1.98977e-01,1.65382e-01,-1.83408e-01,-1.48665e-01,2.46933e-03,-2.16023e-01,3.61775e-02,-1.69506e-01,3.09300e-01,-1.26094e-01,-1.87465e-01,8.50736e-02,-3.61848e-02,-2.47908e-01,2.51641e-02,-2.04081e-01,-9.63891e-03,-7.22849e-02,-2.79768e-01,2.49948e-01,-2.22948e-01,-3.08095e-01,2.36464e-01,3.62560e-02,-3.03008e-01,5.58926e-02,-2.39058e-02,
1.57227e-01,1.15182e-02,-9.00481e-01,-3.19007e-01,1.74979e-01,-1.01469e-01,-1.05926e+00,-3.09731e-01,1.00373e-02,-1.94136e-01,-2.37737e-01,3.56268e-01,1.65314e-01,2.22463e-01,-1.56679e-01,-2.56427e-01,2.77660e-01,1.32552e-01,3.79984e-01,1.39391e-01,1.18739e-01,-1.15819e-01,5.65459e-02,2.30366e-01,9.17234e-01,2.15564e-02,-2.06570e-01,1.23911e-01,4.55570e-02,1.70174e-01,
2.50768e-02,1.77932e-01,1.12797e-01,-8.18066e-01,-2.45695e-01,-1.82268e-01,3.36243e-01,-4.44711e-01,-3.86377e-01,2.90385e-02,2.68416e-01,-3.55460e-01,-2.85191e-01,4.29842e-01,2.40279e-01,2.55639e-01,1.65562e+00,1.31343e-01,3.73452e-01,-8.80618e-01,3.60779e-01,-2.95476e-01,-1.59400e-01,2.97546e-01,-3.90457e-01,8.55372e-03,2.76006e-02,2.21018e-02,3.55092e-01,3.66151e-01,
-1.27733e-01,3.81055e-02,6.72396e-01,-3.06837e-01,1.94067e-01,3.27314e-01,8.57911e-01,6.32444e-01,-5.91919e-02,-7.52181e-02,1.23062e-02,1.91482e-01,2.68283e-01,2.51848e-02,-8.06835e-02,6.93620e-03,-4.97136e-01,5.80565e-02,-1.84339e-01,3.93129e-01,7.77206e-02,-2.42750e-01,1.70136e-01,9.94017e-02,-3.17324e-01,-1.86465e-01,-9.10565e-02,2.46069e-01,-2.71904e-02,1.02247e+00,
2.08733e-01,5.99514e-02,-2.30009e-01,2.36647e-01,-1.18789e-02,-1.44138e-01,2.32364e-01,-1.33290e-01,-7.86419e-02,1.40430e-01,1.40094e-02,-2.42683e-01,-2.40836e-01,6.67211e-03,6.58331e-02,-2.38583e-01,-2.17011e-02,-3.88067e-02,-1.19376e-01,-3.02851e-01,-3.67710e-01,-4.63879e-02,-2.47526e-01,-1.03271e-01,-1.42816e-01,2.51910e-01,-1.91751e-01,2.37989e-01,1.76625e-01,-1.32478e-01,
1.50392e-01,-3.30669e-02,4.42823e-01,-5.29759e-02,-1.15563e-01,-2.12670e-01,3.91501e-01,-3.80390e-01,4.03069e-01,-3.31242e-01,-1.08469e-01,-2.26808e-01,1.98436e-01,3.63328e-02,2.73726e-01,-6.30371e-02,2.50118e-01,1.65982e-01,-4.69281e-02,-1.08828e-01,1.09974e-01,8.04346e-02,-1.16083e-01,-5.21264e-02,-4.31813e-01,2.34588e-01,3.16092e-01,2.37205e-01,-2.94013e-03,-8.64951e-02,
-2.18010e-01,1.64793e-01,-4.49615e-01,-5.73806e-01,2.48558e-01,-2.05275e-01,-8.06614e-01,1.69422e-01,2.55446e-01,2.46857e-01,-2.11687e-01,5.90012e-01,-1.36326e-01,5.68799e-01,-9.03088e-02,-9.55660e-02,1.66803e-01,8.32148e-02,4.23209e-01,-1.36615e-01,-2.71611e-01,4.58094e-01,-4.54165e-01,4.79089e-01,9.36535e-01,2.85651e-01,1.36699e-01,-3.23919e-01,-5.01725e-01,9.56975e-01,
-3.27571e-02,4.36027e-02,-4.06962e-01,-2.53941e-01,1.61143e-01,-1.65991e-01,-2.50092e-01,6.31397e-02,-1.29032e-01,1.63475e-02,-2.92732e-01,-8.22638e-02,3.40984e-01,1.51203e-01,-9.32221e-02,1.49951e-01,-3.25760e-02,-5.16604e-02,6.08239e-02,8.60752e-02,-1.29467e-01,-2.86017e-02,9.21342e-02,2.90066e-01,4.87501e-01,2.56668e-01,1.61402e-01,-1.11045e-01,-1.36248e-01,-4.39148e-01,
-1.53015e-01,-1.63228e-01,2.69888e-01,-1.75880e-01,-2.52835e-01,3.32348e-01,1.61516e-01,8.09803e-01,-5.49936e-01,-1.58281e-01,2.90168e-01,-6.96696e-02,2.43819e-01,-3.39593e-01,-3.07490e-01,2.73024e-01,-1.90408e-01,2.98916e-01,-1.82995e-01,1.87614e-01,1.59429e-01,1.20600e-01,-4.67341e-01,-1.88310e-01,-2.61027e+00,-1.16382e+00,-4.96188e-01,-6.26136e-01,3.36681e-01,1.21872e-01,
-7.59109e-03,-1.25520e-01,-2.87246e-01,-1.20991e-01,6.10161e-02,4.62241e-01,4.55071e-01,1.17273e+00,-2.00888e+00,8.76105e-02,-2.58449e-02,-1.24532e-01,3.94794e-02,-2.85854e-01,-2.59245e-01,2.47599e-01,-1.67875e-01,8.92409e-02,-1.43470e-01,-1.02606e-01,-8.50831e-02,-1.05778e+00,-3.41058e-01,-3.17978e-02,-1.70189e+00,8.53843e-03,-6.04409e-01,-3.11455e-01,6.50045e-01,-9.85353e-02,
2.23679e-01,6.18347e-01,3.91165e-01,2.95931e-01,5.78638e-02,1.13186e-01,-1.81614e-01,-5.84947e-01,-5.19468e-01,1.02809e-01,8.86448e-02,-8.92562e-02,-2.45663e-01,-8.10391e-02,-1.17917e-01,-2.74796e-02,-1.01656e-01,1.78300e-01,8.83008e-02,-3.23977e-01,-1.75708e-01,1.75110e-01,-3.75979e-01,-2.76912e-01,-1.90044e+00,-1.87792e-01,-3.87975e-01,7.14823e-02,2.24646e-01,1.20768e+00,
-5.38529e-02,-2.16539e-01,7.92792e-02,-1.43554e-01,-1.36166e-01,-5.78762e-02,-7.64477e-03,-1.19281e-01,-3.09338e-02,6.95483e-02,1.13218e-01,3.78756e-01,4.32969e-02,-3.04577e-02,-3.75315e-01,1.07672e-01,-3.35892e-01,4.70322e-02,-8.68917e-02,8.30300e-02,-6.08746e-02,-4.13433e-01,-5.16396e-01,1.27046e-01,-4.37182e-01,4.23427e-01,-1.43962e-02,1.31904e-01,5.34803e-02,7.02677e-01,
-9.70113e-02,-2.52888e-01,1.70777e-01,-1.91778e-01,-1.02017e-02,-2.86467e-01,2.05271e-01,2.04851e-01,-2.83610e-01,7.20002e-02,-1.29749e-01,-1.74639e-01,5.16400e-02,-7.56659e-02,-1.63237e-01,-1.16837e-01,-2.61707e-01,3.75513e-02,3.72701e-02,-2.58686e-01,-1.82494e-01,-1.98881e-01,2.25968e-01,-3.43590e-01,6.57451e-02,2.10126e-01,-4.00909e-03,-2.43473e-01,-6.89408e-03,2.39789e-01,
2.34618e-01,-1.23676e-01,2.25020e-01,3.25223e-01,-2.49119e-01,2.97341e-01,5.92002e-01,-1.62238e-01,1.81313e-01,-2.79643e-01,-1.42036e-02,9.79432e-02,2.17902e-01,-3.90238e-02,-9.59541e-02,3.27085e-01,1.67772e-01,2.94845e-01,-1.82729e-01,1.43465e-01,1.22793e-01,3.18842e-02,1.41692e-01,1.53421e-01,-2.90888e-01,6.71978e-01,3.87513e-02,1.19419e-01,3.47340e-01,5.60861e-01,
1.01506e-01,-1.59021e-02,6.22199e-01,2.11078e-01,-2.84564e-01,2.75454e-01,7.62345e-01,-1.65238e-01,1.84849e-01,-2.14822e-01,-3.16437e-02,-1.73799e-01,4.90223e-01,-7.04926e-02,-7.84992e-02,-1.65312e-01,-2.81280e-02,-2.11617e-01,-2.25787e-01,3.24873e-01,8.21754e-02,-1.69785e-01,3.59810e-02,1.07894e-01,-1.10450e-01,2.19880e-01,7.99454e-02,1.24638e-01,3.02117e-01,7.26665e-01,
1.07826e-01,-3.07889e-03,-3.01006e-02,-9.68319e-04,-1.82077e-01,1.06400e-01,-4.27101e-01,-3.82010e-01,-2.81101e-03,-2.25763e-01,-2.16745e-01,-3.31031e-01,4.80208e-02,-3.45172e-01,3.41466e-01,1.43364e-01,2.11338e-01,-2.17811e-01,1.93295e-01,-3.31109e-01,4.40672e-01,7.36395e-02,3.18110e-01,-1.90887e-01,-1.92111e-01,1.84766e-01,-2.61011e-02,1.95212e-01,3.57953e-01,-8.25952e-03,
-2.91020e-01,9.06663e-02,-3.26547e-01,-5.62791e-02,1.07091e-01,1.72815e-01,-7.43876e-02,-1.92029e-02,-4.56417e-01,2.15335e-01,3.05131e-01,-7.74233e-02,8.04010e-03,-1.29645e-01,-1.37320e-01,-2.40741e-01,1.40530e-01,-2.57114e-01,-6.94569e-02,2.12038e-01,2.75249e-01,1.50364e-01,1.09350e-01,3.25236e-02,1.70128e-01,5.29684e-02,-1.73273e-01,7.55246e-02,1.11111e-03,-3.03154e-02,
-9.99209e-03,-1.85301e-01,-3.42250e-02,4.64945e-01,2.79964e-02,-1.72357e-01,1.68205e-01,9.32163e-02,-1.14406e-01,7.30098e-03,2.53016e-01,-4.07981e-02,-2.01810e-01,-2.87675e-01,-2.51976e-01,-9.04505e-02,-9.32738e-02,-2.74131e-01,-1.19291e-02,-1.53587e-01,1.52828e-01,-6.15526e-01,-1.20345e-01,1.05476e-01,-6.28742e-01,-5.27846e-01,2.49996e-01,1.07261e-01,1.55312e-01,2.04538e-01,
2.23696e-01,8.51352e-02,-2.36820e-01,-2.98048e-01,-8.82708e-02,-1.40928e-01,1.99011e-04,-2.29869e-01,-1.40267e-01,-3.25217e-02,4.23148e-02,3.40474e-01,-1.43782e-01,1.18094e-01,-4.84481e-02,9.08851e-02,1.93494e-01,5.42069e-02,3.10117e-01,-1.41438e-02,2.08634e-01,1.34089e-01,-3.55413e-02,1.88616e-01,3.70863e-01,2.10894e-01,1.44762e-02,-1.01175e-01,2.04547e-01,3.55474e-01,
-1.71070e-01,1.71130e-01,-1.82737e-01,-7.41008e-01,-9.96176e-03,-5.29630e-01,3.03266e-02,4.28395e-02,2.75238e-03,1.54303e-01,-6.13148e-02,2.60437e-01,-3.49522e-01,7.90698e-02,5.63319e-01,1.47991e-02,8.10447e-01,2.00164e-01,2.11353e-01,-3.75537e-01,1.87575e-01,-7.06875e-02,1.46903e-01,1.97982e-01,-8.71771e-02,-3.99600e-01,-1.00209e-01,-1.96826e-01,1.74334e-01,-2.01869e+00,
2.46368e-01,-4.81403e-01,7.48694e-03,-4.27166e-02,1.65511e-01,2.69774e-01,4.12112e-01,5.25619e-01,6.82472e-02,1.36806e-01,-2.71802e-01,-2.72675e-01,-5.18015e-03,-2.50907e-01,-7.94065e-02,-1.67619e-01,-1.59235e-01,1.98668e-01,-3.44146e-01,2.38962e-01,3.45723e-01,1.48167e-02,3.55682e-01,-9.33615e-02,-1.14855e+00,-5.89050e-01,-1.05976e+00,1.64930e-01,5.18646e-02,3.92702e-01,
1.42470e-01,-5.12767e-02,4.48877e-01,1.99243e-01,1.68060e-01,-1.66081e-01,1.31351e-01,-3.62059e-02,-1.12531e-01,2.51200e-01,2.24411e-01,-2.76496e-01,1.66440e-01,-4.99711e-02,3.81309e-03,-1.70035e-01,-4.52724e-02,1.08442e-01,7.18225e-02,2.88528e-01,-4.09514e-02,-2.88564e-01,5.59715e-01,-2.86979e-01,-6.20133e-02,-5.22478e-01,-2.16112e-01,2.25571e-01,-2.21158e-01,3.46522e-01,
3.08674e-01,2.48139e-04,7.24262e-01,3.60437e-01,2.89573e-02,8.81895e-02,5.03688e-01,-2.37397e-01,2.48925e-01,5.14368e-02,-2.16009e-01,5.90238e-01,1.25502e-01,2.83399e-03,-3.47274e-02,-2.10614e-01,-1.32205e-01,-8.71873e-02,2.34496e-01,1.42091e-01,1.31179e-01,6.80565e-02,-5.67151e-02,9.84903e-02,1.07989e-01,-6.91792e-02,7.10885e-02,7.05245e-02,-2.67989e-01,-5.48923e-01,
-3.27668e-02,-3.97233e-01,1.09867e-01,-1.64904e-01,-2.26868e-01,-2.97170e-01,-2.38688e-01,7.96905e-02,3.65102e-01,-2.06560e-01,-1.70212e-01,1.08698e-01,-9.39572e-02,-3.54500e-01,-1.22870e-01,6.85368e-02,2.74513e-02,-2.25190e-02,1.63625e-01,-5.63813e-03,1.02527e-01,4.19881e-01,-1.85955e-01,-2.18493e-01,-4.33457e-01,2.36544e-01,-1.58567e-01,2.07250e-01,2.25172e-02,4.48766e-01,
-1.02582e-01,
-3.19922e-01,
-3.69056e-01,
-3.92823e-02,
3.24401e-02,
4.41658e-02,
-3.11659e-01,
-3.66907e-02,
-5.84549e-02,
-1.19031e-01,
-2.17343e-01,
2.18148e-01,
-1.24767e-01,
3.52518e-01,
3.17698e-01,
1.49389e-01,
-1.00855e-01,
-2.49288e-01,
-1.97518e-01,
-4.38795e-02,
-2.20095e-02,
-7.69503e-02,
1.72140e-01,
1.82064e-01,
-3.99262e-02,
1.50374e-01,
2.10133e-01,
1.57500e-01,
-1.90553e-01,
-3.36620e-01,
8.83656e-02,1.88904e-01,2.95004e-01,-9.01479e-02,1.85891e-01,-4.56906e-01,1.48544e-01,1.24463e-01,-1.07211e-01,6.03407e-02,1.36531e-02,8.36601e-02,4.01195e-01,-5.83265e-01,-5.48026e-02,-5.07571e-01,-5.75277e-01,-1.54377e-01,2.96909e-01,1.78241e-01,2.15220e-01,1.87025e-01,1.00618e-01,1.10704e-01,-9.09138e-02,1.43992e-01,4.92580e-01,2.98686e-02,-6.62583e-02,-5.23753e-01,
-4.13940e-03,5.58379e-02,1.81177e-01,-1.41635e-01,2.71627e-01,-2.74403e-01,6.15726e-02,1.70752e-01,-1.70551e-01,1.26192e-01,4.18398e-02,1.85464e-01,1.15399e-01,-4.05402e-01,-2.00289e-01,-5.10145e-01,-4.27439e-01,-4.02265e-01,2.32819e-01,1.46579e-01,1.54697e-01,-2.04146e-02,9.58954e-03,4.61593e-03,1.72977e-01,2.56919e-01,4.19033e-01,2.71379e-02,8.33990e-02,-1.63512e-01,
3.15936e-01,2.94226e-02,1.39223e-01,-1.60548e-01,8.96996e-02,-3.78380e-01,-8.35790e-02,1.59188e-01,-1.26625e-01,1.49537e-01,7.88270e-02,1.66672e-01,4.52169e-02,-3.30181e-01,1.08339e-01,-4.64732e-01,-3.24213e-01,1.17558e-01,-6.17687e-02,9.33474e-02,3.99199e-02,-2.73714e-02,1.97967e-03,-1.29789e-02,1.52483e-01,1.76438e-01,4.59194e-01,-1.32827e-01,2.17263e-01,-4.60146e-01,
1.33647e-01,1.39224e-01,-4.93158e-02,-9.66675e-02,4.33951e-01,-2.48492e-01,-2.32277e-01,1.90710e-01,-1.63782e-01,9.68742e-02,-2.94939e-01,2.25682e-01,1.01593e-01,-3.61464e-01,-5.21575e-01,-5.57704e-01,-3.14519e-01,-6.47741e-01,2.39790e-01,1.76870e-01,1.95094e-01,-1.06928e-02,5.04154e-02,-3.06980e-02,1.07320e-01,2.96131e-01,3.84744e-01,1.07957e-01,1.05113e-01,1.37807e-01,
6.86612e-02,1.71881e-01,3.20320e-02,2.50895e-01,-1.20745e-01,-1.34597e-01,-2.32716e-01,7.52541e-02,-2.03086e-01,2.28369e-01,2.70858e-01,-2.55071e-01,-6.50709e-03,-5.56713e-01,3.08404e-01,-3.70285e-01,-2.77857e-01,3.99725e-01,-3.52963e-02,1.04759e-01,2.03905e-01,-1.85494e-01,-2.10609e-01,-2.43219e-01,-1.26723e-01,2.26821e-01,4.63253e-02,2.10431e-02,3.71625e-02,-4.97690e-01,
2.21967e-01,
1.27831e-01,
1.50844e-01,
5.54506e-02,
4.31552e-01,
