// Neural Network File Format by Kyle Julian, Stanford 2016
6,5,5,30,
5,30,30,30,30,30,5,
0.000,
-36655.999999,-36656.000000,-3.141600,100.000000,0.000000,
36656.000000,36656.000000,3.141600,472.000000,1200.000000,
-431.467101,-0.000000,0.000000,249.000000,532.000000,9.330048,
73311.999999,73312.000000,6.283200,372.000000,1200.000000,423.773936,
2.80244e-01,3.07714e-01,-1.51812e-01,-1.08047e-01,2.53826e-01,
5.64179e-01,-1.48017e+00,8.43149e-01,1.70036e-02,-2.73971e-03,
4.86246e-01,4.11791e-02,-3.21006e-04,-2.49793e-02,-1.12377e+00,
-4.45186e-01,1.75688e-01,-1.00269e+00,-2.06250e-02,2.23073e-01,
4.61055e-01,4.29033e-01,8.89578e-01,-3.25008e-02,7.79320e-02,
-7.19802e-02,-7.33552e-01,1.14092e-01,-1.04417e-02,-7.15586e-01,
1.10091e+00,-1.32678e+00,-1.23306e-01,8.98334e-03,-3.73668e-03,
4.43739e-01,4.20855e-01,-3.31183e-01,-6.32981e-02,-7.35040e-02,
7.09039e-02,-4.04744e-01,1.24991e-02,1.63445e-01,1.38899e-01,
-2.40803e-01,9.04649e-01,3.58577e-01,2.51225e-01,-8.27212e-01,
-6.19609e-02,-4.30261e-01,-6.76697e-02,2.55556e-01,-9.22276e-01,
-1.69721e+00,1.16003e-01,-2.37343e-01,-2.31836e-03,3.26706e-02,
3.95845e-01,2.03629e+00,-4.56268e-01,8.54291e-03,-2.85572e-03,
3.48640e-01,9.94969e-02,-6.41428e-01,-4.78874e-02,4.69618e-02,
-1.38032e+00,5.18832e-01,5.36110e-01,-5.59946e-02,5.41101e-02,
-8.89778e-01,-1.40362e+00,-4.76808e-01,1.76182e-03,-1.62502e-02,
2.14286e-01,4.96099e-01,7.24127e-01,-1.02677e-01,7.82874e-02,
-1.81369e+00,3.44439e-01,-1.25886e-01,2.12869e-02,-3.32011e-02,
-4.88801e-02,2.00798e+00,2.13662e-01,2.60436e-03,-1.13689e-03,
-2.40458e+00,-1.13938e+00,-8.23239e-02,8.05955e-03,-9.60612e-03,
3.82095e-01,3.39064e-01,5.25041e-01,-3.34489e-02,7.95887e-02,
4.54107e-02,5.98643e-01,6.89312e-02,1.82675e-01,5.96401e-02,
-2.83082e+00,-7.34439e-01,1.87106e-01,-1.65641e-02,3.70657e-02,
-1.01838e+00,1.93306e-01,2.74580e-01,1.96089e-02,-1.47636e-02,
-2.79287e-01,7.07933e-01,-7.57462e-01,1.45748e-01,-2.01441e-01,
1.07823e-01,-3.24748e-01,2.94317e-01,-7.97867e-02,-2.01033e-02,
1.23738e-01,1.36873e+00,5.10747e-01,-8.38876e-03,5.43945e-03,
-1.21977e+00,2.08329e-01,3.62112e-01,1.21809e-02,-4.07443e-02,
4.10469e-01,1.33685e+00,-5.28862e-02,1.03520e-01,-4.08542e-01,
6.17639e-01,-8.02105e-01,-5.08783e-01,-3.11617e-02,3.07062e-02,
1.97545e-01,
-3.82976e-02,
-4.17882e-01,
-2.15899e-01,
-3.39107e-01,
-3.22216e-01,
5.81358e-02,
2.51062e-01,
1.18078e-01,
-2.09724e-01,
-8.90137e-02,
7.55261e-02,
-2.88119e-02,
2.22430e-01,
5.42231e-02,
-2.92180e-02,
8.02755e-02,
-2.99583e-02,
-8.96087e-04,
9.93570e-03,
1.73751e-01,
7.97445e-02,
1.39633e-01,
2.21524e-01,
-9.26534e-02,
1.78091e-01,
-4.81281e-03,
-7.13924e-02,
-1.00603e-01,
7.35672e-02,
-5.28656e-01,7.69649e-02,-1.78814e-01,1.24169e-01,1.11157e+00,-2.22988e-01,-1.94887e-01,1.01279e-01,-6.17763e-02,1.05073e-01,-2.90969e-01,4.66687e-01,-4.35827e-02,8.07190e-02,-4.11696e-01,2.56018e-01,-1.99324e-01,8.61145e-01,-3.47009e-01,-3.70552e-01,-1.26656e-01,-1.12781e-01,-3.33522e-01,1.59208e-01,-1.46725e-01,-2.89441e-02,3.79218e-01,1.22273e-01,4.58337e-01,1.21927e-01,
8.70770e-03,1.60676e-01,7.52550e-01,-5.60507e-01,3.74648e-01,-9.98457e-01,-4.31068e-01,4.59642e-01,1.55382e-01,2.20204e-02,-1.34045e-01,7.28391e-01,-9.77847e-01,-1.00435e-01,3.35457e-01,-2.76648e-01,-2.19533e-01,-1.42809e+00,-1.51090e+00,-1.01690e+00,2.07180e-01,5.39967e-02,-2.28314e-01,-2.20804e-01,1.47860e-02,2.16523e-01,-1.40988e-01,5.16639e-01,1.74140e-01,-2.92671e-01,
-2.96374e-01,5.71475e-02,1.19426e+00,-2.33775e-01,-1.66486e+00,-7.28182e-01,9.52368e-02,5.73869e-02,-9.90515e-02,-1.17133e-01,1.99509e-01,-3.84295e-01,-1.08050e-01,-4.50020e-02,5.89569e-01,-2.79002e-01,-4.48126e-03,-3.93320e-01,5.99900e-01,-2.73876e-01,-1.69561e-01,8.43884e-02,2.60101e-01,-1.92132e-01,-4.56063e-01,1.50851e-01,-4.13267e-01,3.45575e-01,-1.00730e-01,1.12856e-02,
-1.03665e-01,-3.44671e-01,-1.38512e+00,3.19255e-01,6.63576e-01,3.89468e-01,2.24306e-01,3.28151e-01,3.58942e-01,-9.72750e-01,1.10712e+00,-3.26897e-01,-3.13497e-01,5.26710e-02,2.52732e-01,3.62349e-01,-1.50003e-01,-2.80377e-03,5.02314e-01,2.69132e-01,4.30825e-01,-1.70100e-01,-1.90232e-01,-3.08381e-01,-4.31147e-01,-1.32815e-01,6.48845e-01,7.83441e-02,-7.21098e-01,1.91365e-01,
2.91062e-01,-1.11028e-01,-1.35922e+00,-5.09344e-01,-1.28517e-01,1.27963e+00,7.25742e-02,8.01504e-02,-9.96672e-02,3.49295e-01,-8.49427e-01,6.17553e-02,4.26947e-01,5.78047e-01,4.09261e-01,-1.45848e-01,-4.06008e-01,1.62952e-01,-1.30964e-04,-2.95034e-01,-2.39918e-02,-8.38079e-02,5.43405e-01,-2.24510e-01,-3.59130e-01,2.03265e-01,-4.48106e-01,-9.53636e-02,9.77547e-02,5.85374e-01,
-1.38893e-01,-7.01671e-02,6.64896e-01,5.51543e-01,-5.62063e-01,1.72566e+00,3.21550e-01,-8.37926e-02,1.80561e-01,4.01621e-01,1.19369e+00,1.38118e-01,7.93718e-04,-4.01959e-01,-1.98674e-01,-9.38530e-03,8.54257e-02,3.32905e-01,5.29169e-01,-2.08864e-01,-2.57385e-01,-1.53160e-01,-5.83485e-02,9.96484e-02,-9.33703e-02,2.43660e-01,-1.06932e-01,-1.43209e-01,1.22342e-01,-1.67073e-01,
-1.37534e-01,7.94529e-01,-1.22302e-01,-2.43677e-01,4.85250e-02,-6.01044e-01,2.04150e-01,-6.86473e-01,-1.02687e-01,1.77082e-04,-1.09734e-01,3.08561e-01,-5.26523e-01,-7.51774e-01,-2.31902e-01,-8.08930e-02,4.65763e-01,1.28367e-01,-3.33603e-01,1.84382e-01,-1.00850e-01,-2.76864e-02,-8.56214e-02,6.41408e-02,-2.62464e-01,1.30163e-01,-5.99117e-01,-8.37320e-01,6.00358e-01,-8.67041e-01,
-1.40537e-01,4.67224e-01,-7.60223e-01,-1.25654e-01,1.10412e+00,1.70779e+00,-6.93168e-01,-3.94869e-01,2.54354e-01,3.76882e-01,3.30398e-01,5.79839e-01,9.92809e-01,1.11079e-01,6.19579e-01,-4.99666e-02,3.63356e-01,-4.38304e-01,-9.14493e-01,-6.03675e-01,-1.13277e-01,-5.00168e-01,4.46796e-01,2.15234e-01,2.03264e-01,2.71121e-01,-4.85937e-01,-2.82634e-02,-6.25571e-01,-5.14235e-02,
-8.40979e-01,-7.17958e-02,4.96602e-01,3.90041e-01,1.90092e-01,-4.76502e-01,1.44064e-02,4.69588e-01,6.46752e-02,-1.95763e-01,1.06438e-01,-5.90027e-01,-1.72991e-01,-3.46459e-01,-3.03928e-01,-2.87526e-01,-5.13892e-01,1.21984e-01,3.31067e-01,-9.96064e-02,-2.78593e-01,-2.95019e-01,1.61562e-01,3.01198e-01,3.32590e-01,-7.27472e-02,6.52585e-02,4.11220e-01,-9.96948e-02,-9.13758e-03,
-8.28141e-03,9.51013e-03,-2.52506e-01,2.82346e-01,1.50895e-01,9.95527e-01,9.40409e-01,1.57187e-01,1.52052e-01,9.25532e-02,-3.98396e-01,-1.17365e-01,-1.10704e+00,2.36445e-01,-7.18242e-01,4.41743e-03,1.97403e-01,7.72184e-01,-4.03900e-01,6.91674e-01,2.16964e-01,5.77002e-05,-3.49514e-01,-1.09035e-01,4.08643e-01,4.51109e-01,1.60056e-01,-2.98853e-01,-2.18975e-01,1.85792e-01,
-1.52495e-01,5.62806e-01,8.44835e-01,1.78234e-02,-2.38101e-01,-9.50469e-01,4.51822e-01,-1.29568e-01,3.55434e-01,4.22478e-02,7.77373e-02,5.58301e-01,-6.72535e-01,-1.21560e-01,-3.87483e-01,4.22852e-01,4.07474e-01,-1.29143e+00,-1.55228e+00,6.12546e-01,1.16670e-02,-2.53824e-01,4.89881e-02,-1.41136e-01,-2.37338e-01,4.51717e-01,3.48663e-01,-5.11999e-02,2.65786e-01,1.03225e-02,
1.13645e-01,1.89599e-01,2.34102e-01,5.05193e-01,1.27705e-01,-1.10714e+00,-4.55557e-01,4.94335e-02,-2.85171e-01,2.95468e-01,-7.58146e-02,3.63688e-01,2.41746e-01,1.61677e-01,-3.40478e-01,-5.99683e-01,-6.96961e-01,4.30280e-02,1.79043e-02,4.85992e-01,-5.47475e-01,-1.44799e-02,5.32670e-01,3.89199e-01,4.49605e-01,-4.88377e-01,-7.64998e-01,-8.61990e-01,3.54228e-01,-2.40214e-01,
-5.00049e-01,3.08733e-02,5.05303e-01,8.35101e-01,-6.89132e-01,9.57850e-01,3.29651e-01,-3.02161e-03,-1.04042e-01,-3.55871e-01,7.12634e-02,-6.02052e-01,-2.81933e-01,1.26647e-01,6.65807e-01,6.26098e-01,2.05592e-01,1.43324e+00,-1.63953e+00,-3.49080e-01,-5.58150e-01,-2.28063e-01,-1.97629e-01,-6.83311e-01,1.76843e-01,-2.68474e-01,-1.95396e-01,1.13802e-01,4.16626e-02,3.74891e-01,
2.39687e-02,5.42871e-02,8.26583e-01,-2.31603e-01,-6.69797e-01,-9.20502e-01,1.21800e-01,2.68644e-01,-1.95425e-01,-1.98973e-01,5.68458e-02,3.03912e-01,-7.48564e-01,6.69975e-01,-2.88765e-01,6.64096e-01,4.54575e-01,3.48527e-01,2.78066e-01,1.43316e-02,-1.72089e-02,5.19678e-02,-3.42187e-01,-3.49289e-01,-4.38994e-01,-1.66908e-01,-1.04505e-01,1.50856e-01,4.46245e-01,1.90608e-01,
1.26287e-01,6.13012e-02,-6.25720e-01,-5.07923e-02,-4.69751e-01,-1.03130e+00,2.81566e-01,2.74952e-01,2.73816e-01,2.31596e-01,6.92569e-03,-3.10271e-01,-2.83316e-01,2.51628e-02,2.94355e-01,-2.11881e-01,2.67075e-01,-1.83043e-01,-3.65429e-01,-1.63064e-01,-1.68385e-01,7.18223e-01,6.42793e-02,-2.48256e-01,-4.96872e-01,-5.50284e-01,-6.17109e-02,9.21736e-01,2.70694e-01,-1.29398e-02,
-3.91725e-01,-8.16100e-03,-3.14059e-01,2.96056e-01,-3.56403e-01,-2.76499e-01,-1.84346e-01,1.69369e-01,4.44188e-02,-1.09818e+00,-1.16962e+00,-1.04307e-01,1.30727e-01,-1.40582e+00,9.31973e-02,-3.18057e-01,4.40593e-02,1.10115e-01,2.84644e-01,3.83126e-01,8.72216e-03,4.62435e-01,3.67837e-01,-1.16960e-02,-3.24905e-01,2.72852e-01,-4.98700e-01,1.65709e-01,4.58272e-01,1.07611e-01,
2.64369e-01,-8.73851e-02,-1.68394e-01,-1.33227e-01,-5.59804e-03,-2.07848e-01,-2.57955e-01,1.13971e-01,-2.51556e-01,2.08080e-01,2.33716e-01,-1.61252e-01,2.81229e-01,-2.24201e-01,-2.82725e-01,1.50522e-01,1.86033e-01,-1.59349e-01,-1.73644e-01,3.27605e-03,-6.21469e-02,-1.85180e-01,-1.52637e-01,4.85009e-02,-2.78558e-01,-1.04392e-01,-6.17338e-02,1.30586e-01,-2.41131e-01,-1.84956e-01,
-1.26057e-01,1.81833e-02,2.47196e-01,-2.28363e-01,-5.74534e-02,-8.77685e-01,-4.39773e-01,-4.10394e-01,2.78512e-01,3.46410e-01,-3.40865e-01,-2.88605e-02,4.53764e-01,1.96841e-03,3.24891e-01,-4.33947e-01,-1.54942e-01,-2.81320e-01,5.41545e-01,4.24307e-02,-1.21726e-02,-3.49711e-01,5.71900e-01,3.25637e-01,-8.04295e-01,-4.99409e-03,-4.00107e-01,3.05056e-01,2.78070e-01,-8.97060e-01,
-2.41236e-01,-5.88513e-01,5.32147e-01,1.86633e-01,-7.67973e-01,-5.85810e-01,3.07550e-01,-3.25313e-01,1.89585e-01,1.00176e-01,3.68628e-01,6.06422e-01,-9.57391e-01,-1.54326e-01,1.55688e-01,5.21125e-01,-2.08677e-01,-3.90322e-01,-1.76464e+00,-7.11512e-01,-7.36164e-01,-2.80541e-01,3.61929e-01,-2.27983e-01,1.54447e-01,-6.13152e-02,1.65577e+00,-2.48085e-01,-2.11106e-01,4.79394e-01,
-4.48170e-02,1.60776e-01,-2.57567e-01,-2.15418e-01,6.54230e-01,4.16088e-01,3.05514e-01,-3.92098e-01,3.21914e-01,-1.21339e-01,-3.71090e-01,-9.97026e-02,-1.80133e-01,-3.09009e-01,-2.44636e-01,7.28032e-01,6.03521e-02,3.02903e-01,2.87973e-01,3.19832e-01,3.39863e-01,-1.10149e-01,-5.61439e-01,-5.02928e-01,-1.80090e-01,4.84294e-01,-3.06266e-01,4.09648e-01,3.28621e-01,-1.18696e-01,
-4.23252e-01,4.74302e-01,-3.51881e-01,-2.74138e-01,-2.58250e-01,6.48700e-01,-4.00850e-01,4.36892e-01,-6.89510e-01,6.12142e-01,2.53528e-01,1.64829e-01,-3.25681e-01,3.42343e-01,1.30963e-01,-3.01843e-01,3.70530e-01,3.87068e-01,-1.59390e-01,-1.15680e-01,-1.49810e-01,-1.76149e-01,7.73855e-02,1.09256e-01,-4.81465e-01,-3.73809e-01,-4.93903e-01,3.31434e-01,1.26184e-01,7.31185e-01,
5.69942e-02,8.78105e-01,-5.32180e-02,3.53104e-01,1.14460e-01,-8.03378e-01,8.69358e-01,1.81241e-01,-1.35468e-02,-3.88202e-02,3.88408e-01,-1.02822e-01,6.86906e-01,-3.99204e-01,-3.30513e-01,-4.62905e-01,1.13775e-01,7.61912e-01,-6.93713e-01,6.80000e-02,2.81929e-01,1.95315e-02,-8.78772e-01,-6.92569e-02,7.03142e-01,-7.93350e-02,5.96128e-02,-6.63926e-01,-6.74221e-02,1.41221e-01,
3.84792e-01,-2.64733e-01,-2.49831e-01,-1.45556e-01,-2.64754e-01,6.78227e-01,-3.02997e-02,2.74036e-01,-1.62680e-01,7.39023e-01,-3.34946e-01,2.70856e-02,-1.33930e-01,2.84667e-01,-5.45032e-01,7.00159e-01,3.74256e-01,2.83232e-01,4.77360e-02,-5.47686e-02,-1.31188e-01,3.71845e-01,-1.12846e-01,-6.13235e-04,1.07749e+00,9.45202e-02,1.77112e-01,-3.60270e-02,-2.69538e-01,4.37078e-02,
-2.41168e-01,1.53785e-01,4.50450e-01,-2.47634e-01,-3.21159e-02,2.86809e-01,-3.12467e-01,-3.80070e-01,-5.25436e-02,5.35937e-01,-2.04684e-02,3.59177e-01,-1.41819e+00,5.25676e-01,1.60106e-01,4.50618e-01,1.30718e-01,-5.03880e-01,1.66691e+00,6.02501e-01,-1.37559e-01,-1.32387e-01,-3.73908e-01,5.02246e-02,-2.26514e+00,-3.64376e-02,8.99103e-01,-1.15892e+00,1.98473e-04,7.06934e-01,
-1.59740e-02,4.33211e-02,-5.69482e-01,-5.92649e-02,-3.75250e-01,-2.54035e-01,3.86273e-02,5.36588e-01,-1.65054e-01,1.04250e-01,-2.37824e-01,-3.12551e-01,-2.41802e-01,-2.51328e-01,-6.35977e-02,-2.55021e-02,2.03303e-01,8.21157e-01,-1.05205e-01,3.97686e-01,5.90462e-02,1.26427e-02,-3.22361e-01,-3.23129e-01,3.21047e-01,3.45734e-01,-1.22723e-01,-5.00462e-01,2.68323e-01,-3.64446e-01,
-1.78980e-01,-1.20727e+00,-1.41173e-01,2.26000e-01,-3.15707e-01,-2.67129e+00,1.55370e-01,1.54615e-01,3.43957e-01,4.89451e-01,4.26676e-01,2.33989e-01,-3.59935e-01,6.90938e-02,4.36311e-01,4.42033e-01,4.60699e-01,-1.37810e+00,-1.02276e+00,-2.72438e+00,-4.19178e-01,-1.51042e-01,-1.40426e+00,2.94728e-01,1.05208e-01,1.37663e-01,2.88218e-01,8.30710e-01,-5.41282e-02,2.43248e-01,
-1.50939e-01,-3.22155e-01,7.10655e-01,-1.36885e-01,1.26127e+00,-9.78690e-01,-5.36114e-02,1.80725e-01,-2.32284e-01,1.05084e+00,4.14193e-01,1.71804e-01,-3.64598e-01,-1.29534e-01,1.14181e-02,1.74326e-02,9.80266e-02,-3.22363e-01,1.26330e-01,3.04266e-01,1.94467e-01,1.61388e-01,6.06894e-02,-3.24793e-01,-1.69450e-01,2.35239e-01,1.98107e-01,5.29547e-01,3.34154e-01,2.75250e-01,
1.86405e-01,-1.64063e-01,-9.69381e-01,-1.07455e+00,-1.09442e+00,1.03937e+00,4.73620e-01,5.56938e-03,4.69194e-01,-6.72726e-01,-4.74152e-01,-7.50885e-01,-2.83987e-01,3.31241e-01,4.52776e-01,8.43119e-01,4.32039e-01,3.32145e-01,3.64536e-01,-1.84443e-01,3.46570e-01,7.22372e-02,-9.14035e-02,-3.26581e-01,-5.09824e-01,9.77460e-02,6.57354e-01,4.58444e-01,-5.65730e-01,3.97987e-01,
-4.02949e-01,1.51298e-01,4.32543e-01,6.48782e-01,5.69949e-01,-1.22592e+00,2.13649e-01,-2.14881e-01,-1.08989e-01,-2.25157e-01,-2.92557e-01,-3.38694e-01,2.25558e-01,1.43574e-01,-1.77136e-01,8.48928e-01,2.46940e-01,2.44044e-01,-1.45049e-01,-3.62514e-01,3.58426e-01,-1.51942e-02,1.17520e-01,-3.40329e-01,-5.66279e-02,1.60715e-01,-1.97141e-02,4.90986e-01,2.96618e-01,-1.75210e-01,
-2.68948e-01,-3.13363e-01,-7.94190e-02,-1.20976e-01,5.21587e-02,1.41917e-01,-1.95086e-02,-4.89962e-02,-2.35469e-01,-2.68102e-03,2.41484e-02,-2.61679e-02,-1.15291e-01,-9.45867e-02,-1.66298e-01,2.76584e-01,-2.37372e-01,1.03990e-01,1.45409e-01,1.86612e-02,-1.97323e-01,5.03316e-02,-2.05045e-01,1.74245e-03,7.29531e-04,-9.44692e-02,-2.08710e-02,-1.79277e-01,-1.43878e-01,1.07655e-01,
1.91698e-01,
1.36320e-01,
2.58249e-01,
-9.15407e-02,
3.35791e-02,
1.73211e-01,
-6.20199e-02,
1.27572e-01,
3.22066e-01,
-1.48683e-01,
-6.43732e-02,
-1.66242e-01,
-2.55118e-01,
1.16019e-01,
1.69569e-01,
-5.79265e-02,
-2.29114e-01,
-7.86607e-02,
1.52408e-01,
4.16829e-01,
-2.72135e-01,
1.42913e-02,
2.98712e-02,
-1.80440e-01,
1.66336e-01,
-7.47740e-02,
1.45362e-01,
-7.36120e-02,
1.41145e-01,
-2.71097e-01,
4.22261e-01,2.23373e-01,-1.33707e-01,-3.01895e-01,-4.03985e-02,-4.16529e-01,-9.43969e-01,-7.22548e-02,-1.64394e-02,4.30653e-01,5.72235e-01,-1.18028e+00,-9.32627e-02,3.67946e-01,-2.28626e-03,-7.64783e-01,5.24443e-02,-1.79622e-01,-2.37738e-01,-9.71284e-01,-4.50233e-01,-1.72310e-01,3.48171e-01,4.09201e-02,-2.58686e-01,1.13990e+00,-1.68211e-01,-1.74154e-01,1.70110e-01,5.02985e-02,
-1.54946e-01,1.56506e-01,1.11185e-01,1.59493e-01,9.31581e-02,-2.21904e-01,1.74195e-02,-1.54820e-01,-1.52983e-01,-2.58421e-01,-1.75965e-01,-1.44249e-01,1.15451e-01,1.96072e-01,-3.10125e-01,-7.42929e-02,-7.57213e-02,-2.42463e-02,-6.64418e-02,1.84361e-01,2.80256e-01,6.08581e-02,-4.46701e-02,-1.46696e-01,-9.59917e-02,-3.14185e-01,-2.91371e-01,-2.13497e-01,-3.00952e-01,-1.22179e-01,
-2.48015e-01,-1.29892e-01,-6.07876e-03,5.71288e-02,1.08414e-01,-7.83304e-02,-1.61967e-01,7.41939e-02,1.58935e-01,-2.43433e-01,1.49672e-01,-1.26937e-01,1.83107e-02,2.09918e-01,2.02352e-01,-1.41976e-01,2.01680e-01,-2.40308e-02,-1.14183e-01,-2.51705e-01,2.60984e-01,1.64384e-01,-1.70968e-01,-6.44922e-02,2.72466e-03,-9.18911e-02,-9.40122e-02,-1.36208e-02,-7.34880e-02,1.20493e-01,
2.61896e-01,-5.90394e-02,2.09060e-01,-4.07749e-01,-1.53929e-01,-5.23847e-01,1.04247e+00,1.82207e-01,-4.26740e-01,-6.50082e-01,7.08266e-01,-8.56751e-01,6.24133e-01,-9.16791e-03,7.50296e-02,2.34106e-01,-1.37335e-01,4.37343e-01,-6.41356e-01,-6.43669e-01,3.11455e-01,3.15519e-01,-9.66942e-02,4.53561e-01,-1.16830e-01,1.09965e+00,3.69671e-02,-1.16885e-02,-2.93163e-01,3.04443e-03,
1.98016e-01,-3.60352e-01,-2.07698e-01,-2.27665e-01,4.32639e-02,-1.74196e-02,2.24511e-01,-1.37335e-01,1.89640e-02,4.25589e-01,-6.27254e-01,2.85184e-01,-2.83966e-01,1.98548e-01,3.36899e-01,-5.08750e-01,2.61150e-01,-8.14211e-02,6.24516e-01,1.75173e-02,2.61984e-01,-2.95254e-01,4.85091e-02,1.21562e-01,-1.38008e-01,-8.49360e-01,3.16169e-01,8.47037e-01,-1.00813e-01,-1.92760e-01,
1.28859e-01,5.21346e-01,-2.98640e-02,1.02290e-01,-2.18289e-01,-5.41996e-01,7.48435e-01,-2.09709e-01,-3.42449e-01,-1.02232e+00,-6.19504e-01,-1.16060e+00,2.13907e-01,9.95607e-02,-3.09599e-01,1.76332e-01,3.96493e-03,2.99232e-01,-2.03408e+00,-5.18109e-02,1.00618e+00,8.35197e-02,-1.61025e-02,3.41041e-01,-2.28473e-01,7.49615e-01,3.51256e-01,2.19892e-01,-4.20289e-01,-3.09349e-01,
2.57758e-01,-5.29013e-02,1.98919e-01,1.51266e-01,2.31045e-02,2.89316e-01,-2.85240e-01,-2.60950e-01,-6.12127e-01,-1.74474e-02,-5.56568e-02,1.08187e-01,-5.13334e-01,-4.03286e-01,1.05282e-01,1.46489e-02,1.06390e-01,4.83948e-01,4.09137e-01,4.07585e-01,-1.50443e-01,-1.98554e-01,1.15476e-01,3.20824e-01,4.46549e-01,-3.01280e-01,-9.95358e-02,-1.34453e-01,1.49513e-01,2.91437e-01,
-1.60329e-01,-5.54516e-01,3.99023e-04,-1.62026e-01,1.88555e-01,-2.50112e-01,1.65721e-01,-1.20416e-01,1.86270e-01,-2.06138e-01,5.22563e-01,-3.35445e-01,2.66558e-01,1.80487e-01,3.27086e-01,-3.45239e-02,-4.20055e-03,6.69641e-01,-2.60679e-01,4.08408e-01,2.53063e-01,2.35943e-02,-8.32222e-02,-2.28020e-01,-1.46235e-01,1.79426e+00,-3.18209e-01,-7.21924e-02,-9.08664e-02,-4.18514e-04,
-5.84477e-02,-3.40750e-02,-4.39803e-01,-3.35107e-01,1.99066e-02,1.56192e-01,-1.65260e-01,-3.01581e-01,-2.63522e-01,1.30223e-01,-1.65018e-01,-9.06766e-01,-3.21539e+00,8.89016e-02,9.21871e-03,2.21069e-01,4.34028e-02,-3.97371e-01,-8.13444e-01,4.44524e-01,-4.01287e-01,-3.78440e-01,-2.18177e-02,-3.72306e-01,4.71567e-01,6.98702e-02,1.47537e-01,-3.41366e-01,7.86964e-02,2.84695e-01,
-1.25679e-01,2.95358e-01,-1.43514e-01,-1.32258e-01,1.27428e-01,1.42116e-01,1.63436e-01,-1.39102e-01,2.83632e-01,-1.19138e-01,-1.28461e-01,2.47527e-01,-1.27164e-01,3.67129e-02,-1.62447e-01,-5.02609e-02,3.08453e-01,-1.21366e-01,1.62289e-01,2.82815e-02,-7.03617e-02,-1.42689e-02,-3.04893e-01,-2.78197e-01,-9.68834e-02,-1.28944e-01,1.49155e-01,3.02020e-01,-1.37464e-01,2.58299e-01,
7.75172e-02,-3.62284e-01,-7.51736e-01,-4.59618e-01,2.62684e-01,-2.68745e-01,-2.32575e-01,4.54069e-01,-2.14750e-01,3.34857e-02,-4.60978e-01,-2.62563e-01,1.12066e+00,2.52162e-01,-8.12386e-02,-1.25134e+00,9.77441e-02,-3.13127e-01,-2.40671e-01,-8.40586e-01,5.36452e-01,7.46825e-01,4.07943e-02,7.55277e-01,-2.51682e-01,3.13321e-01,-1.07761e-01,6.20295e-02,4.96872e-02,-9.99375e-02,
4.05879e-01,3.45412e-01,-1.37320e-01,-3.83741e-01,-1.48410e-03,1.70231e-01,-2.37886e-01,5.01090e-01,-4.84663e-02,-2.88961e-02,5.64574e-01,-3.49807e-01,-5.00082e-01,1.97352e-01,-3.18787e-01,2.29461e-01,1.17400e-01,-4.99410e-02,-5.14898e-01,1.56602e-01,-5.16361e-01,1.54072e-01,8.04543e-02,-2.41159e-01,-3.62205e-01,4.29897e-01,-2.91877e-01,-5.07875e-01,1.10539e-01,2.24403e-01,
-3.76006e-01,-5.14054e-01,2.92123e-01,-2.56572e-02,-1.86868e-01,1.03589e-01,-2.93835e-01,-2.31927e-01,-3.52368e-01,5.00498e-01,-3.88503e-01,4.50365e-01,-1.65010e-01,2.95122e-01,3.43382e-01,-1.32401e-01,2.11966e-01,-1.55639e-02,1.96155e-01,-1.75284e-01,-1.57170e-01,-2.43196e-01,1.66379e-01,6.67704e-02,4.23225e-01,-5.16098e-01,2.55072e-01,9.66909e-01,7.53447e-02,-1.47171e-01,
3.51682e-01,-1.05808e-01,-7.36059e-02,-1.65288e-01,9.16603e-02,-8.83794e-02,-1.49387e-01,6.20009e-02,4.57424e-01,-7.79551e-02,2.43242e-01,-9.05781e-02,-1.32700e-01,1.96215e-01,-8.11323e-01,-1.47404e-03,2.07649e-02,2.35419e-03,-2.75335e-01,-7.20679e-01,-6.17230e-01,2.49446e-01,-3.08329e-01,1.91545e-01,6.62413e-01,1.02467e-01,1.31246e-01,2.64287e-01,1.03834e-01,9.36228e-03,
-2.81200e-01,-3.25890e-01,-2.74454e-01,2.86211e-01,2.98020e-01,-2.11904e-01,5.06046e-01,4.16070e-01,2.38320e-01,-4.49016e-01,3.68992e-01,-5.00809e-02,4.11079e-01,-2.00205e-01,2.38809e-01,1.91148e-01,-2.14797e-01,-3.78889e-01,-8.10379e-01,2.33958e-01,4.72684e-02,2.63208e-01,-9.20920e-02,-1.90091e-01,2.13072e-01,1.46656e-01,1.56592e-02,9.44405e-02,3.33215e-02,1.67898e-01,
2.61065e-02,-4.06080e-02,2.71183e-01,-7.44933e-02,1.54305e-01,-1.85397e-01,8.29587e-01,8.42425e-02,3.26928e-01,-2.09202e-01,1.12520e-01,-1.08239e-02,-6.66158e-01,1.65017e-01,-9.30984e-02,-1.00414e-01,3.81212e-02,2.17767e-01,-2.63225e-01,-7.63093e-03,3.96561e-01,1.17132e-01,-1.77726e-01,5.67239e-01,5.34665e-01,8.59211e-01,-2.06716e-01,3.06801e-01,3.32358e-01,-6.58414e-02,
1.59385e-01,-6.33808e-01,3.04891e-01,-4.40717e-01,-2.78732e-01,-2.33844e-01,4.25073e-01,4.15614e-01,5.71786e-01,1.27948e-01,1.26592e-01,-8.76789e-01,2.69734e-01,-1.01583e+00,1.51080e-02,1.02346e-01,6.65939e-03,4.56991e-01,-2.90671e-01,3.69781e-01,1.07532e-01,-7.61586e-02,-3.59170e-01,-2.14113e-01,-1.90111e-01,5.00738e-02,1.67269e-01,-2.23277e-01,2.74710e-01,-4.89706e-02,
5.24877e-01,-8.59834e-01,9.37092e-02,6.84061e-01,-1.15614e-01,2.27867e-01,3.31645e-01,-5.48933e-02,4.72362e-01,-3.02432e-01,6.31403e-01,2.74809e-01,-3.31379e-01,-7.05505e-02,-4.82914e-01,4.14378e-03,-2.61397e-01,1.51736e-02,-2.15279e-01,3.91578e-01,-3.49169e-01,2.58620e-01,-1.04873e+00,6.45091e-02,2.26886e-01,5.38626e-01,-2.21554e-01,-4.71483e-01,1.22488e-01,1.30439e-03,
-8.21632e-02,2.08051e-01,-1.87940e-01,-4.83023e-01,5.60884e-01,-2.94651e-01,-1.20964e+00,-2.01317e-01,-2.56511e-01,-3.93630e-01,5.55770e-01,7.17568e-01,-1.47869e-01,-1.55065e-01,2.55640e-01,-3.05940e-01,-3.59029e-02,-5.60081e-01,-2.34992e-01,7.39808e-02,1.63652e-01,4.05021e-01,1.98244e-01,3.28608e-01,2.57879e-02,2.48891e-01,-5.32621e-02,-2.28887e-01,2.81845e-01,1.58507e-01,
-4.01337e-01,6.31912e-01,4.10735e-01,5.43087e-01,6.49884e-01,-2.15719e-01,8.83625e-03,-3.57401e-01,-2.57217e-01,-3.42452e-01,-1.61250e-02,-7.42698e-01,5.73020e-01,1.00601e-01,9.40580e-02,3.09485e-01,-1.92387e-01,4.19947e-01,-4.11837e-01,-5.27682e-02,-5.67118e-02,1.79413e-01,2.38273e-03,5.10479e-02,-1.22022e-01,4.59857e-01,2.92026e-02,-1.09622e+00,8.45560e-02,1.06299e-03,
-3.07492e-01,-3.33038e-01,-5.07936e-01,1.92765e-01,-1.04290e-01,-7.49787e-02,2.24772e-02,-3.67067e-01,7.90636e-01,-3.68533e-01,3.61447e-01,2.67735e-01,1.05816e-01,-8.13509e-01,4.08236e-01,3.43209e-01,6.76756e-02,3.41172e-02,-1.02395e+00,2.42043e-01,-1.71186e-01,-2.72056e-01,1.33824e-01,-1.40156e-01,5.20456e-01,-1.25907e+00,1.72105e-01,2.47404e-01,-3.35666e-01,-3.06626e-01,
2.23835e-01,3.10374e-01,2.11667e-01,1.97337e-01,-1.94409e-01,7.72353e-02,-1.88278e-01,-1.60333e-01,-4.86772e-02,2.56807e-01,-1.59197e-01,2.66109e-01,-1.47376e-03,-2.19951e-01,2.91746e-02,-2.80392e-02,-1.10917e-02,1.31815e-01,-2.67428e-01,-1.58019e-01,-9.04215e-02,2.20668e-01,-2.58457e-01,-2.91769e-01,1.25262e-01,4.37880e-02,-1.41509e-01,-3.03433e-01,-2.89238e-01,1.25177e-01,
-3.61252e-01,1.69812e-01,1.72195e-01,-7.47113e-02,-3.88042e-01,-2.21904e-02,-1.78897e+00,4.80163e-01,5.43926e-02,-6.82636e-01,-1.08179e-01,-1.11354e+00,-9.23423e-01,-3.48829e-01,4.35119e-01,3.61753e-01,-1.93596e-01,7.02201e-01,6.27553e-01,-2.50026e-01,-1.21205e-01,-2.20996e+00,5.81175e-02,-1.43671e+00,1.92335e-01,-4.37151e-01,2.56310e-01,1.88842e-02,-5.46960e-02,-5.52869e-03,
-5.48047e-01,-1.31710e-01,9.56901e-02,3.29179e-01,-3.29636e-02,9.59427e-02,4.54149e-01,1.05265e-01,3.42800e-01,-1.93088e-01,-1.09527e-01,-6.09478e-01,4.26096e-01,1.70489e-01,2.95175e-01,4.73798e-01,2.91328e-01,8.90945e-02,8.18114e-02,-1.67504e-01,4.26487e-02,-2.46721e-02,-2.49431e-01,3.56161e-02,2.37367e-01,-7.70430e-01,-4.09882e-01,-4.22949e-01,3.64065e-01,8.73578e-02,
7.30827e-02,4.93684e-01,5.62866e-02,-9.20108e-01,1.36092e-01,1.77536e-01,-4.08773e-01,8.91433e-02,2.77985e-01,-6.84761e-01,1.07920e-01,-5.64789e-01,7.69844e-01,-3.60584e-01,3.56455e-03,6.60749e-02,-1.10857e-01,1.47030e-01,4.39573e-01,2.42770e-01,-1.79702e-01,-7.90240e-03,2.24291e-01,-1.96447e-01,-1.25300e-01,7.88032e-01,-4.10160e-01,5.67380e-02,3.79794e-01,1.70388e-01,
-6.22157e-02,1.00996e-01,-1.73967e-01,-1.61609e-01,1.85392e-01,1.41674e-01,-9.73594e-01,4.27105e-01,-4.28688e-02,-4.81239e-01,6.64121e-01,2.04250e-02,4.83665e-01,-1.45772e-02,2.12180e-01,-2.10954e-01,2.35725e-01,-3.04883e-02,-7.31497e-01,2.68239e-01,2.08861e-01,1.37931e-01,-2.32755e-01,-2.47159e-01,3.83523e-02,-4.10551e-01,-2.07066e-01,-5.23704e-01,-4.25232e-01,-7.12344e-02,
-2.77479e-02,-9.38251e-02,2.17071e-01,-3.13163e-02,-3.15774e-01,-2.79061e-01,1.13830e-01,-1.34330e-01,1.21785e-01,2.74887e-01,-8.14893e-02,-1.48127e-01,2.43424e-02,-1.63010e-01,-2.93006e-01,2.08107e-01,2.57978e-03,-2.39458e-02,1.50087e-01,1.43106e-01,-2.12640e-01,-6.37175e-02,-5.63583e-02,-1.30208e-01,2.65203e-01,2.54994e-01,-2.98117e-02,-2.24102e-01,-2.79071e-01,7.76151e-03,
6.06542e-01,-5.23395e-01,2.41583e-01,3.38434e-01,-5.07214e-01,2.72226e-01,5.79193e-01,-5.26991e-01,2.11235e-02,4.41235e-01,-3.91385e-01,3.18902e-01,-8.16183e-01,3.35775e-01,1.12952e-01,1.02096e-01,-3.06631e-01,1.65689e-01,4.31708e-01,5.60994e-01,-1.45395e-01,-4.59105e-01,-1.20102e-01,2.40493e-01,1.73084e-01,-6.91189e-01,2.22965e-01,2.70221e-02,5.62409e-01,9.70146e-02,
-5.73101e-01,-2.13391e+00,3.26853e-01,-3.32126e-01,3.13278e-01,-2.30327e-01,3.45864e-01,-2.88123e-01,-1.15071e-01,-6.57429e-01,1.00547e-01,-1.58341e+00,6.55315e-01,3.80465e-01,-4.64255e-01,1.60356e-01,9.16470e-02,5.63272e-01,-4.25644e-01,2.75883e-01,1.28078e+00,-2.56222e-01,-1.89618e-01,1.10449e+00,-5.42675e-01,4.17785e-01,1.13548e-01,1.70220e-01,-5.96326e-02,-1.14814e-01,
-3.23981e-01,-5.88144e-01,-1.08285e-01,8.09964e-03,1.34430e-01,-2.49024e-01,-3.24106e-01,-6.12832e-01,4.52299e-01,3.48934e-01,-3.20542e-02,-4.38223e-02,-1.97339e-01,-1.23081e-01,-2.45828e-01,1.32989e-01,2.94619e-01,-2.17579e-02,1.09144e+00,5.88306e-02,1.85231e-01,-2.65465e-01,-3.06916e-01,2.62399e-01,1.85264e-01,4.49385e-01,1.53732e-01,2.15122e-01,5.69138e-02,7.63979e-02,
7.49042e-02,
-4.56122e-02,
-3.16475e-01,
3.50556e-01,
6.15746e-02,
1.10364e-01,
6.25846e-02,
1.68322e-01,
3.63371e-01,
-2.61975e-01,
-5.04503e-01,
8.74311e-02,
3.96011e-03,
5.52596e-03,
3.68479e-03,
-1.03024e-01,
1.02069e-01,
-7.51622e-02,
1.42672e-01,
6.23391e-02,
-1.38890e-01,
-2.49324e-01,
7.15931e-02,
2.89544e-01,
1.37866e-01,
2.10863e-01,
-1.49451e-01,
-1.39295e-01,
4.92976e-02,
3.74900e-01,
4.65997e-01,1.85842e-01,1.35826e-01,2.22351e-02,-4.32761e-01,-2.85281e-01,6.32797e-02,-3.54472e-01,5.00676e-02,2.54648e-01,7.81384e-01,-1.54843e-01,-6.75229e-02,1.85573e-01,3.69769e-01,1.03210e-01,2.18013e-02,-5.53358e-02,-1.52438e-01,2.42594e-01,-1.81006e-01,2.00146e-01,-3.02915e-02,1.56381e-01,3.99021e-02,4.35246e-01,8.71434e-02,3.26702e-01,-4.91803e-01,5.53682e-01,
3.26528e-01,-3.13758e-01,1.95002e-01,1.34074e-01,2.93945e-01,-8.07262e-01,7.16112e-02,-1.93932e-01,2.54439e-01,2.33679e-01,-2.56309e-02,-1.30345e-01,-2.68501e-01,-2.24833e-01,1.31353e-01,-1.89532e-01,2.12767e-01,5.32141e-01,-8.17993e-01,3.49529e-02,3.70517e-01,2.75048e-01,4.42916e-01,3.20133e-01,1.72569e-01,2.55180e-01,1.49251e-02,-2.77264e-01,-4.66866e-01,3.87678e-01,
-3.73806e-01,1.40209e-02,3.05625e-01,1.43236e-02,-4.52543e-02,7.03708e-01,-1.03552e-01,-9.21151e-02,5.07844e-01,1.63317e-01,-3.78733e-01,2.45231e-01,-4.66988e-01,-1.88774e-01,-3.64606e-01,-6.63467e-02,-3.81853e-01,4.58372e-01,4.11061e-01,1.12602e-01,-1.16563e-02,4.67502e-02,8.41265e-01,1.78148e-01,1.64413e-01,2.83718e-01,-8.61179e-02,1.56361e-01,-3.67358e-01,-1.84392e-01,
1.69738e-01,-1.93575e-01,-2.15831e-01,4.50306e-02,2.01295e-01,1.21604e-01,-1.16806e-01,2.13586e-02,-9.65111e-02,2.10813e-01,1.36346e-01,-2.93130e-01,-4.05446e-01,-2.01899e-01,3.80354e-01,-6.60354e-02,-1.83095e-01,-9.59395e-02,-4.87942e-02,-4.60659e-01,1.30148e-01,-1.09209e-01,-9.79150e-02,4.53628e-02,1.08358e-01,-1.71651e-01,-3.92343e-02,-8.88858e-02,3.96485e-02,-6.84709e-02,
-4.98477e-02,1.73357e-01,7.89009e-02,-1.14627e-01,1.49707e-01,3.55573e-01,-1.17953e-01,6.61324e-02,-2.06773e-01,-1.74902e-01,3.93092e-01,3.11804e-03,-1.17778e-01,1.60827e-02,-1.28951e-01,-1.85697e-01,6.80877e-02,-5.86874e-02,-2.07736e-01,1.56366e-01,-2.29906e-01,2.89035e-01,2.28827e-01,-2.81232e-01,1.27522e-01,7.51001e-03,-2.64461e-01,2.53954e-01,-2.55292e-01,-8.90462e-02,
-8.16232e-02,-2.12941e-01,-4.73507e-02,-1.65079e-01,4.37568e-02,-7.39139e-01,-1.31478e-01,3.40942e-01,-2.42220e-02,-2.12937e-02,-2.68454e-01,-5.64809e-01,-1.29256e-01,-2.60011e-01,-4.85610e-01,-4.93348e-02,1.78025e-01,2.06195e-01,3.58197e-01,-5.59534e-01,-2.52733e-01,2.59780e-01,-1.25361e-01,2.01089e-01,-5.51167e-02,1.19631e-01,-2.65545e-01,1.13019e-01,2.91068e-01,-1.97481e-01,
1.31414e-01,-3.27326e-02,2.12542e-01,5.51708e-01,-1.17004e-01,1.37547e-01,-3.19259e-01,-1.75248e-01,-2.58129e-01,2.83512e-01,-2.31556e-01,9.65981e-02,-3.98716e-01,-3.54964e-01,-1.13296e-02,-2.57634e-01,4.23676e-01,7.48490e-01,-1.16174e+00,5.48801e-01,2.11308e-01,-2.07286e-01,4.91092e-01,-2.28412e-01,1.57053e-01,2.62942e-01,2.81521e-01,1.73349e-01,-8.00065e-01,-8.87426e-02,
2.83036e-01,3.29077e-02,1.65916e-01,1.84599e-01,-2.25073e-01,-2.23611e-01,-3.41291e-01,9.94442e-02,2.67399e-01,3.07674e-02,-3.35672e-01,-2.12903e-01,1.25787e-01,-8.57760e-01,1.58612e-01,-3.77132e-02,-1.07697e-01,-1.61215e-01,-2.03332e-01,-1.70669e-03,3.61738e-01,2.19256e-02,-1.39182e-01,-8.36939e-02,3.14999e-01,-1.17424e-01,2.46942e-01,-1.92818e-02,3.09520e-01,-5.44128e-01,
-1.01565e-01,-2.64565e-02,-2.18963e-01,-2.20785e-03,1.12189e-01,-2.30882e-01,-3.41696e-02,9.58616e-02,-9.92782e-02,3.11576e-01,1.18952e-01,-2.95346e-01,-1.78395e-01,-4.51404e-03,-1.69489e-01,-1.78202e-01,6.88497e-02,2.98597e-01,4.10458e-02,-2.42419e-01,3.69965e-02,1.62655e-02,-2.50882e-02,-1.07451e-01,3.63553e-02,9.99198e-02,1.33061e-01,-1.37688e-01,-2.74836e-01,1.65285e-01,
7.39493e-01,-3.77102e-02,7.16052e-02,3.24496e-01,-1.68953e-01,8.58890e-01,-2.30616e-01,-2.63131e-01,-1.75143e-01,-2.31196e-01,6.74443e-01,9.65673e-02,-2.33177e-01,4.46273e-01,2.29372e-01,6.64638e-02,-3.59546e-01,1.77561e-01,-1.80317e-01,4.72348e-01,4.75108e-02,2.99886e-05,5.19232e-02,1.90519e-01,2.98003e-01,2.64916e-01,-2.88255e-02,4.09690e-01,-7.89206e-01,-2.97449e-01,
4.32038e-01,8.66598e-02,2.50774e-02,7.73589e-02,-2.58736e-01,-1.83642e-02,1.80782e-01,-1.20045e-01,3.46948e-02,-2.07525e-01,6.76102e-01,2.21507e-01,-2.54222e-01,1.77271e-01,1.91665e-01,1.88852e-01,3.91553e-02,1.05630e-01,-2.24101e-01,1.66839e-01,-4.06740e-01,-2.10232e-01,-2.79082e-01,9.35391e-03,4.12978e-01,9.73034e-02,-1.72592e-01,1.27544e-01,-3.58061e-01,4.12307e-02,
1.17940e-02,-2.33995e-01,-3.13647e-01,-3.95212e-01,1.92300e-01,-3.65171e-03,9.75616e-03,2.48950e-02,-1.41977e-01,1.58375e-02,6.00735e-01,6.31427e-01,2.37505e-01,-1.85616e-01,-3.66036e-02,2.34018e-01,4.01882e-01,-6.21721e-01,1.00598e-01,-2.60951e-01,-8.69550e-01,-2.23990e-01,-7.29968e-01,-2.63179e-01,-8.90765e-02,2.30454e-01,2.13167e-01,-1.96467e-01,-2.62388e-02,-2.98625e-01,
3.23700e-01,2.46116e-01,-7.55863e-02,-2.45881e-01,5.02805e-01,-5.35136e-01,1.19701e-01,-5.73747e-01,1.92575e-01,4.42984e-02,-1.67461e-01,1.85913e-01,1.26056e-01,1.93897e-01,-5.06192e-01,-2.46046e-01,-8.66774e-02,7.90690e-01,-4.41870e-01,3.68810e-02,-1.63897e-01,1.90767e-01,5.59574e-01,8.64172e-02,4.42860e-02,-5.62416e-01,2.23860e-01,-4.25901e-01,4.17763e-01,-1.94661e-01,
1.06144e-01,1.54868e-02,-1.79285e-01,-3.40174e-01,1.79621e-01,1.46079e-01,-1.28160e-01,1.75143e-01,-2.12283e-01,2.05475e-01,1.52957e-01,2.03911e-01,-1.43145e-01,-3.27032e-01,-1.92837e-02,-3.12469e-01,-2.05672e-01,-2.80967e-01,3.43074e-02,1.04969e-01,1.35280e-01,-2.91258e-01,2.62205e-01,2.00191e-01,-3.29851e-03,-3.35920e-01,1.22224e-02,3.39757e-02,-2.04840e-01,-2.53855e-01,
9.30846e-02,-1.07861e-01,-1.98269e-01,-8.80601e-01,-5.79867e-01,1.33097e-01,-9.72990e-02,-2.22827e-01,-2.67880e-01,-3.05380e-01,1.11914e+00,3.31127e-01,-5.54411e-01,-9.72447e-02,-7.94391e-02,-2.28700e-03,9.52664e-02,2.52861e-01,2.37413e-01,3.88820e-01,5.71758e-01,3.41657e-02,-1.71511e+00,-6.85041e-02,1.25769e-02,-9.20335e-02,5.32229e-02,-3.10986e-01,-7.37272e-01,-6.79272e-01,
-5.03781e-01,1.01198e-01,-1.63885e-02,-2.80573e-01,-2.50339e-03,-1.02188e-01,7.42653e-03,-6.87159e-02,-2.99436e-01,2.36805e-01,-2.14925e-01,-2.39084e-01,7.23763e-02,6.74724e-01,2.39119e-01,4.57409e-01,-5.90222e-01,1.33935e-01,1.37065e-01,2.85742e-02,4.31071e-01,3.08475e-01,3.61076e-01,3.08639e-02,-2.55965e-01,4.16438e-02,-3.06749e-01,-5.37042e-01,-4.20700e-01,1.82057e-01,
1.73020e-01,1.30321e-01,-1.41925e-01,2.07089e-01,2.95204e-03,-2.05282e-02,1.08329e-01,-1.31840e-01,-7.23814e-02,8.18587e-02,3.06461e-01,1.11872e-02,5.68497e-02,8.50661e-02,-3.67915e-03,-3.29168e-01,-1.19739e-01,2.24277e-01,6.68453e-02,2.26610e-01,-1.40758e-01,2.08528e-01,2.09827e-01,1.55326e-01,-1.43127e-01,9.76953e-02,1.94490e-01,1.76102e-01,-3.13075e-01,-5.99306e-02,
-5.87148e-01,9.30689e-02,1.02121e-01,-2.65659e-02,8.94943e-02,-2.08628e-01,-5.46546e-02,-7.74172e-02,3.53137e-02,-2.28824e-01,-6.62159e-01,9.10921e-03,3.40281e-01,2.93907e-01,8.53661e-02,1.77009e-01,-1.41933e-02,-2.08862e-01,1.03296e-01,-1.69913e-01,1.51619e-01,-1.07284e-01,-2.85234e-02,-3.16987e-01,-7.86522e-02,-3.83553e-01,-2.39998e-01,-3.91458e-01,4.07118e-01,2.19834e-01,
4.99310e-01,-2.45245e-01,2.98815e-01,-3.44185e-01,-3.21435e-01,1.42026e+00,5.65585e-01,3.67206e-01,-9.62409e-02,-1.72153e-02,5.99976e-01,-9.30026e-01,-7.15722e-02,-9.72254e-01,-5.01054e-01,-5.81188e-01,-1.92439e+00,-1.12276e-01,-3.09567e-01,1.32414e-01,6.41382e-04,-1.16621e-01,-1.91628e+00,-1.29473e-01,-1.28085e-01,7.54184e-01,2.54093e-02,6.21375e-01,-3.32777e+00,6.07301e-01,
-1.04750e-01,9.78747e-02,-2.63299e-01,1.42274e-01,7.57599e-03,4.87911e-01,-3.27403e-01,1.89678e-01,3.66948e-01,2.66404e-01,1.65582e-01,-1.47418e-01,-1.56374e-01,7.92580e-01,1.62269e-01,9.43082e-02,-2.62350e-01,1.18200e-01,-3.59994e-01,4.11954e-02,2.41379e-01,-2.70847e-01,1.59833e-01,-1.76241e-01,-2.80640e-01,-7.82445e-03,5.88165e-02,-3.28507e-01,-1.11521e+00,1.14261e-01,
-4.93412e-01,8.30844e-02,7.98909e-02,8.60434e-01,7.60208e-02,-1.32155e+00,-1.95427e-01,-1.92422e-01,2.29279e-01,1.50994e-01,-8.64464e-01,-6.93312e-03,1.01186e-01,-1.87147e-01,1.18301e-01,-8.36838e-01,-4.20973e-02,-1.76434e-01,1.41250e-02,-1.59890e-01,8.33594e-02,-1.64648e-01,8.07306e-02,1.24601e-01,6.58010e-03,4.51424e-02,2.77023e-01,4.39566e-01,-6.97617e-01,-2.26644e-01,
-4.47427e-01,9.09367e-02,-2.86833e-01,-1.77266e-01,-3.09288e-01,1.77166e-01,2.47831e-01,1.23045e-01,2.42413e-01,-5.29695e-02,7.52735e-01,4.80460e-01,-1.77031e-01,-3.54718e-01,2.27349e-01,-2.99859e-01,-1.15702e+00,-4.76300e-01,3.28810e-01,-7.34562e-01,-1.13079e+00,-2.35724e-01,-5.68956e-01,-5.88853e-01,-3.45580e-01,4.07702e-01,-2.68445e-01,5.82476e-01,-9.58237e-02,1.59201e-01,
-2.18943e-01,3.28018e-01,-2.42690e-01,4.21282e-01,-2.98582e-01,-4.58604e-01,-5.73895e-01,2.98831e-01,-9.14237e-02,-1.43969e-01,-4.58618e-01,-3.74691e-02,1.20424e-01,2.51544e-01,4.69551e-02,-1.95168e-01,-2.80127e-01,-5.58194e-02,1.04502e-01,-2.56266e-01,-5.78374e-01,1.03308e-01,6.59456e-02,5.05722e-02,-4.37584e-01,7.67119e-02,2.99536e-01,1.42912e-02,-2.54870e-01,-4.13299e-02,
-5.52989e-01,1.66205e-01,3.05119e-01,-3.90815e-01,7.98583e-02,-8.48112e-01,-3.16452e-01,2.33141e-01,-1.67883e-02,2.81950e-01,-7.36644e-01,5.32254e-02,-1.98722e-02,-4.90145e-01,-1.42065e-01,2.22319e-01,1.72935e-01,-1.94003e-01,1.79677e-01,-1.41727e-01,2.04248e-01,2.88607e-02,-5.81691e-03,-7.87138e-02,1.24216e-01,-2.88506e-01,2.72204e-01,-4.27571e-01,3.36075e-01,2.75357e-01,
4.66822e-02,-1.44590e-02,-2.56582e-01,1.46660e-01,3.07772e-01,1.23192e+00,-5.49966e-01,-8.74416e-02,2.77481e-01,2.11821e-01,1.51798e-01,3.95169e-01,-4.32995e-01,2.26122e-01,-3.40000e-01,-2.44048e-01,-1.94804e-01,2.99612e-01,-8.26594e-02,-9.01772e-02,-1.58100e+00,1.24856e-01,-6.73010e-01,1.67393e-02,-1.81604e-01,-3.98188e-02,-1.37684e-01,-1.16001e-01,-1.93029e-01,-2.48046e-01,
3.74684e-01,1.65202e-01,2.29345e-01,1.65746e-01,-3.38636e-01,2.40879e-01,-3.95585e-02,-1.23489e-01,-2.19529e-01,-1.97372e-02,1.27791e-01,1.68273e-01,-1.08506e-01,-3.93844e-01,2.32634e-01,-1.54964e-01,2.02794e-01,3.33798e-02,-2.43426e-01,4.13113e-01,-3.32279e-01,-2.76981e-01,-1.37760e-01,-2.85337e-01,2.18523e-01,6.53204e-02,2.29416e-02,2.40115e-01,-5.23172e-01,2.87310e-01,
3.49601e-01,5.51518e-02,4.96178e-02,4.31282e-01,-7.64276e-01,1.69703e-01,-1.25625e-01,2.62027e-01,-4.82965e-01,1.71985e-01,1.56488e-01,2.38298e-01,-2.78682e-01,2.91020e-02,1.58947e-01,3.38695e-01,4.75447e-01,-2.37126e-02,-8.02472e-01,-6.70446e+00,1.42138e-01,-5.48667e-02,-2.31301e-01,-2.11108e-01,3.11973e-01,-3.02142e-01,6.36271e-03,1.96350e-01,-5.50524e-01,-2.05341e-01,
5.10297e-01,-2.24639e-01,1.78829e-01,4.56805e-01,3.73000e-01,-4.47444e-01,-1.15147e-01,-1.05414e-01,3.47596e-02,-2.85264e-01,-7.98201e-01,4.67412e-02,1.52746e-01,-2.12414e-01,2.12234e-01,1.29956e-01,-8.37438e-02,4.37835e-02,-7.45622e-02,-4.79079e-01,-1.01839e+00,-2.14444e-01,-3.24378e-01,-4.25989e-02,2.00698e-02,6.22339e-01,1.53306e-01,1.50144e-01,-2.42094e-01,-3.68170e-01,
2.62284e-01,-1.98705e-01,-1.54317e-01,1.41045e-02,-3.69743e-02,-1.25883e-01,-4.58340e-01,-2.04367e-01,9.54928e-02,1.45862e-01,-3.24008e-01,-1.37697e-01,-1.30236e-01,3.07582e-01,-9.76782e-01,1.29664e-01,2.41216e-01,-1.37693e-01,-1.19072e-03,1.15483e-01,-3.00584e-01,-2.37221e-01,-2.41713e-01,-2.73593e-01,1.71565e-01,-3.43279e-02,3.14437e-01,2.67722e-01,-1.52677e-01,9.22614e-02,
-1.24207e-02,3.54829e-02,-1.15409e-01,9.89612e-02,1.54492e-01,-1.01696e-01,-2.67380e-01,-1.40172e-01,-2.18159e-01,-2.00631e-01,-2.72028e-01,-1.06223e-01,8.62184e-02,2.50461e-02,-4.50082e-02,2.36176e-01,-9.08053e-02,-1.18579e-01,-2.33407e-01,1.07359e-02,-1.72298e-02,2.89756e-02,-8.12256e-02,-1.91934e-01,-9.69747e-02,1.38566e-01,2.82802e-01,-2.92713e-02,-5.91727e-02,-4.21899e-02,
-9.24880e-02,
-2.02419e-01,
-1.28591e-01,
2.56020e-01,
1.84179e-01,
2.12402e-01,
-1.97405e-02,
2.38923e-01,
-2.56343e-01,
-2.05181e-02,
3.60800e-02,
-2.89460e-01,
2.58620e-01,
-2.16704e-01,
7.49943e-02,
1.64215e-01,
-3.99222e-02,
1.21312e-01,
-3.36849e-01,
8.45858e-02,
-9.10192e-02,
-7.29421e-02,
1.03975e-01,
1.38074e-01,
1.57260e-01,
1.34375e-01,
-5.50984e-01,
-9.17423e-02,
-1.50460e-01,
-2.31844e-01,
-5.16952e-02,-1.19906e-02,4.59362e-02,2.58389e-02,1.28505e-01,3.86885e-02,7.03757e-02,5.95144e-02,1.37079e-01,6.38870e-02,7.37682e-02,1.26642e-01,2.76339e-02,7.92319e-02,1.51718e-02,-3.51573e-02,8.30840e-02,9.09610e-02,6.41295e-02,-2.04745e-01,-4.26066e-02,1.52317e-02,5.24267e-03,8.00207e-02,1.14473e-01,-1.13287e-01,-3.46355e-02,5.01030e-02,-9.27399e-01,2.03698e-01,
2.40779e-01,1.36380e-01,-6.33181e-02,-1.18229e-02,1.67422e-01,2.10930e-01,-1.48221e-01,-1.38625e-01,1.17773e-01,-2.71302e-01,2.93758e-01,-2.10054e-01,-3.15646e-04,-7.36273e-02,2.45092e-01,-4.61151e-02,-2.91294e-01,1.65976e-01,-2.48305e-01,-2.82764e-01,8.98344e-03,1.39537e-01,-3.19766e-02,1.04038e-02,3.83932e-02,-2.33385e-01,2.82846e-02,-8.34970e-02,7.82074e-02,-8.15190e-02,
-1.41486e-01,2.87950e-01,-1.07546e-01,1.57342e-01,-2.95592e-02,1.15134e-01,4.75132e-02,1.30476e-01,-1.67855e-01,1.31057e-01,-1.00445e-01,-8.65160e-02,-5.38341e-03,3.82882e-02,8.17329e-02,-1.53368e-01,-1.80389e-01,9.91382e-02,1.48165e-01,1.31797e-02,1.63044e-01,2.94321e-01,-9.43268e-02,-1.13423e-01,2.46942e-02,-6.92149e-02,1.68442e-01,6.45711e-02,1.31143e-01,-2.11241e-01,
1.47033e-01,5.44083e-02,3.25166e-02,-8.17590e-02,-1.14233e-01,-4.82058e-02,-4.04601e-02,-4.44605e-02,3.02641e-02,2.98895e-02,-1.71594e-01,1.23102e-01,-6.49977e-02,-1.44556e-02,-1.65955e-01,8.90564e-02,-6.94768e-03,1.03046e-02,8.72012e-02,2.10302e-02,9.98053e-03,-7.39559e-03,-5.19597e-02,5.02550e-02,3.23287e-02,2.20705e-01,1.33685e-01,-7.39364e-02,2.13131e-01,2.83670e-01,
1.14272e-01,-2.66546e-01,2.63599e-02,-9.53724e-03,2.28525e-03,1.14361e-01,5.89269e-02,5.80322e-02,-1.92955e-01,-7.60903e-01,-2.73824e-01,-2.73769e-02,-1.35204e-01,1.01800e-01,1.02326e-01,-6.15380e-02,-7.97726e-02,-7.49523e-02,-1.05247e-03,-2.52741e-01,1.97379e-02,2.59288e-02,-1.70691e-01,2.18179e-01,-1.28229e-01,6.61755e-02,1.54661e-01,-2.15860e-01,1.00943e-01,2.36997e-01,
-1.21290e+00,-3.23591e-01,3.66884e-01,-8.88633e-01,3.19909e-01,-8.54508e-02,-4.41715e-01,-1.44462e+00,1.66510e-01,1.43610e-01,1.27899e-01,-1.08713e-02,-4.38471e-01,3.12651e-01,4.85661e-01,-6.83849e-01,-2.66890e-01,-8.58304e-01,-1.59684e-01,-6.32668e-01,-7.22635e-01,-1.68703e-01,-7.55233e-01,-5.46512e-01,-1.20987e+00,-6.99597e-02,-1.62666e-01,1.89590e-01,2.63494e-01,-4.54417e-02,
-1.66417e-01,4.14777e-02,-3.11188e-02,2.58559e-01,3.27991e-02,7.03054e-02,2.35887e-02,1.47169e-01,2.17439e-01,-1.67622e-01,1.24515e-01,-1.31434e-01,1.94432e-02,-3.05751e-01,1.88784e-01,1.75175e-02,3.37683e-01,1.46364e-01,3.33600e-02,3.18262e-02,1.07381e-01,7.73090e-02,7.62992e-02,-5.67947e-02,-3.47280e-02,6.23376e-02,1.55894e-02,-3.25686e-02,-3.63870e-01,-1.01587e-01,
-5.74892e-03,-1.13507e-01,1.15774e-01,-6.64697e-02,8.39614e-02,-1.43185e-02,-8.40125e-02,8.40399e-02,-3.10492e-01,-6.04875e-02,1.14306e-01,1.01281e-01,-6.77120e-02,-2.07401e-01,-6.88347e-02,-8.78117e-02,1.40361e-01,-4.59684e-02,-3.01149e-02,1.48537e-01,-2.12161e-01,-1.73015e-01,9.72263e-02,1.08890e-02,-2.00990e-01,-1.58978e-01,-1.36808e-01,1.12341e-01,1.84164e-01,-2.16346e-01,
2.50032e-01,-1.49281e-01,-2.01754e-01,2.27245e-02,1.96332e-01,8.70021e-02,3.42381e-03,-1.00695e-01,-4.40610e-02,1.43359e-01,-3.08876e-01,1.37747e-01,-1.80282e-01,-1.78051e-01,2.45271e-01,-1.04203e-01,1.11436e-01,1.15013e-01,1.46853e-02,-1.25864e-01,7.77377e-02,-2.19382e-01,-3.08367e-01,-1.98795e-01,2.05539e-01,-1.13317e-01,-1.42091e-01,2.79758e-01,2.32046e-01,1.01480e-01,
-2.09090e-01,5.83276e-01,-4.57670e-01,4.22972e-03,4.82349e-02,2.86495e-01,8.06142e-01,-2.07263e-01,-3.03053e-01,-3.16052e-01,-1.68988e-01,-4.72031e-01,8.30097e-01,-4.22256e-02,1.10618e+00,2.85590e-01,-1.63612e-02,3.12959e-01,6.83285e-01,-8.94016e-02,9.70358e-02,7.01498e-01,1.79900e-01,2.02893e-01,3.89868e-01,-2.08487e-01,9.47136e-01,-2.60022e-01,-1.19079e-01,-2.38725e-01,
-2.61944e-01,-5.54930e-01,5.67717e-02,5.86182e-01,-1.07092e-01,-6.28366e-01,-9.99133e-01,-9.82914e-01,-2.46877e-01,-2.60733e-01,2.30941e-01,4.97934e-01,2.35754e-01,-6.92354e-02,-1.34201e+00,-1.21661e-01,-2.62156e-01,-3.94651e-01,-3.35332e-01,6.25087e-01,-4.28354e-01,-6.01076e-01,-1.67121e-02,2.42653e-01,-5.81273e-01,-4.28555e-01,1.34451e-01,-4.47935e-02,1.63646e-01,7.47866e-02,
-1.66277e-02,-3.04564e-01,1.04874e-01,1.77205e-01,-4.38876e-02,7.11127e-02,1.87221e-01,-2.15034e-01,2.74955e-01,2.11781e-01,8.43086e-02,-2.00291e-01,-1.41887e-01,9.58058e-02,-3.03102e-01,-1.07807e-01,-3.46420e-01,-2.16768e-01,-2.99962e-01,-1.47318e-01,-2.92163e-01,-2.30182e-01,1.17753e-01,2.39393e-01,-1.45979e-01,4.24713e-02,-2.33415e-01,-3.47203e-01,1.10052e-01,-1.81638e-01,
2.22446e-01,1.26163e-01,-1.36623e-01,-3.05316e-01,-1.62034e-01,-1.55092e-01,-1.34570e-02,-1.45343e-01,2.83334e-01,9.47282e-02,1.12918e-02,2.70349e-02,1.69583e-01,-1.08427e-01,6.47326e-02,2.08529e-01,-3.98403e-01,-6.11575e-02,-3.82375e-02,-2.08920e-01,1.70078e-01,2.20309e-01,-2.30550e-01,-8.03048e-02,2.06463e-01,1.60726e-03,1.66923e-01,-2.84738e-01,1.68895e-01,-2.00066e-01,
-6.98333e-02,2.76500e-01,-2.52593e-01,-3.10237e-02,4.53454e-02,1.38938e-01,4.30447e-01,-9.54704e-02,2.42439e-02,-9.43543e-02,-1.78592e-01,-2.36530e-01,4.40279e-01,1.02020e-01,5.67669e-01,1.30114e-01,-1.10844e-01,1.55763e-01,2.96004e-01,-1.50242e-01,-1.82778e-02,3.61991e-01,9.52106e-02,1.08754e-01,1.82736e-01,-8.26992e-02,4.70161e-01,-1.34442e-01,1.75204e-02,2.55868e-01,
-1.61373e-01,4.18608e-01,-4.31552e-01,9.11333e-02,-3.43187e-02,1.44730e-01,7.38528e-01,-1.06106e-01,1.13432e-01,-2.75037e-01,-1.92109e-01,-3.54070e-01,7.22968e-01,1.16479e-01,9.82243e-01,2.12948e-01,-2.82958e-02,2.90822e-01,4.47057e-01,5.49597e-04,4.05308e-01,7.41076e-01,3.31079e-01,1.50002e-01,3.31256e-01,-2.06041e-01,6.66249e-01,-3.38333e-01,1.47363e-01,-1.52631e-01,
-6.68553e-02,-3.14328e-01,-1.30240e-01,-2.37346e-01,-5.40758e-01,4.75582e-02,2.19305e-02,-7.84456e-02,2.52980e-01,-1.55064e-01,-3.59140e-03,-3.36136e-01,-2.63933e-01,2.91266e-01,-1.57610e-01,-5.89980e-01,2.03326e-01,-9.78242e-02,-4.56671e-04,-2.81795e-01,-1.93480e-01,-3.63573e-01,8.61400e-02,-3.85677e-01,-8.04483e-01,1.39140e-02,-1.59460e-01,-1.97175e-01,-4.93978e-02,-9.03814e-02,
1.89339e-01,-2.33851e-01,2.01534e-01,-2.15298e-01,-1.57860e-01,-1.39607e-01,-1.31233e-01,3.66679e-01,-5.65862e-02,-2.46433e-01,-4.25796e-02,3.49861e-01,1.26112e-01,8.64810e-02,3.68865e-01,-1.23902e-01,-5.00690e-02,-2.06487e-01,-3.73820e-01,-3.63532e-02,2.56663e-01,-7.16940e-01,4.11395e-01,1.96268e-01,-1.26196e-01,-2.63604e-02,6.97813e-02,1.42702e-01,6.20912e-02,-6.96416e-02,
-3.10686e-01,-3.23180e-01,1.66936e-01,-3.15813e-01,-2.90945e-01,8.71016e-02,9.92357e-02,1.53040e-01,8.51976e-02,-8.84355e-02,-3.35674e-01,2.13550e-01,-2.10349e-01,1.23382e-01,-3.21423e-01,1.26168e-01,9.58958e-03,-9.86431e-02,-8.49633e-02,-2.58635e-01,-3.63553e-01,-3.22371e-02,1.89887e-01,-8.87110e-02,-2.56390e-01,-1.39333e-01,1.02592e-01,-5.42976e-03,-1.25371e-01,2.45592e-01,
-2.82639e-03,3.78926e-02,-1.96895e-01,3.15818e-02,5.06242e-01,-1.33403e-01,1.62460e-01,-8.83709e-02,-2.47475e-01,3.06817e-02,3.36896e-03,7.01247e-03,3.69883e-01,1.96799e-01,4.17003e-02,3.88470e-01,-3.83283e-01,9.36245e-02,1.22554e-01,-3.89397e-01,5.66941e-01,3.53393e-01,-3.54322e-01,1.56243e-01,5.09524e-01,3.17069e-01,-6.38844e-03,2.42569e-02,-1.34573e-01,-2.39465e-02,
-7.42223e-02,1.33884e-03,1.15064e-02,2.70439e-01,1.33269e-02,6.60758e-02,7.12952e-02,3.92911e-02,-1.00447e-01,-6.67985e-02,-1.02793e-01,-1.57467e-02,-4.78281e-02,9.09760e-02,2.82559e-03,6.41495e-02,3.11119e-01,1.58542e-01,8.10772e-02,-7.76762e-02,1.34536e-01,1.12706e-02,6.86643e-02,9.08192e-02,1.03652e-01,2.92050e-01,5.46785e-02,-2.54565e-02,-7.42211e-01,2.01784e-01,
-2.18990e-01,1.12414e-01,-8.62990e-02,7.28943e-01,6.32277e-03,2.32532e-01,1.10327e-01,1.52579e-01,-2.76513e-01,5.03219e-02,-3.20929e-01,-1.54053e-01,-1.97770e-02,2.43762e-01,2.58374e-01,-2.04632e-01,3.78914e-01,1.96936e-01,1.84951e-02,-1.67335e-01,4.48786e-01,1.52040e-01,2.26474e-01,1.56406e-01,1.30074e-01,2.22556e-01,2.10950e-01,1.52417e-02,-2.11824e-01,-1.33723e-02,
7.03907e-02,-1.88027e-01,1.13484e-01,2.61564e-01,-2.36273e-01,1.48474e-01,1.09214e-01,-1.66499e-01,-5.83496e-02,-9.07276e-02,-2.53031e-01,-1.01245e-01,-1.44722e-01,-3.00418e-01,1.67661e-01,1.14559e-01,-3.34712e-01,-4.57196e-02,-2.27346e-01,-5.39392e-02,4.04273e-02,-1.33517e-01,1.71983e-02,-2.85626e-01,-2.61129e-01,2.83042e-01,-1.85599e-01,1.41664e-01,1.51366e-01,-7.65794e-02,
7.01211e-02,-1.71592e-01,-2.85873e-01,-2.13455e-01,1.38871e-01,-3.33118e-01,5.11174e-02,-1.73406e-01,1.90562e-01,-2.80303e-02,2.16479e-01,-3.04327e-01,-3.31106e-02,-2.07680e-01,4.45442e-02,-2.39405e-01,-2.44723e-03,-3.24658e-01,1.23308e-01,1.78609e-01,-1.37488e-01,-4.87779e-02,-2.70059e-01,1.38361e-01,-6.32834e-02,9.12994e-03,2.00494e-01,-3.64605e-01,1.42944e-01,-2.09680e-01,
-4.32020e-02,2.29568e-01,-1.42791e-01,1.69295e-01,-1.88622e-01,-2.71188e-01,-2.05288e-01,1.68620e-01,-1.63530e-01,-7.80730e-02,-3.11839e-01,-1.26491e-01,4.08826e-02,2.22963e-01,-2.33471e-01,2.77197e-01,-3.15682e-01,-2.04791e-02,7.75315e-02,-3.09297e-01,-2.09610e-01,-2.92245e-01,-1.71990e-01,-1.62165e-01,-3.05233e-01,9.94545e-03,-2.19520e-02,2.71153e-01,-1.44542e-01,1.52405e-01,
1.80608e-01,-2.80298e-01,-1.35388e-01,-1.08295e-01,-2.76413e-01,1.59274e-01,1.48844e-01,-2.47901e-01,5.24960e-02,2.59233e-01,-2.41146e-01,-1.59490e-01,-3.00672e-01,1.98851e-01,2.66930e-01,9.17223e-02,-2.03509e-01,2.76415e-01,-1.85991e-01,-8.03361e-02,1.40924e-01,6.77095e-02,-5.12616e-02,-1.13710e-01,-2.45548e-01,2.42159e-01,-4.40483e-02,1.29893e-02,-3.00830e-02,7.51428e-02,
-4.09965e-02,-3.13328e-01,-2.81560e-01,-3.02986e-01,1.35994e-01,-1.82658e-01,1.97375e-01,-1.45553e-01,-2.59207e-01,7.92246e-02,-3.09221e-01,-3.04965e-02,-3.98707e-02,-5.23451e-02,-2.83081e-01,-6.29855e-02,1.88716e-01,1.25901e-02,-1.75290e-01,-2.59373e-01,-3.18694e-03,-5.51902e-02,1.50930e-01,-1.05606e-01,3.13312e-01,3.02976e-01,-1.27817e-01,-7.78422e-02,-1.85740e-01,-1.82389e-01,
-2.95479e-01,-9.97723e-02,-1.89980e-01,1.39824e-01,3.25413e-02,-1.66626e-01,1.23919e-01,-1.69731e-01,8.24799e-02,-1.81059e-01,-1.28156e-01,-2.22832e-01,-3.26870e-01,2.29271e-01,-2.84580e-01,-4.40251e-02,1.77041e-01,1.55944e-02,6.68676e-02,1.50361e-01,-5.11087e-02,1.65395e-01,-6.84736e-03,-3.10163e-01,-2.26509e-01,-1.55623e-01,7.69009e-02,-2.28467e-01,2.30686e-01,-1.02519e-01,
1.52116e-02,7.14122e-03,-6.20203e-02,-1.55536e-01,-8.82097e-02,4.35298e-03,9.84234e-02,-2.35492e-01,-1.86840e-01,6.37893e-02,-2.58686e-02,-1.57028e-01,2.60810e-03,-1.32846e-01,-7.89650e-02,6.72333e-02,-3.21043e-01,-9.43486e-02,9.24330e-03,9.39928e-03,-2.54131e-02,7.24930e-03,-1.11022e-01,-4.59576e-02,1.19649e-01,2.90101e-02,-1.10687e-02,-1.33606e-03,1.48313e-01,2.11868e-01,
1.70920e-02,-3.20959e-02,-8.42439e-02,-2.62653e-02,-4.94174e-02,-3.01486e-02,8.36722e-02,-1.53135e-01,-2.28692e-01,-2.62721e-02,4.70169e-02,-1.33249e-01,8.90965e-02,-2.70079e-01,8.35887e-02,1.52842e-01,-8.97339e-02,-9.26051e-03,-5.74469e-02,-1.41596e-01,1.17519e-01,4.84794e-02,-6.33441e-02,-1.26469e-02,1.77258e-01,9.26913e-02,4.08513e-05,-1.28197e-01,-2.18834e-01,1.00300e-01,
-1.58293e-01,5.69756e-01,-3.60416e-01,-1.48276e-01,2.37523e-01,3.36839e-01,6.63603e-01,-2.56123e-01,-2.39774e-01,-2.63902e-01,-9.55420e-02,-4.08959e-01,7.81652e-01,-1.13588e-01,9.51462e-01,3.18098e-01,-4.96880e-02,2.40637e-01,7.34023e-01,-2.44507e-01,-3.26885e-01,4.47498e-01,-5.30389e-02,2.52042e-01,3.34113e-01,-1.74242e-01,9.74989e-01,-7.76658e-02,-2.09232e-03,-1.32143e-01,
-2.51046e-02,
-4.07923e-01,
1.00789e-01,
1.01100e-01,
-1.62787e-01,
-8.87390e-02,
-3.86955e-02,
3.85960e-01,
-3.00043e-01,
-1.01023e-01,
3.84946e-02,
-2.01911e-01,
2.31157e-01,
-7.13253e-02,
-2.40836e-02,
9.26367e-02,
-3.78776e-02,
-1.97692e-01,
-1.00449e-01,
-3.25078e-02,
-6.52384e-02,
-1.67380e-01,
-3.38693e-01,
-2.12869e-01,
-3.69630e-01,
-2.51437e-01,
-1.69341e-01,
1.35882e-01,
1.31376e-01,
-5.92885e-02,
-1.41033e-03,5.84758e-02,1.49322e-02,2.35537e-02,-3.80531e-01,-2.53893e-01,-1.00965e-02,2.66533e-01,2.30003e-01,4.69533e-01,-1.05412e-01,1.91985e-01,6.25909e-02,1.60235e-01,-3.44477e-01,4.83106e-01,-4.09088e-02,2.36724e-01,4.20542e-02,1.09973e-02,3.72275e-02,2.13521e-01,3.66659e-01,-1.57393e-01,3.45963e-01,3.62951e-01,1.48690e-01,4.46210e-03,5.66816e-02,-2.87479e-01,
-3.09549e-02,-2.78011e-01,4.15590e-03,-9.33758e-02,-3.41407e-01,-6.61712e-03,-1.19801e-02,1.95037e-01,-1.04506e-01,-5.07165e-03,-1.49086e-02,-2.96908e-01,1.40502e-01,-1.01325e-02,4.47055e-03,2.78431e-03,-3.80960e-03,-1.23498e-01,8.06736e-04,1.57679e-01,3.03663e-02,2.11325e-01,-2.52521e-01,-3.32236e-01,3.41586e-01,2.00418e-01,-5.08224e-03,1.04449e-01,-1.06457e-01,8.17258e-03,
6.34708e-02,-2.79009e-01,-9.63767e-02,3.75297e-02,2.90813e-01,-1.06498e-02,1.46135e-01,-3.17666e-02,3.99765e-01,-5.46199e-04,-1.89199e-02,3.41701e-01,5.35256e-02,2.83283e-02,-7.26967e-03,-2.37010e-02,-7.00870e-03,-1.22759e-01,1.07417e-02,-7.94722e-02,4.09048e-02,2.36145e-01,3.22230e-02,-3.08535e-01,-9.97126e-03,-3.70185e-02,3.15372e-04,1.48230e-01,-1.98901e-01,-1.25947e-02,
-3.70644e-02,3.20176e-01,1.62616e-01,7.08509e-02,-2.52208e-01,-1.82158e-02,-7.96427e-02,4.68220e-01,2.21301e-02,-1.18308e-03,-2.03761e-02,-8.10247e-02,6.28597e-02,6.71744e-03,-1.57786e-03,1.71837e-02,-5.31969e-03,1.79020e-01,5.79610e-03,8.75867e-02,4.66954e-02,1.14997e-01,3.73920e-01,-2.36875e-01,-4.96456e-02,3.18685e-01,2.90199e-02,-2.08606e-02,3.20444e-01,4.56653e-03,
6.43538e-02,-3.44326e-02,-1.85759e-02,1.26672e-01,-6.46308e-02,-1.22095e-02,1.14087e-01,8.78597e-02,-1.29020e-01,-6.68032e-03,-1.85872e-02,1.10452e-01,4.20166e-03,3.37455e-02,-4.98723e-03,-3.00277e-02,-8.82395e-03,-8.78634e-02,1.16544e-02,-1.26968e-01,4.74766e-02,5.01907e-02,2.04923e-01,-8.86568e-02,3.11592e-01,3.48610e-01,1.10422e-02,7.99719e-02,2.10975e-02,-1.00676e-02,
-1.12299e-01,
-1.14291e-01,
3.74904e-02,
-2.75528e-01,
-3.58765e-02,
