// Neural Network File Format by Kyle Julian, Stanford 2016
6,5,5,30,
5,30,30,30,30,30,5,
0.000,
-36655.999999,-36656.000000,-3.141600,100.000000,0.000000,
36656.000000,36656.000000,3.141600,472.000000,1200.000000,
-431.467101,-0.000000,0.000000,249.000000,532.000000,9.330048,
73311.999999,73312.000000,6.283200,372.000000,1200.000000,423.773936,
2.89643e+00,2.62754e-01,-1.17091e-01,-4.08457e-03,-3.51770e-02,
-6.58621e-01,-3.54576e-01,1.00179e+00,7.30904e-02,1.20278e-01,
2.70868e+00,-7.97824e-01,9.33827e-02,-1.62032e-02,3.15927e-02,
9.11142e-01,1.94199e+00,9.06226e-02,-2.73979e-02,1.65748e-02,
6.49473e-02,4.49578e-01,-4.09722e-01,-3.10551e-02,6.99306e-01,
-1.61548e+00,-3.05628e-01,-2.50954e-01,3.29627e-02,-1.01050e-01,
-4.96266e-01,-3.70689e-03,-1.29135e+00,-2.28947e-02,3.02477e-01,
8.17270e-02,-5.44314e-01,1.02087e+00,-6.04025e-02,3.84757e-01,
-8.48614e-01,6.49579e-01,2.15335e-01,9.57096e-02,4.37019e-01,
1.11547e-03,5.47570e-01,5.40345e-01,-1.29643e-03,6.62728e-01,
1.47827e-01,1.46261e+00,-4.92045e-01,8.41245e-03,-1.76167e-01,
-1.79787e-01,1.26826e+00,6.74444e-02,1.66920e-01,-5.99738e-01,
4.19369e-01,-7.21581e-04,-2.72097e-01,9.12953e-02,1.06496e-01,
1.43164e+00,2.06079e+00,-8.48963e-02,5.63211e-02,-9.40901e-02,
-1.51454e-02,2.17805e-01,1.09455e+00,1.70868e-02,-1.80567e-01,
5.37851e-01,4.87613e-02,3.42967e-02,-2.78961e-01,-3.25442e-01,
1.78252e+00,-1.94976e+00,3.26620e-02,-1.94979e-03,-4.90512e-03,
-1.28565e+00,-5.29641e-02,5.15925e-01,6.41122e-02,-2.58427e-01,
-7.01448e-01,-4.18537e-01,-5.36797e-01,8.08662e-02,-4.98546e-02,
-1.71714e-01,-9.56241e-01,-2.27599e-01,8.36355e-02,-1.83203e-01,
8.50419e-01,-1.76090e+00,-7.30790e-02,7.05906e-02,2.17669e-01,
4.32342e-01,-1.44672e-01,2.98428e-01,-3.10969e-02,-8.02466e-01,
1.12282e-01,-7.49153e-02,-2.93210e-01,-1.01793e-01,5.95668e-01,
1.11000e-02,5.19826e-01,8.48796e-01,-8.52570e-02,2.39843e-01,
-1.76737e+00,-5.51187e-01,-2.67491e-01,-2.78714e-02,5.62763e-02,
1.12948e+00,3.48013e+00,-1.25290e-01,-6.09914e-03,-8.21214e-02,
1.73759e-01,-3.32489e-01,3.42990e-03,-2.38464e-01,4.42664e-01,
1.25263e-01,-6.83006e-02,5.06219e-02,-5.67962e-02,-3.30128e-01,
5.48207e-01,8.07198e-02,-2.14817e-02,8.05926e-02,1.04287e-01,
3.79157e-01,-1.36309e-01,-2.19025e-01,-8.50829e-02,1.19870e-02,
3.05327e-02,
4.99228e-02,
6.02435e-03,
1.52603e-01,
2.22420e-01,
-9.35323e-02,
-1.02916e-01,
-2.87981e-01,
3.49140e-01,
2.89171e-01,
1.41484e-01,
-1.49697e-01,
1.55951e-01,
-1.47705e-01,
-1.02636e-01,
-5.03880e-02,
6.31978e-02,
1.43051e-01,
3.11016e-01,
5.97122e-02,
2.17808e-01,
-3.58213e-01,
2.81583e-01,
1.03933e-01,
1.40650e-01,
8.38228e-02,
1.11833e-01,
-2.78688e-01,
4.43539e-02,
5.80134e-02,
3.88409e-01,2.34624e-01,-2.55594e-01,2.45731e-01,-1.75425e-01,-6.72187e-01,-2.12662e-01,-6.10512e-01,-3.19096e-01,2.03623e-01,-1.53678e-01,2.54471e-01,1.25609e-01,1.91498e-01,-3.06890e-01,1.23494e-01,2.90075e-02,7.03304e-02,-6.55642e-03,1.51659e-01,-1.58187e-01,-9.50720e-01,1.48929e-01,7.92478e-01,4.32940e-02,3.64371e-01,3.32797e-02,7.76426e-02,2.32343e-03,-1.74713e-01,
-6.50559e-02,6.37337e-01,7.06154e-01,-4.54159e-01,-2.22237e-01,3.43874e-01,-1.23644e+00,3.56045e-01,2.26366e-02,2.66092e-01,-4.84246e-02,2.59749e-01,-5.17443e-01,2.13572e-02,-9.00196e-02,-5.76383e-02,2.24786e-01,-4.30732e-01,1.81391e-01,-4.33287e-01,2.05933e-01,-8.51700e-01,-4.08761e-01,3.74480e-01,5.27904e-02,-9.07418e-01,1.03806e-01,-2.41003e-01,-1.11287e-01,-7.05244e-01,
-2.76491e-01,-3.31564e-01,6.63708e-01,4.24118e-01,-1.86163e-01,1.45463e-01,4.02357e-01,-6.27909e-01,5.40867e-01,2.62386e-01,-2.29635e-01,2.26919e-02,6.77490e-02,-5.55343e-02,-6.04854e-02,-3.09436e-01,-1.31946e-01,-2.71881e-01,-5.24714e-01,-1.10113e-01,-3.80046e-01,-7.51348e-01,-1.01484e-01,1.66318e-01,-2.20329e-01,4.14613e-01,-1.40696e-01,-1.36686e-01,2.20163e-02,1.29581e-01,
-1.20855e+00,2.84891e-01,-2.76199e-01,-4.75987e-01,-2.30507e-02,-2.62040e-01,1.34567e-01,1.82161e-01,1.96185e-01,4.65723e-02,3.63355e-01,1.96514e-01,-2.49412e-02,4.18995e-01,1.78962e-01,7.51377e-02,4.13680e-04,4.10812e-01,3.66303e-01,2.72516e-01,-1.54089e-01,-8.76482e-02,-3.61469e-01,-2.63813e-01,-1.60236e-02,1.73671e-01,-2.84503e-01,-2.93082e-01,-6.37742e-01,-3.24263e-01,
6.03771e-01,2.48372e-01,-1.74570e-01,3.17767e-01,6.58060e-02,-3.76930e-02,-4.28935e-02,-2.17840e-04,-2.87869e-01,-1.16423e-01,2.14574e-03,-3.49057e-01,1.11855e-01,-1.55188e-01,3.70477e-02,4.14085e-01,-4.50982e-02,1.17942e-01,-1.40818e-01,1.92415e-01,2.89867e-01,1.39110e+00,3.48016e-01,-6.00395e-01,-1.57039e-01,9.26471e-01,4.02713e-01,4.82800e-02,2.45223e-01,2.17732e-01,
7.38437e-02,-2.40056e-01,1.85685e-02,1.04866e-01,-4.42939e-01,6.03737e-01,-5.46390e-01,-9.02023e-01,-4.02532e-02,5.30877e-01,2.04096e-01,-3.73958e-01,8.38741e-03,-3.12253e-01,-1.00605e+00,1.53371e-02,8.32761e-02,-2.09053e-01,-4.56302e-01,-8.03139e-02,1.82680e-01,-6.00247e-01,-1.36204e-02,3.48777e-01,-2.44792e-01,-3.66008e-02,2.64132e-01,-5.35377e-02,7.21065e-02,3.61042e-02,
1.86931e-01,3.33342e-01,5.53639e-01,1.89317e-02,-3.62525e-01,1.99132e-01,-4.55855e-01,-7.56517e-03,1.46853e-02,5.01340e-01,1.36083e-02,-3.56633e-01,-2.43874e-01,3.07113e-01,3.34375e-01,-1.83229e-01,4.63727e-01,-2.95099e-01,-1.05759e-01,3.41075e-01,1.47987e-01,-7.21304e-01,-1.43402e-01,-1.50505e-01,-2.02100e-02,-3.21806e-02,1.34456e-01,1.56024e-01,-1.30382e-01,2.69886e-01,
-2.13651e-01,5.79669e-01,-1.67500e+00,-3.50299e-02,-9.23132e-02,-7.56793e-02,6.29891e-01,-7.33280e-02,4.63587e-01,1.06779e-02,-1.89132e-01,2.95297e-01,-2.50259e-01,-8.72607e-01,2.07948e-01,-2.24658e-01,-2.25254e-01,-2.23440e-01,1.23325e-01,-3.07578e-01,-4.39617e-01,-4.83577e-01,-5.21167e-02,3.51221e-02,-5.65080e-02,-6.32482e-02,1.78668e-01,-2.81840e-01,-3.39508e-01,-3.52327e-01,
9.95030e-02,-6.73107e-01,-1.24024e+00,-5.07300e-02,6.97802e-02,1.81659e-01,-1.40725e-01,-4.89171e-01,3.78517e-01,1.37874e-01,3.70379e-01,-1.31681e+00,-4.64012e-01,5.02753e-02,1.43670e+00,7.46296e-02,1.96108e-01,-2.14814e-02,6.20927e-03,-2.84126e-01,-1.89292e-01,-8.58951e-01,1.86196e-01,-4.71923e-01,2.87618e-01,8.64027e-01,-1.66396e-01,-5.21922e-02,-1.34218e-02,-3.20402e-01,
-1.01407e-01,-7.85721e-01,1.42738e-01,-2.86533e-01,1.70883e-01,-2.13697e-01,-3.24665e-01,6.08622e-01,6.67179e-02,-1.52044e-01,-2.39661e-01,1.76660e-01,-5.66670e-02,1.01015e+00,3.38280e-01,-2.34117e-01,-2.65075e-01,5.21455e-02,7.15053e-02,1.22105e-02,1.17456e-01,1.84210e-01,2.84227e-01,-7.95618e-02,2.74114e-01,-5.53827e-01,2.70538e-01,2.06936e-01,8.85509e-02,-6.62335e-02,
-3.75116e-01,-3.00765e-01,-3.03091e-01,2.46441e-01,8.71633e-02,-1.17513e-01,-4.38895e-02,-1.04596e+00,4.58448e-01,-4.41510e-01,-2.50434e-02,-2.63170e-01,4.54655e-01,-6.77731e-02,4.35954e-01,-2.17032e-01,-2.89140e-01,-3.77361e-01,1.63265e-01,-2.50308e-01,-5.09168e-02,-7.91301e-01,2.45607e-01,8.43315e-01,-2.00131e-02,-3.27953e-01,5.28565e-01,-2.52261e-01,3.25480e-01,2.58593e-01,
4.17277e-01,3.57221e-01,-7.13267e-02,2.09161e-02,1.29836e-01,-7.15291e-01,8.15888e-01,2.98042e-01,-6.28721e-02,-1.50640e-01,5.38381e-02,5.26716e-01,2.67080e-01,-1.56180e-01,-2.74713e-01,-6.20830e-01,-7.41781e-02,3.14812e-01,4.39044e-01,-1.18968e-02,1.78209e-01,-4.28653e-01,-1.26135e-01,4.29183e-01,2.63924e-02,3.81266e-01,7.30996e-02,-1.97128e-01,-1.84962e-01,1.24656e-01,
-6.00700e-02,3.43762e-01,-1.70954e-01,-3.53568e-01,4.53179e-01,-1.87466e-01,3.36090e-01,-2.43184e-01,3.28928e-01,-1.82219e-01,-8.32142e-02,-7.14379e-01,-2.48415e-01,7.30876e-01,-3.13715e-01,-6.07681e-01,-4.61124e-02,1.30095e-01,-1.13883e-01,7.83982e-02,1.85791e-01,-2.13901e-01,1.57418e-01,2.74905e-01,2.18296e-01,-4.54402e-01,3.35106e-01,-1.65023e-01,8.04290e-02,-2.84933e-01,
5.94998e-01,2.41396e-02,2.01492e-01,3.16549e-01,-1.54070e-01,-2.76257e-01,1.23177e-01,-4.32455e-01,3.05124e-01,1.39376e-01,4.05524e-01,2.27186e-01,6.70289e-02,-5.59699e-01,-6.02637e-01,2.07715e-02,-7.97428e-01,4.11131e-01,-1.57888e-02,-2.68423e-01,-5.33608e-01,-4.77869e-02,1.94111e-01,5.76508e-01,-1.77118e-01,7.56382e-01,-1.70614e-01,-5.47359e-02,1.63288e-01,-1.32792e-02,
-7.18469e-02,-4.04188e-01,3.68197e-01,1.69914e-01,-3.78518e-02,9.40654e-01,2.51892e-01,-1.53625e+00,4.89992e-01,6.37764e-02,6.41710e-02,1.63775e-01,2.86782e-01,-7.74482e-01,2.41405e-01,-3.45351e-01,1.98019e-01,-2.83892e-02,2.05176e-01,-1.79598e-01,-2.38611e-01,-3.13518e+00,3.63382e-01,1.49718e-02,-3.68553e-01,2.30176e-01,7.21491e-01,2.30059e-02,3.27670e-02,-2.46808e-02,
1.83169e-01,-5.93331e-01,-1.91131e-01,-5.58371e-03,5.57231e-01,3.80763e-01,-2.64932e-01,2.88220e-01,1.95837e-02,1.23161e-01,2.97242e-01,1.12361e-01,2.65651e-01,2.83886e-01,1.44079e+00,-1.57659e-01,7.90676e-02,-2.40261e-02,4.79987e-01,4.37549e-01,-2.72516e-02,6.75970e-01,-3.75720e-01,-6.97860e-01,-2.23992e-01,-4.01662e-01,-1.53808e-01,3.02624e-01,-5.28910e-01,3.07092e-02,
-6.06266e-01,2.97584e-01,-1.79567e-01,-3.12314e-01,4.08821e-01,-1.25157e-01,-8.04687e-01,-1.77417e+00,1.58228e-01,-3.82524e-01,3.53855e-01,-9.35952e-01,3.68483e-01,1.44473e-01,5.07344e-01,-2.32890e-01,-1.12724e-02,1.37990e-01,4.39248e-01,3.03335e-02,5.28094e-02,-1.97114e-02,-1.09399e-01,1.77963e-02,-3.16356e-01,5.90112e-02,1.68225e-01,-1.98303e-01,1.43360e-01,1.44250e-02,
3.54889e-02,-5.53215e-01,4.99602e-01,-1.80066e-01,2.00532e-01,3.51739e-02,-1.03921e-02,2.50129e-01,2.24446e-02,-6.49066e-01,-3.30359e-01,-1.97671e-01,9.23624e-02,2.64624e-02,5.31998e-01,7.79161e-02,2.69015e-01,-3.86991e-01,1.48170e-01,1.86037e-01,5.55351e-01,1.77751e+00,1.33118e-01,-2.87962e-01,3.88484e-01,-6.05726e-01,2.01334e-01,-5.40459e-03,-2.87413e-02,8.51261e-02,
-3.46266e-01,-5.38070e-01,-7.26377e-02,3.61423e-02,-1.02505e-01,1.32493e-01,4.36567e-01,-2.64349e-01,-1.54761e-01,1.48915e-01,8.03508e-02,2.34027e-01,-2.25930e-01,6.61276e-01,-7.48833e-01,2.06142e-01,1.93127e-01,4.33527e-01,-3.58337e-01,3.46627e-01,1.13990e-01,1.31702e+00,-8.25970e-01,-2.09512e-01,-2.32664e-01,-4.57815e-01,-1.01022e+00,-2.78608e-01,2.51420e-01,1.33432e-01,
1.36643e-01,3.22784e-01,2.46784e-01,1.94438e-01,2.32076e-01,1.58209e+00,-6.81315e-01,-1.12549e-01,5.29815e-01,5.12695e-02,5.52569e-01,8.12185e-02,-4.01379e-01,-3.96775e-01,-1.56110e-01,-1.39414e-02,-5.34230e-01,4.24163e-01,-3.07796e-01,1.80266e-01,-5.84229e-01,-4.68796e-01,1.10122e-01,9.05473e-02,-3.02021e-01,2.49841e-01,-1.71795e-01,2.26658e-01,-2.46976e-01,-7.97231e-02,
3.98442e-01,1.45132e-01,-6.31068e-01,5.80229e-01,2.51713e-01,-7.17939e-01,-2.95299e-01,2.42424e-01,1.17945e-01,1.70230e-01,1.65178e-01,-1.23867e-02,3.21226e-02,-6.09601e-01,2.97759e-01,-7.48155e-02,9.07044e-02,-4.27545e-01,-5.16330e-01,3.94916e-02,-6.58685e-02,-5.98760e-01,-2.38726e-01,-3.67173e-01,-8.08863e-01,3.10955e-01,-1.10581e-01,-2.47562e-01,-3.28467e-02,9.50303e-02,
1.04505e-01,3.33330e-01,-1.52278e-02,7.27777e-03,-5.61522e-01,6.98914e-01,-8.79969e-01,4.30463e-01,4.95800e-01,4.65037e-01,-1.73661e-01,-2.98030e-01,-3.87919e-01,-4.68096e-01,-6.98960e-01,1.36026e-02,-3.01415e-02,1.87564e-01,-4.61789e-02,-1.24259e-01,-3.46947e-01,-7.80962e-01,1.04091e-01,6.61127e-02,-6.22203e-01,5.55362e-01,2.12619e-01,-1.51218e-02,-1.23088e-01,-2.39241e-01,
-5.15288e-01,2.76194e-01,2.56444e-01,-1.40387e-01,4.34371e-03,6.42728e-02,3.20563e-01,1.18520e+00,-4.19022e-01,2.58533e-01,4.51299e-01,-7.67279e-02,-3.10909e-01,5.65208e-01,1.72164e-01,-3.56097e-03,-3.58121e-01,-7.49675e-02,2.85293e-01,-1.19554e-01,-1.32768e-01,-8.63349e-01,-3.89317e-01,1.71400e-01,4.19694e-01,2.18809e-01,4.77111e-01,-2.63162e-02,7.60290e-03,-3.30262e-01,
-8.16089e-02,-1.34849e-01,-2.19913e-02,-3.53757e-01,3.03409e-01,7.38398e-01,2.77603e-01,-2.04805e-01,1.41244e-01,-6.19511e-01,-5.91176e-01,-1.02494e-01,1.20274e-01,6.76496e-01,2.20140e-01,2.03450e-01,2.33035e-01,-4.69025e-01,8.01522e-03,-2.26510e-01,8.67375e-02,-7.33279e-01,4.62445e-01,-5.09281e-01,1.37486e-01,-1.87292e-01,4.40017e-01,1.29300e-01,1.36142e-01,-2.92147e-01,
5.78504e-01,-2.20603e-01,-7.73147e-02,1.59619e-01,-5.65250e-01,-1.80171e-02,6.28256e-01,-5.95614e-01,4.70360e-01,2.86892e-01,1.30636e-01,1.07645e+00,2.55719e-01,-1.48237e-01,1.25622e-01,1.20324e-01,-2.22465e-01,-2.10785e-04,9.51821e-02,-1.52178e-01,-3.98367e-01,-5.19748e-01,-7.20987e-01,-3.27686e-01,-6.81056e-02,2.32451e-01,-3.19469e-01,1.77521e-01,-1.85729e-01,-1.49211e-01,
-1.70236e-01,-1.63984e-01,1.28962e-01,3.32926e-05,-6.48848e-01,9.26181e-01,6.67287e-01,-6.47271e-01,6.67895e-02,5.33458e-01,2.63736e-01,-5.34901e-02,3.04829e-01,1.10195e-01,-2.64066e-02,2.82217e-01,7.71190e-02,-3.58245e-01,-2.89525e-01,-3.11695e-01,-2.60880e-01,4.06147e-01,1.31525e-01,-8.98117e-02,-1.32701e-01,-5.22108e-01,2.48487e-01,-2.14428e-01,9.08061e-02,2.18652e-01,
5.04128e-02,-2.44271e-01,1.50283e-01,1.66913e-01,3.07933e-01,2.45196e-01,-6.20662e-01,-5.38812e-01,1.87152e-01,-1.96191e-01,-3.41613e-01,-2.78335e-01,-5.46009e-02,-5.59416e-01,-1.04078e-01,-3.70670e-01,-8.89447e-02,-1.28070e-01,-5.05787e-01,-3.76508e-01,2.28285e-01,5.42981e-01,5.47039e-01,1.17310e-01,5.08497e-02,5.45761e-01,3.21261e-01,1.54743e-01,1.86289e-02,-1.00600e-01,
-1.29410e+00,4.16864e-03,-8.61185e-01,2.12115e-01,-6.00477e-02,6.21567e-02,-5.84355e-02,5.39133e-02,4.75267e-01,-1.63890e-02,3.17275e-01,7.34051e-02,-2.37723e-01,1.24779e+00,-2.04262e-01,9.67210e-02,-1.16830e+00,8.56023e-02,1.02684e-01,4.19255e-02,-5.80643e-01,1.51527e-02,4.69670e-02,6.34461e-02,3.48185e-01,2.26758e-01,-1.45805e-01,-4.01542e-02,-3.14915e-01,-8.88965e-02,
-7.87118e-03,-5.48583e-02,5.25174e-02,9.26808e-02,-6.84157e-02,3.09175e-01,2.26605e-01,-1.41043e-01,-9.08327e-02,5.87791e-02,-1.01931e-01,-2.28003e-01,2.12361e-01,-1.97122e-01,1.35061e-01,1.51355e-02,3.95932e-02,2.99305e-01,-1.07065e-01,-1.75598e-01,-3.01464e-01,2.48015e-01,-3.58461e-02,-1.25624e-01,-2.74471e-01,-1.36988e-01,6.87839e-02,-1.80352e-03,3.04293e-01,-2.15436e-01,
-1.62056e-01,1.85207e-01,-1.05547e-01,-4.38007e-01,5.83683e-02,-1.54356e-01,2.63842e-01,2.21323e-01,2.64080e-01,-6.51644e-01,6.25531e-01,-5.44566e-01,3.05696e-01,6.76486e-01,1.61584e-01,-1.13122e-02,6.38881e-01,3.11440e-01,2.97148e-02,2.93840e-01,1.56610e-01,6.81530e-01,-2.17697e-03,5.79144e-03,9.53239e-02,-1.75872e-01,5.41198e-01,-1.89910e-01,4.39943e-02,2.07211e-01,
4.44958e-02,
4.75927e-02,
3.18916e-01,
-9.79062e-02,
-1.50336e-01,
3.81120e-01,
1.44754e-01,
8.62703e-02,
-1.87331e-01,
3.58697e-01,
-3.48626e-02,
-1.95061e-01,
1.91892e-01,
-2.63448e-01,
-1.25860e-01,
8.04184e-02,
1.73061e-01,
1.05596e-02,
3.06220e-01,
-2.33156e-01,
3.16257e-01,
3.04838e-02,
1.52581e-01,
2.95065e-01,
2.83287e-02,
2.48034e-01,
2.56520e-01,
1.73527e-01,
-2.23831e-01,
-3.39101e-01,
-7.94273e-02,-3.83210e-01,-5.55947e-01,-3.75485e-01,4.33050e-01,-1.13722e-01,1.58157e-02,8.76983e-02,-1.20161e-01,-3.39583e-01,1.89196e-02,-4.34971e-01,-1.31640e-01,8.75658e-02,-5.43734e-01,-1.61180e-02,4.81095e-03,-1.00814e+00,2.88634e-01,3.12849e-01,-1.39340e-01,-1.12009e-01,4.60639e-01,-8.11045e-02,-8.69513e-02,7.83563e-01,1.03743e-01,-1.87842e-01,1.61999e-01,-3.00801e-02,
9.07658e-02,-6.96715e-01,4.11733e-01,-9.61440e-02,6.64290e-01,-1.55386e-01,-7.64553e-01,4.30122e-01,1.64216e-01,-4.00089e-01,-7.27935e-01,1.38375e-01,-3.27526e-01,-1.26622e-01,4.45003e-01,2.95708e-01,3.76078e-01,2.16105e-01,4.22713e-01,2.09099e-02,5.01977e-01,-7.32084e-01,-2.80304e-01,5.15250e-02,-2.48975e-01,-2.76172e-01,2.36479e-01,-1.11259e-01,2.66333e-01,1.47726e-01,
-1.58958e-01,4.97944e-01,-1.43491e-01,-1.99028e-01,-5.52769e-01,-4.26163e-01,-9.91604e-02,-7.42815e-02,7.18970e-01,3.18398e-01,3.81342e-02,-5.02289e-03,-3.52958e-01,-4.10263e-01,8.11578e-02,3.00524e-01,2.99788e-01,3.35193e-02,3.36626e-01,1.70528e-01,5.98593e-02,-8.60980e-01,-1.91621e-03,5.92176e-01,-2.75657e-01,-2.96127e-01,-1.85623e-01,-1.85924e-02,-1.57790e-01,-2.85215e-01,
1.44931e-01,-5.56114e-02,2.67601e-01,-4.65015e-02,2.25488e-01,4.16686e-01,2.40819e-01,-2.48708e-01,-2.37271e-01,-3.25230e-01,-2.08133e-02,1.13493e-01,8.33605e-02,1.33213e-01,-6.72901e-02,-3.56396e-01,-3.82809e-01,3.65932e-01,-3.25243e-01,1.98467e-01,2.54711e-01,6.71643e-02,-2.89397e-01,-1.69246e-01,-2.69300e-01,4.57779e-01,3.47288e-01,1.77642e-01,-1.92522e-01,1.67027e-02,
1.91840e-01,-2.16367e-01,3.86805e-01,-3.15003e-01,8.50295e-02,-2.08962e-02,2.44556e-01,2.90598e-01,-1.38309e-01,3.32908e-01,5.85945e-01,3.66744e-01,1.69369e-01,3.14235e-01,-2.10118e-01,5.09827e-01,6.77962e-02,-1.73653e-01,-3.60682e-01,3.58757e-01,3.76202e-01,2.12147e-01,-4.61137e-01,-2.14530e-02,3.46330e-01,-1.41768e-01,-3.55400e-01,1.28509e-01,-1.90655e-01,1.73946e-01,
-5.23194e-01,-5.84246e-01,1.92847e-01,5.99826e-01,5.80003e-03,3.57109e-02,-5.59269e-01,7.80077e-01,-2.77306e+00,3.00848e-01,-4.93183e-01,-2.16663e-02,-9.38103e-01,-6.95374e-01,4.01612e-01,3.59615e-01,5.36016e-01,-3.23875e-01,1.83037e-01,-4.39104e-01,8.65643e-02,-4.63459e-01,-3.00770e-01,1.66316e-01,-9.54129e-01,5.40717e-01,7.55364e-02,-5.50269e-01,-2.11915e-01,2.33868e-01,
1.14805e-01,-2.75289e-01,-4.47859e-01,-5.10216e-01,3.85174e-01,1.92436e-01,-7.81822e-02,3.97280e-01,-6.11470e-02,5.30645e-01,-7.96219e-01,2.17113e-01,-2.49967e-01,-4.89073e-02,-2.96744e-03,1.68703e-01,1.66818e-01,4.29708e-02,-4.83857e-01,-7.26662e-02,1.13518e-01,-2.12838e-01,-7.45865e-03,4.30335e-02,-2.99782e-01,1.42865e-01,1.32459e-01,1.13682e-01,1.26481e-01,3.99847e-03,
-2.33922e-03,-1.75372e-01,6.58526e-02,-2.17586e-01,-4.68210e-01,-1.92979e-01,6.58787e-02,7.05640e-01,-2.05714e-01,1.47164e-01,-3.93207e-01,-2.05092e-01,-1.43074e-01,1.26683e+00,6.36431e-02,4.40559e-02,1.66175e-01,8.33748e-03,1.67020e-01,3.85764e-02,5.59270e-01,-6.60589e-02,7.49446e-02,-8.70745e-03,3.52286e-01,2.06488e-01,-1.10091e-01,-6.63951e-02,1.25166e-01,5.34453e-01,
2.03094e-01,2.08698e-02,3.82703e-01,3.98748e-01,2.88419e-01,5.89897e-01,-2.81436e-01,-1.58045e-01,-3.68787e-01,-3.55863e-02,6.35721e-02,-3.11756e-01,-4.40321e-01,4.87758e-01,-1.90321e-01,-5.54064e-01,-3.50057e-01,1.55692e-01,-2.69752e+00,3.10156e-01,8.15191e-02,7.09333e-01,-4.40472e-01,1.86733e-01,-7.85933e-01,-6.18244e-01,2.89691e-01,3.66153e-01,-2.36119e-01,-9.35231e-01,
8.69497e-02,-4.26483e-01,1.13227e-02,-3.66031e-01,-7.45118e-02,2.55099e-01,-2.48156e-02,4.33556e-01,-1.89668e-01,-3.21879e-01,2.37749e-01,-1.80281e-01,3.14417e-01,2.20421e-01,-2.69678e-01,3.15807e-01,-3.17218e-01,1.65689e-01,-4.11361e-01,-4.51174e-01,-3.66490e-01,-6.32012e-02,-2.45444e-01,-4.34396e-01,8.92102e-02,-5.43646e-02,1.12116e-01,7.60665e-01,-2.57835e-01,3.37636e-01,
5.68944e-01,1.52253e-01,-1.36603e-01,-1.51250e-01,-1.90689e-01,1.47692e-01,-8.70603e-03,3.73527e-01,2.51024e-01,3.95824e-01,-5.95653e-01,-6.95840e-02,6.07512e-02,-2.62219e-01,2.26729e-01,-5.24590e-01,2.19189e-01,-1.70052e-01,-4.36188e-01,7.57922e-02,1.00149e-02,3.02021e-02,-1.60756e-02,-1.02653e-01,-1.02614e-01,-6.63648e-02,1.15675e-01,-5.94397e-02,2.54740e-02,5.89255e-01,
7.82760e-02,-3.69457e+00,6.67662e-02,-2.14362e-02,4.88185e-01,-8.78767e-01,-1.63977e-01,3.41828e-01,3.47220e-01,-2.67313e-01,-1.17078e-02,5.21471e-01,-2.75135e-01,8.22868e-02,3.37914e-01,7.38206e-02,1.75392e-01,-1.16179e-01,-5.51681e-01,-1.20183e-01,-2.33648e-01,-7.46390e-01,-1.00825e-01,1.99608e-01,-5.02758e-01,-1.66442e-01,-4.60149e-01,3.87142e-02,-1.79131e-02,-4.81837e-02,
-3.03158e-01,-6.00684e-01,3.39252e-01,-9.58165e-02,1.61456e-01,2.42986e-01,1.10453e-01,3.97078e-02,2.31909e-03,4.29951e-02,1.05870e-01,-4.15310e-01,-8.10760e-02,3.57903e-01,2.74619e-01,2.42649e-01,-3.43177e-01,3.16409e-01,-8.04423e-01,8.87806e-02,3.47468e-01,-2.66852e-01,-8.99386e-02,3.10559e-01,4.89887e-01,1.56435e-01,3.73869e-01,-1.24368e-01,-3.12352e-01,-1.57637e-01,
-3.38769e-01,2.18200e-01,3.47409e-01,-4.03740e-01,2.74248e-01,-4.30014e-01,-1.77403e-01,-1.94601e-01,2.12694e-01,-3.98090e-01,-5.87775e-01,4.20271e-01,-1.79136e-01,2.43851e-01,3.38419e-01,-3.21282e-01,6.43859e-01,2.15216e-01,-1.13433e-01,-2.68755e-01,-1.63500e-01,-5.41861e-01,1.94923e-01,1.93987e-01,-1.22332e-01,7.81505e-01,-6.09915e-02,-1.39758e-01,2.54695e-01,5.88104e-01,
-6.10551e-02,4.87851e-01,-2.47176e-01,9.33009e-02,-4.16552e-01,-4.28149e-01,7.38514e-02,3.54901e-01,-3.05036e-01,3.48624e-01,1.73046e-01,-1.12207e-01,4.23984e-01,6.49565e-01,-1.45888e-01,6.78383e-03,4.59158e-01,3.81501e-01,4.32813e-01,-8.53565e-01,-8.59780e-01,-2.17140e-01,3.90119e-01,-1.71755e-01,9.54380e-02,1.08438e-01,-4.29467e-01,7.78264e-01,1.27457e-01,-5.55076e-01,
1.66678e-01,5.65224e-01,-6.31747e-01,-4.30438e-01,1.19810e-01,-1.79871e-01,-9.50250e-02,-5.17460e-02,1.07910e+00,9.26825e-02,-2.55326e-01,3.32041e-01,-2.06616e-01,-2.60915e+00,6.00627e-02,1.66717e-02,1.84833e-01,-2.72681e-01,5.27435e-01,-3.77386e-01,2.77086e-01,-1.93081e-01,-1.58367e-01,6.31961e-02,-3.57734e-01,6.45270e-02,1.65633e-01,-1.60750e+00,2.19611e-01,-1.74354e-01,
-2.31802e-01,-1.64574e-01,-2.80327e-02,2.85763e-01,-1.66264e-01,-7.01718e-02,2.14192e-01,-2.72119e-01,5.93863e-01,2.22942e-02,-6.13346e-01,5.04930e-01,-6.96826e-02,-2.09076e-01,4.08705e-01,3.05434e-02,6.37161e-02,-5.32784e-02,-1.06246e-01,-4.27740e-02,1.43164e-01,-3.15433e-01,-1.64130e-01,5.69407e-01,2.35709e-01,-3.82629e-02,-3.91098e-02,-5.30103e-01,6.30572e-02,-5.41666e-01,
5.31762e-03,6.73071e-01,-3.88862e-01,-9.86197e-01,-8.49094e-02,1.71970e-01,1.20848e-01,5.72420e-01,-4.49160e-01,-2.96197e-01,-5.67338e-01,-1.06465e-01,-2.07350e-02,-7.54682e-03,4.77260e-01,6.76549e-02,-1.06665e-01,3.19407e-03,4.43590e-02,-8.41900e-02,8.46110e-02,-4.28654e-01,-1.65190e-01,-1.25025e-01,1.46898e-01,-1.00505e-01,7.12075e-02,4.52928e-01,3.04358e-01,-1.63610e-01,
5.06466e-01,4.21893e-02,-1.88927e-01,9.10018e-02,-5.38462e-02,-6.51462e-01,9.60923e-02,2.16927e-03,-5.80137e-02,1.24771e-01,6.15263e-01,5.06353e-01,7.69707e-02,-2.33355e-01,1.30197e-01,-3.94060e-02,3.16203e-01,-3.67141e-02,3.24011e-01,-1.48512e-01,-9.10677e-02,3.83476e-01,-2.82006e-02,-2.39067e-01,4.20192e-01,-3.19658e-01,-4.78225e-01,-4.58700e-02,-1.47060e-01,7.27770e-02,
3.20806e-01,-3.60503e-01,-2.43657e-01,9.59169e-02,-3.93175e-01,-1.27943e-01,-2.42086e-01,2.86128e-01,-6.97263e-01,-2.03963e-01,1.58452e-01,-6.08737e-02,-8.54048e-02,8.18471e-01,4.85767e-02,2.75786e-01,3.41138e-02,1.46406e+00,2.28461e-01,-2.32306e-01,9.94908e-03,5.68054e-01,-3.91940e-02,1.49283e-01,-4.27942e-01,-4.29266e-01,-7.51588e-02,2.74363e-01,2.27214e-02,-3.41652e-01,
8.26791e-02,-7.53731e-01,4.45624e-02,1.27306e-01,-3.43941e-01,6.23998e-01,-7.49322e-02,5.62719e-01,2.01346e-02,8.32290e-02,1.12523e-01,2.92190e-02,-6.77417e-02,1.64373e-01,2.97848e-01,2.22654e-01,-2.59817e-01,4.19214e-01,3.97494e-01,5.29644e-01,3.94337e-01,3.67319e-01,-4.17555e-01,2.32145e-01,-2.11446e-01,2.00220e-01,2.54718e-01,-4.83205e-01,1.68834e-01,4.39753e-01,
3.13732e-01,3.69181e-01,-8.89748e-02,-8.75949e-01,6.06017e-02,3.61873e-02,-1.75156e-01,2.44209e-01,4.07290e-01,2.67287e-01,2.99827e-01,1.86760e-01,-3.41130e-01,-1.00525e+00,-2.49985e-01,3.40145e-01,3.29570e-01,-5.25571e-01,3.76489e-01,-2.02909e-01,-4.48722e-03,1.47603e-01,1.90695e-01,-2.97233e-01,9.64185e-02,1.98311e-02,6.39101e-02,-5.47915e-02,3.61799e-02,-6.70710e-01,
2.74554e-01,3.27653e-01,1.33741e-01,6.00838e-02,9.80892e-02,-2.13346e-01,-7.08413e-02,2.68601e-01,6.05703e-01,4.97316e-03,-1.66913e-01,2.95076e-01,-6.65253e-02,1.73241e-01,6.33493e-01,-6.54213e-01,1.73461e-01,2.40374e-01,-1.12963e-01,-1.49147e-01,-5.21332e-01,-2.97894e-01,-9.95573e-02,3.40672e-01,-1.92629e-02,-1.25221e-01,1.39953e-02,2.07702e-03,-2.47480e-01,-9.37859e-03,
8.65959e-02,-1.06522e-01,1.27427e-01,7.99615e-01,2.28216e-01,2.69932e-01,-2.22745e-01,-3.71871e-01,1.77958e-01,-8.16882e-02,-3.17566e-01,-4.93793e-01,-4.92446e-02,-3.63221e-02,-3.38770e-01,-6.28422e-01,-1.24727e-01,-6.30208e-02,-7.22318e-01,1.52889e-01,7.04049e-01,-1.51646e-01,-2.98409e-01,2.55351e-01,-3.80852e-01,1.41232e-01,4.90115e-01,1.03718e-01,4.39706e-02,2.07003e-01,
-4.54457e-02,3.79840e-01,-2.96132e-01,9.39872e-02,1.96655e-01,-4.14142e-02,-2.60990e-01,4.90616e-01,-3.80707e-01,-9.05936e-02,2.24380e-01,-2.96466e-02,4.52168e-01,5.48761e-01,-1.63769e-01,2.87192e-02,3.48322e-01,-3.04218e-01,1.78219e-02,-4.39242e-01,-1.43348e-01,8.47425e-01,3.20949e-02,-8.52374e-01,6.53412e-01,-1.31963e-01,-7.12369e-01,4.31777e-01,-8.27853e-02,6.72294e-01,
2.38821e-01,1.70276e-01,2.76549e-01,-1.15185e-01,1.62375e-02,3.96386e-01,-7.05845e-01,-2.69885e-01,-1.55906e-01,3.66036e-02,-1.26912e-01,-1.26032e-01,-1.66428e-01,1.09304e-01,1.08753e-02,-5.61893e-02,-2.14259e-01,2.39689e-01,-3.73142e-01,6.95960e-02,4.95575e-01,2.82159e-01,-2.37466e-01,1.67791e-02,-1.37679e-01,2.95750e-01,1.27938e-01,-2.55265e-01,2.76216e-01,2.32188e-01,
1.05818e-01,-2.76951e-01,-2.33740e-01,-2.61265e-01,-1.17855e-01,1.20067e-01,1.31224e-01,6.52437e-02,6.48738e-03,8.62264e-02,-2.45908e-02,2.82646e-02,-2.75798e-01,-4.55167e-02,-3.55022e-01,-1.97683e-01,-6.11407e-02,-1.12734e-01,2.55094e-01,2.69909e-01,1.99975e-01,-2.30963e-01,-3.30017e-01,-2.12074e-01,6.30419e-02,-1.96828e-01,1.45186e-01,1.98255e-01,-3.78604e-02,-1.70433e-02,
-1.24482e-01,6.34698e-01,7.12191e-02,-3.14382e-01,-3.69381e-01,-1.45581e-01,-4.42857e-01,1.04423e-01,-6.29607e-02,1.43982e-01,-1.61278e-02,2.66783e-01,1.58750e-01,4.22033e-01,3.63095e-01,-5.63416e-02,1.09786e-01,-3.40161e-01,-6.24697e-01,-4.18452e-01,3.54136e-02,-1.17505e-01,6.16126e-02,-2.46844e-01,3.41732e-01,2.93458e-01,-2.05426e-01,2.47016e-01,3.10506e-01,-6.25806e-02,
2.58492e-01,-3.74933e-02,-2.93988e-01,8.45380e-02,-1.43971e-02,1.89338e-01,-9.92938e-02,2.10704e-01,9.24442e-02,-8.37842e-02,3.58731e-01,6.09383e-03,-2.69775e-01,-5.46338e-01,8.55950e-02,-4.91405e-02,1.72763e-01,-1.97949e-02,-5.27757e-01,8.99074e-02,-2.52551e-01,-1.27273e-01,1.98395e-01,2.83812e-01,4.34063e-01,1.57832e-01,5.55707e-05,-4.53479e-03,3.10829e-01,-3.62020e-02,
-4.13768e-02,1.32167e-01,-3.13379e-02,-4.31993e-01,-1.44446e-01,5.89857e-01,-2.83939e-01,-6.12232e-01,5.74847e-02,4.80259e-01,-7.95913e-01,-1.18454e-01,1.13543e-01,5.77171e-01,9.72346e-02,-4.43516e-01,-3.23619e-01,3.71972e-02,-8.51322e-01,-4.94656e-02,3.32035e-01,-4.86604e-01,-4.16442e-01,3.91406e-01,-5.13728e-01,3.93676e-01,3.86073e-01,1.34619e-01,-1.24135e-01,-2.56363e-01,
7.01546e-02,
-1.55699e-01,
1.63701e-01,
-2.03717e-02,
-2.36412e-01,
1.34299e-01,
6.44771e-02,
1.07043e-01,
-1.87964e-01,
2.81032e-01,
1.58639e-01,
-3.09292e-01,
-1.34741e-02,
-8.77373e-01,
-1.02450e-01,
2.22127e-01,
2.42432e-01,
1.64909e-01,
7.50939e-02,
7.41888e-02,
-1.20662e-02,
1.47643e-01,
-7.26926e-04,
9.32547e-02,
-1.92871e-04,
3.18256e-01,
-2.90741e-01,
2.82931e-01,
2.05246e-01,
1.59677e-01,
-2.42966e-01,-1.34591e-01,-2.83079e-01,7.29135e-02,1.48593e-01,5.46158e-01,1.07815e-03,4.96583e-01,-2.95409e-01,-1.02014e-01,-9.57288e-02,-1.09787e-01,-7.42563e-02,-3.14196e-01,1.11553e+00,5.21499e-02,3.26227e-02,2.83998e-02,-6.30629e-01,1.54801e-01,1.09957e-01,-6.25271e-01,-1.92915e-01,-1.12658e-01,1.31175e-01,2.29721e-01,1.13189e-02,-7.31714e-02,-2.26800e-01,1.95226e-02,
3.00250e-01,-7.54995e-02,1.87428e-01,-1.87216e-01,7.18989e-02,-3.36827e-02,1.71607e-01,-1.38246e-01,1.40749e-01,-3.75171e-01,-1.34009e-01,2.92794e-01,-3.75916e-01,-1.40710e-01,1.47612e-01,-1.52036e-01,-2.88542e-01,-3.22516e-01,7.79139e-02,4.82914e-03,1.84122e-01,2.24819e-01,8.45433e-02,-1.02289e-01,-1.14758e-01,7.84911e-02,1.35593e-01,1.60508e-01,-3.29827e-01,1.53209e-01,
-2.34302e-01,-2.48408e-01,-1.72462e-01,1.31961e-01,-2.24914e-01,5.21038e-01,4.89887e-02,-1.98889e-01,4.06340e-01,-1.30266e-01,2.52346e-01,-6.58532e-01,2.93777e-01,-6.11476e-01,3.58342e-01,2.38714e-01,-7.24248e-02,1.76437e-01,9.11585e-02,2.87009e-01,5.27753e-01,-5.64606e-01,-5.92437e-01,5.30046e-01,7.28739e-01,1.98170e-01,-2.83262e-01,-3.68495e-01,-4.14713e-02,3.91419e-01,
6.16702e-02,-5.79432e-02,1.18104e-01,-1.93348e-01,-2.38755e-01,1.02202e-01,2.75053e-01,-7.40992e-02,1.22036e-01,-7.22403e-02,2.42439e-01,1.40143e-01,1.77904e-01,2.65480e-01,-2.97780e-01,-2.17247e-01,-2.69479e-01,2.50944e-03,1.59106e-01,-1.68018e-01,-2.13021e-01,1.55988e-01,2.03461e-02,1.11325e-01,6.97340e-02,-1.31133e-01,5.92742e-02,2.97088e-02,1.97557e-01,-7.11962e-02,
9.72699e-01,-5.24160e-02,2.27255e-01,-8.04861e-01,1.31533e-01,-2.04188e-01,1.76204e-01,-2.78670e-02,6.12309e-01,5.48267e-01,1.70768e-01,3.95339e-01,-1.04862e-01,3.75927e-01,2.10124e-02,1.71242e-01,-2.76292e-01,2.45862e-02,-2.07835e-01,-1.05049e+00,1.34828e-01,-1.87369e-01,-3.02407e-01,-2.18387e-01,-4.12568e-01,8.14287e-02,-2.40794e-01,2.00900e-01,3.00796e-02,2.59267e-01,
6.79863e-01,-1.13162e+00,-7.56814e-01,2.03253e-01,-2.44127e-01,-8.66802e-01,5.75831e-01,4.37778e-01,-9.61823e-02,-5.38948e-01,2.06640e-01,-6.36657e-01,-5.34254e-01,-2.82271e-03,-7.36767e-03,-1.57631e-01,-6.86410e-02,-1.30894e-01,3.88125e-02,3.89334e-02,-5.98991e-01,-2.97203e-01,-4.77307e-02,2.63285e-01,-6.81728e-01,5.21045e-01,-2.88276e-01,-2.23055e-01,6.62054e-01,-3.92475e-01,
-3.08177e-01,1.03465e+00,1.93646e-01,-1.25243e-01,-2.07790e-01,4.32706e-01,1.85166e-01,-2.39126e-01,1.34113e-01,1.16854e-01,-1.79832e-01,-7.94091e-01,5.41451e-02,-1.98639e-01,6.53440e-02,3.68569e-01,-1.52398e-01,2.09290e-01,6.92501e-02,-1.03437e-01,2.00994e-01,2.99647e-01,-3.68870e-01,-1.48881e-02,-9.93197e-01,-7.20597e-01,2.31297e-01,-1.86189e-02,1.38339e-01,1.19257e-01,
1.20266e-01,-2.45899e+00,6.90077e-01,-3.29769e-01,-2.38574e-01,8.26436e-01,-7.66519e-02,-5.76608e-01,-1.01156e+00,-1.96771e-01,2.15051e-01,7.32840e-02,-9.55883e-02,-3.29503e+00,-3.22114e-01,-3.32221e-01,1.91456e-02,-6.53020e-03,6.02286e-02,-3.76291e-01,-5.78270e-01,-2.17892e-01,-7.03950e-03,-1.03631e+00,2.35468e-01,2.51726e-01,-1.10266e-01,1.63299e-01,-9.91782e-03,-2.51662e-01,
3.40894e-01,1.68402e-01,-3.30432e-03,2.69912e-01,-5.22213e-01,8.21330e-01,-1.64896e-01,3.62342e-02,-8.93152e-02,-2.15116e-01,6.72759e-02,-4.32399e-02,4.61072e-01,-2.69637e-01,8.68890e-02,2.45181e-01,-1.04582e-01,-3.10179e-01,2.63879e-02,2.59441e-02,2.31285e-01,1.93423e-01,4.73952e-03,1.29320e-01,-2.88580e-02,-3.64503e-01,2.83424e-02,2.05927e-01,-4.42334e-02,7.30679e-02,
5.28003e-01,-2.06874e-01,3.91004e-01,-3.31793e-02,-2.28673e-01,1.25127e-01,-3.91991e-01,-4.05268e-01,-3.20310e-01,3.28988e-01,-6.31245e-01,7.31223e-01,4.22436e-01,-6.90484e-01,-8.13681e-01,-9.35766e-01,-3.98131e-01,4.67824e-01,5.12356e-01,-2.29271e-01,4.66245e-02,2.08643e-01,4.90500e-02,6.54125e-02,-6.30848e-02,-2.88470e-01,2.27110e-01,-3.14822e-02,4.04218e-01,4.14314e-02,
4.86316e-01,4.28082e-01,-6.76656e-01,-3.32173e-01,-1.65220e-02,-4.37146e-01,1.43929e-01,1.75021e-02,3.27303e-01,1.60479e-01,-1.01470e-01,-9.32460e-02,-2.39971e-01,-6.55102e-03,5.23263e-01,7.19580e-01,1.31074e-01,-2.42733e-02,-1.92149e-01,2.32666e-01,2.47272e-01,1.90264e-01,-1.39435e-01,2.56292e-01,-1.08775e-01,7.91431e-02,-1.53339e-01,-2.07977e-01,1.79533e-01,-1.22298e-01,
2.83485e-01,-2.19649e-01,-2.75096e-01,1.76091e-01,1.25731e-01,-2.40890e-01,5.62507e-02,-1.32960e-01,-1.66944e-01,1.28889e-01,2.79919e-01,2.24017e-01,2.34398e-01,7.78082e-02,-1.03562e-01,-5.92129e-02,1.77518e-01,7.86673e-03,1.63206e-01,-1.50050e-01,-1.57983e-01,1.25897e-01,5.63836e-02,-6.64244e-02,1.84491e-03,2.66726e-03,1.07963e-01,2.85071e-01,-2.58413e-01,-7.82294e-02,
1.53036e-01,1.76661e-01,-2.86136e-01,1.43766e-01,-4.35528e-01,1.17651e-01,-3.52512e-01,-6.53911e-02,-3.87755e-02,2.34425e-01,1.77668e-01,-1.42219e-01,1.49765e-01,-1.97956e-01,8.91009e-02,-7.11661e-02,1.51194e-01,7.05561e-02,-1.06177e-01,-2.16582e-01,6.79570e-02,6.49325e-02,-2.33023e-01,-2.72608e-01,7.89023e-02,1.27303e-01,1.99580e-01,-3.11028e-02,-5.32809e-02,-4.16739e-03,
1.35102e-01,7.29804e-01,3.41889e-01,2.35318e-02,2.63005e-01,-1.59458e-01,-1.23993e-01,-4.66985e-01,2.10278e-02,7.77878e-03,2.94584e-01,-5.11540e-01,-1.71952e-01,-4.61554e-02,-3.22256e-01,-6.98645e-01,2.43308e-01,9.39849e-02,2.73561e-01,2.18827e-01,1.99653e-01,2.81557e-01,-9.99491e-02,1.68551e-01,-1.22172e-01,-5.25940e-01,2.36772e-01,2.49039e-01,-3.17862e-01,1.45341e-01,
-7.71134e-01,4.40253e-02,-3.29767e-01,-3.55103e-01,-2.87230e-02,-8.36705e-02,1.87444e-01,-1.77469e-01,2.01747e-01,1.64531e-01,-2.83010e-01,-1.35796e-01,1.21959e-01,-1.91787e-02,-2.74722e-02,4.31538e-01,-3.12439e-01,-3.41759e-01,-9.48641e-02,-3.28640e-02,2.30329e-01,1.09044e-01,9.00732e-03,-1.18546e-01,-4.30749e-02,1.72923e-01,1.10305e-01,-6.56075e-02,-9.26090e-02,9.74741e-02,
1.35343e-01,-2.18410e-01,2.67116e-01,-1.01791e-01,-1.92888e-01,-3.35891e-03,3.98101e-01,1.49892e-01,3.11842e-01,2.74161e-01,-1.38310e-01,-3.43324e-01,4.74237e-02,-1.05394e+00,1.89144e-01,9.15864e-02,5.06640e-01,-3.82576e-01,1.91183e-02,2.49784e-01,2.68868e-01,-2.84949e-01,-2.57571e-02,3.28622e-01,-1.44844e-01,3.17996e-02,3.05541e-01,-5.41047e-01,2.80485e-02,3.51360e-01,
1.81258e-01,-6.35985e-01,1.98106e-01,2.59564e-01,4.33354e-01,1.09184e-01,-1.07864e-01,3.40481e-01,-4.74364e-01,4.78980e-02,5.52320e-02,3.08776e-01,6.15631e-01,-2.10407e-01,7.90698e-01,-1.31050e-02,1.03386e-01,-1.03260e-01,2.81046e-01,3.68280e-01,2.29244e-01,-1.15711e-01,-2.13083e-01,3.71463e-03,4.63143e-01,2.26447e-01,-1.45932e-01,-7.23878e-02,-9.89546e-02,-1.10925e-01,
4.26858e-01,3.25390e-02,7.33778e-01,-5.85624e-01,8.98335e-02,-2.79145e-01,9.16811e-02,1.13636e-01,-2.84474e-01,7.87271e-02,-1.48564e-01,5.90873e-01,-3.51175e-02,1.02200e+00,3.62012e-02,-1.74797e+00,-6.47456e-02,-2.49479e-02,-1.50626e-01,-3.58196e-01,-3.51070e-01,1.76781e-01,4.94054e-01,-1.71382e-01,-2.75655e-01,-4.02535e-01,-9.63254e-02,2.57660e-01,2.81738e-01,-1.92319e-01,
1.17146e+00,2.45749e-01,7.89446e-02,-2.23633e-01,-1.22309e-01,-2.39963e-01,1.54636e-02,2.43587e-01,-1.07740e-01,1.55929e-01,-1.59068e-01,-2.61410e-01,-2.68438e-01,-5.52114e-01,-4.85734e-01,-3.66288e-01,4.07645e-01,2.31566e-01,-6.84610e-02,-3.38838e-02,-3.99888e-01,4.84307e-01,3.53938e-01,7.53096e-03,-1.70772e-01,3.83818e-01,2.78915e-01,-2.47725e-01,3.28063e-01,-3.19543e-01,
3.41671e-01,4.62634e-01,6.37086e-01,4.28539e-02,-1.29798e-01,-6.08871e-01,-4.94954e-01,-4.93165e-02,-5.14515e-01,6.57732e-01,-1.02483e-01,2.81450e-01,1.53631e-01,6.15946e-01,5.10873e-02,3.35653e-01,9.93330e-02,4.51302e-01,-2.41523e-01,-4.70746e-01,-1.80836e-01,-3.15217e-01,-6.35002e-02,-3.63153e-01,5.97496e-01,-2.64737e-01,-1.38222e-01,-5.78586e-02,-1.04564e-01,-9.18908e-01,
-8.37986e-01,-2.35090e-01,1.29280e-01,5.16926e-02,-5.38817e-02,2.86392e-01,2.27143e-01,-3.10326e-02,6.52027e-01,1.72560e-01,4.06421e-02,3.83224e-01,6.48015e-02,-1.59027e-01,-2.28645e-02,5.46201e-01,4.11835e-01,2.34549e-01,-7.93326e-03,-1.89356e-01,7.59663e-02,-5.95652e-02,-2.82928e-01,1.26253e-01,1.09292e-01,-2.35009e-01,1.84747e-01,-1.12631e-01,-1.75191e-01,-5.70337e-03,
3.69845e-02,3.10712e-01,1.50459e-02,-3.58211e-01,-9.25699e-02,2.27797e-01,5.94095e-03,8.57503e-03,4.94618e-02,2.54628e-01,-1.18875e-01,2.90095e-01,5.83565e-01,5.74221e-03,1.73483e-01,5.63156e-01,-2.95677e-01,-4.29667e-02,-4.98281e-01,-2.12889e-01,-5.70475e-01,-2.66356e-01,-3.73548e-01,-6.59273e-01,4.72547e-01,-2.99599e-01,1.13304e-01,-4.01778e-02,1.16027e-01,-7.57047e-01,
4.33809e-02,-3.33914e-02,-1.74861e-01,-4.01659e-01,6.65496e-02,4.29419e-01,4.25170e-01,-1.05748e-01,3.60294e-01,-1.57146e-01,5.20593e-02,-1.55107e-01,-5.73295e-02,1.64576e-01,6.13493e-02,-3.42390e-01,6.46172e-02,3.01706e-01,-1.64454e-01,-1.34065e-01,2.07817e-01,2.52394e-01,5.22367e-01,2.16118e-01,-4.90487e-02,-1.61944e-01,-2.63446e-01,-9.69179e-02,-4.45901e-01,1.25468e-01,
-5.11404e-01,-5.30785e-02,-2.97975e-01,-7.64481e-02,-2.71320e-01,9.19720e-01,-2.24915e-01,1.40266e-01,-1.89162e-01,4.31600e-01,-4.20924e-01,1.61097e-01,1.30053e-01,5.49156e-02,3.23014e-01,3.13150e-01,-2.06492e-01,8.50916e-02,8.92822e-02,-8.97459e-02,4.72414e-01,-1.03268e-01,-4.78392e-02,-1.22974e-01,3.80235e-02,1.14578e-02,-1.61163e-01,-1.86374e-01,-2.05299e-01,7.58583e-01,
4.79774e-01,-4.21387e-01,-3.34303e-01,2.18585e-02,-7.82530e-02,-4.49528e-01,-3.07473e-02,4.24622e-02,-1.14378e-01,1.12319e-01,-4.52903e-01,-1.24267e-01,3.30036e-02,1.21258e-01,-2.46378e-01,2.11816e-02,3.83227e-01,2.11821e-01,-4.21539e-01,-1.66397e-01,-1.44662e-01,-2.78203e-01,-3.26210e-01,-1.17942e-01,-1.58640e-01,2.25960e-01,4.23688e-02,-5.32445e-02,-1.63855e-01,4.10659e-02,
3.89792e-01,-7.63111e-01,-3.85230e-01,-1.14808e-01,-1.17353e-01,-1.88490e-01,6.20683e-02,-4.78247e-01,9.01546e-01,6.56623e-01,2.93057e-02,-2.40076e-01,-1.61347e-01,5.31998e-03,2.05372e-01,8.23651e-01,-2.73326e-01,3.96628e-01,2.38322e-01,-1.07659e-01,1.73813e-01,3.03753e-02,-1.12085e-01,-4.07647e-01,-4.95929e-01,-3.51434e-01,-1.79872e-01,-1.71501e-01,-2.35377e-01,-1.17757e+00,
2.81068e-01,-2.03913e+00,4.73205e-01,4.15301e-02,-4.89150e-01,4.43781e-01,1.61367e-01,-7.96001e-02,1.20589e+00,-8.23639e-02,1.38343e-01,-1.83223e+00,-2.69158e-02,-7.14339e-01,-7.17146e-01,2.64700e-01,-1.73335e-01,-8.21049e-02,3.14973e-01,-1.09947e+00,-1.37810e-01,-8.11911e-02,-4.07364e-01,-5.60647e-02,4.39861e-01,-3.78860e-01,-4.21879e-02,1.45162e-01,-1.89309e-01,-3.98358e-01,
-6.56449e-01,6.13496e-02,-1.31489e-01,-3.56327e-02,-3.45202e-02,-2.12775e-01,-7.00730e-02,-4.25713e-02,2.20617e-01,-1.72878e-01,-1.25357e-01,-3.00326e-01,1.14828e-01,1.23984e-01,8.43365e-01,6.09557e-01,-9.80884e-03,7.76919e-03,-4.72462e-01,-2.92966e-02,9.23145e-02,-4.66399e-01,4.26504e-01,-1.39721e-01,1.81494e-01,-1.89065e-02,-2.71255e-01,-2.77998e-01,2.07983e-01,3.40722e-02,
6.58289e-01,-4.18921e-01,6.21054e-01,3.28759e-01,-4.41161e-01,5.92220e-01,-5.35718e-01,2.13333e-01,-2.89006e-01,4.34890e-01,4.82480e-01,7.06434e-01,4.87028e-01,-2.20392e-01,-2.49595e-01,-4.52386e-02,-1.60989e-01,-1.39874e-01,5.23344e-01,-1.52672e-01,-1.40131e-01,-7.94001e-02,-2.40692e-01,-1.05905e-01,7.60057e-02,-2.04590e-01,-6.44492e-02,8.77830e-02,1.01798e-01,2.86178e-01,
1.59194e-01,-1.48912e-01,-1.84383e-02,1.57314e-01,2.80959e-01,-4.41264e-01,-3.80009e-01,-6.42816e-02,-5.46213e-01,-1.00793e-01,-4.02899e-02,2.79020e-02,2.49130e-01,1.18167e-02,3.67976e-01,-1.41976e-01,-1.00443e-01,-2.00188e-01,6.69402e-02,3.92462e-01,1.51048e-01,7.44692e-02,1.69908e-01,9.46927e-03,2.91472e-01,1.67296e-01,-1.02312e-01,-1.72576e-02,-1.23190e-03,2.05349e-01,
1.77565e-01,
-2.37150e-01,
1.38267e-01,
4.16843e-01,
4.29440e-02,
5.61319e-02,
1.12659e-01,
2.11637e-01,
2.19368e-02,
3.03834e-01,
5.10516e-02,
2.88296e-02,
-3.19892e-01,
1.30708e-01,
3.86656e-01,
-9.41058e-02,
-1.80177e-01,
-1.77140e-01,
3.13579e-01,
2.07853e-01,
8.87171e-02,
9.11491e-02,
1.59391e-01,
6.48481e-02,
6.58268e-02,
-4.85015e-02,
1.61715e-01,
1.75514e-01,
-1.59006e-01,
-2.54278e-01,
3.31814e-02,1.15939e-01,5.67607e-02,7.54026e-02,-2.96269e-01,3.03175e-01,-2.87215e-01,4.50322e-01,1.26550e-01,1.32088e-03,1.06139e-01,2.79200e-01,-1.13605e-02,-1.53941e-01,1.88860e-02,7.04505e-02,-7.21213e-02,1.34705e-01,1.73535e-01,3.96661e-01,3.98707e-02,1.09615e-01,2.05926e-02,1.51159e-01,-8.65795e-02,1.94300e-02,-2.43499e-01,-2.25779e-01,1.11900e-01,1.58395e-01,
2.18781e-01,2.87570e-01,-7.23986e-02,-1.06837e-01,3.63491e-01,7.34881e-02,-1.53117e+00,-4.69025e-01,-3.19000e-01,-3.07632e-01,4.45217e-01,5.03870e-01,-1.04188e-01,7.39196e-02,3.02640e-01,-1.06122e+00,-2.72748e-01,-6.60218e-01,4.37636e-01,-3.30696e-01,3.20006e-02,-2.20929e-01,2.86814e-01,4.30956e-01,-3.38311e-02,-9.63899e-01,-1.20516e+00,-1.54519e-01,-4.12374e-01,-1.90817e-01,
-2.04315e-01,-1.98264e-02,7.23331e-02,1.93213e-01,-1.95451e-02,1.79736e-01,-1.83722e-03,-4.22577e-01,-4.29557e-01,8.38291e-01,1.07936e-02,-9.29344e-02,2.00456e-01,4.47251e-01,-1.27287e-01,-4.79519e-01,-4.33665e-01,-1.50471e+00,-1.82469e-01,-3.76530e-01,-4.42689e-02,4.54382e-01,-2.69251e-01,-1.36506e-01,2.49604e-01,-2.47653e-01,4.10511e-01,4.82187e-01,1.64312e-01,-4.42423e-02,
-9.88958e-02,1.66992e-01,1.50933e-01,8.79839e-02,-2.16221e-01,-2.72160e-02,2.70449e-01,1.71287e-01,-3.30791e-01,1.73906e-01,-3.60216e-01,-3.33806e-02,-8.89458e-02,1.62898e-01,6.03939e-02,1.40215e-01,2.10423e-01,-4.68592e-02,-2.78924e-01,1.68874e-01,2.19049e-01,3.11155e-01,1.27794e-01,-1.92369e-01,2.47499e-01,8.05357e-01,-4.60658e-02,8.02376e-02,1.94779e-01,-5.42763e-02,
-2.01078e-01,-1.11665e-01,2.45934e-02,-3.34763e-02,-3.09361e-01,-2.99760e-01,2.90599e-01,2.72827e-01,-2.33347e-01,-4.10986e-02,-3.59970e-01,-3.78319e-01,2.39167e-01,-2.65069e-01,-1.40608e-02,2.84692e-03,5.45833e-02,1.52225e-01,-7.14086e-02,-2.65932e-01,6.47322e-02,-2.01848e-01,1.21938e-01,1.03659e-01,1.05426e-01,-5.59834e-03,-5.42774e-02,-6.00626e-02,1.32399e-02,2.26349e-01,
5.99067e-02,-1.03849e-02,3.52590e-01,-2.98899e-01,-1.11078e-01,-7.88218e-01,-3.37841e-02,4.85091e-01,7.00061e-02,-4.19004e-01,3.37157e-01,1.11855e-01,-4.05248e-01,-1.17817e-01,-2.56988e-01,4.11972e-01,2.24186e-03,6.67204e-01,6.48862e-02,3.54284e-01,2.62235e-02,2.59439e-01,3.11826e-01,-3.62166e-01,-3.65989e-01,2.50564e-01,3.57699e-02,2.11075e-01,4.14995e-01,1.38651e-01,
4.07545e-01,2.62809e-01,-7.63933e-01,1.22356e-01,5.91486e-01,6.62924e-01,-1.11937e-01,-1.31536e-01,4.28668e-01,-1.19417e-01,1.19221e-01,-6.79048e-02,2.40625e-01,-3.53937e-02,8.61607e-02,-4.92090e-01,-5.86882e-01,-8.81617e-01,3.62246e-02,-2.87788e-01,1.72757e-01,-4.68971e-01,8.45823e-02,7.69241e-02,-5.94088e-01,-5.72228e-01,-1.06119e-01,-5.12056e-02,2.18632e-01,5.89044e-02,
1.41958e-01,-1.29070e-01,-2.00731e-01,1.08471e-01,1.87362e-01,-3.04619e-01,-4.02447e-01,-1.53849e-01,1.07199e-01,-4.59944e-02,-1.45001e-01,-2.47291e-01,-2.34142e-01,-1.68664e-01,3.91674e-01,-1.79021e-01,2.72577e-02,-5.17227e-01,-1.50132e-01,5.29651e-02,-1.22266e-01,-1.32684e-01,9.55121e-02,-1.38954e-01,4.77869e-02,-3.06033e-01,-2.79670e-02,9.98121e-02,-1.03175e-04,-1.57740e-01,
4.78208e-01,-1.38470e-01,-1.05744e-01,1.11577e-01,8.09993e-02,-1.51579e-01,-2.18557e-01,-3.06635e-02,-3.19450e-03,-1.28234e-01,4.04896e-02,-2.34479e-03,-2.66370e-01,1.04616e-01,5.52223e-02,-1.68098e-01,-1.55999e-01,2.81870e-02,-8.21818e-02,-8.01326e-02,9.42410e-02,-3.59140e-02,2.04884e-01,1.74233e-01,-8.83749e-02,2.02264e-01,-3.04475e-01,-1.48112e-01,2.11373e-03,-7.01490e-02,
-1.49687e-01,-8.57270e-02,3.45305e-01,-4.87632e-01,-1.27470e-01,-4.72741e-02,2.73355e-01,-2.72441e-01,1.28739e-01,2.64081e-01,-1.84953e-01,1.78514e-01,1.15823e-01,-1.40142e-01,-4.01211e-01,1.83349e-01,2.08739e-01,2.35061e-01,-4.58567e-01,1.08818e-01,1.41785e-01,3.25060e-01,-1.81100e-01,-4.69347e-01,5.44876e-01,-1.25065e-02,1.81612e-01,1.86409e-01,-1.55509e-01,-1.36177e-01,
1.47301e-01,-2.55111e-01,-3.58004e-01,2.55706e-01,4.47175e-01,1.46453e-01,-2.78568e-01,-1.64153e-01,-1.96692e-01,-6.07271e-01,-4.46814e-03,3.38059e-02,2.79594e-01,-5.20449e-01,7.01676e-01,-4.71465e-01,-3.26694e-01,-7.96929e-01,-3.85330e-01,-1.43187e-01,1.13056e-02,-2.65150e-01,-1.66234e-02,-1.88852e-01,1.89517e-01,-4.64115e-01,-1.15864e+00,1.05153e-01,2.02783e-01,5.01083e-01,
2.72486e-02,-8.37248e-02,9.00536e-02,1.12042e-01,-7.92481e-02,-8.97483e-02,2.40121e-01,9.53099e-02,7.04981e-02,-1.21177e-01,5.87699e-02,5.34418e-02,-3.67213e-02,4.57132e-01,3.11311e-01,1.95915e-01,2.36157e-01,1.82756e-01,-1.26893e-01,3.19275e-01,2.66197e-02,-1.00649e-01,-1.46548e-01,-1.36338e-01,1.48585e-01,5.09299e-01,-2.05725e-02,3.83454e-01,-1.34770e-01,5.22571e-02,
3.09348e-03,-1.27542e-01,-1.88246e-01,5.30417e-02,9.44516e-02,1.86707e-01,2.05330e-01,1.22321e-01,5.10673e-02,-1.71668e-01,-2.79985e-01,-1.24238e-01,3.11952e-02,-3.25370e-01,-1.65878e-01,1.92811e-01,-5.07181e-02,-1.49539e-01,-1.28229e-01,1.83367e-01,-1.68515e-01,-2.14832e-01,2.24533e-01,-2.13000e-01,7.11328e-02,-4.04758e-02,-2.36691e-01,-1.25889e-01,-4.84687e-02,2.51863e-01,
-2.87817e-01,-1.00565e-01,1.26788e-01,-2.67277e-02,1.03730e-01,-1.60740e-01,4.04837e-02,-1.71583e-01,3.44283e-01,5.27475e-02,1.73060e-02,-1.73716e-02,2.56714e-01,-6.87916e-02,3.29561e-02,-1.35287e-01,1.12059e-01,4.10617e-02,-1.03061e-01,2.83392e-02,-8.42526e-02,1.75592e-02,-2.52152e-01,-1.90233e-01,1.81419e-01,-4.10867e-01,6.80615e-02,1.82385e-01,-1.79303e-01,-8.32371e-02,
-3.17514e-01,2.86097e-01,-3.66507e-01,-2.64870e-01,-3.12986e-01,1.26277e-01,-2.73116e-01,3.12179e-01,2.11706e-01,-1.69446e-01,-3.00318e-01,2.31855e-01,-1.28776e-01,-3.34888e-01,-2.85818e-01,2.40725e-01,6.20671e-02,-1.44935e-01,-3.11557e-01,-1.62797e-01,-1.39832e-01,1.04154e-01,-2.59450e-01,6.63434e-02,-2.23904e-01,6.34510e-02,1.87469e-01,1.41761e-01,2.22816e-01,-5.17209e-02,
6.84654e-01,-1.33395e-01,-3.99225e-01,3.57652e-01,1.89133e-01,-1.07788e-01,-2.16695e-01,-3.41421e-01,-1.11911e-01,-2.65252e-03,1.70024e-01,-1.46726e-01,-1.35849e-01,-2.58479e-01,3.70289e-01,-4.86772e-01,-9.22905e-01,-2.66878e-01,5.11541e-01,-3.25611e-01,-2.27097e-01,-1.06465e+00,3.85401e-01,-8.39067e-02,-2.02520e-01,-5.75749e-01,9.08116e-03,-1.13662e-01,6.79370e-01,7.44443e-02,
-2.63305e-01,2.34403e-02,2.79600e-01,2.06680e-01,-4.03573e-01,7.73811e-02,1.19804e-01,7.09883e-01,2.51882e-01,2.20966e-01,-2.76367e-01,1.82951e-02,-1.95166e-01,1.80230e-02,-4.60543e-02,1.92907e-01,3.88846e-01,2.76026e-01,-6.56675e-02,2.55421e-01,-2.89041e-01,1.51721e-01,-6.87285e-04,-5.46931e-02,1.68933e-01,2.81655e-01,-8.43931e-02,1.45574e-01,1.30953e-02,-3.83814e-01,
-1.65527e-02,1.65459e-01,2.83462e-01,-4.43229e-02,-3.32570e-01,-1.86110e-01,2.44229e-01,6.85728e-01,-4.08243e-02,-4.18147e-01,1.16531e-01,2.12876e-01,2.86048e-01,-9.68538e-02,9.36586e-02,4.65036e-01,6.55626e-02,4.36966e-01,-1.92681e-01,4.23772e-01,-2.68304e-01,2.13853e-01,3.32602e-01,-2.64160e-01,-3.36427e-01,6.53942e-01,-2.66467e-01,-2.79210e-02,5.76105e-01,-7.13993e-02,
-2.58723e-02,9.91337e-02,1.53415e-01,-2.52496e-01,2.01922e-02,-2.75413e-01,-1.51126e-01,2.61296e-01,-2.31760e-01,1.82143e-01,2.03906e-01,2.40536e-01,1.48552e-01,-5.96923e-02,-1.03903e-01,5.81901e-02,-2.73273e-01,1.90037e-01,-1.36274e-02,5.09536e-02,-3.27850e-02,8.55165e-02,-1.51869e-01,-2.39196e-02,1.74590e-01,7.41259e-02,-1.92352e-02,-7.07392e-02,-2.91971e-02,-4.07099e-01,
-1.35406e-01,1.58996e-01,-1.67977e-01,1.58228e-01,1.27991e-01,1.05719e-01,7.07687e-02,-2.02036e-01,1.52779e-01,-1.36921e-01,-2.14365e-01,-2.82738e-01,2.23916e-01,-3.36799e-01,-3.54815e-01,-2.13445e-01,-7.68801e-02,-3.96018e-01,-1.48643e-01,1.37074e-01,-4.46449e-01,-2.92068e-01,-3.19136e-01,-2.22434e-01,-8.61770e-02,-2.10778e-02,2.23982e-01,1.37137e-01,1.03272e-01,-3.61785e-01,
-8.98026e-01,-4.11933e-02,3.38946e-02,-1.49974e-01,-8.03926e-02,2.97241e-01,1.36908e-01,-1.17931e+00,-1.13116e+00,-1.07543e+00,-1.10943e+00,1.01261e-01,-1.61488e-01,4.32148e-03,-6.55473e-01,-1.54452e-01,8.19065e-02,-1.34801e-01,-7.44590e-01,-2.82922e-01,3.36595e-02,-2.50391e-01,-6.55772e-01,-1.41119e+00,2.23324e-01,-1.02366e+00,7.04253e-01,2.62682e-01,3.23175e-01,-1.27189e-02,
2.74516e-01,1.81020e-01,1.05678e-01,1.13054e-02,-1.52961e-01,-1.87000e-01,-5.46126e-02,7.55316e-01,1.86902e-01,-1.48946e-01,-1.61674e-01,1.14251e-01,5.60880e-02,1.05522e-01,-9.89001e-02,4.40472e-01,1.45993e-01,4.57599e-01,-1.44541e-01,-3.70234e-04,-1.51863e-01,2.71652e-02,1.27894e-01,-7.96451e-02,-6.58020e-02,4.21920e-01,-1.30357e-01,2.89789e-01,-1.98997e-02,-1.99800e-01,
-1.24693e-01,3.21983e-02,-2.98243e-01,1.93743e-01,-5.57345e-02,1.84219e-01,1.30943e-01,-1.40396e-01,1.52057e-01,2.40050e-02,-2.58578e-01,-8.42916e-03,6.29400e-02,2.02472e-02,-2.80736e-01,2.00680e-01,-2.81374e-01,-3.15835e-02,-2.73751e-01,8.87110e-02,6.61463e-02,2.61664e-01,-2.87162e-01,2.49440e-01,-2.37313e-01,-2.39273e-01,2.09446e-01,9.64794e-02,-1.56421e-01,4.45607e-03,
7.40076e-01,1.53852e-02,-2.74931e-02,-2.65160e-01,-1.79543e-01,8.54394e-02,-2.93791e-01,1.75208e-01,1.71904e-01,-2.69378e-01,3.85601e-01,3.11783e-01,2.50426e-01,1.83272e-01,-1.94989e-01,2.71528e-01,-1.11736e-01,4.95759e-01,7.87658e-02,1.82002e-01,-1.34810e-01,-2.73859e-01,1.21920e-01,2.59571e-01,-1.56718e-01,9.26889e-02,-1.87356e-01,-5.16123e-02,-1.67903e-01,-5.79089e-02,
1.53708e-02,-8.87071e-02,1.15134e-01,2.66198e-02,1.12168e-02,2.13822e-01,-3.08420e-01,1.97130e-01,-3.29950e-01,-1.00159e-02,-3.44984e-02,2.05617e-01,2.69993e-01,-3.09988e-01,-1.81996e-01,2.01990e-01,1.12095e-01,-2.03388e-01,-1.76146e-01,-9.48472e-02,-2.08552e-01,-5.73736e-02,-8.55530e-02,-1.99988e-02,-6.65887e-02,-4.90623e-02,-1.93552e-01,-1.28560e-01,1.64435e-01,-3.36437e-01,
-2.45061e-01,1.67995e-01,-7.80740e-02,3.96520e-02,3.22721e-01,-2.65413e-01,5.85938e-02,-5.87694e-03,1.36300e-01,-2.47587e-01,3.94528e-02,8.73966e-02,7.84397e-02,1.07757e-01,4.00285e-01,1.16479e-01,-4.48490e-02,-8.05824e-02,-1.21670e-01,4.16428e-02,2.04235e-01,-2.79632e-02,-3.51028e-01,-2.92994e-01,4.44219e-02,-8.02823e-02,6.37357e-02,4.33314e-01,-1.20308e-01,4.28817e-01,
2.84984e-01,-7.99388e-02,2.11087e-01,-8.29300e-02,-8.83414e-03,-1.04261e+00,-3.68432e-01,4.43922e-01,-1.05861e-01,-9.20545e-02,2.70660e-02,-1.47401e-01,-2.25007e-01,4.86048e-02,-4.05257e-01,1.53711e-01,-9.06810e-03,4.93471e-01,2.20595e-01,8.97412e-02,4.72390e-01,3.56621e-01,4.06048e-01,-1.50485e-01,-1.82407e-01,3.96091e-01,8.61949e-02,2.38634e-01,2.09142e-01,1.71588e-01,
-1.84534e-01,5.23345e-02,2.48364e-01,-8.48946e-02,-1.69151e-01,-7.52025e-03,3.22893e-01,-4.47215e-01,-2.10587e-02,7.58254e-02,2.69362e-01,6.56152e-02,7.59290e-03,2.57160e-01,1.10259e-01,-5.14796e-02,2.00624e-01,9.92174e-02,-3.94243e-02,6.00121e-01,1.80956e-01,6.55841e-02,-1.57806e-01,-1.70883e-01,2.20197e-01,2.49045e-01,9.45238e-02,5.00776e-02,-2.23567e-02,1.54169e-01,
6.96362e-01,-2.07620e-01,-2.19472e-01,4.39214e-01,3.67661e-01,-2.48883e-01,-3.11764e-01,-3.26990e-01,6.16530e-02,6.81770e-03,3.82592e-01,-4.52302e-01,5.42228e-02,-5.76547e-01,-5.12685e-02,-3.47355e-02,-7.75038e-01,-2.94548e-01,4.56108e-01,-3.86847e-01,-1.82449e-01,-6.90553e-01,-1.61243e-02,-2.44421e-01,-6.85679e-01,-1.24901e+00,3.72234e-02,-4.46427e-01,6.40527e-01,6.64024e-01,
1.22164e-01,3.18628e-01,-2.71996e-01,-2.59570e-02,2.87960e-01,4.85011e-02,-4.17480e-02,-2.59488e-01,-2.42723e-01,-3.63814e-01,4.24902e-01,9.83151e-03,-9.60352e-02,1.17842e-01,2.26136e-01,8.10532e-02,-3.07335e-01,-1.31731e-01,3.60231e-01,4.76469e-02,2.60332e-01,-2.58850e-01,-3.47287e-02,9.05370e-02,-4.01236e-01,-9.12189e-02,1.54479e-01,-1.66343e-02,7.06249e-02,6.50713e-01,
5.65870e-03,
4.36817e-02,
3.75713e-02,
2.40981e-01,
-2.69754e-01,
-3.51984e-01,
4.10558e-01,
-4.92187e-02,
3.91006e-01,
1.21664e-01,
1.98032e-01,
-4.18400e-01,
-2.20445e-01,
2.10794e-01,
-2.34913e-01,
9.79021e-02,
-3.30846e-01,
-4.22222e-01,
-2.33143e-01,
8.62422e-02,
-2.06050e-03,
1.52601e-01,
-6.55407e-02,
-1.63475e-02,
-3.24154e-01,
1.82669e-01,
-3.96662e-01,
-7.02488e-02,
-5.42147e-02,
5.00998e-01,
-6.47179e-02,3.64713e-02,4.76855e-01,-1.71588e-01,-6.36032e-02,-3.62164e-01,1.51987e-01,1.94916e-01,-7.17427e-02,1.32724e-01,1.81092e-01,1.44051e-01,2.57754e-01,1.06865e-02,-2.02066e-01,2.10031e-01,1.14085e-01,3.11166e-01,3.45125e-01,1.59767e-01,1.84719e-01,-3.23318e-01,2.90753e-01,1.11324e-01,-2.51377e-01,4.06883e-02,2.73534e-01,-1.57842e-01,3.48589e-01,3.57717e-02,
1.02355e-01,1.13437e-01,4.82300e-01,-3.86497e-02,2.89008e-03,-6.96038e-02,1.10213e-01,-1.12366e-01,8.12650e-02,1.70210e-01,1.94119e-01,3.05660e-01,3.43514e-01,1.68522e-01,3.66227e-01,1.59280e-01,4.58613e-02,8.26199e-02,-1.24913e-02,2.64999e-01,2.74520e-01,-1.65955e-01,-2.61632e-01,-7.41768e-02,1.45448e-01,-2.05938e-01,5.90142e-02,-2.74733e-01,3.89752e-01,2.18046e-01,
-7.72986e-03,-4.22333e-02,2.53906e-01,-5.26603e-02,2.68913e-01,5.55155e-02,1.18123e-01,-1.33072e-01,1.92253e-01,1.99529e-01,6.12305e-02,2.16885e-01,-5.43265e-02,-6.20138e-02,-2.09731e-01,1.50296e-01,2.94244e-01,6.90411e-03,-1.25476e-02,-1.82518e-02,2.51985e-01,-3.57511e-01,-1.38639e-01,2.29282e-03,3.91382e-01,-3.10278e-02,3.90718e-03,-2.81289e-01,4.33037e-01,1.94112e-01,
1.56539e-01,2.10913e-01,5.61795e-01,-2.64691e-01,2.04770e-01,-4.76114e-02,8.32795e-02,-4.97225e-02,1.54519e-02,1.44052e-01,2.45538e-01,3.62020e-01,-4.01761e-02,-1.25152e-01,-2.91526e-01,1.63466e-01,-1.41219e-01,5.70804e-02,-2.02058e-01,2.63207e-01,2.43804e-01,-4.65009e-05,2.19156e-01,-2.27298e-01,2.44078e-01,-1.69925e-01,5.29706e-02,-1.22916e-01,3.43637e-01,-7.87997e-03,
-1.97948e-02,-1.43581e-01,2.16093e-01,-9.16927e-02,-2.95405e-01,-1.37014e-02,2.65529e-01,2.53211e-02,2.59896e-01,1.71371e-01,-4.31288e-02,1.10410e-02,-2.16060e-01,-3.15321e-02,1.67802e-01,1.85845e-01,2.51958e-01,4.56923e-03,-1.95476e-01,8.13367e-02,2.79353e-02,-3.34464e-02,2.29079e-01,-1.05938e-01,9.07166e-03,-3.91834e-02,-1.37894e-02,-4.86718e-02,4.03982e-01,2.74005e-01,
2.56974e-01,
4.88440e-02,
6.07145e-02,
2.41341e-01,
-1.65200e-01,
