// Neural Network File Format by Kyle Julian, Stanford 2016
6,5,5,30,
5,30,30,30,30,30,5,
0.000,
-36655.999999,-36656.000000,-3.141600,100.000000,0.000000,
36656.000000,36656.000000,3.141600,472.000000,1200.000000,
-431.467101,-0.000000,0.000000,249.000000,532.000000,9.330048,
73311.999999,73312.000000,6.283200,372.000000,1200.000000,423.773936,
2.19551e-01,-1.65417e-01,-2.59190e-01,-2.45231e-01,7.72057e-01,
1.09845e-01,-9.82806e-03,2.06852e-02,-3.33339e-01,7.37568e-01,
-3.24088e-01,-4.00778e-01,6.89899e-01,2.60301e-02,-1.00583e-01,
-2.28949e+00,-6.37026e-01,-5.77434e-03,7.66884e-03,-6.69914e-02,
-1.22571e-02,-6.56979e-02,4.02902e-01,-1.94341e-02,5.35192e-01,
-5.06793e-01,-6.77045e-01,6.97756e-01,2.87196e-02,-1.87450e-02,
-4.88182e-01,2.38227e-01,-8.69901e-01,1.26312e-02,1.45518e-01,
-3.32019e-02,4.23392e-01,1.58695e-01,9.38928e-02,6.66927e-02,
-4.18069e-01,6.12797e-01,1.58182e-01,-1.54681e-01,5.02510e-01,
-3.49447e-01,-1.14480e+00,-2.61995e-01,-6.01449e-02,1.44483e-01,
1.61559e-01,-2.06044e-01,-1.13087e-02,-1.44426e-01,1.48350e-01,
-3.50075e-01,1.27350e+00,1.44728e-01,-6.04209e-03,-1.06757e-01,
-4.51693e-01,3.66450e-01,9.65609e-01,3.06004e-03,-8.63929e-03,
-1.26666e+00,-2.85319e-01,-6.09118e-01,9.07644e-02,-1.61798e-01,
1.89466e-01,3.39454e-02,-5.13028e-02,-3.19203e-01,3.87141e-02,
-1.31740e-01,6.14079e-03,-3.40033e-01,2.00105e-01,-7.95822e-01,
1.59553e-01,-5.61329e-01,-1.57922e-02,3.91918e-02,4.56045e-01,
-5.99853e-02,-1.74834e-02,-4.13623e-03,-2.64672e-01,-1.57878e-01,
-2.49063e-01,3.84792e-01,1.08211e+00,-3.11277e-03,-1.52416e-02,
-6.90536e-01,1.02744e+00,2.63018e-01,-4.75716e-03,-1.61624e-02,
6.75280e-01,3.61398e-01,-3.60909e-01,-3.89065e-02,1.90049e-02,
-1.39953e-01,-1.55273e+00,-2.78269e-03,3.45659e-02,-6.54328e-02,
-3.54624e-01,-6.09028e-01,-2.35811e-01,-2.12699e-01,6.31013e-01,
7.10877e-01,-1.29577e-01,2.57143e-01,-4.40976e-02,-7.09118e-02,
2.64101e-01,-2.67092e-01,4.78030e-01,1.48170e-02,2.19796e-01,
-6.98014e-01,-5.35670e-01,-9.00758e-01,1.12236e-01,-2.39792e-01,
-4.83697e-01,6.46124e-01,-9.34963e-01,6.74189e-02,-7.43178e-02,
2.62048e-01,5.42824e-01,3.88202e-03,2.19207e-01,1.09621e-01,
-5.72175e-01,2.95739e-01,2.02154e-03,1.22315e-01,4.38293e-01,
-6.02367e-02,-2.71353e-02,2.35129e-01,1.14039e-01,-5.25668e-01,
1.40283e-02,
2.52836e-01,
2.52847e-01,
1.72429e-02,
2.16116e-01,
-2.52846e-01,
-1.11965e-01,
1.70568e-01,
1.43328e-01,
9.73908e-02,
7.55704e-02,
1.11745e-01,
-2.46601e-01,
-9.73721e-02,
-2.74299e-01,
-1.20865e-01,
1.97602e-01,
-2.32782e-01,
5.75224e-02,
-3.49516e-02,
6.70632e-02,
-8.65005e-02,
2.41912e-03,
-5.47165e-02,
2.98182e-01,
-2.69660e-01,
-1.04634e-02,
1.55110e-01,
2.71531e-01,
-8.30980e-02,
-2.11796e-01,-1.75130e-02,2.21923e-01,-7.57983e-02,-2.12439e-01,-3.33002e-01,4.76377e-02,1.88441e-01,1.50566e-01,-1.88575e-01,2.38036e-01,1.31909e-02,-9.63805e-01,-9.47724e-02,1.02986e-01,-2.96793e-01,3.81326e-02,-3.66903e-02,-2.76481e-01,-2.24431e-01,-9.82925e-02,8.95732e-02,2.55964e-01,-2.45646e-01,1.04017e-01,-1.80922e-01,2.99790e-02,-1.25411e-01,1.34011e-01,-2.17225e-02,
-2.51355e-01,-1.86724e-01,-2.17002e-01,-7.45202e-02,5.23241e-02,-1.93355e-01,-2.39469e-01,-3.04473e-01,-8.59797e-02,2.23264e-01,1.28962e-02,1.86679e-01,-1.55851e-01,1.52593e-02,2.65714e-01,1.49029e-01,-1.96747e-01,2.90828e-01,1.60188e-01,-1.49301e-01,2.75913e-01,2.72864e-01,2.01688e-01,1.34407e-01,-6.11969e-03,-3.87757e-02,7.86231e-02,6.55941e-02,1.10560e-01,1.86060e-01,
-3.87055e-02,-1.34872e-01,-2.50214e-01,5.79155e-02,-1.12080e-01,4.09896e-01,4.38110e-01,1.83517e-02,-4.41054e-03,8.78601e-02,-3.77906e-01,5.29996e-02,-2.58045e+00,4.15400e-01,-1.14531e-01,-4.26905e-01,-2.02322e-01,2.19321e-01,-7.15023e-02,4.32631e-01,6.13926e-02,2.66637e-02,1.60139e-01,-8.82278e-02,5.90489e-02,-1.52369e-01,-7.15363e-01,2.45326e-01,-3.90563e-01,-8.03546e-01,
-9.37627e-01,-2.08296e-01,4.00985e-01,-1.57120e+00,-4.71418e-01,2.26350e-01,3.82542e-01,-5.71350e-01,-3.43429e-01,3.98825e-01,1.56563e-01,-3.23880e-01,-5.97324e-02,-2.60933e-01,1.22201e-03,5.89241e-02,-1.11312e-02,1.80347e-01,2.35938e-01,-4.60944e-02,-3.93738e-01,-3.30776e+00,-2.79754e-01,-7.63520e-01,-2.32390e-01,7.94478e-02,1.06470e-02,-7.24729e-01,-2.42685e+00,3.57173e-01,
1.82644e-01,-6.34318e-01,3.30549e-01,-3.71009e-02,-3.75209e-01,-6.43680e-02,1.60652e-02,-1.54585e-01,7.30388e-01,2.15020e-01,1.71187e-01,-2.80379e-01,-7.64646e-01,-5.38494e-01,7.02592e-02,4.37961e-01,2.15721e-01,1.32115e-01,5.62173e-01,2.71370e-01,3.23303e-01,4.87170e-02,-3.30925e-01,-2.01741e-01,-1.68273e-01,3.97614e-01,-2.41050e-01,-4.87813e-01,5.62778e-01,3.57124e-01,
4.67337e-02,3.18972e-01,-2.79818e-01,6.89405e-03,2.70239e-02,-6.37566e-01,1.50192e-01,-4.33891e-01,-2.86743e-01,1.04128e-01,-8.38685e-02,1.98510e-03,-3.74352e-01,4.92349e-01,3.11574e-01,-3.10009e-01,2.99055e-01,1.71374e-01,8.98153e-01,1.77485e-01,3.20184e-01,5.59874e-02,-2.45198e-01,2.08166e-01,6.99784e-03,-2.29205e-01,4.28623e-01,1.99387e-01,-1.85463e-01,1.23124e-01,
-4.91868e-02,4.80759e-01,3.77734e-01,2.39583e-01,-3.91140e-01,-7.80229e-01,-2.49133e-01,-3.59280e-01,-2.96352e-01,1.22131e-01,7.89360e-02,2.83162e-01,-1.12368e+00,-3.40289e-01,-9.49141e-02,-3.96396e-01,-3.25089e-01,-2.00954e-01,-4.04295e-01,-3.25614e-03,-2.95810e-01,4.85062e-01,-5.63940e-01,1.47922e-01,-2.62092e-01,-1.48924e-01,1.57542e-01,1.11304e-01,3.83072e-02,2.99884e-01,
-1.81059e-01,-1.15754e-01,-1.26578e-01,-2.07151e-01,1.24316e-01,6.54836e-02,1.26090e-01,-9.06126e-02,-3.77007e-02,-2.06338e-01,-2.89533e-01,-1.29680e-02,2.79148e-01,1.26007e-01,2.13169e-01,9.81392e-02,1.77443e-01,1.11553e-01,1.59411e-01,1.25367e-01,-1.78134e-01,-2.73135e-01,2.02756e-01,1.26851e-01,-2.42323e-01,-1.58680e-01,1.24909e-01,-3.02880e-01,-1.21917e-01,-1.23504e-01,
2.55721e-01,-2.27218e-01,5.80781e-01,-2.28628e-02,-2.67491e-02,1.14565e-01,8.11483e-01,-5.18702e-02,-3.62650e-01,2.35281e-02,1.04745e-01,1.80612e-02,-5.38501e-01,-1.53770e-01,2.00484e-01,-4.71318e-02,-5.85687e-01,1.90473e-02,-6.71501e-01,-5.51612e-01,-2.40727e-01,1.26904e-01,3.52252e-01,7.41859e-01,-6.97038e-01,-9.25634e-01,4.77420e-01,5.08024e-02,5.34148e-01,7.27150e-01,
-4.70525e-01,-6.15788e-02,3.84556e-01,-1.64868e-01,3.69281e-01,-1.07789e-01,6.19163e-01,-2.18111e-01,-1.18414e-01,-1.00891e+00,8.27130e-02,9.48031e-02,-3.19849e-01,-6.89355e-02,1.74095e-02,1.33074e-01,3.70809e-01,3.14179e-01,3.26405e-01,-7.79503e-01,-4.60956e-01,6.42853e-03,1.22245e-01,1.78402e-01,3.90249e-01,1.80695e-01,1.35118e-01,-6.01414e-01,2.84079e-01,1.95022e-01,
-3.14475e-01,2.46633e-01,-7.94831e-01,-8.07162e-03,-7.32768e-01,-1.93639e-01,-2.54776e-01,-3.83546e-01,2.93013e-01,-1.93112e-01,2.20335e-01,-1.28498e-01,1.69613e-01,-5.67545e-01,-2.76598e-01,-8.48261e-02,-3.94078e-01,-1.25127e-01,-4.00937e-01,-3.33478e-01,1.50497e-01,5.42036e-02,1.37116e-01,-7.57845e-02,3.28133e-01,-7.30461e-02,-8.04916e-02,-3.39127e-01,-1.47795e-01,-6.72513e-02,
-3.33126e-01,-4.46211e-01,3.07139e-01,-4.49389e-02,-1.11378e-01,-2.53099e-01,-1.01676e-02,-3.46836e-01,4.68655e-01,-7.58608e-01,-6.25229e-02,7.29325e-02,-5.51202e-01,-2.08415e-01,2.03028e-01,4.74820e-02,-1.38489e-01,-2.89721e-01,-1.24381e-01,-5.08406e-01,9.16590e-02,5.01798e-01,-3.91076e-01,4.68270e-02,-2.21162e-01,-2.13067e-01,3.03541e-01,5.55532e-02,4.37963e-01,3.18903e-01,
9.29349e-02,1.22532e-01,-2.93593e-01,2.09284e-01,-5.05007e-01,2.84433e-01,-1.35437e-01,3.57443e-03,2.77986e-02,1.61366e-01,9.80642e-02,-3.61527e-01,-3.18638e-01,4.79222e-01,-7.47530e-02,-8.50684e-02,5.08704e-01,-2.03034e-01,-1.80010e+00,3.08701e-01,-2.67861e-01,-5.86092e-01,-1.19945e-01,-5.14641e-01,1.99605e-01,-2.40221e-01,-2.21081e-02,2.39388e-01,-3.37544e-01,-1.54253e-01,
-9.51847e-02,3.87261e-02,-7.88450e-02,-1.07877e-01,-3.25790e-01,-2.26547e-01,6.17937e-01,-1.05862e-01,3.06811e-01,-9.77957e-02,-2.04961e-01,-3.73400e-01,-1.22321e-01,8.92724e-02,-2.13183e-01,-1.24286e-01,-3.79073e-01,-1.19542e-01,-9.55904e-02,-1.43801e-01,-2.25202e-01,4.67378e-01,2.08357e-01,-2.29437e-01,1.04450e-01,-5.60853e-01,1.74611e-01,4.29300e-01,-2.47238e-01,2.23325e-01,
-9.77293e-02,4.30987e-01,4.48416e-01,-1.46638e-01,-8.66003e-01,4.70377e-01,7.08836e-02,-3.17387e-01,-3.49367e-02,2.14243e-01,-1.43361e-01,-5.74739e-01,2.63250e-01,-7.53570e-01,1.09868e-01,3.00271e-01,-6.65968e-01,2.42445e-01,-1.07722e-01,-2.96275e-01,-4.98478e-01,-7.25565e-01,3.00182e-01,-1.00940e-01,3.51541e-01,-2.18290e-01,6.13157e-01,1.25760e-01,-1.36154e-01,-4.76776e-02,
1.65227e-01,-1.98709e-02,-2.92177e-01,-3.12352e-01,2.39448e-01,-1.12102e-01,1.30380e-01,-2.13517e-01,1.23449e-01,1.86325e-01,1.69480e-01,3.01662e-01,-3.10473e-01,-1.73919e-01,-1.14382e-01,1.30589e-01,-3.05084e-01,-5.93030e-03,-2.03417e-01,-1.84295e-01,-1.51673e-01,-1.52160e-01,2.61588e-01,3.10903e-01,1.96568e-01,-4.35833e-02,2.54966e-01,-1.17640e-01,-2.72063e-01,1.02596e-01,
2.39065e-01,-3.48856e-01,1.56351e-01,-2.92140e+00,-7.93052e-02,-3.01117e-01,6.39336e-01,-1.55916e-01,-1.58465e-01,-1.94969e-01,3.20179e-01,-2.37470e-01,-2.80158e-01,-3.34342e-01,-2.15367e-01,1.13366e-01,-3.46814e-01,-2.75202e-01,-2.77376e-01,-8.14721e-01,7.53355e-02,-3.07262e-01,6.21140e-02,1.94925e-01,2.09338e-01,-4.90015e-01,4.25624e-01,-6.21163e-02,1.98748e-01,5.41821e-01,
-1.12229e+00,-4.56708e-01,-2.72955e-02,-1.33436e+00,2.21785e-01,3.36053e-01,1.24655e-01,-1.58018e-01,2.78129e-01,3.68536e-01,-8.85026e-02,1.33012e-01,-3.03128e-01,9.04425e-02,-2.28257e-01,5.44967e-01,-5.28687e-01,-6.78191e-03,1.79110e-01,-1.10215e-02,3.79664e-02,-4.84033e+00,-1.28097e-01,2.46991e-01,7.40554e-02,-1.37966e-01,-3.08648e-01,-5.68214e-01,-1.39170e+00,3.06470e-02,
-2.32626e-01,-1.25063e-01,2.11039e-01,-2.80279e-01,-2.38822e-01,2.19314e-01,2.81265e-01,-1.28883e-01,-1.34361e-01,1.14264e-01,4.30935e-02,-1.26263e-01,3.14775e-01,-2.99192e-01,2.96710e-01,-1.38326e-01,4.25654e-02,1.74159e-01,1.64548e-01,9.92294e-02,-3.06273e-01,5.91987e-02,-1.38140e-01,1.61903e-01,-2.70500e-01,-1.28885e-01,7.83822e-02,-2.50736e-01,2.21454e-01,-2.05760e-01,
-6.17426e-01,4.17243e-01,-1.00704e-01,-5.49721e-02,2.37879e-01,-1.03802e-01,-1.68967e-01,6.67791e-02,-5.11888e-01,1.17064e-01,3.74222e-01,1.73827e-02,-3.62588e-01,-1.15341e-01,6.55174e-02,-7.11441e-01,-4.65925e-01,-1.21950e-01,-2.00842e-02,-2.53705e-01,-2.17849e-01,-1.16561e-01,2.23756e-01,5.77468e-02,-2.43565e-01,-4.53571e-01,4.75612e-01,-2.28262e-01,-1.15071e-02,-1.36175e-01,
1.14123e-01,-6.28916e-02,2.85616e-01,-9.85481e-03,-4.96226e-02,2.86126e-01,2.54689e-01,-1.15527e-01,-7.06820e-02,-3.13906e-01,-1.30726e-01,7.79915e-02,-9.37043e-02,2.19308e-01,-1.00188e-01,-2.60047e-01,-2.09617e-01,-1.19225e-01,1.04745e-01,-6.43384e-02,-1.77183e-01,2.20422e-01,2.30371e-01,-1.06030e-01,-6.13520e-02,-8.67549e-02,7.95794e-02,2.03883e-01,-3.12684e-01,-5.76474e-03,
-7.87773e-01,3.92899e-01,-4.25139e-01,-5.88370e-02,-8.75315e-01,-7.69375e-01,-6.81216e-01,-2.95884e-01,-4.04089e-01,4.04757e-01,2.93665e-01,-5.39744e-01,-3.80750e-01,-3.82276e-02,2.84835e-01,1.30206e-01,2.48936e-01,1.96280e-01,-5.04562e-01,4.52289e-01,-2.50642e-01,-4.84848e-01,7.57328e-01,-1.58324e-01,7.84935e-01,2.27808e-01,-4.24529e-02,3.31168e-02,2.04083e-01,-1.68616e-01,
9.69146e-02,-1.51097e-02,9.15013e-02,1.37564e-01,1.40690e-01,1.46115e-01,1.40457e-01,9.36107e-02,-2.50973e-01,7.25686e-02,-4.10823e-01,-5.32167e-02,-3.83960e-02,1.23925e-01,2.48860e-01,3.96552e-02,-2.32597e-01,4.69649e-02,-1.75508e-01,8.19996e-02,-2.53306e-01,-7.98097e-02,2.55583e-01,-3.13121e-01,-1.88588e-01,-6.13756e-02,-5.91286e-02,-1.29244e-01,-3.51605e-01,5.43194e-02,
-5.38114e-03,-1.08528e-01,2.46806e-01,-1.94810e-01,2.48182e-01,1.96945e-01,-1.78266e-01,-1.03002e-01,1.36087e-01,-1.67418e-01,3.69584e-02,-1.78177e-01,-2.33626e-01,-2.06490e-01,-2.23172e-01,2.08415e-01,6.07421e-02,-1.09355e-01,1.45477e-01,-3.13716e-01,-2.03420e-01,1.47899e-01,-2.15049e-01,-2.47972e-01,-3.37068e-02,1.28333e-01,-1.92299e-01,-1.25550e-01,-5.20565e-02,-9.26941e-02,
-2.10560e-01,1.37969e-01,-2.04698e-01,6.35652e-02,3.42795e-01,1.06384e+00,-2.02567e-01,5.33949e-02,5.11861e-02,-7.25337e-01,-2.06375e-01,1.90314e-01,-9.38098e-01,-3.78131e-02,2.46333e-01,-1.36140e-01,-2.31846e-02,-2.67256e-01,4.44800e-01,4.35114e-02,4.06287e-01,1.93691e-01,-7.35716e-02,-2.81033e-01,6.09683e-02,-4.81906e-01,-8.45330e-01,-1.46806e-01,-6.44787e-02,-1.58917e-01,
-2.44959e-01,-3.31578e-02,4.36654e-02,2.54477e-01,2.83445e-01,1.37349e-01,-4.76983e-03,-1.47416e-01,-8.19959e-02,-6.93519e-03,4.01902e-02,-1.24353e-01,2.77207e-01,-2.26972e-01,-4.05082e-02,-2.85696e-01,-2.83597e-01,2.19307e-01,-2.02308e-02,3.41669e-02,7.56162e-03,-8.77632e-02,3.92070e-02,3.20102e-03,-3.09870e-01,4.90008e-02,4.34748e-02,3.73359e-02,-1.06575e-02,-6.10988e-02,
2.63718e-01,-1.83648e-01,-2.39241e-01,-1.65467e-01,-1.79329e-01,-1.84433e-01,2.03510e-01,-6.23556e-02,2.02956e-02,-1.03011e-01,8.06520e-03,1.98536e-01,-1.07505e-01,1.18325e-01,-1.50494e-01,-1.71439e-01,1.57568e-01,8.20691e-02,1.16790e-01,1.07654e-01,-3.09565e-01,-2.08952e-02,6.90647e-02,-2.28882e-01,-1.64200e-01,-2.25110e-02,-2.17916e-01,-1.95789e-01,1.09322e-01,2.57330e-01,
-2.07601e-01,4.43134e-01,-4.08419e-02,-5.16916e-01,-1.89500e-01,-9.16391e-01,-5.51372e-01,5.33740e-02,-3.17153e-01,-2.46624e-01,1.38062e-01,5.19293e-01,-2.32823e-01,1.03780e+00,-2.42368e-01,-4.58723e-01,-2.75020e-01,-6.50341e-02,8.08478e-02,-2.49249e-02,3.13374e-02,-6.32263e-02,-8.05579e-02,1.95992e-01,2.19667e-01,-4.73241e-02,-2.12405e+00,1.29018e-01,4.54644e-01,2.03779e-01,
-1.98374e-01,5.24804e-01,-4.93698e-01,-2.43404e-01,-1.09069e-01,-1.54611e+00,-5.10579e-02,2.52796e-01,-4.82063e-01,2.86092e-01,-2.69058e-02,-1.98132e-01,2.34898e-01,7.67213e-01,3.58344e-03,-7.56660e-01,-4.49850e-02,-1.77021e-01,-4.23419e-01,3.46280e-01,-3.75777e-01,-2.53271e-01,2.53382e-02,6.85621e-02,3.28880e-01,-1.84712e-01,7.16795e-02,4.37599e-02,-1.85348e-01,1.26624e-01,
1.00702e-01,-2.68935e-01,1.20262e-01,-1.70488e-01,2.93671e-01,-1.28454e-01,2.24875e-01,-8.85650e-02,2.97017e-01,2.62132e-01,-2.83230e-01,2.93567e-01,3.04615e-03,-1.84973e-01,2.57844e-01,1.64540e-01,1.80731e-02,1.13366e-01,-2.14192e-01,-7.96483e-02,-2.40188e-01,-6.85677e-02,-2.63401e-02,1.26926e-02,-2.16880e-01,-1.98908e-02,-6.23040e-02,-3.10436e-01,-6.86385e-02,1.28008e-01,
6.62470e-02,
-3.06106e-01,
2.00614e-01,
9.32860e-02,
-1.54859e-01,
-3.23614e-01,
-1.69529e-03,
-8.01781e-02,
-1.64767e-02,
-3.50199e-01,
1.21634e-01,
-3.47116e-01,
1.39234e-01,
1.58762e-01,
1.71278e-03,
-3.30648e-01,
-1.94828e-02,
-6.13880e-03,
-1.75115e-01,
3.06429e-01,
-3.11829e-01,
-2.65021e-02,
-2.56051e-01,
-3.37954e-01,
8.07813e-02,
-2.79590e-01,
-1.14245e-01,
-2.13751e-02,
1.20382e-01,
-1.73565e-01,
2.27233e-01,4.01954e-02,4.73983e-01,1.04066e+00,-7.13399e-02,7.39195e-01,1.01407e-01,-3.55092e-02,-3.53719e-02,2.38097e-01,-2.24938e-01,-2.89732e-03,7.91939e-02,4.00007e-01,5.75815e-02,2.44035e-01,1.97393e-02,5.90259e-01,9.93989e-02,4.94441e-01,-1.41022e-01,1.75012e-02,-8.40271e-02,-4.73655e-02,-5.80135e-02,-2.27369e-01,-5.52219e-02,-9.89034e-03,-1.59185e-01,7.18491e-02,
7.34697e-03,1.92570e-02,1.60586e-02,5.37286e-01,1.45022e-01,-2.95233e-01,-1.20692e-01,-1.20242e-01,-2.83839e-01,-8.59226e-02,-3.25653e-01,-1.14430e-01,6.20509e-02,-7.42306e-02,1.54823e-01,1.41040e-01,9.93011e-02,-3.01441e-01,3.95796e-02,1.67568e-02,-1.29725e-01,-1.27074e-01,-1.19829e-01,2.26615e-01,9.48213e-03,5.01801e-03,-9.20778e-02,1.22410e-01,3.48116e-01,6.94430e-03,
-2.79617e-01,2.65711e-04,-2.00250e-01,-3.97403e-01,9.63417e-02,-1.10267e-01,-7.95119e-02,-1.57742e-01,8.21747e-02,1.89323e-01,-1.61725e-01,-2.48661e-01,1.07904e-01,-9.73505e-02,-8.77469e-02,-2.90798e-01,2.19239e-01,-3.22715e-01,-3.07837e-01,1.27540e-01,1.97917e-01,-1.19013e-01,2.22614e-01,8.32066e-03,3.76399e-02,2.76079e-01,-3.08871e-01,-1.53623e-01,-1.14022e-01,3.15044e-01,
-5.79972e-02,-7.78155e-02,-1.48598e-01,-5.38959e-01,3.84075e-01,-4.29487e-01,-4.87821e-02,-3.45878e-01,4.25600e-01,-8.74801e-02,-7.74404e-02,1.58843e-01,2.24051e-01,-1.52551e-02,-9.06709e-02,8.90467e-03,1.44244e-01,-2.01307e-01,-2.51996e-01,-1.27868e-01,5.12767e-02,3.88256e-01,1.27240e-02,2.81478e-01,3.49061e-01,-1.72944e-01,-1.28840e-01,1.33523e-02,4.23099e-01,4.91273e-02,
1.09678e-02,1.82914e-02,1.05911e-01,1.99546e-01,-1.30526e-01,1.86803e-01,-3.82636e-02,-2.44017e-02,-1.02311e-01,-1.10171e-01,4.29526e-01,2.47158e-01,-1.32443e-01,-1.61106e-01,1.28199e-01,-2.34623e-01,-6.02732e-02,-1.67214e-01,-1.43651e-01,1.24320e-01,7.49678e-02,-2.90064e-01,-1.61486e-01,1.17247e-01,-3.20163e-02,7.53730e-02,2.87626e-01,-2.44888e-01,-8.57574e-02,1.47210e-01,
1.28085e-01,4.85150e-02,2.81114e-02,4.67600e-01,-1.96044e-01,1.88762e-01,1.70213e-01,6.83788e-02,-1.92462e-01,2.04598e-01,-1.19495e-01,4.43359e-02,-1.75996e-01,-3.07077e-03,7.66370e-02,-6.75198e-02,3.02206e-01,5.07427e-01,-9.42037e-02,5.13997e-02,-2.13313e-02,-2.54488e-01,-1.73835e-01,1.91912e-01,-2.11277e-01,2.37252e-01,2.28092e-01,-1.33869e-02,-8.89334e-02,-2.98033e-01,
1.97008e-02,-4.42506e-02,-2.26708e-01,-1.88777e-01,-1.91384e-01,-2.11692e-01,-1.38628e-01,1.59766e-01,-5.18168e-02,1.63400e-01,-9.26309e-02,-2.67252e-01,2.28390e-01,-2.08640e-01,1.03815e-01,1.92078e-01,-2.68312e-01,-1.77843e-01,-9.18286e-02,2.19088e-01,2.42469e-02,-1.50545e-01,1.31215e-02,1.14109e-01,-2.60736e-01,-3.11884e-01,2.56311e-01,7.64629e-02,1.29014e-01,2.72822e-01,
1.09749e-01,-2.61751e-01,-2.87936e-02,1.28705e+00,8.78187e-01,-2.45622e-01,5.07283e-02,-2.20331e-01,7.84974e-03,1.63660e-01,-1.41661e-03,-5.98430e-03,6.35663e-01,1.61679e-01,2.41911e-01,-9.88300e-02,-3.15378e-01,-4.76900e-01,-1.11119e-01,2.84568e-02,2.54278e-01,5.03697e-03,1.90934e-01,6.70256e-02,1.51403e-01,1.28845e-01,2.47166e-01,-4.00882e-01,-2.64669e-01,-2.47293e-01,
-3.03159e-02,-2.97017e-02,-3.58624e-01,-1.44671e-01,1.46299e-01,-3.93688e-01,-4.13935e-01,-2.31174e-01,5.69258e-01,-2.74352e-01,-3.41356e-02,1.03366e-01,5.49153e-02,-2.22616e-01,-1.37290e-01,-2.94609e-01,-4.27293e-01,-4.56894e-01,1.75148e-01,5.11420e-02,-1.76408e-01,5.72951e-01,2.49611e-01,1.12533e-01,4.83936e-01,3.64428e-02,-9.09246e-02,-2.54410e-01,4.37419e-01,5.75465e-03,
-1.23612e-02,1.78428e-01,-1.88797e-02,1.54682e-01,-2.39930e-01,1.88327e-01,-2.74738e-01,-2.75352e-02,-9.56178e-03,-8.80468e-02,-1.01093e-01,1.20105e-01,-1.59578e-01,-3.08042e-01,1.12341e-01,-1.41113e-01,-5.55153e-02,-1.79614e-01,-1.63839e-02,-6.35287e-02,7.76546e-02,1.42580e-01,2.56924e-01,1.80495e-01,1.39914e-01,-1.96023e-01,-2.41115e-01,2.24282e-01,-2.12411e-01,1.63933e-01,
1.87408e-01,-1.86894e-01,1.09551e-01,-2.21661e-01,-9.37199e-01,2.02220e-01,-2.21031e-01,2.47676e-01,-3.71006e-01,-1.66181e-01,-5.59347e-01,-1.60379e-01,-5.63614e-01,5.79663e-02,-3.78221e-02,-2.13786e-01,5.33226e-01,6.66460e-01,1.52495e-01,2.95129e-01,-1.04298e-02,-2.59422e-01,1.45524e-01,2.75813e-01,-2.70950e-01,-1.12698e-03,-5.28049e-02,3.11580e-01,-2.95435e-02,-2.72496e-02,
6.66382e-02,6.71449e-02,1.12783e-01,3.06595e-01,1.96849e-01,-1.16463e-01,-1.42142e-01,-5.83943e-02,-1.31950e-01,2.51929e-01,2.14018e-01,2.29734e-02,-9.10513e-02,-1.45757e-01,-7.41624e-02,-1.40809e-01,4.02549e-02,-1.92607e-02,-1.41561e-01,2.74587e-02,7.10044e-02,-2.94064e-01,2.66228e-01,-1.94246e-01,-2.16183e-01,2.56450e-01,1.72555e-05,1.64137e-01,-2.21670e-01,-2.90440e-01,
1.06718e-01,-2.75220e-01,-1.48437e-01,2.08698e-02,1.60436e-01,-7.38515e-02,-2.46005e-01,5.21122e-02,1.13015e-01,2.35043e-02,1.84221e-01,8.67364e-02,3.14465e-02,-1.02853e-01,1.06470e-02,2.73063e-01,-6.61506e-02,-5.04187e-01,-1.05531e-01,-6.80333e-02,2.92422e-01,2.15375e-01,1.36820e-01,-1.79535e-01,-1.00650e-01,2.08056e-01,-5.38728e-02,-3.20108e-02,-1.15536e-01,1.82830e-01,
-7.20144e-03,4.60973e-02,9.64338e-02,-2.68836e-01,-3.35243e-01,-8.96404e-03,-1.67136e-01,2.97653e-01,1.47153e-01,6.64223e-02,-1.01441e-01,-1.51012e-01,2.50539e-01,8.74577e-03,1.19272e-02,-1.11231e-01,1.75774e-01,7.17504e-02,2.60121e-01,-3.12993e-01,3.08129e-01,2.94871e-02,2.85897e-01,-1.00136e-01,9.04395e-02,-8.50265e-02,-1.89101e-02,-5.30953e-02,-4.94859e-02,1.15554e-01,
3.83001e-02,-5.09725e-02,1.69914e-01,1.84263e-01,-1.93291e-02,-1.68556e-02,-9.47842e-02,1.26344e-01,-2.45944e-02,9.96337e-02,-2.74886e-02,1.01565e-01,1.03726e-01,1.78222e-01,1.98013e-01,2.51543e-01,-3.20320e-01,-1.32489e-01,-2.34057e-01,3.69455e-01,1.10971e-01,-3.07776e-01,2.10976e-01,-2.75067e-01,-1.37232e-01,4.78319e-02,5.43152e-02,-3.19670e-02,-1.03266e-01,1.01658e-01,
1.86044e-01,-1.12069e-01,1.13196e-01,1.12500e-01,-9.47785e-02,1.28740e-01,1.02748e-01,-1.34347e-02,-2.73927e-01,1.65314e-02,-2.26863e-01,-1.03420e-01,-1.01795e-01,1.24702e-01,-1.72084e-01,2.96524e-01,5.37742e-02,3.29541e-01,-3.12482e-01,-4.57413e-02,7.56987e-03,-2.13942e-01,3.22548e-02,1.86866e-01,-2.05730e-01,-2.47823e-01,-2.37971e-02,1.62995e-01,-1.48264e-01,-2.49889e-01,
-2.30219e-02,1.98345e-01,-1.51069e-01,-8.26476e-01,3.86671e-02,6.12760e-02,-1.64397e-01,1.23833e-01,-1.89431e-02,-2.78403e-01,-1.20534e-01,4.01414e-03,-2.40460e-02,-8.43421e-02,-2.51461e-01,2.79525e-01,-2.75878e-01,-3.82547e-01,-2.96928e-02,1.22640e-03,9.09166e-02,-2.85323e-01,-2.99525e-01,-2.36412e-02,-1.04183e-02,-1.56903e-01,-3.05901e-01,-5.10093e-02,-4.31423e-03,1.23995e-01,
3.37236e-01,3.09605e-01,-2.83743e-01,-1.18872e+00,4.34477e-01,-1.67219e-01,-1.51574e-01,-6.27680e-02,5.55161e-01,-1.50661e-01,2.51026e-02,4.21170e-01,1.60832e-01,-1.61554e-01,-2.19648e-01,-2.95453e-01,7.57391e-02,1.90864e-01,-2.77268e-01,-4.94849e-01,-2.79007e-01,7.09236e-01,4.10151e-03,-3.11577e-01,4.30613e-01,2.12386e-01,-1.52163e-01,-1.19735e-01,4.44210e-01,-1.05900e-01,
-1.96820e-01,-2.36081e-01,2.20883e-01,-2.42479e-01,1.25425e-01,2.44303e-01,-1.08002e-01,2.67371e-01,8.24089e-02,4.13548e-02,1.69819e-01,1.82257e-01,-3.03633e-01,2.94891e-01,1.23411e-02,1.53892e-01,3.06621e-01,-7.70467e-02,2.71370e-01,-2.05705e-01,1.95914e-01,-2.25129e-01,-1.59519e-02,1.39280e-01,-8.26416e-02,2.55055e-01,-1.40017e-01,-9.55405e-02,-2.52911e-01,-2.27466e-01,
-1.68233e-01,-2.66850e-01,3.64749e-02,-1.81024e-01,1.21096e-01,-3.02440e-02,2.33638e-01,-2.95688e-01,5.52354e-02,-1.22324e-01,7.12056e-02,-1.35718e-01,1.09696e-02,-1.60343e-01,5.47271e-02,2.41652e-01,1.56006e-02,3.56933e-02,1.98852e-01,-1.59759e-01,2.42486e-01,-2.35658e-01,-9.82028e-03,-6.52795e-02,2.39613e-01,-5.52194e-02,8.12986e-02,1.93849e-01,-4.20808e-02,-1.45758e-01,
-1.46387e-02,-2.31621e-01,2.54275e-02,3.38693e-01,-3.84732e-01,1.22674e-01,1.32997e-01,-2.79443e-01,1.68880e-01,2.75193e-02,-2.29894e-01,-1.47707e-01,-1.22542e+00,3.46161e-01,7.37585e-02,-5.01262e-02,7.13159e-01,9.65872e-01,2.05349e-01,-6.32683e-02,3.11948e-01,-1.20903e-01,1.26272e-02,3.57844e-02,-7.11946e-01,2.17433e-01,3.15083e-01,5.82076e-01,3.28294e-01,-2.99778e-01,
-3.07247e-02,-1.27294e-01,-8.80922e-02,-2.56993e-01,7.75188e-02,9.28689e-02,-2.01972e-01,-2.61545e-04,-8.06898e-02,-1.05397e-01,-2.79034e-01,-9.05276e-02,-4.54500e-03,-1.03013e-01,1.93248e-01,2.61711e-01,-8.39166e-02,2.32103e-01,3.00572e-01,-1.02325e-01,-1.05429e-01,1.70387e-01,1.81972e-01,5.72118e-02,1.36620e-01,-1.54136e-01,-1.40045e-01,-4.61607e-02,6.50194e-02,-1.50845e-01,
1.15720e-01,2.26773e-01,1.17327e-01,-9.87609e-01,2.17394e-01,-2.83096e-01,2.10166e-01,6.46614e-02,-6.97244e-03,8.83024e-03,4.39125e-02,-2.28602e-01,-6.95378e-02,-4.98822e-02,-1.85577e-01,2.53717e-01,3.17413e-01,9.70122e-01,8.76866e-02,-2.82599e-01,-5.13006e-02,3.99094e-02,6.11189e-02,-1.12358e-02,1.66514e-01,-1.21645e-01,2.79818e-01,6.67577e-02,1.27433e-01,2.58254e-01,
-9.75603e-02,-2.53822e-01,1.33209e-01,7.67031e-01,-3.04350e-01,-5.88690e-02,1.71665e-01,1.76656e-01,-2.74115e-01,1.97797e-01,1.01620e-02,2.84818e-02,-1.35747e-01,1.20629e-02,1.84091e-01,-3.93310e-02,1.76871e-01,1.05061e-01,-1.05093e-01,2.63250e-02,-1.82273e-01,-1.17116e-01,-2.37831e-01,-3.13726e-01,-1.85338e-01,-7.59461e-02,2.98040e-01,5.91672e-02,-1.45892e-01,8.92793e-02,
1.29455e-01,-8.53123e-02,3.36972e-01,5.94857e-01,-7.12568e-02,2.79369e-01,8.93419e-02,-6.14525e-02,-7.17907e-02,3.04270e-01,8.41394e-02,-1.25802e-01,1.22382e-01,4.22182e-01,2.24934e-01,1.00650e-01,1.93104e-02,3.92242e-01,-2.43996e-01,1.74172e-01,7.56104e-02,-7.26613e-02,-9.69477e-02,-1.89591e-02,-7.57245e-02,-1.25588e-01,7.86428e-02,2.03572e-01,-1.61418e-01,-2.11314e-01,
-2.85811e-01,-1.20342e-02,-1.55069e-01,6.68457e-02,6.90524e-01,-6.93930e-01,-2.01903e-01,-2.82129e-02,6.33567e-01,-1.63130e-01,1.26839e-01,5.66993e-01,4.54456e-01,-5.65732e-02,-1.67773e-02,-1.93402e-01,-5.97602e-01,-3.33450e-01,-2.16867e-01,-3.22581e-02,6.85364e-02,5.39079e-01,-1.52367e-01,-1.94190e-01,4.95326e-01,-2.85475e-01,1.27238e-01,-2.82563e-01,3.22165e-01,-2.12690e-01,
5.46807e-02,-2.88867e-02,2.76328e-01,-2.94108e-02,6.78201e-02,7.70560e-01,-2.15998e-01,2.73005e-01,-2.13286e-01,8.19677e-01,-2.78478e-01,1.58566e-01,-2.19063e-01,5.89625e-01,6.63115e-02,1.71691e-02,9.43779e-03,-1.91462e-01,-6.83656e-03,5.87137e-02,5.35274e-02,5.61626e-01,8.11372e-02,2.58303e-01,-4.17466e-01,7.14905e-02,1.09009e-01,-7.65095e-01,-4.95629e-01,-2.18728e-01,
1.01744e-01,-2.33444e-01,-6.73228e-01,1.15130e+00,-3.64052e-02,1.72169e-01,2.86580e-01,-2.87574e-02,-1.08798e-01,-1.17866e-01,1.52446e-01,3.58912e-01,-3.82969e-02,-1.66840e-01,2.83056e-01,-7.69480e-02,2.86063e-01,7.73835e-01,-2.49138e-02,1.79324e-01,-1.80789e-01,-2.94920e-01,-6.32237e-02,7.60003e-02,-1.44165e-01,1.54926e-01,1.83497e-01,6.29493e-02,-3.91234e-01,-1.13387e-01,
-6.19587e-02,1.27730e-01,-1.00662e-01,-1.22713e-01,3.20371e-01,3.24908e-02,8.67032e-02,-2.05041e-01,6.49971e-01,-1.23721e-01,-3.62615e-02,1.75818e-01,4.74468e-01,1.69133e-01,-5.93851e-02,1.68667e-01,-1.36001e-01,-2.32284e-01,2.66766e-01,-8.06067e-02,-3.55145e-02,5.63114e-01,4.55175e-02,9.34211e-02,6.28120e-01,1.28815e-01,2.60203e-01,-4.28494e-02,4.09883e-01,-2.53366e-01,
-3.59046e-01,-1.96235e-02,-3.99596e-02,8.93844e-01,-2.59485e-01,1.10941e-01,-1.06611e-01,3.25153e-01,-4.08140e-01,1.52428e-01,3.80253e-01,2.66115e-01,1.86261e-01,2.76120e-01,3.50235e-01,-9.84295e-02,-1.02571e-02,1.27314e-01,-2.31455e-01,7.60687e-02,5.41360e-02,-7.80119e-02,7.08646e-02,2.74467e-01,6.45603e-02,-1.79904e-01,-1.80734e-01,-2.30055e-01,-6.96939e-02,2.31441e-01,
2.20314e-02,
1.78278e-02,
6.53176e-02,
-3.20891e-02,
1.07061e-01,
1.12819e-01,
-1.77803e-01,
-2.19155e-02,
7.52305e-02,
-2.59295e-01,
-1.46090e-02,
-1.20105e-01,
8.38031e-02,
-1.62113e-01,
3.07875e-02,
1.19955e-01,
2.44938e-01,
6.87102e-02,
-2.19898e-01,
-2.56810e-01,
-2.83225e-02,
-1.23987e-01,
8.29285e-02,
2.07592e-01,
1.97539e-02,
-8.62551e-03,
-6.46710e-02,
2.87260e-03,
-2.48039e-02,
7.74953e-02,
-1.57005e-02,-2.38856e-01,9.63883e-02,4.54605e-02,-2.86016e-01,4.47724e-02,-8.70562e-02,-5.82249e-02,-1.70955e-01,-8.60401e-02,2.14500e-02,2.33762e-01,-8.30495e-02,1.60836e-02,2.08123e-01,1.58676e-01,2.03187e-01,6.30728e-02,-1.34009e-01,2.43358e-01,-6.23833e-02,1.77842e-01,-3.03819e-01,2.40816e-01,-6.89933e-02,-2.93624e-01,-1.80748e-01,1.44216e-01,2.66877e-01,-2.15517e-01,
2.95751e-01,1.20483e-01,6.10284e-02,7.36583e-01,3.42547e-01,4.20043e-01,-2.65067e-01,-5.12742e-01,-6.94653e-01,2.27504e-01,7.17095e-02,1.68587e-01,9.68781e-02,1.35071e-01,2.41330e-01,2.09929e-01,1.10540e-01,6.51807e-01,-1.09513e-01,-1.87618e-01,-4.30002e-01,-2.71121e-01,-2.04876e-01,2.90369e-01,3.45512e-01,3.56928e-01,-1.40154e+00,3.68424e-01,-6.99926e-01,1.84847e-01,
1.15107e-01,6.64151e-03,-1.83672e-01,-1.62982e-01,-1.89939e-01,-1.79886e-01,-9.42864e-02,3.06227e-01,2.26319e-01,-1.03616e-01,-1.77020e-02,-8.06451e-02,2.15337e-01,2.49039e-01,3.07655e-01,-3.89893e-02,-1.35945e-01,-1.22307e-01,-2.83119e-01,1.08674e-01,-2.57164e-01,7.31858e-02,1.41776e-02,-2.79475e-01,2.57911e-01,-2.92557e-01,-2.08611e-01,-2.12084e-01,-1.79381e-01,1.69841e-01,
1.66314e-01,-1.38173e-01,-3.64298e-03,-2.35420e-01,-2.01631e-01,-6.92112e-02,-8.07954e-02,-1.79319e-01,2.87991e-01,-2.41421e-01,-1.86870e-02,-5.50249e-02,-9.46495e-03,-3.08316e-01,-2.36307e-01,1.76031e-01,-1.06185e-01,1.85507e-01,9.65073e-02,8.89674e-02,-4.61527e-02,2.64595e-01,-1.09572e-02,-1.67015e-01,-4.27929e-03,3.11363e-02,7.46927e-02,-1.82220e-01,1.38403e-03,-1.75913e-01,
6.16678e-02,-1.65915e-01,1.25961e-01,-2.09236e-02,-5.53788e-02,2.61234e-01,-6.70907e-03,4.81796e-02,-8.12858e-02,-3.08832e-01,-2.76181e-01,1.09792e-01,1.00107e-01,6.32210e-02,-1.14305e-01,-6.23567e-02,-2.46702e-01,1.62682e-01,7.80162e-02,1.04595e-01,1.78733e-01,-2.73129e-01,-1.46708e-01,9.38156e-02,2.10002e-01,2.62419e-01,-1.53017e-01,7.01416e-02,-1.35600e-01,-9.67293e-02,
-2.33153e-01,-2.17246e-01,2.09841e-01,5.68364e-02,-2.90428e-01,2.34577e-02,1.98615e-01,-2.48714e-01,-2.29933e-01,-2.35268e-01,-5.73869e-04,-5.75483e-02,2.05508e-01,9.84593e-02,-1.94166e-01,-3.61599e-01,-2.18271e-02,-1.44929e-01,-1.90704e-02,2.18317e-01,2.42836e-01,-2.50213e-02,-3.27828e-01,-3.77529e-01,-6.06678e-02,-3.29614e-01,-2.84096e-01,-2.15508e-01,8.43764e-02,-6.80555e-02,
-2.83137e-01,-2.52169e-01,2.22244e-01,2.32787e-01,-2.58424e-01,-9.18851e-02,-4.25244e-02,1.67355e-01,5.60041e-02,2.89954e-01,-2.84995e-02,-2.24048e-01,1.33359e-02,-2.32876e-01,-1.29409e-01,-1.07824e-01,-1.04520e-01,6.59784e-02,-6.96796e-03,-1.86368e-01,-3.07795e-01,-1.67734e-01,4.17185e-02,-1.17254e-01,-2.08367e-01,-2.01331e-01,7.33544e-02,2.36033e-01,-2.21596e-02,-1.75259e-01,
1.85142e-02,-9.22915e-02,-3.03605e-01,-2.60464e-01,-3.14888e-01,2.29980e-01,1.60880e-01,-2.76653e-01,1.51589e-01,2.82334e-01,-6.21451e-02,-1.96423e-01,-1.16117e-01,-1.34663e-01,2.50379e-01,4.74766e-03,1.06952e-01,2.54512e-01,-2.41515e-01,3.04838e-01,5.43825e-02,-5.14495e-02,-9.31505e-03,-1.08365e-01,7.54048e-02,-3.31734e-01,8.88579e-02,1.82696e-01,2.02086e-01,-2.01005e-01,
-1.23798e-01,-1.75414e-01,9.18369e-02,1.74552e-01,3.11807e-03,-3.79421e-01,-3.10304e-01,-3.78605e-01,1.56826e-01,-9.67282e-02,-8.46883e-02,-1.09722e-01,8.65474e-02,5.88767e-02,-4.42597e-01,-2.64297e-01,-1.10337e-01,-3.10421e-01,3.12370e-01,2.70985e-02,-4.73649e-02,-1.86796e-01,-5.50458e-02,-3.46693e-01,5.84951e-02,-2.11351e-01,-3.18153e-01,-3.11462e-01,-2.56273e-01,7.96040e-02,
-3.67084e-02,1.60610e-01,4.48387e-02,-1.87643e-01,1.55584e-02,-2.19681e-01,2.60434e-01,6.74010e-02,-7.24411e-02,-1.05993e-01,2.89791e-01,-3.50421e-02,-2.83146e-01,-3.61589e-02,-2.44417e-02,-2.48076e-01,-2.71187e-02,2.10981e-01,-5.37086e-02,1.09200e-01,-7.90888e-03,-2.39716e-01,2.33279e-01,-1.59919e-01,-1.20230e-01,-2.59184e-01,-1.07081e-01,2.95302e-01,-2.41604e-01,-1.13636e-01,
-9.78377e-02,4.57235e-02,2.85498e-02,-1.53217e-01,4.63812e-04,1.72577e-02,9.04911e-02,1.47858e-02,5.17792e-02,2.50322e-01,-6.75327e-02,-1.20326e-01,-1.85722e-01,-2.38017e-01,-9.02634e-02,9.88383e-02,-2.02185e-01,-1.56153e-02,-1.58747e-01,2.15103e-02,-1.05200e-02,1.87964e-02,-1.26960e-01,-2.10306e-01,7.02612e-02,7.30303e-02,3.05527e-02,-9.49403e-03,-3.31895e-02,-4.89848e-02,
5.09501e-02,-1.20211e-01,-1.66158e-01,1.69624e-01,-6.03289e-02,1.04934e-01,6.44028e-02,-1.37261e-02,-1.36244e-01,-3.00503e-01,-1.57400e-03,-2.94986e-01,1.90254e-01,2.21485e-01,1.37633e-01,-3.27190e-01,-1.09764e-01,-2.14181e-01,2.82237e-02,-2.94824e-01,1.76046e-02,-2.17244e-01,1.15630e-01,-1.83281e-01,-2.82015e-01,-1.58725e-01,5.37085e-04,2.83084e-02,3.85612e-02,-2.77457e-02,
-1.47838e-01,-4.10203e-02,-2.44023e-01,-2.14758e-01,-1.48832e-01,1.16088e-01,-6.18365e-02,2.71657e-01,-2.51666e-01,1.47558e-01,8.08933e-02,2.98556e-01,2.24836e-01,-1.70081e-01,-1.22167e-01,2.39741e-01,1.43747e-01,-3.90678e-01,2.09148e-01,2.49436e-01,1.39944e-01,1.56414e-01,-9.86758e-02,2.09423e-01,-9.23329e-02,-3.41347e-01,7.06824e-03,-1.04853e-01,-7.70528e-02,7.47222e-02,
2.84548e-01,-6.88267e-02,4.77031e-02,-2.41708e-01,1.44447e-01,-1.90225e-01,-2.39071e-01,-3.19130e-01,3.06900e-02,1.60688e-01,-1.40352e-01,8.00613e-02,-2.62604e-01,1.46699e-01,4.22051e-02,-2.60141e-01,-1.53869e-01,-1.84603e-01,2.00263e-01,-1.33173e-01,2.57468e-01,-2.20793e-01,-1.06805e-01,-4.99130e-02,-1.85967e-01,-1.22603e-01,-1.26576e-01,2.26338e-01,2.57070e-01,2.49302e-01,
-2.28731e-01,-1.34440e-01,2.37924e-01,1.77366e-01,3.71544e-02,2.48141e-01,1.89926e-01,6.66027e-02,7.89613e-02,-5.01339e-02,6.09165e-02,2.54392e-02,-2.03215e-01,-2.42715e-01,-1.51720e-01,9.67793e-02,-2.37570e-01,1.12429e-03,-2.75926e-01,-2.91540e-02,9.15053e-02,1.05706e-01,1.14354e-01,-2.93686e-01,-1.56337e-01,1.90718e-01,6.90434e-02,-2.10178e-01,-1.46512e-01,-4.33223e-02,
-2.17467e-01,1.67804e-01,2.31788e-01,3.27142e-01,1.07810e-01,-3.02660e-01,-6.25711e-02,7.54198e-01,3.50982e-01,1.77593e-01,-1.37034e+00,1.22596e-01,4.42027e-01,-1.08693e-01,1.03135e-01,-3.66374e-01,1.37057e-01,-4.44554e-01,2.68260e-01,-2.20246e-01,-7.87219e-03,-2.73786e-01,-1.43242e-01,3.56146e-02,-9.54248e-02,-1.73619e+00,-7.90583e-01,-4.10218e-02,1.55924e-01,4.26270e-02,
2.19602e-01,-2.83799e-01,-8.94645e-02,-9.72722e-02,-3.54435e-02,-3.17797e-01,8.04085e-02,-7.49958e-02,-3.63407e-01,-1.42551e-01,1.13773e-01,-3.05588e-01,-2.01925e-01,-2.57485e-01,1.60331e-01,-3.57349e-01,-1.19972e-01,2.08116e-01,1.40690e-01,2.30143e-01,-8.50246e-02,3.00438e-01,-3.01555e-01,2.67592e-02,4.85749e-02,-7.83698e-01,-4.66207e-01,4.27596e-02,-5.59571e-01,1.30244e-02,
-2.58280e-01,9.12635e-02,1.20289e-01,-1.78927e-01,9.10398e-03,1.03443e-01,1.18741e-01,-8.37904e-02,-5.00917e-02,-2.63722e-02,9.06389e-02,1.54381e-02,-7.30123e-02,2.79496e-01,8.15468e-02,1.38848e-01,-2.40961e-01,-2.98365e-01,1.17088e-01,-2.43864e-01,-2.39383e-01,1.29163e-01,-2.09372e-01,1.88793e-01,-2.42822e-01,2.19334e-01,1.25104e-01,-2.12740e-01,6.77379e-02,-2.93974e-01,
1.06845e-01,3.54091e-01,-7.71620e-02,-3.43588e-01,-1.50352e-01,-7.79706e-02,-2.93688e-01,3.12307e-01,2.45796e-01,-2.74520e-01,-6.32177e-01,-3.49067e-02,8.53091e-02,-2.04943e-01,-1.24255e-01,1.17754e-01,-2.99457e-01,1.23952e-01,-3.07602e-01,2.16381e-01,-1.54227e-03,4.56996e-02,-4.07971e-01,-1.95365e-01,2.14935e-01,-2.17085e+00,-3.01408e-01,2.84142e-01,-4.34383e-01,3.67935e-01,
1.73798e-01,-1.83571e-01,1.30356e-02,-8.59640e-02,-2.22113e-02,2.21261e-03,1.12308e-01,-2.99838e-01,1.47945e-01,1.60491e-01,7.55893e-02,-2.37099e-01,3.04270e-01,-2.05639e-01,-8.11779e-02,-2.49895e-01,-1.26756e-01,9.84533e-02,-1.16412e-01,2.13597e-01,-2.37409e-01,-1.14274e-01,2.60006e-01,2.75027e-01,-2.49170e-01,-7.24803e-02,-9.46521e-02,1.11929e-02,2.40542e-01,-2.65217e-02,
-2.48237e-01,-9.09593e-02,1.70211e-01,2.08742e-01,-8.29661e-02,-1.75937e-01,1.23290e-01,1.43827e-01,-1.80137e-02,1.62319e-01,-9.15942e-02,3.25561e-03,-1.45606e-01,-8.39472e-02,1.92454e-01,2.86026e-01,-6.21880e-02,-8.77436e-02,-2.33371e-01,3.39845e-02,2.15718e-01,-2.58303e-02,-7.48523e-02,2.13595e-01,-1.88013e-02,4.23870e-02,3.09334e-01,5.09407e-02,2.45810e-01,5.94748e-02,
1.65629e-02,-1.92567e-01,-3.21178e-01,2.57016e-02,-1.20574e-01,-1.92270e-01,-8.96492e-02,-3.06457e-01,2.17395e-01,1.64616e-01,-2.06369e-01,6.37031e-03,5.13649e-02,8.11365e-02,4.37523e-02,7.59116e-02,-3.10569e-01,1.89569e-01,1.16393e-02,2.76505e-01,-1.22208e-01,1.48528e-01,-1.90133e-01,2.24266e-01,2.35836e-01,-2.94917e-01,-1.31478e-01,-1.86202e-01,-9.00121e-02,2.80991e-01,
-3.29071e-02,-3.24368e-01,-1.24501e-01,-2.78519e-01,1.89052e-01,1.77665e-01,1.20955e-01,-7.85332e-02,1.98409e-01,2.19096e-01,1.88429e-01,-1.25094e-01,-3.52246e-01,-9.92561e-02,-3.58676e-01,-9.36001e-02,-4.10830e-03,-3.37790e-01,2.47983e-01,3.62298e-02,1.27499e-01,1.88993e-01,4.84677e-02,-3.01271e-01,-2.89281e-01,-1.35127e-01,-1.64238e-01,-1.41900e-01,-2.78337e-01,1.59311e-01,
1.20119e-01,-1.52909e-01,1.45504e-01,3.79711e-01,1.71407e-01,-3.43712e-01,-1.17054e-02,-7.09972e-02,-1.08983e-01,2.57171e-01,1.93922e-01,1.76131e-01,8.21569e-02,-2.68107e-01,2.22921e-01,1.78136e-01,1.25333e-01,2.32688e-01,2.68569e-01,1.75052e-01,3.63667e-02,1.21197e-01,1.57971e-02,2.26166e-01,-6.65216e-02,-1.86825e-01,-2.14032e-01,6.24145e-03,-9.97852e-02,1.17846e-01,
-1.02324e-01,7.18730e-02,1.85177e-01,-2.12323e-01,-1.39245e-01,2.37298e-02,8.23796e-02,-1.56727e-01,-2.13236e-02,-5.47695e-02,4.68489e-02,3.03022e-01,1.94428e-01,-2.82637e-01,-9.61021e-02,-8.97556e-02,1.62036e-01,2.15401e-01,1.02002e-01,-2.71942e-01,2.06697e-01,-1.76692e-01,-1.21674e-01,2.73565e-02,-9.61298e-02,1.22683e-02,1.26573e-01,7.18354e-02,-1.20827e-01,2.80530e-03,
-1.30314e-01,1.78879e-01,-3.07662e-01,-2.09418e-01,-2.24227e-01,2.01778e-02,-3.88208e-02,3.63678e-02,-6.96148e-02,-9.83393e-03,2.50502e-01,8.04498e-02,1.51655e-01,1.66576e-01,1.40555e-01,-8.83466e-03,9.76487e-02,2.95934e-01,2.98654e-02,-9.30102e-02,2.56474e-01,2.10186e-01,2.03481e-01,3.45611e-02,-1.09208e-02,-1.48053e-01,3.07465e-01,1.64456e-01,9.51328e-02,-2.99402e-01,
6.84350e-02,-2.73254e-01,5.56598e-02,-2.46752e-01,-1.40652e-01,8.28302e-02,-2.92844e-02,1.05211e-02,1.02875e-01,-1.88278e-02,-1.23626e-02,1.13381e-01,1.78712e-01,-3.86042e-02,-7.00179e-02,-3.37039e-01,-5.72007e-02,-2.44850e-01,-7.16764e-02,2.07289e-01,3.25695e-01,-1.45449e-01,-2.47266e-01,-2.27777e-01,3.50242e-02,-3.68312e-01,-5.91371e-01,8.75795e-02,-3.95223e-02,-5.87013e-01,
-1.28939e-01,2.99272e-01,5.73793e-02,1.45856e-01,-2.80152e-01,1.10238e-01,1.82548e-01,-3.89978e-02,-9.05861e-02,9.14025e-02,-2.04316e-01,1.81595e-01,-3.05165e-01,1.94500e-01,-1.02121e-01,-2.40139e-01,-2.89008e-01,1.30162e-01,2.47438e-01,7.31890e-02,-8.62601e-02,-9.72137e-03,1.13997e-01,8.98154e-02,-2.93687e-01,-8.72708e-02,-9.95350e-02,1.56956e-01,-1.64415e-01,1.89894e-01,
-3.01956e-01,2.34134e-01,-2.54743e-02,1.42888e-01,-1.21447e-01,-1.78478e-01,-2.22764e-01,1.44866e-01,-1.76436e-01,1.69772e-02,7.40133e-02,2.28243e-01,2.42922e-02,1.44048e-01,-6.71172e-02,-2.95357e-01,4.67221e-02,-2.83539e-02,-3.07938e-01,2.23699e-01,1.29156e-01,2.96429e-01,-1.56090e-01,2.22310e-01,-4.65623e-02,-1.23408e-02,-1.34758e-01,-8.39195e-03,1.37857e-02,5.92110e-02,
1.92251e-01,2.89370e-01,2.72522e-01,-1.35231e-01,1.13957e-01,8.69716e-02,-1.00654e-02,2.00468e-01,4.04989e-02,2.71497e-01,-2.12143e-01,-1.25209e-01,-8.76603e-02,-2.69610e-01,-2.76538e-01,-2.19927e-01,6.41634e-03,-9.46698e-02,-3.12893e-01,-2.51907e-01,-2.80227e-01,-5.63028e-02,-2.21425e-01,6.01849e-02,2.06462e-01,2.87719e-01,1.38047e-01,1.63188e-01,-2.80739e-01,1.57273e-01,
-2.39896e-01,
-1.93005e-01,
-1.15291e-01,
-1.86753e-01,
-3.07522e-01,
6.86257e-02,
-8.82064e-02,
-2.35110e-01,
1.03330e-01,
-2.53037e-01,
1.13245e-01,
1.25476e-01,
-2.19601e-01,
-9.06738e-02,
-1.58394e-01,
1.56824e-02,
1.25783e-01,
1.62403e-02,
9.33399e-02,
-2.95561e-01,
-2.13279e-01,
-7.01828e-02,
5.54543e-02,
-1.03084e-01,
-1.13584e-01,
-2.76551e-01,
1.21989e-01,
-4.49489e-02,
-9.28548e-02,
-2.77896e-01,
2.45573e-01,-3.31909e-01,4.05789e-02,-3.02122e-01,-3.14172e-01,-2.34134e-01,-2.64797e-01,5.56418e-03,-6.56986e-02,2.93623e-01,2.69385e-03,2.93576e-02,3.18431e-01,-2.10509e-01,4.59250e-02,2.37347e-01,4.92462e-02,-1.89183e-02,-3.01042e-02,-7.90384e-03,1.65591e-01,9.75736e-02,-1.78803e-01,3.00926e-01,2.20984e-01,-3.01610e-01,-1.29504e-01,2.88539e-01,2.22592e-01,1.36756e-01,
3.12781e-01,3.18006e-02,2.53129e-01,1.99503e-01,-2.04595e-01,9.02865e-02,2.61653e-01,-1.95280e-01,-3.81732e-02,1.52308e-01,4.43253e-02,-8.68796e-02,-1.69146e-01,8.55852e-02,-1.76664e-01,2.48840e-01,-7.44065e-02,1.89230e-01,4.24233e-02,-2.05776e-01,2.07388e-01,9.64544e-02,2.48828e-01,-3.86320e-02,1.81359e-01,-2.69660e-01,-1.62174e-01,-2.03523e-01,-3.95178e-02,-2.43214e-01,
2.26730e-01,1.63179e-01,2.23504e-01,2.90512e-01,-2.55702e-01,5.67082e-02,-2.52174e-02,3.10823e-01,-4.09458e-02,1.65134e-01,2.33441e-01,-4.12882e-02,-1.09848e-01,-1.29682e-01,2.31332e-02,-1.80174e-01,1.67435e-01,2.72438e-01,2.15715e-01,-4.25734e-02,-1.49844e-01,1.24618e-01,3.68297e-02,-2.99541e-01,9.13315e-02,-2.79702e-01,2.10793e-01,-2.81089e-01,5.08896e-02,2.49188e-01,
1.20987e-01,-1.57927e-01,4.58444e-02,-9.00979e-02,1.85032e-01,2.36334e-01,3.07386e-01,-3.14468e-01,2.03280e-01,2.69113e-01,-1.59674e-01,-2.78946e-01,1.94256e-01,-1.66461e-01,-2.09412e-01,2.29569e-01,2.49890e-01,-3.73948e-02,8.57882e-02,-1.55582e-01,-2.28861e-01,7.78823e-02,2.86383e-01,-5.36112e-03,2.05191e-01,1.19645e-01,2.26637e-01,7.19708e-03,-1.37776e-01,1.61444e-01,
-1.27590e-01,1.04009e-01,2.66585e-01,1.39280e-01,1.24580e-01,1.70220e-01,-7.36739e-02,1.24260e-01,-2.23045e-01,-2.30768e-01,-8.80871e-02,1.46640e-01,-1.40673e-01,1.80638e-02,-9.85000e-03,2.09545e-02,1.58944e-01,1.84825e-02,-1.86415e-01,-1.07837e-01,-2.49303e-01,2.57600e-01,-1.09247e-01,1.06918e-01,2.89127e-01,-1.22516e-01,-8.21265e-03,-1.63652e-01,-2.95355e-01,-1.82010e-01,
1.66940e-01,3.00888e-01,-4.10579e-02,7.90970e-02,9.72904e-02,-2.62749e-01,2.16124e-01,2.97462e-01,3.73300e-02,-3.64977e-03,-2.37232e-01,-2.39936e-01,-1.77806e-01,-3.89828e-02,2.48215e-01,-2.44984e-01,3.07504e-01,2.75062e-01,-1.69263e-01,-1.72323e-01,2.23599e-01,1.39085e-01,-1.96678e-01,8.11502e-03,1.41600e-01,-3.35324e-02,-2.18220e-01,-2.07134e-02,-1.17956e-01,-2.46765e-01,
-1.19139e-01,-1.27049e-02,3.03827e-01,-2.12434e-01,-2.05024e-01,1.48032e-02,2.93683e-01,-1.02486e-01,-2.95893e-01,-2.64073e-01,5.89242e-02,-2.20733e-01,-1.81176e-01,-9.98562e-02,2.46672e-01,2.84122e-02,-2.48117e-01,2.88288e-02,1.17395e-01,1.68049e-01,8.44374e-02,-2.39963e-01,-8.49925e-02,-4.15471e-01,4.64953e-02,-2.85740e-01,-1.84355e-01,1.91354e-01,-1.95385e-01,-4.01031e-02,
1.24528e-01,-5.89127e-02,-2.01141e-01,1.68934e-01,2.25305e-01,-1.71945e-01,9.44656e-02,-9.32142e-03,3.83366e-02,1.85190e-01,-1.52172e-01,1.92440e-02,2.74920e-01,2.63331e-01,2.07621e-01,-2.05596e-01,1.11932e-01,-2.90769e-01,-4.43704e-02,-2.90752e-01,-2.51495e-01,-2.76357e-01,-2.90468e-01,1.28264e-01,8.87365e-02,3.26696e-02,-4.64195e-02,3.69631e-02,-2.48103e-01,1.00860e-01,
1.49032e-02,-1.66928e-03,-7.24666e-02,1.01483e-01,1.39416e-01,3.63569e-03,-2.36894e-01,-8.78490e-02,5.03552e-02,3.13614e-01,2.44901e-01,2.36495e-01,4.66311e-02,-7.41366e-02,-2.37932e-01,1.04103e+00,1.47284e-01,2.59391e-01,1.08475e-01,1.93400e-01,2.88909e-01,-3.03822e-01,3.17381e-01,-1.34020e-01,-1.48102e-01,-2.24797e-02,3.28110e-01,-1.68206e-01,2.48866e-01,2.75916e-01,
-2.44875e-01,-1.97561e-01,-1.65014e-01,7.00909e-02,-1.08391e-01,2.77978e-01,2.47149e-01,-6.79486e-02,-1.97207e-01,2.08504e-01,-1.84903e-01,-2.31004e-01,1.08411e-02,2.54726e-01,-2.04377e-01,-1.04109e-01,-3.28742e-01,4.12929e-02,1.59612e-01,1.72674e-01,1.97881e-01,-2.05821e-01,-2.25224e-01,-3.09159e-01,1.41527e-01,7.58995e-02,-1.61495e-01,1.38696e-01,6.54965e-02,2.58588e-01,
2.81740e-01,3.23066e-01,-2.00800e-01,6.88177e-02,1.74651e-01,-2.73667e-01,-1.22165e-01,-2.42904e-01,-8.12465e-02,1.70188e-01,-2.63917e-01,2.16436e-01,1.81685e-01,8.37700e-02,7.77200e-02,-1.14160e-01,-8.17033e-01,1.77624e-01,-1.20259e-01,-1.76117e-01,-4.60649e-02,-1.20530e-01,4.70005e-02,-1.76164e-01,4.97520e-02,-2.88888e-01,5.20152e-02,4.53147e-02,2.52102e-01,-1.36511e-01,
1.43927e-01,-3.60471e-01,-3.03812e-01,-2.85261e-01,2.66083e-01,-2.13526e-01,-4.88375e-02,2.05575e-01,-4.41201e-02,7.93033e-02,-4.17936e-01,-3.08516e-01,2.44215e-01,-1.99027e-01,-3.34759e-02,-1.39139e-01,-4.91763e-02,1.89412e-01,-1.08089e-01,-8.91089e-02,2.84707e-01,1.23198e-01,5.88560e-02,3.42381e-02,-7.50248e-02,-1.76146e-01,1.48711e-01,1.25552e-01,-3.88569e-03,-1.50160e-01,
-2.34507e-01,-6.79086e-02,7.49462e-02,1.84020e-01,-2.63994e-01,8.23847e-02,2.73536e-02,1.76459e-01,1.18760e-01,-2.87103e-01,2.49303e-02,-7.47438e-02,-9.03967e-02,-3.58866e-02,1.33548e-01,-1.44475e-01,2.15889e-01,2.29061e-01,2.78333e-03,-3.26529e-02,-2.96707e-02,2.32376e-01,1.27777e-01,1.77351e-01,-1.83598e-01,-7.10512e-02,-2.21678e-01,9.58303e-02,-1.73177e-01,2.02663e-01,
2.49406e-01,3.48789e-02,2.57832e-01,3.20400e-02,-1.87918e-01,2.36533e-01,-6.88463e-02,-6.79779e-03,-2.08671e-01,-2.01727e-01,-2.15464e-01,1.87665e-01,1.93650e-01,1.22257e-01,1.53263e-01,-1.89867e-01,1.52586e-01,-2.31315e-01,6.13110e-02,2.89200e-01,1.20101e-01,5.36675e-02,2.78600e-01,-2.31562e-01,2.93338e-03,1.71721e-01,6.15092e-02,1.46121e-01,1.17291e-01,4.05799e-02,
-2.32430e-01,3.31064e-01,2.16973e-01,1.73835e-01,8.47394e-02,2.51772e-01,-2.26110e-01,-9.16386e-02,-1.47909e-02,1.98092e-01,1.67742e-01,-3.46596e-01,5.80921e-02,2.98082e-01,2.61271e-02,1.17212e-01,-6.58694e-02,6.22440e-02,-1.97848e-01,-2.55772e-01,1.65578e-01,-2.03623e-01,1.74717e-01,-4.20228e-01,-3.68296e-02,1.65713e-02,-2.71041e-02,6.02418e-03,5.25206e-03,1.65428e-01,
-2.02262e-01,1.68206e-01,-2.62206e-01,-6.46264e-02,-2.31904e-01,-2.41360e-01,-2.52381e-01,1.06126e-04,1.44983e-01,-1.97636e-01,-3.52040e-02,1.88394e-01,-6.02374e-02,-7.09392e-02,1.39932e-01,-1.41782e-01,-1.78864e-02,-2.43943e-01,3.12392e-02,1.63148e-01,-1.06870e-01,2.91284e-01,-1.17513e-01,1.55692e-01,1.42014e-01,-1.91056e-01,9.16187e-02,6.78614e-02,-1.30214e-02,-3.05453e-01,
2.51821e-01,9.07600e-02,1.73776e-01,-8.89063e-02,6.44123e-02,2.40625e-01,-2.51168e-01,7.13663e-02,-2.03739e-01,1.66157e-02,1.16524e-01,-1.08817e-01,-2.36491e-02,-1.33045e-01,1.30943e-01,5.47182e-02,6.31311e-02,2.84676e-01,5.94526e-02,-3.05552e-01,-1.95634e-02,-2.53373e-01,1.84953e-01,-1.97032e-01,-2.93980e-01,3.21233e-02,-2.25212e-01,-2.25949e-01,6.36341e-02,1.61088e-01,
7.34069e-02,-3.33779e-01,-8.38771e-02,1.69785e-01,3.91920e-02,2.25778e-02,-3.63767e-02,-3.10943e-01,1.71533e-01,-5.11405e-02,1.50768e-01,-2.84472e-01,-8.98915e-02,2.12313e-01,2.37742e-01,2.20384e-01,-2.48933e-01,-3.01663e-01,-1.02154e-02,1.12811e-01,-9.23109e-02,2.41504e-01,-4.91517e-02,-1.38368e-01,1.81092e-01,-1.00757e-01,-3.16793e-02,-1.70762e-01,-1.81031e-01,8.03119e-02,
2.68031e-01,-8.32096e-02,2.40713e-01,1.53339e-01,-2.79856e-01,-1.02112e-01,2.52723e-02,9.27658e-02,1.29802e-01,-1.61999e-03,5.77456e-02,1.70529e-01,2.29118e-01,3.16211e-01,-2.45372e-01,3.43903e-02,1.98462e-01,5.15258e-02,1.74119e-01,1.98978e-01,2.48075e-01,-2.93564e-01,-3.36384e-02,1.28424e-01,-3.72372e-02,1.99876e-02,-2.83852e-01,9.30566e-03,-2.00099e-01,-7.83462e-02,
-1.01751e-01,2.83533e-01,1.50828e-01,5.43786e-02,2.76507e-01,-1.61786e-01,1.06762e-01,-1.04360e-01,2.27739e-01,1.77941e-01,-1.33383e-01,-5.28055e-02,-1.07559e-02,8.93883e-02,1.63904e-02,-1.34025e-02,-3.52868e-02,-1.16686e-01,-1.35699e-01,-2.04390e-01,5.11335e-02,1.75688e-01,2.07730e-02,3.01461e-01,1.91782e-01,6.45015e-03,-5.22300e-02,2.44584e-01,-2.58467e-01,-2.96041e-01,
-3.78547e-02,1.17031e-01,-1.07464e-01,-2.70041e-01,1.30864e-01,-7.61307e-02,2.08616e-01,-1.76996e-02,-2.02948e-01,1.51962e-01,-2.30256e-01,1.56867e-01,3.76554e-02,-2.16116e-02,-9.04090e-02,8.79293e-02,1.27108e-01,-2.74522e-01,-3.16770e-01,2.34480e-01,-1.98265e-01,-1.47172e-01,4.32855e-02,6.18994e-02,1.50219e-01,-1.51770e-01,-3.62556e-02,-2.93113e-01,5.73661e-02,6.50219e-02,
2.04285e-01,2.79182e-02,1.11414e-02,2.60863e-01,-3.00835e-01,4.42662e-01,2.66685e-01,2.72092e-01,-3.25787e-01,-2.05552e-01,-2.36439e-01,1.96946e-01,2.94511e-01,-2.64365e-01,5.66508e-02,2.94264e-01,-9.69095e-03,-7.50192e-02,3.21506e-01,-1.88677e-01,1.72229e-02,3.54293e-02,-3.13978e-01,2.09220e-01,-1.74663e-01,2.20193e-01,3.45890e-01,-1.44954e-01,2.40842e-01,-6.89462e-02,
-1.72790e-01,-1.15809e-01,1.61474e-01,7.84169e-02,-3.08980e-01,2.66529e-01,1.86976e-01,-1.26347e-01,-1.29548e-01,-2.01064e-01,1.26906e-01,-9.02600e-02,6.89798e-03,-2.70708e-01,-3.01663e-01,8.96298e-02,-3.74511e-01,-2.17178e-01,8.12621e-02,-2.44619e-01,-2.85832e-01,2.36198e-01,1.52601e-01,-7.97445e-02,-1.82394e-01,-2.99304e-01,-1.50716e-01,2.48850e-01,1.28423e-01,-2.40205e-02,
5.20651e-02,2.77879e-01,-2.57028e-01,-2.68856e-01,-8.28517e-02,1.14104e-03,1.74944e-01,3.07779e-01,6.73678e-02,-1.35296e-01,1.50703e-01,6.18659e-02,7.42049e-02,1.56677e-02,-9.72994e-02,-2.00875e-01,3.29936e-01,-2.09739e-01,1.90625e-01,2.22888e-01,2.69563e-01,2.21172e-01,-2.19738e-01,-1.28338e-01,-2.29315e-01,8.38342e-02,-1.73718e-01,1.79464e-01,1.96590e-01,-1.70945e-01,
3.02184e-01,9.79296e-02,2.01720e-01,-1.66178e-03,-2.93678e-02,-9.14277e-02,-2.14660e-01,9.98000e-02,1.49433e-01,-1.07208e-01,2.61832e-01,-2.31041e-01,5.64109e-02,-2.30239e-01,-2.62894e-01,2.55108e-01,-3.49223e-02,-9.99492e-02,-1.17665e-01,2.71715e-02,-2.13199e-01,2.78827e-02,1.08482e-02,-3.48185e-03,-4.17419e-02,7.83466e-02,2.49719e-01,5.18550e-02,2.61847e-01,2.21727e-01,
-2.95394e-01,-1.97496e-01,2.43089e-01,-2.33687e-01,1.98354e-01,3.51176e-01,2.03505e-01,2.44429e-01,3.38077e-02,-3.48128e-02,-1.85516e-01,3.03348e-01,1.07580e-02,-2.24836e-01,-2.03832e-01,-1.22407e-01,-1.18202e-01,2.77451e-01,2.90433e-01,-2.65242e-01,2.19097e-02,-5.89838e-02,4.78280e-03,5.85185e-02,1.81069e-01,1.58994e-01,1.97400e-01,-6.80122e-02,-1.83097e-01,1.73940e-01,
-2.87789e-02,-4.34329e-01,-7.70435e-03,2.39043e-01,2.03119e-01,-2.89000e-02,-1.69222e-01,2.21756e-01,-2.63023e-01,-2.76801e-01,1.27806e-01,-2.53279e-01,1.64948e-02,-2.20942e-01,5.64928e-02,8.32910e-02,2.58253e-02,9.17567e-02,2.17438e-01,-2.38042e-01,-6.44614e-03,-7.45581e-02,-2.71985e-01,1.43874e-01,-1.10427e-01,-8.45926e-02,1.79942e-01,2.63502e-01,-2.36510e-01,2.02960e-01,
-8.97768e-02,5.41623e-01,-5.52529e-02,2.02052e-01,4.43891e-02,-1.23139e-01,-2.45513e-01,-2.94064e-01,1.59060e-01,-4.60096e-02,1.30598e-01,-7.93088e-02,5.16110e-02,-1.39111e-02,-2.45358e-01,-4.13452e-01,1.02622e-01,2.50791e-01,-3.85112e-01,2.79194e-02,-4.06916e-02,-2.28285e-01,2.79681e-01,6.51484e-01,1.78405e-01,1.27631e-01,-9.38499e-01,3.00427e-01,2.76646e-01,4.73770e-02,
-1.80319e-01,-8.76590e-02,1.50858e-01,-2.12193e-01,1.53868e-02,-6.11148e-02,-3.09556e-01,-1.66500e-01,-1.63820e-01,-2.24424e-01,-1.95334e-01,-1.40888e-01,3.02047e-01,1.07777e-01,8.66592e-02,-4.16323e-02,-6.36029e-02,-4.75387e-02,-1.98678e-01,-2.92860e-01,2.32292e-01,2.58334e-01,-6.83456e-02,1.78213e-01,-8.91803e-02,-3.04142e-01,-1.03725e-02,1.53938e-01,-1.94147e-01,-3.13661e-01,
9.26314e-02,-2.28873e-03,1.93304e-01,1.66020e-01,7.04117e-02,-2.71682e-02,2.35309e-01,-1.29455e-01,-2.50850e-02,-2.35069e-01,-2.51251e-02,-4.60593e-01,2.05840e-01,4.39155e-02,-2.29571e-01,1.58282e-01,-2.19150e-01,-2.61917e-01,-3.41431e-01,-1.59356e-01,2.76399e-01,4.83936e-03,1.20753e-01,-2.02705e-01,1.39084e-01,1.99430e-01,-1.87279e-01,-2.98707e-01,2.03814e-01,-2.51996e-01,
-1.23000e-01,
-7.85082e-02,
-1.66235e-01,
-4.12472e-02,
2.57025e-01,
-2.83515e-01,
8.78911e-02,
-6.39914e-02,
-4.61191e-02,
-1.00084e-02,
8.95050e-03,
-1.32699e-02,
-4.94946e-02,
-1.86172e-01,
-6.60858e-02,
4.09433e-01,
-1.02013e-01,
1.26480e-01,
-1.84258e-01,
-2.44057e-01,
3.43070e-01,
-2.66457e-01,
-2.94539e-02,
2.34214e-01,
-8.98651e-02,
-1.42407e-01,
1.03586e-01,
-3.82705e-02,
-8.26104e-02,
-6.98203e-03,
1.25324e-01,1.08286e-01,1.72823e-01,1.27802e-01,4.06984e-01,3.68379e-01,2.08680e-01,-2.14260e-01,-7.58550e-04,1.69310e-01,-4.73285e-03,9.18644e-02,6.52544e-02,2.78555e-01,6.53867e-02,9.53601e-02,-1.37387e-01,-6.10662e-02,3.23846e-01,5.87401e-02,-8.26804e-02,-3.09920e-01,1.22870e-01,-3.27622e-02,-1.99449e-01,9.80310e-02,1.20236e-01,5.16168e-02,-3.61548e-02,1.78110e-01,
-7.86046e-02,-1.36354e-01,2.99585e-02,-7.76230e-02,2.95906e-01,4.00166e-01,3.03350e-01,1.74438e-01,-4.27475e-02,-3.10452e-01,-8.53477e-02,-2.96429e-01,8.54787e-02,-3.22107e-01,1.80625e-02,3.57325e-01,2.50357e-01,-5.41901e-02,1.53644e-01,3.31911e-01,1.54908e-02,-2.22789e-01,-1.90179e-01,-1.36494e-02,-2.24790e-01,-1.92636e-01,1.13989e-01,1.26968e-02,-2.84634e-01,8.09048e-02,
8.94877e-02,-1.90368e-01,-1.89264e-01,1.95432e-01,1.83214e-01,-4.51415e-02,1.11389e-01,-2.71187e-01,-4.42910e-02,-2.15477e-01,1.02928e-01,-3.00700e-01,-6.78236e-02,-7.21681e-02,7.90477e-02,3.40128e-01,-7.37709e-02,2.09846e-01,-3.74525e-01,-2.34787e-01,3.65230e-01,-2.23016e-01,1.37110e-02,4.03459e-01,1.66407e-01,1.07793e-01,3.82286e-01,1.31523e-02,-3.30211e-01,-1.66671e-01,
-3.70930e-01,-1.88404e-01,4.05785e-01,-1.80739e-01,-1.20232e-01,-2.56493e-01,-1.38814e-01,3.64955e-01,-4.35882e-02,-1.37601e-01,-9.13860e-02,-7.56272e-02,6.54617e-03,6.79934e-02,1.07711e-01,-5.36028e-01,-2.30042e-01,-4.38468e-01,-3.06399e-01,3.63523e-01,-4.39095e-01,6.28755e-02,-1.26221e-01,-2.84524e-01,1.41989e-02,-2.33070e-01,-3.23504e-01,1.18063e-02,-1.44778e-02,2.58141e-01,
-3.39498e-01,1.35497e-01,-1.44150e-01,-4.01605e-01,-2.61492e-01,1.79123e-01,-5.53278e-02,3.30149e-01,-4.75259e-02,1.58826e-01,3.77866e-02,-1.34651e-02,-6.95939e-02,1.96707e-01,6.01027e-02,-1.11112e-01,1.02855e-02,-1.19064e-01,-7.72028e-02,2.89363e-01,2.16371e-01,-2.28309e-01,-2.59652e-03,1.49036e-01,-1.11720e-01,-4.21020e-02,1.08546e-01,1.17175e-02,-3.27004e-01,-2.33675e-01,
-1.52845e-01,
-2.76793e-01,
-5.04560e-01,
5.48096e-01,
-9.39510e-03,
