// Neural Network File Format by Kyle Julian, Stanford 2016
6,5,5,30,
5,30,30,30,30,30,5,
0.000,
-36655.999999,-36656.000000,-3.141600,100.000000,0.000000,
36656.000000,36656.000000,3.141600,472.000000,1200.000000,
-431.467101,-0.000000,0.000000,249.000000,532.000000,9.330048,
73311.999999,73312.000000,6.283200,372.000000,1200.000000,423.773936,
6.63683e-02,-8.81623e-03,1.75861e-02,1.44693e-01,4.22867e-02,
7.08161e-01,-1.18626e+00,6.88331e-01,6.45815e-02,-5.49284e-02,
1.81885e-01,3.67576e-01,-7.74784e-01,2.38196e-02,5.41241e-04,
9.11991e-02,-3.03045e-02,1.70572e-01,-2.89559e-01,6.28584e-01,
-1.44507e+00,9.16614e-01,-5.38122e-01,4.67883e-02,-6.73975e-02,
1.30192e-01,-5.25645e-02,-3.34762e-01,-1.64960e-01,2.55577e-01,
-3.04099e-01,4.62455e-01,-9.95723e-01,1.46011e-02,1.16154e-01,
-7.68676e-02,9.39433e-04,-3.61113e-01,9.77236e-02,-2.41752e-01,
-1.36153e-02,-9.52555e-02,-2.46581e-01,-2.02149e-01,2.28448e-01,
-6.02971e-01,1.06002e+00,-1.51688e-01,-9.41161e-02,9.50784e-02,
-2.62890e-01,-1.43381e+00,1.04899e+00,3.14346e-02,-5.96110e-02,
-2.55014e-01,6.26168e-01,-8.21361e-01,8.63390e-02,-1.24174e-01,
2.20703e-02,-5.85878e-03,2.49847e-03,-5.16481e-03,-1.12199e+00,
1.87772e-01,9.51770e-01,7.57349e-01,-4.05949e-02,9.83042e-02,
-2.43744e-01,-1.52076e-01,-2.15862e-01,2.73522e-01,-8.69265e-01,
5.32602e-01,-8.81016e-01,5.90132e-01,-7.40794e-02,9.92263e-02,
-1.16366e-01,3.57609e-01,9.28322e-02,2.21093e-01,-7.91145e-01,
-2.09951e+00,3.47996e-01,-3.74759e-01,-5.59454e-03,-1.26454e-02,
1.16298e+00,1.84278e+00,2.07942e-01,1.76558e-03,-4.59289e-03,
3.78604e-02,-1.73050e-01,-5.58565e-01,-5.30432e-02,2.44616e-01,
-2.59245e-02,3.25695e-01,2.13041e-01,1.17798e-02,5.04450e-01,
-5.32504e-01,1.44988e-01,-4.64343e-02,-1.29682e-01,4.76628e-01,
-1.45994e+00,1.19359e+00,8.28627e-01,5.05067e-02,-5.74490e-02,
-2.25332e+00,-9.89288e-02,3.50321e-01,7.11550e-02,6.98688e-02,
1.05792e-01,1.13367e-01,5.11902e-01,-1.94334e-01,2.76300e-01,
8.98791e-02,-1.93022e+00,-2.03357e-01,-1.16747e-02,2.04599e-02,
-2.15935e+00,-1.36288e+00,-1.36225e-02,4.04482e-02,-6.25422e-03,
-3.18642e+00,5.07106e-01,2.64543e-01,1.34078e-02,-1.19679e-02,
2.62775e-01,3.88173e-01,3.86626e-01,3.32376e-02,-4.92113e-02,
1.30684e+00,-1.51865e+00,-2.89725e-01,6.43255e-03,-9.88673e-03,
1.57679e-02,
-6.61864e-02,
-4.15534e-01,
-6.32495e-02,
-9.63097e-02,
1.49225e-01,
-2.38767e-01,
1.47243e-01,
8.51693e-02,
1.90901e-01,
4.67444e-03,
-1.15739e-01,
-3.92096e-01,
3.60097e-02,
-2.33706e-01,
2.13509e-02,
-9.47261e-02,
4.19717e-02,
1.02085e-01,
3.33771e-01,
2.73928e-01,
1.17286e-01,
-5.23784e-02,
2.45906e-01,
1.45654e-01,
1.69218e-02,
2.19832e-01,
9.66797e-03,
1.12834e-01,
5.27814e-02,
1.06634e-01,-2.09660e-01,7.58409e-01,-9.36539e-02,-2.58055e-01,1.78030e-01,2.30518e-01,-1.55534e-01,-1.46720e-01,6.06945e-02,9.37467e-01,-2.54908e-02,-4.20975e-01,-3.96316e-01,2.20583e-01,-5.12513e-03,-6.68395e-01,7.68001e-02,2.16808e-01,3.43320e-01,4.25268e-02,2.46531e-02,-5.90973e-02,1.12772e-01,-2.56984e-01,3.50669e-01,-1.22875e-01,1.71130e-02,-4.10169e-01,1.18297e-01,
1.13146e-01,2.09043e-01,-1.55991e-01,-4.76284e-01,3.03876e-02,3.13841e-01,-6.81462e-01,-3.79183e-01,5.78178e-01,-2.31573e-01,3.66912e-01,7.46975e-01,-6.47901e-01,-4.79947e-02,-2.34052e-01,-1.56954e-01,1.70798e-01,4.21868e-01,-6.89038e-02,-6.08934e-02,6.44745e-02,3.68344e-01,-6.28224e-01,3.35139e-01,-4.79065e-02,-6.36465e-01,3.22365e-01,-9.33951e-01,4.19038e-01,-8.08542e-03,
-1.31083e-01,-6.33232e-01,-4.99785e-01,2.78626e-01,1.67314e-01,2.90499e-02,2.77262e-01,-2.10239e-02,-2.12489e-02,-6.04135e-01,-3.39448e-01,-1.86165e-01,-2.09995e-01,2.95037e-01,-1.62202e-01,-9.46769e-03,4.93407e-01,-2.36233e-01,-1.60174e-01,5.85357e-02,1.51832e-01,-1.77485e-01,4.54839e-01,-3.46881e-01,-4.04974e-01,1.98960e-01,4.79398e-02,1.98835e-01,-1.88128e-01,6.49901e-01,
-6.52143e-02,-1.81046e-01,8.33926e-01,1.41449e-01,4.26257e-01,1.14721e-01,8.10929e-01,-6.87739e-02,-1.25187e-01,2.67114e-01,2.68792e-02,2.26620e-01,1.29594e+00,-2.98397e-01,-3.80787e-01,4.32404e-01,7.85529e-01,1.99171e-02,3.36222e-02,2.33994e-01,-6.29622e-01,2.95100e-01,-5.65579e-01,3.65811e-01,-2.38425e-01,-1.53678e+00,6.09412e-02,-2.59655e-01,3.72308e-01,-1.13094e-01,
2.12274e-02,-7.26195e-02,2.44368e-02,-9.04458e-02,5.41435e-02,-2.35631e-01,3.97320e-01,6.69905e-02,1.02886e-01,2.37956e-01,2.03364e-01,-1.45966e+00,4.16154e-01,2.23382e-01,1.22522e-01,1.32713e-01,2.59813e-02,-8.05326e-01,1.58142e-03,-2.84590e-01,4.00249e-02,3.42003e-02,2.55452e-01,2.65610e-01,1.01902e-01,-2.11611e+00,1.48940e-01,-2.64594e+00,1.85436e-01,-1.32309e-01,
-1.22567e-01,-7.32183e-01,-1.02398e-02,1.22692e-01,-1.53611e+00,1.32035e-01,7.72698e-01,4.13438e-02,1.71753e-01,-1.00650e-01,-3.77218e-01,-9.29018e-02,1.91136e+00,7.73988e-01,-3.66361e-02,-1.86425e-01,5.70767e-01,5.95794e-01,2.03391e-01,-5.77428e-02,-1.85518e-01,-1.75417e-01,1.01633e+00,4.91757e-01,-1.15989e-01,-1.79669e-01,-4.22826e-01,-1.63252e+00,4.08970e-03,3.66964e-01,
-3.81027e-01,3.52995e-01,9.74282e-01,-1.21097e+00,1.55136e-01,-4.98801e-01,7.68735e-01,3.36203e-01,-5.19968e-01,2.58515e-01,1.38037e-01,3.26320e-01,1.34382e+00,-4.70736e-01,-2.71979e-01,1.20617e-02,4.40409e-01,2.57418e-01,4.85362e-02,-8.43782e-01,-9.37925e-01,-6.73018e-01,-1.76670e-01,2.54931e-01,-7.29971e-01,2.16655e-01,-4.54413e-03,-1.83770e-01,3.33175e-01,-4.29564e-01,
-1.37890e-01,-1.52131e-01,3.26381e-01,2.04804e-01,8.86696e-01,-9.82296e-02,-6.63985e-02,6.99474e-02,-3.68563e-01,1.59217e-02,-8.80614e-02,-1.27196e-01,4.02742e-01,-2.65757e-01,-5.33299e-01,7.00928e-01,6.71551e-01,2.39901e-01,-1.09135e-01,9.48804e-02,-2.96580e-01,5.23355e-01,-8.57301e-01,-2.73572e-01,-4.70805e-01,3.75415e-01,-5.54459e-02,2.62966e-02,-1.30263e-01,-4.09198e-01,
1.03216e-01,-2.63547e-01,-2.67899e-01,-7.72267e-02,-6.43330e-02,-5.92090e-02,2.87673e-01,-2.14763e-01,9.64604e-02,-1.86894e-01,-3.61987e-02,1.52110e-01,1.58780e-01,-1.82561e-01,1.88537e-01,-8.51559e-02,-3.03929e-02,4.45868e-02,-5.26296e-02,-2.32850e-01,-2.12065e-01,2.18976e-01,1.12986e-01,-1.95379e-01,1.19901e-01,-1.03436e-01,-3.09873e-01,-2.99186e-01,-3.07651e-01,-2.03219e-01,
1.19069e-01,-2.68225e-01,-2.02697e-01,8.11064e-02,1.69863e-01,-2.93911e-01,-2.10327e-01,-1.37993e-01,-2.12987e-01,-2.16268e-01,3.13349e-01,-1.79463e-01,-7.78331e-02,-1.51160e-02,-2.20540e-01,-8.49610e-02,-1.12365e-01,9.31581e-02,1.30289e-01,-1.03869e-01,1.04868e-01,-2.00879e-01,-9.19749e-02,-2.09971e-01,-1.98119e-02,-2.40038e-01,-1.32067e-01,-2.84939e-01,-2.34987e-02,-2.14352e-01,
-3.99552e-01,1.89797e-01,1.51674e+00,6.88754e-01,1.27943e-02,-2.93712e-01,-3.22591e-01,1.97589e-01,-2.05695e-01,-3.83599e-01,5.64908e-01,-4.39077e-01,8.09531e-01,3.27301e-01,6.96312e-02,-6.66839e-01,-9.18514e-02,-6.75618e-01,-5.95968e-01,-4.36101e-02,-3.18549e-01,1.74405e-02,1.04338e+00,1.61578e-01,2.13623e-02,-5.05515e-01,2.12839e-01,-9.06643e-02,-3.94374e-01,4.14436e-01,
-3.08874e-01,1.20632e-01,-6.42960e-01,3.96147e-01,-1.23685e-02,-1.90472e-02,-7.93220e-02,2.36282e-01,-4.58720e-01,-1.54379e-01,-1.18901e-01,1.73617e-01,-7.40512e-01,6.94284e-01,1.04760e-01,-1.59216e-02,2.97972e-01,2.31729e-01,9.73136e-03,8.62948e-02,3.26376e-01,-3.73520e-01,4.13835e-01,1.32973e-01,-4.78570e-01,8.67474e-01,-4.42730e-02,3.22954e-02,-2.36376e-01,-3.79791e-01,
2.34586e-02,4.09091e-01,6.89127e-01,-3.78933e-02,5.72668e-01,-1.18322e-01,5.25068e-01,4.18323e-01,-1.10632e-01,-7.47535e-02,2.72307e-01,-6.21166e-01,-7.85168e-01,4.69569e-01,2.48041e-01,3.21846e-01,5.30159e-02,1.09167e+00,-6.79966e-01,-4.63695e-01,6.65242e-01,-5.15369e-01,-2.00099e-01,-3.83959e-01,3.45073e-01,2.48591e-01,3.40708e-02,-1.47167e-01,1.45228e-01,-3.20078e-01,
-2.32675e-01,2.43375e-01,-1.70696e-01,3.51060e-01,-4.46865e-01,-3.87425e-01,3.52242e-01,2.83019e-01,-3.19278e-01,3.78674e-01,5.15273e-01,-2.09384e+00,4.36845e-01,-3.71435e-01,4.19298e-02,2.21919e-02,-1.50855e-02,-2.98074e-01,-1.96657e+00,-6.51556e-01,2.93096e-01,-3.16198e-01,1.76853e-01,4.72068e-01,3.19321e-01,-4.02863e-01,-4.28204e-02,1.11623e-02,-2.08785e-01,-1.81274e-01,
-5.12898e-02,1.18923e+00,-6.34993e-01,-2.09794e-01,-3.10091e-01,-9.50052e-03,-2.92750e-01,2.43368e-01,-3.59611e-01,3.59053e-01,1.43831e-02,-4.43707e-02,6.98341e-01,4.76550e-01,8.13929e-01,-2.63652e-01,-2.46833e-02,1.69122e-02,-5.41175e-01,2.98887e-01,-2.47810e-01,4.95770e-01,2.42235e-01,-1.07197e-01,2.19175e-01,-2.09108e+00,6.29993e-02,5.85349e-02,-5.84965e-01,-2.80502e-01,
-2.94630e-02,-5.49942e-01,-3.94379e-01,-4.37396e-01,4.81726e-01,3.18025e-01,-3.20401e-01,-4.18483e-01,3.86913e-01,-2.77154e-01,-5.53426e-01,2.68042e-01,-8.79699e-01,2.04737e-01,2.39149e-02,1.24900e-01,1.02359e-01,-1.33341e-01,4.33320e-01,5.81413e-01,2.43582e-01,-3.50009e-01,6.32836e-01,6.76400e-02,-6.46639e-02,8.87522e-01,-3.68004e-01,6.80640e-02,7.37233e-02,-2.72638e-02,
-6.52866e-02,5.80009e-01,-1.42819e-03,3.25508e-02,6.75278e-01,4.11330e-02,5.99035e-01,4.04101e-01,1.19522e-01,2.21202e-01,7.11593e-01,3.42893e-01,-3.63372e-01,-9.66127e-02,-2.33333e-02,-2.16431e-01,-1.37017e-01,1.01992e-01,2.92873e-01,-8.66027e-02,2.29048e-01,2.53369e-02,5.63515e-01,-2.64478e-01,-2.13598e-01,-7.68119e-01,-4.80864e-01,-2.21078e-01,8.95996e-02,-3.02320e-02,
-9.43464e-02,-2.03981e-02,-4.86638e-01,-5.71539e-02,9.95268e-01,-2.77956e-01,4.22965e-01,-3.01265e-01,2.27130e-01,-9.45377e-02,-7.45850e-01,-1.70741e-01,2.85593e-01,4.90659e-01,4.22442e-01,2.13496e-01,-2.34791e-01,5.22086e-01,-1.71819e-01,-2.18677e-01,-6.46888e-02,1.07823e-01,-4.05523e-01,2.77233e-01,-7.73730e-02,6.43157e-01,2.93264e-01,-8.67951e-01,1.42279e-01,4.07134e-01,
1.78278e-01,-2.61816e-01,1.28405e-01,-3.09077e-01,-6.34072e-01,1.32277e-01,4.28180e-01,8.68397e-02,5.16045e-01,-4.51629e-01,-1.67521e-01,-4.00869e-02,-2.71522e-01,8.67429e-01,4.37750e-01,4.28849e-01,-1.66104e-01,5.32265e-01,1.82846e-01,1.66498e-01,1.49300e-02,-2.85147e-02,5.64603e-01,-2.96052e-01,6.04453e-02,-2.25735e-01,2.94955e-01,4.19457e-02,-2.31053e-02,5.40889e-01,
2.40425e-01,8.58659e-01,-1.61715e+00,-1.94480e-01,5.69568e-01,2.35606e-01,-3.18535e-01,3.10575e-01,-2.22795e-02,5.92759e-02,-7.73471e-01,-7.12619e-01,-5.36596e-01,2.50201e-01,3.71946e-01,1.83065e-01,-4.61805e-01,4.78551e-01,-5.48349e-01,3.60377e-01,-9.74409e-02,1.21215e-01,-1.13738e+00,-1.29300e-01,-8.18596e-02,-4.12752e-01,4.23465e-01,-1.34864e-01,-4.55645e-01,-6.82203e-01,
1.11374e-02,-2.22569e-01,-7.96423e-01,-1.47967e-02,2.41443e-02,1.61931e-01,-1.48816e-01,6.64760e-02,-1.08574e-03,5.81180e-01,-6.39007e-02,-2.14138e-01,-3.44796e-01,-9.10989e-02,7.84735e-02,-3.53946e-02,-1.09293e-01,5.75524e-01,-7.02147e-01,-8.15536e-02,-1.26494e-01,-9.42833e-02,1.40629e-02,6.32243e-01,1.65382e-02,-1.49310e-01,5.67359e-01,2.36154e-01,-2.34630e-01,-8.09144e-01,
-2.39654e-01,-2.86041e-01,8.48346e-01,3.17882e-01,5.37751e-01,-1.91236e-01,2.26484e-02,5.97092e-02,-1.59290e-01,3.22819e-01,-4.63213e+00,4.47886e-01,7.47043e-01,-1.75008e+00,-7.57962e-01,-5.37916e-01,6.30839e-01,3.70476e-01,-7.18848e-01,6.30849e-02,3.89093e-02,1.36443e-01,-4.28232e-01,4.23499e-02,-4.62457e-01,2.66193e-01,1.17443e-01,-5.72436e-02,4.02286e-01,-1.11993e+00,
1.83617e-01,-7.57234e-02,4.97432e-02,1.33418e-01,3.40163e-02,1.86877e-01,1.96034e-01,6.97261e-02,-2.09652e-01,-5.96628e-02,8.13666e-03,-2.95263e-01,-1.09520e-01,-8.18180e-02,1.22597e-01,2.43744e-01,1.22416e-02,2.24904e-01,7.06054e-02,-2.52783e-01,1.22609e-01,2.35553e-01,1.55073e-01,-2.13249e-01,-2.66170e-01,-2.57979e-01,1.02901e-01,-9.38916e-04,-3.13995e-01,2.36737e-01,
1.29658e-01,-1.13597e-01,-1.00715e+00,-2.09996e-01,-3.79895e-01,2.01410e-01,-4.39406e-01,1.78364e-01,1.83310e-01,-1.36196e-02,-2.32581e-02,-5.55605e-01,4.10954e-01,3.60698e-01,2.27605e-01,-6.20858e-01,-2.14805e-01,-6.00119e-01,2.37136e-01,-7.38031e-02,4.89653e-01,-3.71673e-01,7.43314e-01,-6.89931e-01,2.86396e-01,3.60860e-01,-2.61858e-01,1.01232e+00,1.04837e-01,3.52494e-01,
2.59256e-01,-4.44028e-01,1.62329e-01,-4.47804e-01,-4.23790e-03,7.70942e-02,-1.36257e-01,-2.03748e-01,4.13379e-02,-2.90785e-01,-2.82507e-01,-4.13512e-01,2.92324e-02,9.70559e-01,4.51018e-01,-1.17145e-01,-3.01489e-01,1.47233e-02,-2.41167e-01,1.58629e-01,3.90742e-02,-1.98986e-01,8.52104e-02,-2.82721e-01,6.30187e-01,1.31901e+00,-2.39969e-02,1.50617e-01,9.24663e-02,1.26584e-01,
-1.37928e-01,-3.39230e-01,1.60911e+00,1.07722e-01,-3.90041e-01,-3.03779e-01,5.46581e-01,2.02702e-01,-1.59095e-01,1.72976e-02,3.51600e-02,5.20841e-01,5.35212e-01,1.70532e-01,6.76957e-02,2.52062e-02,8.50230e-02,2.17066e-01,-1.05925e+00,1.77964e-01,-1.85746e-01,1.31253e-01,8.84408e-01,1.45951e-01,9.92409e-02,-3.49586e-02,3.46391e-01,1.04784e-01,-1.44156e-01,2.41565e-01,
-6.01287e-02,-1.08640e-01,2.52882e-01,-1.17228e-01,5.26347e-02,-8.62776e-02,-1.48671e-01,-2.62646e-01,-2.93341e-01,-2.99354e-01,-2.24609e-02,1.40818e-01,-1.18638e-01,1.05548e-01,6.29070e-02,-1.12602e-01,-3.05587e-01,-1.14841e-01,-1.91642e-02,9.21549e-02,-2.89538e-01,-1.17481e-01,3.53176e-02,-2.02173e-01,-1.28319e-01,-2.27492e-01,7.18194e-03,-2.42710e-01,-3.08434e-01,-8.23491e-02,
8.97454e-02,-4.80939e-01,5.57901e-01,7.10553e-02,2.70972e-01,-1.61025e-01,-5.39788e-01,-9.67748e-02,1.11575e-01,4.16075e-01,-1.51173e-01,-1.10354e+00,-1.68235e+00,5.56981e-01,-2.53384e-01,-5.65324e-01,-8.26153e-02,-1.25093e-01,4.71328e-01,-4.37643e-02,9.46770e-02,-1.66700e-01,7.14626e-03,1.25453e-01,-1.16839e-01,-5.45175e-01,-1.14235e+00,2.72399e-01,2.93449e-01,6.70125e-02,
-1.16536e-01,3.55468e-01,1.78290e-01,3.10884e-01,2.67784e-01,-5.50785e-01,1.35042e-01,4.52555e-01,-3.15298e-01,5.02833e-02,4.97135e-01,-1.20147e-01,7.39790e-01,-1.26256e-01,4.97726e-01,2.87861e-01,-1.56464e-01,-1.38563e+00,-3.35210e-01,-7.20388e-01,7.72768e-02,2.37517e-01,-1.30196e-01,1.58913e-02,1.34258e-01,-4.49175e-01,3.39820e-01,-3.11836e+00,1.83034e-01,-1.42902e-01,
-1.24758e-01,-3.72552e-01,-1.05072e-01,1.13729e-01,-1.14658e+00,3.36072e-01,4.77250e-01,4.08333e-01,-2.60737e-01,-9.24749e-02,5.04112e-01,2.55994e-01,-1.73211e-01,1.28366e-01,-8.35051e-01,-2.48368e-01,4.33080e-01,-1.31059e+00,4.34879e-01,3.84622e-01,-2.24662e-02,-3.21387e-02,-4.29469e-01,-3.40649e-01,-1.69573e-01,1.67985e-02,-7.18536e-02,-1.86370e+00,-7.32290e-02,1.63508e-01,
2.01509e-02,
3.33036e-02,
3.57752e-01,
-2.73009e-01,
-1.35378e-01,
-1.94511e-01,
2.70543e-01,
2.74390e-01,
-9.99165e-02,
-1.06925e-01,
2.28342e-01,
6.21015e-02,
-3.78735e-01,
-1.37803e-01,
1.17297e-01,
1.10481e-02,
8.10263e-02,
2.00305e-01,
-5.59962e-01,
-3.09699e-02,
-7.42674e-02,
-1.33273e-01,
-3.41068e-01,
5.31897e-02,
2.21270e-01,
-6.96354e-02,
-5.55324e-02,
1.12915e-01,
-3.18047e-01,
-1.03534e-01,
2.56161e-03,-1.47518e-01,2.45098e-01,-8.52360e-01,1.10147e-01,2.61476e-01,-2.68297e-01,3.30063e-02,-2.59537e-01,2.19712e-01,-8.50034e-02,-4.70432e-01,-1.99395e-01,8.58329e-01,5.25136e-01,1.72023e-01,2.96550e-01,1.52190e-01,-1.67182e-01,-4.02551e-01,1.12616e-01,-1.28805e+00,-1.03290e-01,-8.98221e-01,-2.19582e-01,-6.98717e-02,1.22251e-01,-2.47479e-01,-3.43397e-01,2.98053e-01,
6.06050e-01,-5.76534e-03,-3.98070e-01,6.16604e-01,-9.20324e-02,5.67262e-01,1.04605e+00,3.74376e-01,-9.53756e-02,-3.42083e-01,6.15786e-02,-7.61608e-02,3.95094e-02,1.61797e-01,7.30647e-02,7.68329e-02,-1.43776e-01,1.92929e-01,-1.20111e-01,-2.85240e-01,1.64276e-01,2.41728e-01,-7.98808e-02,-2.91530e-01,3.41810e-01,3.14015e-01,-2.27445e-02,8.54911e-01,2.80259e-01,-9.22323e-02,
2.85868e-01,3.80486e-01,2.17514e-01,-5.79261e-01,5.57445e-01,5.09014e-02,-4.62811e-01,1.02016e-03,1.14545e-01,1.39569e-01,2.29193e-02,-1.40679e-01,9.89075e-02,-1.17375e+00,6.15558e-01,-6.31306e-02,6.70874e-01,1.76032e-01,2.49930e-02,7.45231e-01,3.48405e-02,-3.46886e-02,3.08216e-01,-6.24032e-01,-4.63220e-02,1.07306e-01,2.19407e-02,-1.06582e-01,-7.56692e-01,1.90022e-01,
3.24509e-02,-2.11296e-01,3.43695e-01,1.37740e-01,-4.91011e-01,-8.77939e-01,2.53983e-01,2.27488e-01,1.89052e-01,-1.85198e-01,8.12771e-02,7.34034e-02,-4.35234e-02,-6.02763e-01,8.95469e-02,1.59482e-01,1.22203e-01,-2.82087e-01,1.78451e-01,-5.02613e-02,-3.69635e-01,3.98289e-01,1.84215e-01,1.34148e-01,-1.78455e-01,5.43640e-01,1.06759e-01,1.69520e-01,7.67768e-01,-4.85725e-01,
-1.29255e-01,-3.61931e-02,-1.53652e-01,2.42212e-01,1.07256e-01,2.21296e-01,1.41339e-01,-1.12767e-01,1.04976e-01,-1.34236e-01,9.70193e-02,-2.71305e-01,1.21443e-01,-3.82420e-02,-2.80441e-01,-1.32768e-01,-2.45376e-01,3.33988e-02,1.80491e-01,1.95923e-01,-1.21334e-01,1.85407e-01,-1.69773e-01,-6.92225e-02,-9.82832e-02,4.24308e-03,1.33812e-02,-1.47253e-01,1.78700e-01,-2.16643e-01,
1.86855e-01,2.36204e-01,1.73284e-01,-4.77873e-02,-1.22071e-01,-3.48122e-01,2.36994e-01,-2.89404e-01,-3.31701e-02,-4.59534e-02,-8.23807e-02,1.32066e-01,-2.46758e-01,9.89103e-01,1.32022e-01,2.39831e-01,-3.45351e-01,-1.82997e-01,-3.56779e-01,-1.98747e-01,4.91539e-02,4.29806e-01,-2.75663e-02,5.35872e-01,4.03613e-01,-1.15205e-02,-3.25592e-02,4.56313e-01,4.44401e-01,9.17025e-02,
1.80402e-01,-3.23963e-01,-3.16671e-01,2.88360e-01,-3.88663e-01,2.14343e-01,1.87981e-01,-4.47443e-02,1.65873e-01,2.76526e-01,-8.83630e-01,1.85061e-01,-3.07657e-01,-8.08460e-01,-8.11709e-02,2.56809e-01,5.15090e-01,1.23545e-01,8.60141e-01,4.07223e-01,2.22355e-01,2.99976e-02,-3.05512e-01,-9.19946e-01,-8.05079e-01,-2.83215e-01,-2.96493e-01,-4.95518e-01,-1.28959e-01,2.89305e-01,
-4.80565e-02,-3.39913e-01,3.51107e-01,-4.56604e-01,-2.69285e-01,-8.86621e-01,-1.25182e+00,2.48428e-01,5.24243e-02,-2.67639e-02,-8.57173e-01,-1.52133e-01,-1.56993e-03,-3.89738e+00,-5.79033e-01,-8.72471e-01,-5.15561e-01,5.40363e-01,-4.66457e+00,5.95531e-01,2.40917e-01,-3.39365e+00,2.81150e-01,-2.00480e+00,1.40621e-01,-1.23600e-01,2.55598e-02,-8.53995e-02,-2.08202e-01,1.16488e-01,
-1.68473e-01,-4.21872e-02,3.67282e-01,1.48231e-01,-3.21350e-01,-3.25890e-01,-5.20454e-02,-1.48841e-01,9.59506e-02,-2.58745e-02,4.03073e-01,-3.98356e-01,-3.02830e-01,-9.89281e-01,5.52781e-02,-2.00508e-01,4.22435e-03,2.24642e-01,6.79465e-02,1.57068e-01,-1.51378e-01,-2.19280e-01,-7.62793e-02,1.78007e-01,-2.54362e-01,3.80685e-01,2.75749e-01,1.46226e-01,7.72203e-01,-1.20155e-01,
-2.37598e+00,-2.50348e-01,4.75966e-01,-1.50815e+00,-8.75840e-01,-1.93022e-01,-2.65652e-01,7.99044e-02,1.57165e-01,2.66290e-01,3.25142e-01,-5.37823e-01,4.41372e-02,-2.90459e-01,1.81291e-01,2.66050e-01,-2.27497e-01,-2.22997e-01,-4.92596e-01,-6.55360e-01,-1.40297e-01,-2.19554e-01,3.08594e-01,6.53239e-02,-5.82845e-01,-2.47347e-03,-8.01407e-02,2.87715e-01,3.68333e-01,-6.70140e-02,
-8.84022e-02,-2.92129e-01,-2.80537e-01,3.09909e-01,-1.30938e-01,-2.22902e-01,5.34272e-01,-2.28031e-01,2.01144e-01,2.87567e-01,-1.75969e-01,2.52642e-01,-1.93773e-02,7.29076e-01,-3.48653e-01,1.26628e-01,6.30260e-02,1.77443e-01,-6.46889e-02,-4.05191e-01,1.40192e-01,2.13018e-01,-7.39378e-02,6.65770e-03,-4.61894e-02,-3.41098e-01,2.62996e-01,-7.61567e-02,-5.11258e-02,2.72515e-03,
3.88831e-01,3.94383e-02,-2.32441e-01,8.58307e-01,6.87722e-01,-4.06410e-01,9.55485e-01,1.53671e-01,-8.17733e-02,2.42817e-01,5.61805e-01,8.94944e-02,1.79327e-01,-5.00334e-01,-7.79175e-01,-4.59767e-01,-3.85687e-02,5.47833e-01,1.22970e-01,-4.54026e-01,2.41715e-01,-1.94408e-01,-2.97975e-01,5.22671e-01,4.53515e-01,-1.11182e-01,2.54594e-01,-7.99414e-03,-3.41282e-01,2.06105e-01,
1.80992e-01,2.40236e-01,-2.12104e-01,-1.09580e+00,-2.06435e-01,1.19225e-01,-5.67406e-01,-4.86528e-02,-3.05565e-01,-4.89549e-03,-5.76792e-01,7.85339e-02,8.60646e-01,-1.75313e+00,-3.67384e-01,3.15573e-02,-1.24911e-01,-6.66048e-01,2.38844e-01,3.51518e-01,1.19714e-02,-1.02152e+00,7.50734e-02,-6.96488e-02,-1.97650e-01,5.47069e-02,-1.30128e-01,1.01531e-01,1.46436e-01,1.01837e-02,
4.12678e-01,1.82639e-01,-1.58770e-01,-1.01607e+00,-1.42075e-01,3.76741e-01,-8.00457e-01,2.50742e-01,-1.60251e-01,-2.94275e-01,-1.78234e-01,1.40473e-01,-1.04703e-01,1.13216e-02,-1.71614e-01,1.69120e-01,2.17890e-01,2.55092e-02,3.56559e-02,2.07675e-01,-1.01111e+00,1.40383e+00,2.33967e-01,-7.71153e-01,-4.99395e-01,-1.10981e+00,-2.05824e-01,-9.53469e-02,8.01029e-02,-1.66079e-03,
2.51528e-01,-1.34278e-01,8.93173e-02,-5.19798e-01,-2.36440e-01,-4.68302e-01,9.64930e-02,-7.44338e-02,3.12777e-01,-8.98520e-02,-1.40576e-01,-1.15024e-01,3.08384e-02,8.68886e-02,-3.53848e-01,6.38143e-02,5.08204e-01,3.82427e-01,-2.64670e-01,8.99533e-02,-3.33606e-01,3.04638e-01,6.77143e-02,3.87935e-01,1.44842e-01,5.81525e-01,-2.95542e-01,2.69972e-01,5.28860e-01,2.25513e-03,
1.52237e-01,5.85075e-01,-3.78509e-01,-1.71166e+00,-2.01602e+00,1.51024e+00,-3.01906e-01,-5.16777e-01,-2.07366e-01,4.92360e-02,1.73791e-02,-2.62706e-01,-6.99920e-02,-5.24327e-01,2.44593e-01,-4.57033e-01,-1.68695e-01,-1.05243e-01,-4.62988e-01,2.04064e-01,5.30163e-02,6.89180e-01,2.17442e-01,-2.58212e-01,2.30005e-01,-9.87795e-02,2.35454e-01,-8.83557e-01,-6.86532e-01,7.93179e-01,
-4.18679e-02,3.92298e-01,-7.57829e-02,6.36287e-01,-5.10008e-01,9.05380e-02,5.33529e-01,-3.76450e-01,-2.40388e-01,1.21831e-01,7.35423e-02,-2.17839e-01,-2.77118e-02,-3.44360e-01,-4.11280e-01,1.82667e-01,-5.43806e-01,-4.15333e-02,-5.08358e-01,-3.20729e-01,6.25523e-02,-2.52829e-02,2.01491e-01,8.88036e-01,5.87757e-02,3.64505e-02,1.78970e-01,6.07123e-02,1.17988e+00,-4.50715e-01,
-5.07601e-02,-1.04184e-01,3.88124e-02,-4.63433e-01,-1.06819e+00,-5.20315e-01,-2.50993e-01,-6.92187e-01,2.67638e-01,9.65264e-02,6.24851e-01,1.59029e-01,1.86484e-01,-7.30411e-01,3.03821e-01,8.69915e-02,-1.23163e-01,-1.76957e-01,2.89955e-01,7.06334e-01,-5.29682e-01,5.75396e-01,2.42075e-01,2.10787e-01,1.12927e-01,2.27986e-02,-5.76815e-03,-1.34728e+00,9.63867e-01,2.71313e-02,
1.52612e-01,-1.61259e-01,-1.11700e-01,4.28537e-01,1.17274e+00,5.23832e-01,3.74319e-01,7.92377e-02,-2.50769e-01,9.86139e-02,-1.36610e+00,3.99853e-01,-4.81301e-01,2.87125e-02,-3.28623e-01,4.09549e-01,1.05920e-01,-2.39211e-01,3.59383e-01,1.67430e-01,2.79910e-01,2.00442e-01,-2.04930e-01,-6.70390e-01,-1.06717e+00,-3.96466e-01,-7.11578e-02,-4.21755e-01,-2.11320e-01,-5.23616e-03,
-1.86877e-01,-6.26080e-02,-4.77641e-01,7.56269e-01,-8.12212e-01,1.77726e-02,-1.55220e-01,-3.12519e-01,2.82137e-01,1.44882e-01,-2.72705e-01,-1.56029e-01,2.98970e-01,6.09819e-02,8.11706e-02,3.53821e-01,-1.49418e-01,5.27326e-02,-1.92042e-01,-9.86724e-02,2.29231e-01,-1.38114e-01,-2.71603e-01,3.97128e-01,3.26697e-01,-1.04145e-01,1.39460e-01,1.93913e-01,6.02672e-01,-7.52565e-02,
-1.40225e-01,-1.77562e-03,3.48320e-01,-8.64278e-01,3.54354e-01,6.00183e-01,2.64725e-01,3.44415e-01,-1.19972e-01,2.43252e-01,-5.58839e-01,-3.49789e-01,2.41307e-01,6.39490e-01,1.40310e-01,6.82065e-02,-5.06802e-02,-2.92830e-02,3.57743e-01,2.28533e-02,-2.63603e+00,-5.73163e-01,-9.06295e-02,-3.10821e-01,-2.57390e-01,2.01787e-02,2.83221e-01,-3.85803e-01,1.92864e-01,-4.92613e-01,
-1.55923e-01,-2.25395e-01,1.54401e-01,-4.31079e+00,1.70225e-01,-2.98131e-01,1.45024e+00,1.31013e-01,-7.31693e-02,2.38566e-01,5.85607e-03,-8.28709e-02,1.37326e-01,-1.57823e-01,-8.53347e-01,5.59853e-01,-3.93985e-01,5.31292e-02,-4.25959e-01,3.80646e-03,-4.10929e+00,-5.22674e-01,1.81206e-01,-5.06430e-01,2.51505e-01,-7.21084e-01,-1.98204e-01,-4.03522e-01,1.19329e+00,-2.83283e-01,
-8.85185e-02,1.79932e-01,1.42996e-01,-6.74312e-01,-1.64799e+00,-8.51887e-01,3.58929e-01,-4.74345e-01,-2.83256e-01,2.33393e-01,1.01210e-02,-3.57785e-01,-5.01137e-02,-7.78272e-02,1.77981e-01,-5.29565e-03,-3.03172e-01,1.49858e-01,-3.52835e-01,-3.95430e-01,-2.62928e-01,-3.84685e-01,-9.45655e-02,5.70826e-01,-1.59775e-04,5.91986e-01,6.74992e-02,8.30040e-02,-1.46944e-01,-5.23532e-03,
-1.66296e-01,2.32161e-01,5.12730e-01,-8.87205e-02,-1.99413e+00,6.92817e-01,-2.68743e-01,5.19536e-01,-8.77671e-02,2.64480e-02,-6.73516e-01,-1.06458e-01,1.72378e-02,1.95102e+00,-9.51193e-02,-1.05215e-01,-6.42030e-01,6.08814e-01,-1.30745e+00,7.15964e-01,4.35534e-02,-4.98663e-02,-9.71340e-02,-9.93161e-01,1.80255e-01,3.77084e-02,-2.65386e-01,-6.39110e-01,-2.51088e+00,2.27901e-01,
-3.84249e-01,-1.40220e-01,-1.20934e-01,5.98245e-02,3.30039e-02,-3.74723e-02,-3.82054e-01,1.70596e-01,-2.76490e-01,-2.25197e-01,6.89079e-02,-2.72932e-01,1.20382e-02,-1.18735e+00,-2.57652e-01,-1.88310e-01,-3.71183e-02,1.87754e-01,-9.06191e-01,-3.20149e-01,-1.12455e-01,2.84184e-01,-3.03385e-01,6.08610e-03,4.92691e-02,3.03080e-01,-2.23822e-02,3.66117e-01,1.69405e+00,1.48850e-01,
2.42843e-02,2.12129e-02,-2.92911e-01,4.64464e-02,6.26322e-01,-1.31986e-01,5.10121e-02,3.21132e-01,-1.54377e-01,2.97709e-01,-1.53533e-01,-1.73256e-01,1.05442e+00,-1.58408e+00,-8.34607e-01,3.96867e-01,1.09023e-01,4.17425e-02,7.19988e-01,4.39122e-01,1.42159e-01,-1.49462e+00,-2.89832e-01,-6.49570e-01,-1.84918e-01,-7.63547e-01,-7.72897e-02,-4.90624e-01,1.64129e+00,4.11322e-01,
-8.52126e-02,-5.84097e-01,2.33804e-01,-2.29467e-01,-8.80367e-01,-4.86084e-01,3.19957e-01,3.77621e-01,-3.00231e-01,-1.06763e-01,-3.97456e-02,1.24875e-01,-8.44358e-01,1.53414e+00,-3.18725e-02,8.52633e-01,8.24843e-02,-3.26125e-01,8.49289e-02,-2.36087e-01,-1.42586e-01,7.30905e-01,-2.38524e-01,7.41234e-02,3.18641e-01,3.56324e-01,-1.74551e-01,5.30586e-01,2.34172e+00,4.68461e-03,
1.01680e-01,-2.88885e-01,4.38557e-02,-2.83038e-01,-1.95616e-01,-2.54423e-01,4.54176e-01,1.99005e-01,7.16901e-02,-1.57955e-01,3.85372e-01,-9.48731e-02,-2.39261e-01,2.40879e-01,-3.32566e-01,3.75147e-02,-8.65644e-02,3.65616e-02,4.73051e-01,-3.60988e-02,1.56489e-01,-2.15203e-02,2.85801e-01,-1.20418e-02,3.01023e-01,-1.93522e-01,1.70867e-01,1.49603e-01,-1.58951e-02,3.15306e-01,
1.15836e-02,-4.74515e-02,3.35705e-02,3.74005e-01,4.17550e-01,3.81212e-01,3.89715e-01,3.51805e-01,2.95654e-01,1.16340e-01,2.23604e-01,1.39068e-01,3.53340e-01,1.11892e+00,-9.11812e-02,4.11404e-01,-3.14938e-01,-1.73467e-01,-6.10245e-01,2.87974e-01,1.60029e-01,-2.40090e-01,-2.09202e-01,2.24481e-01,-2.65512e-01,2.22717e-02,5.33993e-02,-4.09410e-02,1.13344e+00,-4.71654e-02,
-1.49743e-02,-1.15596e-01,-2.92439e-01,2.90880e-01,-7.79856e-02,-5.36673e-02,1.65533e-01,1.53294e-01,-2.25837e-01,6.81843e-02,-4.37194e-01,9.06024e-03,-9.56125e-02,7.45401e-01,-1.49430e-01,-5.23668e-02,1.28972e-01,-2.49382e-01,9.12217e-02,-2.75618e-01,-5.38376e-02,6.14148e-02,2.25046e-01,1.37850e-01,3.18591e-01,2.60367e-01,-2.57668e-01,2.73658e-01,8.57267e-02,2.81806e-02,
1.98025e-01,
-2.39491e-01,
-1.74942e-01,
1.25636e-01,
-1.84134e-01,
-1.18323e-01,
-2.86367e-01,
-1.81283e-01,
2.15733e-01,
9.25362e-02,
2.29128e-01,
-1.29889e-01,
2.53714e-01,
-1.99263e-01,
-6.93448e-02,
1.48184e-01,
2.18838e-01,
-2.22183e-01,
-2.30111e-01,
4.42127e-02,
2.09485e-01,
-8.42084e-03,
2.06456e-01,
-2.95011e-01,
1.81164e-01,
-1.98895e-01,
-1.13000e-01,
1.22312e-01,
-4.15344e-02,
1.74259e-01,
6.37470e-02,-1.08055e-01,2.45363e-01,-1.21442e-01,-2.43103e-01,-2.30630e-01,-1.53150e-01,1.85513e-01,-2.59297e-01,-2.99736e-02,7.21658e-02,-8.34074e-02,1.25358e-01,1.37778e-01,1.13668e-01,-2.34752e-01,1.48619e-01,-2.07755e-01,-8.09615e-02,-2.94195e-01,-1.14415e-01,-5.01521e-02,1.62270e-01,2.92397e-02,3.13599e-01,-1.64287e-01,1.43455e-02,-2.46454e-01,1.63682e-01,-1.03728e-01,
1.04551e-01,-4.40616e-01,2.41674e-01,-2.76707e-01,2.41914e-01,-1.71012e-01,-1.41935e-01,-2.71226e-01,7.57720e-02,-1.02673e-01,-4.70383e-01,-7.47317e-02,1.59256e-01,3.56910e-02,2.52190e-01,-6.47384e-02,-1.33506e-02,-2.91410e-01,-5.55927e-01,7.39239e-02,3.92594e-01,6.49034e-02,-3.34883e-01,-3.52984e-01,2.63344e-01,8.74981e-02,-3.16442e-01,-3.32039e-01,-4.29509e-01,2.21224e-01,
1.29139e-01,-1.97052e-01,-5.46750e-03,3.37936e-02,-1.75395e-01,2.58589e-02,3.10271e-01,-6.11391e-01,-1.84972e-01,1.37550e+00,-6.50415e-02,3.08966e-01,4.08122e-01,1.64627e-01,-2.59242e-01,1.15364e-01,1.16516e-02,-5.72906e-02,-5.03163e-01,5.60323e-02,-5.92052e-01,1.08977e-01,-9.36696e-02,-1.29917e-02,-2.75755e-01,1.33784e-01,1.42709e-01,-3.13759e-01,3.34882e-02,-1.72463e-01,
6.00886e-02,1.28612e-02,-2.24106e-01,1.34509e-01,2.91994e-01,-5.05992e-03,-4.80279e-01,-1.46541e-01,-5.98843e-02,-9.56205e-01,4.93709e-02,-1.60657e-01,-3.96109e-01,2.49782e-01,1.87718e-01,-1.84518e-01,4.34890e-02,-3.59812e-01,5.58875e-01,-4.69564e-01,-3.88364e-01,-1.36965e-01,2.91993e-01,1.08698e-01,1.91991e-01,-5.86893e-01,-2.30074e-01,5.50695e-02,5.94399e-01,1.78351e-01,
1.21327e-01,1.66209e-01,-2.77994e-01,-1.22673e-01,2.07996e-01,1.16955e-01,-1.01195e-01,-1.19563e-01,-2.08070e-01,-7.58798e-02,6.10461e-02,-5.34851e-02,-1.86232e-01,1.41839e-01,-1.45896e-01,-2.71314e-01,-2.80171e-01,1.27580e-01,2.67370e-01,-1.37670e-01,-1.78007e-01,-1.47836e-01,-9.53103e-02,1.41292e-01,-2.28280e-01,1.00987e-01,7.84737e-02,-8.14055e-02,-1.24845e-02,-3.03300e-01,
-2.74168e-01,2.18347e-02,-1.66226e-01,1.57515e-01,2.90728e-01,6.95165e-02,-8.21171e-02,9.38298e-02,-1.93649e-01,-1.38613e-01,2.16200e-01,-1.63612e-01,5.85462e-02,2.46855e-01,-3.20446e-02,-9.91075e-02,2.33189e-02,3.23023e-01,-3.58962e-01,-3.10470e-01,-1.59862e-01,2.12702e-01,6.17226e-02,1.06308e-01,-2.08238e-01,7.40058e-01,-9.19437e-02,7.86301e-02,1.72187e-02,-1.54626e-01,
-3.00325e-01,-1.61565e-02,-3.22948e-02,-1.26150e-01,-1.56352e-01,1.68380e-01,1.14902e-01,3.70461e-01,4.15612e-02,2.95739e-01,2.69196e-01,-1.37680e-01,-3.18281e-01,1.26280e-01,6.49200e-02,-1.40818e-01,1.15522e-01,3.25724e-01,6.20009e-02,-3.11929e-01,-5.96974e-01,4.26887e-01,1.28923e-01,4.83815e-01,-2.81945e-01,5.62073e-01,-5.92480e-02,-2.18803e-01,1.65030e-01,2.35763e-01,
-2.04113e-01,7.80657e-02,-1.28710e-01,8.45856e-02,-1.08339e-01,-7.03850e-02,1.49684e-02,1.70535e-01,-2.08997e-01,-1.01277e-01,-1.63556e-01,-9.15552e-02,-2.68782e-01,-4.58927e-02,1.32564e-01,1.82215e-01,-1.80115e-01,1.06540e-01,-7.10398e-03,-2.93588e-01,2.17165e-01,-1.02129e-01,-1.59463e-01,-2.60029e-01,-2.06821e-01,-1.36146e-01,-5.19132e-02,2.67862e-01,9.99513e-02,-5.78899e-02,
-2.41787e-01,2.94879e-01,1.12685e-01,-1.37423e-01,-2.61700e-01,4.73049e-01,7.92955e-01,2.97836e-01,2.20575e-01,-1.12365e+00,-3.95397e-02,-3.48073e-01,1.34280e-01,-2.78857e-01,3.08553e-01,-1.26523e-01,3.82307e-01,3.18823e-01,1.79907e-01,8.24987e-02,-9.01208e-02,3.19790e-01,3.31103e-01,6.59235e-01,2.65801e-01,1.17631e+00,-4.10064e-01,1.16328e-01,-1.43190e-01,6.17991e-03,
-2.67514e-01,2.22237e-01,-2.30131e-01,-3.09067e-02,-1.60520e-01,1.97409e-01,3.11034e-01,3.07793e-01,-8.78225e-02,-4.94742e-01,6.48053e-02,-3.17314e-01,-3.44639e-01,8.49801e-02,1.92552e-01,-3.60312e-01,1.89986e-01,3.98102e-01,2.78814e-02,-2.53431e-01,-4.86531e-01,3.13444e-01,2.15576e-01,5.50703e-01,-1.01443e-01,6.06576e-01,-1.77029e-01,-6.31340e-02,1.21869e-01,5.26949e-02,
2.33776e-01,1.56880e-01,-1.17992e-01,7.93765e-02,-2.20000e-01,-1.86349e-01,9.87648e-02,-1.98882e-01,2.18161e-01,-1.82797e-01,2.02406e-01,-2.25990e-01,-4.19085e-02,2.65872e-01,-1.25004e-01,-9.24129e-02,-2.76582e-01,-2.87261e-01,2.45146e-01,-3.43257e-01,1.22994e-01,-2.89319e-01,1.37548e-01,7.49892e-02,-2.00321e-01,3.18986e-02,-2.42724e-01,-2.23192e-01,-5.70821e-02,1.64234e-01,
4.05984e-02,2.89915e-01,-4.60303e-01,1.65082e-01,-2.79296e-01,-3.50598e-02,3.79660e-01,1.95839e-01,-1.82290e-02,-4.41376e-01,-2.57552e-01,-2.90168e-01,-2.36168e-01,1.67882e-01,-3.55165e-02,-3.95812e-01,1.90837e-01,2.19619e-01,-2.26575e-01,1.29012e-01,-4.30166e-01,3.88862e-01,1.47360e-01,4.74065e-01,3.15543e-02,4.95439e-01,-3.31206e-01,1.48227e-01,1.55306e-01,3.15333e-01,
-2.68656e-01,-2.91061e-02,-2.78733e-02,2.20924e-02,-2.44075e-01,-1.94354e-01,3.19358e-01,-6.15435e-02,-1.53108e-01,1.34584e-01,1.57263e-01,-2.04524e-01,-1.50092e-01,1.36249e-01,-6.95001e-02,7.91551e-02,-2.72416e-01,1.81934e-01,-6.56219e-01,-2.28178e-01,3.39323e-01,1.91047e-01,1.46596e-01,1.12817e-01,-7.31582e-02,-3.58966e-01,-1.05097e-01,3.00716e-01,2.50340e-01,3.14586e-01,
-3.71844e-01,3.53572e-01,-5.13965e-01,-1.33718e-01,-1.80615e-01,2.95731e-01,7.50368e-01,5.86122e-01,9.28559e-02,-3.76002e-01,1.08199e-02,-4.52911e-01,-3.29637e-01,2.08449e-01,3.71616e-01,-4.73647e-01,3.01000e-01,5.85432e-01,-1.30074e-01,-2.67276e-01,-1.37031e+00,8.22967e-01,3.55997e-01,1.04568e+00,-2.64521e-01,1.10894e+00,-3.27131e-01,-1.86505e-01,2.08888e-01,1.20126e-01,
4.06534e-01,-1.64662e-01,3.57815e-01,-1.39756e-01,-2.71353e-01,-8.34895e-02,-1.29154e+00,3.38185e-01,1.90309e-01,4.83640e-01,1.20229e-01,3.16485e-01,2.50118e-01,4.78591e-02,-1.38184e-01,-7.46730e-02,-1.92148e-01,-4.94196e-01,-2.17165e+00,-4.57007e-03,9.16078e-01,-5.36441e-01,-1.61579e-01,-9.79711e-01,1.06984e-01,-5.90976e-01,2.72076e-01,-1.75825e-01,-1.79496e-01,-1.00966e-01,
3.11348e-01,-1.00852e+00,-3.51997e-01,-7.52102e-01,-1.06877e-01,-2.00800e-01,-5.89062e-01,-6.40118e-01,-2.71471e-01,-4.14729e-01,-2.39697e-02,6.26376e-01,3.61802e-01,-2.20298e-01,-1.23086e+00,4.45331e-01,-1.39810e-02,-3.05672e-02,2.67571e-01,8.75208e-02,8.91304e-01,-5.44890e-01,-1.77419e-01,2.74642e-01,-1.38314e-01,7.65940e-01,5.87270e-01,-4.87596e-04,-1.11730e+00,-3.53297e-01,
-1.37854e-01,9.36814e-02,-2.67164e-01,1.64888e-02,1.25556e-01,2.23552e-01,3.05433e-02,2.31189e-01,1.91580e-01,-5.36823e-01,1.43092e-01,-1.36478e-01,-2.26016e-02,2.11584e-01,-6.30375e-02,-3.60288e-01,-2.88345e-02,2.67386e-01,-6.67481e-02,-1.29677e-01,-1.24006e-01,3.48030e-01,-6.62898e-02,2.50067e-01,-1.27712e-02,2.70722e-01,-5.80940e-02,2.32678e-01,4.82161e-02,-5.70830e-02,
-2.85981e-01,1.21299e-01,-1.99280e-01,1.83264e-01,2.98059e-01,-2.10140e-01,1.27397e-01,-2.21218e-01,-3.45686e-01,2.45272e-01,-1.18034e-01,3.85654e-02,2.85861e-03,3.14966e-01,-2.93395e-01,-9.17165e-02,-3.63705e-01,2.13748e-01,1.95862e-01,-2.86403e-01,-3.10463e-02,2.39449e-01,4.42160e-02,-6.93151e-02,-1.20799e-01,2.34965e-01,-3.49737e-01,-1.91959e-02,-3.57753e-01,-3.01800e-01,
2.92486e-01,-1.18515e-01,-2.79887e-01,-4.85554e-01,-1.53570e-01,-5.03839e-01,2.43687e-02,-4.78287e-01,1.48016e-01,2.75333e-01,-4.10121e-01,3.45108e-01,5.35660e-01,6.37012e-01,-1.66632e-01,3.33907e-02,-2.90643e-01,-5.62437e-01,-7.81858e-01,-1.27430e-01,-3.32754e-02,-4.83779e-02,-1.18752e-01,-2.66463e-01,3.51521e-01,-6.43059e-01,2.74694e-01,-3.28013e-02,-1.25760e-01,2.00466e-01,
-2.12664e-01,-2.19856e-02,-7.87581e-02,2.23291e-01,-2.29807e-01,2.10423e-01,1.21983e+00,1.55094e-01,1.05870e-01,-3.99004e-01,-1.55413e-01,-3.36186e-01,-1.08407e-01,-4.91943e-03,2.63623e-01,2.03041e-01,-1.94689e-02,1.45088e-01,-1.74428e+00,-2.37849e-01,2.50025e-02,1.04532e-01,8.23843e-02,1.79820e-01,1.29316e-02,-2.65097e-01,-4.88845e-01,4.70291e-01,1.80083e-01,3.90029e-01,
9.67366e-03,-7.15020e-02,4.58437e-03,-1.70889e-01,-4.53700e-02,9.69449e-02,8.47021e-02,-1.13645e-01,1.74992e-01,8.68726e-02,-3.70473e-03,1.14087e-02,-2.16598e-01,-1.77086e-01,-3.31245e-01,-1.29397e-01,-2.73774e-01,2.96052e-01,-9.91939e-02,1.32259e-01,4.35137e-02,1.16937e-01,-2.08788e-01,1.45294e-01,-7.39972e-02,-8.56362e-02,-1.35310e-01,1.98556e-02,1.89436e-01,-3.33531e-01,
3.03456e-01,-4.15061e-01,3.91814e-01,-3.98306e-02,1.28073e-01,-2.36983e-01,1.22196e-01,-1.07128e-01,-3.88172e-01,7.44532e-01,1.52818e-01,3.19991e-01,2.92332e-02,-3.15018e-01,-5.07398e-01,7.56309e-01,-2.46616e-01,-7.60798e-01,-9.42250e-01,-2.75495e-01,1.39125e+00,-1.00195e+00,-7.95856e-01,-8.50668e-01,2.01989e-02,-1.37326e+00,5.28712e-01,-2.15320e-01,-7.35497e-02,1.93971e-01,
-6.68296e-01,-4.05903e-03,-3.96987e-01,-6.57787e-01,6.26282e-02,-2.06831e-01,9.49560e-02,-2.26720e-01,-5.12678e-02,-1.19992e-01,-1.45401e-01,-2.33038e-01,-1.36281e-02,-1.51188e-01,-6.56377e-01,2.34760e-01,2.36688e-01,5.60829e-02,-6.27192e-02,-6.29280e-01,-3.31489e-01,-3.27289e-01,-7.12296e-01,-2.96729e-01,2.20717e-01,-1.34252e-01,-1.02445e+00,-7.43371e-02,3.04404e-01,-6.00209e-01,
-3.11441e-01,1.63811e-04,-5.54365e-02,1.54188e-01,4.91021e-02,-2.92527e-01,1.15680e-01,-2.96349e-01,-5.25234e-01,-1.59685e-01,-7.33878e-02,-6.48562e-02,-2.59595e-01,-1.79388e-01,3.13803e-02,7.51243e-02,2.71809e-01,3.61376e-01,-2.98692e-01,1.00979e-01,-3.06352e-01,4.26196e-01,-9.48481e-02,3.42214e-01,1.38684e-01,9.83482e-01,-7.59937e-02,1.02476e-01,1.34655e-01,9.24159e-02,
1.67638e-02,2.47374e-01,-5.90594e-01,-9.65532e-02,1.07749e-01,2.22498e-02,5.62837e-01,1.94866e-01,2.19388e-01,-2.31685e-01,-2.52108e-01,-1.39182e-01,1.95471e-01,2.61458e-01,3.89680e-01,-1.55846e-01,-3.50046e-02,1.42593e-01,-3.56180e-01,6.97214e-02,-1.24824e+00,4.26783e-01,8.89552e-02,3.85440e-01,-2.18601e-01,2.47489e-02,-9.49109e-02,-3.28046e-02,7.13300e-02,-2.89113e-01,
-4.13658e-02,-1.35172e-01,2.16138e-01,-2.69476e-01,-6.33630e-02,-6.44817e-03,-2.62160e-01,-9.98109e-02,4.55047e-01,-1.46707e+00,2.69401e-01,1.58888e-01,2.12954e-01,2.88423e-01,-1.83390e-01,2.97270e-01,-7.41390e-04,-2.59016e-01,1.39731e-01,6.53176e-02,7.27919e-01,-3.03694e-01,-1.65825e-01,-1.23835e-01,4.16235e-01,-2.41685e-01,2.68021e-01,2.64710e-01,1.91450e-02,-1.79400e-01,
3.08468e-01,-3.13667e-01,1.78984e-01,4.96578e-02,-1.58631e-01,-3.17389e-01,-1.42001e-01,-8.75453e-01,1.34933e-01,4.76880e-01,-2.73064e-01,4.77801e-01,2.42554e-01,-7.41374e-01,-2.63535e-01,4.14080e-01,-8.21806e-02,-3.26065e-01,-3.68863e-01,1.91649e-01,1.02800e+00,-6.41251e-01,-2.93231e-01,-4.74312e-01,-2.84991e-02,-8.48899e-01,1.93254e-01,-1.53354e-01,-1.84337e-01,8.53720e-02,
-7.39193e-02,-1.61818e-01,4.06555e-02,-3.91466e-02,1.36545e-01,-1.12064e-02,4.11109e-02,-1.65445e-01,4.08213e-02,2.12114e-01,-1.97719e-01,1.07591e-01,-1.02204e-01,2.38595e-02,2.58059e-01,-2.21734e-01,-2.51613e-01,-2.32936e-02,2.35584e-02,-5.78944e-02,1.46621e-01,1.98293e-01,-3.18993e-01,9.64427e-02,-2.48769e-01,5.12396e-02,1.39745e-02,-8.90010e-02,1.64749e-01,-2.28142e-01,
-1.08431e-01,6.12172e-02,-9.91209e-02,5.97878e-02,-2.80663e-02,-1.20148e-01,4.69584e-02,-2.15625e-01,-1.73438e-01,-4.38054e-01,-6.41494e-02,-8.93129e-02,-2.03742e-01,2.33613e-02,1.63066e-01,-8.14912e-02,-8.62548e-03,1.17276e-01,-1.69311e-01,5.57345e-02,8.14269e-02,-1.39841e-01,-1.14289e-01,-2.80389e-03,-5.42507e-03,-5.06245e-02,-3.24104e-02,1.88043e-01,8.12419e-02,-1.26578e-01,
-1.14142e-01,-1.34534e-01,-4.75386e-01,2.22085e-01,2.89491e-01,1.37268e-01,2.52207e-01,9.76610e-01,8.04672e-02,-5.18765e-01,6.57981e-02,-7.49923e-01,1.64303e-01,-6.57683e-02,-1.41929e-01,4.58761e-01,-9.70437e-01,5.66037e-01,-6.76883e-01,3.83959e-01,-3.84127e-01,-2.57098e-01,-2.80604e-01,-3.46171e-01,2.60452e-01,4.43236e-01,-2.71165e-01,-4.64003e-01,3.43259e-02,2.81475e-01,
-2.59264e-01,
-1.70456e-01,
1.10112e-01,
8.43144e-02,
-2.66259e-01,
2.53200e-01,
2.53703e-01,
-2.37518e-01,
-6.48767e-02,
3.07384e-01,
-3.81026e-01,
2.49474e-01,
6.50927e-03,
9.11752e-02,
-4.53641e-03,
1.39457e-01,
1.06512e-01,
1.03353e-01,
1.15083e-01,
-1.03958e-01,
-2.87536e-01,
-2.30629e-02,
1.76266e-01,
1.57245e-01,
2.27378e-01,
-1.52890e-01,
-2.98238e-02,
-3.66330e-01,
7.88797e-02,
2.41346e-01,
2.24700e-01,5.52399e-01,4.78236e-01,3.48157e-01,2.91885e-01,1.73236e-01,1.27436e-01,6.19321e-02,1.75211e-01,2.56829e-01,1.18587e-01,1.74478e-01,-8.43046e-02,3.52183e-02,-5.20031e-03,-9.19718e-02,2.43088e-01,6.68739e-02,-3.39060e-01,3.55618e-01,-1.02268e-01,5.09148e-01,3.24368e-01,-8.19362e-02,7.67046e-02,-8.61532e-02,-8.70801e-02,-1.80315e-01,2.18546e-01,-5.01958e-01,
-4.22485e-02,2.46079e-01,-1.28238e-01,1.12400e-02,-2.12482e-01,2.67650e-01,-1.59244e-01,2.76855e-01,-1.17024e-02,-1.59246e-01,1.39912e-01,-2.04773e-01,1.21451e-01,1.69759e-01,-1.97600e-01,7.31851e-02,-2.72513e-01,1.65632e-02,-1.59297e-01,1.07074e-01,3.00121e-01,-1.18838e-01,7.08032e-03,-1.78794e-01,-1.63298e-01,-2.06907e-01,2.25188e-01,-1.28032e-01,-1.03519e-01,-4.78384e-02,
-2.71954e-01,-1.80281e-02,3.09153e-02,-2.02808e-01,-5.40390e-02,6.40182e-02,2.18573e-01,-1.08253e-01,-1.35341e-01,7.66723e-02,-1.05130e-01,1.17818e-01,-1.68764e-01,-2.19596e-01,-1.17736e-01,1.04455e-01,1.00035e-02,2.78087e-01,-1.51903e-01,-1.31821e-01,1.33744e-01,-3.00555e-01,-8.38526e-02,-3.33318e-01,1.88166e-02,1.91822e-01,-2.80319e-01,-1.11338e-01,-2.75565e-01,1.22968e-01,
3.66706e-02,-2.15257e-01,1.40438e-01,-4.48740e-02,-8.13143e-02,-1.14027e-01,-1.63176e-01,3.02844e-02,2.44743e-01,9.92612e-02,5.80191e-02,1.47316e-01,2.99379e-01,-1.40063e-01,-1.44969e-01,-5.72748e-02,1.11836e-01,2.49028e-01,1.41780e-01,-1.44650e-01,-2.47407e-01,8.57959e-02,4.48972e-01,3.68667e-02,-1.55788e-01,-1.16055e-01,1.40673e-01,-4.24657e-02,1.47787e-02,-1.50752e-01,
-2.93220e-01,-1.92460e-01,-1.75838e-02,-2.06517e-01,1.44281e-02,-4.56254e-02,1.54394e-02,-2.39954e-01,-1.82571e-01,-2.27085e-01,-8.30039e-02,3.25747e-02,5.16496e-02,-1.35401e-01,1.46951e-01,6.90705e-01,-1.69442e-01,9.91028e-02,1.71129e-01,-1.04619e-01,-1.22930e-02,-5.49492e-01,3.00356e-01,-2.07440e-01,-7.60056e-02,1.12741e-01,3.91779e-01,1.37222e-01,1.66522e-01,3.20884e-01,
-5.85812e-02,6.23167e-03,-2.59442e-02,1.25418e-01,2.96451e-01,-1.76991e-01,-1.69545e-01,-5.41886e-02,-5.51590e-02,-6.59443e-02,1.13391e-01,1.72425e-01,-2.44543e-02,-1.24643e-01,-2.22040e-02,4.67999e-02,1.33253e-01,-1.14396e-02,-1.61920e-01,1.46972e-01,-6.49962e-02,3.20974e-02,-9.13599e-02,-2.29321e-01,4.07250e-02,-8.39258e-02,-2.15877e-01,-2.24322e-01,-1.36059e-01,2.15417e-01,
-2.52428e-01,2.24215e-01,-1.45709e-01,-2.99245e-01,-2.53624e-01,8.30129e-02,1.61116e-01,1.65336e-02,-2.87029e-01,2.40902e-02,-2.91139e-01,1.40886e-01,-1.31527e-01,-2.74938e-02,1.29437e-01,5.59146e-02,1.13628e-01,2.44598e-01,-6.54389e-02,-5.82240e-02,2.80859e-01,1.84281e-02,-2.81202e-01,-2.29504e-01,-3.63286e-01,2.09105e-01,-5.57928e-02,-1.49750e-01,-2.88110e-01,7.55663e-02,
-6.21925e-02,1.32475e-01,-1.10716e-01,-7.05020e-02,-1.56009e-02,1.38411e-01,-8.94826e-02,1.17343e-01,-1.26674e-01,1.61724e-01,6.49909e-02,-1.68482e-01,-2.05644e-01,2.36883e-01,2.62229e-01,2.74018e-01,-1.19443e-01,-1.64554e-01,1.88795e-01,1.54559e-01,-1.95688e-01,-1.72964e-01,-7.02665e-02,-2.12721e-01,-2.79018e-01,2.50614e-01,1.92124e-01,3.15195e-01,-2.73452e-01,-2.21743e-01,
-2.61785e-01,1.98585e-01,-1.97386e-02,2.84494e-01,-1.20252e-01,8.03143e-02,-6.29575e-02,-1.58987e-01,1.62036e-01,2.41417e-01,-5.31047e-02,1.79537e-01,1.34354e-01,-8.28191e-02,-1.71012e-01,-8.19877e-01,1.80827e-01,7.62655e-02,2.61701e-02,1.04501e-01,-1.20388e-01,3.96072e-01,4.83554e-01,2.37328e-01,1.70687e-01,-2.00303e-01,-2.28760e-01,1.65592e-01,1.82905e-01,-8.46529e-02,
2.37796e-03,-2.06158e-02,1.35977e-01,-1.16258e-01,1.79668e-01,1.33517e-01,-2.18940e-01,7.74350e-02,-4.82685e-02,-3.02914e-01,2.13638e-01,1.09811e-01,9.15251e-02,2.15154e-01,1.01206e-01,1.15953e-01,-1.00696e-01,-1.15386e-02,-3.65501e-01,-3.14815e-01,1.99919e-01,8.77065e-02,5.54995e-02,-4.74547e-02,-3.52895e-01,1.00112e-02,1.40324e-03,-1.75231e-01,9.35354e-02,8.93315e-02,
-1.95324e-01,-3.87309e-01,1.70964e-01,-2.40596e-01,-8.76561e-03,-9.56947e-02,-3.82221e-01,2.05487e-01,-3.38034e-01,-2.80020e-01,1.54324e-01,-1.90575e-01,-7.23213e-02,2.38385e-01,3.37118e-01,1.58527e+00,-9.41004e-02,9.79016e-03,2.49698e-01,-1.95503e-01,-1.67506e-01,-1.00864e+00,-1.41944e+00,-1.24227e-01,-2.26939e-01,9.87282e-02,5.58516e-01,1.33305e-01,-4.90754e-02,4.81418e-01,
-1.23830e-02,1.70473e-01,-1.56425e-01,2.06965e-01,2.30205e-01,1.27647e-02,-1.87168e-01,2.66924e-01,6.07704e-02,-2.23507e-01,-1.68297e-01,-3.00731e-01,-3.11877e-02,1.56949e-01,-2.56978e-01,-2.86672e-01,-2.27643e-01,2.94137e-01,-2.77892e-01,-1.12829e-01,1.07201e-01,-2.60263e-02,1.67805e-01,-1.03523e-01,2.10564e-01,1.09110e-01,-8.33544e-02,-8.48154e-02,1.91854e-01,2.66854e-01,
2.56189e-02,2.04921e-01,-9.83497e-02,8.91832e-02,1.46302e-01,-7.34189e-02,-1.95390e-02,1.93691e-01,5.12802e-02,-1.23627e-02,1.01444e-01,-3.78496e-01,1.56204e-01,4.54365e-01,5.81541e-02,2.97770e-01,-2.73923e-01,-6.08536e-02,-3.79819e-01,-3.14099e-02,-1.09454e-01,-3.27762e-01,3.21499e-01,1.21880e-01,-2.86699e-01,3.68875e-02,-5.32578e-02,-1.41938e-01,-3.70971e-01,-6.34508e-02,
-2.17922e-02,-3.03527e-01,-1.17789e-01,-1.72805e-01,2.00752e-01,-1.06381e-01,1.65259e-01,1.98479e-01,5.36954e-02,1.03809e-01,2.07420e-01,-5.91773e-02,-2.64819e-01,-2.89843e-02,-3.53238e-01,-1.27207e-01,-4.73172e-02,-1.33725e-01,1.24917e-01,-4.86556e-02,-1.51097e-01,-1.47895e-01,2.69896e-01,-5.85787e-02,1.32385e-01,-3.45998e-01,1.09085e-01,-3.13286e-01,-3.37151e-01,4.31637e-02,
1.10039e-01,1.48223e-01,1.14637e-02,1.33306e-01,-5.55925e-02,9.06563e-02,2.34494e-01,-1.21356e-01,2.66393e-01,-2.47414e-01,-3.01608e-01,1.53500e-01,2.07500e-01,1.67870e-01,2.55998e-01,1.35030e+00,-4.82105e-02,-1.31731e-01,5.01017e-01,2.19084e-01,-8.86624e-02,-5.58981e-01,8.31125e-01,-3.04267e-01,-8.76186e-02,-8.16914e-02,4.80066e-01,3.04235e-01,2.54226e-01,-2.41031e-01,
-2.61496e-01,-8.58405e-02,6.68031e-03,-1.89081e-01,3.95452e-01,-2.01476e-01,1.14556e-01,1.14582e-01,-1.53758e-01,2.51673e-01,-1.69877e-01,-1.16439e-01,-1.60055e-02,1.36179e-01,-2.40216e-03,3.96572e-01,-1.17346e-01,2.34978e-01,-4.07662e-02,-3.09658e-02,-1.63302e-01,-7.12747e-02,2.03243e-01,9.78934e-03,-1.41062e-01,2.09671e-01,-1.57114e-01,2.30134e-01,-2.90334e-01,-4.53624e-01,
-1.71590e-03,-2.34490e-02,-2.83596e-01,-1.04605e-01,7.98404e-02,-1.10943e-01,-2.14488e-01,-2.61384e-01,-2.21208e-01,-1.52208e-01,-3.50200e-02,-1.43629e-01,-8.48700e-02,2.78894e-01,1.69194e-02,-2.24828e-01,2.01398e-01,7.90422e-02,-2.10659e-01,2.03211e-01,-2.37031e-01,1.38336e-01,5.00989e-02,7.97666e-02,1.50805e-01,1.37182e-01,9.68046e-02,5.61908e-02,-1.68218e-01,-1.51448e-02,
1.84314e-01,-1.14038e-01,-1.47406e-01,3.38873e-01,4.20488e-02,-3.24905e-01,1.64742e-01,-1.56683e-01,-1.75915e-01,3.95070e-02,-1.28130e-01,-6.94172e-03,-1.87446e-01,6.99401e-02,-2.83942e-03,-3.13623e-01,-2.90246e-01,4.59703e-02,-2.63014e-02,2.15062e-01,-2.70730e-01,1.62423e-01,5.00860e-01,3.33304e-01,1.85742e-01,3.13621e-01,-3.08696e-02,-1.98635e-01,1.39110e-02,-1.01523e-01,
-1.97547e-02,1.53769e-01,-5.93114e-02,-2.68044e-02,1.53850e-01,3.71321e-02,-3.10875e-01,-1.75074e-01,4.68072e-03,1.16754e-01,-2.61149e-01,-9.48291e-02,-2.34748e-02,-1.36974e-01,-1.91422e-01,-1.76878e-01,1.15720e-01,-2.20821e-02,-1.20283e-01,-3.95313e-02,2.43791e-01,2.39860e-01,3.10495e-01,-1.23524e-01,-2.99767e-02,-2.56684e-01,2.10382e-01,-1.82882e-01,-6.09804e-02,1.23161e-01,
7.46689e-02,-2.70828e-03,-1.36328e-01,-1.67532e-01,-1.35923e-01,7.35805e-02,1.91148e-01,1.07151e-02,3.14774e-01,2.56922e-01,-7.48990e-02,7.42833e-02,1.33758e-01,-1.61874e-01,-2.86007e-01,-8.93187e-01,2.29196e-01,-1.94767e-01,3.68825e-02,-1.00398e-01,4.10401e-02,6.86985e-01,5.30089e-01,3.94206e-03,-9.39495e-03,-1.77002e-01,-4.76145e-01,-2.67177e-01,-1.71230e-01,-3.99548e-01,
2.54211e-01,1.41361e-01,5.48137e-01,8.68832e-02,-3.32659e-01,-1.20020e-01,2.19722e-01,-1.25803e-02,1.79486e-01,1.21799e-02,8.98144e-02,2.95305e-02,-7.05073e-02,-1.23960e-01,8.28756e-02,2.42513e-01,3.45591e-01,-2.77280e-01,-6.58417e-02,9.91891e-02,-1.41936e-01,3.55294e-01,-1.19083e-01,-1.37009e-01,-1.97377e-01,-2.18008e-01,2.96828e-01,-1.61935e-01,1.86976e-01,2.46417e-01,
2.50009e-01,-1.30789e-01,6.08935e-02,-2.62297e-01,1.33628e-01,7.02042e-02,-1.32369e-01,1.65481e-01,-6.70012e-02,1.55903e-01,2.56000e-01,2.04211e-01,-1.56390e-01,8.43114e-02,-1.77508e-01,-8.09819e-01,-2.72385e-01,-1.39482e-01,-4.53935e-01,-1.55460e-01,-3.04706e-01,1.33673e-01,3.88233e-01,-7.06869e-02,1.01009e-01,1.25659e-01,-5.43289e-02,-2.89345e-01,2.68098e-02,-4.70791e-01,
-2.73047e-01,1.90919e-01,-1.52893e-01,2.91057e-01,-1.40793e-01,4.50673e-02,2.15740e-01,1.62992e-01,3.14514e-01,-2.29601e-01,5.43702e-02,-1.72349e-02,-6.60189e-02,-1.46942e-01,-3.13938e-02,-3.24097e-01,-8.65039e-02,-2.99019e-01,3.35205e-02,2.97516e-01,2.24910e-01,5.49781e-01,1.52996e-01,-5.81941e-02,1.42781e-01,2.43444e-01,-8.41664e-02,2.36226e-01,-2.24444e-01,-1.57482e-01,
-2.72733e-01,2.19279e-01,-1.77345e-01,3.99640e-01,1.04125e-02,9.42373e-02,1.04561e-01,-7.66410e-02,4.37071e-01,3.71739e-01,5.62700e-02,1.11425e-01,1.30661e-01,2.42308e-01,-4.35110e-01,-5.96724e-01,2.51984e-01,-4.42359e-03,-2.36925e-01,2.79105e-01,-2.03435e-01,1.15993e+00,8.94622e-01,3.09239e-01,1.27700e-01,-2.16821e-01,-7.38997e-01,1.51409e-01,-7.41332e-03,-6.76292e-01,
-2.89586e-01,-2.27480e-01,-2.68788e-01,1.87040e-01,-2.83091e-01,5.37172e-03,1.89183e-01,1.02589e-01,4.18643e-02,-2.28358e-01,2.21125e-01,-6.42794e-02,-2.79517e-01,1.67165e-01,-3.09567e-01,-3.01848e-01,-2.57825e-01,-2.15512e-02,2.25150e-01,-3.94053e-02,-1.94636e-01,4.15602e-02,-1.39188e-01,-2.95663e-01,6.68372e-02,-2.23158e-01,1.51217e-01,-3.15809e-01,2.79493e-01,-2.00665e-01,
2.97502e-01,-1.19473e-01,-3.82705e-01,-2.88360e-01,2.01012e-01,-1.93431e-03,-1.84328e-01,1.65896e-01,1.83369e-01,1.27312e-02,-6.71070e-02,1.57098e-01,2.44631e-01,-2.13775e-01,7.69896e-02,2.43346e-01,-1.37267e-01,1.54406e-02,3.64748e-02,-2.82857e-01,-1.80584e-02,-2.22401e-01,-3.14604e-02,-2.32992e-02,-1.64224e-01,-7.51257e-02,-1.04409e-01,-5.04828e-02,2.16868e-01,1.95309e-01,
2.87543e-01,-7.73807e-04,-1.14988e-02,-1.28784e-02,-1.26426e-01,-3.05277e-02,1.49541e-01,7.24668e-02,-1.85273e-01,1.98174e-01,2.49251e-01,1.13050e-02,-1.33333e-01,7.68822e-02,-4.45823e-02,-4.14113e-01,1.40773e-01,2.36943e-01,-6.98403e-02,-4.80226e-02,9.59787e-02,1.10639e-01,9.56782e-02,1.67591e-01,6.94330e-02,-2.05517e-01,-2.27846e-01,9.91793e-02,2.36292e-01,8.45226e-02,
1.30219e-02,3.67085e-01,3.20553e-01,6.04098e-02,-2.19306e-02,3.99509e-01,3.41598e-01,-3.09288e-02,7.43982e-02,1.21213e-02,2.23700e-01,-1.17506e-01,-4.99714e-01,2.41201e-01,6.50392e-02,-3.42542e-01,-3.96125e-02,2.96870e-02,-8.85060e-01,-2.29619e-02,1.59859e-01,4.28971e-01,2.95084e-01,-2.99298e-02,1.53301e-02,9.69477e-02,-5.16015e-01,-2.11113e-01,-1.40831e-01,-4.61220e-01,
8.45423e-02,-1.19623e-01,-2.83592e-01,-3.59928e-02,1.18874e-01,2.50599e-01,2.43045e-01,7.93759e-02,3.17794e-02,5.22591e-02,-2.62339e-01,9.54845e-02,7.91907e-03,-3.11529e-01,-2.96686e-01,-1.16497e-01,-1.27600e-01,2.29934e-01,-3.03529e-01,7.92779e-02,-1.43208e-01,-7.07008e-02,2.81472e-01,6.50492e-02,-2.93310e-01,2.68200e-01,-2.47585e-01,-1.59175e-01,-2.97317e-01,2.41925e-01,
9.36416e-03,1.38215e-01,-6.73783e-02,-2.77090e-01,1.77631e-01,-1.97325e-01,-2.03990e-01,-1.21290e-01,-2.67622e-01,-3.06196e-01,2.82536e-01,6.49891e-03,-2.34849e-01,-1.81621e-01,-2.07266e-02,-1.42142e-01,6.59058e-02,2.14723e-01,8.60758e-02,-3.23467e-01,9.82869e-02,-1.70994e-01,7.52626e-02,2.59179e-01,-2.18384e-01,1.35161e-01,-2.88381e-01,1.73441e-01,1.07130e-01,3.76360e-01,
-7.04474e-02,
-2.82638e-02,
-1.70013e-01,
7.05060e-02,
6.74615e-02,
-1.07417e-01,
-2.07620e-01,
-3.43573e-01,
2.78282e-01,
-1.63194e-01,
2.32603e-01,
-6.99269e-02,
2.42521e-01,
-2.79706e-01,
-8.38197e-02,
1.37860e-01,
-1.98589e-01,
5.33511e-02,
-2.07454e-01,
3.00462e-01,
-8.26831e-02,
2.69383e-01,
3.29779e-01,
-2.69588e-01,
-2.87449e-01,
-1.67680e-01,
4.17044e-01,
-5.32140e-02,
-2.46465e-01,
9.06383e-02,
-1.55963e-01,2.55644e-01,-1.20433e-01,-1.92133e-02,-2.98454e-01,2.96163e-01,1.14029e-01,3.17559e-01,-2.89498e-01,3.14685e-01,-3.97731e-01,2.66007e-04,-1.56314e-01,9.95425e-02,4.23809e-02,-1.74711e-02,1.18900e-01,2.68520e-03,1.43088e-01,-2.65271e-01,2.88007e-02,-1.27440e-01,-3.36772e-01,3.59829e-01,-6.28031e-02,3.11348e-01,-3.32852e-01,8.53569e-02,2.36074e-01,8.12609e-02,
-4.74134e-02,-1.53118e-01,-2.41363e-01,-1.48520e-02,1.54864e-02,-1.06015e-01,-6.47984e-02,2.54018e-01,-1.98568e-03,2.67114e-01,-5.25408e-02,5.72033e-02,-2.94758e-02,-2.65319e-01,2.48904e-02,-8.23726e-03,2.00019e-01,2.19849e-02,3.61124e-01,-2.14893e-03,1.84168e-02,-2.04638e-02,-3.31813e-02,2.39449e-02,-2.59863e-01,3.70754e-01,-3.73020e-02,1.93211e-02,-2.76362e-01,7.10836e-03,
-1.11165e-01,-8.11720e-02,-2.35929e-01,9.61199e-02,3.35022e-03,-1.56993e-01,-3.67597e-01,-3.70755e-01,1.80640e-01,2.15593e-01,1.33005e-02,-3.88477e-01,-6.58065e-03,-1.31726e-01,8.72057e-03,2.04362e-01,-3.41614e-01,-2.01066e-01,-2.14657e-01,-2.32547e-01,2.34037e-02,6.18913e-02,2.77808e-01,-1.08942e-02,3.62631e-02,-3.19769e-01,2.60341e-01,2.30223e-03,2.41674e-01,6.63971e-03,
-7.43188e-02,2.41800e-01,-1.34677e-02,3.03729e-02,1.45070e-02,3.67632e-01,3.02935e-01,-8.73516e-02,3.62171e-02,-6.13037e-02,-5.18643e-02,1.66247e-01,-2.92627e-02,-1.72897e-01,2.59882e-02,5.11046e-02,-3.04502e-01,-4.61377e-02,2.10228e-01,-8.28218e-02,1.84735e-02,-1.67249e-03,6.13813e-02,2.33005e-02,3.34873e-01,-2.02798e-02,6.21435e-02,1.87280e-02,2.47835e-01,7.08430e-03,
-4.88069e-02,1.33762e-01,-2.49887e-01,-2.02951e-01,-2.94974e-02,5.35502e-02,1.12403e-01,-2.20361e-01,1.14860e-01,1.63300e-01,2.15428e-02,2.09150e-02,-1.43233e-02,-1.71653e-01,1.46696e-02,-2.58698e-02,-5.14748e-02,1.10832e-01,-3.64733e-01,1.35876e-01,8.61545e-02,-1.29561e-02,-2.04804e-01,-1.94268e-03,-1.33062e-01,9.59634e-02,-3.04339e-01,1.11882e-02,-1.96631e-01,5.32674e-02,
6.07316e-01,
6.64678e-02,
-2.49975e-01,
-6.72949e-03,
1.21808e-01,
