// Neural Network File Format by Kyle Julian, Stanford 2016
6,5,5,30,
5,30,30,30,30,30,5,
0.000,
-36655.999999,-36656.000000,-3.141600,100.000000,0.000000,
36656.000000,36656.000000,3.141600,472.000000,1200.000000,
-431.467101,-0.000000,0.000000,249.000000,532.000000,9.330048,
73311.999999,73312.000000,6.283200,372.000000,1200.000000,423.773936,
4.58547e-02,-3.01145e-01,-8.82195e-02,1.96104e-01,2.63554e-01,
-7.06411e-01,-3.18679e-01,7.71664e-03,2.19578e-01,4.58557e-01,
-2.88774e-01,-2.86250e-01,-7.79728e-01,4.29610e-02,-2.53858e-01,
-1.03064e+00,3.16398e-01,-4.91905e-02,1.17322e-01,-1.45851e-01,
1.12255e+00,4.06881e-02,-5.88449e-01,-1.16875e-01,2.97341e-01,
4.01708e-01,1.03296e+00,-7.14973e-02,1.27144e-01,2.73048e-02,
1.15441e+00,1.32688e+00,-1.70698e-01,-2.97928e-02,-6.59514e-02,
1.15066e-01,1.79105e-02,3.50049e-01,1.09763e-01,-3.81603e-01,
-3.95095e-01,-7.02162e-01,1.02752e+00,6.23330e-02,1.04261e-01,
-6.74415e-02,1.71387e-01,-6.52619e-02,-2.55154e-01,6.64895e-01,
4.37146e-01,-2.46267e+00,-7.63845e-02,1.96590e-02,-1.26924e-01,
3.94844e-01,1.41025e-02,-5.51651e-01,-8.58783e-03,-9.60822e-02,
-1.07354e+00,-1.23750e+00,8.17106e-02,-7.71326e-02,-2.54208e-02,
-1.97699e+00,-1.10415e+00,-8.44802e-03,1.22338e-02,-7.25870e-02,
7.55342e-01,4.48973e-01,4.29893e-01,6.76746e-02,-7.57451e-01,
-9.67453e-01,1.36044e-01,-7.77392e-01,1.15885e-01,2.13154e-01,
7.29693e-01,1.35874e+00,-5.46754e-01,-8.68334e-02,-6.59200e-02,
-1.47397e-01,1.55790e-02,-2.97948e-01,2.27122e-01,-9.15935e-01,
9.23550e-01,-9.25812e-01,-1.47715e-01,-3.66036e-02,3.45272e-01,
2.24206e-01,-4.74734e-01,-6.75778e-02,2.56839e-01,4.65225e-02,
-4.84697e-01,2.68387e-01,-1.26884e+00,2.12434e-02,5.82297e-03,
7.49283e-01,2.19526e+00,-1.01721e-01,1.71656e-01,-1.33518e-01,
-1.26730e+00,1.71535e+00,-5.62132e-05,-1.14828e-02,2.55650e-01,
1.44057e-02,-5.05337e-01,-8.77750e-01,7.49573e-02,2.72034e-01,
4.71806e-01,1.30604e+00,1.80947e-01,-4.23281e-02,7.72554e-02,
-8.40603e-01,-3.64419e-01,-8.25396e-01,-6.62682e-04,1.76589e-01,
7.82881e-02,9.57992e-01,-4.21141e-01,-3.20471e-03,2.89677e-01,
-1.27329e+00,-5.05353e-01,2.09193e-01,2.15654e-02,2.69079e-02,
9.34645e-02,4.68690e-01,7.01005e-01,4.18657e-02,7.41177e-01,
1.47800e+00,-6.48233e-01,-4.84592e-03,-1.13636e-01,4.05394e-01,
2.40066e-01,
3.14563e-01,
1.68594e-01,
1.83191e-01,
1.10475e-01,
2.22473e-02,
5.26517e-02,
1.22485e-01,
-2.69477e-01,
2.85806e-01,
-2.65158e-03,
2.17393e-01,
9.03243e-02,
4.53272e-03,
-3.06144e-01,
1.17081e-02,
1.26406e-01,
-1.60007e-01,
2.37872e-01,
7.27334e-02,
-1.69718e-01,
9.38492e-02,
1.27453e-01,
1.89880e-01,
-1.29915e-01,
7.16543e-02,
2.75694e-01,
1.48785e-01,
3.26379e-01,
1.11054e-01,
-4.36462e-02,2.79047e-01,2.52077e-02,3.68672e-02,-1.97206e-01,-1.82877e-01,-2.57294e-01,-1.44830e-01,-1.36147e-01,-2.64476e-01,7.60252e-02,2.37146e-01,-2.72523e-01,-2.91984e-01,1.49624e-01,2.95314e-03,1.65220e-01,-1.62100e-01,2.12239e-01,-1.04895e-01,-2.10072e-01,-1.58916e-01,2.36608e-01,7.88020e-02,2.38282e-02,4.84338e-02,-2.47490e-01,-2.81460e-01,1.60872e-01,-2.92796e-01,
3.85752e-03,2.91885e-01,5.60638e-02,2.64224e-01,-3.45460e-01,3.65041e-01,-1.03641e-02,1.44124e-01,1.56500e-01,-2.21795e-01,5.12006e-01,1.98418e-01,7.91496e-01,8.71158e-02,-3.43594e-01,-6.23129e-03,4.25414e-01,1.16085e-01,1.77403e-01,-1.12166e-01,7.96161e-01,-6.47183e-01,3.99793e-01,-2.26536e-01,4.47787e-01,-8.52282e-01,-4.19880e-01,2.94295e-01,-2.43328e-03,-2.82629e-01,
-3.36069e-01,-1.17124e-01,1.00032e-01,7.10026e-02,-2.76682e-01,1.78692e-01,4.23255e-01,1.55678e-01,-4.21165e-01,-2.31638e-01,-9.86209e-01,1.12408e-01,-7.98473e-02,2.32413e-01,-3.87762e-01,-1.72119e-01,3.23391e-01,-2.71875e-01,-7.71517e-01,-1.43788e-01,3.43373e-01,6.58403e-01,4.53689e-01,-1.84008e-01,-1.03309e+00,-1.33037e-01,3.28272e-01,1.71295e-01,5.00099e-01,1.67344e-02,
-1.71940e-01,-2.65232e-01,1.68858e-01,-3.52898e-01,3.53196e-02,6.90478e-02,4.72640e-01,5.22407e-01,3.45198e-01,-7.77346e-01,4.49622e-01,4.67303e-01,2.10986e-01,2.69197e-01,1.81727e-01,1.74669e-01,6.00329e-02,-6.33381e-02,4.29157e-02,-3.81492e-01,5.32743e-01,-5.52293e-01,-1.53790e-01,4.24484e-01,7.04717e-01,-2.57815e-02,-2.20415e-01,-4.35466e-01,-6.75550e-02,4.39890e-01,
1.22629e-01,4.53450e-01,-5.57012e-01,1.20252e-01,-1.75078e-01,5.22383e-01,9.91743e-02,-3.47998e-01,-9.73974e-01,3.37276e-01,2.94193e-01,-3.22320e-02,1.29572e-01,3.84511e-01,-4.45126e-01,-3.29206e-01,1.82238e-01,-8.71850e-01,8.92718e-03,2.28517e-01,-6.79415e-01,-4.34377e-01,2.93824e-01,-5.15915e-01,3.11211e-01,-4.61617e-01,-4.03372e-01,-2.01919e-01,1.07179e-01,7.63118e-02,
1.66611e-01,-4.55006e-01,-9.35586e-02,1.52900e-01,-1.83286e-02,-8.42229e-02,4.57338e-01,-5.36708e-01,6.73750e-01,5.68935e-01,-3.07144e-01,-4.24011e-01,-9.90245e-02,4.08516e-01,-4.65259e-01,-2.20855e-01,2.12124e-01,-1.97202e-01,-1.11059e-01,3.43457e-01,5.13800e-01,1.12480e-02,-5.45452e-02,-5.19434e-01,-6.71276e-01,-1.88887e-01,3.70765e-01,1.01690e-01,3.62518e-01,1.11572e-01,
-8.55692e-03,3.56718e-02,-2.10936e-01,-5.09099e-01,-1.22807e-01,4.54430e-01,2.37590e-01,2.91676e-01,3.88326e-01,1.50725e-01,1.78031e-01,4.39081e-01,-2.03994e-01,-1.44121e+00,1.29878e-01,-3.33626e-01,1.47050e-01,-6.23754e-01,9.11674e-02,8.03656e-02,1.37230e-01,2.59338e-01,-1.04744e+00,-3.32641e-01,-5.75706e-01,-2.73098e-01,6.77800e-01,-3.09627e-01,1.46848e-02,2.71686e-01,
-2.52279e-01,-3.83843e-01,-4.42678e-02,1.96061e-03,-1.62836e-01,5.21052e-01,4.17952e-01,1.06159e-01,2.15730e-01,2.00674e-01,-2.04639e-01,-1.03146e-01,2.54327e-01,-4.39528e-01,-3.85993e-01,1.64857e-02,2.77076e-01,-3.89192e-02,2.23869e-01,-1.13814e-01,-2.31565e-02,-9.63995e-02,8.73882e-02,3.44071e-02,2.10003e-01,4.64360e-01,-8.37061e-02,9.36003e-02,-1.88398e-01,4.06395e-02,
-8.42413e-01,1.55523e-01,3.94746e-01,-2.84796e-01,-1.02661e-01,-4.39822e-02,1.18967e-01,2.79965e-01,-6.78146e-01,-4.62437e-01,-1.01623e+00,9.39651e-02,3.22314e-01,1.53818e-03,-2.60113e-01,-1.93967e-01,4.81113e-01,4.09487e-01,-7.10282e-01,-1.42757e-01,1.84881e-01,2.75700e-02,3.55220e-01,-1.44153e-02,-3.63761e-01,-3.93249e-01,-5.83594e-02,2.60982e-01,4.83331e-01,3.36723e-01,
6.64466e-02,-3.27152e-01,4.41364e-01,3.96901e-02,2.06420e-01,5.52134e-01,-4.17040e-01,2.66376e-01,-3.03827e-02,-9.48144e-03,-8.09349e-01,2.95162e-01,2.62895e-01,-1.38752e-01,2.04081e-01,-4.12225e-01,-7.28117e-01,-4.92474e-02,3.71784e-01,5.07374e-02,-1.30752e+00,-8.22185e-01,-3.46948e-01,-3.03769e-01,1.06868e+00,3.74604e-01,1.36313e-01,3.47866e-02,4.93666e-01,-9.12020e-03,
7.55083e-02,-4.54723e-01,-2.00583e-01,6.29850e-02,-1.02599e-01,4.52560e-01,-7.74815e-02,2.68157e-01,9.96456e-02,-5.26723e-02,-3.56977e-01,3.46658e-01,6.83069e-01,-3.65496e-01,5.88247e-01,1.05841e+00,3.95258e-01,-6.27520e-02,-2.85635e-01,-1.51942e-01,9.71904e-02,-1.41831e-01,-2.63610e-01,3.69285e-01,-5.91063e-02,6.06865e-01,4.74288e-01,9.58218e-02,-1.37256e-01,-8.08335e-01,
3.07049e-01,1.52613e-01,-6.18113e-02,-2.73693e-01,3.14862e-01,3.63040e-01,-2.53200e-01,-8.09273e-02,3.77639e-01,-3.74753e-02,3.96666e-01,2.20085e-01,3.04090e-01,-2.92655e-01,6.43147e-01,4.18941e-01,-3.49976e-01,1.36576e-01,2.85802e-01,6.65473e-02,2.45303e-01,-6.55214e-01,1.67738e-01,4.25272e-01,3.81557e-01,3.00097e-02,2.18910e-01,-1.75819e-01,-3.61215e-01,1.65939e-01,
-6.94726e-02,2.99312e-01,-1.50018e-01,3.22552e-01,4.68821e-01,-5.66942e-01,-4.38852e-02,-6.53010e-02,-1.20878e+00,2.16982e-01,-1.00998e-01,-3.94986e-02,-1.65324e-01,3.15174e-02,-2.18310e-01,-1.47450e-01,-4.48518e-01,4.78591e-01,1.04523e-01,2.48459e-01,-3.42044e-01,3.74918e-01,2.18532e-02,3.94021e-01,3.41232e-01,-3.74688e-01,2.06151e-01,-1.27542e-01,-3.99236e-01,-3.35360e-01,
7.85270e-02,-1.23382e-01,6.95483e-02,-1.85242e-01,2.32816e-01,4.62700e-01,-9.37306e-01,-2.52617e-02,-2.30423e-01,4.74070e-02,4.49001e-01,2.35237e-02,4.88452e-01,-3.88428e-01,2.46421e-01,1.67178e-01,1.45633e-01,1.24967e-01,1.63375e-01,-1.39283e-02,-5.37153e-01,-4.28080e-01,-1.54257e-01,3.97192e-02,-5.49047e-02,-2.58585e-01,7.91340e-02,4.17876e-01,-1.71031e-01,9.07796e-03,
6.05836e-01,-2.51630e-01,5.11405e-01,4.57621e-02,-3.59428e-01,4.54622e-01,-4.17409e-02,-3.26436e-01,-1.40982e+00,2.08827e-01,3.57956e-01,-5.97393e-02,-1.26378e-01,3.40785e-01,-6.73639e-01,-8.35408e-02,-3.01642e-01,-7.92094e-01,2.90544e-01,8.24986e-02,3.44740e-01,1.28240e-01,-9.67217e-02,5.17443e-01,5.85809e-01,3.31325e-01,6.84758e-02,-9.43483e-02,-2.12269e-01,3.89942e-01,
-1.35348e-01,1.39249e-01,-7.00448e-01,-1.31657e-01,-2.86788e-02,-3.90390e-01,5.00492e-01,-4.92673e-02,-6.80485e-01,4.75523e-02,-1.70961e-01,3.35931e-01,-2.18395e-01,-4.41395e-01,-2.97554e-01,-6.20999e-01,3.80500e-01,-1.51890e-01,3.36636e-01,5.17984e-01,-5.59830e-01,1.19730e-01,-5.90159e-01,-2.43131e-01,-2.42069e-01,-2.47653e-01,6.36743e-02,-3.17915e-01,1.19496e-01,2.72895e-02,
-2.01634e-01,-2.78532e-01,-1.65092e-01,4.85591e-01,-1.42596e-01,-2.16496e-01,2.60396e-01,1.28489e-01,3.29857e-02,-4.86025e-02,-1.43298e-01,-3.71252e-01,2.09173e-01,-2.82069e-01,-3.61170e-01,3.28216e-02,2.56284e-01,-3.16261e-01,4.77734e-02,5.30426e-01,9.83789e-01,-1.04674e-02,2.13374e-01,-1.59336e-01,-1.82801e-01,-1.29712e-01,-1.60460e-01,4.75206e-01,4.95681e-01,-3.64876e-01,
2.51347e-01,-2.45623e-01,7.63125e-02,-2.85418e-01,-1.93030e-01,1.18888e-01,1.12548e-03,-3.78892e-02,2.09776e-01,2.52579e-01,-1.99893e-01,-7.44073e-02,-4.16708e-02,1.34359e-01,-9.19400e-02,-2.24807e-01,4.12191e-02,2.18409e-01,-2.89660e-02,-2.49913e-01,1.27703e-01,1.22527e-01,-2.66872e-01,-8.69869e-02,-1.89883e-01,-2.85785e-01,2.11342e-01,-2.40840e-02,4.52243e-02,-2.97899e-01,
4.24640e-03,-7.86082e-03,-3.02991e-01,-3.14620e-02,4.44280e-01,1.20005e-01,1.45252e-01,7.35876e-01,2.36945e-01,-1.15131e-01,1.54560e-01,2.37247e-01,5.29874e-01,-1.44140e-02,5.29614e-02,-2.54754e-01,-2.15613e-02,2.73132e-01,-1.13253e-01,-2.82814e-01,1.09680e+00,3.17835e-01,1.88203e-01,2.65183e-01,-2.27924e-01,-2.75614e-01,9.11785e-02,2.33650e-01,-1.20493e-01,1.36799e-01,
-8.38421e-02,-4.22218e-01,3.60953e-01,4.14653e-01,2.88252e-04,-1.56569e-03,-1.23945e-01,-2.76062e-01,6.40554e-01,-1.77815e-01,3.73976e-01,-5.89869e-01,-4.47265e-02,-5.59744e-01,-3.76227e-01,6.92494e-01,-2.75809e-01,6.89713e-01,2.01084e-01,-5.13626e-02,1.46432e-01,-5.32176e-02,-1.05058e+00,2.63543e-01,6.50279e-01,9.76149e-01,-6.62095e-01,-1.81328e-01,3.70111e-01,4.79458e-01,
-2.98464e-01,-4.19293e-03,2.97668e-02,5.67486e-01,4.00343e-01,2.08698e-01,2.46726e-01,-4.55028e-02,-4.93549e-01,3.14806e-01,-1.50013e-01,-2.57831e-01,-2.35434e-01,-1.88005e+00,-6.98953e-01,-2.37986e-01,-5.59298e-02,-2.55621e-01,9.99189e-02,1.43139e-01,8.92507e-01,3.23234e-01,-3.00026e-01,5.26442e-01,-2.77866e-02,7.45529e-02,1.73039e-01,-6.72860e-01,-2.24415e-01,-8.37801e-02,
8.33635e-02,4.62368e-01,-6.64896e-01,-2.71765e-01,3.75720e-01,3.47543e-01,3.14886e-02,5.04932e-01,-1.33695e+00,-5.40922e-01,1.86643e-01,-1.40296e-01,-1.77361e-01,2.04877e-01,3.10392e-01,-4.49957e-03,-2.46716e-01,5.14792e-01,1.65141e-02,-1.91160e-02,6.12335e-01,9.82474e-02,6.20313e-02,9.00017e-02,-3.06883e-01,-7.61491e-03,2.33960e-01,1.01814e-01,-2.11397e-01,-3.92603e-01,
-9.96415e-02,2.03826e-01,-6.15278e-01,-3.20371e-01,9.01526e-01,1.67258e-01,-6.55516e-01,-3.57338e-03,-2.31289e-01,3.76446e-01,-3.67542e-01,2.38379e-01,6.42408e-02,-5.05853e-02,-1.87142e-02,-3.38360e-01,4.31700e-01,-7.81514e-01,1.71938e-01,9.35274e-02,-1.13819e-01,-1.07360e-01,-3.37487e-02,1.20952e-01,-4.55589e-01,1.78833e-01,-4.81497e-03,-1.41811e-01,-2.70284e-01,-2.49310e-01,
8.61750e-02,5.05393e-01,1.72855e-01,2.32663e-01,3.94560e-01,3.63014e-01,-7.99677e-01,4.05458e-01,-2.57143e-01,-4.19139e-01,3.65961e-02,-1.45144e-01,2.75363e-01,-5.72718e-02,4.17052e-01,3.62277e-01,-1.09065e-01,3.94654e-01,-4.06119e-01,-4.66312e-01,4.59251e-01,-2.51544e-01,8.65933e-02,2.25610e-01,9.76491e-01,2.35484e-01,-5.22842e-02,4.19932e-01,-4.91221e-01,5.22155e-01,
8.64470e-02,-1.24325e-02,-4.36000e-01,1.98507e-01,-1.71796e-03,-2.99806e-01,4.54738e-01,-3.04626e-01,1.13125e+00,-1.15017e-02,-3.83721e-01,-4.53168e-01,-3.74069e-02,1.12512e-01,-8.71105e-01,-6.59659e-01,4.91883e-01,-1.75502e-01,-1.16038e-02,-2.36368e-02,-6.60057e-01,2.92840e-01,1.06792e-02,-7.51257e-01,-4.27426e-01,-2.35506e-01,4.50830e-01,2.68981e-01,5.21552e-01,-3.19166e-02,
7.83889e-02,4.00064e-01,2.68861e-01,-5.19798e-02,-6.15437e-01,-2.62462e-01,-8.73962e-02,-1.20155e-01,-1.78585e-01,1.92648e-01,-6.56868e-02,2.89716e-01,-3.15485e-02,5.75357e-01,8.72632e-01,8.77144e-02,-1.76465e-01,3.83946e-01,-4.39998e-02,-4.02006e-01,1.76358e-01,1.85271e-01,4.96824e-01,-1.18254e-02,4.96999e-02,2.99577e-01,-8.47422e-02,2.53783e-01,-3.80368e-01,5.04850e-01,
-6.72242e-01,1.04412e-01,-2.01328e-01,5.61025e-01,4.32083e-01,-7.13287e-02,-2.13108e-01,-1.17863e-02,-5.06678e-01,-4.71196e-02,3.33970e-01,-3.75981e-01,-2.14804e-02,-2.13990e-01,-5.36813e-01,-2.60642e-01,4.03178e-01,-2.06440e-01,-3.66960e-01,4.08099e-01,-3.47128e-01,2.54854e-01,5.90685e-01,-4.53342e-01,6.39358e-02,-1.93457e-02,2.98319e-01,3.51685e-01,2.23868e-01,-2.56181e-01,
5.12894e-02,-9.89940e-04,4.52350e-01,1.73178e-01,1.89926e-01,-5.87752e-01,-4.86957e-01,2.22223e-01,1.05896e+00,-6.16553e-01,8.26294e-02,-1.36740e-01,-7.76186e-02,2.04540e-01,-2.93397e-01,-6.39296e-01,4.33924e-01,1.34835e-01,-2.80699e-01,1.22139e-01,-1.76317e-01,1.37452e-02,7.76420e-01,-7.63788e-02,8.96748e-01,4.27574e-02,-2.48871e-01,-2.80269e-02,3.23163e-01,1.95695e-01,
-2.16752e-03,1.44326e-02,4.23927e-02,5.19366e-01,-9.97902e-02,-3.03125e-01,-1.12893e-02,-1.70640e-01,4.44390e-02,-6.48503e-01,-2.17042e-01,2.19414e-01,-2.13215e-01,-1.22192e+00,-7.01284e-01,1.66641e-01,4.04041e-01,6.91645e-01,-4.50970e-01,-2.50819e-01,-3.09754e-01,3.28777e-01,-4.96151e-01,-6.06784e-01,-6.19442e-01,-3.80551e-01,-2.70828e-01,5.95897e-02,7.10018e-01,1.63490e-01,
-2.25034e-01,-6.59021e-01,1.91753e-01,-1.49019e-02,3.17008e-02,9.24086e-02,1.06631e-01,2.43771e-01,1.03287e+00,9.23426e-02,-7.85395e-01,-1.55934e-02,-3.95692e-02,-1.22204e+00,-2.51008e-01,-4.41386e-01,4.60816e-01,2.62509e-02,2.13334e-01,-2.01326e-01,6.00125e-01,1.33611e-01,-3.68167e-01,5.43158e-02,-7.98638e-01,-2.51922e-01,3.99197e-01,-1.48068e-01,1.94345e-01,-1.31655e+00,
-2.56723e-01,
-1.31228e-01,
-9.53684e-02,
-1.60356e-01,
3.38340e-01,
2.37205e-01,
-7.06764e-02,
2.65642e-01,
-1.66998e-01,
-8.44332e-02,
-1.94813e-01,
4.60284e-02,
3.75547e-01,
3.31144e-01,
7.71799e-02,
3.03248e-01,
1.01719e-01,
-2.13315e-01,
-5.21474e-01,
3.65044e-02,
-8.43376e-01,
2.36889e-01,
2.46426e-01,
-7.56848e-02,
6.22390e-02,
3.89799e-02,
-1.06758e-01,
2.99808e-02,
1.83421e-01,
4.41725e-03,
1.51629e-01,1.88180e-01,-3.01331e-01,-2.19810e-01,-2.47942e-01,3.74391e-01,2.25929e-01,9.62369e-02,-8.34210e-01,1.29970e-01,-1.64214e-01,-1.40297e-01,-1.66184e-01,-1.78481e-01,3.24777e-01,-2.50105e-01,-1.21487e-01,-1.85049e-01,4.87106e-01,1.17981e-01,3.53571e-01,1.78588e-01,-3.76821e-01,-8.74169e-01,-5.71413e-01,2.30481e-02,1.51905e-01,4.98143e-02,-2.97524e-01,1.77825e-01,
-1.37997e-02,6.49835e-02,-3.69640e-01,1.01560e-01,-1.89573e-01,1.69142e-01,-7.90818e-01,1.55122e-01,-1.99379e-01,-4.33398e-02,2.47029e-01,1.07857e-01,3.86119e-01,2.05002e-01,-3.11422e-01,-7.88957e-02,3.04286e-01,-1.74075e-01,1.99328e-02,-4.67792e-01,-1.30956e+00,-6.24744e-02,1.49948e-01,-5.67149e-01,-5.43334e-01,5.00332e-01,6.90014e-03,-5.05281e-02,-7.22260e-01,1.85190e-01,
2.71679e-01,-7.94112e-02,-1.86043e-01,-2.54757e-01,-3.94611e-02,1.32779e-01,-1.37046e-01,-3.24918e-01,-1.60545e-01,-3.08975e-01,2.55591e-01,1.23157e-01,-2.69749e-02,-7.93110e-02,-2.24798e-01,-9.97616e-02,-1.35228e-01,-1.07795e-02,2.75087e-01,2.16935e-01,-1.68102e-01,-9.99334e-02,-2.68805e-01,1.71124e-01,1.37435e-01,-2.23090e-01,6.95700e-02,1.11973e-02,1.53390e-02,2.94273e-01,
4.24304e-02,-4.09495e-01,6.01557e-01,-4.46218e-01,-1.79985e-01,-3.72285e-01,-3.04436e-01,1.05914e-01,8.35777e-01,5.82634e-01,3.69058e-01,1.70150e-01,5.78141e-02,3.36574e-01,3.32506e-01,2.53830e-01,-3.94088e-01,2.71370e-02,3.62364e-01,1.28735e-01,3.99258e-01,-3.54389e-01,1.73283e-02,-1.02709e-01,-9.02629e-01,4.64751e-01,-3.15776e-03,-5.01098e-01,2.66363e-01,-4.25942e-01,
-3.11069e-01,1.29777e-01,1.40567e-01,-3.79631e-01,2.13753e-02,5.71570e-01,-4.97507e-02,3.16249e-01,-2.20974e-01,4.39137e-01,2.10686e-01,-2.69176e-02,3.41065e-02,4.12941e-01,-3.13157e-02,-2.69209e-01,6.89672e-02,-9.56181e-02,-1.92201e-03,2.05290e-01,-1.15440e-01,-1.32786e-01,5.11900e-01,-1.44273e-01,-4.35162e-01,1.20133e-01,-4.97783e-01,-3.51842e-01,1.05977e-01,1.78298e-01,
4.21055e-02,-1.65435e-01,-5.77413e-01,-1.19226e-01,-1.17343e-01,-2.14991e-01,1.45736e-01,3.60422e-01,-5.01425e-01,1.88889e-01,-1.11120e+00,1.92176e-01,-1.26606e+00,-2.03792e-01,-4.65274e-01,-3.94973e-01,1.03143e-01,-2.88918e-02,-3.55875e-01,8.19599e-01,-1.85572e-01,9.61337e-02,-8.86684e-01,-7.85356e-01,4.40781e-01,1.37180e-01,-3.97604e+00,3.06208e-01,-7.54214e-01,-1.52471e+00,
2.97352e-02,2.98236e-01,3.82550e-01,4.78066e-01,-1.25590e-01,8.93907e-02,8.23094e-02,-1.79867e-01,-6.84278e-01,-1.57763e-01,-4.44254e-01,-2.63313e-01,4.31526e-01,1.27752e-01,-6.61690e-01,-3.37840e-01,2.81689e-01,-1.62876e-01,-5.22432e-01,3.07927e-01,-1.16526e-01,4.55496e-01,-6.65084e-02,5.01578e-02,7.34796e-01,-2.45451e-02,-4.55444e-01,4.00628e-01,-6.66809e-01,4.54101e-01,
-2.49548e-01,1.68017e-01,1.19665e-01,-4.33131e-01,-9.96269e-02,3.30767e-01,5.22158e-01,8.28378e-02,6.08724e-01,-1.12112e-01,1.89641e-01,3.55031e-02,-7.17067e-02,-8.03557e-03,3.08604e-01,-4.61460e-02,-1.35225e-01,2.10821e-02,-2.18640e-01,1.37663e-01,-1.14026e+00,-2.26813e-02,-1.62972e-01,3.17707e-01,-2.80229e-01,-1.62548e-01,-1.28190e-01,2.54191e-01,-1.88005e-01,-3.65736e-01,
-9.58204e-04,-2.43024e-01,-3.84559e-01,-3.13755e-01,-2.57241e-01,2.48438e-01,1.05969e-02,-9.76198e-02,-1.54933e-01,8.46104e-02,6.38611e-01,6.74033e-02,-3.92369e-01,5.73326e-01,2.32665e-02,-2.62119e-01,5.54751e-01,-2.95013e-01,6.04889e-01,-3.50552e-02,1.16706e+00,3.95852e-01,-1.81510e-01,-5.54310e-01,-1.87015e-01,2.59162e-01,-1.62584e-01,2.38778e-01,6.65684e-01,2.83129e-01,
-1.45250e-01,-7.37214e-01,-8.75049e-01,3.29724e-01,-2.18623e-01,2.56675e-01,-6.00893e-01,-5.42583e-01,6.78249e-01,1.14684e-01,3.55160e-02,-3.82828e-01,-8.75456e-02,-4.80593e-02,-3.59018e-01,9.86699e-02,2.43193e-01,-9.02339e-02,1.94611e-01,-2.09927e-01,6.39658e-01,7.94055e-02,-4.19642e-01,6.54532e-01,4.55922e-01,-2.68577e-01,-1.28895e+00,-5.54987e-03,4.70653e-01,6.16063e-01,
1.48733e-01,2.11376e-01,-3.47189e-01,-1.04427e+00,-4.40087e-01,6.02606e-02,-6.51687e-01,2.35540e-01,1.55583e-01,4.03882e-01,6.03503e-01,4.41961e-01,1.90343e-01,-6.63286e-02,3.33842e-01,-1.35167e-01,3.60368e-01,-1.21549e-01,-3.69093e-02,-9.34958e-02,1.22206e-01,-1.22242e-02,2.91047e-01,-2.84629e-02,-4.19648e-01,-2.61434e-02,-7.16684e-02,-1.54931e-01,1.35927e-01,-3.76866e-01,
-9.07487e-02,3.91957e-02,4.89157e-01,1.83608e-01,-3.95352e-01,-5.18410e-01,3.45585e-01,2.18729e-01,5.59787e-01,-4.16966e-01,-2.38422e-01,2.44530e-01,1.90380e-01,2.73451e-01,-3.87128e-02,1.55878e-01,2.47318e-02,-3.32862e-02,-1.77930e-03,-4.33148e-01,-4.12265e-01,2.00606e-01,-3.86905e-01,5.71608e-01,-1.39162e-01,1.38091e-01,-2.75662e-01,3.50013e-01,-2.80953e-02,-1.70692e-01,
-1.35098e-01,3.17607e-01,5.34765e-02,1.08764e-01,-1.10858e-01,3.94240e-01,1.80275e-01,-9.05130e-02,-1.07716e-01,-7.27289e-01,-2.17276e-01,2.03195e-01,1.41804e-01,-2.05463e-01,-3.98394e-01,-4.75801e-01,1.93927e-01,2.07848e-01,2.44346e-01,-1.14974e-01,9.49108e-01,7.98519e-02,-1.94749e-01,1.34082e-01,5.19816e-01,1.90925e-01,3.60571e-02,3.98297e-01,-1.80495e-01,-2.06435e-01,
-1.54770e-01,-4.57510e-01,2.01993e-01,-2.64358e-01,2.32056e-01,1.23689e-01,1.81101e-01,-1.98502e-01,2.71186e-01,1.44362e-02,-4.25387e-01,6.29144e-02,2.08835e-01,-1.79093e-01,-3.15372e-01,1.90668e-01,1.94938e-01,2.89486e-01,-3.82241e-01,-1.10842e+00,-1.19509e+00,-1.39298e-01,4.41837e-01,-6.10870e-01,2.83266e-01,-8.48043e-02,-2.20746e-01,-4.15137e-01,-1.69276e-01,-2.09950e-02,
-2.20558e-01,-2.69940e-01,-5.68215e-01,-2.51357e-01,-4.15844e-01,-2.13858e-01,-3.29858e-01,4.75901e-01,-3.68026e-01,5.48891e-01,9.13658e-02,1.64392e-01,7.78745e-02,-9.55980e-02,2.13243e-01,8.31667e-02,-2.82534e-01,-2.39613e-01,9.01271e-02,2.75607e-01,1.04130e-01,4.39034e-01,1.36502e-01,-1.09973e-01,-1.01510e-01,-5.16635e-01,1.76324e-01,-1.88370e-01,2.00559e-01,9.42296e-02,
2.66150e-01,1.77302e-01,-3.17900e-01,5.66844e-01,3.41166e-01,1.20302e-01,2.86516e-01,2.81357e-01,3.95993e-01,-1.70725e-01,-2.16216e-02,-3.10973e-01,1.45975e-01,-2.28652e-01,-1.45885e-01,-3.91376e-01,-6.34007e-02,-1.76099e-01,-1.27030e-01,-4.01538e-01,3.98702e-01,5.69672e-02,-2.52917e-01,4.02402e-01,-3.57614e-02,-1.68978e-01,3.35989e-02,-2.05986e-01,-4.44839e-02,-3.25096e-01,
-1.61161e-01,-2.14967e-01,-2.65194e-01,-2.62009e-01,-2.51275e-01,-4.90362e-02,4.15845e-01,-2.00966e-01,8.77066e-02,-1.71944e-01,-1.29525e-01,1.61501e-01,-3.16539e-02,4.74113e-01,9.53779e-02,2.80278e-01,2.93532e-01,2.78889e-01,-5.39096e-01,1.29398e-01,-9.63335e-01,-3.47277e-01,-3.51785e-02,4.46448e-01,4.90939e-01,-2.01327e-01,4.42499e-02,3.17810e-02,-7.06242e-01,1.15332e-01,
1.03385e-02,1.73805e-01,2.66636e-01,-6.05271e-01,1.02087e-01,4.60122e-01,-7.85053e-02,1.83142e-01,-6.62771e-01,-9.86468e-02,-1.17783e-01,-6.56345e-02,5.91987e-02,-3.53510e-01,8.62201e-02,4.65453e-01,6.99592e-02,1.51336e-01,2.77478e-01,1.80052e-01,-2.71498e-01,2.61636e-02,-1.47462e-01,-3.22991e-01,-6.83114e-01,-1.33178e-01,-4.58383e-01,-2.48185e-01,2.71606e-01,5.54628e-01,
7.85896e-02,-1.62811e-01,2.59624e-01,-4.24457e-02,-3.96113e-02,-1.54768e-01,-1.97973e-01,-1.83119e-01,2.60438e-01,8.59051e-02,-1.03606e-01,-2.94957e-01,-9.47056e-02,-2.97894e-01,1.14584e-01,-8.09511e-02,-1.94627e-01,8.00678e-02,-1.35946e-01,1.03058e-01,-3.00591e-02,-1.72706e-01,-2.82884e-01,-2.18623e-01,-2.77518e-01,-1.17866e-01,-1.10251e-01,2.85389e-01,2.12312e-01,-1.04873e-01,
-1.03996e-01,-9.47843e-02,1.09440e-01,-2.15427e-01,-5.79536e-02,9.30747e-02,4.44398e-01,1.64041e-01,-1.43639e-01,6.37434e-01,8.77094e-02,1.83708e-03,-1.20356e+00,-4.24641e-01,-2.06179e-01,-2.71463e-02,-2.32443e-01,-1.50459e-01,-7.44272e-01,6.66458e-01,5.18635e-01,1.43614e-01,-1.72827e-01,1.16689e-01,2.04418e-01,1.03505e-01,4.65510e-01,3.69413e-02,-4.57484e-01,5.83904e-01,
-5.33772e-03,-3.84646e-02,-2.21892e-01,-1.46835e-01,-3.29364e-01,4.25162e-02,1.79862e-01,-1.63481e-01,1.99236e-01,1.16526e-01,-3.45265e-02,7.29186e-02,-1.43776e-01,3.15338e-02,8.65654e-02,2.14550e-02,2.08974e-01,1.98606e-01,-1.46441e-01,2.03000e-02,-2.24545e-01,2.45688e-01,-2.37051e-01,3.18196e-03,1.82598e-01,-2.36718e-01,3.02417e-02,-1.88906e-01,-9.61895e-02,2.45437e-01,
1.74290e-01,-1.10901e-01,1.35880e-01,1.49408e-01,6.91840e-01,8.21121e-02,-1.43755e-01,-1.71462e-01,-5.66278e-01,-4.59943e-01,1.81261e-01,-5.69489e-01,-1.71681e-02,-1.75541e-01,-7.37760e-01,1.49159e-01,2.80533e-01,2.00526e-01,-1.37632e-01,7.38885e-01,-6.07290e-01,-4.23127e-03,-5.15320e-01,-6.38302e-01,-1.23662e-01,1.48460e-02,-1.86885e-01,1.60723e-01,-1.73125e-01,3.60880e-01,
2.89387e-01,-4.85689e-01,5.06036e-01,-1.49335e-01,-3.22378e-01,1.16952e-01,1.68278e-01,2.51295e-01,-8.83528e-01,8.93674e-01,5.15212e-01,-6.32179e-01,7.19377e-01,-3.62380e-01,7.64173e-02,-4.83772e-01,2.95106e-01,1.80861e-01,3.18876e-01,-6.23602e-02,2.56420e-01,-3.52591e-01,4.31123e-01,7.70250e-02,-5.52867e-01,8.59450e-02,-2.23346e-01,2.13406e-01,1.56605e-01,-1.59184e-01,
4.46637e-02,-1.46325e-01,-2.80014e-01,-2.16675e-01,-1.76384e-01,7.98544e-02,-2.96508e-01,2.45079e-01,-4.17076e-01,-6.10950e-01,2.61869e-02,-2.26715e-01,1.26325e-02,3.77477e-01,2.05628e-02,4.23496e-01,4.51058e-02,2.58775e-01,-3.16663e-01,1.17708e-01,-4.09569e-01,-4.20466e-01,1.94135e-01,-1.64694e-01,-1.20985e-01,-1.14345e-02,1.67429e-01,-2.41776e-01,-1.64868e-01,1.68169e-01,
7.02459e-03,-1.82993e+00,-4.04732e-01,3.61043e-01,5.14615e-02,-3.16183e-01,1.48261e-01,3.12888e-01,8.60303e-01,1.30188e+00,-1.31942e-01,4.27038e-02,8.92316e-03,-1.13776e-01,2.81618e-01,-6.53364e-01,-5.66250e-02,1.30933e-01,4.01998e-01,3.24612e-01,2.24782e-01,-1.37050e-01,1.57655e-01,-4.19173e-01,-7.90937e-02,-3.26538e-03,-3.28653e+00,-2.22778e+00,-1.37594e+00,-6.03507e-02,
-2.24444e-01,3.72491e-01,-2.60401e-01,3.31766e-03,7.38507e-02,-2.01151e-01,6.45373e-01,1.61200e-01,8.64391e-01,-1.50108e-01,-4.50412e-01,2.33224e-01,-1.59129e-01,4.07438e-01,-3.31069e-01,-1.61852e-02,-1.15372e-01,1.06634e-01,5.17387e-01,-1.31452e-01,-1.40706e+00,4.24907e-02,1.26526e-01,7.19221e-01,5.54656e-02,-2.81336e-01,2.81008e-01,-3.09940e-02,6.29113e-02,2.05403e-01,
-1.77878e-01,-6.28348e-01,4.50712e-01,-8.60910e-05,3.71450e-01,2.75646e-01,1.45689e-01,-4.10190e-01,-9.06020e-02,1.15081e-01,2.12438e-01,9.88725e-02,-3.23185e-02,-2.79859e-02,3.74406e-01,4.63709e-02,-3.40651e-01,8.50914e-02,1.70975e-01,-1.58985e-01,-6.40342e-02,2.57317e-02,1.07633e-01,-1.82511e-01,-3.54937e-01,1.02034e-01,-5.26315e-01,-5.18045e-01,5.26295e-01,2.59018e-01,
-5.14922e-02,-4.11672e-01,-3.64256e-01,4.31008e-01,2.52907e-01,-9.34047e-02,1.25796e-01,1.29765e-01,2.40913e-01,1.90342e-01,-4.33299e-01,-2.21426e-02,1.33569e-01,-8.92415e-02,1.09094e-01,1.61630e-02,-4.40272e-01,-7.56614e-02,-6.74302e-01,-1.19508e-01,-1.34622e+00,-5.13219e-01,3.78122e-01,3.80617e-01,2.42971e-01,-1.42447e-01,9.41473e-01,-5.73060e-01,-1.93499e-01,-9.11745e-02,
3.68826e-02,-3.40889e-01,-1.10388e+00,-1.64933e-01,1.60371e-01,-4.30594e-01,-6.90460e-01,8.82778e-02,2.44300e-01,1.41394e-01,5.07299e-01,-2.81003e-01,-4.54423e-01,1.87793e-01,-3.85394e-01,5.10598e-01,9.07340e-02,-1.41486e-01,1.18110e-02,7.58691e-01,3.69632e-01,-1.72542e-01,1.46457e-01,-6.19276e-01,-2.18999e-01,-3.29300e-01,-1.32691e+00,1.07030e-01,-1.30367e-01,4.54400e-01,
1.87521e-01,-1.23395e-01,2.46996e-01,7.84183e-02,5.44906e-01,4.13896e-02,1.95193e-02,-3.74960e-01,5.18978e-01,-3.84602e-01,-1.61183e+00,-5.51140e-01,1.18618e-01,2.70900e-01,-6.97656e-01,-2.85199e-01,4.10628e-01,-4.72367e-02,3.04620e-02,4.09317e-01,-2.26303e-01,1.74595e-01,5.48047e-01,1.46432e-01,2.98459e-01,-3.89104e-01,-8.48454e-01,3.60835e-01,5.16889e-02,2.69635e-01,
2.60318e-01,
2.51899e-02,
-2.48888e-01,
-1.08548e-01,
-5.22082e-03,
-2.19892e-01,
-1.19157e-01,
8.91188e-02,
5.49188e-02,
1.42895e-01,
-2.40742e-01,
-4.51453e-02,
1.76698e-01,
1.33562e-01,
1.10085e-01,
2.09165e-01,
5.75364e-02,
5.74074e-02,
-1.86994e-01,
-8.84940e-02,
-3.12297e-01,
3.48008e-01,
-4.78570e-02,
2.72694e-01,
-3.63170e-01,
1.42571e-02,
6.01636e-02,
1.44229e-01,
1.73435e-01,
-1.93265e-01,
-2.14334e-01,1.41174e-01,2.23356e-01,1.43202e-01,1.89762e-01,-8.11148e-02,4.44266e-03,-7.08761e-02,1.22369e-01,-1.51337e-01,-2.10431e-01,7.17299e-02,1.64113e-01,2.37249e-01,1.22964e-01,-2.97159e-01,-1.50106e-01,-2.08991e-01,-9.26834e-03,1.00929e-01,-4.88377e-03,-2.63393e-01,-3.12128e-01,-1.51132e-01,2.92814e-01,-2.01803e-01,-2.27436e-01,1.16203e-01,-1.16041e-01,-2.91805e-02,
1.75082e-01,6.02732e-01,2.00045e-01,-2.50371e-01,2.36013e-02,-2.37826e-01,-8.99861e-01,1.32565e-02,4.10692e-01,-4.75316e-01,1.10384e-01,8.19724e-02,-1.06751e-01,-6.05588e-01,1.91299e-01,-4.56064e-03,1.42983e-01,5.04603e-02,-1.93419e-01,1.04474e-01,2.93886e-01,-3.68096e-01,4.80745e-01,-3.21816e-01,6.18357e-01,2.88397e-01,-1.28028e-01,-5.63662e-02,2.76402e-02,-9.55181e-02,
-2.88144e-01,3.86234e-01,8.85340e-02,-3.52427e-01,-2.03022e-01,-1.44327e+00,-4.24428e-01,-3.58530e-02,3.77332e-01,-2.64508e-01,-3.01692e-01,-4.12443e-02,-1.61690e-01,-6.55104e-01,3.59344e-01,-1.30726e-01,-1.38246e-01,-7.03309e-01,1.95189e-01,8.41748e-01,-7.99112e-02,3.11119e-01,-8.82188e-01,8.22821e-02,-4.48512e-01,9.93918e-02,-2.16881e-01,-2.63672e-01,3.14199e-01,-4.88884e-01,
1.63696e-01,1.12846e-01,2.86101e-01,5.63859e-01,1.70565e-01,6.89001e-01,7.53445e-01,-4.41823e-01,4.12805e-01,-6.09205e-01,-9.63470e-02,-4.26520e-02,2.99539e-01,-7.53050e-02,-5.50126e-01,8.22926e-02,1.86436e-01,8.94649e-02,-3.03699e-01,-2.99176e-02,4.39407e-02,4.33751e-01,-9.01211e-02,2.85038e-02,-1.03875e-02,1.05411e-01,1.85983e-01,3.43057e-01,2.11586e-01,-7.23061e-01,
-2.35021e-01,9.30616e-02,-2.23752e-01,1.19694e-02,-3.87759e-02,-1.08767e-01,1.90020e-01,-3.63252e-01,-2.24115e-01,2.38541e-02,1.81885e-01,7.11146e-02,-2.77424e-01,-3.01840e-02,-5.14929e-02,-2.30392e-01,2.01049e-01,-6.78600e-02,-1.33368e-02,1.37347e-01,1.76461e-01,-4.67205e-02,1.28689e-01,-3.32618e-01,2.69985e-01,-2.53475e-01,-3.23956e-01,2.21314e-01,-1.45147e-01,1.72138e-01,
-1.03607e-01,-1.54891e-01,1.35772e-01,2.69446e-01,-8.81704e-02,1.51140e+00,5.58039e-01,-1.17195e-01,-2.93955e-01,1.92153e-01,2.93512e-01,5.72615e-02,-1.97874e-01,9.92722e-02,4.99868e-01,-2.80343e-02,-1.25617e+00,-7.85935e-02,-2.61237e-02,1.42365e-01,1.34307e-02,-6.29732e-01,-8.67090e-02,2.19297e-01,3.57350e-01,-8.22964e-02,2.31455e-01,-5.39351e-02,1.38093e-01,4.71538e-01,
4.93070e-01,2.49879e-01,-2.79696e-02,-3.88542e-01,-3.95818e-01,-3.02652e-01,6.90615e-01,6.46610e-02,-1.91767e-01,-6.68830e+00,6.93259e-01,-7.12780e-01,1.05923e-01,2.52870e-01,2.39329e-01,2.27861e-01,-1.29296e+00,1.05573e-02,2.81757e-01,2.36399e-01,2.40481e-01,-2.42189e-01,-1.74750e-01,1.03275e-01,-4.38682e-01,-1.43203e-03,-1.70395e-01,3.21441e-01,-9.61265e-03,-6.34110e+00,
2.32418e-01,6.00884e-01,2.89501e-01,-6.24401e-01,2.28021e-01,7.50172e-01,7.93568e-02,7.82769e-02,-1.62354e-01,4.96957e-02,-2.65822e-01,-2.60501e-01,-2.26477e-01,3.37841e-01,-1.63447e-01,-4.50153e-01,2.15958e-01,-7.62172e-01,2.95082e-01,-3.57289e-01,-7.14222e-03,-7.32813e-02,-2.12589e-02,3.65320e-01,-7.72185e-01,-4.47886e-01,1.15139e-01,-4.04006e-01,2.74557e-01,1.75825e-01,
-9.07154e-02,5.58230e-02,-1.71340e-01,-1.03729e-01,-4.21436e-02,-2.63574e-02,-3.10109e-01,-2.97919e-01,-2.35255e-01,-3.03003e-01,3.77377e-02,-2.53767e-01,-1.58409e-01,3.44679e-02,9.20251e-02,1.73573e-01,4.05539e-02,1.62692e-01,-1.38031e-01,-1.22481e-01,8.28820e-02,-2.46689e-01,2.21935e-01,4.01629e-02,-1.78927e-01,-1.46245e-01,-2.08770e-01,-8.35388e-02,3.12210e-01,2.64957e-01,
-7.72456e-02,3.40283e-01,-1.19249e-01,-3.11540e-01,1.93305e-02,-3.58378e-01,-1.61856e-01,1.42239e-01,1.57635e-01,-1.37114e-01,-4.53874e-01,-1.98576e-01,-5.90423e-02,-1.35884e-01,3.41236e-01,-1.96245e-01,-5.48696e-02,1.79401e-02,1.52630e-01,2.24882e-01,-2.13097e-01,3.74153e-02,1.20134e-02,6.75394e-02,2.92523e-01,-1.33714e-01,4.06215e-02,-2.34982e-01,3.19399e-02,-2.93504e-01,
-5.30039e-01,-2.48714e-01,2.09538e-01,5.65547e-01,-1.28215e-01,-2.57418e+00,2.38129e-01,-5.21194e-02,-1.73153e-01,4.37325e-02,-4.55607e-01,-4.13195e-01,3.11211e-01,1.87599e-01,6.18445e-01,2.31892e-01,-1.59402e-02,2.93014e-01,1.73312e-01,4.18063e-02,-1.12712e-01,1.13093e-01,-5.13870e-01,2.08992e-01,-4.73016e-01,2.30064e-01,1.32268e-01,2.33543e-01,-4.05377e-04,-9.86878e-01,
1.45423e-02,-2.75013e-02,2.26703e-01,-2.16381e-01,-1.94783e-01,5.81822e-01,-7.26782e-01,-2.24431e-01,2.31749e-01,8.89968e-01,-4.03237e-01,5.11096e-02,-2.46388e-01,4.23297e-01,-1.01644e-01,-4.83196e-01,-5.50942e-01,2.20429e-01,-5.99076e-02,3.33794e-01,6.70711e-02,4.23620e-01,2.78194e-01,7.41236e-02,-2.48761e-01,-8.87551e-01,-3.95015e-01,-1.19484e-02,-1.47697e-02,-8.73801e-02,
-1.58335e-01,-1.46065e-01,-9.59183e-02,2.17169e-01,-2.51869e-01,2.20475e-01,2.35442e-01,9.06505e-02,-3.04913e-01,-3.30365e-02,1.46092e-01,2.26697e-02,1.71756e-01,1.06221e-01,-2.99162e-01,8.32073e-02,1.47907e-02,-1.83930e-01,-1.67483e-01,-2.45842e-01,-3.06702e-02,-1.02640e-01,3.13356e-01,-1.75904e-01,-1.19992e-01,-7.38662e-02,3.02284e-01,2.02435e-01,-2.50077e-01,4.99751e-01,
-4.72251e-01,1.85193e-01,-2.16183e-02,3.91145e-01,2.32912e-01,1.13062e-01,4.25492e-01,-7.20433e-02,3.27290e-01,-3.59329e-01,5.85066e-02,3.67761e-01,-2.86669e-01,-2.00382e-01,-7.11539e-01,1.28422e-03,8.82361e-02,-1.96766e-01,-1.76444e-01,-5.10289e-02,3.06846e-01,2.97076e-01,1.18524e-01,-7.21935e-02,1.61870e-01,-9.72975e-02,1.48050e-01,-3.31506e-01,-3.70740e-02,2.58690e-02,
1.05212e-01,-1.60229e-01,-7.26675e-02,-1.25708e-01,-1.85488e-01,1.60572e-01,9.72248e-03,1.16648e-01,1.50296e-01,7.34892e-02,5.84495e-02,1.01978e-01,-3.11180e-01,1.57430e-01,-2.20112e-01,-1.65446e-01,-1.28923e-01,2.99316e-01,-3.12826e-01,-1.45674e-01,-1.35591e-01,-2.25222e-01,-3.03606e-01,-9.43913e-04,2.25242e-01,-7.24096e-02,-2.41543e-01,-1.54003e-01,-1.78038e-01,-2.42847e-01,
-3.07221e-01,1.30652e-01,-2.58527e-01,-3.82474e-01,4.61926e-01,-1.02871e+00,-6.25343e-03,-9.17570e-02,4.23048e-02,-1.57708e-01,-7.12666e-01,-3.93303e-01,-1.96083e-01,-3.57929e-01,1.26761e-01,2.64276e-01,-1.09471e-01,2.06843e-01,1.78702e-02,1.18915e-02,1.11164e-01,6.56925e-01,2.98799e-01,-2.41607e-01,4.11745e-01,-3.78875e-01,-2.38288e-01,-3.86381e-01,-8.49673e-02,-1.71603e+00,
-2.27633e-01,-3.74033e-02,-1.88156e-01,1.42347e-01,3.67892e-02,-3.92878e-02,3.16554e-01,-2.13219e-01,5.33741e-01,-3.28655e-01,-1.16907e-02,1.27832e-01,-9.75032e-03,1.68156e-01,1.35102e-01,1.52681e-01,1.69922e-01,2.11566e-01,7.43170e-02,1.12324e-01,1.05615e-02,4.39077e-01,-1.47602e-01,1.80888e-01,1.72159e-01,1.00877e-01,3.56064e-03,5.50661e-02,4.31270e-01,-7.24224e-01,
1.58856e-01,5.81752e-02,-4.22564e-02,-1.71373e-01,5.18427e-03,-1.39988e+00,-5.86822e-01,-2.95963e-01,2.64023e-01,8.66324e-02,9.66601e-02,5.15009e-01,-2.58396e-02,2.59037e-01,1.64875e-01,-6.36907e-01,1.60136e-01,-5.68954e-01,-2.80674e-01,1.22393e-01,1.45312e-01,5.35740e-01,-2.42000e+00,5.08703e-02,3.22458e-01,-2.50431e-01,-3.95913e-01,-8.32297e-02,2.93709e-01,-1.73597e-01,
-3.37003e-02,-2.36928e-01,-6.24981e-03,4.73547e-02,-4.01536e-01,-3.95767e-01,1.50563e-01,2.45762e-01,3.18343e-02,-3.36418e-01,2.64229e-02,3.60084e-01,2.19991e-01,1.33261e-01,1.33276e-01,6.05877e-02,1.25132e-01,-2.43454e-02,-2.21229e-01,1.88062e-02,-6.15544e-02,1.93454e-02,4.52792e-02,-1.81940e-01,1.80160e-02,-6.06631e-02,1.32425e-01,1.28492e-01,-1.93445e-01,2.40943e-01,
2.15542e-01,-2.56281e-01,-1.09259e-02,-4.60062e-02,-4.58129e-02,-4.21785e-01,-3.57488e-01,-1.07374e+00,-4.22877e-02,4.56675e-01,4.90886e-01,3.06213e-01,-4.62449e-01,9.74353e-02,1.97383e-02,1.89325e-01,-5.46666e-01,1.78218e-01,4.95489e-02,3.75280e-01,1.68047e-01,-3.97300e-01,-4.14745e-01,2.88909e-01,-5.24764e-02,-2.71354e-01,1.86091e-02,-1.25206e-01,9.17098e-01,2.39706e-01,
-5.53167e-01,-1.99176e-01,4.48587e-02,6.19725e-02,1.80150e-01,4.09403e-01,1.46409e-01,-3.12228e-01,-1.56897e-01,-1.76131e-01,4.70192e-01,-9.64361e-02,8.82219e-02,2.10767e-04,-1.36106e-01,9.06891e-03,1.12637e-01,1.49764e-02,3.91439e-02,-1.69573e-01,-2.08513e-01,4.15694e-01,8.24869e-02,-3.42614e-01,-2.96071e-01,2.07464e-01,3.66807e-01,-8.15393e-02,1.63333e-01,-4.81242e-01,
-9.73396e-03,-5.45761e-02,-1.01464e-01,3.35841e-01,2.76280e-02,1.24781e+00,1.58823e-01,-2.27206e-01,-2.52650e-01,2.54813e-01,4.90822e-01,7.85123e-02,7.31452e-02,4.94405e-01,2.41308e-01,-5.46042e-02,2.04294e-01,3.58475e-02,1.47034e-01,-2.00070e-01,2.23939e-01,-4.60810e-01,-2.87528e-01,1.67669e-02,-5.70245e-01,-1.18166e-01,-3.36881e-02,3.04609e-01,-2.45998e-02,7.54679e-01,
2.12458e-02,2.39080e-01,9.71881e-02,-5.55792e-01,5.78562e-01,-1.28028e+00,-7.03074e-01,2.19992e-01,-1.58653e-01,3.34520e-01,-4.41633e-01,-2.62234e-01,6.76460e-02,-5.19787e-01,1.28523e-01,2.06046e-01,-4.10343e-01,-4.76326e-03,1.20705e-01,5.27718e-01,-2.98252e-01,2.66258e-01,2.52027e-01,2.15744e-01,6.42692e-01,8.86479e-02,-3.31715e-01,-2.79315e-01,7.14556e-01,-6.70216e-01,
3.21462e-01,1.34679e-01,-1.68347e-01,2.80496e-02,2.25576e-01,-4.21170e-02,-1.60847e-03,1.88974e-02,-1.55594e-02,-1.20346e-01,-1.03172e-01,1.04352e-01,8.97709e-03,-1.55578e-01,-3.18283e-01,7.73909e-02,1.93671e-01,-5.52697e-02,-2.08305e-01,-5.30290e-02,-2.15473e-01,9.75749e-02,1.90298e-01,-4.11326e-01,-2.80095e-03,6.92074e-02,-2.00024e-01,9.06722e-02,1.02987e-01,-9.65662e-02,
3.38378e-01,-1.88243e-01,-1.39076e-02,-2.39977e-01,-7.70408e-02,-1.38447e+00,-3.66151e-01,-4.40711e-01,6.00917e-01,7.31935e-03,-5.80651e-02,5.22494e-02,-4.36641e-01,-5.14363e-03,-2.25690e-01,-1.10350e-01,3.04027e-01,-3.21557e-01,-2.98332e-01,3.26555e-01,6.69691e-02,2.11902e-01,-2.02995e+00,-1.07250e-02,-7.67726e-01,-2.46999e-01,-2.48769e-01,3.28953e-02,2.81825e-01,2.94877e-02,
-3.60735e-01,3.22871e-01,2.42547e-01,-1.21166e-01,1.26400e-01,1.05832e+00,1.00107e-01,-2.09122e-01,-1.47787e-01,1.97247e-01,2.32427e-01,1.00713e-01,2.42229e-02,2.88680e-01,2.24377e-01,-2.30919e-01,1.17374e-01,-1.23147e-01,-1.42781e-01,-1.77099e-01,1.05513e-01,1.26674e-02,1.76372e-01,-7.61475e-02,-4.50126e-01,5.96172e-02,1.82668e-01,-1.37308e-01,-8.13831e-01,6.37877e-02,
1.07436e-02,-2.16388e-01,2.75489e-01,4.46368e-01,-2.09591e-01,-7.69606e-02,4.44667e-01,2.30993e-02,1.97998e-01,-2.36577e-01,-6.73053e-02,-4.42685e-02,3.03313e-02,1.33044e-01,-3.47916e-01,3.20988e-01,2.49219e-02,1.95704e-03,1.60096e-01,-8.86882e-02,-7.51950e-02,3.39448e-02,1.03612e-01,1.93327e-01,2.30932e-01,-9.24398e-02,9.62522e-02,3.49264e-01,3.94076e-01,6.85344e-02,
1.74662e-01,4.79144e-01,-5.77151e-02,-2.13537e-01,3.30446e-01,-1.44706e-01,-2.74841e-01,-2.50663e-01,-3.95642e-01,-6.82916e-01,-3.78050e-01,-3.53752e-01,-2.81139e-01,-2.36173e-02,4.19277e-02,2.74279e-01,-4.52833e-01,7.24863e-02,-9.69653e-02,3.38646e-02,2.03342e-01,-3.01360e-03,-1.04642e-01,1.25334e-01,1.04853e+00,-6.07356e-01,-3.82427e-01,-5.98625e-01,4.26932e-01,-6.44026e-01,
-5.67098e-02,-7.80995e-02,2.83481e-01,2.36271e-01,-3.96150e-02,4.78642e-01,2.38265e-01,-8.10760e-02,3.44614e-02,-1.54485e-01,2.34297e-01,1.14613e-01,9.02457e-03,2.15498e-01,-6.18178e-02,7.56871e-02,1.88064e-01,-1.32669e-03,1.79855e-01,-9.93601e-02,-1.16705e-01,-2.27220e-02,-1.49117e-02,-8.93612e-02,-2.42711e-01,-1.05966e-02,3.34119e-02,1.42405e-01,-2.23787e-01,9.49557e-02,
2.83758e-01,4.40041e-02,-1.00132e-01,9.22098e-02,-1.56888e-01,-2.50104e-01,-2.34803e-01,-1.49655e-01,-2.22908e-01,1.78915e-01,2.43564e-01,-2.51721e-01,-2.60256e-01,8.45672e-02,-9.27836e-02,-2.11167e-02,-2.44429e-01,-2.11414e-01,3.39541e-02,3.05277e-01,2.24689e-01,-2.91626e-01,-1.83996e-01,-2.35603e-01,-1.73301e-01,-2.08928e-01,-5.12698e-03,6.58655e-03,2.31222e-01,4.90796e-02,
-3.22025e-01,
-5.74958e-01,
5.01330e-02,
-5.19751e-01,
-7.38015e-02,
1.63355e-01,
5.30149e-02,
-7.24681e-03,
-1.00178e-01,
2.49569e-01,
1.03633e-01,
-7.87091e-02,
1.46088e-01,
-1.62154e-01,
-9.31101e-02,
-2.96042e-04,
-1.36530e-01,
-7.27212e-02,
2.67400e-01,
1.11126e-01,
1.54735e-01,
1.84544e-01,
-2.68156e-01,
1.13871e-01,
1.92080e-01,
9.83203e-02,
5.86335e-02,
9.07840e-02,
-1.80960e-01,
-7.84457e-03,
-2.26558e-01,1.16747e-01,-4.00468e-01,-1.36081e-01,-1.24325e-01,-1.13970e-01,1.07204e-01,-2.16129e-01,4.64945e-02,-1.24141e-01,-2.58043e-01,-1.57384e-02,-1.64044e-01,-1.53587e-01,1.25674e-01,-3.05233e-01,1.74733e-01,-4.34813e-03,1.06469e-01,-2.23736e-01,-4.11168e-02,4.17099e-02,-3.97403e-01,2.73073e-01,-8.10116e-02,1.01143e-01,1.00370e-01,-3.23252e-01,-1.45593e-01,2.52618e-01,
3.07194e-01,1.27209e-01,-5.63778e-02,1.15380e-01,1.61193e-01,-3.56967e-01,1.81956e-01,-3.01137e-01,-1.92876e-02,1.20188e-01,-1.38127e-01,-5.30828e-01,-2.40482e-01,8.55797e-02,-8.46992e-02,-7.56899e-03,-5.37521e-02,1.78955e-01,4.92341e-02,-1.51305e+00,1.03195e-01,5.15284e-02,6.67949e-01,-1.84519e-01,-6.90119e-01,-2.06089e-01,2.58794e-01,-2.78144e-01,3.99248e-01,1.20713e-01,
1.63191e-01,3.52846e-01,-1.63077e-01,2.00806e-01,3.85563e-02,-3.61351e-02,1.34318e-01,-1.64830e-01,-1.07872e-01,-3.09344e-01,1.10079e-01,-3.93203e-02,1.98895e-02,3.90028e-01,-5.53653e-02,-7.97411e-02,9.39023e-02,1.79700e-01,3.99032e-02,-2.00863e-01,-8.83687e-02,3.17925e-01,1.27910e-01,1.88410e-01,-1.73831e-01,-1.24475e-02,-9.12843e-02,-8.69481e-01,-3.75722e-01,-1.77943e-01,
-1.70159e-01,-7.70289e-01,6.67384e-01,-1.95701e-01,-8.05194e-02,1.39306e-01,-3.46939e-01,4.72613e-02,4.57034e-02,7.25665e-02,-2.29305e-01,-5.60774e-01,-1.03176e-01,-3.50578e-01,1.69125e-01,-5.46895e-01,-4.24088e-01,-3.92481e-01,-3.99777e-02,2.56158e-01,4.11364e-03,-4.22095e-02,7.20684e-02,1.27182e-01,4.52360e-01,4.89960e-02,-1.34699e-01,1.24810e-01,-1.01608e+00,-2.77229e-01,
2.79043e-01,5.00746e-01,1.99464e-02,-6.77945e-02,2.41717e-01,3.46744e-02,4.96592e-01,2.38507e-01,5.53622e-02,2.71279e-01,-9.62607e-02,5.99505e-01,-3.09150e-01,1.34254e-01,-2.45879e-02,3.40843e-01,4.99801e-02,1.74983e-01,2.43910e-01,-1.95834e-01,2.84318e-01,-2.84897e-02,-5.14114e-01,-3.12796e-01,-2.16371e-01,-7.06345e-02,1.05912e-01,6.41340e-03,-2.68773e-03,2.44976e-01,
-4.28124e-02,2.80657e-01,2.91133e-01,1.77962e-01,-2.02140e-01,2.52944e-01,3.03654e-01,2.28667e-01,-2.28035e-01,-6.66077e-02,-3.19686e-01,9.95229e-02,-2.06773e-01,-3.74844e-01,-1.66319e-01,1.94973e-01,-1.66848e-01,-2.11755e-01,1.50724e-01,5.35256e-02,-2.52156e-01,2.00704e-01,2.46899e-01,1.62948e-01,6.15296e-02,-3.06082e-01,-1.12285e-01,-2.65497e-01,-6.90858e-02,1.79797e-01,
1.39171e-01,7.74374e-01,-1.80281e-01,2.50716e-01,1.90151e-01,-1.87913e-01,6.33360e-01,-5.20461e-02,-2.47146e-02,-1.05355e-01,2.07455e-01,1.47218e-01,1.60602e-03,5.56797e-01,1.06566e-01,4.61501e-01,6.92352e-02,2.32669e-01,2.58852e-02,1.30448e-01,2.31782e-02,3.30927e-01,-6.78317e-01,-3.45777e-01,-9.97432e-02,9.11211e-03,-9.50142e-02,-3.33707e-01,-4.42764e-02,1.25657e-01,
2.73502e-01,8.06679e-01,-1.56289e-01,-2.54833e-01,2.63946e-01,-2.77212e-01,3.34702e-01,-2.36173e-02,-1.01223e-01,-2.39152e-01,-3.29121e-02,1.49241e-01,-1.46456e-01,-1.15309e-01,3.00412e-01,2.98437e-01,2.91376e-01,3.22062e-02,2.09873e-01,3.12133e-02,2.83546e-01,2.43038e-01,-1.73010e-01,3.42748e-01,-4.20923e-02,5.44285e-02,4.58730e-02,-2.67432e-01,1.34685e-02,-1.96040e-01,
1.07841e-01,6.31585e-01,-7.61139e-01,-2.24495e-01,-1.29298e-02,-1.39192e-01,4.29921e-01,9.93173e-02,2.63784e-01,-2.09116e-01,1.91986e-01,4.37068e-01,-4.12384e-02,9.55029e-02,3.08452e-01,6.63023e-01,2.94264e-01,-3.36278e-02,1.00388e-01,2.46256e-01,8.89008e-02,-1.05053e-01,-5.78261e-01,-3.24030e-01,5.04365e-02,6.33970e-02,1.17699e-01,-7.69604e-02,2.03418e-01,-2.98711e-01,
-3.52192e-02,7.59080e-01,-3.91625e-01,6.07298e-01,7.96304e-02,-3.79191e-01,2.91522e-01,-4.73133e-01,8.52576e-02,-1.73363e-01,5.13262e-01,-1.95085e-01,2.14067e-01,6.90262e-01,-2.23538e-01,1.36364e-01,1.41743e-01,7.01063e-01,4.17044e-02,-3.04112e-01,-3.09338e-02,1.77984e-01,-9.29630e-02,1.25456e-01,-9.22751e-01,-3.06705e-01,-1.11632e-01,6.79097e-01,-2.16512e-01,-1.77289e-01,
2.84978e-01,6.25199e-01,-7.50010e-01,7.19948e-02,7.95433e-02,7.78410e-02,4.70999e-01,1.57913e-01,3.23853e-02,-2.61599e-01,3.73140e-01,8.86620e-01,-1.78708e-01,3.65764e-01,6.98877e-02,5.65936e-01,3.79677e-01,2.23510e-01,3.46035e-01,-4.67456e-01,-8.71442e-03,-1.69025e-02,-6.27236e-01,-2.10627e-01,-3.01184e-01,1.04037e-01,3.50433e-01,-6.51387e-01,-3.10477e-01,4.68929e-02,
1.67046e-01,2.40483e-01,4.24569e-01,2.17293e-01,-1.45355e-01,1.40106e-01,1.53209e-01,-7.42743e-02,7.11078e-02,-1.20589e-01,-1.62927e-01,-3.31752e-01,6.05926e-02,8.89800e-02,3.04356e-01,-3.06561e-01,-2.56419e-02,7.15531e-02,-6.37102e-03,-3.33038e-03,-2.07222e-01,2.43046e-01,-5.26188e-01,1.00067e-01,-1.27974e-01,-1.52738e-02,-7.48364e-02,-1.67994e-01,9.29598e-02,-2.00206e-01,
3.16427e-01,-2.12025e-01,-2.52164e-01,7.75032e-02,-2.51038e-01,1.18355e-01,-7.18572e-02,-5.97679e-02,-2.16112e-01,-2.24660e-01,2.88670e-01,4.88506e-01,-1.50539e-01,1.93798e-01,1.09948e-01,1.59518e-01,-9.02585e-02,-8.06323e-02,-1.65532e-03,1.64347e-01,-1.05582e-01,5.38190e-03,8.88437e-01,2.40009e-01,5.30183e-04,5.89640e-02,-1.14100e-01,1.68579e-02,-3.54822e-02,-5.39733e-02,
-3.16491e-02,-7.27879e-01,3.14853e-01,-6.80116e-02,2.55045e-01,2.79224e-01,-1.00274e-01,-9.82050e-02,2.04570e-01,1.61051e-02,-7.90450e-02,-4.37543e-01,5.52513e-01,-2.29734e-01,2.33750e-02,6.93053e-02,4.74884e-01,-1.79549e-02,-7.17654e-01,1.37414e-01,-5.85377e-01,-4.83576e-01,1.79413e-01,-1.10788e-01,-1.64146e-01,1.65594e-01,2.12965e-01,1.22159e-01,-8.83618e-01,3.66947e-02,
1.12468e-01,-1.39332e-01,6.28746e-01,1.84780e-01,9.48538e-02,3.58262e-01,-1.01438e-01,2.11744e-01,-1.79923e-01,-1.05471e-01,-8.06450e-02,-2.44803e-01,6.67825e-02,2.50102e-02,3.88041e-02,-6.17264e-01,-1.86506e-01,-1.19463e-01,2.50842e-02,4.77754e-01,-2.18110e-01,-5.14139e-03,-2.20377e-01,-1.85821e-01,5.69616e-02,-5.57325e-02,-5.94649e-02,6.64661e-01,2.60655e-01,4.54492e-02,
-1.03267e-01,-3.73115e-01,-3.38258e-01,-8.32391e-01,-8.53712e-02,3.97864e-01,-1.08627e+00,2.25703e-01,8.69274e-02,-2.76039e-01,-8.22947e-02,6.60768e-02,-4.46239e-01,-1.24555e+00,1.82578e-02,3.95986e-03,2.25719e-01,-3.00120e-01,-6.19040e-01,5.02497e-01,2.66354e-01,-8.04165e-01,1.29980e-01,4.47034e-02,4.70383e-01,2.21167e-01,-3.34161e-01,-1.59615e-02,1.13073e+00,6.32349e-02,
1.83503e-01,-7.71819e-01,-3.22759e-01,-5.95106e-01,-3.09641e-01,1.73745e-02,-2.86072e-01,2.82550e-02,1.34087e-01,4.66467e-01,-7.76955e-02,-5.22703e-02,1.68690e-01,-5.16727e-01,2.04270e-01,7.14047e-02,3.18591e-01,-1.97959e-01,-3.28768e-01,1.92694e-01,-1.55733e-01,-5.34348e-01,5.94074e-01,1.27100e-01,6.46129e-02,2.53187e-01,4.37643e-01,9.85287e-01,-2.69652e-01,-2.55085e-01,
-3.24880e-02,7.86584e-01,-5.34017e-01,6.64489e-01,2.68213e-01,-5.98420e-01,4.33944e-01,-6.53868e-01,-5.20891e-02,-1.71567e-01,4.81356e-01,-5.26159e-01,4.92372e-02,7.96384e-01,-1.67401e-01,-8.46427e-03,1.47656e-01,8.95272e-01,9.03374e-02,4.37111e-01,2.09501e-02,1.92800e-01,-3.71289e-01,-2.95923e-02,-1.35638e+00,-3.81610e-01,1.27184e-01,6.76834e-01,-7.15327e-02,7.24050e-02,
1.68230e-01,-2.93391e-01,-1.73992e-01,-8.46692e-02,-6.60474e-02,-4.85155e-02,-2.21834e-02,-3.01406e-03,2.75809e-01,2.24705e-02,9.97094e-02,-2.88161e-01,-2.46681e-01,2.36915e-01,3.47194e-02,-1.63090e-01,2.49555e-01,-1.95986e-01,-5.23845e-02,-5.96137e-02,1.68959e-02,-1.32744e-01,-1.96299e-02,-1.27432e-01,-2.20710e-03,7.68701e-02,-2.16543e-01,-3.10212e-01,-3.15534e-01,-5.98840e-02,
-2.66125e-01,2.10783e-01,-2.64504e-01,7.02974e-02,9.79957e-02,2.14641e-02,1.25425e-01,1.86946e-01,-1.05353e-02,-4.84768e-02,2.77528e-01,5.68520e-01,-1.66176e-01,-1.26671e-01,-3.00727e-01,4.29860e-01,1.11141e-01,-7.46874e-03,2.87532e-01,-1.83645e-01,1.42186e-01,2.14407e-01,2.64356e-02,3.35638e-01,-2.05601e-02,2.03484e-01,2.43127e-01,1.45576e-02,-1.21507e-01,1.00258e-01,
-1.35501e-01,-2.81017e-02,1.50888e-01,1.00258e-01,2.89632e-01,1.75778e-01,-2.13478e-01,-2.28393e-01,1.96712e-01,2.19186e-01,1.35065e-01,1.24578e-02,-1.88493e-01,2.67185e-01,-1.53193e-01,-3.12488e-01,-2.85022e-01,-1.66402e-01,-3.30594e-01,-2.35658e-01,-2.18152e-01,1.08500e-01,-2.94556e-01,-2.65876e-01,-2.97371e-01,-2.86800e-01,-1.32956e-01,2.97454e-01,-2.50690e-01,1.21502e-01,
-2.08233e-01,-1.57015e-01,2.74553e-01,1.44707e-01,-1.77095e-01,2.25283e-03,1.07926e-01,5.40581e-02,-1.28037e-01,4.63218e-02,1.17439e-01,-1.08931e-01,2.25381e-01,1.70249e-01,2.10693e-01,3.72755e-03,4.34163e-02,3.88089e-02,-1.52047e-01,1.40187e-01,-1.03455e-01,1.43104e-01,-3.74656e-01,-2.34168e-01,2.17592e-02,-2.42548e-02,-1.75199e-01,-1.52746e-01,1.43608e-01,-6.65883e-02,
-2.56854e-01,-2.24745e-01,-1.63440e-01,-2.69283e-01,-2.45910e-01,2.10340e-01,-2.27854e-01,-8.97540e-02,-2.57563e-01,2.35207e-01,-2.85084e-01,2.95730e-01,1.80295e-01,-1.97976e-01,-7.11178e-02,-6.89412e-02,1.18245e-01,1.18831e-01,2.28094e-01,1.00989e-01,-1.93578e-01,7.60795e-02,-2.23585e-01,6.67498e-02,1.55493e-01,-2.93783e-02,-3.65895e-01,-2.37139e-01,1.04187e-01,3.15125e-01,
9.31017e-02,-2.24025e-01,-2.67204e-01,2.37692e-01,2.93747e-01,2.42475e-01,-2.63190e-01,1.32633e-01,-1.85105e-01,2.26018e-01,2.26815e-01,-1.30370e-01,-2.89405e-01,2.92773e-02,-3.54664e-02,2.46323e-01,-2.96483e-01,-7.77990e-03,-3.37526e-01,9.63490e-02,1.12423e-02,4.74082e-02,1.00391e-01,-3.26521e-01,-2.73956e-01,1.80974e-01,-1.04780e-01,-7.08907e-02,1.45041e-01,-2.07035e-01,
-2.52761e-01,-9.86087e-02,9.45414e-02,1.54339e-01,-3.05023e-01,-1.60420e-01,2.22911e-01,9.29695e-02,6.95784e-02,-7.13359e-02,-1.50244e-01,1.50002e-01,2.49451e-01,-2.91306e-01,-1.40647e-01,-4.05946e-02,-6.24181e-02,2.42525e-02,-2.64629e-01,8.92874e-02,5.01317e-02,-3.04129e-01,4.48049e-02,-4.02270e-01,7.43214e-02,1.76615e-02,-1.51504e-01,1.14432e-01,-1.92099e-01,-2.34329e-01,
1.85815e-01,-2.00211e-01,5.51910e-02,4.49135e-02,1.33021e-02,1.98140e-01,3.04940e-01,1.25757e-01,1.48170e-02,-9.69723e-02,-1.97811e-01,-1.70518e-01,1.64482e-01,-1.81313e-01,7.87227e-02,-1.78759e-01,-2.61951e-01,1.52538e-01,1.36280e-01,-2.72148e-01,4.28861e-02,-2.15115e-01,2.06698e-02,-3.42986e-01,1.82179e-01,-1.92460e-01,2.00825e-01,5.51067e-02,-2.10999e-01,1.85883e-01,
-2.14061e-02,8.32609e-02,3.97698e-02,-7.17401e-02,7.74066e-02,9.88601e-02,-1.36354e-01,3.59306e-02,-1.50950e-02,3.75959e-02,2.68001e-01,-2.89206e-02,-1.45611e-01,2.16752e-02,-8.58685e-02,-2.09288e-01,-3.20753e-01,1.30233e-01,-1.27531e-01,-1.69168e-01,1.94046e-01,-9.11535e-02,1.26228e-01,6.90130e-02,-1.75979e-01,-6.28495e-02,2.37799e-01,-1.78891e-01,-3.63481e-04,-2.33940e-01,
-1.32047e-01,-9.68180e-02,1.01689e-01,1.79848e-01,-1.81150e-01,-5.09501e-02,-1.15796e-01,-9.09354e-03,1.30940e-01,-4.28280e-02,-1.58107e-01,-1.43893e-01,2.56101e-01,-6.00027e-02,2.21200e-01,3.53158e-01,1.76603e-01,-1.74436e-01,1.06988e-01,2.48360e-01,-1.99002e-01,7.46869e-02,3.80513e-01,2.03181e-02,2.77587e-01,3.78672e-02,-2.30881e-01,6.57127e-01,-6.03969e-02,6.25551e-04,
2.64062e-01,1.42982e-01,2.91272e-02,-1.75214e-01,3.11667e-03,-2.08108e-02,1.30507e-01,2.39371e-01,1.74930e-01,-9.06874e-02,1.19576e-01,8.36131e-02,2.27176e-01,2.70527e-03,-3.76048e-02,-1.58654e-01,-8.92941e-02,2.61488e-01,-1.38830e-02,7.72004e-02,-4.53643e-02,1.85626e-02,-2.90231e-02,-2.73640e-01,-2.01913e-02,-2.74392e-01,-1.40186e-01,2.12902e-02,7.98719e-02,-3.36717e-02,
1.53702e-01,1.61792e-01,-2.86975e-01,-1.10359e-01,2.34454e-01,-1.21608e-01,2.99975e-02,-7.58038e-02,-2.66384e-01,-2.53109e-01,-8.51424e-02,-2.51878e-02,-1.07511e-01,2.05010e-01,5.65547e-02,9.08738e-02,2.61413e-01,1.70482e-01,2.35737e-01,-1.24170e-01,1.76636e-02,-1.60698e-01,-3.26045e-01,-1.84288e-01,-1.81379e-01,-3.79433e-02,1.72528e-01,-3.95674e-01,-3.14770e-01,6.16838e-02,
2.95231e-01,
1.19220e-01,
-2.25988e-02,
4.37693e-02,
3.26775e-02,
-2.15540e-01,
1.09792e-01,
-1.54805e-01,
5.63081e-02,
-7.60988e-02,
-1.75919e-01,
1.17484e-01,
1.02258e-01,
7.79986e-02,
2.14201e-01,
1.59390e-01,
-5.85018e-02,
-1.24969e-01,
-2.76961e-01,
-1.14616e-01,
-4.42646e-02,
2.19276e-01,
-3.71371e-01,
-3.32499e-01,
1.19040e-02,
-3.51882e-01,
3.11016e-01,
1.08123e-01,
-1.47157e-01,
3.58304e-01,
-2.92736e-01,-2.00226e-01,8.10653e-02,-3.30910e-01,-4.74811e-02,-3.71662e-01,-7.97828e-02,1.60595e-01,-7.21747e-02,-4.62158e-01,1.84458e-01,-6.16348e-02,-3.08134e-02,3.37200e-01,5.16354e-03,2.03977e-01,8.23148e-02,4.52536e-01,1.06195e-02,-2.37009e-01,-2.78200e-01,-2.65834e-01,-3.57341e-01,-2.03684e-01,3.33076e-01,-2.29823e-01,-2.52775e-01,-3.01972e-02,-7.38793e-02,-3.18533e-01,
-1.08478e-01,-5.99797e-03,2.17404e-01,-1.03935e-01,5.63581e-02,4.97906e-02,-2.67672e-01,1.37801e-02,1.55025e-01,6.33376e-02,3.07894e-02,6.01626e-04,-7.37338e-02,3.58433e-01,-3.86106e-02,2.34897e-01,1.76717e-01,-5.55981e-03,-2.07120e-01,-1.11933e-01,5.26653e-02,8.87432e-02,-3.18614e-01,1.80896e-01,2.78189e-01,-3.94127e-01,-1.57009e-01,-3.64768e-02,3.22583e-01,-1.68649e-01,
1.11175e-01,-2.66996e-02,-1.27291e-01,-2.21276e-01,6.90213e-02,-2.11721e-01,-1.69125e-01,2.95049e-01,-1.48074e-01,-2.89116e-02,2.94922e-01,-2.43252e-02,8.35709e-02,3.91332e-01,-2.72177e-02,1.60889e-01,1.40560e-01,4.93805e-02,-1.53543e-01,-3.88334e-01,3.83657e-01,4.00952e-01,6.24430e-02,2.05159e-01,-1.67663e-01,1.47076e-01,2.87308e-01,4.00164e-01,3.66718e-01,-1.90771e-01,
-1.30754e-01,7.90671e-03,-4.32785e-02,7.20894e-02,1.96615e-02,-1.21079e-01,-3.94924e-03,-9.11134e-02,9.02121e-02,-4.53466e-02,-8.86351e-02,2.23272e-01,5.59819e-02,3.06707e-01,-1.50310e-01,3.47972e-01,1.91651e-01,2.09286e-02,-1.89819e-01,9.05872e-02,-3.42873e-01,-8.86802e-02,-3.84543e-03,4.03688e-02,-5.13759e-02,2.51977e-01,7.49296e-03,7.71462e-03,2.13201e-01,9.43899e-02,
-1.67523e-01,-1.17623e-03,-2.25225e-01,-2.64482e-01,-1.49174e-01,3.64110e-02,-1.42469e-02,3.78362e-01,-3.46586e-01,1.07962e-02,4.19527e-01,-8.79422e-02,6.24995e-03,4.14156e-01,2.69152e-02,2.09145e-03,1.01354e-01,2.32962e-03,1.50356e-01,-4.11347e-01,3.45347e-01,4.48817e-02,-2.72538e-01,1.36965e-02,-3.09003e-01,1.09559e-01,-1.57299e-01,-1.57075e-02,-3.51440e-01,-2.41656e-01,
4.31664e-01,
1.63373e-01,
-5.71049e-02,
-2.60200e-02,
3.31160e-01,
