// Neural Network File Format by Kyle Julian, Stanford 2016
6,5,5,30,
5,30,30,30,30,30,5,
0.000,
-36655.999999,-36656.000000,-3.141600,100.000000,0.000000,
36656.000000,36656.000000,3.141600,472.000000,1200.000000,
-431.467101,-0.000000,0.000000,249.000000,532.000000,9.330048,
73311.999999,73312.000000,6.283200,372.000000,1200.000000,423.773936,
-3.27189e-01,-8.38134e-01,1.12207e+00,8.93605e-02,-9.93187e-02,
5.78726e-01,2.01890e-01,6.84069e-02,-3.22920e-04,-1.21328e+00,
1.47530e-01,1.23579e+00,1.95829e-02,1.15989e-01,1.92192e-02,
-1.41105e-01,-4.53920e-01,-7.87157e-03,-9.47093e-02,2.63134e-01,
2.34835e-01,-2.00735e+00,-2.18692e-01,-1.25968e-02,1.70183e-02,
-2.52756e-01,4.51589e-01,1.07996e-01,-1.52679e-01,2.44332e-01,
-6.71340e-01,-1.65019e+00,-4.53309e-01,5.73608e-02,-1.35949e-01,
-1.70739e-01,2.71852e-01,1.20379e-01,5.89499e-02,-1.32146e-01,
9.04424e-01,-8.47256e-01,-9.42987e-02,6.23918e-02,-3.77412e-01,
-8.98254e-01,1.99134e+00,-2.04064e-01,-2.43505e-03,-1.13564e-02,
3.41339e-02,4.36839e-01,4.29866e-01,2.59825e-01,-1.18179e+00,
6.87691e-02,4.66683e-01,-1.10933e+00,-9.02264e-03,9.86905e-02,
-3.98713e-01,2.97505e-01,-5.28390e-01,7.48182e-02,-2.07816e-01,
1.61594e+00,2.03317e+00,2.29727e-01,-6.76033e-03,6.82957e-03,
-3.84609e-01,1.01172e-01,9.39040e-01,1.47664e-01,1.61793e-01,
-6.76423e-01,-3.87383e-01,-1.10405e+00,-7.10946e-03,6.93681e-02,
3.64668e-02,1.90210e-02,7.48767e-02,2.04464e-01,-9.23646e-02,
-9.27264e-02,-1.80468e-01,-2.94123e-01,2.56416e-01,-8.23558e-01,
9.73169e-02,-4.41970e-02,-5.55211e-03,2.18228e-01,1.21526e-01,
2.90061e-01,-3.16330e-01,-5.14204e-01,-2.10504e-02,-1.00829e-03,
-1.94944e+00,7.73346e-01,4.15854e-01,3.84654e-02,-5.68089e-02,
-6.31981e-01,-2.16459e+00,6.01074e-03,-1.17670e-02,1.36940e-01,
-4.29988e-01,1.35773e+00,-6.22913e-01,4.91940e-02,-8.12505e-02,
4.81121e-01,-9.24181e-01,-6.31301e-01,-7.78896e-02,1.96948e-01,
-4.06691e-01,-1.11777e+00,6.86037e-01,-3.59717e-04,-6.46098e-02,
-9.06041e-02,-8.35544e-01,4.72844e-01,-9.87697e-02,2.29773e-01,
-1.06981e-01,-5.72233e-02,6.99150e-03,-1.84977e-01,-1.18655e-01,
1.88666e+00,6.94066e-01,-8.65577e-03,6.65586e-03,4.89828e-02,
8.26047e-02,1.00123e+00,9.11387e-01,-8.67988e-02,1.10695e-01,
-3.67067e+00,7.55052e-01,-1.85228e-02,-1.67055e-02,1.65756e-02,
-2.55491e-01,
-4.77778e-01,
1.36387e-01,
6.76315e-02,
2.35956e-02,
4.05469e-02,
-1.01483e-02,
5.88662e-02,
-1.57727e-01,
8.23797e-02,
-1.71187e-01,
-3.51965e-01,
1.83224e-01,
-1.75631e-02,
2.33691e-02,
-3.20453e-02,
8.18153e-02,
-1.21880e-03,
-1.21955e-02,
1.06632e-01,
-5.84230e-02,
5.42229e-02,
-4.20741e-02,
6.27932e-02,
2.22919e-01,
2.61273e-03,
1.64038e-02,
6.38605e-02,
5.31961e-02,
8.31160e-02,
8.80501e-01,6.15538e-01,2.54459e-01,4.55536e-01,-7.14624e-01,3.20828e-02,-3.52780e-02,-1.19373e-02,-4.19304e-01,7.44264e-01,-6.06669e-02,1.99784e-01,4.23929e-01,-6.13878e-01,1.88248e-01,2.21128e-01,5.24152e-02,1.83936e-01,-2.76070e-01,-4.36467e-02,-1.01644e+00,1.75021e-02,1.15795e-01,-1.12100e-01,4.82474e-01,3.35377e-01,1.77256e-01,-1.44081e-01,-4.66570e-01,4.17438e-02,
1.20115e-01,1.15236e-01,-3.85090e-01,3.65072e-01,7.01885e-01,-2.66335e-01,5.10238e-01,-1.61614e-01,-5.33778e-01,1.28836e-01,-3.04634e-01,-6.91525e-01,1.43260e-01,4.84082e-01,4.31005e-02,1.55178e-01,1.96582e-01,6.09708e-02,-9.94214e-02,-3.35476e-02,6.08468e-02,4.05485e-01,-9.25257e-02,6.13525e-02,3.73185e-02,6.37884e-01,1.60383e-01,-1.07609e-01,-1.75411e-01,2.15127e-02,
5.77343e-02,-7.58548e-01,-3.17739e-01,-2.43332e-01,2.08572e-01,3.91416e-01,3.76759e-01,-2.20114e-02,-4.05005e-01,-8.90619e-02,-2.38469e-01,8.56581e-01,4.45270e-01,5.15322e-01,1.85779e-01,-3.35146e-02,-2.85574e-02,-1.82313e-01,1.84263e-01,-3.59687e-01,3.70930e-01,2.03992e-01,-7.62664e-01,-2.96238e-01,-2.25031e-01,-1.71413e-01,-2.10927e-01,-3.34113e-02,1.47396e-01,-2.73162e-01,
-5.01680e-02,-1.34524e-01,2.31479e-02,2.21614e-01,5.26256e-02,-1.52560e-01,-1.15515e-02,8.15800e-03,5.71311e-02,-2.23187e-01,-1.70104e-02,1.43144e-01,-8.11714e-02,9.55414e-02,-2.95475e-01,5.24665e-02,-2.75900e-01,-2.65525e-02,-7.52079e-02,-2.95707e-02,-2.10778e-01,6.29020e-03,-1.97010e-01,6.23229e-02,-8.47485e-02,-2.85917e-01,2.07825e-01,-9.32992e-03,-3.57997e-02,-2.47995e-01,
9.84221e-01,2.96301e-02,-9.51564e-02,-1.36042e-01,-1.37652e-01,2.19859e-01,-3.27689e-01,2.01320e-01,3.24783e-01,5.38675e-01,-6.88248e-02,-1.14689e+00,5.01379e-01,-9.63748e-02,2.82289e-01,2.83864e-01,-1.50032e-01,9.10236e-01,-6.02134e-03,-1.47267e+00,-7.09304e-01,1.58979e-01,-1.00577e+00,-9.97275e-03,4.14461e-01,3.80770e-01,-3.71104e-01,7.49424e-02,4.12624e-01,-2.61566e+00,
5.35995e-01,2.76468e-01,1.37648e-01,2.93431e-01,-5.95872e-01,-5.66041e-02,-3.83980e-01,2.41857e-01,7.64318e-02,-1.15886e-01,5.25715e-01,1.22600e+00,2.60737e-01,1.37534e-02,5.00756e-02,8.56210e-01,4.95114e-01,3.92164e-01,-3.38787e-01,1.26500e-01,1.07522e-01,-1.52874e-01,5.97486e-01,-3.24033e-01,7.45553e-01,3.56991e-01,-1.97044e-01,-3.01541e-01,-9.94481e-01,-3.67096e-02,
7.03236e-01,2.04398e+00,-3.73826e-03,1.96307e-01,-7.59927e-02,1.96092e-01,-2.64651e-01,-6.89112e-02,7.27196e-02,-1.68702e-01,5.50180e-01,2.36453e-01,3.66933e-01,-5.01900e-03,3.95879e-01,-4.41013e-01,-1.17121e-01,-7.41139e-02,-1.61319e-01,-2.90864e-01,-1.08097e-01,-1.38930e-01,-2.75121e-01,-1.67035e-02,2.95365e-02,2.94703e-02,1.06914e-01,7.32888e-03,4.88401e-01,1.76385e-02,
-4.67326e-02,-1.02883e+00,2.35481e-01,-2.34683e-01,-1.16608e-01,5.45984e-01,-9.07799e-02,1.16534e-02,1.96406e-02,1.50364e-01,2.15638e-01,-1.81523e-01,4.39356e-02,9.73224e-02,2.28029e-01,-5.32980e-01,-1.93646e-01,1.26944e-01,-7.15634e-02,2.96444e-01,6.39791e-01,-1.82293e-01,-4.59480e-02,-4.18260e-01,-1.11523e-01,-1.53212e-01,1.29052e-01,2.06304e-01,6.08259e-02,-2.53956e-01,
-5.25669e-01,1.82511e+00,-2.26557e-01,-3.31452e-01,2.01537e-01,4.59724e-01,8.26721e-01,-6.28036e-02,-1.04745e+00,6.66360e-01,1.89561e-01,-1.34322e-01,-2.03522e-01,4.59870e-02,5.47417e-01,-2.78073e+00,-9.43030e-02,-1.13981e-02,2.07283e-01,4.66307e-01,5.45933e-01,8.13324e-02,-1.45146e+00,-8.18351e-01,2.05860e-01,-6.99315e-01,2.74023e-01,-1.83696e-01,2.08897e-01,-8.23763e-02,
-2.82254e-01,8.09950e-01,-1.92109e+00,-6.96147e-01,3.44905e-01,-8.73441e-02,5.46397e-01,-3.10852e-01,4.22748e-01,-2.24519e+00,7.06552e-01,7.47241e-01,-2.57277e-01,-8.12446e-01,-5.54016e-01,-5.56182e-01,2.08962e-01,5.15705e-01,-2.23147e-01,3.61573e-01,3.20313e-01,-5.19255e-01,-7.64053e-01,-2.68121e-01,5.52972e-01,-3.58053e-01,2.07528e-02,-1.65499e-01,2.71779e-01,9.34065e-02,
7.21076e-01,4.84632e-02,-2.28168e-01,4.77328e-01,1.32697e-01,1.30395e-01,-1.61430e-01,-3.52350e-01,4.71220e-01,1.96362e-01,2.17766e-01,3.32220e-01,1.87184e-01,-1.33583e-01,-3.35579e-01,-1.07268e-01,4.27022e-01,4.87568e-01,7.85336e-02,1.63774e-01,-4.55214e-01,-2.93390e-01,-9.11454e-02,-1.47444e-01,-3.21183e-01,5.10617e-01,-3.77626e-01,3.85883e-01,-3.47826e-01,-1.04985e-01,
4.49986e-01,-2.20575e-01,-9.50050e-02,5.31479e-02,-3.74556e-01,-2.67851e-01,-3.18507e-01,1.87368e-02,-1.38100e-01,2.79155e-02,6.71297e-01,4.62695e-01,2.72849e-01,1.36915e-01,-7.95487e-01,3.76396e-01,4.24461e-01,5.10367e-01,-1.86875e-01,2.71589e-01,-1.35156e+00,6.20894e-01,2.10967e-01,-3.33632e-02,7.18448e-03,3.34099e-01,-4.10206e-01,-2.45135e-01,-8.13958e-01,5.53326e-01,
2.61627e-01,4.83964e-01,-7.85281e-02,-1.40275e-02,-8.98614e-01,3.22749e-02,-1.09644e-01,-7.36531e-02,2.99980e-01,-1.68585e-01,5.02560e-01,-1.19305e-03,2.35283e-01,-1.08490e+00,-2.34660e-01,2.59941e-01,1.66310e-01,1.58644e-01,7.25258e-02,-3.75690e-02,-6.57259e-01,-8.78967e-01,5.23082e-02,5.23327e-01,-3.79351e-01,1.46683e-01,-1.88948e-01,1.02846e-01,3.43421e-01,-1.53845e+00,
3.97738e-01,6.71660e-01,5.75362e-02,-4.43147e-03,6.39629e-01,4.59438e-02,3.42730e-01,8.38693e-02,2.16415e-01,4.32653e-01,-2.44754e-01,1.90483e+00,4.46262e-02,3.07607e-01,2.75970e-01,-2.11420e+00,2.25003e-01,5.75947e-01,-2.10417e-01,-7.62035e-01,-3.20452e-02,2.43454e-01,-1.40450e+00,-2.99407e-02,3.35448e-01,1.92917e-02,-2.41828e-02,-8.55037e-01,8.15038e-02,5.89171e-01,
1.69535e-01,-7.82532e-01,-3.93673e-02,9.53850e-02,1.02388e+00,-1.06337e-02,7.53348e-01,6.48042e-02,-8.66008e-01,-3.77764e-01,2.10474e-01,4.67483e-01,1.22574e-01,-1.77062e-01,8.09759e-02,1.31569e-01,7.71039e-02,1.70068e-01,-1.14535e-02,7.57730e-02,4.62692e-01,-4.62284e-01,-6.44750e-01,2.25569e-01,1.50960e-01,-2.36306e-01,-2.18056e-01,6.40015e-01,3.79407e-01,-2.35323e-01,
4.67781e-01,3.19158e-01,-4.14697e-01,-2.72578e-01,2.35468e-02,-3.79618e-01,-4.38087e-01,2.91153e-01,1.39737e-01,-1.32666e-01,1.01739e-01,6.21724e-01,6.63484e-01,2.07156e-01,6.63221e-02,-6.58259e-02,-5.26176e-01,2.95981e-01,-5.37733e-02,1.94988e-01,-7.43894e-02,3.06238e-01,8.54875e-02,-4.73196e-01,2.41642e-01,5.30832e-01,4.78900e-01,2.48349e-01,-2.37469e-01,1.77940e-01,
5.11287e-01,1.54621e+00,-2.78272e-01,1.53065e-03,-9.23738e-01,1.29906e-01,1.96099e-01,1.88555e-01,6.93590e-01,-1.36244e+00,-5.82416e-02,-1.18784e+00,1.11609e-01,-4.16551e-01,1.84820e-01,-8.65371e-01,3.52539e-01,2.74289e-01,-3.83161e-01,-2.10599e-01,-5.29907e-01,8.62081e-01,7.69055e-02,-3.02003e-01,5.36776e-01,2.11192e-01,3.23657e-01,-2.78119e-01,-2.08488e-01,-1.37426e+00,
1.27961e+00,1.62017e-01,-3.28870e-01,1.28539e-01,2.71396e-02,-1.34733e-01,-4.93627e-01,-1.42646e-01,8.05417e-02,3.30905e-01,2.18786e-01,-2.16125e-01,1.16829e-01,3.13573e-01,-2.47202e-01,5.63172e-01,-3.05678e-02,-4.37007e-02,1.95041e-01,-3.57202e-01,-1.29008e+00,1.63291e-01,-5.97410e-02,-7.44762e-01,-2.56283e-01,2.90626e-01,-1.76683e-01,-2.38442e-01,-2.79750e-01,1.02881e+00,
1.39792e-01,2.29025e-01,-1.91623e-01,-9.20073e-02,-2.65856e-01,-2.83536e-02,-9.61676e-02,2.51522e-01,-9.09993e-02,-1.18052e-01,-2.84209e-02,2.00869e-01,1.31418e-01,-2.51061e-01,2.17920e-01,-9.93453e-02,-1.73685e-01,3.18771e-02,2.23739e-01,-1.99575e-01,-1.22409e-01,-2.52742e-01,9.21477e-02,2.26438e-02,2.95430e-01,6.18438e-02,-2.39786e-01,-1.47849e-03,-1.02156e-01,-8.95855e-02,
-2.57319e-01,2.95969e-01,1.03512e-01,-3.29090e-02,-1.63377e-01,4.56935e-01,-4.74339e-01,4.61306e-01,-1.10409e-01,-6.97097e-01,5.45103e-01,6.43282e-01,-5.21348e-01,-3.65539e-01,1.72195e-01,-4.52005e-01,1.91110e-01,3.91717e-01,-2.00861e-01,-6.95820e-02,5.15177e-01,3.29225e-01,-3.89555e-01,1.26129e-01,4.02951e-01,-5.08131e-01,-4.85709e-01,3.63580e-01,-1.28019e+00,-6.15848e-01,
1.67063e-01,4.72344e-02,-1.15024e-01,4.55819e-02,-2.52148e-01,-6.59983e-02,-4.21793e-01,-3.67837e-02,-4.25475e-01,-2.88136e-03,-8.31405e-02,-2.64401e-01,8.20377e-02,4.36667e-01,5.20867e-02,5.16455e-01,1.64883e-01,3.83667e-01,-1.15644e-01,2.80826e-02,1.38708e+00,3.26236e-01,-5.47873e-01,-4.90834e-01,-2.10112e-02,-1.75035e-02,-9.96597e-02,1.65689e-01,8.89400e-02,-1.98436e-01,
1.26215e-02,9.03414e-01,1.72717e-01,7.84712e-02,-6.30600e-03,-1.10992e-02,1.87905e-01,2.30587e-01,1.24831e-02,3.63415e-01,1.10577e+00,-1.33850e-01,2.24406e-01,-1.07308e-01,-3.15755e-01,4.18470e-01,2.59590e-01,3.62131e-01,-2.55031e-02,-6.14840e-02,-8.16499e-01,-5.57201e-02,1.69951e-01,1.26326e-01,9.70175e-02,1.43468e-01,-2.18562e-01,-4.21342e-01,-6.41465e-01,3.78986e-01,
2.45880e-01,5.21933e-01,-1.91508e-01,7.94407e-01,7.03679e-02,-1.54788e+00,-1.25190e+00,2.73707e-01,1.17341e-01,4.70336e-01,5.89135e-01,-1.14319e+00,-6.33370e-01,9.42132e-02,-4.41296e-01,-6.74067e-01,2.60120e-01,4.52681e-01,-1.44045e-01,-1.73544e-01,6.78793e-02,2.60213e-02,-2.57983e-01,-9.29596e-01,-5.95490e-01,-2.12631e-01,3.05607e-01,1.50848e-02,2.22613e-01,-4.51824e-01,
8.44664e-01,-3.99204e-01,-4.97322e-01,-2.49281e-01,2.61976e-01,5.58525e-02,-2.92121e-01,-2.39925e-01,5.77942e-02,-1.87764e-01,4.64015e-02,-7.72184e-01,1.22542e+00,3.33532e-01,3.26663e-01,-1.85872e+00,-2.67427e-01,1.90064e-01,4.08471e-02,-3.84618e-01,-4.80937e+00,-2.13517e-03,2.98809e-01,-4.54397e-01,4.23573e-01,3.76976e-01,-1.58782e-01,-3.23098e-02,-6.59632e-02,2.33536e-03,
3.91611e-01,4.48627e-01,3.54948e-01,1.59083e-01,-8.52070e-01,-3.16644e-01,-2.53608e+00,-2.38723e-01,-2.23319e-02,1.95069e-01,2.33180e-01,7.28157e-01,3.23433e-01,-9.48756e-02,3.27571e-01,2.76738e-01,1.18977e-01,2.46198e-01,-3.34612e-01,8.57206e-02,-4.14056e-02,-2.02308e+00,6.72503e-01,1.32826e-01,-2.71172e-01,-1.47838e-01,-1.36034e-02,2.06178e-02,-3.75797e-01,-2.06937e-01,
-1.10340e-01,2.59512e-01,-2.43931e-01,1.33385e-01,-1.90388e-01,-3.12551e-01,-7.84323e-03,2.81660e-01,-1.45594e-01,3.12021e-01,-1.42963e-01,8.26534e-02,-1.83798e-01,5.18554e-02,-7.16442e-02,1.91203e-01,-9.31345e-02,-1.99267e-01,4.23191e-02,-1.69194e-01,8.13158e-02,-1.78633e-01,-2.87504e-01,-1.76580e-01,-2.92870e-01,-1.96404e-01,-1.42586e-01,1.08009e-01,-2.05392e-01,-2.34376e-01,
-1.06978e-01,1.24825e+00,3.34072e-01,-4.82389e-02,-2.06960e-01,-2.74833e-01,-1.37038e-01,-5.36555e-02,-1.64381e-01,-2.99126e-02,2.05832e-01,-9.66083e-01,1.37631e-01,1.36792e-01,-6.84825e-01,1.64750e-01,-2.04914e-01,-1.59561e-01,1.70166e-01,1.80260e-01,1.06304e+00,3.45774e-01,-2.73541e-01,1.89017e-01,1.79562e-01,3.05228e-02,1.55532e-01,-3.18686e-01,-2.43601e-01,-6.51758e-01,
-4.78913e-01,6.64914e-01,4.60630e-01,2.42835e-01,-5.99090e-02,8.11498e-02,4.89126e-01,-9.35807e-02,2.56679e-01,-3.67245e-01,4.12131e-02,-1.38152e+00,-6.12439e-02,-2.38620e-01,-2.60532e-01,-5.70121e-02,8.49288e-02,2.26186e-01,-7.67317e-03,-3.14803e-01,-3.10853e-02,1.79916e-01,-2.08996e-01,6.94715e-01,1.49443e-01,-3.60635e-01,1.04135e-01,7.63653e-02,3.20741e-01,2.68535e-01,
6.34741e-01,7.59130e-01,-1.99670e-01,8.83218e-02,-2.78873e-01,3.35752e-01,6.64193e-02,2.50218e-01,1.76626e-01,3.94166e-02,1.09463e-01,-1.25162e-01,1.16335e-01,-2.25409e+00,6.48056e-01,-9.97824e-01,1.64951e-01,7.22288e-01,-3.37092e-01,-5.25576e-01,6.96743e-02,1.05513e-04,-2.58168e-01,-6.88592e-01,5.45444e-01,2.30166e-02,7.91704e-02,-8.37598e-01,-4.79804e-02,2.45393e-02,
-2.34987e-01,-7.11734e-01,-3.40810e-01,3.13856e-01,2.33327e-01,2.58652e-01,-9.71709e-02,-3.14405e-02,5.62768e-01,-7.87823e-01,-1.93128e-01,-1.56749e-01,-1.86500e-01,-1.84789e+00,7.39565e-02,-5.80823e-01,-5.17336e-02,7.81423e-03,1.89678e-01,-1.37730e-01,-3.31666e-02,2.07915e-01,6.19672e-01,-4.41800e-01,3.22090e-01,-3.51813e-01,-2.68079e-01,-1.05913e+00,-1.42241e-01,1.98311e-01,
-1.16703e-01,
6.89338e-03,
2.22074e-01,
-2.54789e-01,
-3.68328e-01,
8.16816e-03,
7.03615e-02,
2.33927e-01,
-2.85731e-01,
-2.25763e-01,
2.11076e-01,
-3.63250e-01,
1.10884e-01,
-2.84917e-01,
-7.17743e-02,
-1.16832e-01,
-6.69606e-03,
2.37267e-01,
-2.90180e-01,
-1.22416e-01,
5.72773e-02,
-2.42196e-01,
-9.74411e-02,
-5.60230e-01,
-3.48905e-01,
-1.93339e-01,
2.57983e-01,
1.35957e-02,
-2.77510e-01,
1.75179e-01,
7.98205e-02,-3.12666e-01,-5.53602e-02,1.50225e-01,1.15950e-01,1.19438e-01,-2.43957e-01,-1.92610e-01,6.48466e-02,1.17144e-01,-3.21750e-01,7.60887e-02,1.17781e-01,4.99022e-02,7.68564e-02,2.36551e-01,8.29493e-02,-2.00347e-01,2.18497e-01,7.40389e-02,-2.51711e-01,9.30150e-02,2.84458e-02,2.42635e-01,1.04423e-01,1.87826e-01,-2.65102e-01,-2.99433e-01,1.03568e-01,2.19635e-02,
4.16995e-01,-3.37186e-01,1.40966e-01,-2.28673e-01,1.06893e+00,5.37261e-01,-2.19212e-02,-2.19062e-01,4.19440e-01,8.30241e-01,-2.18299e-01,-4.47662e-01,-2.71724e-01,1.84126e-02,8.45378e-02,2.06007e-01,9.52958e-02,7.41458e-02,1.42205e-01,-1.73454e-01,-5.34553e-02,3.45996e-01,-1.33693e-01,5.78247e-01,9.87413e-01,1.59046e-01,-8.31650e-02,3.70459e-01,-2.00040e+00,2.11649e-01,
3.00674e-01,5.79489e-01,4.23144e-02,1.76057e-01,1.08621e-02,2.43392e-01,-2.00310e-01,-4.10733e-01,4.50391e-01,-5.25581e-01,1.25357e-01,-5.16948e-01,-7.59491e-01,-9.66852e-01,-4.05692e-01,9.02147e-02,8.30746e-01,2.94803e-01,2.12073e-01,-2.82361e-01,-1.77339e-01,6.66948e-01,1.44924e-01,1.07438e+00,6.16786e-01,-2.04660e-01,3.59441e-01,-4.40462e-02,1.16698e-02,2.41455e-01,
8.44554e-02,1.66023e-01,-6.36800e-02,1.74293e-01,2.61126e-02,1.03534e-01,-1.45178e-01,-2.63887e-02,1.56298e+00,5.62391e-01,-2.53971e-01,1.10214e+00,-1.97239e+00,3.29051e-01,-4.88213e-01,1.26946e-01,-8.32779e-01,4.90078e-01,2.58149e-01,1.96646e-02,-4.50778e-01,-7.06289e-04,-3.99644e-01,2.74961e+00,5.37652e-01,1.77955e-01,1.11543e-01,4.97321e-01,-4.34917e-03,2.40648e-01,
2.71203e-03,1.93341e-01,-5.72277e-02,-2.29736e-01,2.44370e-01,3.43061e-02,1.58145e-01,-7.85618e-02,-2.52178e-01,2.86984e-01,-2.53116e-01,-5.70341e-01,-2.12392e-01,-2.01689e-02,2.14524e-01,-3.54369e-01,-1.70134e-01,-3.76006e-01,9.75710e-02,-2.69217e-01,-3.90236e-01,1.00512e+00,9.25765e-01,5.90633e-01,8.23866e-02,-1.07677e-01,-4.06512e-01,3.27025e-01,8.70139e-01,2.70256e-01,
7.72126e-01,1.91723e-01,-6.39806e-02,5.36004e-02,-4.43875e-01,4.44194e-01,1.79880e-01,-1.13326e-01,-1.04547e+00,-1.18420e+00,1.23908e-01,1.64070e-01,-4.25227e-01,-5.03600e-01,-1.29563e-01,-1.24124e-01,2.69133e-02,-1.74041e-01,-2.91345e-01,-2.52305e-01,1.39777e-01,-1.59234e-01,-1.39169e-01,1.48508e+00,4.52457e-01,-2.87959e-01,-3.50583e-01,2.24973e-01,5.49298e-01,1.01440e-01,
2.73009e-01,-4.81436e-02,1.50851e-01,2.69817e-01,-1.47096e-01,-3.38688e-02,1.93472e-01,1.11702e-01,-2.94530e-01,-1.59456e-01,1.77404e-01,-1.89316e-01,3.12626e-01,8.63489e-02,-1.60486e-01,-5.16625e-02,-7.96921e-02,-3.05218e-01,-2.84342e-01,-1.38691e-01,-1.82543e-01,-2.11302e-01,2.89096e-01,1.42757e-01,-8.57266e-02,1.71608e-01,-1.69062e-01,-2.04878e-02,-1.88444e-01,-4.47069e-02,
5.08573e-01,-2.28824e-01,-3.08775e-01,-2.22112e-01,-3.12931e-01,-1.92249e-01,-4.18289e-02,-3.41468e-03,1.78533e+00,-1.87224e+00,4.84479e-01,-3.85897e-01,9.25764e-01,-3.65927e-01,-7.07599e-01,-5.75474e-02,7.37567e-01,2.68289e-01,2.61248e-01,9.18713e-01,-5.74254e-01,-2.41935e-01,1.28488e-01,-4.36815e-01,-5.72964e-01,2.02168e-01,3.86702e-02,-7.10632e-02,-8.67740e-01,7.80498e-01,
-1.09756e-01,6.26414e-01,-2.67201e-01,-7.29727e-02,-1.97895e-01,-3.13203e-01,2.22808e-01,-1.43225e-01,1.03631e-01,-2.45861e-01,5.43603e-01,4.77509e-01,2.72301e-01,-6.32620e-01,-3.30834e-01,-3.60269e-01,1.24113e-01,2.18151e-01,2.74606e-01,5.38497e-01,2.41779e-01,-6.25249e-01,2.72842e-01,8.16812e-01,6.33617e-02,1.59005e-01,1.97506e-01,-2.65997e-01,8.34055e-02,2.84987e-01,
1.13556e-01,2.02313e-01,-1.04024e-01,-2.49555e-01,2.61446e-01,-2.24445e-01,1.68861e-01,-6.52123e-01,6.32296e-01,7.17102e-01,-3.05699e-01,1.05835e-01,2.48952e-02,-2.73841e-01,-6.48180e-01,1.86295e-01,2.51852e-01,2.66224e-01,1.99807e-02,-1.30504e-01,1.32246e-01,8.43095e-01,-5.21259e-02,2.03039e+00,1.58203e+00,-1.93195e-01,-3.46973e-03,3.21195e-02,5.53660e-01,5.61225e-01,
2.34937e-01,1.23312e-01,8.79515e-02,-2.03984e-01,-6.53041e-01,9.06003e-02,-1.66759e-01,-6.15592e-01,1.71647e+00,6.13631e-01,-2.80350e-01,2.55489e-01,-8.60982e-01,-1.09771e+00,2.69347e-01,-1.50056e-01,7.67913e-01,2.04080e-01,1.46529e-01,-1.31061e+00,1.54103e-01,7.62198e-02,-2.58028e+00,6.79046e-01,6.74953e-01,-5.31078e-02,-8.03240e-03,4.19035e-01,-3.45529e+00,-8.05123e-02,
5.94546e-01,1.01038e-01,2.14966e-01,1.59863e-01,5.06406e-01,1.83065e-01,3.45698e-01,-1.99376e-02,-4.94801e-01,-1.84112e-01,1.20271e-01,-2.62065e-01,2.68410e-01,-3.82565e-01,-2.00184e-01,7.99327e-01,3.46135e-01,1.23894e-01,5.88991e-02,-2.09246e-01,-1.53184e-01,-1.90864e-01,1.05229e-01,-9.64405e-01,-2.61982e-01,2.88417e-01,1.82662e-02,2.93998e-02,-9.41995e-01,4.29815e-01,
2.66550e-01,2.01965e-01,4.25163e-01,-1.68463e-01,2.86751e-02,5.42592e-01,-1.72711e+00,-1.46167e-01,-8.86281e-01,-9.69352e-01,-4.29927e-01,-7.83968e-01,3.89636e-01,1.59517e-01,-5.82954e-01,4.51471e-02,3.48534e-02,-3.56452e-01,9.38132e-02,3.83319e-02,-6.32314e-03,4.83452e-01,-9.24810e-02,-2.29448e-01,7.06084e-02,7.47130e-02,1.74930e-02,4.77258e-03,-3.71801e-01,3.76288e-01,
-3.06754e-02,2.84930e-01,2.20637e-02,1.50958e-01,-2.31162e-01,1.93912e-01,-6.12041e-02,3.62864e-01,2.75289e-01,8.10252e-01,2.69939e-01,-5.93996e-01,-9.22006e-02,5.12155e-01,9.87023e-02,-3.94860e-02,-8.87974e-01,3.18265e-01,3.27868e-01,9.36882e-02,-6.34363e-03,1.52416e-01,-2.78495e-02,3.99320e-01,-6.23485e-01,-1.40942e-01,1.64279e-01,2.63359e-02,-1.78244e-01,-4.03161e-01,
-3.88363e-01,9.69725e-02,4.15559e-01,-5.73305e-02,8.93049e-04,1.62638e-01,4.09856e-01,-1.17540e-01,-3.58017e-01,2.90265e-01,-3.50997e-01,-8.46406e-01,1.32970e+00,4.25518e-01,7.90324e-02,1.54421e-01,-8.59805e-01,-1.03533e+00,-8.49219e-02,-4.39985e-01,-8.48177e-02,2.74551e-01,-4.68515e-01,1.00630e+00,-5.25398e-01,6.78630e-02,1.61948e-02,1.46643e-01,-1.13990e-01,-3.42659e-02,
2.67563e-01,5.19722e-01,3.18243e-01,2.09593e-02,3.28412e-01,-1.64875e-01,4.04786e-01,-1.50820e-01,-9.64322e-02,3.02638e-01,-2.57953e-01,4.34442e-01,-2.61867e-02,4.85160e-01,-3.95713e-02,-2.67574e-01,-7.04243e-01,-5.81803e-02,1.20977e-01,-3.27620e-01,4.61378e-01,3.32538e-01,-2.09864e-01,-7.29163e-01,-2.49374e-01,9.40460e-02,2.52494e-01,2.79645e-01,-1.12893e-01,-8.97397e-01,
-1.34132e-01,3.90123e-01,2.70824e-01,1.39075e-02,-3.07440e-01,2.11483e-01,1.84976e-01,-4.31918e-01,3.18471e-01,5.45233e-01,1.79994e-01,1.05017e-01,-3.38910e-01,3.40629e-01,5.51940e-01,6.23805e-01,-1.04078e-01,7.04943e-01,-2.44469e-01,-7.26491e-02,-1.62395e-01,2.22788e-01,-1.57415e-02,2.17350e-01,-3.53696e-01,-8.40506e-02,-4.34990e-02,-7.48133e-02,2.78865e-01,2.97551e-01,
2.38464e-01,5.26270e-01,-6.37785e-01,4.64938e-02,-1.76548e-01,3.27435e-01,-6.71543e-01,-1.03454e-01,-3.18819e-01,-3.89153e-01,1.14634e-01,1.68994e-01,-3.52017e-01,-4.08923e-01,-4.10965e-01,1.30209e-02,9.73412e-02,2.14801e-01,2.43396e-01,8.76427e-01,-4.40800e-02,-2.70169e-01,-1.16928e-01,1.63672e-01,3.22222e-01,-1.40047e-01,3.13446e-01,2.22719e-01,-2.59802e-01,2.50213e-01,
1.48222e-01,2.79891e-01,-4.73611e-02,2.68468e-01,-5.54485e-01,7.09613e-03,2.32925e-01,5.01631e-01,5.90198e-01,1.31457e-01,-2.81125e-01,1.63837e-01,-1.97548e-01,3.06046e-01,7.90166e-02,1.74689e-01,-8.26896e-01,1.44161e-01,-2.82723e-01,-5.09944e-02,9.80898e-02,1.97527e-01,1.97851e-01,9.96353e-01,-3.28588e-01,2.78493e-02,5.12738e-02,-1.27977e-02,-2.64122e-03,-2.74831e-01,
-7.78844e-02,9.29126e-02,-7.67837e-02,2.45984e-01,9.62108e-02,-2.93264e-01,-3.65096e-01,-5.86201e-02,-5.56148e-01,9.37460e-01,3.25869e-01,7.08086e-01,-7.91965e-01,3.35353e-01,3.18217e-01,-1.15625e-01,2.98531e-01,3.93793e-01,-2.47817e-01,1.51130e+00,-2.28593e-01,-1.39448e+00,2.43455e-02,-1.64788e+00,-8.58391e-01,1.70436e-01,-6.37915e-01,-5.71522e-01,-1.54217e+00,4.59293e-01,
-1.95620e-01,-6.96936e-02,2.83981e-01,1.63346e-01,3.98034e-01,2.66889e-01,-3.57926e-01,-1.16795e-01,-9.75689e-01,9.78310e-01,4.24478e-02,-1.32868e-02,-1.65936e+00,3.02025e-01,-2.54971e-01,2.05921e-01,2.63410e-01,5.09861e-02,2.68270e-01,-4.45812e-01,-3.82887e-01,4.63664e-01,5.99209e-01,8.43440e-01,4.32690e-01,-7.20590e-03,-1.05896e-01,-4.14924e-01,5.99420e-01,5.15994e-01,
-5.81058e-01,8.09921e-02,-3.33125e-01,2.71905e-01,-1.02291e+00,-1.27215e-01,-5.79503e-01,2.62964e-01,-1.49376e+00,-6.78839e-03,3.58612e-01,1.90723e-01,-3.87323e-01,3.62087e-01,-3.96127e-02,5.21664e-03,-1.75943e-01,-9.94784e-01,-5.40737e-02,3.22084e-01,-7.56223e-02,-2.70859e-01,-7.70226e-01,-4.57029e+00,-9.04267e-01,9.08729e-02,6.70567e-01,1.81230e-01,1.97716e-03,1.97056e-01,
3.46974e-01,-1.82028e-01,-2.35921e-01,2.19067e-02,-1.62808e-01,4.62926e-01,3.24853e-01,7.57998e-02,-2.81368e-01,-7.21042e-01,-2.62253e-01,3.32303e-02,4.38213e-01,4.99298e-02,-1.44427e-01,-1.89638e-03,1.04033e+00,-2.91476e-01,-6.43416e-02,1.72052e-01,1.95392e-02,1.52900e-02,1.11132e-01,1.45941e+00,8.06132e-01,2.12242e-01,3.73602e-01,2.84983e-01,-1.29187e+00,3.20931e-01,
-2.62026e-01,1.42530e-02,-4.24309e-01,-5.02094e-02,-1.01419e+00,-1.88500e-01,2.55756e-01,2.98998e-01,1.00697e+00,5.03261e-01,-9.23245e-01,2.36860e-01,-3.52305e-01,6.21845e-01,3.35931e-02,-2.71211e-01,-7.48563e-01,-1.58863e-01,1.19757e-01,1.53783e+00,2.61008e-01,-6.15221e-01,1.00260e+00,-3.18481e-02,-9.23772e-02,-1.33814e-01,-7.29031e-01,-2.33082e-01,5.56670e-01,2.01970e-02,
3.57806e-01,4.65365e-01,8.96189e-02,2.88279e-01,-2.14574e-01,-4.52108e-01,-3.14404e-01,3.34175e-01,8.16343e-01,6.06376e-01,1.28260e-01,-2.87877e-01,5.94915e-01,2.70859e-01,-4.94169e-02,-2.44265e-01,3.27351e-01,-9.78211e-02,1.45378e-01,5.25092e-02,1.56088e-01,9.20006e-02,-2.83552e-01,1.44259e+00,-2.37880e-02,-2.36530e-01,-2.55353e-01,1.34349e-01,-1.99014e-01,2.45747e-02,
5.08111e-01,1.05153e-01,-1.82144e-02,-2.67418e-02,4.90034e-01,4.50180e-01,-6.16228e-02,3.85231e-03,4.99692e-01,4.59034e-02,1.93982e-01,-1.92174e-01,4.33423e-01,6.81849e-02,8.37971e-02,1.98837e-01,6.38629e-01,3.47461e-01,-1.08738e-01,-1.06766e-01,2.87572e-01,-1.65642e-01,-2.45864e-01,-3.88975e-01,4.63611e-02,-1.41597e-01,7.48403e-02,-5.06173e-01,-1.03570e+00,3.91094e-01,
3.53461e-01,3.26080e-01,-2.45577e-01,5.12275e-02,-9.90035e-01,-5.42320e-01,4.11486e-01,2.55436e-01,-1.09603e-02,-9.32547e-02,-4.02811e-02,-1.24905e+00,-3.39267e-01,-2.83175e-01,-1.55597e-01,7.15066e-01,1.70295e-01,-9.69161e-02,9.30867e-03,-2.01709e+00,-7.03386e-02,6.63683e-01,-4.09503e-01,-2.22229e-01,1.17355e-01,2.06260e-01,-1.06871e-01,-8.33939e-01,-9.21899e-01,-9.32483e-01,
-6.06889e-01,2.01233e-01,-6.44212e-02,2.11705e-01,-7.84896e-01,-3.85380e-01,4.75664e-02,3.59274e-01,5.56940e-01,-4.51434e-02,-8.74986e-03,3.44051e-01,-7.60323e-01,-2.72366e-01,2.29652e-01,-4.17046e-01,-1.90495e-01,-3.39613e-02,3.12611e-01,-6.32513e-01,1.36394e-01,4.36819e-01,3.10290e-01,1.78271e-01,-3.96879e-01,-1.53292e-01,2.26802e-01,2.77488e-01,3.73598e-01,-4.36302e-02,
1.21015e-01,-2.58087e-01,2.54899e-01,-8.94125e-02,8.76045e-02,6.92600e-02,4.61567e-01,-6.79890e-01,1.13587e-01,7.22881e-01,-8.31036e-02,-2.40676e-01,1.72618e-01,5.24983e-01,2.25210e-02,4.89682e-01,2.17384e-01,2.55171e-01,-2.81167e-01,-1.23810e-01,-6.99874e-01,-1.79288e-01,-7.46472e-02,4.54735e-01,-3.89920e-01,-3.00677e-01,-4.23572e-02,3.31791e-02,4.01856e-01,-3.82074e-01,
-7.18588e-02,2.48728e-01,-3.57912e-01,2.80300e-01,2.71934e-01,-5.06470e-01,-2.74834e-01,7.64363e-02,6.84344e-01,-1.67373e-01,-4.55732e-01,-1.74966e-01,2.11692e-01,-6.09627e-01,-1.42141e-02,8.18263e-01,1.08726e-01,-2.39581e-01,1.94812e-01,-4.56076e-01,-3.33869e-01,3.62891e-01,-1.61526e-01,1.21867e+00,2.59178e-01,2.95055e-01,1.28265e-01,-8.11020e-02,6.83485e-01,-1.57891e-02,
-2.81581e-01,
-3.14060e-01,
-1.99860e-01,
6.19233e-02,
3.55781e-01,
-3.70107e-02,
-2.66154e-01,
-3.35960e-02,
3.66833e-02,
-4.97287e-01,
-5.17605e-02,
-1.64854e-01,
-3.52738e-01,
7.28560e-02,
-7.98405e-02,
1.05725e-01,
-3.02198e-01,
1.98953e-02,
2.06640e-01,
1.93296e-01,
-2.54308e-01,
6.61653e-02,
-2.74657e-04,
-1.02243e-01,
1.48389e-01,
-3.14844e-01,
-1.08617e-01,
-1.57580e-01,
-3.04903e-01,
2.62551e-01,
-2.36210e-01,-2.20150e-01,1.65468e-02,6.56162e-02,-4.86665e-01,-4.73042e-01,2.17513e-01,1.47530e-01,-5.83582e-01,-1.92515e+00,-3.20083e-01,1.66840e-02,-9.25339e-01,2.66440e-02,3.03024e-01,-5.28045e-01,1.68766e-01,5.22447e-01,-1.32001e-01,-1.44661e-01,1.35097e-01,-1.68241e-01,-4.38777e-02,-4.26757e-01,1.74301e-01,-2.63169e-01,-1.13753e+00,2.57185e-01,-5.23623e-01,7.74450e-01,
2.15858e-01,-1.62423e-01,-2.14994e-01,2.17539e-01,1.40852e-01,-1.86113e-02,2.41490e-02,1.49388e-01,-2.62515e-01,-2.03578e-01,1.09562e-01,1.79388e-01,2.30873e-03,-3.13517e-01,2.34242e-01,4.26235e-02,-1.14906e-01,2.55892e-02,-2.92037e-01,-2.84769e-01,-1.76906e-01,1.56805e-01,-3.08565e-01,2.39550e-02,-2.93099e-01,-9.23523e-02,-1.78214e-02,-7.65646e-02,-6.43834e-02,2.30705e-01,
-4.32623e-02,-2.21952e-01,1.07278e+00,-8.93326e-01,-6.10671e-01,-1.20174e+00,2.49028e-01,-5.20880e-01,9.75237e-02,-2.51771e-01,-4.33132e-01,-1.01521e+00,1.77463e-01,-2.29669e-01,-8.35688e-01,-6.44186e-01,-2.70904e+00,9.22363e-02,-1.93802e-01,-5.55601e-01,1.38811e+00,2.67993e-02,-2.12181e-01,-2.49411e-01,2.66464e-01,7.36903e-01,-1.38004e-01,-1.27146e+00,-1.41237e-01,-9.42538e-01,
-1.99589e-01,-4.49771e-01,-5.59167e-01,-6.90621e-02,-1.54076e-01,-1.78500e-01,-2.80514e-01,-1.91726e-01,-7.23754e-01,-2.28543e-01,4.21375e-01,-3.20596e-03,4.66459e-01,2.08492e-01,-2.50990e-01,-6.86042e-01,-7.37368e-01,-6.86837e-02,-7.27603e-03,-4.96170e-01,-1.04024e-01,-5.58522e-01,-1.70763e-01,2.86807e-01,6.49881e-02,3.72124e-01,1.28251e-01,-7.21487e-01,-1.54218e-01,-2.67846e-01,
-3.01977e-01,-6.52184e-01,-6.73905e-01,2.05754e-01,4.86780e-01,-4.64008e-02,4.54801e-02,-2.36997e-01,4.18863e-01,9.09244e-02,-6.68798e-02,-2.38207e-01,4.53595e-02,-1.21919e-01,4.14543e-01,6.80491e-02,-1.00933e-01,1.89568e-01,-8.86449e-02,1.79418e-02,-8.90895e-01,1.25303e-01,3.11190e-01,1.19462e-01,-1.54374e-01,3.01574e-01,7.28828e-01,-5.97091e-01,-2.61202e-01,-1.95450e-02,
8.94396e-03,-4.53074e-01,-8.39124e-01,-1.20038e-01,1.02159e-01,8.29430e-02,1.14326e-01,3.69125e-01,1.46153e-01,-3.38814e-01,4.12441e-02,4.77505e-01,2.72181e-01,3.62378e-01,2.04573e-01,6.18854e-02,-2.25274e-01,2.10169e-01,2.54335e-01,3.25935e-01,-2.59450e-02,-4.95702e-02,-1.55104e-01,-1.64601e+00,8.10167e-02,3.64842e-01,5.80410e-02,-7.35827e-01,3.05934e-01,2.49021e-01,
1.86313e-01,6.07583e-02,1.09471e-01,-4.62987e-02,-1.49926e-03,-1.51371e-01,-2.93321e-01,-1.02172e-01,-4.80471e-01,-5.53911e-01,-1.15747e-01,1.58702e-01,-6.50048e-02,1.97387e-01,-8.02538e-02,-6.39552e-02,-2.07145e-01,7.64545e-02,1.82202e-01,-8.28961e-02,-2.24734e-03,3.95409e-02,-1.01036e-01,-5.24819e-01,2.91089e-01,1.62892e-01,-4.68041e-02,-9.40668e-01,2.71171e-01,4.24998e-01,
-2.90583e-02,-3.02621e-01,-2.45023e-01,8.11213e-02,5.45721e-02,-3.60573e-01,-2.80922e-01,2.35801e-01,1.51468e-01,-2.86923e-01,8.95126e-02,1.45478e-02,1.66994e-01,-1.29811e-01,-1.05205e-01,-4.81470e-02,-1.29829e-02,8.95742e-02,-3.06965e-01,-2.86244e-01,-1.97199e-01,1.52134e-01,-2.10811e-01,2.23091e-01,1.62283e-01,-1.90718e-01,1.35751e-01,-6.39888e-02,2.62247e-01,2.09684e-01,
1.22248e-01,-2.57095e-01,-3.20024e-01,-3.07653e-01,-2.41130e-01,3.81049e-03,1.62303e-01,1.88670e-01,1.63018e-01,7.91146e-02,4.07330e-02,-2.31059e-01,-3.36055e-02,1.35708e-01,-1.71831e-01,5.96250e-03,-1.03285e-01,3.84727e-02,-2.67826e-01,-1.41553e-01,-2.94323e-01,-2.87498e-01,2.25721e-01,1.44262e-01,-1.29804e-01,-1.83317e-01,-5.59981e-02,1.05259e-01,-1.67058e-01,-1.04110e-01,
-2.38214e-01,1.08037e-01,-3.91995e-01,-1.80622e-01,-2.60944e-01,-8.71905e-02,2.50502e-02,2.12179e-01,-5.21405e-01,-1.20236e+00,5.23698e-01,8.19753e-02,7.82465e-01,-3.42180e-01,-2.12575e-01,1.72100e-01,-9.21763e-02,-2.58569e-01,3.26422e-01,7.75022e-01,5.97772e-01,-6.54200e-01,1.94699e-01,-9.25254e-02,4.41571e-02,-2.14411e-01,-2.96298e-01,-1.19587e-01,-6.53400e-02,2.31627e-01,
2.16177e-01,6.45998e-01,5.69645e-01,-2.39287e-01,3.08890e-01,-6.92187e-02,6.94506e-02,4.95548e-03,-9.45658e-02,-4.93939e-01,-2.67952e-01,9.42872e-02,-4.88164e-01,9.49233e-02,-8.05041e-01,4.20347e-05,2.56716e-01,-2.28067e-01,1.43057e-01,9.13182e-02,2.11097e-01,3.38576e-01,-3.89416e-01,7.07157e-02,1.63252e-01,-3.13657e-01,4.54208e-01,-1.10427e-01,-4.54120e-02,4.02964e-01,
2.51320e-01,9.88296e-02,-2.33791e-01,1.01550e-01,-3.88276e-01,6.05138e-03,1.33717e-01,1.00319e+00,-2.83691e-01,-9.34961e-01,1.43542e-02,-4.92294e-01,-5.45549e-01,2.85352e-01,8.82574e-01,-5.74041e-01,5.11990e-01,2.69908e-01,-6.88298e-01,-2.28646e-01,-1.60985e-01,-1.09830e-01,3.36395e-01,-1.15083e+00,1.21272e-02,-1.54180e-02,-1.10938e+00,-1.24171e-01,3.67377e-01,-3.07444e-01,
3.06616e-01,-2.34210e-01,1.94406e-01,2.22682e-01,-7.75726e-02,1.98182e-01,-3.06783e-01,1.59621e-01,-8.73287e-03,-5.94200e-02,-3.52846e-03,-2.21779e-01,-4.31211e-02,-2.96867e-02,2.72090e-01,-3.29269e-01,-2.63421e-01,2.70792e-01,-1.34443e-01,-1.49038e-01,-1.66552e-01,-2.17831e-01,-3.21074e-01,2.22577e-01,-3.80967e-02,-4.81448e-02,-2.13062e-01,-5.01701e-02,2.05178e-01,1.51256e-02,
-1.47756e-01,-9.00265e-02,-2.35276e+00,7.16601e-01,-4.61156e-02,-3.08565e-01,-1.83009e-01,2.42915e-01,2.24537e-01,-5.81164e-01,1.56400e-01,-3.27395e-01,-4.05209e-01,1.13214e-01,3.53161e-01,-5.09825e-01,-1.27787e-01,-7.91334e-01,-1.29004e-01,-2.25150e-01,-1.76330e+00,5.26673e-01,-3.50757e-01,-4.89218e-01,2.09467e-01,-1.10857e+00,7.30938e-01,-3.39144e-02,2.91420e-01,-3.82063e-01,
3.08365e-01,6.00687e-01,3.13607e-01,-3.86969e-01,-1.82553e-01,2.80783e-01,2.42226e-01,-2.23408e-02,-8.26390e-02,-4.40813e-01,-2.28463e-01,1.46416e-01,-8.71235e-01,5.64355e-02,-3.52764e-02,1.63370e-01,1.26324e-01,2.87017e-01,1.83823e-01,1.20950e-01,5.29493e-02,-1.17859e-01,-2.63383e-01,1.90143e-01,-9.35021e-02,-1.11527e-01,-1.35905e+00,-4.51756e-02,2.78073e-01,4.27544e-01,
-2.54286e-01,-3.82776e-01,8.05666e-01,-5.96205e-01,-3.35826e-01,-3.68585e-01,7.67703e-02,-1.06657e-01,-3.08491e-01,-1.84034e+00,-9.64761e-01,4.75621e-01,-5.22031e-01,3.36355e-01,-4.91789e-01,2.98573e-01,2.98270e-01,-5.22478e-01,-2.31159e-01,-1.65576e-01,-1.41591e-01,1.67053e-01,-6.35948e-01,-2.85743e-01,-4.09003e-01,2.21053e-01,-2.89365e-01,7.84893e-03,-6.02318e-01,-2.39475e-02,
-3.75139e-02,2.88850e-01,7.38633e-02,-1.21766e-01,-2.56735e-01,1.80675e-01,-1.95766e-01,-1.39966e-01,-4.03697e-02,-1.30349e-02,-2.23032e-01,-7.28359e-02,1.89986e-01,-3.23142e-01,-2.68821e-01,-2.56134e-01,1.64377e-01,-2.86258e-01,8.02893e-02,2.80042e-01,-1.00331e-02,-2.02994e-01,1.39264e-02,2.33836e-01,8.70671e-03,-2.97037e-01,-2.22832e-01,2.34967e-01,-1.96627e-01,1.81544e-01,
-2.11189e-01,-3.45976e-02,-3.18945e-01,7.12953e-02,-2.53461e-01,-3.51569e-01,-1.33498e-01,-2.40221e-01,-4.49698e-02,-2.05243e-01,-3.11189e-01,6.35720e-02,2.84478e-01,-2.41261e-01,-2.00960e-01,1.03397e-01,5.17019e-03,-6.32900e-02,-2.18470e-01,1.07397e-01,8.66536e-02,-1.38166e-01,-3.51077e-01,-9.51713e-02,-8.27213e-02,4.28987e-02,1.77985e-01,3.01685e-01,1.22254e-01,-2.54853e-01,
9.54095e-02,1.22603e-01,2.62857e-01,-1.12965e-01,3.00485e-01,-6.25087e-01,1.67202e-01,-4.67784e-01,-5.20360e-01,-1.07545e-01,-9.35189e-02,4.69699e-01,4.34339e-01,-3.20625e-02,-3.06004e-01,4.25472e-02,8.10765e-02,-4.97217e-01,-1.35009e-01,8.66949e-01,-1.11024e+00,-3.37179e-01,2.74994e-01,4.04645e-02,-1.11953e-01,9.74690e-02,-2.66323e-01,-4.08321e-01,-3.41159e-01,-2.76074e-02,
-2.38087e-01,-5.25519e-01,-1.00215e-01,2.00831e-01,2.92421e-01,9.54573e-02,8.55418e-02,5.75181e-01,1.63884e-02,2.78901e-01,-9.55455e-01,1.42090e-01,-1.28907e+00,-3.80129e-01,7.69920e-02,-4.72311e-01,-6.40661e-01,3.68505e-01,-2.77009e-01,-1.89384e+00,-3.24190e-01,-7.29045e-01,-1.36929e-01,-4.70116e-01,-6.91251e-02,-2.78340e-01,2.48684e-01,-2.46027e-02,1.77952e-01,1.50136e-01,
-3.04107e-01,-1.92811e-01,-1.23001e-01,1.06376e-01,-2.77253e-01,-2.77293e-01,2.13393e-01,-2.38907e-01,-7.06076e-02,-2.90428e-01,-1.91043e-01,1.96029e-01,-1.67118e-01,7.22290e-02,2.20860e-01,1.08205e-02,-2.74848e-01,-1.23680e-02,-2.17280e-01,8.15579e-02,-4.04615e-02,1.40666e-01,-1.48431e-02,2.06008e-01,-1.89107e-01,1.66035e-01,3.30084e-02,-2.42933e-01,-3.09495e-01,1.68741e-01,
2.11305e-02,1.69145e-02,-8.21601e-02,-4.17189e-01,-1.64014e-02,-4.57273e-01,3.36113e-02,2.90369e-01,4.63976e-02,-8.09698e-03,1.90826e-01,-3.32244e-01,-1.76390e-01,-2.89684e-01,2.73395e-02,-8.68152e-02,4.34420e-02,-2.58751e-01,-2.60917e-01,-2.51980e-01,5.78886e-02,-3.14072e-01,-4.14968e-01,2.28212e-01,1.01441e-01,-1.75904e-02,2.93814e-01,7.17425e-03,1.89109e-01,6.99667e-02,
2.33486e-01,-1.70796e-01,3.02240e-01,-6.80423e-01,1.48713e-01,2.89504e-01,2.35242e-01,-1.68697e+00,-1.04923e-01,-7.14860e-01,-6.24017e-01,2.10797e-01,-3.43754e-01,1.36964e-01,-4.18340e-01,3.71898e-01,3.83683e-01,1.04512e-01,1.04446e-01,-5.08195e-01,-7.21897e-02,5.97428e-01,-1.26908e-01,-8.36464e-01,-2.94758e-01,-6.15504e-01,7.72059e-01,-8.68357e-01,4.93079e-01,1.04629e-01,
1.06650e-01,-1.01996e+00,-5.11451e-01,2.79690e-01,-2.50937e-01,-1.63306e-01,2.54573e-01,6.92843e-01,-4.33368e-01,-9.78655e-01,-1.03193e-01,2.59017e-01,1.67728e-01,-8.81349e-02,5.02607e-01,-1.83014e-01,1.98143e-01,8.40431e-02,-2.16552e-01,1.03874e-01,-4.26238e-01,-3.97362e-01,5.31672e-01,-1.28822e+00,-1.24505e-01,3.42987e-01,6.45064e-01,-1.14294e-02,-4.57089e-01,4.12984e-01,
-3.58672e-02,-3.50193e-01,-2.59859e-01,7.79222e-02,1.18589e-01,-1.24158e-02,4.04816e-02,3.51579e-01,3.47586e-01,-3.36680e-01,1.05249e-02,-2.34996e-01,3.00641e-01,-3.37699e-02,1.31921e-01,2.86197e-01,-1.83075e-01,-1.68633e-01,-2.30189e-01,1.97843e-01,-1.08278e-01,-2.22180e-01,1.08927e-01,-4.35691e-01,-3.51454e-02,5.05176e-01,5.38117e-01,-4.13325e-01,-2.05839e-01,-2.48494e-01,
2.89586e-01,7.19449e-01,7.23759e-01,-2.30043e-01,7.49229e-02,-8.54314e-02,-9.70402e-02,1.60448e-01,-1.90703e-02,-4.41437e-01,2.29228e-02,-1.92731e-01,3.73294e-01,3.79516e-01,-5.54154e-01,-2.32353e-02,-2.13320e-01,-2.48134e-01,3.64293e-01,1.90882e-01,4.02740e-01,8.26579e-03,-1.10402e-01,-9.84892e-03,-1.72955e-01,-1.48958e-01,3.70476e-01,-1.47604e-01,3.57638e-01,-1.41061e-01,
-1.57203e-01,-5.07267e-02,-1.39440e-01,1.04495e-01,1.89985e-02,2.15718e-01,1.73890e-02,2.80813e-01,-7.88465e-02,-6.62399e-01,5.56145e-02,3.11576e-01,-2.52246e-01,3.46808e-01,-1.13218e-01,1.18004e-01,-1.51696e-01,-3.31834e-02,-3.44350e-01,2.07748e-02,-4.76957e-02,-7.79182e-02,-9.59667e-02,-8.86229e-01,1.12387e-01,1.55923e-01,-8.12326e-01,-4.46724e-01,2.01701e-01,4.14959e-02,
4.35148e-02,-4.50585e-01,1.42438e-01,-6.97682e-01,-6.36191e-01,1.65877e-02,-5.88611e-02,-6.77405e-01,1.84115e-02,-1.77440e-01,3.57724e-01,-4.57778e-01,4.18822e-01,2.72343e-01,3.69254e-01,-7.11788e-01,2.78118e-01,2.70717e-01,1.84238e-01,2.24414e-01,-5.42960e-03,-9.01473e-02,2.54239e-01,-1.29601e+00,-6.42499e-01,-2.74585e-01,1.77840e-01,-1.93787e-02,4.05017e-01,-4.56128e-01,
6.82052e-02,-4.23583e-01,1.79646e-01,-1.33635e+00,-2.46329e-01,-2.93823e-01,-1.57828e-01,-3.03541e+00,-1.04197e-01,-1.31713e+00,-2.48411e+00,-5.85202e-02,-1.31334e-01,2.23437e-01,-3.48057e-01,-7.27761e-01,2.54507e-01,-6.54897e-01,-3.75611e-01,3.08014e-02,3.56019e-01,-2.29126e-01,1.72401e-01,8.64164e-02,6.90980e-03,4.37038e-01,-1.15384e+00,1.72460e-02,5.90870e-01,-1.65117e-01,
-2.61638e-01,-3.10664e-01,2.41288e-01,-9.37850e-06,2.74925e-02,8.81335e-02,-2.33438e-01,1.01153e-01,-2.38045e-01,-1.93742e-01,-3.64453e-02,-2.18922e-01,-2.30760e-01,1.27372e-01,-2.22865e-01,1.09930e-01,-2.67200e-01,-2.49142e-01,-7.45831e-02,1.39772e-01,-1.26284e-02,2.88802e-02,-2.40781e-02,7.90730e-02,-1.07910e-01,4.10816e-02,2.59243e-03,1.20005e-02,-2.25165e-01,-2.35927e-01,
1.21541e-01,
-3.04526e-02,
4.20966e-01,
2.26195e-01,
-1.03727e-01,
-2.60599e-01,
-4.81519e-02,
-1.71238e-01,
-1.87491e-01,
1.44648e-01,
4.50453e-03,
5.72866e-02,
-1.86590e-01,
5.20115e-02,
-2.64973e-03,
9.35155e-02,
-2.75384e-01,
5.13490e-02,
-2.27971e-02,
3.32146e-01,
-1.04535e-01,
-2.39464e-01,
5.56084e-02,
2.26372e-01,
1.04412e-01,
2.33160e-02,
-1.00882e-01,
1.98444e-01,
-1.27026e-01,
-3.29668e-01,
1.74437e-01,1.15445e-01,-4.62751e-01,1.78944e-01,3.10044e-01,-1.65421e-01,-3.81471e-01,-7.55252e-02,-5.95345e-02,-2.96061e-01,1.19817e-01,-9.18805e-02,7.78106e-02,-1.61516e-01,-2.16236e-01,-1.18268e-01,1.22584e-01,1.70992e-01,-1.53355e-02,1.07314e-02,-4.69235e-02,1.56683e-01,1.63080e-02,-4.15528e-01,5.21092e-01,8.32489e-02,6.44648e-01,-5.79879e-02,8.07337e-02,-1.77911e-01,
-3.08995e-01,8.58584e-02,-4.38785e-01,6.86740e-01,-8.24214e-02,3.29258e-01,-1.91035e-02,2.78744e-01,2.30713e-01,-3.77256e-01,-4.26101e-01,-5.58361e-01,1.52721e-01,-8.13764e-01,-2.40227e-01,9.23806e-01,2.13001e-01,-1.17790e-01,4.52740e-01,1.12868e+00,1.71553e-02,2.06837e-01,-3.98525e-01,3.42372e-01,1.02819e-01,-4.75924e-01,8.44480e-02,9.76785e-01,-4.47097e-01,-1.38172e-01,
-8.37925e-02,1.06444e-01,-2.33739e-02,1.53979e-02,-4.37330e-02,4.26280e-02,4.29743e-01,-2.26258e-01,3.09344e-01,1.44599e-01,-1.05770e-01,-5.46688e-02,-6.44752e-02,1.11390e-01,7.46347e-02,5.11044e-02,-2.24590e-01,1.89342e-01,5.61920e-02,-7.89808e-03,-1.94646e-02,2.30596e-01,6.06285e-02,2.73348e-01,-6.43969e-01,-6.46015e-02,-2.02367e-01,-2.53147e-01,-8.67301e-02,1.10336e-01,
-1.71090e-01,6.09128e-02,-1.46891e-01,2.46573e-01,-9.38082e-03,1.10753e-01,2.41373e-01,-2.04206e-03,3.01104e-01,-1.06120e-01,-1.31932e-01,-2.97591e-02,1.30181e-01,4.45038e-02,6.19170e-02,-4.29411e-02,-1.31024e-01,9.01788e-04,-2.12542e-01,-2.30005e-01,-3.04548e-02,2.52283e-01,3.46118e-02,-1.29495e-01,7.55093e-02,-3.30818e-02,-3.10923e-01,3.15966e-01,-1.81676e-01,1.17240e-01,
-1.65588e-01,1.81437e-01,-1.32716e-01,-2.25587e-01,-8.50389e-03,2.22192e-01,-3.09128e-01,1.55743e-01,-2.07096e-01,-5.44087e-02,-1.98660e-01,-3.17106e-01,1.05866e-01,5.22863e-02,-2.73973e-01,-7.92775e-02,-2.72523e-01,5.48769e-02,-1.15718e-01,-3.57722e-02,2.41788e-01,-1.29062e-01,-9.96432e-02,2.38620e-02,1.06741e-02,5.98467e-02,-3.73493e-01,-8.69952e-04,-2.82891e-01,-4.92458e-02,
2.40121e-01,2.54816e-01,2.45589e-01,9.74567e-02,1.24653e-01,3.28966e-02,-2.18885e-02,3.11157e-01,2.21386e-01,8.42561e-02,1.00376e-01,6.50672e-02,-8.13699e-02,1.34620e-02,6.92222e-02,-2.94183e-02,2.61156e-01,-2.30134e-01,-2.64505e-02,1.06065e-01,-2.73542e-01,8.73903e-03,-1.98269e-02,3.82366e-02,-6.60343e-02,4.94618e-02,4.43816e-02,3.33348e-02,2.30757e-01,-2.14618e-02,
1.30409e-02,2.74521e-01,1.57363e-02,5.51359e-03,5.97926e-02,-6.89459e-02,-3.78366e-02,2.65019e-01,-3.51223e-02,2.04880e-02,5.85554e-02,1.27089e-01,9.68229e-03,1.43041e-01,2.42556e-02,-6.59554e-03,-1.01906e-01,6.32005e-02,-6.38972e-02,-1.41996e-02,-2.77385e-01,1.48571e-01,2.51245e-02,-3.60534e-02,6.89535e-02,1.72575e-03,4.48320e-01,1.30511e-01,1.09598e-01,2.08902e-01,
3.39270e-01,-1.19422e-01,3.01650e-01,1.60884e-01,-3.74105e-01,6.61661e-02,-4.86541e-01,-2.31011e-01,-7.63633e-02,-3.40462e-01,-1.01014e+00,-6.93096e-02,-3.16045e-01,-5.64443e-01,7.21434e-03,-1.86859e+00,-1.61025e-01,2.37646e-01,-4.70671e-02,-1.58056e+00,5.66146e-02,-1.10458e-01,6.03059e-01,3.80039e-01,-3.92903e-01,-3.09453e-01,-8.06285e-02,-5.20683e-01,-1.04606e+00,1.65476e-01,
1.65723e-01,-8.37122e-02,2.38125e-01,2.67760e-01,-3.00688e-01,-3.27380e-01,-1.14757e-01,1.83989e-01,-2.71069e-01,-6.14753e-02,5.97289e-02,1.70705e-01,6.29634e-04,1.30862e-01,-1.13871e-01,-1.50005e-01,7.82945e-02,7.80212e-02,1.18621e-01,-7.73211e-02,4.19966e-02,-5.53065e-02,-1.94463e-02,-3.29375e-01,1.30687e-01,3.83053e-02,-1.60569e-01,-1.35119e-01,1.19836e-01,2.34575e-01,
-4.25724e-01,4.30688e-02,-9.41366e-02,-1.84935e-01,-2.29152e-02,5.54291e-03,3.83392e-02,-1.17348e-01,5.95112e-02,6.39261e-02,-1.85992e-03,-2.45771e-02,-2.39731e-01,1.72344e-02,-6.89698e-04,2.31814e-01,1.48819e-01,1.09329e-01,1.30853e-02,4.00996e-02,-1.28364e-01,2.38966e-01,-7.01732e-04,1.41033e-01,-1.04698e-02,-3.15478e-03,-8.29061e-02,6.36264e-02,1.13928e-02,-9.41570e-02,
1.36608e-01,2.69693e-01,2.07268e-01,-1.77971e-01,2.32927e-01,-1.23650e-01,-2.50069e-01,-3.14310e-02,1.14602e-01,1.93613e-01,1.57514e-01,1.29917e-01,-2.18098e-01,7.04755e-02,1.35325e-01,-2.92028e-01,1.86039e-02,6.36624e-02,-1.77631e-01,-3.82027e-01,3.46159e-01,-2.09420e-02,1.29191e-01,-1.75551e-01,-1.37268e-01,1.75885e-01,7.41770e-02,-3.01337e-01,1.18888e-01,2.86373e-02,
1.25244e-01,-3.06369e-01,1.76330e-01,1.61162e-02,-1.90036e-01,-3.53401e-01,-4.33764e-01,1.23431e-02,-1.13867e-01,-5.62905e-02,1.09224e-01,7.10301e-02,2.49697e-01,-8.26545e-02,4.03145e-02,-5.13213e-02,-2.34977e-02,-1.11451e-01,-1.44554e-01,8.47465e-03,-1.55427e-01,-9.04396e-02,-1.20618e-04,-1.25267e-01,-1.19573e-01,8.52162e-02,1.72150e-01,-1.75842e-01,1.68861e-01,1.41068e-01,
1.23765e-01,-1.38394e-01,-2.14705e-02,-1.03098e-01,1.24427e-01,-8.04319e-02,1.51344e-01,1.36702e-01,2.98801e-01,6.07278e-02,7.62173e-02,3.40565e-02,-2.60894e-01,2.72430e-01,1.09057e-01,-8.06376e-02,6.11307e-03,4.41213e-03,-9.11442e-02,-1.79120e-01,-8.34192e-02,1.11235e-02,8.30160e-02,-1.11369e-01,1.95112e-01,6.63188e-02,-2.98432e-02,-7.55965e-02,6.54242e-02,5.58796e-02,
1.13454e+00,-2.85253e-01,2.44538e-01,-1.87117e+00,4.88495e-03,6.46102e-02,-3.17547e-01,2.62992e-01,-5.65789e-02,9.53037e-02,2.09972e-02,-3.19215e-01,1.16386e-01,2.20902e-02,-5.57608e-01,6.28280e-01,-1.55035e-01,6.91837e-02,1.93094e-01,1.87221e-01,-7.85562e-02,2.41853e-01,-7.75098e-02,-1.66005e+00,-2.72579e-01,-7.70056e-02,2.69544e-01,3.94379e-01,-5.32434e-01,2.57706e-01,
2.53155e-01,3.64188e-02,3.89992e-01,1.27028e-01,7.23798e-01,-6.44195e-02,-2.21074e-01,-6.77961e-02,1.00907e-01,5.10227e-01,7.40287e-02,-2.26482e-01,1.21536e-01,1.57208e-01,2.75954e-01,2.91130e-01,-2.49741e-01,1.44946e-01,-1.70978e-01,-7.29798e-02,-2.08815e-01,8.22412e-02,1.93429e-01,-1.74872e-01,-3.40233e-01,1.17408e-01,4.14776e-01,2.87760e-01,5.42374e-02,-2.36666e-01,
-8.78099e-02,-9.17889e-02,3.46613e-02,-1.94137e-02,-1.23056e-01,7.92771e-02,2.37057e-01,-7.05854e-02,1.69416e-01,-7.02702e-02,-8.20768e-02,-3.04771e-02,1.31059e-01,-1.27596e-02,-2.28083e-02,1.21538e-01,-3.06723e-01,-1.91577e-01,1.01479e-01,8.25695e-02,1.97663e-03,-1.68496e-01,-3.90691e-02,1.55200e-01,-3.50051e-01,-1.02049e-01,-3.13827e-01,6.10643e-02,2.57715e-02,-2.44801e-01,
8.93217e-02,5.82375e-02,-5.16410e-02,-2.35166e-02,1.33771e-01,-4.68047e-02,5.55906e-02,1.86351e-01,1.15225e-01,-6.53400e-02,-1.39033e-02,3.52822e-02,3.13018e-02,1.31912e-01,-7.42739e-02,-5.07796e-04,1.20478e-01,3.09779e-02,-4.10616e-03,-4.65305e-02,-6.67189e-02,1.30339e-01,2.18808e-02,-8.14400e-02,1.28155e-02,2.38419e-02,3.47759e-01,2.45257e-02,1.34078e-01,1.46097e-01,
1.62338e-01,1.73224e-01,-2.60878e-01,6.85980e-02,-9.13056e-02,-2.86277e-01,1.76166e-01,-1.01249e-01,2.65818e-01,-1.93815e-01,-1.36903e-01,-3.16117e-01,1.02825e-02,1.88071e-01,-1.69462e-01,6.86998e-02,1.05814e-01,-2.81029e-01,-1.74156e-01,-1.93830e-01,-1.67674e-01,-2.11755e-01,-2.31739e-01,1.65016e-01,-1.59389e-03,-2.19807e-01,-3.08790e-01,-5.42186e-02,-1.40564e-01,2.06462e-01,
-1.96859e-01,2.16582e-01,-1.51651e-01,6.54344e-02,3.51163e-02,-7.90453e-02,-3.65698e-02,1.96961e-01,-7.42809e-02,1.76446e-02,8.53282e-02,-3.81971e-03,2.74022e-01,3.86709e-02,3.08883e-02,-1.85699e-02,6.92610e-03,-2.07554e-01,-6.14889e-02,2.54503e-02,2.21118e-01,-2.79915e-01,2.53138e-02,-9.74633e-02,2.88545e-01,1.87671e-02,6.32331e-02,-2.16137e-02,-1.94830e-02,2.22984e-01,
-1.94583e-01,-2.12736e-01,-9.91978e-02,-1.46889e-01,7.10252e-02,1.37025e-01,-3.25868e-01,1.39223e-01,1.44758e-01,-8.45678e-02,-9.60189e-02,-2.80418e-01,-2.87532e-01,2.96498e-01,-2.16867e-01,2.20729e-01,-2.54888e-01,-1.09746e-01,-2.34126e-01,3.74299e-02,4.56687e-02,1.25807e-01,-2.48223e-01,-1.68124e-01,-1.47777e-01,-2.53425e-01,-2.21291e-01,9.03729e-02,-5.12813e-02,-1.90860e-01,
1.04116e-01,2.17001e-01,2.02103e-01,3.97053e-01,-1.10542e-01,2.40471e-02,2.34585e-01,2.17025e-01,1.22539e-01,2.19553e-01,-8.59627e-02,-1.52492e-02,-9.52397e-03,-4.02022e-02,-2.23624e-02,-1.43235e-02,2.09630e-01,6.84926e-02,1.68658e-02,2.14460e-01,-1.85123e-04,-4.45223e-02,-2.08130e-02,9.21680e-02,-2.56082e-01,-3.22402e-02,-1.94520e-01,-1.30237e-01,-4.55622e-02,1.17281e-01,
1.27538e-03,-3.89925e-02,-5.33622e-02,-1.29646e-01,-4.17137e-02,5.16153e-02,4.16187e-02,8.46421e-02,-1.15443e-01,-2.37732e-02,-1.61794e-02,-4.47858e-02,-2.12749e-01,-2.40182e-02,-3.77160e-02,7.66239e-02,2.80569e-01,2.93345e-02,-1.77258e-02,-4.83437e-02,-3.13969e-01,9.60884e-02,1.23995e-02,-3.61410e-02,1.13052e-01,2.27304e-02,-2.58958e-02,2.54433e-02,2.80958e-02,-2.96437e-01,
-1.89402e-01,-1.96838e-01,-1.91744e-01,-4.24563e-02,2.53804e-01,-3.05187e-01,-1.94113e-01,1.96216e-01,2.23832e-01,2.63465e-01,-9.35856e-02,2.23312e-03,2.47738e-01,-5.91395e-02,1.44563e-01,-1.02368e-01,-1.09335e-01,-4.50257e-02,2.07255e-01,1.22118e-03,-1.80858e-01,-2.87474e-01,-1.50668e-01,1.98677e-01,-1.37643e-01,-3.00254e-01,-2.45776e-01,-1.48839e-01,1.92749e-01,-2.81068e-01,
2.32876e-01,-1.18765e-01,-1.01833e-01,3.39773e-01,6.52942e-02,-8.16131e-02,-9.27279e-02,-5.54917e-02,-3.51161e-02,5.19126e-02,5.61616e-02,-2.93780e-02,2.92224e-02,-1.18183e-01,-9.29031e-02,2.01249e-02,1.07086e-01,-7.65012e-02,-3.54925e-02,2.12633e-01,-2.28680e-01,1.10944e-01,-5.98892e-03,-1.19473e-01,1.89645e-01,1.40126e-02,2.91914e-01,-4.37558e-02,2.35990e-02,-5.42296e-02,
-2.34809e-01,1.12932e-01,-4.10031e-01,5.96960e-01,-3.68851e-02,2.95123e-01,-1.43599e-02,1.03814e-02,-3.55999e-02,-2.92121e-01,-3.80779e-01,-5.02459e-01,-2.59370e-01,-6.88423e-01,-1.72821e-01,7.92325e-01,2.73562e-01,-1.24014e-02,3.85623e-01,9.36075e-01,1.11135e-01,6.00083e-02,-3.46797e-01,2.81590e-01,5.80985e-02,-4.11497e-01,2.11668e-02,8.34953e-01,-4.14210e-01,2.94629e-01,
-1.95206e-01,-2.36219e-01,-1.87033e-01,1.87030e-01,6.31642e-02,-7.44794e-02,2.51881e-01,-2.62378e-01,-1.14692e-01,-2.19705e-02,4.18417e-02,-6.37523e-02,-2.60838e-01,2.12827e-01,3.93352e-02,-5.27019e-02,3.15019e-01,-1.73974e-01,-4.09644e-02,8.37016e-02,-6.23231e-02,3.66642e-02,2.22383e-02,-1.48895e-01,4.10756e-01,-2.22012e-03,-5.02300e-02,-3.30990e-02,-2.66846e-02,4.82422e-02,
-3.55696e-02,-1.10976e-02,7.29903e-02,3.51458e-02,-7.16320e-02,1.25518e-01,-1.68211e-01,-2.76320e-01,-3.42499e-02,-2.01348e-01,3.05574e-02,3.05100e-03,-6.61909e-02,-1.62601e-01,5.93144e-02,5.48685e-02,2.76701e-01,-1.21211e-01,1.37362e-01,2.45853e-01,2.60831e-01,-1.38231e-01,-1.39923e-01,1.98505e-01,-2.17539e-02,-1.07689e-01,-1.38905e-01,2.90813e-01,-3.95040e-03,1.19230e-02,
-3.90817e-02,-2.42963e-01,1.16270e-01,-5.80988e-01,8.17842e-02,-2.77977e-01,-1.36920e-02,-2.24018e-01,2.71966e-01,3.22216e-01,2.76257e-01,3.96390e-01,2.79357e-01,4.67088e-01,2.55145e-01,-7.69066e-01,2.39121e-01,-2.29890e-01,-3.79319e-01,-9.15536e-01,-1.67860e-01,1.76583e-01,2.91608e-01,-2.87467e-01,-2.17186e-02,3.62988e-01,-2.65025e-01,-7.97812e-01,2.55038e-01,2.92275e-01,
-3.17606e-01,-4.89016e-02,1.89981e-01,-6.04433e-02,2.46415e-01,-2.81586e-01,-4.87631e-02,-2.06172e-01,-2.51675e-02,-1.68478e-01,1.35236e-01,9.45374e-02,-2.65429e-01,1.25467e-01,-2.22073e-01,2.28477e-01,9.77512e-02,-1.96285e-01,1.97268e-01,-5.11940e-02,2.47544e-01,-2.50498e-01,6.36280e-02,2.54180e-01,-2.42092e-01,-8.73555e-02,-1.58752e-01,1.65276e-02,-9.99893e-02,1.44243e-01,
-3.04515e-01,-6.56256e-03,-2.07464e-01,8.66414e-02,3.97524e-02,-3.82659e-01,-2.20831e-01,-1.00621e-01,2.76493e-01,1.08123e-01,-3.56228e-01,-2.84968e-01,-1.59587e-01,-1.21852e-01,-4.76058e-01,-9.30004e-02,4.73623e-02,-5.91824e-02,-8.04550e-02,-8.83008e-02,2.24241e-01,1.64666e-01,-3.57978e-01,3.01574e-02,-3.19305e-01,-3.25317e-01,1.41911e-01,5.81353e-03,1.59832e-02,-2.93358e-01,
1.37763e-01,
4.88467e-02,
-1.30219e-01,
-1.90345e-01,
-1.08760e-01,
-1.53984e-02,
-1.05062e-02,
-1.65605e-01,
-2.05436e-01,
1.09907e-02,
2.46893e-01,
-3.89558e-01,
5.89008e-02,
-1.54011e-02,
-6.62574e-02,
5.02397e-02,
5.98763e-02,
-4.97399e-02,
1.27148e-02,
-5.33384e-02,
1.75768e-01,
3.69628e-02,
-3.45585e-01,
4.70776e-02,
1.01717e-01,
1.41098e-02,
1.74426e-01,
-1.29609e-01,
-3.41987e-01,
1.16030e-02,
4.12683e-02,-4.64297e-01,7.77120e-02,3.98857e-01,2.06128e-01,-8.60721e-03,7.53859e-03,-3.48651e-01,3.28786e-01,1.51939e-02,-1.45709e-01,2.84030e-02,-3.68628e-02,-7.20872e-02,4.24788e-02,2.54375e-02,-5.48583e-03,4.09453e-01,-2.46534e-03,1.57882e-01,3.36788e-02,9.74830e-03,-1.05090e-01,-4.94053e-03,4.86768e-01,-2.42772e-02,5.83079e-02,7.11434e-02,-1.64492e-01,3.22772e-01,
1.87221e-01,-1.46194e-02,-9.82641e-02,3.98892e-01,2.76760e-01,2.71546e-01,1.43505e-01,-1.95249e-02,1.93953e-03,6.53920e-03,-2.50851e-01,-2.91678e-01,4.27743e-02,-1.47206e-02,3.63007e-03,4.10290e-02,-4.23352e-01,2.15763e-01,-5.66783e-02,4.54372e-02,-1.88322e-02,-2.47496e-01,9.32467e-02,-2.88905e-01,9.96856e-03,-9.32663e-02,-2.88083e-01,2.35300e-03,1.35741e-01,-2.11725e-01,
2.23984e-02,9.76595e-03,8.62051e-02,-5.39170e-02,-2.65730e-01,5.82543e-02,-7.82042e-02,-5.46175e-03,3.68611e-01,-8.85635e-02,-9.34252e-02,1.64950e-01,1.13831e-01,9.17645e-03,4.04334e-03,4.28498e-02,1.07065e-01,-2.43330e-02,3.52910e-01,-1.43245e-01,8.96429e-02,-1.54890e-02,-2.12367e-01,-1.29724e-01,-7.51223e-03,-2.26004e-01,-1.73581e-02,-6.77865e-03,-2.72977e-01,1.37627e-01,
1.79079e-01,-1.91953e-02,-1.22992e-01,-2.44644e-01,-3.98790e-02,-4.51470e-01,1.51544e-01,-1.91804e-02,7.15498e-03,2.41677e-01,2.62890e-01,-4.06180e-01,4.06208e-01,-1.43476e-02,3.37913e-03,3.89282e-02,1.98822e-01,1.92034e-01,-3.19148e-02,2.33407e-01,6.20715e-01,5.24212e-01,1.13405e-01,-5.60300e-02,1.56287e-02,-1.10645e-01,5.67984e-01,1.82650e-03,3.28764e-01,-1.59984e-02,
-1.27159e-02,-7.21532e-03,2.00914e-01,2.75530e-01,2.59719e-02,-8.29095e-02,-5.37054e-02,-1.34904e-02,-3.12075e-02,-3.07559e-02,-5.06942e-02,3.05759e-01,2.70520e-01,-1.53926e-03,6.67708e-03,7.37577e-02,3.91248e-02,2.86745e-02,-8.72191e-02,2.54766e-02,3.21305e-02,5.11005e-02,6.89224e-02,1.79380e-01,-1.01823e-02,-1.44868e-01,1.11507e-01,1.48950e-02,-1.09736e-01,2.13111e-01,
6.01421e-03,
1.60073e-01,
-2.12051e-02,
-3.39240e-01,
-5.66620e-02,
