// Neural Network File Format by Kyle Julian, Stanford 2016
6,5,5,30,
5,30,30,30,30,30,5,
0.000,
499.000000,-3.141600,-3.141600,100.000000,0.000000,
36656.000000,3.141600,3.141600,472.000000,1200.000000,
17688.500000,0.000000,0.000000,249.000000,532.000000,9.330048,
36157.000000,6.283200,6.283200,372.000000,1200.000000,423.773936,
-5.67089e-01,-4.47177e-01,4.99252e-01,7.53440e-03,2.54116e-02,
-2.37765e-02,-1.37181e-01,-7.11021e-02,2.27524e-01,2.13201e-01,
-7.19845e-02,-8.94302e-01,-1.90733e-01,1.78518e-02,2.84220e-02,
8.18189e-02,-2.14903e-01,1.39374e-01,1.79803e-02,-1.52169e-01,
1.72319e-02,8.08917e-01,-5.81891e-01,7.28258e-02,-2.72843e-01,
5.83498e-01,3.25789e-02,8.78799e-02,5.13935e-03,-1.38855e-02,
-1.10550e-02,-5.23104e-01,4.88922e-01,7.51226e-02,-5.52104e-01,
-8.20102e-02,-1.11484e+00,7.56753e-01,8.08213e-02,-1.04462e-01,
1.79943e-01,-4.11785e-01,5.68051e-01,-2.17649e-02,2.22186e-01,
-1.64110e-02,9.14013e-01,-9.14952e-01,1.00540e-02,8.69322e-02,
1.67080e-01,3.21727e-01,-2.65455e-01,-8.03605e-04,2.66147e-02,
1.58411e-01,-2.81967e-01,-6.71075e-03,2.13239e-01,-7.59747e-01,
3.11987e-01,4.31696e-01,-8.00007e-03,-6.12047e-02,3.93509e-01,
-7.65020e-01,-1.93639e-01,5.38367e-02,4.37366e-02,-2.65190e-01,
1.17343e-01,4.83193e-01,-1.42469e-02,1.92877e-01,-7.54307e-01,
8.50403e-02,-1.99176e-01,-1.62777e-01,-1.46755e-01,1.08675e-01,
-3.00544e-02,3.35251e-01,-1.98327e-01,-7.95765e-03,-8.58179e-01,
-3.81875e-02,-1.10184e-01,-8.31610e-01,1.90400e-01,-1.63708e-01,
1.96796e-01,-4.00788e-02,3.85524e-02,2.92695e-01,5.77903e-02,
-3.79820e-01,4.86164e-02,-4.16229e-02,5.58770e-02,-1.87792e-02,
-5.01313e-02,-6.76716e-01,8.85842e-02,3.22986e-02,-7.50070e-01,
4.02906e-02,5.27014e-01,6.48731e-01,7.77345e-02,-3.73259e-01,
5.48160e-03,-6.00360e-01,7.78594e-01,-3.99853e-03,8.62583e-02,
2.52200e-01,4.61447e-01,-4.97397e-01,6.90299e-02,-6.45573e-02,
2.30425e-02,5.65983e-01,-5.79476e-01,1.15200e-01,-1.14151e-01,
-1.08061e-01,1.55111e-01,2.61971e-02,4.67392e-03,4.58156e-01,
2.57389e-01,9.51807e-02,-1.50076e-02,-4.24019e-02,-6.64319e-01,
8.08957e-05,2.80846e-01,7.42865e-01,-1.35352e-02,6.78034e-03,
4.08949e-02,-6.78199e-02,6.23454e-01,1.88279e-01,-3.71064e-01,
-5.99591e-02,-6.27562e-01,-1.98863e-01,-2.23529e-01,1.82705e-01,
-2.53120e-01,
4.56337e-02,
1.25774e-01,
1.75444e-01,
-2.13793e-01,
8.95948e-02,
-1.50429e-01,
-2.50800e-01,
-1.25947e-01,
-3.28527e-01,
2.06166e-01,
-1.61274e-01,
2.16306e-01,
-3.32900e-01,
-2.73279e-01,
1.46931e-01,
-2.84786e-01,
1.96691e-04,
2.40521e-01,
1.79123e-01,
-2.71653e-01,
-4.11862e-01,
-3.00035e-01,
-1.59986e-01,
-3.03285e-01,
1.83633e-01,
-2.27470e-01,
-3.50385e-04,
-2.73043e-01,
-8.80458e-02,
-1.43697e-01,4.57984e-01,-7.16247e-02,-1.61899e-01,-2.22054e-01,9.18786e-02,8.35115e-02,1.94236e-01,3.70339e-01,1.94185e-01,2.18040e-01,-8.28858e-01,-2.90547e-01,-1.91296e-01,-7.78953e-01,4.82530e-03,-2.42707e-01,-4.13862e-01,-1.64344e-01,-1.12526e-02,8.14606e-02,-5.80626e-01,-2.14200e+00,1.86728e-01,-1.55850e+00,-4.41281e-01,-2.08167e-01,-4.88767e-01,-4.26098e-01,2.12818e-01,
-2.81806e-01,7.31601e-02,3.63747e-01,2.42436e-01,-3.51758e-01,-2.47731e-01,2.19175e-01,-4.40977e-01,3.04868e-01,-7.29843e-02,4.72975e-01,3.76998e-01,-3.89057e-01,-4.00558e-02,-1.58758e-01,5.38204e-01,-5.21690e-01,3.92365e-03,1.03575e-01,-1.45921e-01,6.76943e-02,-4.08685e-01,1.37455e+00,-5.35961e-02,-2.70171e-01,-2.34320e-01,5.39453e-02,-2.83165e-01,2.11864e-01,-3.30562e-01,
3.10137e-01,-5.56548e-02,-4.71559e-02,-3.15521e-01,5.58157e-02,-3.05519e-01,-2.27742e-01,-2.09501e-01,2.44882e-02,-1.32952e-01,-1.82469e-01,1.53325e-01,-2.73365e-01,2.04854e-01,-2.02286e-01,4.45327e-02,2.28522e-01,-3.91750e-02,1.00890e-01,2.25169e-01,1.22097e-01,1.62832e-01,1.97324e-01,-1.75325e-01,1.87790e-01,-1.40283e-02,1.65455e-01,1.55822e-02,-1.30354e-01,-1.87407e-01,
-5.09973e-02,-5.30972e-02,-2.76720e-01,2.19269e-01,2.90204e-02,-3.98718e-01,-8.15566e-03,-4.27389e-01,9.03562e-02,-1.65184e-01,-3.28140e-01,3.66118e-01,-1.97127e-02,-5.98714e-01,-4.86773e-01,2.96848e-01,-2.57304e-02,2.27814e-01,1.16246e-01,-4.27819e-01,-2.31734e-01,2.86428e-01,-9.01068e-01,5.39804e-02,-7.83472e-01,1.56326e-01,-2.94485e-01,-3.05829e-02,-5.72706e-01,8.76046e-02,
1.39442e-01,-1.05547e-01,-1.44196e-01,2.04874e-01,-2.29029e-01,2.67517e-01,2.84873e-01,-1.29909e-01,-5.01990e-01,3.59389e-01,-5.39326e-02,-3.91386e-01,-1.87416e+00,1.53904e-01,-4.31893e-01,-2.45671e-01,6.74376e-01,-3.82265e-02,2.28180e-01,3.52555e-01,-2.91752e-01,2.63033e-01,-2.94855e+00,1.26861e-01,-4.41658e-02,-3.60375e-01,-1.09843e+00,-4.99916e-02,-4.27034e-01,1.41849e-01,
-6.79504e-01,2.80727e-02,1.37924e-01,-3.46477e-01,-1.64413e-01,2.68501e-01,1.76019e-03,-1.35242e-01,7.85226e-03,-2.05538e-01,-3.60063e-01,3.12366e-01,7.70475e-02,1.49307e-01,-3.78949e-01,1.22669e-01,-3.49332e-01,3.13565e-01,-2.21419e-01,3.70891e-02,1.84699e-01,-6.98297e-01,3.07861e-01,2.83028e-01,1.70285e-01,3.86601e-01,-1.68713e-01,6.76650e-02,3.27454e-01,-1.51699e-01,
-5.18664e-01,2.49475e-01,5.95276e-02,2.09941e-02,8.91946e-01,-2.53244e-01,7.05934e-01,-4.74858e-01,-1.94377e-01,6.57193e-01,-1.08689e-02,6.34556e-02,1.92043e-01,5.81818e-01,-5.79799e-02,2.86272e-01,-5.34411e-01,-1.25961e-01,4.55142e-03,-1.16334e-01,-1.36633e-01,-2.49298e-01,4.97752e-01,2.21166e-01,-7.91426e-01,3.50190e-03,2.54987e-03,1.78002e-01,-3.46250e-01,1.90335e-01,
-1.23410e-01,-6.54614e-02,1.23612e-01,2.79602e-01,-1.42061e-01,-2.51220e-01,1.60049e-01,1.92505e-01,1.70007e-01,5.19316e-02,1.49661e-02,-2.27294e-03,2.20955e-01,-1.16754e-01,-7.79363e-02,2.27967e-01,3.09094e-01,-3.06330e-01,-1.23419e-01,-6.35786e-02,-2.14060e-01,2.91857e-01,-3.00050e-02,1.63575e-01,1.24602e-02,-1.59641e-01,2.50784e-01,1.74338e-01,-1.08513e-01,-2.70322e-01,
2.34402e-01,-8.18311e-02,-2.47776e-01,3.13367e-01,-5.35324e-01,1.73664e-01,-1.08755e-03,5.34354e-01,5.32249e-01,-3.98376e-01,-1.33400e+00,9.88216e-02,-1.18212e-01,6.99679e-02,1.43728e-02,1.84190e-02,1.17098e+00,-6.14568e-01,1.67994e-02,-7.98486e-02,-1.90128e-01,-4.46357e-01,-1.79830e-01,2.86716e-02,-7.42515e-02,1.32230e-01,-7.78342e-01,-4.97313e-02,-2.27152e-01,-7.94427e-02,
-2.41005e-01,-3.73694e-01,-4.65579e-01,-6.10762e-02,9.17339e-02,-1.05727e-01,1.62567e-01,8.93722e-01,2.47744e-01,6.42594e-01,-2.59589e-01,6.37344e-03,-2.44187e-02,-7.60522e-01,5.50032e-02,-1.80009e-01,-9.79465e-02,1.04129e-01,1.72455e-01,-2.77835e-01,-6.72131e-02,-5.29844e-01,-3.91671e-01,1.40500e-01,-7.92781e-02,1.43464e-02,-2.49635e-01,-1.80848e-01,3.59227e-02,2.61368e-01,
2.44558e-02,2.51749e-01,-6.36046e-02,5.58524e-02,1.30839e-01,4.39743e-02,-3.33006e-01,1.17328e-01,-1.41481e-01,3.54163e-01,1.17356e-01,-2.02050e-01,-1.27303e-02,1.88981e-01,1.28747e-01,-1.05851e-02,2.97023e-01,-2.78793e-01,-1.57815e-01,-3.55212e-02,-2.64056e-02,9.12786e-02,2.55530e-01,-3.95908e-01,-1.36869e-02,-3.32951e-01,4.56952e-01,-6.74978e-02,-1.64428e-01,5.95144e-02,
-2.56301e-01,1.58915e-01,-4.63673e-03,-3.55794e-02,2.09983e-03,3.65162e-01,1.47946e-01,-2.44495e-01,7.77505e-03,1.09051e-01,3.74315e-01,9.41919e-01,-1.81673e-01,7.51331e-02,-8.74388e-01,1.43152e-01,-3.32258e-01,2.98785e-01,-2.91421e-01,5.79724e-01,1.73219e-01,1.31018e-01,-2.86694e-01,-1.37452e-01,-1.47992e+00,3.03096e-01,-5.85389e-01,3.45911e-02,-2.96731e-01,-1.35241e-01,
5.42727e-01,-1.24972e-01,2.65311e-03,-2.38626e-02,-9.12021e-02,8.79504e-02,8.84254e-03,-7.14403e-02,-2.01967e-01,1.23645e-02,-3.52459e-01,-2.85912e-01,-3.11627e-01,2.67802e-02,2.78199e-01,1.98652e-01,-9.75267e-02,3.36244e-02,1.78996e-01,-1.08752e-01,1.66474e-01,4.15858e-02,-6.85936e-01,4.09647e-01,4.18632e-01,2.79023e-01,-1.40849e-01,2.02974e-01,-2.98643e-01,-3.51123e-02,
-1.29276e+00,7.26616e-02,3.49134e-01,1.89282e-01,-3.12467e-01,-1.40034e-01,-2.40989e-01,-8.75476e-01,-3.01934e-01,-1.07691e+00,3.13390e-01,-2.22002e-01,2.36908e-01,-1.79142e+00,1.90759e-01,7.66883e-02,-2.42378e-02,7.58092e-02,1.62912e-02,-2.02070e-02,-7.12407e-01,4.55513e-01,-1.30567e+00,-2.64764e-01,8.23263e-01,5.86580e-02,-3.21435e-01,6.52885e-01,6.46725e-01,1.25055e-02,
5.23420e-01,-1.32640e-01,-5.68744e-01,-3.01343e-01,1.00906e-01,3.10873e-01,3.56949e-01,3.73838e-01,-2.63033e-02,7.58943e-01,2.64462e-01,1.74864e-01,-2.88358e-01,1.15328e+00,-1.88824e-01,-1.36240e-01,1.15996e-01,3.87863e-01,-2.49704e-01,3.90512e-01,-4.78326e-01,8.46820e-01,-4.00920e-01,1.81526e-01,-1.08949e+00,2.93908e-01,1.91315e-01,-2.81052e-01,-5.69876e-01,9.85427e-02,
8.56848e-01,-2.34806e-02,-4.42233e-01,-6.17237e-01,1.32528e-02,5.16654e-01,3.21887e-01,9.17315e-02,-2.46926e-01,2.37483e-01,-1.25727e-01,4.01142e-02,-5.25360e-02,-1.17293e-01,-4.26763e-02,-3.80600e-01,-1.97144e-01,4.98636e-01,-3.77898e-01,3.11168e-01,-1.60973e-01,2.23123e-01,-2.74135e-01,-1.03139e-01,-6.06537e-02,1.13553e-01,-3.27733e-01,-4.73298e-01,3.72438e-01,1.94553e-01,
6.24024e-01,-2.45365e-01,1.58712e-01,2.09625e-01,4.92770e-01,1.36065e-02,1.35066e-01,2.84123e-02,4.75011e-01,-2.12777e-01,2.88112e-01,-7.79621e-02,2.10211e-01,-2.99948e-01,-4.93863e-01,1.57863e-01,-2.08662e-02,-4.32838e-02,-2.66521e-01,9.69000e-02,-1.72861e-01,1.67499e-01,-1.41973e+00,3.94365e-02,-1.96782e-01,-8.45892e-01,-7.57623e-01,2.32466e-01,1.84687e-02,-1.71884e-01,
5.43536e-02,3.82932e-02,-5.89766e-01,-2.63408e-01,5.24243e-01,-4.66829e-01,2.14044e-01,1.09065e-01,-2.35244e-01,7.45404e-01,1.68928e-01,1.67645e-03,1.56079e-01,1.18839e+00,-7.10638e-02,-1.69546e-01,-4.26663e-02,2.72425e-01,-7.18986e-02,-4.11158e-01,-3.36287e-01,-2.08405e-01,-5.25435e-02,5.61390e-01,-8.87568e-01,-8.53528e-02,-4.01921e-01,-4.68339e-01,1.00165e-01,3.25230e-01,
3.53094e-01,3.56122e-01,1.23485e-01,-8.80984e-02,6.32981e-02,-5.73954e-01,-1.44805e-01,-2.87585e-01,-2.27101e-01,-4.75993e-03,3.72550e-03,-4.14565e-01,3.89583e-01,6.14156e-02,5.75780e-02,2.35535e-01,-5.95622e-02,-6.56819e-01,1.17104e-01,-4.78844e-01,-2.21370e-01,2.81031e-01,-1.58633e+00,-3.17497e-01,1.46071e+00,-4.13912e-01,1.29402e+00,-7.62272e-02,-7.21421e-01,2.46654e-01,
-5.11957e-01,1.30918e-01,-9.31162e-03,-3.18768e-01,4.26717e-01,2.16953e-01,6.34676e-02,-1.78854e-01,9.64314e-02,-4.56665e-01,-3.43223e-01,1.34179e-01,9.93352e-03,2.87196e-01,-5.07039e-01,-3.28368e-02,-2.40401e-02,-1.31128e-01,-7.96304e-02,2.45184e-01,4.51869e-02,1.58457e-02,-1.16300e+00,2.19180e-01,-6.08062e-01,2.12036e-02,-3.50496e-01,3.73585e-01,-3.58752e-03,2.79773e-01,
-1.92687e-01,8.65665e-02,9.35283e-02,-5.08743e-02,-2.54796e-01,-1.92982e-02,2.86096e-02,-9.32130e-02,-5.63594e-02,-3.48590e-01,2.53945e-01,6.11221e-02,1.00945e-01,6.95898e-02,-2.36569e-01,-1.59138e-01,-2.29378e-01,2.18322e-01,-2.03000e-01,-3.26039e-01,2.40691e-02,4.53961e-01,2.33556e-01,-3.19098e-01,8.00395e-01,-2.20226e-01,-1.30333e-01,-2.64674e-01,3.00302e-01,-3.96941e-01,
2.36386e-01,-4.93936e-01,-2.59547e-01,3.31579e-01,4.89063e-01,1.59167e-01,5.17201e-01,-4.75648e-02,5.12531e-01,-6.46451e-02,5.08005e-02,-1.35414e+00,-1.48463e-01,-1.32770e-01,-5.99719e-01,3.79453e-01,5.17148e-01,-1.64147e-01,-7.56871e-01,-7.89566e-02,-2.90293e-01,-2.81010e-01,-1.94802e+00,8.30013e-01,-1.15659e+00,-7.81821e-01,-1.08057e+00,1.37033e-01,1.20494e-01,2.16806e-01,
-1.70874e-02,1.84706e-01,-1.85352e-01,1.54165e-01,1.38048e-01,-3.32668e-02,-2.18849e-01,2.78332e-01,-5.75229e-01,-1.23968e+00,3.16753e-01,-3.61321e-01,2.05305e-01,1.31170e-01,-2.63144e-01,-1.33702e-02,-4.87898e-01,9.37029e-02,-2.71311e-01,1.34058e-02,-1.57106e-01,3.66569e-01,-2.07288e-01,5.93803e-02,-6.96915e-01,4.06911e-02,4.84656e-02,2.12311e-01,3.57975e-01,2.61757e-01,
-5.61245e-01,-1.07334e-01,-3.03857e-01,3.49359e-01,-2.42837e-01,-1.43646e-01,-4.51893e-01,-9.29691e-01,-3.10160e-01,2.13738e-02,2.07616e-01,-3.95461e-01,-2.08907e-01,-9.42923e-01,3.72046e-01,-2.11386e-02,2.89212e-01,8.03530e-02,3.44781e-01,-2.30410e-01,-1.27330e+00,8.68875e-01,-1.34577e+00,-1.39521e-01,1.91197e-01,-8.40655e-02,-1.54109e-01,5.72047e-01,-3.94158e-02,6.63455e-01,
-4.46417e-02,-3.40541e-02,-3.65018e-01,3.53206e-01,7.34134e-01,-3.05834e-01,3.90050e-01,3.30878e-01,3.48507e-01,-5.52478e-01,2.19150e-01,-6.48461e-01,-1.55929e-01,2.75040e-01,5.93341e-02,-2.67790e-01,1.19694e-01,-2.89896e-01,4.77547e-01,-8.52469e-03,6.21153e-02,-8.93988e-02,-1.02537e+00,2.64850e-01,-3.08695e-01,-4.11174e-01,1.65072e-01,-4.92273e-01,-3.81830e-01,-3.10467e-01,
8.18833e-01,-1.00567e-01,-2.99842e-01,3.34182e-01,-5.15509e-02,1.34660e-01,-1.44324e-01,-2.73511e-01,3.77009e-02,2.96678e-01,-4.56709e-02,-1.58530e-01,-1.26190e-01,4.12456e-01,1.21625e-01,-2.68540e-01,1.71779e-01,-4.97115e-02,-6.66275e-02,1.71665e-01,-5.39092e-01,-2.31896e-01,-3.33391e-01,1.50184e-01,-4.18632e-01,1.84894e-01,-9.88994e-02,-1.51033e-01,4.16794e-01,3.51372e-01,
6.52328e-01,-3.33520e-01,-3.52157e-01,2.79586e-01,5.95602e-01,2.57069e-01,-3.24841e-01,1.82322e-01,-1.25326e-01,4.58267e-01,-1.92031e-01,-1.53751e-01,-3.12048e-01,5.31045e-01,6.50544e-01,-1.59391e-01,1.10600e-01,-2.94056e-01,2.86781e-01,6.92950e-02,-3.78136e-01,-5.81519e-01,-6.10428e-01,-3.45796e-02,-4.56320e-01,3.87152e-01,-4.20632e-01,3.26444e-01,-3.99248e-01,5.86611e-01,
-5.87090e-02,-7.30033e-02,-3.04186e-03,1.64612e-01,7.25215e-02,1.17911e-01,-6.73521e-02,2.23819e-01,-5.44062e-02,-1.38688e-02,-1.06073e-01,1.24989e-01,-1.24067e-01,-1.12908e-01,-3.89997e-02,2.31546e-01,2.82954e-01,7.91586e-02,-2.25886e-01,-2.26529e-01,3.15363e-02,-1.91818e-01,-2.72792e-01,1.73779e-01,1.23164e-01,2.13491e-01,-2.05869e-01,-7.80988e-02,-8.51042e-02,-7.72158e-02,
-9.97859e-01,-8.33891e-03,1.70764e-01,1.25363e-02,4.06265e-01,3.24437e-01,5.34121e-01,1.75752e-01,1.13845e-01,4.28435e-01,-1.29934e-01,-4.31764e-01,-2.69013e-01,-7.42725e-01,2.01630e-01,1.74088e-01,5.26648e-01,-5.14548e-01,-5.42503e-02,-2.00049e-02,-3.00710e-02,-2.02067e-01,-3.22036e-01,-3.75953e-02,9.94754e-01,3.11398e-01,-5.59588e-01,1.62230e-01,-3.89401e-01,-2.89169e-01,
-4.92837e-01,3.33995e-01,2.36807e-01,-1.74478e-02,-6.11499e-01,-2.52967e-01,-2.31039e-01,-1.26946e+00,-2.71492e-01,-1.11788e+00,1.36163e-01,-3.57872e-01,1.85547e-01,-1.13579e+00,5.40555e-01,2.31993e-01,-6.09833e-01,-3.81011e-01,-6.37707e-02,-2.67737e-01,-9.77933e-01,1.17708e-01,-1.13980e+00,-9.69144e-02,9.80827e-01,-2.66943e-01,-2.67435e-01,2.80645e-01,1.31300e-01,1.18767e-01,
1.96077e-01,
-2.14448e-01,
-2.68725e-01,
1.95792e-01,
-8.24817e-02,
1.33664e-01,
-6.08426e-02,
-3.24677e-01,
4.07946e-02,
1.42800e-01,
2.01454e-01,
-1.50246e-01,
1.08045e-01,
-1.58237e-01,
-1.71906e-01,
1.23062e-01,
-5.86748e-02,
-1.03622e-01,
1.66534e-01,
1.51238e-01,
1.93154e-01,
-1.59005e-03,
6.19613e-02,
-1.75856e-02,
3.16806e-02,
9.93862e-02,
-1.05043e-01,
-2.61865e-01,
-6.24425e-02,
1.38265e-01,
2.01749e-01,-6.34538e-02,-2.72606e-01,-4.88756e-02,-1.93195e-01,-2.20245e-01,-1.49811e-01,1.23547e-01,1.98656e-01,1.27895e-02,-3.67446e-01,8.20068e-02,-3.29552e-01,-2.45265e-01,-2.52134e-01,-2.54453e-01,1.47657e-01,-1.52813e-01,-3.32458e-01,1.06572e-01,-2.08048e-01,-2.87745e-01,-2.16657e-01,3.51162e-02,-1.89635e-01,-2.36290e-01,3.88106e-02,3.67939e-02,1.35872e-01,-1.54168e-01,
-2.81806e-01,3.38309e-01,-2.16673e-01,-4.08666e-01,-2.76143e-01,5.85201e-02,1.18835e-01,1.27297e-01,3.25161e-01,2.88574e-01,3.32737e-01,2.80379e-01,9.58317e-02,1.31443e-02,-3.08973e-03,-1.59034e-01,4.26108e-02,1.50267e-01,1.40204e-01,-3.28152e-02,9.43956e-03,-9.56115e-02,-6.99930e-02,1.49643e-01,3.20632e-01,1.98840e-01,2.45541e-01,1.41519e-01,-7.05928e-02,5.57100e-01,
4.37508e-01,-1.32594e-01,9.56725e-02,2.58802e-01,-5.06469e-02,9.48844e-02,-2.42833e-01,2.36633e-01,-9.54508e-01,-4.36191e-01,-1.36626e-01,1.38611e-01,-1.80836e-02,-3.82880e-01,-1.57095e-01,-2.00651e-01,9.97927e-02,-2.13874e+00,1.43473e-02,-1.59785e-01,1.92538e-01,1.30543e-02,5.15723e-01,-7.48969e-02,-7.35643e-01,-7.90665e-02,-5.11556e-02,-1.76141e-01,6.03050e-01,1.47315e-01,
-4.46930e-02,2.11856e-01,2.99980e-01,2.33983e-01,2.72291e-01,-3.10061e-02,-1.32411e-01,1.04596e-01,-2.92147e-01,2.58129e-03,-2.10158e-01,-2.42014e-01,1.05418e-01,1.18269e-01,2.61215e-01,-4.19118e-01,5.39531e-02,6.09923e-01,2.34625e-01,2.56349e-01,2.39425e-01,1.81869e-01,6.50927e-02,1.35023e-01,-8.18460e-02,-1.50236e-01,2.76186e-01,-2.69246e-01,-3.42427e-01,5.43099e-03,
3.88904e-01,-4.50662e-01,4.65209e-02,3.80121e-01,-6.60416e-02,-6.31865e-02,2.22363e-01,2.74467e-01,-2.07270e-01,-5.85156e-02,4.06357e-01,1.72039e-01,6.86545e-02,-2.35096e-01,-6.54152e-01,-4.50322e-02,2.94532e-01,-1.58043e+00,-2.85320e-01,-1.82102e-02,3.60469e-01,3.19287e-01,7.35065e-02,-3.94586e-01,-4.46207e-01,3.44720e-01,-4.02401e-02,-4.20056e-02,8.03839e-02,-3.10302e-01,
1.04793e-01,4.87301e-01,-2.27994e-01,2.60064e-01,-6.69886e-01,1.33880e-01,1.42454e-01,-1.51547e-01,-1.48244e-01,-2.02962e-02,-2.19379e-01,-5.51317e-01,2.67635e-01,-1.47111e-01,3.74507e-01,-6.59904e-01,7.46168e-02,3.54795e-01,4.83284e-02,-1.33449e-02,5.50122e-02,-1.47987e-01,-9.64541e-02,-9.44668e-02,3.16976e-01,2.30395e-01,-3.77707e-02,-1.12611e-01,-1.89264e-01,3.75305e-01,
-1.67842e-01,-9.90359e-02,4.84958e-02,-3.30279e-01,3.08366e-02,-2.76355e-02,4.75782e-02,1.91676e-01,1.98237e-01,2.33873e-01,2.19710e-01,1.07851e-02,1.57238e-01,1.84964e-01,-2.43326e-01,1.84138e-01,8.06643e-02,-2.45881e-01,-5.84454e-02,4.75491e-02,-1.68561e-01,-9.12354e-02,-7.99954e-02,-1.03812e-01,2.48499e-01,3.18843e-02,-2.91754e-01,5.11675e-02,4.30771e-02,1.67707e-01,
-6.81662e-02,-5.57311e-01,-1.97700e-02,2.39119e-01,9.89120e-01,-1.23952e-01,1.52220e-01,2.71926e-01,-2.81028e-02,-4.32874e-01,-2.23596e-01,-1.46709e-01,1.46227e-02,-8.69443e-01,-2.86140e-01,1.36446e-01,2.14966e-01,-6.70074e-01,-6.94410e-02,-2.42882e-01,1.87217e-01,6.81664e-01,2.65185e-01,2.58209e-01,-2.92305e-01,-3.31874e-01,-4.42796e-01,-2.38692e-01,3.92013e-01,-7.45718e-01,
2.45384e-01,4.98614e-02,6.65401e-02,-2.36094e-01,2.68577e-01,-3.28194e-02,-7.34883e-02,8.94859e-02,1.99147e-01,2.22211e-01,-1.39721e-01,1.48901e-02,-1.22844e-01,-1.18988e-01,1.12841e-01,1.89194e-01,-2.93057e-01,4.93931e-02,-2.09123e-01,1.27456e-01,9.30625e-03,-4.67125e-02,-9.76459e-02,1.89464e-01,2.01036e-01,-1.15123e-01,-1.13940e-01,8.40790e-02,2.59754e-01,2.07202e-01,
-1.92571e-01,8.69168e-02,2.93062e-01,2.23304e-01,7.83963e-01,-1.09158e-01,8.64027e-02,-7.66687e-02,4.18901e-02,3.56456e-01,5.02867e-02,-4.49121e-01,2.76322e-02,-8.02284e-01,-1.55690e+00,-3.52182e-01,-1.67581e-02,6.00134e-01,1.55863e-01,2.38604e-01,-5.49895e-01,1.54841e-01,8.84921e-02,-8.18600e-01,2.29986e-01,2.34708e-02,-3.85619e-01,2.72374e-01,-8.37998e-04,-1.34239e+00,
-3.83098e-02,-9.80584e-01,-2.82519e-01,6.16377e-02,3.98306e-02,-8.43927e-01,1.11032e-01,-3.18491e-02,-4.41347e-01,5.75488e-01,5.20891e-02,-1.25588e-01,1.50701e-01,-1.62850e+00,-4.55026e-02,-5.94925e-02,5.57452e-01,-5.54680e-01,-9.27281e-01,4.25769e-02,-3.34608e-01,2.03714e-01,-4.69906e-01,9.80308e-01,2.27107e-01,1.19081e-01,-6.59452e-01,1.15302e-01,-4.76011e-02,1.11878e+00,
1.05593e-01,3.12066e-01,1.81732e-01,-2.15030e-01,-9.36233e-02,1.26993e-02,1.07539e-01,1.20865e-01,9.44008e-02,-1.46978e-02,1.90425e-01,9.27166e-02,-3.24053e-01,2.44427e-01,1.73046e-01,-4.71955e-01,3.96828e-01,3.11929e-01,4.00676e-02,1.08675e-01,2.05232e-01,-1.09950e+00,3.04764e-02,-4.45682e-01,2.93734e-01,1.17465e-01,1.12145e-01,2.81408e-01,-2.78361e-02,3.39421e-01,
1.72405e-01,1.85560e-01,3.74529e-03,2.73083e-01,-2.53171e-01,-1.22603e-01,-1.24063e-01,4.81274e-02,-2.61025e-01,1.91521e-01,-6.42456e-02,2.05236e-01,4.13633e-02,1.76601e-01,-8.07067e-02,3.72081e-02,1.59021e-01,1.87848e-01,-5.01012e-02,-8.04960e-02,6.12716e-02,-1.50536e-01,1.74906e-04,-3.82019e-02,-3.00071e-01,-7.37459e-02,-2.35303e-01,-2.41882e-01,-4.90765e-02,1.94071e-01,
-4.69234e-02,3.04486e-02,1.07143e-01,4.97522e-02,-1.22671e-01,-2.16349e-01,-4.68265e-02,2.07029e-01,3.19949e-01,-1.13063e-01,-3.49648e-02,-2.99807e-02,-2.90638e-01,-1.13166e-01,5.29580e-02,-4.61815e-02,1.33668e-01,2.86435e-01,5.42986e-02,-1.67398e-01,-2.71006e-01,-1.29564e-01,-6.10546e-02,2.26119e-01,1.01995e-01,-3.25655e-01,1.31424e-01,-1.69890e-01,-2.45337e-01,1.22039e-01,
-3.12614e-01,6.76119e-01,-1.96105e-01,-7.64421e-02,-3.14297e-01,1.88127e-01,-5.91254e-01,-2.90598e-01,1.20922e-01,-8.04474e-02,-1.67998e-01,1.11995e-02,2.58868e-01,-4.54489e-02,6.18938e-01,-3.99417e-02,-2.55395e-01,5.67720e-01,4.54158e-01,2.19622e-01,-2.25215e-02,2.09514e-01,3.84253e-01,2.07857e-01,-2.39839e-01,-2.07542e-01,3.35094e-01,2.26281e-01,-1.70519e-01,3.56823e-01,
-2.05637e-01,-2.93171e-01,-2.58324e-02,2.24149e-01,2.45912e-01,1.80210e-01,8.38113e-02,-2.51489e-01,-2.78143e-01,4.75362e-02,-1.82393e-01,1.15690e-01,-2.72561e-01,5.98749e-02,1.82621e-01,-2.03730e-01,2.63897e-02,9.16816e-02,-2.07607e-01,2.08891e-01,-7.72632e-02,1.27486e-01,-2.38989e-01,1.64355e-01,-7.61007e-02,3.20034e-02,1.41613e-01,-2.99950e-02,-1.62194e-01,-1.35269e-01,
-1.27912e-01,-4.49625e-01,1.61608e-01,-2.55735e-01,1.32771e-01,1.59624e-02,3.45771e-01,-1.38883e-01,4.62488e-01,4.93649e-01,9.11697e-03,2.48455e-03,-4.26412e-01,-1.56344e+00,-4.39861e-01,1.43428e-01,-1.26982e-01,-2.76752e-01,-2.98671e-01,7.28591e-02,1.15669e-01,4.22085e-02,-2.26820e-01,-3.30967e-01,5.75606e-01,5.81963e-02,-7.20159e-01,1.88420e-01,2.49936e-01,-9.41747e-01,
-9.08812e-02,-5.95251e-02,-1.35864e-01,-1.26512e-01,1.04302e-01,4.29353e-02,-3.93037e-02,-2.32958e-01,-1.82001e-02,1.45131e-01,2.21550e-01,3.72972e-01,1.25733e-04,1.45650e-01,-2.02952e-01,4.14549e-01,-2.40530e-02,-1.85477e-01,-3.62492e-02,5.53823e-02,6.09061e-02,2.52072e-01,1.08267e-01,9.42578e-02,-1.35638e-01,4.10503e-04,3.85538e-03,1.77315e-01,2.24340e-01,-3.66969e-02,
4.13353e-04,-1.88952e-02,2.80750e-01,8.80139e-02,-4.46793e-01,-2.85772e-01,6.02457e-02,-2.69020e-01,-1.13119e-01,-8.65698e-02,-2.47347e-01,-5.94472e-01,7.67950e-02,-8.04400e-01,6.77942e-02,-5.44996e-01,-1.04395e-01,8.52450e-02,-2.32019e-01,4.22146e-01,8.32602e-02,5.12044e-03,2.18625e-01,-4.35014e-01,9.80915e-02,4.04931e-01,-3.21200e-01,-2.53618e-01,2.28640e-01,-1.92941e-01,
1.53505e-01,4.63700e-02,-2.58780e-01,-1.08825e-01,3.17470e-01,5.22954e-03,1.37443e-02,3.00927e-01,2.76822e-01,-6.00942e-02,1.48684e-02,-1.35519e-02,-3.59175e-01,1.83028e-01,-2.65045e-01,2.53231e-01,2.61006e-02,-6.42124e-02,-3.49627e-02,-3.06011e-01,3.71222e-03,5.31091e-02,3.59471e-02,-2.53557e-01,1.26774e-01,1.37841e-01,-2.03858e-01,-1.74938e-02,-1.30633e-01,-1.90346e-01,
-1.25005e-01,-1.41444e-01,-3.14939e-01,1.57088e-02,2.88550e-01,-1.34508e-02,-4.27707e-01,1.59892e-01,-1.60476e-01,-1.27639e-03,-2.29628e-01,-3.27601e-01,-2.13716e-01,6.54591e-02,-9.94421e-03,-3.08359e-01,1.61132e-01,2.79107e-01,1.44888e-01,6.80473e-02,-2.92114e-01,1.34425e-01,-2.26018e-01,-2.20032e-02,3.98238e-02,-3.01794e-01,-3.17806e-01,-2.93062e-01,7.07186e-04,-4.84248e-02,
2.24956e-01,-3.62779e-02,-2.63700e-03,2.21756e-01,-2.60273e-01,-4.22223e-02,-2.27563e-01,3.06533e-01,-4.93023e-01,-3.80697e-01,-1.77116e-02,-3.68653e-01,-1.49051e-01,-4.64690e-01,-1.36447e-01,-2.90922e-01,-2.11889e-01,2.64706e-01,2.35066e-01,3.98060e-02,-6.08394e-01,-2.17358e-01,-7.63411e-02,-2.27196e-01,-4.28908e-01,1.77195e-01,-4.83331e-01,-1.13263e-01,3.99412e-02,-3.00974e-01,
4.69580e-02,-4.03208e-01,-2.81311e-01,1.47793e-01,6.14483e-01,-3.40585e-01,1.97470e-01,-2.47814e-01,-8.65065e-02,-4.03462e-01,-2.76877e-01,1.15165e-01,5.06194e-02,-4.23823e-01,-4.13597e-01,9.33326e-03,1.86299e-01,-6.71520e-01,1.31169e-01,-2.41745e-01,-2.39456e-01,7.76261e-02,-1.08904e-01,-3.28439e-01,-1.03517e-01,2.26125e-01,-2.14942e-03,-6.72684e-02,1.31115e-01,-3.78231e-01,
3.72548e-01,1.84651e-01,-7.08493e-02,-2.57553e-01,-4.32134e-01,1.97882e-01,-2.97471e-01,-2.46067e-01,-3.02282e-01,-3.66105e-01,-2.02814e-01,1.60532e-01,-1.49348e-01,-2.22088e-01,6.36102e-01,-6.35928e-02,-2.13521e-01,4.63301e-02,1.61568e-01,8.06001e-02,-2.04266e-01,-4.23337e-01,1.36778e-01,-2.78136e-02,-4.47608e-01,1.57195e-01,5.37103e-01,-3.01608e-02,-1.14346e-01,-2.42132e-01,
-3.45796e-01,4.33566e-01,1.73088e-01,2.10717e-01,-4.31960e-01,2.67550e-01,1.29356e-01,-1.43371e-01,-6.77784e-02,-7.52117e-02,2.17634e-01,3.00668e-01,4.40366e-01,3.76779e-01,5.70803e-02,-6.47393e-03,2.91626e-01,3.01505e-01,1.99357e-02,3.82475e-01,1.83811e-01,-1.30532e-01,3.91317e-02,1.21950e-01,-4.03336e-01,1.10212e-01,4.18308e-02,9.95591e-02,-3.39510e-01,2.07606e-02,
-2.05482e-01,1.83723e-01,1.28570e-01,1.92940e-01,4.11202e-01,1.56521e-02,-3.27453e-01,6.86269e-02,6.62397e-02,-8.78822e-02,-3.47827e-01,-1.06374e-01,1.92231e-02,1.94961e-01,1.82283e-01,2.21957e-01,-6.36710e-02,4.82052e-02,3.75111e-01,-1.52318e-02,1.44408e-01,-4.50892e-01,3.04458e-02,-1.23002e-01,-6.66015e-02,4.67764e-02,1.73924e-01,4.81407e-02,6.96524e-04,5.40238e-02,
-1.60377e-01,2.35864e-01,4.68064e-02,-4.92117e-02,2.18788e-01,-6.21664e-02,-2.14706e-01,-7.05796e-02,2.21556e-02,-2.29469e-01,-2.28166e-01,-2.41142e-01,1.56768e-01,5.67291e-02,1.10364e-01,-2.28087e-01,3.51186e-03,7.11309e-01,-6.17656e-02,-2.24163e-01,1.67067e-02,6.38168e-02,8.30280e-02,-6.64067e-02,1.79974e-01,-2.00517e-01,3.11071e-01,-6.20318e-02,-3.58033e-01,-8.75284e-03,
1.74335e-01,2.75067e-01,-6.18285e-02,2.95542e-01,-3.75789e-01,1.33564e-01,-3.61405e-01,-4.14574e-02,-7.74260e-01,-2.92201e-01,-1.62761e-02,-3.70362e-01,1.79944e-01,-3.80186e-01,3.26479e-01,-3.75408e-01,-2.28958e-01,1.37387e-01,2.66023e-01,2.41034e-01,-2.79501e-01,1.22580e-01,2.43415e-01,6.64207e-02,-6.68975e-01,4.23461e-01,2.48586e-01,-1.80076e-01,-2.16415e-01,-5.70530e-02,
-1.22617e-01,1.15098e-01,-2.36355e-02,-3.80144e-02,-2.81246e-01,3.80363e-02,2.35154e-01,-2.93680e-01,7.33523e-02,-3.93842e-02,1.57721e-01,-2.13032e-01,3.99803e-01,2.34465e-01,-1.25232e-01,-3.25695e-01,-2.42674e-01,4.08058e-01,-4.53961e-01,-3.33166e-01,-5.29731e-02,2.05311e-01,-2.62595e-01,9.59820e-03,4.85425e-01,-3.34336e-02,-2.75038e-01,-4.35595e-03,5.18109e-02,-5.98826e-03,
8.86238e-02,4.79527e-02,-1.57041e-01,5.98696e-01,-1.20189e+00,6.56349e-03,2.37144e-01,1.08094e-01,-3.50861e-02,2.79906e-01,1.04713e-03,-3.37430e-01,-3.65233e-01,-4.10302e-02,-8.40295e-02,-3.44585e-01,3.67937e-01,2.40737e-01,-5.56962e-02,-1.31664e-01,1.02185e-01,2.09650e-01,-1.81042e-02,5.70218e-02,2.26015e-01,-2.80221e-01,1.34899e-01,3.13083e-01,-3.98031e-02,2.66221e-01,
-2.83765e-02,
-1.17929e-01,
3.04365e-02,
4.26870e-02,
-2.90008e-02,
1.57473e-02,
1.80601e-02,
9.21479e-02,
-2.53278e-01,
2.27442e-02,
-4.34804e-02,
1.53523e-03,
-2.62479e-01,
1.16602e-01,
-7.29315e-02,
-1.68511e-01,
1.97743e-02,
-2.96396e-02,
5.70599e-02,
6.85457e-02,
2.47060e-02,
1.52478e-02,
7.93410e-02,
1.02209e-01,
-1.26013e-01,
1.19364e-01,
1.45857e-01,
3.21277e-02,
1.31126e-01,
9.23774e-02,
2.37849e-01,2.26645e-01,-1.02045e-01,-1.77278e-01,2.64043e-01,-2.61192e-01,7.89628e-03,-1.56716e-01,-7.73836e-02,-1.99002e-01,-7.01474e-03,-8.23763e-02,-2.59897e-01,-1.87906e-01,2.25273e-01,2.14427e-02,-1.25025e-01,-2.97724e-02,6.00686e-02,-2.10152e-02,8.68551e-02,-2.52850e-01,-1.32876e-01,2.25639e-01,-3.41224e-02,1.84382e-01,2.30185e-02,-3.13667e-01,-2.31916e-01,-4.15663e-02,
2.89787e-01,-3.83376e-02,-1.81460e-01,-2.70685e-01,-3.52660e-02,-1.38798e-01,-4.88190e-02,-3.07732e-01,-1.87749e-02,-2.29734e-01,4.35854e-02,1.62410e-01,-6.71423e-02,-1.29340e-01,2.30836e-01,-2.04832e-03,-2.26038e-01,-2.76620e-01,1.88064e-01,-5.24928e-02,7.25019e-02,4.44245e-02,-9.76992e-02,-3.77628e-01,-3.12365e-01,-3.41327e-01,-3.32008e-02,1.37364e-02,9.45422e-05,-2.42423e-01,
1.66129e-01,2.67511e-03,-2.53240e-01,3.40818e-02,-1.72178e-01,7.43342e-02,-2.85055e-01,-6.82937e-02,1.25531e-01,-2.36516e-01,3.01727e-01,-1.74211e-01,-7.49225e-02,2.69451e-02,2.23273e-01,-4.35342e-02,-5.69433e-02,1.07967e-01,-7.44577e-02,-1.82521e-01,-1.26124e-01,1.78880e-01,-7.33190e-02,2.35031e-01,-6.84573e-02,-4.97536e-02,2.68501e-02,1.15906e-01,-2.75763e-01,5.72944e-02,
-3.12070e-01,2.64714e-01,-1.40910e-02,2.44200e-01,-1.84724e-01,-9.14009e-02,7.95517e-02,-3.15341e-01,2.93394e-01,-2.72586e-01,2.11078e-01,-2.53350e-01,-8.03691e-02,5.07196e-02,-6.79703e-02,-6.29610e-02,2.20514e-01,2.59895e-01,-9.31210e-02,-1.57063e-01,-9.32060e-02,-1.80060e-01,1.39815e-01,2.09418e-01,-2.63310e-01,-1.07164e-01,-1.42294e-01,-3.49188e-02,1.04259e-01,-3.41418e-01,
2.89205e-01,-5.92469e-02,-1.18028e-01,-2.57602e-01,-2.84495e-01,-2.84825e-01,-1.76159e-01,1.50741e-01,6.72481e-02,2.24079e-02,-9.96334e-02,1.90480e-01,-5.89225e-02,1.17700e-01,-2.38729e-01,1.21579e-01,2.83666e-01,-6.39879e-02,-3.05503e-01,-1.24915e-01,9.67747e-02,1.71006e-01,-2.26329e-01,-1.63819e-01,-3.04931e-01,1.79133e-01,2.95925e-02,-2.77904e-02,-1.07401e-01,-1.92638e-01,
-1.69350e-01,-1.04554e-01,2.01356e-01,2.11645e-01,2.14183e-01,-2.96034e-01,2.01106e-01,-1.87725e-01,1.09388e-01,-8.22862e-02,2.04402e-01,1.60673e-01,-2.88085e-01,-8.77617e-02,-1.20135e-01,-1.88721e-01,-2.79184e-01,-1.43992e-01,2.12122e-01,-1.09193e-01,-3.02914e-01,2.27770e-01,6.56542e-02,1.04249e-01,-2.45594e-01,2.76930e-01,-1.40316e-01,-1.99341e-01,2.54650e-01,2.72148e-01,
1.96336e-01,9.95857e-02,6.75231e-04,-3.46130e-02,-1.99113e-01,-2.85883e-01,-1.80966e-01,-6.26588e-03,1.77933e-01,-7.19196e-03,9.86105e-02,1.30812e-01,1.75998e-01,-8.96767e-02,-2.95781e-02,2.63840e-01,-2.61049e-02,-2.80307e-01,-1.46402e-01,-9.42851e-02,-2.04605e-01,-3.79788e-02,-3.14089e-01,-1.47662e-01,4.98450e-03,-2.28886e-01,-1.33105e-01,1.32621e-01,-1.11463e-01,2.60136e-01,
1.77942e-01,-1.74869e-01,-1.16264e+00,-1.59289e-01,-4.95109e-02,-9.12873e-01,-2.70631e-01,-7.56015e-02,-1.34529e-01,-2.91004e-01,3.50482e-01,-1.45965e-01,-6.37051e-02,-6.19494e-01,-3.28635e-01,-2.54213e-01,9.55610e-02,7.49590e-02,2.19002e-01,1.26558e-01,-2.03175e-01,1.02758e-01,-8.35133e-02,-1.03673e+00,-1.61559e-01,-4.68132e-01,-4.64492e-02,2.58813e-01,-1.92288e-01,-7.93281e-01,
-1.46315e-01,-1.91545e-01,-3.02635e-01,-2.49045e-01,2.86699e-01,-7.24764e-02,1.80476e-01,7.27735e-02,-6.47810e-02,-3.12123e-03,-2.17619e-01,-1.37585e-02,1.67042e-02,-3.18713e-01,3.37650e-01,-1.44927e-01,-2.89066e-01,-2.49257e-01,1.56879e-01,-1.11730e-01,-1.09539e-01,-1.02321e-02,-1.29497e-01,-3.57105e-02,-1.27668e-01,-1.56203e-01,3.98911e-02,-2.13451e-01,-1.36054e-01,2.35163e-01,
-5.88392e-03,-8.63195e-02,-2.09186e-01,-2.41631e-01,1.99683e-01,1.39378e-01,-3.90372e-01,2.20780e-01,-2.13840e-02,1.58859e-01,-4.01536e-01,-6.66299e-02,-1.30986e-01,3.72420e-02,8.56480e-02,-1.62986e-01,-1.94801e-01,-2.74801e-01,1.83381e-01,-3.66936e-01,-1.62530e-01,-4.89750e-01,1.17460e-01,-1.13495e-01,-2.23298e-01,7.57117e-02,-9.13908e-02,-3.65708e-01,-3.41491e-01,-3.09818e-01,
-2.18725e-01,1.98431e-01,-2.46310e-01,-1.18280e-01,-3.09612e-01,-1.26732e-01,-1.90347e-01,-1.81533e-01,-1.09334e-01,2.66294e-01,-2.62594e-01,-1.92250e-01,-1.64135e-02,1.32183e-01,-1.18419e-01,2.21840e-01,4.31240e-02,1.67637e-01,2.78157e-01,-6.77194e-02,-2.50751e-01,-5.98420e-02,2.29162e-01,-2.84662e-01,6.60680e-02,-1.79969e-01,2.04846e-02,-2.17719e-02,-2.75910e-01,-2.88938e-01,
-2.62954e-01,-1.68441e-01,7.88240e-02,-3.25132e-01,-2.12354e-01,-3.02031e-01,1.07446e-01,-2.58931e-01,2.27134e-01,-3.36958e-02,2.27755e-01,1.27500e-01,2.00574e-01,-2.56634e-01,1.56432e-01,-2.24792e-01,2.22181e-01,2.50069e-01,-1.34327e-01,-2.08536e-01,9.03779e-02,-2.17808e-01,-2.95199e-01,1.67105e-02,-3.63295e-03,1.01961e-01,-2.30332e-02,-2.11452e-01,2.20592e-01,6.12705e-04,
-1.46140e-01,-7.23451e-02,4.95061e-02,-9.95431e-02,-1.12613e-01,-1.02294e-02,5.20422e-02,-1.66390e-02,-6.32073e-02,2.14618e-03,-2.46756e-01,5.89436e-02,-7.27810e-02,-1.24572e-01,2.48963e-01,-5.67576e-02,-3.21869e-01,9.25865e-03,-1.49762e-01,-9.62429e-02,4.11832e-02,2.30799e-01,3.60869e-02,-2.39611e-01,1.79183e-01,-5.35006e-02,1.46288e-03,2.65987e-02,2.90720e-01,1.17521e-01,
-6.55617e-02,-6.81030e-02,-1.00415e-01,1.68490e-01,-1.50975e-01,-8.97716e-02,1.47297e-01,1.69597e-01,-1.32048e-01,-6.12961e-02,2.09320e-01,1.53078e-01,-1.11409e-02,-1.87288e-01,-1.05100e-02,2.88031e-03,-2.77155e-01,-1.36116e-01,-1.89648e-02,-3.03861e-01,2.79994e-02,-1.40964e-01,-2.04869e-01,-3.96085e-03,-1.35615e-01,-2.12979e-02,1.47350e-01,-1.38109e-01,2.93856e-01,-5.32437e-02,
-2.61938e-01,-5.19648e-01,-2.41573e-01,-2.97281e-01,-1.14344e-03,-7.24967e-02,1.78065e-01,3.98045e-01,1.24350e-02,2.25704e-01,-2.03240e-01,4.46314e-01,1.46065e-01,-1.32591e-01,2.05136e-01,-3.14653e-01,-5.83483e-01,3.74544e-01,2.47360e-01,1.24455e-01,-5.54402e-02,-2.14126e-01,4.89722e-02,-2.41631e-01,-1.48016e-01,-3.25930e-01,-2.19260e-01,1.35673e-01,1.95110e-01,-5.29116e-02,
-2.84614e-01,-1.11480e-02,-9.22678e-02,-3.14298e-02,1.47006e-02,9.49342e-02,-4.84685e-02,-2.98070e-01,-2.57810e-01,-2.90461e-02,-1.06507e-01,2.00099e-01,2.13361e-01,1.99711e-01,-1.54902e-01,3.00005e-01,-9.76741e-04,-1.02680e-01,-2.38403e-01,-2.99748e-02,-1.03854e-01,-2.93799e-01,-1.22154e-01,3.04367e-01,-1.78240e-01,-2.78781e-01,-2.50903e-01,2.38265e-01,-1.49654e-01,-1.39190e-01,
1.99486e-02,-1.33071e-02,1.77036e-01,3.83642e-03,-2.56417e-01,-5.46291e-02,-3.83211e-01,-1.11392e-01,2.08694e-01,9.85264e-02,1.25165e-01,-9.81468e-02,5.34247e-02,2.13138e-01,4.45734e-02,-2.35018e-01,1.47960e-01,-8.61864e-02,-1.13348e-01,-3.07478e-02,-1.78074e-01,-7.42241e-04,2.33411e-01,1.55890e-02,-3.86259e-02,-1.41576e-01,4.21415e-02,5.12242e-02,8.93819e-02,6.08763e-02,
-1.47671e-01,-1.60370e-01,-1.59433e-01,2.92787e-01,-2.24384e-01,1.57521e-01,-2.98148e-01,1.55795e-01,1.74260e-01,-1.36818e-01,-2.88449e-01,3.89458e-02,-1.86347e-01,2.14374e-01,1.17643e-01,-1.81009e-01,1.08505e-01,-6.81612e-02,-1.03870e-02,-1.04482e-01,-2.82019e-01,-1.77036e-01,-3.14823e-01,2.42841e-01,-2.15200e-01,1.64520e-01,-2.62789e-01,2.36505e-01,2.03550e-01,-2.76775e-01,
-1.30456e-01,1.27418e-01,-2.80894e-02,8.16820e-02,-1.10488e-01,1.57641e-01,3.11889e-01,-2.43094e-01,-1.94921e-02,-8.75546e-02,1.01138e-01,-9.98774e-02,-7.26856e-02,-1.39315e-01,2.27639e-01,-2.56753e-01,-1.57032e-01,1.52870e-01,-1.49638e-01,-5.78459e-02,-1.02510e-01,3.11455e-01,7.88774e-02,-2.14662e-01,-1.02281e-01,-4.08224e-02,-2.17740e-01,-2.22284e-01,-2.22653e-01,-2.00149e-01,
5.59624e-02,-3.25426e-01,-3.20398e-01,-3.91272e-01,2.76614e-01,2.55342e-01,-3.06957e-01,1.50003e-01,2.40643e-01,3.68079e-01,-1.20206e+00,-7.93766e-03,-6.14268e-02,-4.38404e-01,7.48713e-02,2.16669e-01,-6.04306e-02,-1.36971e-01,1.07381e-03,-2.68124e-01,-2.39852e-01,1.95678e-01,2.28712e-01,2.39808e-02,-1.96424e-01,4.39057e-02,3.64842e-02,-6.40599e-01,-3.27514e-01,-3.90929e-01,
-6.54743e-02,-9.63488e-02,9.38880e-02,-9.27899e-02,-2.79412e-02,2.38544e-01,1.21515e-02,6.97249e-02,-3.00415e-01,-1.68461e-02,3.43692e-01,-1.53443e-01,-1.30658e-01,-1.11943e-01,-1.06540e-01,2.09357e-01,1.03448e-01,-1.41253e-01,6.49702e-02,-1.32643e-01,6.48330e-02,-2.94657e-01,2.49930e-01,-1.40511e-01,1.37310e-01,-1.34413e-01,2.46744e-01,2.35597e-01,-6.95089e-02,-4.62666e-01,
4.66544e-02,-1.45845e-01,-5.12820e-02,1.33436e-01,5.80747e-02,1.16828e-01,1.92158e-01,1.00002e-01,4.57859e-02,1.88664e-02,9.11979e-02,1.53420e-02,-1.31562e-01,2.25571e-02,7.95076e-02,2.51644e-01,-1.37469e-01,1.40726e-01,2.37954e-01,2.03286e-01,4.42130e-02,-1.48933e-01,1.72239e-01,1.22720e-01,-7.83902e-02,-1.32146e-01,-2.18687e-01,-1.51529e-01,-1.54427e-02,8.08835e-02,
-1.34847e-01,1.78514e-01,1.32178e-01,1.41717e-01,4.24813e-02,2.90002e-02,1.64700e-02,1.19573e-01,-3.00155e-02,-1.67124e-01,-5.56656e-01,-1.95117e-01,2.55454e-01,-1.40618e-01,-4.83367e-01,-4.23926e-02,-3.07462e-01,-2.26145e-01,3.04329e-01,-3.10458e-01,-1.00893e-01,-2.26518e-01,1.29063e-01,9.83647e-03,-1.11273e-01,1.12510e-01,8.68429e-02,-2.92794e-01,-5.06337e-01,-1.88734e-01,
-1.08251e-01,-3.12007e-01,-2.02717e-01,1.15898e-01,2.02405e-01,2.81449e-01,1.12915e-01,2.48478e-01,2.61388e-01,-2.16408e-01,2.06182e-01,-1.04479e-01,2.97843e-01,-2.81766e-01,-2.99897e-01,-4.79348e-02,1.93683e-01,-4.97139e-02,-2.52358e-01,7.40842e-02,-2.25847e-01,3.88056e-04,-1.48304e-01,-1.93240e-01,-3.25572e-02,-3.11792e-01,-3.07289e-02,-8.45872e-02,-9.13425e-02,-4.23032e-02,
3.12181e-01,-3.93351e-02,1.40762e-01,2.15964e-01,-1.29642e-02,3.22960e-01,5.05258e-01,5.80767e-02,-1.01904e-01,-5.94968e-02,-1.14358e-01,-1.24428e-01,2.12628e-01,2.89872e-02,-2.27739e-01,7.08759e-02,4.16393e-02,3.83101e-01,1.14907e-01,9.75150e-02,-7.01743e-02,-2.28167e-01,5.02431e-01,2.61902e-01,-6.17525e-02,-3.09468e-02,1.91363e-01,-2.01776e-01,-2.40675e-01,5.12768e-02,
-1.35711e-01,-2.68641e-01,-3.03370e-02,-2.75779e-01,2.13329e-01,1.54335e-01,-5.18408e-02,-3.42484e-01,2.77911e-01,-6.68686e-02,2.42550e-01,-3.25300e-01,-4.66885e-02,-3.29779e-01,7.45226e-02,1.11138e-01,-2.89884e-01,4.64647e-02,-1.26433e-01,2.47982e-01,-1.14954e-01,2.17940e-01,2.60182e-01,8.67346e-04,3.22792e-02,9.40307e-02,5.68245e-02,8.61572e-02,-9.29619e-02,3.16382e-02,
2.95084e-01,-2.36530e-01,2.61340e-01,1.26811e-01,-2.48896e-01,-1.42026e-01,-2.51874e-01,-8.57800e-02,-1.38014e-01,9.67917e-02,-2.06590e-01,-3.03113e-01,1.15432e-01,9.68354e-03,2.76520e-01,2.20135e-01,-1.50843e-01,-1.21468e-01,-1.16853e-03,8.56751e-02,1.92062e-01,-1.03899e-01,1.07237e-01,-2.37524e-01,-1.90111e-01,-2.79965e-01,2.95245e-02,-2.90417e-01,1.93470e-01,-3.14189e-01,
-4.36452e-02,1.18163e-01,-1.08925e-01,-9.94312e-02,1.68036e-01,-2.02056e-02,1.69581e-01,1.34384e-02,-1.85990e-01,-9.42222e-02,-1.64485e-01,7.10135e-02,-2.69451e-01,-1.85505e-01,-1.04684e-01,1.51941e-01,-1.82921e-02,-8.61750e-03,-8.19011e-02,-1.24056e-01,-9.87903e-02,9.20272e-02,-2.81680e-01,-1.11690e-01,8.72227e-02,2.18933e-01,1.36049e-01,6.75161e-02,-7.30185e-02,-1.26262e-01,
3.13495e-01,-5.82462e-01,-1.72765e-01,-1.52832e-01,-3.30266e-01,-5.06420e-01,1.87120e-01,-4.43511e-03,1.07009e-02,-5.77843e-01,4.98856e-01,4.35982e-02,1.23158e-01,3.79497e-01,-3.45338e-01,2.29282e-01,-1.61347e-01,-1.82034e-01,8.57769e-02,-1.85449e-01,1.13519e-01,-2.65426e-01,-2.78308e-01,-3.44722e-01,2.19456e-01,-2.95489e-01,-4.65320e-01,5.36466e-01,2.57336e-01,1.45886e-01,
2.56448e-01,-1.23546e-01,-1.02647e-01,-4.21300e-02,-3.43471e-02,2.61914e-01,-1.04993e-01,1.91041e-01,-1.66534e-01,1.54433e-01,-6.38888e-04,1.39503e-01,-6.11581e-02,-2.09364e-02,1.02678e-02,2.63522e-01,-1.52952e-01,1.96778e-01,1.00634e-01,2.59148e-01,-2.29353e-01,-5.88574e-02,8.31052e-02,-2.30890e-01,-6.63128e-02,-1.94729e-01,-5.62731e-02,-1.04253e-01,-1.24696e-01,-3.47061e-01,
-1.42872e-01,
4.14755e-02,
-1.90853e-01,
-1.71942e-01,
-2.48611e-01,
-2.69283e-01,
-1.98455e-01,
8.23358e-02,
7.81071e-02,
1.53788e-01,
-4.07330e-02,
-1.75073e-01,
-1.93271e-01,
-1.26147e-01,
-1.43329e-02,
-2.14831e-01,
1.54491e-01,
-2.44949e-01,
-2.57905e-01,
9.37425e-02,
-5.73797e-02,
2.03647e-01,
9.30857e-02,
-1.13885e-01,
-6.43259e-02,
-9.38751e-02,
-4.07344e-03,
2.20198e-01,
6.44504e-02,
6.31198e-02,
2.71153e-01,8.99653e-02,-2.02365e-01,2.38560e-01,-2.04656e-01,2.54164e-01,-1.89570e-01,-1.17935e-01,4.04035e-02,2.26124e-01,2.46651e-01,1.88203e-01,-3.01531e-01,-1.29466e-01,7.99359e-02,-1.22369e-01,-2.15835e-01,-9.01944e-02,1.03801e-02,3.08491e-01,-1.06080e-01,-2.85354e-01,8.12324e-02,3.93378e-02,-1.89145e-01,3.08661e-01,-2.02264e-01,2.83491e-01,1.07471e-01,5.44616e-03,
-1.41633e-01,-1.53829e-01,2.19276e-01,-1.92618e-01,-1.27905e-01,-3.35870e-01,2.20474e-01,1.93720e-01,-3.29189e-01,1.38297e-01,-1.86591e-01,-2.18314e-01,-1.63207e-01,-1.29274e-01,2.25473e-02,2.01782e-01,1.97652e-02,7.18164e-02,3.04415e-01,2.90707e-01,-3.21366e-01,-7.28590e-02,1.79213e-01,-1.24978e-01,1.39109e-01,1.32304e-01,2.04377e-01,-2.29791e-01,-2.05582e-01,-1.19947e-01,
2.91748e-01,-3.89493e-02,-2.27445e-01,2.54352e-01,2.85566e-01,-2.83902e-01,4.87658e-03,1.52883e-02,-7.04583e-02,-3.66247e-01,-3.02399e-01,4.78597e-02,4.86910e-02,-1.50166e-01,-3.01330e-01,-1.07083e-01,-3.45158e-01,-1.70288e-01,1.85298e-01,2.78568e-01,-2.32158e-01,-4.24617e-01,-9.53595e-02,1.20106e-01,-3.08163e-01,-1.26741e-01,2.18562e-01,5.64679e-02,-1.42209e-01,2.05225e-01,
-3.06996e-01,-3.15867e-01,2.43653e-01,2.10325e-01,2.08760e-01,1.03574e-01,7.96725e-02,1.23170e-01,-7.74545e-02,2.80159e-03,-8.52969e-02,2.75676e-01,-2.28105e-02,-2.00707e-01,1.07757e-02,1.48167e-01,-1.09594e-01,-3.29014e-02,1.00646e-01,-1.26853e-01,-3.20529e-02,-2.95325e-02,1.72499e-01,1.42960e-01,-1.74828e-01,-1.02335e-01,-9.05429e-03,-2.16447e-01,-7.56757e-02,2.01520e-01,
4.28286e-02,-2.03745e-01,2.15129e-01,2.70419e-02,-1.04204e-02,-5.83355e-03,3.68264e-02,-9.86173e-04,1.04663e-01,4.04818e-02,9.53606e-02,-8.24060e-02,1.19824e-01,-1.53677e-01,1.34891e-02,2.49803e-01,4.27184e-01,2.91301e-01,-2.10820e-01,7.50468e-02,2.27962e-02,1.03373e-02,-1.15588e-01,2.38065e-01,1.78948e-01,-7.80817e-02,2.65875e-01,4.61876e-01,9.26485e-02,3.12340e-02,
3.32351e-02,-1.52581e-01,2.02511e-01,-1.91323e-01,2.81776e-01,-2.29913e-02,-1.03895e-02,-1.96562e-01,1.44475e-01,2.17225e-01,-1.22594e-01,9.83855e-02,-2.63051e-01,2.86281e-01,-2.64129e-01,-1.02782e-01,-1.74197e-01,3.14331e-02,-1.71506e-01,2.68659e-01,2.46503e-01,-3.78367e-03,-3.13954e-01,1.95686e-01,1.74130e-01,2.26007e-01,-2.62976e-03,-1.12424e-01,3.24607e-02,-1.20462e-01,
1.78279e-01,-2.35145e-01,-1.51001e-01,1.08194e-01,-8.57537e-02,-1.61979e-01,-4.14286e-02,5.07876e-02,1.11946e-01,-1.00916e-01,7.20289e-02,-1.59165e-01,-4.87695e-02,1.71822e-01,-5.17316e-02,-8.88058e-02,4.34964e-02,-5.40957e-02,-1.55276e-03,5.07206e-02,2.28050e-02,-5.92610e-02,-4.55577e-02,1.20688e-01,-1.48387e-02,2.54529e-01,8.98789e-02,1.80449e-01,2.32144e-02,1.54280e-01,
6.53929e-02,3.12664e-02,-1.36836e-01,8.50136e-02,-1.85879e-01,-1.32251e-03,2.38002e-01,2.02285e-01,-2.46536e-01,-2.69106e-02,1.38364e-02,1.11339e-01,-6.82035e-02,-2.37529e-01,2.93467e-01,2.03886e-01,-2.13699e-01,2.65616e-01,2.49258e-01,-8.09309e-02,1.63657e-01,-2.21215e-02,3.14126e-01,1.28304e-01,-8.66156e-02,-1.49205e-01,2.49308e-01,-2.59054e-01,-8.19865e-02,-4.43107e-02,
-2.61552e-01,2.89959e-01,2.29172e-01,-1.31378e-01,1.42990e-01,2.88878e-01,2.93674e-01,-1.44492e-01,3.64850e-02,1.10102e-03,-2.55922e-01,-2.05490e-01,-1.22420e-01,3.02851e-01,-1.83387e-02,-6.03994e-02,-2.45985e-01,-6.72707e-02,-2.48615e-01,1.21459e-01,4.67797e-02,-2.48026e-01,-1.82297e-01,1.35011e-01,1.13503e-01,-4.87122e-03,2.85003e-01,-1.04330e-02,1.79224e-02,3.01372e-02,
-2.35947e-01,-4.68521e-02,-3.04652e-01,-2.99818e-01,-1.35440e-01,1.70666e-01,-2.31312e-01,4.58941e-02,1.04589e-01,2.34713e-01,9.77399e-02,-2.85178e-01,1.49752e-01,-1.26505e-03,2.19684e-01,3.15756e-04,-9.23819e-02,-2.94384e-01,1.01294e-01,3.12125e-02,9.18521e-03,6.31210e-02,7.82204e-02,-4.02447e-02,1.51814e-01,1.37397e-01,9.97914e-02,-3.14369e-01,-2.05834e-01,1.67872e-01,
-2.58243e-01,9.71584e-02,-2.44525e-01,3.64738e-03,2.33748e-02,1.42017e-01,-3.02109e-01,-4.41010e-01,-1.98347e-01,1.16725e-01,2.92013e-01,2.82830e-01,9.57418e-02,1.97791e-01,3.03200e-02,1.87528e-02,-8.80480e-02,1.83471e-01,-9.61377e-02,9.87965e-02,9.47930e-04,1.35103e-01,-1.31117e-02,-1.53215e-01,-2.84630e-02,1.97517e-01,-1.64286e-01,-3.48674e-01,2.08332e-01,-3.50648e-01,
-2.45984e-01,-5.55052e-02,-2.12810e-01,-1.76255e-01,-2.67914e-01,-9.39474e-02,-2.32418e-01,2.07961e-01,-2.03651e-01,9.98301e-02,2.23668e-01,2.51816e-01,-1.30440e-01,2.99964e-01,6.22289e-03,-2.33147e-01,2.23888e-01,1.88796e-01,6.66003e-02,3.12478e-01,-9.84194e-02,-1.65344e-01,3.65411e-02,2.03693e-01,2.40618e-01,-3.13309e-01,1.81933e-01,5.49947e-02,-9.56931e-02,1.60003e-01,
-1.11031e-01,1.68567e-01,-1.20569e-01,1.50979e-01,1.95551e-01,2.72588e-01,2.63809e-01,3.55195e-01,1.66780e-01,4.78202e-03,-2.23944e-01,1.49587e-02,1.25272e-01,2.94590e-01,8.81795e-02,-1.09377e-01,-2.86411e-01,2.61824e-01,2.28084e-01,-4.44218e-02,1.97237e-01,5.52537e-03,-8.67250e-02,-1.94776e-01,-4.88149e-01,3.59875e-02,2.85764e-01,-9.86414e-02,-2.63633e-02,-1.17317e-01,
5.98758e-02,-1.02155e-01,-1.38758e-01,2.16033e-01,2.76565e-02,9.12237e-02,-4.73498e-02,-6.30618e-02,2.23871e-01,-2.42071e-01,1.03265e-01,-3.03815e-01,-2.81434e-01,-7.54427e-02,1.92381e-01,2.09672e-01,-1.51008e-01,-8.28128e-02,-2.90714e-01,-4.35992e-02,4.37398e-02,-6.58787e-02,-2.12143e-01,9.53845e-02,-1.29694e-01,2.77638e-01,-3.29357e-02,-1.11676e-01,1.97119e-01,1.62570e-01,
1.21913e-01,3.35637e-03,2.13403e-01,-1.16915e-01,-1.89930e-01,-8.47513e-02,-3.06424e-01,4.19442e-02,2.11327e-02,6.11228e-02,2.85682e-01,-1.09098e-02,2.76093e-01,2.38050e-01,1.80980e-01,2.08077e-01,-1.18025e-01,-1.49355e-01,-1.15500e-01,-1.03338e-02,-1.41290e-01,6.82523e-02,3.38354e-02,-2.27623e-01,-1.17927e-01,5.11054e-03,2.48795e-02,2.28771e-02,2.72038e-01,-5.41848e-02,
-2.21198e-01,3.05780e-01,2.89989e-01,-1.11506e-01,2.25798e-01,-2.90091e-01,-2.92847e-03,2.56734e-01,2.19076e-01,-1.66421e-01,1.13311e-02,9.49866e-02,1.99796e-01,2.04305e-01,3.35973e-02,1.18097e-02,1.04573e-01,-1.26079e-01,8.12699e-02,2.52111e-01,-3.19345e-02,4.55540e-02,8.88297e-02,-1.67046e-01,1.21631e-01,2.57894e-01,-9.86844e-02,-3.06872e-01,-2.31202e-01,-3.19784e-01,
2.48726e-01,6.86290e-02,1.95613e-01,1.25394e-01,1.16617e-01,-1.36527e-01,2.92597e-02,-3.14535e-01,2.02659e-01,-7.92681e-02,-2.22495e-01,-1.93008e-02,8.27779e-02,2.57452e-01,1.11003e-01,-2.34665e-02,-1.79617e-01,-2.70479e-01,-9.50304e-03,-2.54859e-01,2.41920e-02,-2.15902e-01,2.65818e-01,-7.28378e-02,-1.45078e-01,-2.33619e-01,-1.50134e-01,-3.90378e-02,2.99957e-01,2.66593e-01,
2.06242e-01,-1.51902e-01,-7.86709e-02,-2.57464e-01,-7.03251e-03,-1.18271e-01,-8.97044e-02,-3.87011e-01,-4.48858e-02,8.20528e-03,2.37559e-01,1.74877e-01,1.51449e-01,-3.52420e-02,-1.42251e-01,-7.11379e-02,2.52966e-01,1.25294e-01,-1.14566e-01,1.06672e-01,-9.51412e-03,2.71896e-01,2.26826e-01,-1.81297e-01,-7.64845e-02,4.53515e-02,1.77666e-01,-3.55343e-02,1.72097e-01,-8.98815e-02,
2.99030e-01,8.02958e-02,-2.07708e-01,-1.46946e-01,-3.02803e-01,2.50254e-01,1.30785e-02,-4.81796e-02,1.40377e-01,1.01413e-01,-1.92033e-01,-2.51713e-01,-2.76730e-01,1.85029e-02,-1.76325e-03,1.59066e-01,-5.85952e-02,-1.44341e-01,-6.06800e-02,6.36133e-02,3.45177e-02,1.54169e-01,-6.57347e-02,-9.77868e-02,-2.40079e-01,-2.10727e-01,-2.56509e-01,2.29102e-01,-9.89452e-02,-2.25799e-01,
1.87795e-01,-1.91464e-01,4.54849e-02,-1.35004e-01,4.54331e-02,1.71217e-01,2.44539e-02,8.08602e-02,1.63312e-02,6.06234e-02,-1.35790e-01,2.18493e-01,2.24924e-01,-1.57866e-01,5.57977e-02,1.70884e-01,1.01243e-01,2.57017e-01,1.81231e-01,-2.29407e-01,-6.63662e-02,1.38375e-01,-1.10717e-01,4.15833e-02,-8.80528e-03,2.45442e-01,4.27699e-02,1.74909e-01,-1.97682e-01,3.33143e-02,
-3.04795e-01,2.13854e-01,2.90601e-01,-2.33131e-01,-5.01848e-02,1.63048e-01,-1.58444e-01,-1.06284e+00,-1.35607e-01,-1.18375e+00,3.88666e-02,2.15124e-01,1.30373e-01,1.12000e-01,-7.30492e-01,-1.07452e-01,3.99955e-01,2.41687e-01,1.06557e-01,8.15441e-02,-5.58108e-01,2.78006e-01,5.97858e-01,2.98987e-01,-4.03242e-01,9.46838e-02,4.08984e-02,8.02033e-02,1.38411e+00,-6.72710e-01,
1.44336e-01,2.50466e-02,4.58987e-02,-3.18769e-01,-2.87825e-01,2.27414e-01,-5.09660e-02,-6.56770e-02,-3.37126e-01,-2.47497e-03,5.31185e-03,-4.68049e-02,-3.03842e-01,2.69802e-01,2.56673e-02,-2.76237e-01,-9.66586e-02,-2.97672e-01,-2.87349e-01,2.24289e-01,-2.81434e-01,1.22055e-01,2.29944e-02,-2.21438e-01,1.71810e-01,7.89582e-02,-1.38218e-03,-2.50997e-01,-1.05324e-01,1.63269e-01,
-1.64933e-01,-1.30320e-01,-8.10449e-02,1.02691e-01,-8.74683e-03,-1.27287e-01,-6.40945e-02,-1.16173e-01,3.62608e-02,-6.31634e-02,1.22501e-01,-5.08135e-03,5.59302e-02,3.82211e-02,-1.01909e-01,-2.30393e-01,3.19448e-01,2.70187e-01,-2.03367e-01,5.10852e-03,-8.01510e-03,1.90399e-01,8.51881e-02,-2.15925e-01,8.53936e-02,-2.30832e-01,-9.32906e-02,3.07485e-01,1.30899e-01,5.05149e-02,
-2.11468e-01,3.04560e-01,1.34854e-01,-3.03167e-01,-2.54713e-01,6.66000e-02,1.55442e-02,-1.42822e-01,1.70072e-01,8.63731e-02,-2.33941e-01,2.12690e-01,3.03633e-01,-6.73289e-02,-4.55750e-02,-2.18523e-01,-1.65930e-01,4.94680e-02,-1.82173e-01,2.52236e-01,9.68009e-02,-2.65390e-02,-1.63406e-01,2.01327e-02,5.08770e-02,-7.26590e-02,4.38378e-02,-1.58996e-01,-3.07498e-01,2.33266e-01,
-2.62429e-01,1.77318e-01,1.41472e-01,5.47582e-02,2.60588e-01,1.38757e-01,-8.62965e-02,-9.13117e-02,-1.31347e-01,9.06068e-02,-2.14899e-02,1.36945e-01,2.69234e-01,-1.37689e-01,2.04471e-01,7.25356e-03,8.49358e-02,-1.92605e-01,1.11394e-01,-8.07377e-02,1.81934e-01,-2.83846e-01,1.55341e-01,4.70654e-02,2.89424e-01,-2.30010e-01,2.46936e-02,-1.64249e-01,9.54925e-02,-8.57151e-02,
-4.20228e-03,1.99297e-02,-1.30132e-02,2.27004e-01,3.05191e-01,7.10726e-02,2.67725e-02,1.27472e-01,-3.02548e-01,-5.80758e-01,-2.14454e-01,-2.11655e-01,7.70665e-02,2.15800e-01,-7.95978e-02,-2.89487e-01,1.48079e-01,-1.05945e-01,5.79580e-02,3.82389e-01,-7.08991e-02,-4.66455e-01,6.56217e-01,-1.92648e-01,3.14069e-02,2.66936e-01,1.44632e-01,1.06459e-01,4.06189e-01,1.96611e-01,
2.51105e-01,1.29897e-01,-2.01841e-01,1.78444e-01,-4.48616e-02,1.93281e-01,1.59463e-01,2.21961e-01,-2.81708e-01,1.91663e-01,-2.30814e-02,-2.47872e-01,-3.07721e-01,-2.98484e-01,-5.55648e-02,1.78175e-01,-2.49452e-01,7.73124e-02,1.38439e-01,-2.47862e-01,-1.32173e-02,-4.34665e-01,-3.05334e-01,-2.04607e-01,-6.57367e-02,2.48379e-01,2.39738e-01,1.12824e-01,-1.24824e-01,-6.16697e-02,
2.59306e-01,-1.00698e-01,-9.46625e-03,1.30935e-01,2.45127e-01,2.88320e-01,-1.75686e-01,1.62874e-01,1.37490e-01,7.79634e-02,6.46412e-02,3.06758e-02,-2.71964e-01,-3.03098e-01,1.55073e-01,1.03374e-01,1.43987e-01,2.29376e-01,-2.56963e-01,-3.23586e-01,8.57492e-02,2.85709e-01,2.55949e-02,2.60472e-01,3.42721e-02,1.50439e-01,-1.25811e-01,-5.34046e-02,2.51840e-03,7.22957e-04,
-1.36995e-01,2.37396e-01,2.08753e-02,1.96259e-01,-1.19732e-01,1.30037e-01,-1.52774e-01,-1.99275e-01,-2.15723e-01,1.34094e-01,-7.20376e-02,-8.23563e-02,8.50171e-03,2.14677e-02,-3.00856e-01,-1.88286e-02,-2.75832e-01,-1.15153e-01,-3.15579e-01,-1.59958e-01,-3.74015e-02,-2.69013e-01,-2.04509e-01,-9.70912e-02,-3.05175e-01,1.97934e-01,5.78089e-02,-1.91982e-01,-1.83675e-01,-1.48308e-01,
-2.49630e-01,1.91689e-01,2.45488e-01,2.49098e-01,1.13272e-01,-2.87389e-01,-2.64986e-01,-1.79319e-02,-2.56713e-01,8.59929e-02,-2.56031e-01,-1.90974e-01,1.34914e-01,-3.09602e-02,7.79098e-03,2.74560e-01,-2.38194e-01,2.64746e-01,-1.46433e-01,2.05780e-01,3.61177e-03,-7.61056e-03,4.96182e-02,-1.96782e-01,-2.54525e-01,4.20431e-02,-1.80323e-02,-2.60693e-01,-2.90140e-01,1.22157e-01,
-5.07986e-02,
1.46709e-01,
9.55014e-02,
6.34044e-02,
-1.60760e-01,
-3.05208e-01,
3.51775e-01,
-6.25489e-02,
2.50814e-01,
-8.46481e-02,
8.00216e-02,
3.49876e-01,
1.34712e-01,
-1.69938e-01,
3.39816e-03,
-4.37265e-03,
-3.05111e-01,
-6.99243e-02,
-5.07453e-02,
9.72885e-02,
-1.17740e-01,
-3.39521e-02,
1.56771e-01,
-3.66167e-02,
1.07028e-01,
6.17534e-02,
6.68977e-02,
1.08338e-01,
1.29599e-01,
-9.82843e-02,
1.85005e-01,-1.06112e-01,1.47734e-01,-2.61971e-03,-1.71692e-01,-1.08444e-01,2.03547e-01,9.77512e-02,1.70067e-01,2.27857e-01,9.22541e-02,3.14382e-01,-1.20781e-02,1.86144e-01,-1.01963e-02,1.85885e-01,-3.39406e-01,3.82550e-02,2.21416e-01,2.54911e-01,2.89172e-02,-2.02036e-01,-3.47228e-03,1.76197e-01,4.31394e-02,4.92163e-02,-3.79329e-01,2.51068e-01,-3.05889e-01,2.80099e-01,
-2.19578e-01,1.55531e-01,1.78074e-01,-3.86122e-02,2.79970e-01,-7.39443e-03,-1.25320e-01,9.44925e-02,-3.60752e-02,-2.24226e-02,-1.50109e-01,-2.08049e-01,1.06926e-02,-2.48030e-02,6.92961e-02,-1.47151e-01,2.71185e-01,-5.27407e-02,-1.47220e-01,-4.29977e-01,-2.64222e-02,2.64439e-01,-3.46814e-01,2.30222e-01,-1.32729e-01,1.81827e-02,1.16665e-01,1.61687e-01,2.59266e-01,1.95534e-01,
3.74162e-02,1.55333e-02,-4.04027e-01,2.71960e-02,9.91696e-02,-3.00127e-01,-4.33672e-01,-2.12678e-01,6.65885e-02,1.20970e-01,-1.42048e-01,1.26671e-01,1.78676e-01,-3.15456e-01,7.57399e-02,-3.21029e-01,-2.77817e-01,-1.49131e-01,-1.06492e-01,-2.23173e-01,-1.58153e-02,1.15606e-01,1.90512e-01,-3.51618e-02,-1.38640e-01,2.22963e-02,1.15429e-01,2.30944e-01,4.02018e-01,1.66592e-02,
1.29421e-01,2.50110e-01,-1.23748e-01,3.33338e-02,-1.22033e-02,-1.28042e-01,2.99568e-01,1.15067e-01,3.91611e-01,-3.42262e-01,-8.74724e-04,1.36382e-02,3.07302e-01,2.06659e-01,7.35140e-02,-3.13053e-01,-3.97460e-01,1.06358e-01,-1.53576e-01,1.70596e-01,-1.85355e-02,-8.29807e-02,2.93130e-01,3.37080e-01,4.65355e-02,2.30043e-02,-2.43087e-02,3.10175e-01,-1.92535e-01,5.65813e-02,
-2.80562e-03,-6.32676e-02,1.32156e-01,3.96664e-02,-7.63456e-02,2.06261e-01,2.96499e-01,3.64433e-01,-2.04014e-01,-4.71381e-02,1.24210e-01,2.35428e-01,-1.30206e-02,3.34318e-02,8.51317e-02,-1.45400e-01,-2.74029e-01,-2.24840e-01,1.54599e-01,-9.40835e-02,-2.00394e-02,1.77584e-01,1.38512e-01,1.30979e-01,-3.76433e-02,2.54985e-02,-2.82062e-01,2.38053e-01,-1.91840e-01,7.87143e-02,
-3.29113e-01,
2.59090e-01,
2.50134e-02,
-4.24194e-01,
-2.51381e-01,
