// Neural Network File Format by Kyle Julian, Stanford 2016
6,5,5,30,
5,30,30,30,30,30,5,
0.000,
499.000000,-3.141600,-3.141600,100.000000,0.000000,
36656.000000,3.141600,3.141600,472.000000,1200.000000,
17688.500000,0.000000,0.000000,249.000000,532.000000,9.330048,
36157.000000,6.283200,6.283200,372.000000,1200.000000,423.773936,
8.43420e-02,-7.37051e-01,3.58068e-01,-8.38019e-02,9.66480e-02,
4.58147e-01,1.12239e-01,-1.94633e-02,-7.98140e-02,-1.93502e-02,
-7.71215e-01,-1.19087e-01,2.04170e-01,-4.54906e-02,4.17371e-01,
-4.86076e-01,5.55283e-02,-1.53138e-01,1.81538e-01,-9.50109e-02,
-3.04932e-03,-6.43877e-03,8.64117e-03,-3.39020e-01,3.56024e-01,
-1.66819e-01,6.00645e-01,-6.38484e-01,-8.36888e-02,2.08353e-01,
2.31017e-01,4.06453e-01,-1.57730e-01,1.45721e-01,-1.01598e+00,
2.11876e-02,6.43709e-01,6.82448e-01,1.78624e-02,-3.47273e-02,
1.32798e-01,2.53036e-01,7.31074e-01,-1.08058e-01,1.26451e-01,
5.52610e-01,1.17216e-01,2.13409e-01,1.93478e-01,-4.46638e-01,
5.20059e-01,-2.76498e-02,8.61013e-02,3.28976e-01,-9.68758e-01,
2.25665e-01,1.10658e-01,-2.68488e-02,2.16530e-01,-7.99733e-01,
1.08446e-01,-2.98104e-01,-8.68780e-02,1.31288e-01,-8.55139e-01,
1.57552e-01,9.48012e-01,-1.04030e+00,9.78907e-02,2.24574e-02,
4.69120e-01,-2.99792e-01,-3.33297e-01,-1.45309e-03,-3.66695e-02,
6.98217e-01,4.41016e-02,-1.90252e-01,-1.74375e-01,-4.38184e-01,
-2.71428e-01,-5.12678e-02,-9.44616e-02,3.58807e-01,3.09462e-01,
7.72374e-02,-2.76722e-01,9.85197e-02,-4.48841e-01,-3.51850e-01,
-1.10087e-01,-7.85364e-01,8.40474e-01,5.12776e-02,1.11673e-01,
-4.28773e-01,-2.11117e-01,-8.47075e-03,-2.47664e-01,5.54030e-01,
3.43685e-01,-2.30825e-01,-6.53284e-01,1.31499e-01,-2.85287e-01,
-3.69490e-01,1.84013e-01,9.96519e-01,7.15276e-02,7.09739e-02,
3.33238e-01,1.14761e+00,-6.78347e-01,-7.71219e-02,-2.48165e-01,
6.21131e-02,-7.59025e-01,-4.72608e-01,-5.28231e-02,1.03541e-01,
-1.12195e-01,6.63371e-01,-4.00951e-01,-1.43148e-01,3.45270e-01,
2.21574e-01,-9.41155e-01,7.93196e-01,3.94116e-02,-5.61158e-02,
-1.00799e+00,1.39595e-01,-7.74611e-02,2.67641e-02,-7.86923e-02,
-1.92901e-01,7.10202e-02,-1.32772e-01,-4.38240e-01,-3.56950e-01,
-2.13093e-01,-1.25441e-02,-2.44401e-02,7.44055e-03,-1.18506e-02,
-1.12570e-01,2.34017e-01,9.24645e-02,2.86768e-01,1.94291e-01,
3.38038e-01,
2.22765e-01,
-1.03752e-01,
1.42218e-02,
1.98920e-02,
1.74567e-01,
-2.54714e-01,
-6.85813e-02,
2.60707e-01,
3.08200e-01,
-2.08989e-01,
2.12535e-02,
-2.13288e-01,
-1.27140e-01,
3.22732e-01,
8.35475e-02,
1.94441e-01,
-1.01404e-01,
-1.89132e-01,
-5.43400e-02,
-9.40898e-02,
-1.30618e-01,
-1.11674e-01,
-1.34674e-01,
3.48796e-01,
-2.68077e-01,
-3.36417e-01,
-1.76152e-01,
1.10983e-01,
2.85101e-02,
-4.19838e-02,1.02829e-01,2.09038e-01,-6.83436e-02,1.18449e-02,-2.24962e-02,5.74471e-01,-1.28508e-01,2.55386e-01,-2.49956e-01,5.34704e-01,-3.32334e-01,-1.04049e+00,-3.08954e-01,-5.45077e-01,1.85805e-01,-1.06265e-01,-1.12727e-01,-3.04796e-01,6.82468e-01,3.30540e-01,1.59918e-01,7.02938e-01,-2.30638e-01,7.12750e-02,5.96765e-01,4.56318e-01,3.78287e-02,-5.38935e-02,3.94870e-01,
-8.34617e-01,-1.36463e-01,6.88938e-02,1.96096e-01,6.01727e-02,2.27279e-01,-2.20188e-01,-3.57316e-01,-3.40843e-01,2.03348e-03,9.77790e-02,1.26880e-01,-2.60606e-01,7.73644e-01,-1.47451e-01,-7.32123e-02,-6.07072e-02,-2.67050e-01,1.22248e-01,9.19448e-03,-4.18056e-03,-2.00350e-01,5.05197e-01,1.05211e-01,3.48656e-01,-1.61615e-01,1.60575e-01,-1.94774e-02,-2.32481e-01,3.02260e-02,
8.66894e-02,1.94967e-01,1.02553e-01,-9.42400e-02,-4.62058e-01,2.60242e-01,-6.76503e-01,-4.29743e-01,-2.84517e-01,2.23624e-01,2.12022e-01,2.47350e-02,1.02007e+00,-9.70306e-02,4.16675e-01,-4.58499e-01,1.69634e-01,1.03301e-01,-1.43364e-01,-1.87965e-01,-1.76487e-01,2.01445e-01,-4.78575e-01,-6.89148e-01,5.28202e-02,-3.73808e-01,1.85868e-01,-4.18058e-02,4.09282e-01,-2.42858e-01,
8.86214e-02,1.39402e-01,-3.36601e-02,-1.23296e-01,-1.06295e-01,-2.14394e-01,9.00027e-01,-2.55637e-01,4.53868e-01,4.81640e-01,-1.04639e+00,4.28285e-01,-1.58258e-01,-2.45769e-01,-7.90241e-02,5.86832e-01,-1.68853e-01,-5.58464e-03,2.24069e-01,2.39300e-01,2.07141e-01,5.75435e-02,1.10909e-02,4.47675e-01,-6.57719e-02,4.53383e-01,-2.42707e-01,-8.77107e-02,2.46302e-02,4.05948e-01,
3.49680e-01,9.35815e-02,-8.74571e-02,-6.64399e-02,1.20134e-01,-2.85057e-01,3.13502e-01,6.38998e-01,1.74024e-01,-3.40402e-01,-3.88847e-02,-3.30487e-01,-6.57658e-01,9.63948e-01,7.28931e-03,-8.54186e-02,-1.25975e-01,2.37016e-02,5.65202e-01,6.61809e-02,3.16026e-01,-1.79929e-02,6.88091e-01,1.82032e-01,4.38827e-02,9.34699e-02,-5.73449e-01,2.85938e-01,-2.65378e-01,1.94753e-01,
-1.04783e+00,-5.04990e-02,8.83332e-03,1.15000e-01,1.25968e-01,5.25473e-01,-4.69377e-01,-3.02331e-01,-6.09920e-01,-3.22147e-02,2.89738e-01,-7.34284e-02,-6.03502e-01,6.57564e-01,-1.76857e-01,9.29471e-03,-1.32839e-01,-1.21106e-01,-6.42913e-01,2.05227e-02,1.19295e-01,-6.15561e-01,3.60257e-01,4.63294e-02,4.09510e-01,-3.20449e-01,-2.25243e-01,-1.90742e-01,-2.32506e-02,1.57934e-01,
-3.64501e-01,3.62651e-01,1.83877e-01,1.51888e-01,-9.77406e-02,-2.29892e-01,1.23573e+00,-3.21429e-01,3.78745e-02,3.10917e-01,-9.27031e-01,5.10618e-01,2.38114e-01,3.69947e-01,8.01650e-02,2.12244e-01,-3.25821e-01,1.25136e-01,-1.73512e-01,1.17153e-01,-9.37274e-01,1.03961e-01,1.67595e-02,7.78024e-02,2.95251e-01,-2.34581e-01,4.12045e-01,-3.71385e-03,2.78460e-01,2.43485e-01,
-1.37881e-02,-2.35385e-01,4.00325e-01,1.87997e-01,2.81990e-01,1.57406e-01,-4.93053e-01,-3.56680e-01,-4.28783e-01,-4.52385e-01,1.02608e-01,8.34443e-03,6.43154e-01,1.48639e-01,-2.57502e-01,-1.11457e+00,2.04122e-01,-1.33215e-01,2.03421e-01,1.38164e-01,4.27552e-02,6.79174e-01,-4.14538e-01,-3.35175e-01,4.63067e-01,4.26290e-01,8.87424e-02,-4.76026e-02,3.92750e-01,2.41295e-02,
-6.36957e-02,3.85413e-01,2.36424e-01,-3.62097e-01,-3.47197e-01,6.26152e-01,-4.46058e-01,2.90416e-01,-1.64992e-01,2.27520e-01,2.41792e-01,2.96614e-01,-7.85414e-01,-8.58261e-02,7.02042e-02,3.43237e-01,1.63705e-01,3.34062e-01,-2.37071e-01,4.21356e-01,-1.99157e-01,-2.24327e-02,4.88784e-02,4.23966e-01,-1.00321e-01,4.79757e-04,-1.31202e+00,4.11929e-02,2.97973e-01,-3.69421e-01,
6.14622e-02,4.76028e-02,-1.44665e-01,1.42915e-01,-1.45123e-01,-1.01252e-01,-3.88946e-01,2.58183e-01,3.11711e-02,2.18707e-01,-4.32219e-01,2.10565e-01,2.34953e-03,-1.03644e-03,-3.94051e-01,-6.03365e-02,-1.93015e-02,1.32098e-01,2.79316e-02,1.45194e-02,-4.32050e-01,-3.87253e-01,2.10998e-01,3.23695e-01,2.34059e-01,6.50354e-01,-1.06306e+00,-1.84294e-02,-1.03243e-01,3.79254e-02,
1.40580e-01,3.54905e-01,-3.91001e-02,-4.90109e-01,-5.62889e-02,2.16367e-01,-4.93292e-01,4.14343e-01,-2.54155e-01,1.23731e-01,-6.97296e-02,-2.59825e-01,1.04961e+00,-7.77164e-01,2.58850e-01,-1.22875e-01,-5.62731e-02,4.40765e-02,-6.73394e-01,-1.92438e-01,-3.57105e-01,-8.24597e-02,-2.01997e-01,1.29274e-01,6.21116e-01,-1.33560e+00,-8.60492e-01,-7.09441e-03,-1.19583e-01,1.60852e-01,
3.21083e-01,-1.22610e-02,-3.32936e-01,1.25006e-02,-2.93928e-01,-4.21498e-02,-4.15080e-01,-3.51368e-01,-1.31678e-01,1.41494e-01,-4.39434e-01,6.09298e-01,8.64949e-01,4.11626e-01,-1.17239e-01,2.79767e-01,4.08144e-01,3.63687e-01,5.15608e-01,-6.77739e-01,-3.30981e-01,6.01980e-03,6.53488e-01,-3.14321e-01,-6.43190e-01,5.24517e-01,4.80476e-02,2.38116e-01,2.76485e-01,-7.20739e-01,
-4.04525e-01,3.55715e-01,-7.72676e-02,-1.02025e-01,-2.30201e-01,4.67362e-01,-2.30193e-03,6.49931e-03,-1.02429e-02,2.91900e-01,-7.34270e-02,3.14987e-01,3.62367e-01,-6.20977e-01,1.99279e-01,7.91527e-02,6.87667e-02,6.24431e-02,1.91663e-01,5.94940e-02,-1.31410e-01,5.78847e-01,-4.73159e-01,-8.85644e-02,3.86264e-01,-6.94749e-01,-4.59379e-01,3.45273e-01,-9.20839e-02,-4.73750e-02,
4.06069e-01,-4.73999e-01,-4.25457e-03,-1.68902e-01,-7.97786e-02,4.14511e-01,-8.15578e-02,-1.06508e-01,-3.24545e-01,-6.17904e-01,7.34848e-01,-9.59129e-02,-4.40982e-01,-3.75283e-01,1.05034e-01,-9.70733e-01,5.32805e-01,-5.79742e-01,1.58303e-01,3.84846e-01,5.21737e-01,2.88652e-01,-3.05362e-02,-8.03668e-01,1.53815e-02,-3.37684e-01,-4.50227e-01,5.03219e-01,1.84704e-02,-2.15448e-01,
-2.22233e-02,2.99017e-01,-5.72756e-01,-2.47015e-01,6.37042e-02,-3.37495e-01,1.61812e+00,-1.77782e-01,9.98854e-03,3.85470e-01,-7.66785e-01,2.80833e-01,2.77685e-01,7.66430e-03,3.90893e-02,-9.57960e-01,-5.11813e-01,3.68919e-01,3.57494e-01,2.32104e-02,-1.62128e-01,7.02465e-02,-1.97297e-01,-5.39766e-01,-1.85332e-01,-4.51215e-01,-4.43692e-01,5.93756e-01,-3.66655e-01,-3.50385e-01,
-5.20171e-02,-1.34645e-01,-5.40278e-02,1.26415e-01,-7.29702e-02,-6.62043e-02,-2.30313e-01,1.10399e-02,-2.34299e-01,6.77149e-02,9.78432e-02,-3.10466e-01,7.17999e-02,1.65095e-01,-6.35636e-02,2.30106e-01,1.69455e-01,-3.10890e-02,-1.75216e-01,-2.88536e-01,2.27776e-01,9.58410e-02,-3.53180e-02,1.27840e-01,-2.50963e-01,1.79255e-01,-2.31066e-01,1.41967e-01,-2.89288e-01,1.20394e-01,
-3.10876e-01,-1.93001e-01,-5.94784e-01,2.29975e-01,-5.80060e-02,3.01684e-01,7.74640e-01,1.43464e-01,-1.47174e-01,3.22309e-01,-7.28266e-01,3.93332e-01,-1.28237e-01,3.16273e-01,9.20005e-02,-3.59859e-01,7.82599e-02,-3.56400e-01,4.03887e-01,-3.47005e-01,-1.84090e-01,7.39950e-01,-4.09159e-01,2.12231e-01,-2.13329e-01,3.84360e-01,5.02058e-01,5.23605e-02,-1.06075e-01,-2.13712e-01,
-6.59132e-01,-2.81690e-01,-3.21518e-01,-6.60069e-03,2.41628e-01,3.18503e-01,3.58531e-01,1.61887e-01,-9.13425e-01,-1.80306e-02,1.10898e-01,1.23815e-01,-3.09373e-01,6.74730e-01,1.01351e-01,1.85046e-01,1.60227e-01,5.92646e-01,6.91078e-02,1.43121e-01,-1.22615e-01,-5.07918e-01,2.20228e-01,-5.92472e-01,7.94254e-02,1.03852e-01,-6.65201e-02,-9.47146e-02,-2.84404e-01,-6.57247e-02,
2.23391e-01,-8.58991e-02,-4.58417e-01,-4.85583e-03,3.40482e-01,1.51218e-01,-1.10035e-01,-1.93302e-01,-6.70147e-02,-3.01026e-01,-2.09619e-01,7.20120e-02,2.17423e-01,-1.93094e-01,-2.36115e-01,2.06501e-01,-1.61107e-01,2.39599e-01,3.49315e-01,-5.26036e-01,4.03894e-02,5.75974e-01,1.96816e-01,-2.18131e-01,-3.44161e-02,7.84218e-01,-3.95391e-01,3.47443e-01,-1.52239e-01,-6.34765e-02,
-1.71940e-01,4.20044e-01,-1.04679e-01,-2.16950e-01,-9.68721e-02,-1.71917e-01,1.39014e-02,6.14685e-02,-5.30311e-02,6.79272e-02,4.68055e-01,-3.93589e-01,-7.74975e-01,-4.09404e-01,-1.26186e-01,3.22141e-02,1.11343e-01,-8.36428e-02,-9.55754e-01,8.22450e-02,-2.85087e-02,-1.02785e-01,-2.86476e-01,3.36522e-01,5.57782e-01,-8.78470e-01,-6.80702e-01,1.38729e-02,-2.02754e-02,2.41245e-01,
2.02231e-01,-1.49074e-01,-2.87253e-01,1.88587e-01,2.68681e-01,1.05114e-01,-3.16806e-01,4.73772e-01,-3.91925e-01,3.02644e-02,-3.38434e-01,3.32757e-01,5.38271e-01,-5.42773e-02,4.43245e-01,-1.71404e-02,3.43169e-01,1.64847e-01,-2.33716e-01,-3.93067e-01,-1.92456e-01,-4.63621e-01,-2.91462e-01,-3.95052e-02,-1.33419e-01,-4.89933e-01,-4.01715e-01,2.26292e-02,2.13098e-02,-9.32121e-02,
1.78824e-02,-2.82406e-01,8.86118e-01,6.40419e-01,3.36132e-01,2.11905e-01,-6.39092e-01,-1.07189e-01,2.56320e-01,-9.10728e-02,4.97161e-01,-2.75488e-01,-1.70257e-02,-3.04438e-01,-3.85771e-01,2.63186e-01,-8.41527e-02,-4.13547e-01,1.72737e-01,-4.68362e-03,7.07731e-01,3.47631e-02,1.05048e-01,-5.64922e-01,1.24160e-01,2.82577e-01,4.88110e-01,-1.40308e-01,-3.94331e-03,4.53243e-01,
2.77528e-01,2.19180e-01,3.84624e-01,3.54110e-01,-6.03438e-02,-2.76517e-01,-1.76124e-01,9.89074e-02,-2.83399e-01,-2.90338e-01,-4.85979e-02,-1.39404e-01,2.93710e-02,5.22285e-02,-1.02244e-01,-3.26811e-01,-4.46539e-01,1.90116e-01,-1.20593e-01,-3.23258e-01,-2.61629e-01,1.59199e-01,2.55671e-01,5.81412e-01,7.31001e-02,-1.42246e-01,6.13657e-01,3.22965e-01,2.65893e-01,-2.45045e-01,
1.50955e-01,-8.21122e-02,-5.30786e-01,1.02476e-01,2.00631e-01,-5.69178e-02,1.15691e+00,-3.28664e-01,-3.49194e-01,-2.46635e-01,-3.03649e-01,3.05813e-02,3.51518e-01,-1.77808e-01,2.05620e-01,2.33684e-01,-1.45141e-01,1.37246e-01,6.05230e-01,2.84362e-01,-8.28874e-01,-3.55839e-02,-1.24972e-01,8.23921e-02,-2.42995e-01,4.56654e-01,7.86866e-01,5.63780e-01,2.52461e-01,-7.14036e-02,
-1.61865e-01,1.30124e-01,1.99575e-01,-5.16305e-02,-5.82671e-02,-4.11348e-01,3.32401e-01,-5.46459e-01,6.55252e-01,5.80869e-01,-7.37719e-01,3.96943e-01,5.78048e-01,-1.19047e-02,-5.04438e-01,-1.52924e-01,-7.14917e-02,2.24623e-01,3.07860e-01,2.66532e-01,-1.86172e-01,2.72347e-01,1.48138e-01,-5.42138e-01,-1.84396e-01,8.19983e-02,1.16711e-02,-7.46301e-02,-7.84665e-02,1.48489e-01,
-2.10654e-01,-6.20903e-01,5.52636e-01,5.85261e-01,9.10107e-02,1.46185e-01,3.65294e-01,-2.57352e-01,-6.05417e-01,-4.04801e-01,-3.11185e-01,1.33109e-01,-1.04081e+00,-3.22615e-01,-8.72283e-01,-2.10236e-01,-9.95864e-02,2.75723e-01,-3.55442e-01,1.61285e-01,-9.27288e-02,-1.12384e+00,1.31742e-01,4.72083e-01,1.77519e-01,1.10712e+00,8.03567e-01,-8.75390e-02,2.50372e-01,4.84477e-02,
2.00115e-01,-1.41274e-01,6.01717e-01,2.52677e-01,-8.57373e-02,-1.94704e-01,4.63166e-02,8.10392e-02,-3.12273e-01,1.14189e-01,1.09913e-03,2.20398e-01,3.50407e-01,3.48718e-01,2.41976e-01,2.89744e-01,-2.07555e-02,3.10709e-01,-1.73869e-02,1.20116e-01,6.99351e-01,-3.40440e-02,-4.97727e-01,-4.40679e-01,1.42057e-01,1.70631e-02,5.78743e-01,-5.53598e-01,1.69659e-01,-1.59633e-01,
6.68121e-02,1.06683e-01,-9.63845e-02,-9.75334e-02,-2.12613e-01,-7.34833e-02,-1.76730e-01,5.75743e-01,1.04229e-01,8.31433e-02,3.81484e-02,4.24242e-01,9.14981e-02,-7.80420e-01,5.47383e-01,1.09591e-01,-2.08352e-01,2.96017e-01,-6.83202e-01,2.00929e-01,3.43352e-01,7.73422e-01,-2.38517e-01,-1.46958e-01,-1.59172e-01,-9.40730e-01,-7.32591e-01,2.10079e-01,-3.53442e-01,7.62231e-02,
-4.65524e-02,-8.40401e-01,3.34708e-01,2.07085e-01,-1.04791e+00,-8.89417e-02,8.91892e-02,-1.29526e-02,-1.04746e-01,-3.88068e-01,-3.90091e-01,3.89903e-01,2.13064e-01,-1.88792e-01,-5.53765e-01,-2.10930e-01,-4.46642e-01,6.41700e-01,4.81799e-02,-4.72541e-01,3.27935e-01,-2.83758e-02,-2.34705e-02,2.45201e-02,3.26469e-02,2.32283e-01,1.15434e+00,6.83685e-01,3.75858e-01,5.60357e-01,
2.33548e-01,-5.04645e-01,3.98929e-01,2.07269e-01,1.59177e-01,-6.74297e-01,2.24282e+00,3.50833e-01,-2.76209e-01,-1.03702e+00,-9.68059e-01,-7.73709e-01,-8.33712e-01,-7.49265e-01,-8.57338e-02,5.51461e-01,1.15621e-01,2.78123e-01,-7.65432e-01,-8.50472e-02,1.13011e-01,-3.52075e-01,-4.27095e-02,4.73701e-01,3.48404e-01,-3.66682e-01,6.09867e-01,-2.44481e-01,8.43018e-02,-1.90817e-01,
4.23605e-02,
-4.99188e-01,
1.32696e-02,
-5.52254e-02,
-3.05554e-01,
-2.64633e-01,
1.47094e-01,
-5.40700e-02,
-4.50421e-02,
1.40456e-01,
2.85812e-02,
-2.49033e-01,
-1.77805e-01,
-2.40144e-02,
1.65368e-01,
-2.41128e-01,
2.62947e-01,
-2.37730e-01,
2.71691e-01,
4.15578e-01,
3.00637e-01,
1.96670e-02,
2.10479e-01,
-1.90011e-01,
2.89234e-01,
-7.54276e-02,
-3.35569e-01,
2.61492e-01,
-2.50849e-01,
1.96870e-03,
-1.83951e-01,-2.73516e-01,-2.42856e-01,-1.17190e-01,-3.06704e-01,-6.68337e-01,-4.52284e-02,-4.42267e-01,-1.44944e-01,2.19092e-01,4.73154e-02,-4.61483e-01,1.68128e-01,-2.78757e-01,-4.20241e-01,1.19987e-01,-4.59470e-01,1.58580e-01,-1.58622e-01,6.40217e-01,-2.24037e-01,5.24591e-01,6.81453e-02,6.93461e-01,5.95213e-01,-5.65124e-01,1.67847e-01,5.72677e-02,-9.82296e-02,-3.75435e-01,
2.52415e-02,-4.03498e-01,-9.38506e-02,2.29398e-01,-3.50237e-01,-1.07943e-01,1.17645e-02,6.05945e-01,1.44038e-01,-1.32332e-01,3.99876e-01,2.38568e-01,-2.47497e-01,1.50523e-02,2.03206e-01,-1.40727e-01,6.56205e-01,-5.99375e-01,-3.65929e-01,-1.00446e-01,-8.78409e-02,1.87380e-01,-1.70880e-01,-1.08628e-02,6.96377e-03,2.58183e-01,-3.02135e-01,2.92695e-01,-2.53593e-01,7.05626e-01,
2.96762e-01,9.25021e-01,3.24652e-02,2.62593e-01,1.16794e-01,-2.61710e-01,1.16621e-01,-2.23741e-01,-2.02685e-01,-1.20589e-01,-3.12803e-01,4.94276e-01,-2.59403e-01,3.20908e-02,3.48885e-01,-2.72076e-01,2.46690e-01,1.90428e-01,-3.67235e-02,-5.08553e-01,4.12203e-01,-5.27766e-01,-1.09223e-01,2.87553e-02,-4.59670e-01,-2.93550e-01,-5.17496e-01,-5.43540e-02,5.87787e-01,6.68138e-02,
-2.61925e-02,6.11071e-02,1.47594e-01,-8.31873e-02,4.94856e-02,1.12612e-01,1.50774e-01,4.39059e-01,3.34797e-01,3.22571e-03,-5.12535e-01,3.29163e-01,-3.45205e-01,-2.59128e-01,7.44109e-02,-2.91605e-01,3.24865e-02,6.36267e-01,-2.73831e-01,3.47469e-01,-1.18627e-01,2.06390e-01,2.92854e-01,-8.44717e-01,-1.28454e-01,-2.58022e-01,1.07732e-02,3.05632e-02,-7.09986e-01,5.20985e-01,
2.54352e-01,-5.61059e-01,1.74076e-02,-2.69409e-01,-5.30677e-02,-2.22664e-01,6.92903e-02,-8.06912e-02,1.84925e-02,5.19672e-01,-5.54751e-01,-4.17325e-02,1.59857e-01,-1.03193e-01,-2.74134e-01,-2.95905e-02,1.37814e-01,1.50368e-01,-3.17177e-02,6.78632e-02,5.16941e-01,-3.57629e-01,5.10345e-02,3.56717e-02,-4.57071e-01,8.23695e-01,-2.28144e-01,1.95953e-01,-1.47788e-01,-3.19199e-01,
6.74699e-02,-9.95756e-01,-1.23574e-01,4.07036e-02,-6.90305e-02,2.93158e-01,2.49520e-02,-1.96644e-01,-1.48245e-01,6.88325e-02,2.95973e-01,-7.64203e-01,-3.09245e-01,7.01591e-01,2.46906e-02,1.24408e-01,6.93875e-01,-1.68649e-01,2.10412e-01,2.35891e-01,8.89940e-02,-4.15175e-01,-1.63464e-01,6.09540e-01,-1.75720e-02,5.53992e-01,-2.41668e-01,2.52269e-01,-2.01676e-01,8.29853e-02,
4.22125e-02,3.68503e-01,-1.27253e-03,1.48118e-01,1.08082e-01,4.56912e-02,5.92271e-02,-3.79125e-02,-3.01437e-01,2.63393e-01,2.01008e-01,-2.87057e-02,-2.36966e-01,2.57772e-01,9.08530e-02,-2.96463e-01,6.36443e-02,-2.05714e-01,2.59955e-01,3.64550e-01,-1.39052e-02,-2.91228e-01,-4.58921e-01,-2.13318e-02,-1.86696e-01,-6.49462e-01,-8.21449e-02,4.01674e-01,-1.60846e-01,4.99103e-01,
6.76170e-01,-2.26205e-01,4.94001e-01,-1.65030e-01,-1.75153e-01,-7.15307e-01,-4.91327e-01,6.25156e-03,2.56437e-01,3.90856e-01,7.74448e-01,3.85554e-01,-2.46056e-01,1.98238e-01,2.78181e-01,-2.78454e-01,7.92299e-02,-3.78605e-01,2.13623e-01,-3.03883e-01,3.29422e-01,-1.61020e-01,-3.36950e-01,-7.01194e-01,-3.06783e-02,-1.00074e+00,-8.62957e-01,-3.04483e-02,-2.75665e-01,4.38136e-01,
-3.42980e-01,-1.96587e+00,2.47438e-01,2.09051e-01,1.27030e-01,1.33580e+00,-1.30620e-01,-4.76744e-01,-5.93690e-01,-9.66863e-02,-6.56623e-01,-7.14718e-01,-1.55775e-01,3.96667e-01,6.37773e-01,2.61824e-01,-1.44424e-01,-5.35444e-01,1.02861e-01,-3.32915e-01,1.72462e-01,-3.65054e-01,3.30397e-01,-8.99771e-02,1.54968e-01,4.67125e-02,-4.84926e-01,4.26775e-01,-1.90935e-01,-6.58579e-02,
5.38482e-02,1.20057e+00,3.14420e-01,2.18676e-01,-1.30042e-01,-7.78593e-01,-1.97604e-01,-3.57853e-01,1.55657e-01,2.89662e-01,3.37709e-01,3.11449e-01,3.03626e-02,4.49209e-01,2.12777e-02,2.50489e-01,-6.97284e-02,7.53542e-02,1.86540e-01,9.84920e-02,1.59346e-01,-4.22215e-02,-1.41583e-01,-2.01469e-01,-1.87066e-01,1.38723e-01,-4.97264e-01,8.80772e-02,-5.12580e-01,-7.15099e-01,
1.49046e-01,1.52525e+00,-3.27681e-03,1.28867e-01,-1.32231e-01,-4.11275e-01,-8.03687e-02,2.26661e-01,3.17378e-01,-8.17842e-02,4.46185e-02,6.47428e-01,2.51744e-01,3.05161e-01,-1.90861e-02,-5.17005e-02,-1.87170e-01,3.27975e-01,-1.08759e-01,1.60373e-01,-1.53766e-01,5.19314e-02,9.17584e-02,3.17059e-01,1.48057e-03,-9.99724e-01,-2.78260e-01,5.57005e-01,2.98058e-01,4.98664e-02,
-2.85110e-01,1.18169e+00,6.24645e-02,-2.01512e-01,4.60466e-01,-1.00479e-01,1.92981e-01,-2.67466e-01,-1.39899e-01,-5.13191e-01,-2.99734e-01,3.87099e-01,3.16343e-02,7.24086e-01,3.68812e-01,1.11112e-01,2.98096e-01,6.12268e-01,-4.11764e-02,1.82761e-01,-3.23720e-01,1.24652e-01,-1.10732e-01,3.90319e-01,-1.79319e-01,1.28952e-01,-1.29142e-01,2.08229e-01,7.46922e-01,-1.63465e+00,
8.50051e-02,1.83035e+00,-3.79998e-04,-1.58128e-01,-3.31195e-01,-3.88719e-01,-1.54272e-01,2.44823e-01,-1.52205e-01,-1.80757e-01,2.13984e-01,-2.29832e-01,-8.16241e-01,-1.36354e-01,2.68702e-01,-2.37525e-01,-2.93453e-01,-1.05192e+00,-1.97487e-01,2.21650e-01,4.79471e-01,-3.55073e-01,-5.21792e-02,-9.78855e-02,-6.56829e-01,3.73520e-01,3.73944e-01,3.71757e-01,-2.23046e-01,-2.23102e-01,
-4.43221e-01,1.41777e-01,4.70791e-02,-2.93009e-01,4.90442e-01,6.26033e-01,4.65323e-01,-3.86386e-02,2.27103e-01,1.38521e-01,-6.27447e-01,6.59258e-01,-1.89427e-01,2.05250e-01,5.52071e-01,1.42883e-01,9.14914e-02,4.84328e-01,-3.73340e-01,-1.19970e-01,-2.42294e-02,-1.56544e-01,-3.28885e-02,7.25121e-02,1.28375e-01,4.32375e-01,-6.08921e-01,-4.61632e-02,3.92822e-01,-2.60033e-01,
-1.59079e-01,-7.32749e-01,4.00701e-01,-4.34521e-01,7.28738e-02,4.24448e-01,1.34978e-01,-3.96396e-01,-1.09740e-01,5.40452e-02,6.99320e-02,1.90652e-01,1.16433e-01,-1.55974e-01,-3.17977e-01,-2.97532e-01,-5.57852e-02,-3.74590e-01,3.91209e-01,-4.11412e-02,-2.67109e-01,2.05909e-01,6.45220e-01,-2.60890e-02,-1.25806e-02,1.61123e-01,7.23769e-02,4.43944e-02,9.80964e-01,-2.21938e-01,
-5.27238e-01,-7.86552e-01,-2.76790e-01,-2.58071e-01,-1.98057e-02,4.75826e-01,5.16036e-01,-3.79033e-01,-1.72031e-02,1.89158e-02,-8.63050e-01,-2.99245e-01,4.01415e-01,1.15159e-01,2.78847e-01,-6.61285e-02,1.35793e-01,2.61991e-01,-1.18762e-01,3.39241e-01,-1.99617e-01,-2.82554e-01,-3.79848e-02,4.42770e-02,6.16695e-01,4.57031e-01,-7.47619e-02,-2.39960e-01,-4.24599e-02,5.88895e-01,
9.12000e-02,-7.68233e-01,3.58031e-01,2.68156e-01,4.15953e-01,1.19160e+00,-1.66299e-01,-3.34848e-02,4.72946e-02,8.52216e-02,1.20106e-01,6.67879e-01,-1.13321e-02,4.09230e-02,-1.84099e-01,-2.83024e-01,-9.22737e-02,-4.36314e-01,-5.19960e-01,-5.15937e-01,-7.08274e-02,2.21974e-02,1.70682e-01,-5.22308e-01,1.69273e-01,2.24129e-01,-6.96539e-02,2.26673e-02,3.27257e-01,-8.93567e-02,
1.21739e-01,-9.79137e-03,5.28935e-02,-1.93332e-01,9.82300e-02,-3.43143e-01,1.13435e-01,4.64112e-01,1.94970e-01,-1.03622e+00,1.09131e-01,9.77849e-02,-9.54989e-02,-4.94040e-01,-2.08737e-01,-2.32798e-01,3.66660e-02,-1.42598e-01,-4.92920e-01,-8.93814e-01,-2.22750e-01,3.30452e-01,6.36334e-01,1.20134e-02,9.06201e-02,8.82805e-01,4.79334e-02,-6.89123e-02,-1.11763e-01,-3.94123e-01,
2.61381e-01,-1.94716e+00,4.16286e-01,3.22527e-01,1.22187e-01,1.09370e+00,-1.99757e-01,-1.15462e-01,-2.79150e-01,-6.12879e-02,8.29010e-02,-1.96127e-02,1.95528e-01,5.13071e-01,4.10446e-01,3.14782e-01,-6.67585e-02,-3.73422e-01,1.34615e-02,-4.84880e-02,-2.94599e-01,-4.57783e-01,-1.88035e-01,2.95116e-01,-8.41407e-02,2.10098e-01,-4.01768e-01,3.69680e-01,5.83866e-01,2.78439e-01,
9.08402e-01,2.77497e-02,3.65064e-02,7.60375e-03,-1.21671e-01,1.64388e-01,-1.00240e-01,1.89475e-01,-2.76986e-01,1.87008e-01,2.95654e-01,6.63244e-01,-5.44139e-01,-1.11560e-01,-4.39057e-01,-2.23790e-01,1.03493e-01,-4.76170e-01,-1.87937e-01,1.53031e-01,4.05109e-01,1.55961e-01,2.27902e-01,-3.49863e-01,-1.37744e-01,-5.84396e-02,3.81874e-01,4.00733e-01,8.78101e-01,4.41626e-01,
1.25371e-01,2.34318e-01,1.45912e-03,-2.40726e-01,-2.45348e-01,1.15583e-01,-3.04930e-01,-1.66044e-01,-2.77232e-01,-3.46593e-02,-3.13995e-02,2.88877e-01,-2.44007e-02,3.53484e-02,2.19271e-01,9.47165e-02,-1.97440e-01,-8.28485e-02,-1.49745e-02,-2.77629e-01,-1.43212e-01,9.29372e-02,-6.64474e-02,-3.07449e-01,1.49445e-01,1.99412e-01,-1.16191e-01,-2.86207e-01,2.28768e-01,2.86343e-01,
-6.73360e-03,-2.40976e-01,1.51780e-01,-1.91881e-01,-3.31791e-01,-4.23517e-01,1.03329e-01,-3.36491e-02,-2.27852e-01,-4.57304e-01,-2.49520e-01,-1.11105e-01,2.63693e-01,-1.16110e-01,1.75846e-01,1.58980e-01,-2.11333e-01,1.30341e-01,-3.73517e-01,-3.10192e-03,-3.37841e-01,3.72147e-01,9.09609e-02,-9.68255e-02,1.22572e-01,-1.25993e-01,2.62903e-01,2.51838e-03,-1.50914e-03,-1.31466e-01,
1.10509e-01,-7.38929e-01,-1.57209e-01,-3.44838e-01,3.00342e-01,3.89796e-01,7.19563e-02,-1.21909e-01,-9.58827e-02,4.33689e-01,-4.62154e-01,-1.62859e-01,3.87245e-01,-3.35144e-01,-1.64780e-01,1.52788e-01,2.48364e-02,-1.24139e-01,3.33070e-01,-2.95753e-01,3.18359e-01,2.89875e-02,-1.47233e-02,-1.61599e-01,1.52965e-01,-6.45436e-01,2.17897e-02,-2.17426e-01,1.50151e-01,-3.48586e-02,
-9.45310e-02,2.77654e-01,1.36464e-01,1.75962e-01,-6.61312e-02,-1.23511e-01,1.42071e-01,3.62238e-02,2.55351e-01,4.76481e-02,-3.98343e-01,-5.56677e-02,-1.81801e-01,5.98022e-01,-6.03693e-02,1.06727e-02,2.38446e-01,4.94177e-01,8.04121e-02,-3.83956e-02,3.40210e-01,-3.87384e-01,-4.56283e-01,-1.48069e-01,-3.43796e-02,2.21360e-02,-2.97313e-01,4.33327e-02,6.84739e-02,-4.63243e-01,
-1.98085e-01,4.44568e-02,4.06038e-01,3.70846e-01,4.33122e-01,-2.27312e-01,-4.26524e-01,-2.78462e-01,-3.49943e-02,1.02435e-01,-8.21990e-01,-1.34897e-01,-4.19657e-01,2.30634e-01,-2.40274e-02,-9.87443e-03,-5.55912e-02,-2.52012e-01,1.39315e-01,-1.48774e+00,-3.41300e-01,-2.36442e-02,-2.07710e-02,4.06788e-01,2.98353e-01,1.51105e-01,-2.40493e-01,-3.75704e-01,-2.20614e+00,-2.06060e-01,
2.62891e-01,-2.31346e-01,-4.26854e-01,-7.00267e-02,-7.34159e-01,-8.98187e-01,-2.95814e-01,-2.94425e-01,9.01195e-02,3.34663e-01,3.15318e-01,8.07140e-01,-4.08922e-01,-2.10242e-01,-3.48610e-01,-1.70110e-01,-1.61013e-01,-2.66880e-01,-2.18631e-01,4.19017e-01,2.96521e-01,3.51761e-01,-1.28412e-01,9.07513e-02,-7.50573e-03,-7.91578e-01,1.85725e-01,4.37515e-01,-2.55466e-01,-4.82551e-01,
7.87441e-03,-2.38171e+00,-1.36352e-01,1.69214e-01,1.47100e-01,4.53071e-01,1.93877e-01,4.30217e-01,3.12765e-01,-5.39567e-02,-1.60924e-01,-3.74237e-01,9.77460e-02,9.19389e-02,-9.22496e-02,-1.03451e-01,-2.95875e-01,-3.56320e-01,-3.55883e-01,-3.01341e-01,8.86786e-02,1.98358e-01,-1.42836e-01,3.19156e-01,1.27454e-01,-8.90106e-01,-6.76732e-01,4.93618e-02,6.13705e-01,4.31141e-01,
-2.89620e-01,-2.33235e-01,2.08525e-01,2.92064e-01,3.37714e-01,-9.47116e-02,-6.60832e-01,-2.05513e-01,3.14014e-01,3.37010e-01,-1.10256e+00,-5.83428e-01,-1.16756e+00,-3.87779e-02,8.61330e-02,-9.92238e-02,-1.45019e-01,6.01494e-02,3.24739e-01,-4.02516e-01,-1.76697e-01,4.33410e-01,9.14949e-02,3.41108e-01,3.78639e-01,-4.69326e-01,2.94792e-02,-2.13007e-01,5.34533e-01,-3.54433e-01,
2.32044e-01,4.29280e-01,1.62712e-01,-6.97827e-03,-2.76892e-01,-3.84203e-01,-4.45931e-02,7.25813e-01,1.10708e-01,-1.98075e-02,-1.34305e-01,-6.27552e-02,3.65776e-02,-8.03510e-01,-7.08523e-01,-5.55071e-02,1.74891e-01,-3.83627e-01,-3.92687e-02,5.60756e-02,-3.87025e-01,-1.73967e-01,-1.18564e-01,-1.74697e-02,1.76486e-02,4.67104e-01,-1.98780e-01,7.40209e-02,-3.95649e-01,7.66707e-01,
3.18561e-01,-7.92472e-02,1.79286e-01,1.12499e-01,-3.86829e-01,-9.67965e-01,-9.87063e-02,1.46205e-01,4.82952e-02,-3.28893e-01,1.07192e-01,3.54360e-01,-2.35341e-01,-1.54114e-01,4.00595e-01,-2.08828e-01,5.68449e-02,-3.94132e-01,1.08156e-02,4.11977e-01,1.59240e-01,1.36491e-02,8.18729e-02,-4.36231e-01,-8.22422e-01,-1.63663e-01,-1.98963e-01,2.84233e-01,-1.38350e+00,-7.45703e-04,
4.27588e-02,
7.70124e-02,
-9.14839e-02,
-4.71097e-01,
1.46635e-01,
-1.55303e-01,
1.67197e-01,
-2.37770e-01,
-4.23306e-02,
1.23014e-01,
3.22727e-02,
-1.80735e-01,
7.91445e-02,
-1.69276e-01,
2.60305e-01,
-1.52118e-02,
1.47788e-01,
-1.04996e-01,
3.53118e-02,
-1.70877e-01,
-2.17271e-01,
-1.26752e-01,
9.63300e-02,
1.04624e-01,
-6.57250e-02,
-2.27558e-01,
1.87867e-01,
-7.25261e-02,
2.85759e-01,
-1.86577e-01,
-1.93401e-01,-6.33731e-01,2.20202e-01,-2.97841e-01,-3.00959e-02,1.73547e-02,2.64907e-01,-2.67281e-02,2.68008e-01,-1.12296e-01,-1.24817e-02,8.25082e-02,-5.11258e-01,-3.19125e-01,3.67185e-01,2.52792e-01,-2.10282e-02,-1.47626e-01,5.75090e-02,-2.64788e-01,-2.69492e-01,-2.37829e-02,1.62904e-01,2.74506e-01,-1.51416e+00,-1.47807e-01,5.22933e-01,-2.36815e-02,2.57474e-01,1.63851e-01,
-1.79420e-01,-2.46183e-01,-1.76926e-01,-1.53131e-01,4.67831e-02,-2.26244e-01,8.17794e-02,3.46583e-02,5.53012e-01,6.96856e-02,-1.51094e-01,-9.44112e-02,2.66331e-01,1.20992e-01,3.27150e-01,-1.24701e-02,-1.74692e-01,-5.00871e-02,5.52129e-02,-5.98707e-03,-3.38564e-02,2.90847e-01,2.52512e-01,-1.00192e-01,-1.81123e-02,1.17947e-02,3.23983e-02,2.27787e-01,1.93684e-01,-7.93158e-01,
-4.46028e-01,7.94918e-02,-1.53755e-01,-6.38786e-01,-3.63385e-01,-1.10872e-01,2.15787e-01,-2.08698e-01,1.75192e-01,3.81483e-01,2.43722e-01,-6.08065e-01,-6.74593e-02,7.06159e-01,3.67108e-01,-5.18252e-01,-2.88892e-01,-3.78779e-02,-4.47220e-01,4.17822e-01,-2.20628e-01,3.18053e-01,-1.02542e-01,2.39557e-01,1.01300e-01,-5.39215e-01,-3.14418e-01,2.95817e-01,3.57830e-01,-2.54726e-02,
-3.59724e-01,-7.36016e-02,3.17173e-01,-5.70023e-01,5.43334e-01,-6.29410e-01,6.29793e-02,-7.89595e-01,4.73056e-01,-7.13247e-03,-5.33861e-01,-2.65222e-01,-8.38805e-01,-6.40305e-01,-1.58483e-02,-6.57134e-01,-4.14802e-01,-2.78368e-01,3.43119e-01,1.90871e-01,-3.12540e-01,-3.84959e-02,-2.14199e-01,3.79945e-01,-2.61684e+00,-2.02398e-01,3.09578e-01,-5.03327e-01,-2.31888e-01,-1.23659e+00,
-3.38825e-01,3.94171e-01,3.92086e-01,-4.74122e-01,2.26001e-01,1.20989e-01,1.70651e-01,-1.08565e+00,6.78736e-02,-1.97225e-01,-9.54226e-02,-8.50357e-03,-4.25466e-01,2.96632e-01,-6.65102e-02,-2.38555e-01,-1.10726e-01,8.37751e-02,-1.22071e-01,-8.08799e-02,-2.61212e-01,-1.31497e-01,-5.86092e-02,1.73298e-01,2.89552e-01,-1.87296e-01,1.13004e-01,-2.01823e-01,-1.04362e-01,-2.69328e-01,
1.48061e-01,-1.36176e-01,5.87505e-02,-2.60728e-01,1.63983e-01,-2.90084e-01,3.02509e-01,1.00179e-01,1.36879e-01,1.59632e-01,3.85551e-01,-1.10847e-01,5.58506e-01,1.95225e-01,-2.05111e-01,3.70831e-01,-1.77880e-01,-1.47005e+00,-9.87781e-02,6.34608e-02,5.69761e-02,-3.52959e-01,-5.85386e-02,-2.03848e-01,7.91791e-02,-4.06402e-01,-2.26359e-01,-9.39290e-01,-3.91453e-02,-4.80595e-01,
2.02572e-01,-7.95669e-02,8.05742e-01,-8.49486e-01,-1.20270e-01,2.11422e-01,-1.75967e-01,-6.34096e-01,3.39622e-01,4.97867e-01,3.53060e-02,-5.89799e-01,6.10246e-02,-7.61005e-01,3.59388e-02,-4.45662e-01,-4.13492e-02,-1.15116e-01,-2.12051e-01,5.33058e-01,2.08362e-01,-3.36074e-01,5.27570e-03,-1.20307e-01,-6.19206e-01,-8.81474e-01,7.69632e-02,2.60085e-02,3.54426e-01,-3.41980e-01,
-1.08719e-01,-2.21051e-01,2.14166e-01,1.94625e-01,2.69244e-01,-1.97812e-02,-1.12446e-01,-1.88088e-01,5.23931e-01,1.50594e-01,2.21096e-02,-2.41087e-02,-4.94698e-01,-2.31013e-01,3.95489e-01,-1.13038e-01,-1.53849e-02,-9.90174e-02,-1.17377e-01,1.93758e-01,2.58766e-01,1.92207e-01,-6.11680e-02,8.35037e-02,5.15930e-01,-4.64314e-01,1.74517e-01,-4.08532e-01,1.56020e-01,-9.77931e-02,
-7.54399e-01,-4.21067e-02,-2.79587e-01,-5.44912e-01,2.11459e-01,-2.48095e-01,-9.26945e-02,-2.28246e-01,2.16308e-01,1.61498e-01,-4.97727e-02,-5.70092e-01,-1.18005e-01,7.57184e-01,1.70041e-01,-9.47919e-01,2.65615e-01,5.64196e-01,-1.36604e-01,5.23029e-02,-1.77470e-01,6.32382e-01,-2.13739e-02,3.43099e-02,1.08578e+00,-2.83982e-02,-2.64437e-01,4.78484e-01,1.95134e-02,-3.46024e-01,
3.77135e-01,5.57408e-02,-4.84708e-01,2.51761e-01,-3.93738e-01,4.25536e-01,-2.86673e-01,2.53325e-01,-6.25678e-01,-2.27668e-01,-1.94390e-01,3.89865e-01,-7.03383e-02,-4.13953e-02,2.75561e-01,1.18812e-01,-3.63588e-01,-5.77912e-02,1.51251e-01,-2.09425e-01,-2.39304e-01,3.15878e-01,-5.18418e-01,6.94236e-02,-3.38154e-01,-3.34735e-01,1.41546e-01,-1.10789e-01,2.41477e-02,-2.55134e-01,
1.43438e-01,-1.30808e-01,-2.32519e-01,-1.06659e-01,-2.33600e-01,9.08656e-02,-1.73320e-01,-1.58441e-01,-2.85490e-01,-3.09425e-01,-2.74080e-01,-3.04803e-01,2.54357e-01,2.30557e-01,-2.69378e-01,1.79158e-01,-2.93135e-01,-2.67693e-01,-1.72843e-01,2.33116e-01,6.42461e-02,9.38936e-02,9.08801e-02,6.66921e-02,-2.73632e-01,-2.02220e-01,-1.69335e-01,2.49992e-01,2.44158e-01,-1.26224e-02,
-9.55496e-02,-1.85064e-01,-1.48643e-01,8.45447e-02,7.77848e-02,-1.31296e-01,4.73166e-02,-8.33538e-02,9.05743e-02,-8.77007e-02,-1.68422e-01,1.45445e-01,2.09153e-04,1.52847e-01,-3.35365e-02,2.18051e-01,-3.44022e-01,-4.65817e-03,-2.83812e-01,1.43270e-01,-2.47099e-01,1.17235e-01,-3.72741e-02,-8.13959e-02,1.51997e-01,-1.27673e-01,-1.70452e-01,-4.81482e-02,-1.90325e-01,-2.66045e-01,
2.91676e-01,-1.15562e-01,-1.90739e-01,1.37801e-01,2.39316e-01,9.94157e-02,-3.18821e-01,-2.98749e-01,1.85471e-01,1.15220e-01,-2.91606e-01,-1.95616e-01,2.50750e-01,-3.21220e-01,-1.73434e-01,3.03604e-01,-1.09934e-01,2.28172e-02,-2.46768e-01,-1.34872e-01,-1.58862e-01,-2.27247e-01,-9.58227e-02,8.80502e-02,-2.22580e-01,-1.56578e-01,2.61105e-01,-1.49963e-01,2.19524e-01,1.64987e-01,
-6.66575e-02,3.93718e-04,-1.14096e-02,-1.67852e-01,-7.97471e-03,-5.85222e-02,-1.43762e-01,4.40334e-02,6.61629e-02,-5.95053e-02,-1.81002e-01,-2.39680e-02,5.65155e-02,-2.11537e-01,-2.77628e-01,3.00287e-01,-2.35710e-01,4.52894e-03,1.25510e-03,-3.10977e-01,-1.33724e-01,2.41121e-01,-1.66544e-01,-2.22173e-01,-1.22780e-02,-2.79405e-01,-4.28335e-02,-1.39722e-01,2.76078e-01,2.40868e-01,
-5.04431e-01,-2.95943e-02,5.29750e-02,-1.29644e-01,1.53104e-02,1.29593e-02,5.35263e-03,-4.47391e-02,3.82804e-02,-4.10920e-01,-1.86698e-01,1.95166e-01,9.69512e-01,7.84776e-02,9.66071e-02,3.32533e-01,5.13409e-01,-8.64928e-02,2.76229e-01,1.81567e-01,-1.65802e-01,3.60235e-01,4.18756e-01,3.56408e-01,5.09771e-01,2.04093e-01,4.42980e-01,6.19681e-01,2.06011e-01,-8.39015e-01,
-1.53914e-01,-2.65059e-01,-1.23899e-02,-1.86945e-01,3.00052e-01,2.10497e-01,-2.85916e-01,-5.75097e-02,-1.82155e-01,-2.91499e-02,-3.91361e-02,6.81311e-03,-2.26713e-01,-1.66423e-01,-2.53074e-01,8.98187e-02,1.38454e-01,-1.60242e-01,3.06154e-01,-1.65154e-01,-1.20922e-01,-1.60121e-01,1.17315e-01,-1.86349e-01,5.77954e-02,9.46645e-02,1.42883e-01,-1.05811e-02,-1.67058e-01,-1.01703e-01,
-3.86216e-01,-3.90924e-01,2.94617e-01,-7.21814e-01,1.27955e-01,1.40658e-01,-8.10456e-02,3.72803e-01,-3.05145e-01,-4.23732e-01,-1.74709e-01,2.66773e-01,-4.62066e-01,-4.55856e-01,4.12957e-01,-3.60057e-02,-2.79910e-01,-2.98168e-01,6.04478e-01,1.67715e-01,-2.18289e-01,-2.07152e-02,2.49889e-01,-4.12722e-01,-2.31862e-01,-1.38598e+00,-3.56415e-01,-1.73945e-02,-1.51097e-02,-8.65325e-03,
7.33532e-01,-2.17919e-01,1.63589e-01,1.87475e-01,-1.78869e-01,-1.72067e-01,2.14484e-01,4.13906e-01,-2.74394e-01,3.41506e-01,2.98385e-01,-2.12081e-01,4.70853e-01,-2.73022e-01,-1.75995e-01,3.47323e-01,1.48538e-01,-2.31153e-01,-2.88526e-01,-1.35375e-01,-1.59755e-01,7.17943e-02,1.73043e-01,9.62605e-02,-8.27819e-02,-4.39954e-01,4.18432e-02,4.99208e-03,-1.50081e-01,-1.80742e-01,
3.11247e-01,1.03150e-01,2.63178e-01,3.81561e-01,-2.19431e-01,1.74209e-01,-1.48517e-01,2.34823e-01,-2.66202e-01,-2.37188e-01,-1.75923e-01,1.26922e-01,-2.28869e-01,-3.87664e-01,1.20608e-01,-7.98237e-02,3.88533e-01,-2.70318e-01,-1.31501e-01,-3.49762e-01,-2.76462e-01,3.58912e-01,1.53061e-01,2.45606e-01,1.82071e-01,3.00793e-01,3.10906e-01,-3.67794e-01,-1.96120e-01,5.53387e-01,
-5.50862e-03,-2.93785e-03,2.62772e-01,3.34950e-01,-1.48577e-03,1.07958e-01,-8.22726e-02,5.75953e-03,5.77011e-02,-2.22845e-01,-1.50891e-01,5.31890e-02,-1.69480e-02,-2.69138e-01,5.27576e-02,-4.68769e-02,2.34165e-01,9.57097e-02,-5.06886e-02,-2.65449e-01,5.73186e-02,4.71162e-03,-1.09458e-02,7.09913e-02,-1.25827e-01,2.47610e-01,1.04110e-01,9.44521e-03,-3.78734e-04,5.20185e-02,
-7.57903e-03,-1.16637e-01,-7.03518e-02,-2.12118e-01,1.65083e-01,-5.19485e-02,2.39524e-01,9.37664e-02,-1.03687e-01,2.41982e-01,8.57862e-02,-1.11837e-01,-5.23817e-02,2.98353e-01,-3.96402e-01,4.30905e-02,-2.09180e-01,-3.84657e-01,2.61010e-01,1.66105e-01,8.32551e-02,1.54533e-01,2.62607e-01,-2.10687e-01,-9.79493e-02,-6.81834e-02,-2.75667e-01,-5.80061e-02,-1.92704e-02,-2.86725e-01,
-5.98174e-02,2.45366e-02,1.04784e-01,-1.78520e-01,-7.99449e-02,1.07858e-01,-2.58726e-01,-5.39594e-01,4.16177e-01,-2.33117e-01,4.32992e-02,-1.81766e-02,-7.21378e-02,-2.68968e-02,3.34916e-01,-1.45075e-01,1.45286e-01,-8.46324e-02,-3.40874e-01,9.06610e-03,-2.27908e-01,4.88181e-02,-1.17544e-01,3.06115e-01,-8.60965e-01,-2.71665e-01,1.30502e-01,3.06984e-01,2.91732e-01,2.83700e-01,
1.39167e-01,6.09078e-01,-2.90617e-02,-8.18823e-01,9.20744e-02,2.30812e-01,3.04889e-01,-3.40116e-01,-3.55032e-01,-1.43350e-01,1.43031e-01,1.31747e-01,1.45912e-01,6.27262e-01,1.12945e-02,-1.53856e-01,1.19257e-01,-4.94527e-01,-1.93100e-01,2.50855e-01,2.28506e-01,-4.23779e-01,-2.22738e-01,-2.21836e-01,1.14021e-01,-3.18568e-01,-1.42927e-01,5.87482e-01,-5.00755e-01,-3.10439e-01,
3.72547e-01,1.28345e-01,-3.89829e-01,-6.54257e-01,-1.16593e-01,1.08804e-01,-2.63421e-01,-2.66482e-01,1.90074e-02,-5.04264e-02,2.21431e-01,1.21568e-01,4.62661e-01,3.54226e-02,-2.41071e-01,-8.30360e-02,-4.65134e-01,1.39784e-01,-4.84763e-01,7.55456e-02,2.37505e-01,-5.79497e-01,-3.76847e-02,2.17187e-01,3.45258e-01,-5.32255e-01,3.23758e-01,-7.52598e-02,1.24367e-01,-8.73835e-02,
3.91860e-01,2.13207e-01,1.33672e-01,-6.62282e-02,1.75922e-01,1.32075e-01,-1.27402e-01,-2.67325e-01,3.32939e-03,2.89915e-01,-1.31748e-01,7.71303e-01,2.92506e-02,-7.10819e-01,2.07225e-01,-1.79622e-01,-8.21550e-03,2.80082e-01,-1.78502e-01,8.80233e-02,-1.62442e-01,-4.06073e-01,-1.12598e-01,-1.06298e-01,-7.04430e-01,-5.33211e-01,1.36580e-02,-1.52502e-01,-2.50701e-01,-2.59120e-01,
-2.09389e-02,2.60138e-01,-5.75941e-02,1.44148e-02,-7.72825e-02,1.64481e-02,-5.68752e-01,9.36039e-02,2.30271e-01,-3.61306e-01,1.70137e-01,4.88071e-01,1.94905e-01,-3.81565e-01,4.84567e-01,1.39171e-01,-3.01392e-01,-8.01126e-02,-3.31659e-01,1.70800e-01,3.07124e-01,4.91784e-02,1.79119e-02,6.43109e-03,7.84506e-02,-1.47413e-01,9.96179e-02,2.29995e-02,-3.93692e-01,-1.31031e-01,
-1.20525e-01,-1.84766e-01,1.99170e-01,-1.05056e-01,2.21430e-01,2.90381e-02,2.88989e-03,6.21911e-02,1.84924e-02,-3.46125e-01,-1.37341e-01,-4.51254e-02,6.63779e-02,-1.32090e-01,-2.93164e-01,-2.82264e-01,2.07852e-01,9.74913e-02,2.67165e-02,3.44167e-02,-1.00592e-01,-1.72451e-01,1.17946e-01,-2.11850e-01,1.95672e-01,2.66376e-01,-1.45718e-01,-2.11618e-01,9.80144e-02,2.95952e-01,
2.14142e-01,5.29930e-02,-2.26466e-02,-5.49768e-01,1.77927e-01,-1.22239e-01,-5.25408e-01,-8.77336e-01,5.01877e-01,2.95342e-01,-4.61465e-02,3.92611e-01,-1.50128e+00,-2.22822e-01,2.28254e-01,-1.87389e-01,-2.72343e-01,-2.13190e-01,-1.26923e-02,-2.39401e-01,-4.92158e-02,-1.06534e-01,2.90597e-01,2.47108e-01,-1.25625e+00,-3.84621e-01,9.32085e-02,2.03949e-01,-1.29596e-01,-1.61521e+00,
-3.22810e-01,3.12384e-01,-5.33868e-01,-4.12861e-01,1.97416e-01,-2.57752e-01,3.86779e-01,2.43306e-02,3.30984e-01,-9.10343e-02,-2.24114e-01,4.85531e-02,-1.04145e-01,4.01682e-01,-2.60458e-02,-3.75435e-01,2.53843e-01,5.80816e-01,-1.35604e-01,5.13196e-03,2.43096e-01,1.17961e-01,1.29409e-01,-3.46749e-01,-1.57560e-01,-1.25045e-01,-1.24074e-01,1.69703e-01,1.91269e-01,-9.75576e-02,
-1.70873e-01,1.64772e-03,3.34591e-01,-2.35506e-01,6.13387e-01,-1.35428e-01,5.51433e-02,-7.82045e-01,3.99394e-01,2.78467e-01,-9.28580e-02,-3.54462e-02,-2.85867e-01,-3.57115e-02,1.41799e-01,-5.71590e-01,8.37647e-02,-1.40104e-01,4.33350e-02,-5.95793e-02,2.10537e-01,2.47016e-01,-2.49268e-01,-1.42462e-02,4.03971e-01,-1.15822e-01,1.17730e-01,-3.62762e-01,-1.01552e-01,-3.64445e-01,
-1.57188e-02,
8.85445e-02,
-1.38438e-01,
2.01733e-01,
1.12529e-01,
6.67432e-02,
-9.44670e-02,
-3.82300e-02,
4.45426e-02,
3.14974e-01,
-1.79261e-01,
-3.14109e-01,
-3.03875e-01,
-2.89026e-01,
-2.64006e-01,
-2.79228e-01,
1.33334e-01,
-7.77446e-02,
1.70266e-01,
1.60588e-01,
1.70259e-01,
-9.62033e-02,
-2.73371e-01,
1.54372e-01,
-1.44621e-02,
-1.06541e-01,
-1.58014e-01,
7.83170e-02,
4.79504e-02,
9.68033e-03,
2.75185e-01,1.31556e-01,-2.37303e-01,-3.28510e-01,6.17598e-02,-2.22042e-01,8.10278e-02,1.57931e-02,1.17239e-01,-1.34602e-01,7.71288e-02,2.91898e-01,7.54840e-02,-2.37010e-01,-2.77951e-01,2.95339e-01,2.61623e-01,-9.98348e-02,9.84722e-02,-8.57900e-02,-1.77807e-01,5.46301e-02,7.73255e-02,-1.39290e-01,-7.18997e-02,2.72630e-01,-8.25103e-02,1.76777e-01,-2.15720e-01,-2.12898e-01,
7.71533e-03,1.09409e-01,5.63197e-02,-8.53855e-02,-1.59385e-02,1.27106e-01,3.01336e-03,-1.11051e-01,-1.88525e-03,-1.85872e-02,1.93118e-02,-7.43173e-02,1.35261e-02,-1.80417e-01,2.64000e-02,-2.92357e-01,-4.23718e-02,-5.38906e-02,8.68131e-02,-4.03830e-02,7.65108e-02,-5.23391e-01,-1.95540e-02,4.90317e-02,4.41331e-02,-1.29605e+00,-1.64981e-01,2.58726e-02,1.29829e-02,9.74858e-02,
-1.30939e-01,-1.31029e-01,3.96743e-01,2.25738e-01,-6.54431e-02,4.12197e-01,1.86265e-02,-2.13163e-01,2.75076e-01,3.54949e-01,-6.66937e-02,1.38348e-02,2.71954e-01,-1.72216e-01,3.77386e-01,-2.89414e-01,-2.53706e-01,2.42806e-01,-8.83161e-02,1.89306e-01,2.47542e-01,6.61269e-02,-3.92864e-01,1.86166e-01,3.20225e-02,2.47220e-01,-2.82197e-01,-2.49214e-01,-5.16984e-03,1.10056e-01,
1.18174e-01,9.76197e-02,-7.24143e-02,1.34607e-01,-7.89808e-03,-2.62413e-01,-1.34828e-01,1.04939e-01,-2.02231e-01,-6.85980e-02,4.49431e-02,-6.69290e-02,8.13526e-02,1.93746e-02,-1.60834e-02,2.05790e-01,4.05393e-01,8.36542e-02,-1.59965e-01,-1.67711e-01,-1.23955e-01,2.47913e-01,1.26496e-01,-6.06723e-02,-9.90893e-02,5.25683e-01,1.81848e-01,-4.45425e-03,1.13119e-01,1.43999e-01,
3.29750e-03,-9.35617e-02,1.70900e-01,1.89811e-01,-3.29064e-01,-1.55632e-01,1.54147e-01,1.74602e-01,1.99584e-01,5.24869e-02,-8.82567e-02,2.65686e-01,1.81256e-01,-1.29363e-01,-2.07602e-01,-1.42705e-01,-2.62785e-01,7.38934e-02,-4.98301e-02,1.56899e-01,-2.88397e-01,2.62314e-01,-3.39210e-02,-7.93198e-02,-1.81322e-01,-1.82001e-01,2.91111e-01,-2.00356e-02,-1.84349e-01,-2.75900e-01,
-3.50261e-02,6.14781e-02,-1.38318e-01,-1.70453e-01,1.73982e-01,2.86490e-01,1.10954e-01,5.64499e-02,1.44955e-01,-5.84936e-02,-1.38575e-01,-1.57011e-01,-2.51452e-01,-5.62203e-03,-5.82844e-02,4.39251e-02,1.13662e-01,-2.26932e-01,1.97484e-01,-2.39009e-01,-1.48693e-01,9.88019e-02,4.90581e-02,-1.92336e-01,-2.24043e-01,3.17913e-01,-3.65116e-02,2.27998e-01,-1.49106e-01,-1.63743e-01,
2.88707e-01,1.48120e-01,-7.91223e-01,-6.26522e-01,-8.34809e-02,-4.70204e-01,2.01293e-01,3.13930e-01,-2.40225e-01,-4.96757e-02,2.76853e-01,-2.57179e-01,-2.79256e-01,-3.51572e-03,-6.64405e-01,2.34541e-01,2.04908e-01,-4.39440e-01,1.31717e-01,-7.73061e-02,2.51010e-01,2.27799e-01,5.65521e-01,-5.41991e-01,-2.39830e-01,-3.21436e-01,5.36567e-02,1.94168e-01,1.28879e-01,1.87784e-01,
1.26378e-01,9.02938e-02,4.62201e-01,-1.75628e-01,6.59586e-02,2.80784e-01,2.95632e-02,-2.53032e-01,1.78868e-01,2.16042e-01,-2.70025e-01,-1.11789e-01,5.90307e-02,1.00398e-01,2.17580e-01,6.41836e-02,-1.74330e-01,-4.51766e-02,2.14309e-01,1.42645e-01,3.25006e-01,8.71618e-02,-1.05743e-01,1.14029e-01,5.17322e-03,9.62366e-02,1.45746e-01,-2.41980e-02,-1.14562e-01,-1.43209e-01,
1.25728e-01,4.93042e-02,-4.76187e-02,-1.76113e-01,2.86093e-02,-1.45625e-01,2.13547e-02,1.57337e-02,-6.88646e-02,-5.05798e-02,2.84508e-01,8.39967e-02,-1.06323e-01,-2.62882e-01,-7.35231e-02,2.90337e-01,2.13539e-01,4.13948e-03,6.98412e-02,1.04343e-01,-3.02626e-02,6.47907e-04,6.91578e-02,-6.96768e-02,2.76409e-04,-1.42904e-01,5.05848e-03,4.54895e-02,4.40444e-02,-1.06932e-01,
-1.85008e-01,-1.70299e-01,-1.46459e-01,1.75969e-01,1.84676e-01,-8.22570e-02,-1.35752e-01,-2.28826e-01,-2.50207e-01,2.60602e-02,1.90029e-01,-8.02740e-02,-2.21298e-01,-2.63954e-01,-2.02254e-01,8.22330e-02,7.60415e-02,9.30133e-02,-2.05923e-01,-3.33033e-01,-2.61059e-01,-2.46877e-02,8.48269e-02,-2.61686e-01,2.03346e-01,-1.55657e-01,1.01349e-01,2.09092e-01,-1.66466e-01,-2.45550e-01,
9.62623e-02,-1.95256e-01,-3.47597e-01,-1.51347e-01,7.32398e-02,-2.46985e-01,1.84824e-01,1.70232e-01,-1.01370e-03,8.54014e-02,3.00142e-01,-1.11575e-01,2.70803e-01,-2.26867e-01,-1.95713e-01,1.86910e-01,4.62284e-02,1.68012e-01,-7.66868e-02,-1.79701e-01,-9.39683e-02,-8.12320e-02,6.75415e-02,-3.31311e-01,-1.71534e-01,-6.70027e-03,-2.93358e-01,2.40638e-01,1.06738e-01,5.71899e-03,
1.64242e-01,9.43391e-02,1.84587e-02,-2.32556e-01,3.86149e-02,-6.89561e-02,8.79328e-02,-1.00007e-01,5.41771e-02,1.73314e-01,1.50233e-02,4.45358e-02,7.46989e-02,1.69295e-01,3.17632e-03,2.73402e-01,-2.93835e-01,-9.64759e-02,8.15614e-03,1.37100e-01,1.45355e-01,1.73905e-01,3.45347e-02,1.56647e-01,-6.75318e-02,8.50733e-02,-2.09365e-01,1.61494e-01,-2.09520e-01,3.09883e-02,
-1.55000e-02,1.37836e-01,1.67838e-01,-1.85622e-02,-3.31002e-03,1.62158e-01,-9.31390e-02,-4.41673e-02,-9.55332e-02,-1.17064e-01,-1.83841e-01,-1.81579e-01,9.32593e-02,-2.90004e-01,5.53203e-02,-4.97223e-02,4.67976e-01,1.81948e-02,-2.26580e-01,7.24855e-02,1.23252e-01,-5.26770e-01,1.34227e-01,7.75461e-02,9.02835e-02,9.30117e-01,-3.95181e-02,1.15241e-01,-6.84093e-02,-1.47069e-02,
-1.69906e-01,-3.41628e-01,-3.17666e-02,1.39337e-01,1.05001e-01,6.41105e-02,1.57397e-01,-1.86114e-01,-3.21062e-01,-3.19750e-03,-2.11166e-01,-2.23594e-01,-1.14652e-01,-2.80374e-01,-2.63274e-01,-2.84010e-01,9.41770e-02,-1.86253e-01,-3.99146e-01,-1.69712e-01,-3.39167e-01,-1.31947e-01,-1.90143e-01,-3.54736e-01,-7.79343e-02,-7.73756e-02,2.16171e-01,-3.20976e-01,-4.21000e-01,-5.74454e-02,
-3.51440e-02,1.53846e-01,-1.57132e-01,-1.63811e-02,-4.50341e-01,-3.44101e-02,-4.74379e-01,2.59560e-01,-5.47694e-01,-2.81626e-01,-8.09628e-02,-1.47335e-01,-1.85806e-01,7.17272e-02,7.92824e-02,8.22227e-02,4.27376e-01,-9.88177e-03,-4.98623e-01,5.75533e-02,-4.58802e-01,2.66906e-01,3.65360e-01,-8.26782e-02,6.24558e-03,-1.69817e-01,-1.97289e-02,2.22885e-01,-9.42066e-02,4.47977e-01,
-1.88576e-01,-6.99028e-02,-1.61251e-01,-1.21627e-01,-6.44862e-02,2.20275e-01,8.75768e-03,5.86315e-02,-1.94451e-02,-9.50649e-02,-1.18512e-01,-2.01005e-01,5.21375e-02,2.25418e-01,1.53984e-01,-1.05700e-01,1.30728e-01,4.82677e-02,1.44745e-01,-2.17000e-01,-1.67559e-01,-1.10415e-01,-1.21827e-01,-7.85405e-02,2.76948e-01,1.20476e-01,1.60454e-01,-4.51875e-02,8.83145e-02,8.08928e-02,
2.99037e-01,3.57589e-01,-5.28001e-01,-8.05620e-01,4.46415e-01,-2.11475e-01,3.62321e-01,-2.76139e-03,4.82387e-01,-1.16772e-01,2.26387e-02,2.70390e-01,1.85878e-01,-2.56435e-01,-5.99221e-01,1.69083e-01,4.20949e-02,-1.67442e-01,2.63761e-01,3.60254e-01,-3.89641e-02,-3.12426e-01,1.06124e-01,-1.90872e-01,2.36460e-01,-5.57882e-02,-3.01285e-01,4.64062e-01,-2.81489e-01,-6.52020e-01,
4.01040e-02,5.12571e-01,1.23826e-01,1.07846e-01,-1.71369e-02,-5.00804e-01,-3.84821e-01,1.30418e-01,-6.63746e-01,-4.17341e-01,2.46129e-01,1.33665e-01,1.54229e-01,-3.08056e-01,-3.04776e-01,-1.41831e-01,2.44434e-01,-1.26195e-01,1.71717e-02,2.70748e-01,-6.15663e-02,-9.30992e-02,3.29499e-01,-1.48503e-01,4.93005e-02,-2.29948e-01,-2.20474e-01,-1.13559e-01,3.83978e-01,2.49571e-01,
6.80709e-01,1.77187e-01,-3.38226e-01,1.60434e-01,-4.17160e-01,-1.75975e-01,-1.61431e-01,1.84756e-01,-4.04451e-01,-2.22498e-01,-1.95514e-01,-1.36849e-01,-7.62425e-02,-1.11288e-01,-3.18857e-01,2.77682e-01,2.60171e-01,-1.09980e-02,-2.13978e-01,4.97294e-02,-3.09618e-01,-1.16010e-01,9.14765e-01,-7.55245e-01,-3.58694e-01,5.51566e-01,8.90887e-02,-5.01975e-01,-2.75120e-01,8.83365e-02,
7.02497e-03,-9.54233e-02,-3.99220e-02,-3.29651e-01,-1.37012e-02,1.17742e-02,5.24104e-02,-1.95690e-02,8.41393e-02,1.62188e-02,2.36206e-01,1.12609e-01,-2.06379e-01,1.98754e-01,-5.96486e-02,1.42218e-01,-3.79025e-01,-5.90204e-02,-4.34155e-03,3.28959e-01,8.21470e-03,-3.07804e-02,-1.52679e-02,-4.78694e-02,-2.87849e-02,3.92217e-01,1.41449e-01,2.04771e-01,-6.28698e-02,-2.05072e-01,
1.21494e-01,5.32624e-01,3.47140e-01,-2.63342e-01,9.59655e-03,-4.13434e-01,-9.37697e-01,3.36276e-01,-6.58491e-01,1.31897e-01,-9.03741e-02,1.47519e-01,2.70483e-01,-1.91513e-01,-3.05770e-01,-2.47571e-01,-7.56293e-02,-8.44600e-01,-9.23921e-02,-2.28582e-01,-8.48998e-01,-3.39317e-01,4.58766e-01,-3.61850e-01,2.45853e-01,2.00164e-01,-1.19820e-01,6.74322e-03,2.95327e-01,2.67373e-01,
-1.16598e-01,-7.90272e-02,-1.40164e-02,3.77845e-01,1.55564e-01,-4.95938e-02,1.07553e-02,9.67317e-02,-4.53000e-02,-1.14377e-01,-8.24442e-02,1.46386e-01,1.17186e-01,2.20984e-01,-2.70023e-02,1.55735e-01,-1.49911e-01,1.09272e-01,4.42155e-02,-1.36951e-01,1.81195e-02,1.27129e-01,9.10059e-02,-1.27506e-01,-3.04608e-03,-1.42868e-02,-4.22251e-02,-1.15373e-01,1.51826e-01,-1.71883e-01,
-8.94315e-02,-9.10404e-02,4.17436e-01,4.82963e-01,-8.39254e-02,4.94073e-02,-1.26336e-01,-8.36645e-02,1.10030e-01,4.71530e-02,-2.52748e-01,2.26480e-01,3.60598e-02,-2.70429e-01,6.56988e-02,-2.03265e-01,2.71867e-02,4.68319e-02,-6.50612e-02,3.04094e-03,5.27200e-02,-1.24963e-01,-6.28383e-02,6.06841e-03,-1.01850e-01,2.68683e-02,2.03195e-02,-1.25271e-01,6.24405e-02,4.22805e-02,
-1.09720e-01,-1.09176e-01,-2.37599e-02,4.88007e-01,1.01273e-01,3.86608e-02,1.13290e-01,3.45575e-02,2.36430e-01,1.64634e-01,-1.59271e-01,1.04864e-01,2.81287e-02,1.14986e-02,-5.96171e-02,1.57314e-01,-3.67585e-01,-1.26498e-01,-1.19108e-01,-9.10553e-02,-1.67773e-02,1.12498e-01,2.97129e-02,6.08271e-02,-2.82210e-01,1.29058e-01,-6.96289e-02,1.74978e-01,-2.39583e-01,1.11844e-01,
2.16145e-01,2.65798e-01,-5.00692e-01,-5.29218e-01,-3.41988e-01,-1.91313e-01,-3.56743e-01,4.46352e-01,-1.43021e-02,-2.42565e-01,-2.75900e-01,-1.19870e-02,-3.59615e-02,7.53939e-02,-9.49942e-02,2.27240e-01,2.68612e-01,-3.19567e-01,-3.26884e-01,-1.64396e-01,-2.80065e-01,-9.47669e-02,5.86000e-01,-1.31763e-01,-1.12760e-02,4.43430e-01,-4.95721e-02,1.97747e-01,-4.34946e-01,1.10545e-01,
-3.01025e-01,-1.02038e-01,1.25310e-01,-6.39843e-02,-3.06819e-01,-1.46572e-01,-2.54371e-01,1.70090e-01,7.12512e-02,9.85351e-02,-1.65069e-01,-2.51241e-01,2.91008e-01,9.99835e-02,-2.28775e-01,2.86999e-01,-1.66820e-02,-3.30506e-02,3.40030e-02,-6.22063e-02,5.71953e-02,-3.43199e-03,-1.73487e-01,2.58470e-01,-2.35486e-01,1.79375e-01,1.89306e-01,-1.09794e-01,-3.55507e-01,-2.16991e-01,
3.50250e-01,1.32058e-01,2.55275e-01,2.83003e-01,-5.72663e-01,-6.69679e-01,3.12979e-01,-2.61231e-01,-4.49998e-02,-5.73190e-01,-3.15623e-01,-2.94948e-01,-1.83341e-01,-7.07652e-02,-3.33520e-01,-1.13342e-01,3.24758e-02,1.61344e-01,-4.36458e-01,-1.56760e-01,9.29582e-02,1.35965e-02,-7.31774e-01,4.14450e-02,-7.74478e-01,5.24189e-01,1.86587e-01,2.29027e-01,-5.68585e-02,-2.25273e-01,
-5.75360e-02,8.38843e-02,6.59007e-03,-1.95330e-01,-1.10501e-01,7.27386e-02,-2.01655e-01,5.30738e-02,-1.07490e-01,-2.16663e-01,1.40926e-01,-1.22515e-01,-3.08742e-01,-3.02412e-01,-6.37741e-02,-2.51213e-01,-1.71679e-01,-2.24863e-01,1.76311e-02,-2.76207e-01,-9.52760e-02,-6.79580e-02,1.10873e-01,-2.73156e-02,3.84641e-02,1.12240e-01,-4.58102e-02,-8.23758e-03,-2.91377e-02,1.55850e-02,
-6.25160e-01,3.19630e-02,-6.84594e-02,3.43884e-02,2.60431e-02,-4.41026e-01,-1.81962e-01,3.08060e-01,-1.70202e-01,-9.80226e-01,1.58483e-01,-2.96048e-01,2.68075e-01,-2.08798e-01,4.81574e-02,2.42475e-01,8.28063e-01,3.35631e-01,-4.39174e-01,2.06621e-01,-4.30812e-01,-1.96206e-01,2.55670e-01,-1.39911e-01,-2.64138e-01,-1.44298e+00,2.60367e-01,1.09077e-01,-8.50298e-02,-2.91965e-02,
-1.56647e-01,-6.02730e-02,-1.45896e-01,1.68951e-01,-3.49190e-03,3.42164e-01,1.03793e-01,-2.03741e-02,1.75921e-01,2.15005e-01,-3.59971e-02,3.58321e-03,2.30472e-02,-1.51215e-01,1.10302e-01,2.40333e-01,-2.04512e-01,4.42726e-02,-2.29746e-01,-3.00333e-02,7.37074e-02,-1.82109e-02,-2.15626e-01,1.65259e-01,-8.98385e-02,1.41222e-01,-1.80184e-01,-6.82332e-02,-1.44490e-01,2.36279e-01,
1.27690e-01,
-9.06430e-03,
-2.40898e-01,
9.20102e-02,
-2.17460e-01,
1.19363e-01,
7.30465e-02,
-1.52106e-01,
2.18547e-01,
-9.20001e-02,
-8.65389e-02,
3.65619e-02,
-1.62658e-02,
8.04043e-02,
3.00351e-02,
1.10513e-01,
-5.39007e-02,
2.74177e-02,
5.21444e-02,
5.20529e-02,
4.78790e-02,
7.34014e-02,
7.98809e-02,
1.03433e-01,
-1.43353e-02,
-2.20225e-01,
1.48910e-02,
2.31365e-01,
2.50522e-01,
1.28873e-01,
6.77315e-02,-8.48769e-02,1.98921e-01,3.01895e-02,2.06876e-01,7.33374e-02,2.58864e-01,-1.54443e-01,-8.45525e-02,-1.67696e-01,2.30004e-01,-4.47484e-03,5.80515e-02,-2.90609e-01,1.44386e-01,-8.44947e-02,-1.45556e-02,3.61895e-02,1.23016e-01,-7.61846e-02,6.46310e-02,-3.22902e-02,-1.41255e-01,5.20764e-02,2.23357e-01,-1.14921e-01,1.51358e-01,1.50495e-02,-4.57065e-02,-2.05259e-01,
9.20605e-02,6.24214e-02,1.62467e-01,4.99285e-02,1.96439e-01,3.11891e-02,1.70472e-01,-9.12495e-02,-1.28260e-01,-8.34838e-02,2.57512e-01,-1.19793e-01,4.78399e-02,1.79395e-01,1.72466e-01,-1.05313e-01,1.66256e-01,6.52289e-03,2.63845e-02,-8.89725e-04,6.10118e-02,-7.78130e-02,-1.94686e-01,8.75488e-02,2.69942e-01,-7.41610e-02,3.07638e-02,-1.68512e-02,-2.56035e-02,-2.09291e-01,
3.25299e-02,5.79850e-02,1.43378e-01,1.06045e-01,-1.84101e-01,-4.14303e-03,1.41838e-01,-9.55883e-02,3.24380e-01,-3.50969e-02,3.06156e-01,6.74607e-02,2.91654e-02,-8.10347e-02,1.97591e-01,2.93638e-02,8.60031e-04,2.15228e-01,1.30533e-02,-2.76051e-02,1.01109e-01,5.21877e-02,-1.74257e-02,8.85302e-02,2.46993e-01,5.31413e-02,2.59490e-02,1.01009e-01,-2.49193e-02,-3.12819e-02,
1.21859e-01,1.76188e-02,1.10450e-02,7.31217e-03,-7.59741e-02,4.77313e-02,2.34328e-01,-9.06192e-02,1.87750e-01,-1.11612e-01,-9.49463e-02,1.96844e-01,2.37424e-02,7.95520e-02,8.57973e-03,7.01179e-02,2.07531e-01,-1.03043e-02,1.59817e-01,1.55623e-02,1.99904e-02,6.16337e-02,1.48308e-01,-5.35357e-02,2.41096e-01,-1.63331e-01,1.32491e-01,3.37077e-03,-1.04190e-02,5.53490e-02,
1.10218e-02,-1.39734e-02,1.06702e-02,8.07729e-02,1.14723e-01,-9.07695e-03,8.00116e-02,2.62783e-02,-8.24938e-03,3.35751e-01,-2.48932e-01,-1.12481e-01,1.79591e-02,1.14137e-01,2.78121e-01,-2.84454e-02,-1.37071e-02,2.65688e-01,2.08855e-01,-3.48368e-02,1.49050e-01,-6.01136e-02,-6.99693e-02,4.76214e-02,9.23109e-02,7.81662e-02,1.80656e-01,-2.06537e-02,-1.36530e-03,-3.82361e-02,
7.03290e-02,
9.40977e-02,
-1.00744e-01,
-1.06733e-01,
1.52714e-02,
