// Neural Network File Format by Kyle Julian, Stanford 2016
6,5,5,30,
5,30,30,30,30,30,5,
0.000,
499.000000,-3.141600,-3.141600,100.000000,0.000000,
36656.000000,3.141600,3.141600,472.000000,1200.000000,
17688.500000,0.000000,0.000000,249.000000,532.000000,9.330048,
36157.000000,6.283200,6.283200,372.000000,1200.000000,423.773936,
4.47609e-01,-1.01098e-02,-1.49902e-02,3.36405e-02,-6.38697e-02,
-2.31655e-02,-2.48917e-01,1.35289e+00,6.37517e-02,1.70639e-01,
-8.21441e-02,5.57727e-01,6.10491e-01,8.49538e-02,7.62895e-02,
-1.10809e-01,-1.83384e-01,-2.27720e-01,-2.61114e-01,1.68563e-02,
-1.15781e-01,7.13703e-01,-8.25704e-01,1.23673e-01,-1.09939e-01,
1.28980e-01,3.65663e-01,-9.52140e-04,3.06084e-01,-2.24827e-01,
4.53966e-03,-8.13746e-01,8.64622e-01,-4.75004e-02,1.36601e-01,
2.40420e-01,-9.96469e-02,2.97551e-01,-2.16250e-01,3.72228e-01,
-8.82676e-01,-1.26925e-02,3.08481e-02,-1.90471e-02,1.39204e-01,
-1.00290e-01,3.35567e-01,4.80530e-03,-4.39275e-02,8.50279e-01,
-6.97161e-02,-9.08237e-01,7.97202e-01,-5.89990e-02,3.83995e-01,
-1.10293e-02,3.57221e-01,2.17143e-01,1.18118e-02,-7.91505e-01,
-9.16357e-02,-9.38835e-01,1.95009e-01,1.74163e-01,-1.79768e-01,
-2.25291e-02,-1.03071e-03,-2.25776e-01,1.87106e-02,6.92054e-01,
3.03842e-01,5.08307e-02,1.00094e-01,1.49267e-01,-1.27253e-01,
1.36685e-01,-3.91745e-01,-3.13912e-01,-8.01850e-03,1.05929e-01,
-1.61603e-02,4.99417e-01,-3.91395e-02,-1.69009e-01,7.47166e-01,
-1.06197e-02,-4.65087e-01,1.34963e-01,-1.92978e-01,7.48725e-01,
-3.78910e-02,9.15304e-01,-8.88464e-01,-3.65777e-03,4.19361e-01,
-5.83745e-01,-5.69900e-01,-1.14723e-01,1.85107e-01,7.39850e-02,
9.81113e-02,8.06294e-01,-8.11051e-01,-1.68488e-01,4.96340e-01,
1.05633e-01,-9.59778e-01,-3.24687e-01,2.87629e-01,-3.13545e-01,
-4.87347e-01,-6.31958e-02,3.24009e-03,2.91469e-01,-6.87069e-01,
-3.04959e-02,6.82947e-01,9.41495e-01,2.62826e-01,-2.50594e-01,
-9.83527e-01,-3.17705e-02,2.28040e-02,-2.79512e-03,4.43411e-02,
-3.79693e-01,-9.71534e-03,4.34415e-03,5.00673e-02,5.99455e-01,
3.66626e-02,-6.86379e-01,8.74558e-01,1.05907e-01,-1.25810e-01,
1.29187e-02,7.73896e-01,-6.98977e-01,3.43542e-02,-1.48622e-02,
3.91093e-02,-5.29837e-03,-5.60766e-02,2.51493e-03,7.09342e-01,
7.07203e-03,2.83374e-02,9.70127e-01,-2.20711e-02,-5.95486e-02,
-5.94240e-02,
1.47319e-01,
9.40067e-02,
9.09140e-03,
-1.33490e-01,
3.77510e-01,
-3.68946e-01,
3.77119e-01,
-1.08031e-01,
4.20264e-01,
-2.90894e-01,
-8.98690e-03,
2.56903e-01,
2.83898e-01,
6.45167e-02,
2.11055e-01,
2.31792e-01,
2.09104e-01,
-1.49127e-01,
-2.52226e-01,
-2.66766e-01,
-7.70465e-02,
-4.07202e-01,
-1.74177e-01,
-2.96081e-01,
1.12470e-01,
-2.66843e-01,
-3.33838e-01,
2.27535e-01,
-8.68046e-02,
2.45963e-01,7.32738e-02,-4.11700e-01,-6.70951e-02,-8.41222e-02,-1.62380e-01,6.70821e-01,-1.84945e-01,4.08572e-01,-3.33996e-01,-2.71931e-01,1.19190e-01,6.94488e-01,5.42738e-01,-2.42405e-01,2.50351e-01,2.22180e-01,-9.61101e-02,2.68247e-01,1.32729e-01,-4.45279e-01,8.08834e-02,1.46464e-01,-1.16698e-01,1.03000e+00,9.79282e-02,-1.93278e+00,-8.36719e-02,1.58194e-02,9.57261e-01,
3.56735e-01,6.57998e-01,-4.06051e-02,1.01656e-01,5.28254e-01,-2.75869e-01,-6.99062e-01,2.22070e-01,5.08383e-01,5.04295e-01,-1.26492e-01,-8.97380e-02,-8.86257e-02,-1.11435e-01,1.16987e-01,-6.76011e-02,-4.91765e-01,3.50354e-01,1.59934e-01,3.48456e-01,-2.31393e-01,-2.73080e-02,2.99043e-01,4.38211e-01,6.38505e-01,-1.97167e-01,-3.84632e-01,-5.91166e-01,-3.08639e-01,-1.51041e-01,
-2.06128e-01,-1.53953e-01,-4.75521e-02,-9.32913e-02,-5.76147e-02,1.67328e-01,-2.10371e-01,-2.54418e-02,-1.47595e-01,3.81258e-02,-2.33351e-02,-1.97372e-01,-2.44240e-01,1.30884e-01,-1.24235e-01,2.07546e-01,-2.74672e-01,-3.86083e-02,-9.54550e-02,2.14285e-01,2.26107e-01,-9.17856e-02,2.80615e-01,2.75359e-01,-1.50211e-01,-2.80002e-01,-2.89208e-01,1.79318e-01,-2.46689e-01,-2.70994e-01,
1.93894e-02,-3.18540e-01,-3.19404e-01,-1.58177e-01,-7.02523e-01,3.84526e-01,1.06361e+00,-9.26935e-02,-2.17694e-01,-5.00533e-02,-6.82033e-02,2.82102e-01,-2.81590e-01,1.56175e-02,-3.27394e-01,3.71691e-01,-4.38675e-02,4.16007e-02,-1.26780e-01,3.95793e-01,1.59723e-01,-1.49140e-01,-3.27579e-01,3.27916e-01,-4.64395e-01,-4.41913e-02,1.08826e+00,1.86538e+00,2.00615e-02,-2.86766e-01,
3.36345e-01,2.61547e-01,3.03078e-01,1.33361e-01,4.38261e-01,1.53778e-02,2.40386e-01,1.15525e-01,2.97551e-01,9.38421e-02,1.96174e-01,-3.46725e-01,7.04110e-02,-2.76158e-01,-5.53050e-01,-1.45891e-01,-1.08337e-01,2.79611e-01,-3.12497e-02,1.03465e-01,1.76351e-01,-1.63510e-02,-5.66753e-01,2.15795e-01,-9.07882e-01,4.94435e-01,-1.39863e+00,-8.92845e-01,-2.42077e-01,3.40276e-01,
-3.09106e-01,9.76670e-02,-4.53781e-02,-9.96773e-02,-7.61953e-01,1.89492e-01,-1.31474e+00,1.45910e-02,-3.84074e-02,2.66104e-01,1.00311e+00,-5.43363e-01,5.18831e-02,-1.30094e-01,2.46040e-01,3.75902e-02,2.53550e-01,-1.01747e-01,-4.46000e-01,4.05553e-01,3.03862e-01,-3.35652e-01,4.34815e-01,-5.70673e-01,-2.22941e-01,-2.00282e-01,6.56201e-01,1.32694e+00,-4.40178e-01,-1.71556e-01,
-2.51978e-01,1.23295e-01,3.82568e-02,-2.33072e-01,-2.96651e-01,-2.59279e-01,1.49193e+00,1.23516e-01,-7.05793e-01,-2.73754e-01,9.08791e-01,-8.67552e-02,-4.49806e-02,-2.23472e-01,3.97311e-01,-3.47241e-02,-3.67111e-01,2.57616e-01,4.37200e-01,2.30169e-01,1.33441e-01,-1.47816e-01,1.89185e-02,-2.07660e-01,-1.96919e+00,6.29612e-02,1.21600e+00,-2.08863e-01,1.28524e-01,-8.59105e-02,
-1.03612e-01,1.69032e-01,8.09118e-02,-1.52413e-01,2.05967e-01,-2.68973e-01,9.63919e-02,-1.77923e-02,1.36259e-01,-1.06678e-02,1.02378e-01,-2.95737e-01,-1.66248e-01,-2.42682e-01,5.30411e-02,-4.08441e-02,-5.65134e-02,1.44024e-01,1.48706e-01,-1.03143e-01,2.17163e-01,-1.98379e-01,2.31516e-01,1.29516e-01,-1.75697e-01,-5.12742e-02,1.18761e-01,1.18024e-01,5.34433e-02,-2.16293e-01,
-8.11628e-02,-9.90807e-02,-1.83401e-01,-3.01040e-01,-1.80619e-01,2.66558e-01,1.17772e+00,1.48404e-01,1.54996e-01,3.17300e-01,-6.56575e-01,-2.46560e-01,-5.35063e-01,-2.50906e-01,-1.31446e-01,3.16138e-02,-1.00823e-01,4.93857e-02,-3.59876e-01,3.06675e-01,-1.79108e-01,5.93601e-02,7.90440e-01,-6.25909e-01,1.45207e+00,2.51034e-01,8.02318e-01,1.95876e+00,-2.19066e-01,-4.23180e-01,
-3.98948e-04,6.80151e-02,5.31495e-01,4.13222e-01,-9.75249e-01,8.50505e-03,-2.26976e+00,5.72821e-01,1.12726e-01,3.26531e-01,-7.92027e-01,7.33881e-02,-4.57059e-01,1.73931e-01,-3.51545e-02,-8.98320e-02,1.40442e-02,-1.54773e-02,-5.68824e-01,-1.38510e-01,-7.29489e-01,3.19291e-02,4.67777e-01,7.10468e-01,-5.02456e-01,6.62536e-02,-2.60469e+00,-5.17738e+00,-1.69721e-01,-1.72624e-01,
-2.91466e-01,-1.16546e-01,2.28875e-01,2.80977e-01,-2.48220e-01,-1.45742e-01,-1.54642e-01,-1.96518e-01,-1.87344e-01,-1.50156e-01,-1.89068e-01,-2.84354e-01,-1.03700e-01,1.85736e-01,1.63856e-01,9.75777e-02,-1.81808e-01,2.39981e-01,-1.36123e-01,9.92408e-02,2.55287e-03,2.77353e-01,2.60667e-01,-1.78041e-01,2.79915e-01,-1.74227e-01,3.00071e-02,2.29702e-01,-9.03556e-02,2.88520e-01,
1.60472e-01,9.39663e-02,2.56376e-01,-1.40772e-01,-3.60589e-01,-2.47766e-01,-1.73923e-01,-9.08282e-02,1.71719e-02,2.86592e-01,-9.60920e-01,-1.55542e-01,2.01757e-01,-1.54303e-01,-2.66023e-02,1.29813e-02,6.09197e-01,-1.78331e-01,-4.98658e-01,-6.30401e-01,-4.88037e-01,-5.18030e-01,8.22964e-01,-4.40755e-01,-3.99134e-01,4.55338e-02,1.26298e+00,4.50566e-01,-1.13400e-01,-6.84389e-01,
3.39564e-02,4.54989e-02,-1.75875e-01,-2.19446e-01,-4.96433e-03,1.40775e-01,-7.86346e-01,-3.97454e-01,-2.95983e-02,1.89753e-01,7.57590e-01,-7.10403e-02,7.07809e-02,-3.86146e-01,-2.17799e-01,-1.79362e-01,-4.47638e-01,4.70615e-01,6.73205e-01,1.59588e-01,2.49694e-01,-4.86170e-01,-4.11175e-01,-2.98672e-01,6.09520e-01,-7.81628e-01,4.76272e-01,9.71040e-01,1.39715e-01,-1.09155e-01,
4.54011e-01,-2.70177e-01,1.44168e-01,1.16088e-01,2.68993e-01,5.11871e-01,5.37563e-01,-9.04206e-01,6.03579e-01,-3.44654e-01,-2.57352e-01,4.28472e-01,-1.75332e-01,2.48874e-02,-8.18682e-02,1.69971e-01,-2.77060e-01,-9.26423e-01,-1.01980e-01,-1.52964e-01,5.37178e-01,-6.88689e-01,-7.99107e-02,-2.51160e-01,8.63082e-01,-2.10531e-01,4.61452e-02,-1.39168e+00,6.16380e-01,2.95160e-01,
7.47243e-01,2.52623e-01,-2.63136e-02,1.49238e-02,4.72104e-01,-2.53836e-01,-6.62961e-01,-2.98432e-01,3.15857e-01,4.34599e-01,1.24051e+00,-3.93130e-01,2.10976e-01,-7.01960e-02,-7.07213e-01,-1.30026e-01,-2.20732e-01,-6.63288e-02,4.07169e-01,-2.79179e-01,4.29854e-01,-2.94903e-01,7.05684e-01,1.91836e-02,4.00800e-01,4.96747e-01,-5.18957e-01,-6.18297e-01,-4.00248e-01,4.09543e-01,
2.21447e-01,-3.81615e-01,1.47006e-01,-9.02732e-02,-4.51475e-01,9.19862e-02,5.18736e-01,-6.04286e-02,-2.43944e-02,1.95163e-01,-2.05086e-01,1.64306e-01,-2.75058e-01,1.32653e-01,-1.48160e-01,-4.08724e-01,2.84598e-01,-8.61089e-02,-8.68160e-01,2.00745e-02,-1.57665e-01,-3.37315e-02,-6.38506e-01,4.51082e-01,1.23060e-01,-5.20397e-02,8.09026e-01,6.59205e-01,-4.02275e-02,-4.87667e-01,
8.04647e-02,-1.05838e-01,-2.84280e-02,-1.98023e-01,2.04241e-01,3.88712e-01,1.05646e+00,9.14740e-02,3.28150e-01,1.70333e-01,5.94048e-01,8.52303e-03,8.58764e-02,2.09297e-02,-1.86103e-01,-2.35385e-01,8.87740e-02,-1.66880e-01,-3.33290e-02,-1.99482e-01,2.80207e-01,-2.60673e-01,-3.58648e-01,-7.28563e-02,1.05803e-01,7.84857e-02,2.06709e+00,2.11363e+00,-3.80985e-01,-5.40927e-01,
-1.29909e-01,4.35250e-01,-3.57245e-01,-4.48934e-01,-2.49964e-01,5.33025e-01,-1.24251e+00,-1.20482e-01,-2.79576e-01,-7.93898e-01,1.98022e-01,3.56819e-01,1.81848e-01,-4.29889e-01,-3.09219e-02,-1.11884e-01,-3.38790e-01,-4.69892e-01,1.07299e+00,5.64126e-01,2.08664e-01,-3.89714e-02,-7.17581e-02,-1.06041e-01,-1.03318e-01,4.38692e-02,5.56489e-02,-1.33863e+00,1.76316e-01,-5.83515e-01,
1.72614e-02,-1.47066e-01,1.94404e-01,-1.64105e-01,-1.60440e-01,-1.21034e-01,-2.70841e-01,-3.10942e-01,-3.27049e-02,1.60527e-01,2.35971e-01,8.15409e-02,-2.73695e-01,-1.66481e-01,-1.64539e-01,1.20062e-01,2.29360e-01,-1.57393e-01,-1.28312e-01,8.14075e-02,-1.76553e-02,1.33422e-01,-2.77530e-01,1.99509e-01,1.69520e-01,7.76606e-02,1.80600e-01,1.36166e-01,-1.33011e-01,8.03919e-02,
1.97118e-01,2.01599e-02,3.79512e-02,2.77763e-03,-1.40797e-01,2.67766e-01,6.81730e-01,1.48827e-01,-3.60393e-01,-3.54491e-02,1.62072e-01,2.58400e-01,-6.99661e-02,1.47355e-01,-5.66879e-02,-8.69119e-02,-1.64014e-01,-2.93874e-01,3.24922e-01,2.43266e-01,-4.76544e-01,-2.44770e-01,2.74322e-01,1.31596e-01,-6.72472e-01,2.03744e-01,-1.77248e+00,-2.39423e+00,1.53860e-01,3.22787e-01,
-2.57555e-01,7.42206e-03,-1.81854e-01,2.43984e-01,-6.85458e-02,-1.76760e-02,-1.49834e-01,-2.64952e-01,-2.95029e-01,-1.03971e-01,-3.09589e-01,-6.82670e-02,-3.48956e-02,9.91182e-02,-6.72891e-02,-2.08260e-01,-2.07444e-02,2.92350e-01,-6.72419e-02,-2.39367e-01,-2.94032e-01,-3.11551e-01,1.44910e-01,3.13838e-01,-7.07406e-03,3.84970e-02,-1.36583e-01,2.48813e-02,-1.05449e-01,3.10003e-01,
-9.53497e-02,-1.25892e+00,-1.47243e-01,1.56304e-01,-5.88037e-01,-2.63605e-01,-2.79460e+00,1.03858e-01,5.51280e-02,2.96034e-01,-6.41462e-01,-1.42019e-01,1.70424e-01,4.69827e-01,1.10845e-01,5.51947e-01,6.06452e-02,1.95164e-02,-1.05903e+00,1.09582e-01,-8.26831e-01,1.48235e-01,4.67843e-01,-4.34212e-01,-7.51403e-03,5.45737e-02,-2.23494e+00,-6.40472e+00,2.05500e-01,1.85383e+00,
5.40754e-02,-9.74177e-01,-1.61709e-01,4.89011e-02,-2.92508e-01,1.38320e-01,-1.32900e+00,1.78080e-01,6.44902e-02,6.69727e-01,-4.15714e-01,-4.20867e-01,2.04140e-01,4.35000e-01,3.10813e-02,1.57357e-01,-1.53668e-01,-7.52562e-01,-7.89460e-01,-1.11277e-01,-2.10393e-01,-1.09250e-01,-1.72183e-01,1.39526e-02,-6.27267e-01,2.23261e-01,-1.37054e+00,-6.06376e+00,-5.29304e-01,1.12491e+00,
-2.49684e-02,-6.65337e-01,-1.84664e-01,8.14263e-02,6.94082e-02,-2.14607e-01,1.46785e-02,2.03036e-01,1.69938e-01,5.72063e-01,-9.91214e-01,-5.99599e-01,-1.65628e-01,2.84299e-01,9.80419e-02,-1.59872e-01,1.22257e-01,9.26689e-02,-7.25601e-01,3.10904e-02,-3.10687e-01,3.07330e-01,1.16603e-01,3.69355e-01,3.73113e-02,-7.41272e-02,5.62722e-01,-2.16755e+00,-6.15346e-01,7.49833e-01,
1.68103e-01,5.66581e-01,-4.83373e-02,-1.11546e-01,7.74283e-01,4.74124e-01,-4.01325e-01,-2.28451e-01,4.69483e-01,6.13071e-01,-8.17176e-02,-2.48150e-01,-1.30910e-01,-3.16855e-01,7.37639e-02,-2.28144e-01,-5.31997e-01,6.21048e-02,2.43396e-01,-1.66644e-01,-2.38678e-01,-7.05611e-01,4.38929e-01,-9.72298e-02,5.51750e-01,1.67065e-01,-7.26090e-01,-1.19345e+00,-1.60115e-01,-2.18436e-01,
9.98734e-02,1.32921e-01,4.43868e-01,5.88762e-02,-1.50336e-01,5.55601e-01,-7.65144e-01,-7.11349e-02,-3.78760e-01,2.45179e-01,-1.76859e-01,9.68060e-03,-6.33336e-01,-6.19526e-01,-1.94680e-02,-3.53011e-01,-7.25350e-01,6.93694e-01,-5.71722e-01,-5.46207e-02,2.45065e-01,-3.23366e-01,-1.76054e-01,3.42754e-01,-2.90133e-01,-1.10088e-01,-8.94159e-01,4.67231e-01,4.79236e-01,-3.79380e-01,
-2.15420e-01,3.73537e-01,3.76887e-01,3.02620e-01,-8.50510e-02,1.84082e-01,-1.16139e+00,3.44633e-01,-1.09247e-01,5.48936e-01,2.92867e-01,-1.24934e-01,-1.44466e-01,-5.00911e-01,1.48657e-01,-4.15865e-01,-2.46552e-01,5.17579e-01,4.46758e-01,9.30197e-02,1.64218e-01,3.48083e-01,-3.92912e-01,7.15116e-02,1.26978e-01,-2.05316e-01,-1.59642e+00,4.35105e-01,-4.03130e-01,-4.42110e-01,
3.78201e-01,1.65283e-01,3.73290e-01,-1.25876e-01,-2.83580e-01,-2.23034e-02,-1.64786e-01,-2.15232e-01,7.26623e-01,4.07394e-01,-5.15383e-01,3.61267e-01,3.54380e-01,2.15081e-01,-3.65051e-01,-2.09266e-01,-1.71179e-01,-6.79542e-02,1.27561e-01,-6.89180e-02,1.10032e-01,3.06469e-01,3.88469e-01,2.85370e-01,8.95892e-01,-1.25244e-02,-1.03137e+00,-1.88566e+00,-9.69250e-02,-8.52080e-02,
-2.45017e-01,-5.41515e-02,-5.31625e-02,-4.86010e-01,-1.78810e-02,2.62430e-01,-5.36457e-02,-8.35213e-02,-2.72324e-01,1.05423e-02,-9.46045e-01,-1.44822e-01,1.73605e-01,1.04596e-02,6.94898e-01,3.68693e-01,-5.97095e-02,4.74655e-01,-3.53754e-01,1.11055e-01,-2.25674e-01,-2.82332e-02,4.85947e-01,-3.63050e-02,-1.69126e-01,8.34256e-01,2.53475e-01,8.22741e-01,-2.13746e-01,7.19710e-03,
-9.37505e-02,-7.24545e-01,-2.50674e-01,-8.34742e-02,4.02959e-02,-7.57946e-03,-8.57669e-02,-1.21191e-01,2.11704e-01,-2.03278e-01,7.17990e-02,1.01449e-01,-5.53781e-01,6.17996e-02,2.91262e-01,-9.56007e-02,4.98399e-01,-5.39954e-01,4.65408e-01,6.28119e-01,2.00485e-02,-1.15234e-01,8.11126e-01,-2.90962e-01,3.89467e-01,-2.11554e-02,-2.01169e+00,-2.94073e+00,-2.08688e-01,9.21128e-01,
6.08156e-02,
1.73907e-02,
-2.87617e-01,
2.03201e-01,
1.23929e-01,
1.71244e-01,
-3.42543e-01,
-2.22172e-01,
3.46103e-01,
8.62081e-03,
-2.98217e-01,
2.48963e-01,
2.70818e-01,
3.28532e-02,
-1.79852e-02,
3.54085e-01,
-2.16418e-01,
1.31927e-01,
-2.71380e-01,
1.65970e-01,
-2.54857e-01,
-3.17970e-02,
-6.24246e-02,
2.08411e-01,
-5.06152e-02,
1.89002e-01,
-6.08076e-02,
1.83375e-02,
1.61481e-01,
3.19565e-01,
1.24908e-01,3.19002e-01,-8.07072e-02,4.03343e-02,-3.74571e-01,-5.50298e-01,1.35885e-01,-2.84903e-01,1.75730e-01,7.79997e-01,5.22978e-02,3.83512e-01,-2.28758e-01,-7.59229e-01,8.19920e-02,-4.55283e-02,6.14239e-01,-6.00835e-01,-2.04659e-02,-3.91604e-02,-5.23448e-03,7.66613e-01,-2.19514e-01,3.95607e-01,1.29574e-02,-3.62785e-01,-2.04736e-01,-2.60254e-01,1.07729e-01,3.85503e-03,
-3.38493e-01,1.99985e-01,6.47489e-02,1.17049e-01,6.40020e-02,-1.30407e-01,-1.20309e-01,2.38075e-01,3.72483e-01,-8.58055e-03,1.55295e-01,1.86366e-01,-3.52337e-02,1.11664e+00,5.01008e-01,3.05664e-01,-2.80322e-01,-9.56802e-02,1.00535e-01,2.87683e-02,-2.98090e-01,7.04312e-02,-5.36745e-01,-3.94938e-01,5.63465e-01,5.11982e-01,3.48591e-01,3.74959e-01,-1.88510e-01,4.02176e-01,
-8.72086e-01,3.57016e-01,2.72537e-01,2.69653e-01,1.90141e-01,6.19229e-01,-5.58576e-01,-2.14867e-01,1.98060e-01,-7.65744e-02,9.91159e-02,5.46068e-01,2.05057e-01,7.07082e-01,-2.20037e-01,1.15223e-01,-1.26140e-01,-4.97162e-01,-1.13868e-01,-1.67303e-01,-2.41362e-02,4.08582e-01,1.36894e-01,3.21026e-01,-3.83412e-02,-5.71558e-02,-2.36136e-01,-1.79460e-01,1.63401e-01,-1.48948e-01,
9.38894e-02,-2.05547e-01,-1.30429e-01,1.21913e-01,-1.18116e-02,-9.71666e-02,1.11252e+00,2.00017e-01,8.33115e-02,4.82430e-01,1.45864e-02,-3.96140e-01,-2.73913e-01,-3.48948e-01,-3.24443e-01,-2.65692e-01,8.72545e-02,2.96457e-01,-3.09763e-01,1.16562e-02,-2.38960e-01,3.92955e-01,2.71250e-01,5.65246e-02,-4.91112e-02,-1.05967e-01,-2.17881e-01,-2.49284e-01,-1.82968e-01,9.69101e-02,
-4.35628e-01,2.63478e-01,2.99058e-01,4.45458e-01,-3.03602e-04,-9.43280e-02,4.16618e-01,2.09853e-01,1.82446e-01,7.91385e-01,1.95478e-01,1.50999e-02,3.68974e-01,1.03937e-01,4.03931e-01,2.16277e-01,1.21239e-01,-7.77990e-01,-1.26710e-01,-1.27792e-01,1.49840e-01,9.51028e-01,2.18797e-01,3.08617e-01,1.93756e-01,1.67274e-01,3.94829e-01,-2.75391e-01,3.08518e-01,-4.51822e-01,
-2.03487e-01,-1.88990e-01,-2.96391e-01,2.52555e-01,3.49297e-02,1.34931e-01,4.38303e-01,-3.54837e-02,2.21578e-01,5.94802e-01,1.98265e-01,-1.74450e-01,-4.40190e-01,3.78276e-03,6.95362e-01,-3.62511e-02,-1.94856e-02,1.83728e-01,-1.93095e-01,-5.08968e-02,1.80025e-01,-1.78567e-01,-2.28308e-01,5.43664e-02,1.68425e-01,4.24649e-01,-1.09458e-01,1.60162e-01,4.99643e-01,-1.74110e-01,
1.08453e-01,-1.09529e-01,2.46933e-01,1.08949e-01,-2.18515e-01,1.99528e-01,-2.97549e-01,2.99774e-01,-5.76475e-02,-2.17235e-01,-7.41965e-02,4.26613e-01,-5.02541e-01,-7.35689e-02,4.42678e-01,-1.33693e-01,2.94727e-01,-4.06483e-02,-1.20485e-01,2.90833e-01,1.22203e-01,-2.68910e-01,2.54933e-02,2.90555e-01,5.04774e-02,6.63165e-02,-2.51748e-02,2.29512e-01,2.76475e-01,1.56731e-01,
1.33673e-01,3.52572e-01,-1.58663e-02,2.17784e-01,-3.29456e-01,2.29427e-01,-3.13154e-01,2.79537e-01,2.26742e-01,-9.11789e-01,-2.02545e-02,1.05101e-02,-5.78438e-02,-1.04615e-01,5.09259e-01,2.87221e-01,-1.94789e-01,-4.03243e-01,2.91915e-01,3.01193e-01,1.15194e-01,-3.26881e-01,2.55803e-01,4.81891e-01,1.42396e-02,6.72001e-02,1.00714e-01,4.25780e-01,1.53911e-01,2.11738e-01,
2.85816e-01,2.93238e-01,2.13861e-01,1.40437e-01,3.78984e-02,-8.62620e-02,-2.75019e-01,2.39003e-01,2.03837e-03,3.39033e-02,1.86630e-01,9.64360e-02,-5.23734e-02,4.24982e-01,-1.95564e-01,5.02908e-01,-3.35472e-03,-4.03140e-01,-3.80091e-02,2.06166e-01,-2.21565e-01,-2.23797e-01,-8.87742e-01,2.68365e-01,-3.29763e-02,-5.70436e-01,3.30536e-01,-1.19650e-01,-3.35620e-01,-3.66313e-01,
-1.41795e-01,2.49670e-01,-1.37021e-01,-2.33488e-01,2.70802e-01,-8.55678e-02,-5.14576e-01,-2.56163e-01,-5.74444e-01,-8.51817e-01,1.37853e-01,2.24531e-01,-5.96011e-02,-3.45921e-01,3.30204e-01,6.75852e-03,8.08898e-03,1.03808e-01,-1.87386e-01,4.43056e-02,-1.74295e-01,2.15090e-01,4.17730e-01,1.46459e-01,4.88359e-02,2.74122e-01,-4.48428e-02,3.48531e-01,-1.76669e-01,5.79666e-01,
4.16683e-02,3.99554e-01,-2.81059e-01,6.75031e-02,1.49824e-01,1.42597e-01,-1.44811e-01,-7.64031e-02,-9.88399e-02,2.07528e-01,1.70291e-01,7.05496e-01,-3.47369e-01,-2.00283e-01,-6.72506e-01,4.43441e-01,4.74773e-01,-5.57174e-01,1.93712e-01,3.62112e-01,-1.87820e-01,2.45434e-01,-2.53357e-01,4.48989e-01,-2.39222e-01,-4.59646e-01,2.12046e-01,3.25659e-01,-9.56900e-02,-6.65785e-02,
-1.40156e-01,2.50635e-01,-2.80015e-01,-4.96470e-02,-2.04823e-01,-1.99243e-01,2.50138e-01,-1.64952e-02,-2.99303e-01,-6.24980e-02,2.40012e-01,-2.98037e-01,9.61527e-02,-1.20621e-01,1.24318e-01,2.76526e-03,-2.36735e-01,1.07794e-01,-1.21457e-01,-1.11987e-01,2.92476e-01,3.60765e-02,-2.91037e-01,3.61876e-02,5.10333e-02,1.38731e-01,1.73990e-03,2.08473e-01,-2.57763e-01,2.00451e-01,
2.75488e-01,5.97850e-01,-8.99493e-02,-7.88199e-01,-4.28825e-01,-7.07000e-02,-6.88407e-01,5.48563e-03,5.58420e-02,7.52322e-01,2.76634e-01,-2.16960e-02,-3.99719e-01,4.85574e-01,2.20093e-01,-2.98855e-01,5.06462e-01,-1.74194e-01,1.34580e-01,-6.17062e-01,-1.14676e-01,5.65256e-01,1.10240e+00,-4.67979e-01,3.12486e-01,-2.87433e-01,-1.20328e-01,1.88731e-02,-3.90810e-01,6.97672e-01,
1.26351e-02,1.07112e-01,-2.56085e-02,4.27167e-01,7.92431e-02,-4.66029e-02,4.40249e-02,-1.24824e-04,2.05163e-01,2.68445e-01,4.48220e-02,-3.15723e-01,3.61253e-01,-2.56349e-01,7.26895e-02,-3.95680e-01,-3.09239e-01,4.14619e-02,1.70678e-01,6.32498e-03,-5.24331e-02,-1.33247e+00,6.73708e-01,-5.44064e-01,5.07137e-01,-2.59198e-01,-7.32706e-01,1.76108e-01,3.42032e-02,1.76520e-01,
-1.03763e+00,2.59946e-02,-1.86239e-01,-3.31896e-02,-4.27754e-01,1.13745e-01,-7.70273e-01,9.94257e-02,-4.15851e-01,4.42030e-02,-1.90829e-01,-4.78756e-01,7.21573e-02,1.65089e-01,5.72122e-01,-8.88593e-02,6.64456e-02,4.70496e-01,-2.17369e-01,2.59924e-01,-1.53314e-01,-1.73643e+00,6.47865e-01,-6.89334e-01,-1.01531e-02,6.82539e-01,1.20027e-01,-2.77656e-02,-4.61625e-01,5.24514e-01,
3.73573e-01,3.08766e-01,-2.46238e-01,-1.67407e-01,1.84147e-01,3.31958e-02,-5.65431e-01,-3.15582e-01,-1.64428e-01,-1.57977e-01,-3.07759e-01,-9.27929e-02,2.17912e-01,-6.21486e-02,2.39430e-01,-6.56682e-01,-1.25653e+00,-7.51099e-01,2.77507e-01,1.79630e-01,-3.13202e-01,-8.64642e-01,-1.43948e-01,-1.94134e-01,1.61700e-01,-3.08181e-01,-2.64398e-01,-3.05918e-01,3.40713e-01,1.65716e-01,
-7.29197e-02,1.26403e-01,-4.27336e-02,-3.25994e-01,3.34686e-01,1.06070e-01,-7.27906e-01,2.06691e-01,-1.21899e-01,-4.92408e-01,-3.05528e-01,-2.14106e-01,-1.14427e-01,-2.91861e-01,-1.73242e-01,-8.74217e-02,-7.87025e-01,-2.34500e-01,1.55624e-01,8.58719e-02,-2.16861e-01,-2.98828e-01,6.00473e-01,8.75221e-01,1.40271e-01,4.29978e-01,5.85171e-01,-1.07437e-01,4.69593e-02,6.23330e-01,
2.78293e-01,-2.64042e-01,-6.88534e-02,-1.13446e-01,-6.71540e-02,3.47460e-02,-2.30804e-05,-5.84100e-02,-7.83401e-02,-2.54681e-01,1.08894e-02,3.92803e-02,-2.69994e-02,-1.88606e-01,-4.32922e-02,3.46530e-02,1.82552e-01,-2.42355e-02,2.31699e-01,-2.83402e-01,-5.89466e-02,3.01977e-01,4.50803e-02,-7.45251e-02,-3.08986e-01,-1.35479e-01,2.52793e-01,-2.60884e-01,6.02792e-03,6.38027e-02,
-2.06955e-01,2.57779e-01,-4.78460e-02,-2.54584e-01,1.77947e-01,-2.49522e-01,-9.97081e-01,-1.62039e-01,-6.17494e-02,-7.69003e-01,3.13062e-02,2.93001e-01,2.68452e-01,5.56708e-01,8.10165e-02,1.92784e-01,8.02851e-02,-2.09372e-01,-1.58751e-01,2.02581e-01,-2.19933e-01,-3.34817e-01,-1.29224e-01,-2.40882e-02,3.62148e-01,-1.75554e-01,2.70810e-01,6.09201e-02,3.45687e-01,4.06301e-01,
3.74226e-01,-2.92038e-01,-2.12442e-01,-2.55896e-01,-4.75710e-01,-2.01911e-01,5.52445e-01,1.66218e-03,5.64095e-01,6.23297e-01,1.03747e-01,-2.28382e-01,-1.42860e-01,-2.61741e-02,5.29147e-02,1.20529e-01,2.94445e-01,-1.25054e-02,-6.54274e-02,-6.22432e-01,1.08540e-01,3.49837e-02,3.73084e-02,2.16478e-02,5.50230e-02,4.99119e-01,-4.17601e-01,2.54870e-01,-4.10401e-01,-6.32173e-01,
-3.43912e-01,-1.77758e-01,2.99655e-02,2.23730e-01,-1.99818e-02,1.10847e-01,8.07276e-01,-1.14659e-02,2.41363e-01,1.12675e+00,-8.22768e-02,-3.13979e-01,-3.42964e-01,-8.74881e-02,6.37379e-01,-2.72834e-01,-1.56671e-01,3.55037e-01,2.42209e-01,-3.46739e-01,-5.85514e-03,2.39569e-01,2.41914e-01,-1.88687e-01,1.51321e-01,5.78625e-01,-2.78286e-01,-1.95980e-03,2.70566e-01,-2.65370e-01,
1.82526e-01,-3.21709e-01,8.81279e-02,-7.41002e-02,-1.23037e-01,-6.69084e-02,-2.90091e-01,2.14990e-01,-7.19227e-02,3.98414e-01,3.12971e-01,2.51658e-01,1.01862e-01,-5.94802e-01,-3.24910e-01,-2.31378e-01,-1.13842e+00,1.15499e-01,-9.54311e-02,1.64663e-01,-2.39710e-01,2.59752e-01,7.88171e-01,5.99853e-01,-6.00357e-01,-5.95976e-01,1.19767e-01,-2.99114e-01,8.28417e-02,-6.74127e-02,
-8.17801e-02,7.04075e-02,-1.30375e-01,2.02290e-01,3.84587e-02,1.06673e-01,3.10067e-01,-2.70929e-01,-3.86111e-02,-5.81644e-01,-2.29680e-01,-1.82129e-01,4.54678e-01,-3.72027e-01,-2.94798e-01,3.83549e-01,-2.02147e-01,-1.60182e-01,-3.04106e-01,5.82979e-01,3.34635e-02,-2.96363e-01,-6.39921e-01,4.68786e-01,-5.08529e-02,-4.08907e-01,3.65726e-01,3.90284e-01,4.49025e-01,2.58574e-02,
3.26636e-01,-8.49831e-01,-1.68098e-01,4.70912e-01,-3.33343e-01,-4.97470e-01,-8.83299e-01,-9.86081e-02,-3.06391e-01,4.65690e-01,-1.11311e-01,-2.93518e-01,-5.62265e-01,2.83060e-01,2.11836e-01,3.91797e-01,-1.73941e-01,1.57571e-01,-2.94816e-01,5.70427e-01,-1.18971e-01,-1.07608e+00,6.45612e-01,3.72482e-01,1.10775e-01,-4.35723e-01,-3.94315e-01,-1.36878e-01,-4.84769e-01,7.07201e-02,
-7.49719e-01,-7.45698e-01,-2.03957e-01,2.32749e-01,1.93166e-01,-1.12977e-01,-3.99291e-01,3.01731e-01,-7.38883e-02,-5.82664e-01,-2.06214e-01,-4.45890e-01,1.66315e-01,1.07807e+00,-5.33479e-02,-1.58144e-01,-1.23765e-01,4.68442e-01,-1.99655e-01,2.02975e-01,-1.66890e-02,-1.28037e+00,-2.89074e-01,-3.71321e-01,4.70331e-01,2.44157e-01,-2.71377e-01,-3.93098e-01,-8.49698e-02,5.37163e-01,
1.45687e-01,-3.87913e-01,1.58015e-01,9.26199e-02,4.58138e-01,-1.69448e-01,9.66581e-01,1.02005e-01,8.01871e-02,2.53317e-01,1.73050e-01,-2.34805e-01,6.12985e-01,3.90229e-01,-2.68788e-01,1.53198e-01,-2.63943e-01,-2.13100e-02,-2.11880e-01,-3.06391e-01,1.28163e-01,5.71493e-02,-2.70795e-01,-6.35270e-01,5.47663e-02,1.74341e-01,1.80975e-01,-1.28418e-01,-1.48215e-02,-2.31329e-01,
1.38624e-01,-9.79882e-02,-2.35668e-02,-1.81585e-01,2.91217e-01,-4.61317e-01,-1.82509e-01,1.60481e-01,-1.33677e-01,-3.31957e-01,1.30213e-01,7.32249e-02,-5.43015e-01,4.97644e-01,1.27088e-01,-2.65786e-02,4.53608e-01,1.88900e-01,-3.47936e-02,2.92189e-01,-1.29828e-01,2.92370e-01,2.19894e-01,8.85871e-02,-3.60007e-01,-4.83263e-01,-6.64535e-03,-1.84193e-01,2.14362e-01,1.03394e-01,
1.36438e-01,-3.99656e-01,1.75349e-01,1.53819e-01,4.12290e-02,-1.95913e-01,7.15093e-01,1.73365e-01,2.61433e-01,9.91947e-01,-1.82218e-01,2.63514e-01,-3.34019e-02,-2.89885e-01,-4.34629e-01,5.27700e-02,4.10641e-01,-1.29862e-01,-1.97616e-01,4.85087e-01,3.03870e-03,4.45409e-01,-1.08870e+00,3.80502e-01,2.60753e-01,-4.41835e-01,-4.77872e-01,-5.78795e-02,6.41211e-02,-4.71880e-01,
3.50208e-01,2.46779e-02,-4.70793e-02,-3.68030e-01,5.02281e-02,-9.21782e-02,-7.88932e-01,1.63582e-01,-6.91232e-01,-4.86924e-01,-1.76610e-01,4.01110e-01,5.97332e-01,4.34215e-01,1.92566e-01,1.96809e-01,1.56460e-02,4.97730e-01,-9.80684e-02,-2.63058e-01,-2.49778e-01,-1.11219e+00,1.64379e+00,7.21752e-01,-1.05921e-01,-7.60620e-01,-7.03850e-01,7.33686e-01,3.36986e-02,1.42095e-01,
-4.45882e-01,4.38251e-01,9.93710e-02,-5.71966e-02,-5.97740e-01,1.29943e+00,-2.45062e-01,-8.23537e-02,2.17327e-01,1.23333e-01,4.04763e-02,-4.27829e-01,3.20017e-02,5.50946e-01,-1.05482e-01,2.90307e-01,-7.43637e-02,-1.14221e+00,-2.77993e-01,-4.57441e-01,-2.22033e-01,2.38927e-01,8.90167e-01,2.70893e-01,4.42182e-01,7.20183e-01,7.31062e-02,1.71587e-01,-7.06354e-01,7.91632e-02,
-2.36581e-01,
-2.90399e-02,
-3.48406e-03,
-2.31983e-02,
-7.48898e-03,
3.28700e-04,
-5.66158e-02,
-3.30864e-01,
2.09707e-01,
1.34288e-01,
-1.79142e-01,
-3.04654e-01,
6.59582e-02,
-1.08982e-01,
4.75887e-02,
-5.38668e-02,
-2.26969e-02,
-2.36396e-01,
4.44831e-02,
-1.40199e-01,
7.33831e-03,
-7.31302e-02,
-3.04747e-01,
3.13527e-01,
-1.71553e-02,
1.72260e-01,
1.58367e-01,
-9.94376e-04,
1.74296e-01,
-4.35509e-01,
-1.11919e-01,-1.78482e-02,-7.09901e-02,-2.29049e-01,-8.62263e-02,5.90195e-01,5.05698e-02,4.67165e-02,-1.90551e-01,2.54979e-01,6.48686e-02,-2.15895e-01,8.18622e-02,-2.40845e-01,-1.27915e-01,-3.85737e-04,-2.00325e-02,1.90223e-01,2.17464e-02,6.53773e-02,-3.71498e-01,3.35631e-01,2.00758e-01,1.65925e-01,-1.22164e-01,2.05501e-01,1.13214e-01,3.39283e-01,4.90282e-02,1.47817e-01,
-2.95145e-02,-1.13107e-01,1.03318e-01,-4.03371e-01,-5.39979e-02,-4.80258e-01,-2.36446e-02,-3.97128e-02,1.01318e-01,-1.08311e-01,-5.64903e-03,7.67900e-02,-1.02322e-03,-1.78174e-01,-1.09927e-01,-9.78662e-02,8.86577e-03,2.52027e-02,3.66226e-01,7.81794e-02,5.07267e-01,3.78748e-02,4.46149e-01,1.13537e-01,-1.79543e-01,2.78892e-01,1.08378e-01,4.89601e-02,1.19606e-01,1.72196e-01,
1.82251e-01,-7.04573e-02,8.25662e-02,-1.51692e-01,-8.75435e-02,-3.61140e-01,-2.86595e-01,-3.10801e-02,-3.21525e-01,-8.00880e-02,-1.88045e-01,2.27782e-01,-6.65413e-02,-2.32700e-01,-1.66840e-01,-2.94981e-02,-2.81245e-01,-5.01990e-02,-2.76623e-01,-8.25896e-02,-1.47697e-01,2.59959e-01,8.71120e-02,4.40846e-02,-1.64294e-01,-3.41474e-01,1.24101e-01,2.47982e-01,-4.31641e-02,3.16116e-01,
1.57515e-01,1.90254e-01,-7.04062e-02,-5.64059e-01,1.35837e-01,3.77595e-02,1.39322e-01,4.50685e-02,-2.14168e-01,-7.61541e-02,-5.78526e-03,1.26849e-01,-5.24315e-02,-1.10697e-01,-1.81561e-01,-1.01685e-01,1.89006e-01,-2.58001e-01,2.44310e-01,3.17850e-01,-1.83586e-01,2.07432e-01,1.52372e-01,7.54575e-02,-5.79648e-01,-2.22820e-01,1.06201e-01,-2.16463e-01,-1.90847e-01,5.50363e-02,
-3.07277e-01,1.87489e-01,2.53220e-02,-9.07427e-02,-1.17681e-01,-2.64498e-02,2.47184e-02,2.70704e-02,1.50072e-01,4.58148e-01,1.68152e-01,4.76914e-03,-1.89224e-01,-4.13259e-03,-3.88144e-01,1.73811e-01,1.64677e-01,1.49877e-01,-5.13558e-01,-1.92153e-01,-4.42109e-01,6.46970e-02,1.15434e-01,2.33147e-01,2.22402e-01,-1.47193e-01,-3.94108e-01,-3.05191e-01,-1.24035e-01,-7.52312e-02,
4.32958e-01,3.65343e-01,-8.17126e-02,-2.50650e-01,-5.52342e-02,7.92371e-03,-6.37672e-02,3.02016e-01,1.76700e-01,-1.13976e-01,-3.37654e-01,2.06268e-01,4.01710e-01,2.57579e-03,-3.09317e-01,1.50422e-01,3.24165e-01,3.11844e-01,-1.96344e-01,1.43341e+00,-2.35923e-01,-2.37449e-01,2.01183e-01,1.19046e-01,-2.93148e-01,-3.50935e-01,-9.65408e-02,-3.53941e-01,1.17683e-01,-6.17576e-02,
-2.85022e-01,-1.13699e-01,2.06558e-02,4.84769e-02,2.51487e-01,-1.22183e-01,1.51723e-01,-6.65369e-01,3.44861e-01,-2.96516e-01,2.55010e-02,3.03236e-01,1.36478e-01,-3.44812e-01,1.94220e-01,-5.13563e-01,-2.59781e-01,-4.69903e-03,-1.34567e-02,8.82415e-02,-1.47783e-02,3.09392e-02,3.03456e-01,-1.12122e-01,-1.11269e-01,2.36562e-02,-8.89996e-03,-1.34568e-01,2.78000e-02,-2.35742e-01,
-5.35266e-01,5.28319e-02,3.82531e-03,-4.96093e-01,-1.55987e-01,1.66419e-01,-5.21449e-01,1.60291e-01,1.84104e-01,-2.97786e-01,1.49123e-01,2.77289e-01,6.57728e-01,-3.08800e-01,6.08977e-01,-6.80032e-01,-3.09343e-01,-2.86715e-01,-4.17233e-01,-6.02459e-01,-3.02427e-01,-1.82901e+00,8.31908e-01,-4.15300e-01,-8.99995e-01,-1.21947e-01,-2.04214e-01,1.32082e-01,3.04909e-01,-1.20619e-01,
-4.18106e-02,2.01860e-01,-3.44298e-01,-1.76505e-01,2.09803e-01,4.96750e-02,-3.35353e-01,1.92771e-01,1.11917e-01,-3.45680e-01,-3.59715e-01,2.65991e-01,3.97906e-02,3.29582e-01,-2.99199e-01,-4.30288e-01,2.05707e-01,-2.98987e-01,2.72412e-02,1.40592e-02,-2.01004e-01,-5.13167e-02,-5.54168e-01,-1.09507e-02,1.33903e-01,-3.51950e-02,-2.63612e-01,-7.97187e-02,-2.81081e-01,-5.58352e-02,
1.27524e-01,3.02050e-01,-3.21112e-01,-1.54587e-01,1.12522e-01,-2.95426e-01,-5.76909e-02,7.17773e-01,8.06368e-02,-3.90522e-01,-2.68482e-01,2.21089e-01,7.72483e-01,-2.41291e-01,-3.85501e-01,-8.00782e-01,-1.03826e-02,-1.36672e-01,-4.18128e-01,1.28726e+00,-2.26501e-01,-2.28119e-01,4.09022e-02,-4.87549e-01,9.23087e-02,-2.01805e-01,-6.45684e-01,-5.49024e-03,1.83474e-01,1.48434e-01,
9.12852e-02,-1.54994e-01,-3.49798e-02,-4.20498e-01,-3.15836e-01,-1.37559e-01,5.35967e-02,4.39217e-02,4.65425e-02,1.91721e-01,4.21435e-02,-2.87154e-01,1.77855e-01,-2.43749e-01,-2.30278e-02,7.08696e-01,-1.08733e-01,-2.26012e-01,1.70704e-01,1.07295e+00,1.87523e-01,-9.41399e-01,5.55106e-01,-1.07158e-01,1.80382e-01,-1.48394e-01,-2.95835e-01,-2.53652e-01,-1.64430e-01,3.55825e-01,
-1.13691e-01,-5.93419e-02,-2.03158e-01,-2.13973e-01,7.81955e-02,2.28494e-01,2.80253e-01,4.27825e-01,-1.68524e-01,-2.19228e-01,-9.94794e-02,2.25681e-01,3.46042e-02,-1.10067e-01,-5.56905e-03,-3.39168e-02,-4.78789e-02,3.02693e-01,2.32158e-01,-1.34938e-01,-3.77903e-02,5.03137e-03,7.95766e-02,-2.43627e-01,2.67866e-01,7.76441e-02,1.27121e-01,6.67330e-02,-1.10385e-01,7.67983e-03,
-8.29802e-01,-1.64866e-01,-1.18025e-01,-1.14043e+00,5.92687e-01,-6.21156e-02,-3.35505e-01,3.65963e-01,3.13505e-01,-4.20840e-01,-2.76812e-01,-1.09549e-01,4.28422e-02,3.39312e-01,-4.89535e-01,-3.58324e-01,4.32718e-01,1.80238e-01,7.73435e-03,2.15970e-01,-5.30219e-01,-4.25042e-01,-6.55605e-01,-4.48301e-01,3.86245e-01,-1.07392e-01,6.58131e-01,-2.41964e-01,1.98341e-01,-1.64116e-01,
1.09987e-01,-1.18933e+00,1.06873e+00,-8.02302e-01,-1.54448e-01,-1.26342e-01,-4.31676e-03,-1.01529e-02,-6.20336e-01,4.97146e-01,-4.15998e-01,5.16030e-02,4.32383e-01,3.93060e-03,-6.99908e-01,-9.90386e-02,-5.72266e-01,-1.09296e-03,-2.92717e-01,1.27252e-01,5.58949e-02,-7.99117e-01,-1.18921e-01,7.44870e-01,-9.28394e-01,4.38971e-02,6.39209e-02,-3.70584e-01,3.64720e-01,-1.15881e-01,
2.75955e-02,-9.10514e-03,5.40310e-02,1.04060e-01,1.53803e-01,4.82130e-01,-8.34118e-02,1.48795e-01,-4.71362e-01,-3.12827e-01,1.11890e-01,-2.82385e-01,5.58965e-02,-9.34082e-02,-7.00274e-03,-3.27656e-01,2.55189e-01,1.49644e-01,-5.81030e-02,1.86622e-01,-4.37088e-01,-1.76744e-01,-8.76813e-02,-1.75175e-01,-3.89803e-01,-9.61749e-02,5.76724e-02,-3.56345e-01,2.16076e-01,-4.00761e-02,
-9.02066e-01,-4.44344e-01,1.60027e-02,4.28477e-01,4.22197e-01,-9.51191e-03,1.55987e-01,5.51875e-02,8.03177e-02,-1.09509e-01,5.70481e-01,-2.94847e-01,1.77024e-01,-1.04529e-01,-6.69294e-01,-3.06228e-01,9.57621e-02,-3.46583e-02,-2.68583e-01,-2.23219e-01,-3.32069e-01,-5.61879e-01,2.35885e-01,7.17890e-01,-4.33725e-01,-3.70225e-01,2.17221e-01,9.71675e-02,8.59979e-01,-3.68682e-01,
-1.32445e-02,-7.07024e-02,6.52914e-02,-5.24325e-02,5.31357e-02,-4.24055e-01,1.71758e-01,1.39332e-02,1.05574e-01,9.65506e-02,6.30860e-02,-1.11863e-01,1.57978e-01,-3.60080e-01,-2.20583e-01,1.85947e-01,-2.40736e-01,1.20941e-01,3.58471e-01,-3.95684e-01,4.38890e-01,-4.23446e-01,-2.78177e-02,-1.38860e-01,-1.76592e-01,-5.64942e-02,-1.47307e-01,-2.11857e-01,-2.76121e-01,-3.76261e-01,
-2.06988e-01,-6.97350e-03,-2.64977e-01,-7.86235e-01,4.16548e-02,-8.45011e-02,3.35407e-03,3.86613e-01,3.60732e-01,-2.42322e-02,-9.83644e-02,1.33884e-01,-1.89154e-01,-8.02804e-02,-2.63096e-01,-3.28921e-01,5.68574e-01,-1.70693e-01,-2.32281e-01,1.55135e-01,-3.17026e-01,-6.24060e-01,3.56290e-01,3.48812e-01,-6.28787e-02,2.04862e-01,2.89632e-01,-1.43967e-01,-3.75515e-02,9.79607e-02,
-8.23972e-02,1.99209e-01,6.02595e-02,-1.06817e+00,-7.03021e-02,4.01052e-01,-5.39904e-02,5.32422e-02,-1.74031e-01,4.24892e-01,-4.78538e-01,1.81586e-02,3.95845e-01,2.59060e-01,-1.84760e-02,2.87846e-02,2.17876e-01,8.58464e-02,9.06774e-02,3.67608e-01,-1.97304e-01,-2.99710e-01,1.66935e-01,7.28906e-02,-3.60336e-01,2.78730e-02,6.80536e-01,-2.51722e-01,-9.34654e-02,-5.53791e-01,
1.01860e-02,7.35966e-02,4.21917e-02,1.26689e-01,-1.14008e-01,-1.80261e-01,1.02553e-01,-1.87220e-01,1.09152e-01,-9.84018e-02,-2.09179e-01,2.40572e-01,-8.45066e-02,-3.00710e-01,-2.70041e-01,2.83583e-01,-1.80887e-01,-1.39024e-02,1.58826e-01,-1.45429e-02,5.70161e-02,1.13393e-01,-3.05782e-01,1.14540e-01,2.56655e-01,-2.44511e-01,2.21716e-02,2.35114e-01,-1.47547e-01,-2.35130e-02,
-2.96480e-01,-2.00235e-01,1.09140e-01,-2.24415e-01,3.38416e-02,-1.67788e-01,-2.18318e-01,-2.91247e-01,-1.54247e-01,-2.38230e-01,-6.67785e-02,1.33408e-01,-1.25677e-01,-2.60175e-01,4.11804e-02,8.29193e-02,2.90999e-01,-3.08666e-02,-2.64282e-01,1.88295e-01,-1.23214e-01,7.15093e-02,2.78631e-01,1.66610e-01,1.36711e-01,3.06793e-01,-2.52857e-01,-9.84565e-02,1.08245e-02,2.92099e-01,
-6.08146e-02,-6.60093e-02,-1.94362e-01,-8.79421e-02,4.94979e-02,2.94180e-01,-1.34510e-01,4.05905e-01,-1.34336e-02,-1.04042e-01,-1.17306e-01,7.29954e-02,-5.11624e-02,3.42914e-02,5.02379e-02,1.22465e-01,-1.16124e-01,-1.13936e-01,2.62358e-01,-1.77850e-01,-2.34532e-01,-2.36867e-02,-1.00120e-01,-1.06604e-01,4.56569e-01,-1.98736e-02,-7.16055e-02,1.24156e-01,-2.85893e-01,-8.05850e-02,
-2.14763e+00,-2.56407e-01,7.44031e-01,-2.32525e+00,-9.18531e-01,5.83943e-02,6.85270e-02,-2.23659e-01,3.28876e-01,-1.56262e-01,2.47373e-02,1.92372e-01,-1.70933e+00,5.63133e-01,8.33571e-01,-3.47745e-01,3.74406e-01,-2.62226e-01,-2.60402e-01,-8.69400e-01,-1.19460e-01,-9.30909e-01,2.61375e-01,-5.63555e-01,2.65295e-01,1.41328e-02,6.42753e-01,6.81391e-02,-3.80866e-01,-2.04904e-01,
-1.60117e-01,-2.94068e-01,1.73011e-01,9.53152e-02,5.02645e-03,9.66375e-02,9.69463e-02,-1.29104e-01,-1.56232e-02,6.92350e-02,-1.90866e-02,7.48993e-02,3.15645e-01,3.59606e-01,-4.25056e-01,-5.56976e-02,1.51831e-01,1.52826e-01,1.38421e-01,-4.10535e-01,-3.02278e-02,-4.83877e-01,-2.92795e-02,5.85036e-01,-4.52287e-01,-1.15430e-01,1.74193e-01,1.30506e-01,7.78143e-01,2.11157e-01,
3.73890e-01,2.13622e-01,3.53888e-02,-2.59681e-01,9.60581e-03,-2.25028e-01,1.44769e-01,-1.20127e-01,-1.02592e-02,2.46142e-01,-3.00527e-01,-1.51712e-01,4.71010e-02,3.16821e-01,-1.89742e-01,5.54501e-01,-1.95938e-01,2.50089e-01,-1.92566e-01,-1.81971e-01,5.70453e-02,-4.17421e-01,-6.64127e-01,-2.16446e-01,3.70590e-02,7.12513e-02,-9.74752e-02,5.91431e-02,7.53203e-02,-4.75919e-01,
-1.13347e-02,1.58220e-01,2.12959e-01,7.56005e-01,-3.82084e-01,-7.34466e-01,-9.45585e-01,-5.09070e-01,5.54628e-01,3.03763e-01,3.55960e-01,-2.82045e-01,9.76682e-02,-1.88579e-01,-2.31762e-01,5.38202e-02,3.05719e-01,-3.04595e-01,-2.45117e-01,2.78094e-01,-5.54122e-01,-2.79288e-01,4.16477e-01,3.01330e-01,-3.98502e-01,2.78210e-01,-1.84757e-01,-3.15131e-01,9.73214e-02,3.01175e-01,
2.91044e-01,1.48757e-01,-4.01568e-01,-6.52727e-01,-1.92715e-01,-8.32255e-02,1.08071e-01,1.74067e-01,-2.73641e-02,2.53850e-01,3.23465e-01,-1.02273e-01,6.26380e-01,5.48946e-01,-7.09291e-02,4.54232e-01,3.33702e-01,-2.87456e-02,3.41842e-01,-1.33151e+00,-1.76686e-01,-1.91778e-01,1.52234e-01,1.80674e-01,-9.27192e-01,-3.48128e-01,5.60779e-02,-6.23395e-01,-1.41333e-01,-1.21623e+00,
2.00728e-01,5.16854e-02,3.23111e-02,2.07245e-01,-9.48889e-02,3.97896e-01,-3.25103e-01,-5.41180e-02,-4.24291e-02,-3.66218e-01,1.35499e-01,-1.99055e-01,-1.97463e-01,2.87298e-01,-7.94820e-01,1.22679e-01,-9.80121e-02,-3.02612e-01,-3.39318e-02,-2.21139e-02,-3.67057e-01,-5.52128e-01,-1.08850e-01,4.28072e-01,1.52417e-01,3.38769e-02,-3.35200e-01,-2.52479e-01,-1.89822e-02,-3.64423e-01,
-7.55162e-02,1.52267e-01,-1.85618e-01,2.75403e-01,1.45531e-01,2.14017e-01,3.62645e-01,9.24831e-02,-1.72026e-01,4.28381e-02,-1.72232e-02,-7.01776e-02,-4.16249e-02,2.19506e-01,8.61148e-02,1.03236e-01,-1.14682e-01,-1.20036e-02,-3.19296e-01,-2.09895e-01,-2.51446e-01,-8.01633e-02,-3.16896e-01,-2.01824e-01,2.96672e-01,-1.76355e-01,4.71476e-02,2.80520e-02,-1.37217e-01,-2.50900e-01,
8.06491e-01,2.65291e-01,2.27822e-01,-6.54881e-02,-6.87413e-01,6.60042e-02,2.06827e-01,-8.49462e-03,4.84597e-02,3.55946e-01,-1.25108e-01,-1.29039e-01,8.39256e-01,6.17761e-01,-1.04647e+00,4.62273e-01,4.77363e-01,-2.83773e-01,2.32150e-01,6.12610e-02,-1.60266e-01,-5.28789e-01,2.18896e-01,9.16196e-01,-1.10592e+00,2.66128e-01,-2.30810e-01,-4.38210e-01,6.39482e-01,-1.08074e+00,
-9.29660e-02,
8.28457e-03,
-2.97806e-01,
-2.62865e-01,
1.99725e-01,
2.95208e-02,
1.44982e-01,
-1.96152e-01,
-8.16740e-02,
-2.11934e-01,
9.69329e-02,
8.02464e-02,
-1.94288e-01,
2.41975e-01,
2.48611e-01,
-1.68682e-01,
1.35516e-01,
-1.00563e-01,
-1.95432e-01,
-2.37572e-01,
-3.05812e-01,
1.82146e-01,
4.57243e-02,
-7.22957e-02,
5.14245e-02,
-8.52679e-02,
-1.05928e-01,
1.42948e-01,
7.58617e-02,
-9.99013e-02,
4.83107e-02,-8.28322e-02,-5.47851e-02,3.22433e-02,-1.67868e-01,-1.83434e-01,2.56970e-01,4.52158e-02,-2.36505e-01,8.15009e-02,-6.68260e-01,-1.83670e-02,-2.14793e-02,-1.67020e-01,-4.06233e-01,7.48549e-02,-2.86281e-01,1.66718e-01,-5.86391e-01,2.77697e-01,-4.70920e-02,-9.91728e-01,1.01073e-01,1.65176e-01,4.40728e-01,2.26411e-01,1.03267e-01,8.45121e-02,-3.94688e-01,8.66448e-02,
-1.13605e-01,4.17613e-02,5.77865e-02,-1.06513e-01,9.36021e-02,-2.37697e-01,2.15734e-01,9.93386e-01,5.60533e-02,1.02628e+00,-7.83277e-02,2.23068e-01,-6.35355e-01,1.17907e+00,-8.38755e-02,8.40277e-01,1.06268e-01,7.03484e-02,1.99861e-01,-1.53535e-01,2.34107e-01,2.19396e-01,-6.54683e-01,-3.74942e-01,-1.39144e-01,-1.28753e-01,-1.07662e+00,-2.27295e-02,4.77789e-02,-7.46817e-01,
-8.08715e-02,6.95730e-02,-2.72748e-01,-1.98100e-01,4.81679e-02,1.32096e-01,-6.17488e-02,1.28397e-01,1.16180e-01,-4.74442e-02,-1.50417e-01,-1.53334e-01,1.97944e-02,4.13126e-02,-2.27021e-02,-6.89538e-02,-7.47842e-03,1.43237e-01,5.30992e-02,7.84154e-02,-2.68154e-02,1.09503e-01,2.54615e-02,1.60742e-01,-1.15545e-01,-2.66397e-01,9.72308e-02,-8.87254e-02,1.77431e-01,-1.31606e-01,
-1.66433e-01,-2.68964e-01,-2.92583e-01,-1.04745e-01,-2.00710e-01,-1.77552e-01,-1.89849e-01,1.61306e-01,5.75144e-02,7.87076e-02,-2.30877e-01,-3.13379e-01,5.65866e-02,-2.39813e-01,5.04768e-02,1.46059e-01,-6.26150e-02,5.70226e-02,-3.30056e-01,-1.86624e-01,-2.90750e-01,-1.21239e-01,2.86500e-01,-2.48366e-01,-2.48083e-01,-1.17234e-01,-1.71526e-01,-1.58266e-01,-2.91774e-01,3.78556e-02,
-1.64927e-01,-4.15699e-02,-2.10974e-01,-1.57290e-01,2.91427e-02,-4.80742e-01,1.46534e-01,9.57100e-01,7.99875e-02,1.04449e+00,-2.38515e-01,2.29707e-01,-5.90322e-01,9.06179e-01,5.45061e-02,7.29756e-01,9.66576e-02,1.40008e-01,1.56625e-01,8.27752e-02,-1.38492e-01,1.40866e-01,-5.81383e-01,-3.31791e-01,9.27374e-02,1.19348e-02,-9.90339e-01,-4.24881e-02,-1.34629e-02,-6.42828e-01,
8.74075e-02,2.17169e-01,1.03692e-01,1.24588e-01,3.84210e-02,-5.31594e-02,1.66436e-01,-1.82186e-01,-6.23472e-02,1.33796e-01,2.86508e-01,8.78806e-02,-1.79277e-01,-5.28499e-02,2.26232e-02,1.18100e-01,2.36141e-02,-2.20048e-01,4.86647e-02,-4.63157e-02,1.72505e-01,2.73501e-02,-9.74392e-02,-7.28915e-02,3.24817e-02,-4.04684e-01,-1.80729e-01,7.67073e-02,7.15388e-02,8.94241e-02,
1.35503e-01,-2.20174e-01,1.29318e-01,4.55586e-02,-2.28824e-01,1.58001e-01,1.05842e-01,-1.18931e-01,-1.79626e-01,-1.09438e-01,-1.65143e-01,-1.85483e-01,1.61208e-01,1.24013e-01,3.91620e-02,2.77232e-02,-2.10435e-01,-1.76175e-01,1.41859e-01,-8.06210e-02,-1.01872e-01,1.27148e-01,-1.52481e-01,7.43469e-02,5.82810e-02,-8.61393e-02,-9.84885e-03,7.85919e-02,-1.72200e-01,-1.20728e-01,
-2.01993e-01,1.59648e-01,-2.61701e-01,-1.39983e-01,-5.22860e-01,1.96776e-01,8.29569e-02,5.37210e-01,1.83404e-02,3.46765e-02,-3.04430e-02,-3.12835e-01,-7.35740e-02,1.88831e-01,-5.70717e-01,-1.88507e-01,-2.02491e-01,-1.74743e-01,-1.31783e-01,1.73555e-01,-1.79238e-01,1.20541e-01,-1.55715e-01,-3.89626e-01,3.37418e-01,4.14212e-01,-1.39617e-01,-3.21921e-01,-1.81510e-01,-2.05498e-01,
1.77349e-01,-4.95904e-03,-2.21112e-01,-6.15677e-02,6.12335e-02,-3.14866e-01,4.99537e-01,2.56927e-01,1.51256e-01,-3.92781e-02,-6.32766e-01,-2.26062e-01,1.44130e-01,-3.34127e-01,-1.55865e-01,-6.18536e-02,1.91928e-01,-4.35836e-03,2.18979e-01,2.62702e-01,2.48635e-01,-2.29905e-01,-2.81134e-01,-7.95174e-02,1.64043e-01,5.40845e-01,-3.43547e-02,1.35889e-01,-6.70438e-01,2.62849e-01,
8.20579e-03,-5.08799e-03,-6.54709e-02,-1.09270e-02,-2.24660e-01,-7.11133e-02,3.83132e-01,-2.81981e-01,2.63065e-01,1.11334e-01,-1.05136e-02,6.17166e-02,-3.67489e-01,-1.16394e-01,-1.35009e-01,7.84145e-02,3.75609e-02,-7.96328e-03,3.72006e-01,-1.62542e-01,6.50243e-02,-1.09056e-01,-1.64515e-01,3.32641e-01,-1.70004e-01,1.38163e-02,-4.22481e-02,6.13612e-02,1.50325e-01,-1.32075e-01,
2.77960e-01,-2.54668e-01,-2.52414e-01,-1.02829e-01,1.95704e-01,7.86201e-02,-1.47686e-02,4.34513e-03,3.25545e-02,-9.60263e-02,1.67360e-01,-1.04396e-01,-2.53008e-03,-5.20984e-02,9.34124e-02,-1.24041e-01,-4.81495e-02,-9.62731e-02,-9.93785e-02,3.04854e-02,-3.07952e-01,2.91192e-01,1.31724e-01,5.82374e-02,-5.51486e-02,-2.43681e-01,-9.12393e-03,1.82238e-01,-8.82328e-02,2.58232e-02,
1.39901e-01,3.86215e-02,-9.31286e-02,-3.15398e-01,-3.33073e-01,1.58144e-02,2.88840e-02,1.76696e-01,7.75370e-02,1.41003e-01,-4.44704e-02,-3.11010e-01,1.89627e-01,-1.13767e-01,1.45486e-01,1.70231e-01,-2.85712e-01,1.32137e-01,-2.53789e-01,6.43616e-02,9.43707e-02,-9.51128e-02,2.39933e-01,-1.62511e-01,-2.64404e-01,-3.12002e-01,-9.91170e-02,-2.90793e-01,-2.21350e-01,-1.73711e-01,
-2.05243e-02,-5.70182e-01,1.34137e-01,-1.15012e-01,1.54806e-01,9.86177e-02,2.02333e-01,-8.63240e-02,1.83902e-01,1.48311e-01,2.40525e-01,-1.07354e-01,6.04215e-01,8.62451e-02,1.83812e-01,-7.03915e-02,-7.83094e-02,-1.35621e-01,1.72803e-01,8.91378e-02,5.05324e-02,1.40837e-01,2.90366e-01,1.37601e-01,1.57928e-01,-4.78682e-01,-1.55869e-02,6.19588e-02,-2.19761e-01,-1.57761e-01,
-1.90250e-01,-3.74684e-02,-2.06192e-01,-2.45079e-01,-1.62723e-01,-7.48626e-02,-3.27118e-02,2.15558e-01,-8.53256e-02,-9.94727e-03,-1.41931e-01,-3.56886e-01,-2.09878e-01,-2.46057e-01,4.05734e-02,-5.66659e-02,-2.53135e-01,1.42629e-02,-1.81843e-01,2.04391e-01,-9.50018e-03,-2.75858e-02,5.17412e-02,-1.76595e-01,-3.65785e-02,2.91937e-01,7.36941e-02,1.74063e-01,2.45578e-01,-8.02493e-03,
-5.17540e-02,-1.56557e-01,2.05315e-01,-1.19536e-01,-3.17324e-01,-1.61821e-02,-2.03064e-01,2.24511e-01,1.90318e-01,2.24649e-01,-8.57315e-02,8.74965e-02,-1.89343e-01,-1.54453e-01,-2.58360e-02,-1.23610e-01,-1.00492e-01,-3.11099e-02,-8.26777e-02,-2.46280e-02,6.86158e-02,2.09257e-01,1.14832e-01,6.38111e-02,5.87011e-02,-2.89253e-01,1.40249e-01,-1.40928e-01,1.46350e-01,-2.91433e-01,
-2.98957e-01,8.72186e-02,1.16100e-01,-4.80823e-02,-1.48439e-01,2.00662e-01,-2.08588e-01,-2.96561e-01,1.95209e-01,-3.59532e-02,-7.20256e-02,2.00137e-01,-2.92487e-01,-5.96523e-03,-1.70512e-01,9.06957e-02,1.44883e-01,1.86389e-01,5.04916e-02,2.85810e-01,-2.45269e-01,-9.78384e-02,1.57550e-01,-1.46559e-02,-2.16895e-01,1.21574e-01,8.66621e-02,-6.47377e-02,1.91542e-01,-1.04259e-01,
-2.49688e-01,-2.26293e-01,2.82649e-01,-9.20534e-02,1.73610e-01,-6.02250e-02,-3.97130e-02,-6.66332e-02,1.99381e-01,1.55024e-01,1.56965e-01,2.17481e-01,2.47902e-01,2.34276e-02,5.24437e-02,2.85175e-02,1.33569e-01,6.44451e-02,-3.14455e-02,1.27688e-02,2.69514e-01,-1.32890e-01,2.82970e-01,-1.15368e-01,1.25639e-01,-5.01934e-01,-3.14869e-03,-1.01946e-01,-1.13322e-01,-2.09822e-03,
-1.42869e-01,1.26715e-01,-2.56399e-01,8.62185e-03,-7.86436e-02,1.82699e-01,-2.52990e-01,3.22652e-01,1.45522e-01,2.08844e-01,2.82629e-01,2.36402e-01,1.77248e-01,-1.35472e-01,2.27763e-02,-3.23921e-02,1.39488e-01,2.61102e-01,-1.03494e-01,-1.95807e-02,-3.13744e-01,-4.39207e-01,3.68912e-04,-8.03925e-02,1.03545e-01,-5.45398e-01,1.57539e-01,-3.74997e-01,4.13485e-01,1.41030e-02,
-8.03298e-03,-3.03467e-01,-2.25438e-01,7.10472e-02,-1.67168e-01,1.69494e-01,-5.08581e-02,8.88650e-02,1.06764e-01,1.02440e-01,-9.40464e-02,-5.71162e-02,1.17093e-01,1.37113e-01,-2.65188e-01,-1.11706e-01,1.30267e-02,-2.44809e-01,1.31413e-02,3.21970e-02,-4.40957e-02,-2.35766e-01,2.91586e-02,3.03643e-01,-2.70165e-01,-2.22791e-01,-1.85283e-01,-1.40399e-01,-1.99350e-01,-2.82886e-01,
-1.87999e-01,1.72174e-02,2.73138e-01,-8.82315e-03,-3.49646e-01,3.44449e-02,-1.58904e-01,3.87836e-01,6.74317e-01,2.23069e-01,5.39463e-01,-7.74713e-01,4.38913e-01,-8.53527e-02,-6.09988e-01,1.17513e-02,1.59779e-01,-6.77876e-01,-5.08931e-01,1.41987e-01,1.04076e-01,-9.67951e-01,4.16427e-01,-1.64100e-01,3.42155e-01,1.40549e-01,-4.19095e-02,-2.14765e-01,-4.77627e-02,1.82567e-01,
-4.24340e-01,-1.11149e-02,5.23186e-02,2.12382e-01,5.93391e-01,4.88257e-01,-2.90054e-01,-1.48420e-01,-6.00290e-01,-2.74370e-01,-9.21875e-02,-4.57567e-01,7.14197e-01,4.15536e-02,-4.25926e-01,-3.90782e-01,8.36469e-02,4.00876e-03,-9.09901e-01,5.62301e-02,-2.83485e-01,-1.54737e-01,6.39408e-01,-2.40064e-01,6.77222e-02,-1.55465e-01,-1.25671e-02,-1.36531e-01,-1.08738e+00,1.99486e-01,
-3.73866e-01,1.15804e-01,-3.82617e-02,-3.08182e-01,-3.34510e-01,-3.17541e-01,-7.13321e-02,4.85362e-02,-2.88740e-01,-2.92788e-01,2.22740e-01,2.34639e-01,-6.48080e-03,-2.75407e-01,-3.33880e-01,-2.99671e-01,-2.77729e-01,-1.06135e-02,-1.16802e-01,6.28436e-02,-1.89817e-01,-1.92174e-01,-2.08080e-01,-1.05411e-01,-2.06809e-01,2.68060e-01,-1.72518e-01,1.53608e-01,-1.03244e-01,-3.69720e-02,
-9.79807e-02,5.77061e-01,-2.86006e-01,1.34350e-01,-4.06404e-02,-1.43317e-01,-7.71315e-02,-7.72745e-01,-5.61149e-02,-4.33091e-01,-1.70906e+00,-9.26512e-02,-1.52919e-02,-5.86369e-02,-3.49683e-02,-4.83503e-02,3.60146e-02,-6.93249e-03,-2.34327e-02,-2.45392e-01,-3.89382e-02,-4.23506e-02,-1.27654e-01,1.04092e-02,-7.16884e-02,2.97709e-01,-5.20233e-01,-7.08308e-02,3.35555e-01,-1.41777e-01,
-6.36970e-01,-2.72989e-01,1.40261e-01,-2.29293e-03,1.10618e-01,1.96239e-01,-9.09682e-02,-1.72721e+00,-1.06528e-01,6.36723e-02,-9.10266e-02,-3.30483e-01,5.40665e-02,2.46674e-01,-3.57446e-01,-4.67162e-01,-2.75556e-02,4.83073e-01,-5.04591e-01,2.58638e-01,-2.98517e-01,3.58048e-01,-5.76512e-01,-1.06339e-01,-3.13220e-02,4.99593e-01,-7.87994e-02,-2.66676e-01,-1.47300e+00,2.12023e-01,
-4.05608e-01,1.35442e-01,4.96073e-02,-4.57648e-01,-3.45551e-01,-7.81550e-02,-7.87837e-02,1.29688e-01,-7.70370e-02,3.88464e-02,-2.89098e-01,6.70025e-02,-4.05624e-01,-1.12780e-01,-2.83503e-01,-2.95072e-02,6.43232e-01,5.02315e-01,1.05740e-02,-1.81521e-01,-7.11536e-03,-1.70433e-01,9.10989e-02,2.07160e-01,-6.15503e-02,3.10672e-01,-1.82807e-01,-7.88617e-01,-6.52569e-01,6.86247e-02,
-2.18359e-01,-7.62900e-02,-2.16897e-01,-1.24808e-01,-2.02960e-01,1.44968e-01,2.46433e-01,-4.54085e-01,4.83105e-01,1.01407e-01,-1.08713e-03,1.55513e-01,-4.47318e-01,-8.90101e-02,-2.04914e-01,1.05443e-01,1.28854e-01,9.39540e-02,4.34005e-01,1.95188e-01,1.57611e-01,-9.23422e-02,2.35543e-02,3.73386e-01,-3.23099e-01,-1.62277e-01,1.21626e-02,2.85883e-02,2.62404e-01,-2.60109e-01,
-1.10267e-02,-2.89648e-01,2.91789e-01,-1.64328e-02,-2.00643e-01,-3.94764e-02,2.33736e-01,2.68166e-01,-2.56697e-02,1.70518e-01,-1.92542e-03,1.50443e-01,1.82114e-01,-6.37877e-02,-3.59781e-01,7.80412e-02,-1.00825e-01,2.44380e-01,-1.56878e-01,-4.02497e-02,1.25219e-01,-1.68660e-01,2.55049e-01,-2.77196e-01,-1.46973e-03,-2.55883e-01,2.54174e-01,-4.31142e-02,-2.06278e-01,1.73698e-01,
1.17864e-02,2.12810e-01,7.70638e-02,1.19988e-01,1.53531e-01,1.65017e-01,1.90636e-01,6.14753e-01,-2.77721e-02,5.23204e-01,1.99925e-01,8.34264e-02,-3.42979e-01,9.86999e-01,-2.78123e-01,5.57115e-01,8.62135e-02,1.99636e-03,1.56571e-01,2.13320e-01,-1.60945e-01,2.18159e-01,-3.85406e-01,-2.49925e-01,-4.12927e-01,-5.20674e-02,-7.43433e-01,1.51613e-03,1.85378e-01,-5.26835e-01,
8.99726e-02,-3.69175e-01,1.35319e-01,3.09531e-01,-2.76290e-01,-3.20802e-01,-1.08023e-01,-1.93260e-01,1.98701e-01,2.81895e-01,-9.32293e-02,-3.35247e-01,-2.61028e-01,-2.05670e-01,-3.43360e-01,-9.92978e-02,-2.83364e-02,-2.64695e-01,-1.50138e-01,6.08984e-03,2.93938e-01,2.89027e-02,-1.88706e-01,-2.86392e-01,-1.65709e-01,3.00920e-02,-1.57426e-01,-6.22631e-02,-2.28174e-01,-9.39489e-02,
-3.51417e-02,-5.33760e-02,-2.19367e-01,8.15878e-02,-3.23072e-02,2.08083e-01,1.24291e-03,1.83630e-01,-8.91341e-02,8.24916e-02,7.51154e-02,-2.44329e-01,4.74534e-01,2.56139e-02,3.91054e-02,-1.37533e-01,-1.52121e-01,2.82473e-02,1.62176e-01,2.70348e-01,-3.08191e-01,4.31197e-02,1.51635e-01,2.17874e-01,6.94686e-02,6.69801e-01,1.67143e-01,5.83204e-02,3.12455e-02,-1.66446e-01,
-1.68385e-01,
3.61875e-02,
6.19802e-02,
4.52203e-02,
1.51978e-01,
-7.66479e-02,
1.87109e-01,
7.38738e-03,
-3.26757e-01,
5.39933e-02,
-1.05870e-03,
-1.22121e-01,
9.69107e-02,
-3.48448e-02,
-3.99680e-01,
1.56296e-01,
2.67660e-01,
-6.54730e-02,
-2.34456e-01,
7.65205e-02,
1.73063e-01,
-2.07800e-02,
5.61415e-03,
-5.54001e-02,
-1.44235e-02,
4.04599e-02,
-3.06677e-01,
6.88335e-02,
-2.61661e-02,
9.60805e-02,
-2.75078e-02,3.26644e-01,-9.22148e-03,2.42132e-01,-2.58179e-01,2.01097e-02,-7.66544e-02,1.24034e-01,1.00381e-01,-3.83711e-02,-4.11612e-02,8.14950e-02,2.60182e-02,3.22783e-02,3.77838e-01,-7.35851e-04,-7.35137e-02,-2.30331e-02,-1.92991e-01,1.49543e-01,6.88410e-02,2.29244e-01,-4.56899e-02,1.47281e-01,3.16811e-02,1.72492e-02,3.60413e-01,-1.59413e-01,6.57560e-02,3.02588e-02,
2.61662e-03,1.82317e-02,-5.68486e-02,1.07266e-01,-1.49678e-02,6.81420e-03,-6.88792e-02,9.80800e-02,9.72852e-02,-2.01706e-01,-5.52259e-02,2.79098e-02,-1.89733e-02,2.23331e-01,5.79628e-02,-1.28807e-01,-7.22697e-02,-2.88085e-02,3.41273e-01,1.26487e-01,1.17834e-01,4.52819e-02,-4.57355e-02,1.57013e-01,9.33855e-03,1.89328e-01,-2.05132e-02,-5.05385e-03,1.31925e-01,3.23677e-02,
1.18990e-01,1.22593e-03,-7.01476e-04,2.92451e-01,7.44531e-03,2.59769e-02,-1.60713e-01,4.13596e-03,1.88624e-01,-4.74348e-02,-1.10726e-01,-5.39813e-02,1.50710e-01,3.91345e-01,2.13827e-01,5.53130e-02,-2.41811e-01,-2.49017e-02,-1.37815e-01,9.94263e-02,2.17926e-02,-3.39918e-01,-4.35606e-02,5.50894e-03,5.55804e-03,-1.68461e-02,2.33854e-01,-5.89047e-03,9.12731e-02,-2.06944e-02,
-3.87132e-02,1.54152e-02,-5.04186e-02,-3.01687e-01,-1.40769e-02,1.28640e-02,-4.89328e-02,1.04700e-01,6.66152e-02,-2.02850e-01,-4.38085e-02,-2.23433e-01,-5.13410e-02,2.55770e-01,-1.66452e-01,-1.42218e-01,-3.38785e-02,-3.11983e-02,-1.82536e-01,1.11686e-01,1.28189e-01,-3.06238e-01,-4.32348e-02,1.76288e-01,-1.39496e-02,1.97594e-01,5.90879e-02,-2.64240e-03,-2.49869e-01,4.57136e-02,
2.23047e-01,7.22646e-04,4.38600e-02,3.17317e-01,-8.65434e-03,5.20692e-02,-1.84164e-02,1.33808e-01,4.16260e-04,1.40157e-02,-1.53076e-02,-2.97690e-01,-3.58237e-02,-3.05578e-01,2.20740e-01,1.05629e-02,2.54323e-02,-2.50069e-02,1.10846e-01,1.43687e-01,1.37962e-02,3.04517e-01,-6.78383e-02,8.15596e-02,2.40779e-01,-2.41834e-02,-1.01195e-01,6.88950e-03,-2.32415e-01,4.72883e-02,
4.85096e-02,
7.77043e-02,
5.48475e-02,
6.77117e-02,
-2.31997e-02,
