// Neural Network File Format by Kyle Julian, Stanford 2016
6,5,5,30,
5,30,30,30,30,30,5,
0.000,
499.000000,-3.141600,-3.141600,100.000000,0.000000,
36656.000000,3.141600,3.141600,472.000000,1200.000000,
17688.500000,0.000000,0.000000,249.000000,532.000000,9.330048,
36157.000000,6.283200,6.283200,372.000000,1200.000000,423.773936,
2.71547e-02,-6.90317e-01,5.14200e-01,-3.64153e-02,4.04227e-01,
-1.02643e-01,6.57616e-01,-2.69615e-01,-1.24333e-04,3.79319e-01,
-1.34863e-01,2.49387e-02,1.38841e-01,-1.83992e-01,6.44988e-01,
-2.60267e-01,2.90752e-01,1.13647e-01,1.95191e-01,2.34715e-02,
5.32480e-03,6.80685e-01,3.21832e-01,-1.60932e-01,1.29997e-01,
-7.17037e-01,-9.86245e-02,4.62308e-02,-4.93485e-02,-2.87713e-02,
4.97733e-01,-1.06332e-02,2.22779e-02,3.60245e-02,3.98504e-03,
5.56014e-03,-2.86686e-02,2.63382e-01,-1.61962e-01,7.45780e-01,
5.11900e-03,-8.02327e-01,7.61095e-01,-4.53550e-02,1.70866e-01,
2.18632e-01,-3.23633e-02,9.12932e-02,-2.44206e-01,1.20744e-01,
-4.53690e-02,1.06756e+00,1.47985e-02,1.11624e-01,-3.14861e-01,
1.68499e-02,7.25130e-01,-6.75686e-01,1.53230e-01,-1.22827e-01,
4.14336e-02,-3.45476e-01,-5.95836e-01,1.69324e-01,-1.20213e-01,
2.76060e-02,-3.00512e-01,-1.29066e-02,-2.16559e-01,-2.25574e-02,
3.88257e-02,-9.28985e-01,-1.05521e-01,-6.11298e-02,-6.26157e-02,
6.52363e-03,-2.76491e-01,-7.98863e-01,7.01360e-02,1.06930e-01,
7.90579e-02,-1.00761e+00,4.94649e-01,8.24586e-02,-1.73728e-01,
-7.52826e-02,3.48372e-01,8.54189e-03,-2.62460e-01,8.28762e-01,
1.02636e-01,1.89382e-01,-2.74222e-01,-1.29408e-01,-8.13822e-01,
3.97852e-01,1.00180e-02,-5.18306e-02,1.51832e-01,-6.69553e-02,
3.78945e-02,3.96537e-01,-1.00601e-01,1.33557e-01,-5.61765e-02,
-5.21600e-03,2.16405e-03,7.02189e-01,2.10411e-02,3.31334e-01,
1.31591e-02,9.58471e-01,-8.38470e-01,-1.93193e-02,4.02646e-01,
1.06103e-01,1.08401e+00,-3.47223e-01,1.26188e-01,-6.63775e-01,
2.49344e-02,1.58906e-02,1.88591e-01,2.77355e-01,-5.12417e-01,
-8.61374e-02,5.37047e-01,-2.59172e-01,-2.21001e-02,4.66222e-01,
1.23315e-03,-5.48597e-01,-6.43447e-01,2.72560e-01,-2.62659e-01,
5.26469e-02,1.03230e+00,-1.02290e+00,-5.94161e-02,2.98087e-01,
-1.96923e-01,6.30767e-01,-9.50567e-01,9.64509e-02,-1.63045e-01,
3.99689e-01,-2.22472e-01,-1.36150e-01,7.80005e-02,2.15820e-01,
3.29031e-03,
1.31510e-01,
1.00010e-01,
7.35523e-02,
1.45782e-01,
-1.14407e-01,
1.61447e-01,
1.00364e-01,
-2.79190e-01,
-3.41710e-01,
-3.40881e-01,
-2.50714e-01,
7.98999e-02,
6.88191e-02,
2.10708e-02,
-1.59008e-01,
-3.03097e-01,
2.97874e-01,
-3.23045e-01,
2.26368e-01,
1.58012e-01,
1.53972e-01,
-1.35067e-01,
-2.12995e-01,
4.08751e-02,
3.16844e-01,
-1.68142e-01,
-3.47839e-01,
-1.33494e-01,
3.04915e-01,
-5.36026e-01,5.35147e-02,-3.54239e-01,1.03177e-02,9.78506e-02,1.07253e-01,1.76184e-01,4.63581e-01,-3.25484e-01,-3.14034e-01,-4.86454e-01,1.05112e+00,-3.58194e-01,2.73879e-01,7.76650e-01,-4.33875e-01,-1.77339e-01,-3.77719e-01,2.68169e-01,-3.70772e-02,-3.88609e-01,1.27541e-01,3.49405e-01,4.23515e-01,4.84508e-01,-1.63807e-01,-2.26906e-01,6.45010e-01,5.30561e-01,3.73573e-02,
9.78843e-02,3.04187e-01,6.20224e-02,-5.22642e-02,1.34081e-01,-7.13002e-02,-1.11172e-02,4.23253e-01,9.79901e-02,1.33231e-01,3.09365e-01,-3.58747e-01,4.17032e-01,2.98602e-01,-3.56753e-02,-4.57314e-01,2.78823e-03,-4.30171e-01,2.06063e-01,1.01162e-01,7.23496e-02,-1.99173e-01,-1.06096e-02,-1.18951e-01,-1.79900e-02,-3.47294e-01,-7.84033e-02,6.66045e-01,-1.70498e-01,-1.38926e-01,
-2.09644e-01,2.90724e-01,3.00086e-01,2.92551e-01,-1.92417e-01,6.79782e-02,2.03264e-02,3.00311e-01,1.59831e-01,-1.17860e-02,5.16943e-02,2.98235e-01,-3.08292e-01,-1.09703e-01,1.75977e-01,-2.83939e-01,-2.21672e-01,-1.99741e-01,2.70757e-01,1.65311e-01,2.24438e-02,-3.07572e-01,-1.37836e-01,-1.53937e-01,2.10923e-01,-1.19856e-02,-2.36076e-01,1.72394e-01,-1.35695e-01,2.00216e-01,
1.27495e-02,6.08728e-02,-4.88183e-01,-4.20117e-01,3.76590e-02,-1.64111e-01,-6.63680e-01,-5.53677e-01,-5.75314e-01,-3.11032e-01,-1.76260e-01,6.47599e-01,2.51916e-01,-1.24702e-02,2.73165e-01,-1.62413e-01,4.92569e-01,5.08135e-01,-5.91812e-01,1.65912e-01,-3.64723e-01,1.10618e-01,1.32133e-01,-2.19090e-01,3.05137e-01,-1.39736e-01,8.83963e-03,9.20920e-01,5.22259e-02,3.64466e-01,
2.24453e-01,-2.85213e-01,-1.96003e-01,1.57550e-02,3.12594e-01,-1.45009e-01,-1.35926e-02,-2.71582e-01,4.69499e-02,-1.22733e-01,-6.71880e-01,6.12959e-01,3.46625e-02,-7.78357e-02,-5.55427e-02,-1.71064e-01,-7.68053e-01,1.86068e-01,-1.48923e-01,-5.32933e-02,-1.84776e-01,9.99108e-02,2.59706e-01,2.40189e-01,7.40927e-02,-3.92650e-02,-2.28130e-01,4.31395e-01,6.87805e-01,2.48888e-01,
-6.75368e-02,-1.52977e-03,6.29465e-03,7.96278e-02,-1.14958e-01,5.39604e-03,-2.05755e-01,1.66832e-01,5.97863e-01,-6.32809e-02,2.41083e-01,-2.43140e-01,-3.20714e-01,8.39111e-02,1.02649e-01,2.80003e-01,8.40175e-03,1.59206e-01,4.31650e-01,2.09113e-01,1.72073e-01,-1.22653e-01,-2.33113e-01,3.97080e-01,-2.87060e-01,-1.89498e-01,5.11544e-01,-3.31873e-01,-6.32029e-01,2.94354e-01,
-7.45181e-02,-1.11436e-01,7.95997e-01,4.33859e-01,-1.02492e-01,2.38341e-01,9.09824e-03,-3.26860e-01,-3.20686e-02,5.11462e-02,-8.91460e-02,6.44279e-01,1.51239e-01,-1.54540e-01,7.95021e-02,-2.57883e-01,4.29956e-02,4.10753e-01,-3.15896e-01,1.60963e-01,-1.31276e-01,-2.34375e-01,-6.38032e-01,-1.82470e-01,-8.86772e-03,1.77987e-01,1.49860e-01,2.91064e-01,-1.76698e-02,3.05512e-02,
-1.95202e-01,-4.92547e-01,-2.92104e-01,-3.02695e-01,3.24899e-02,-6.11175e-01,2.61053e-01,-9.97251e-02,1.94230e-01,2.47810e-01,-2.33821e-01,2.42870e-02,2.86535e-01,-1.75432e-01,1.62042e-01,2.62932e-02,-1.40443e-02,4.15679e-02,-2.58952e-02,-1.66803e-01,-1.94665e-01,2.60750e-01,-4.30282e-01,-3.62005e-01,1.50508e-01,1.89237e-01,2.02376e-01,4.76864e-02,2.98722e-01,1.87864e-02,
-6.70815e-01,1.84374e-01,4.82192e-01,9.06596e-02,3.72043e-01,-2.05121e-01,-3.26669e-01,-2.61454e-03,-1.24653e+00,-1.07364e-01,6.81667e-01,-4.46954e-01,4.55955e-01,1.63270e-01,3.14749e-01,-1.53824e-01,-8.06184e-01,4.63177e-01,-5.81261e-01,4.17280e-01,-1.18945e-01,-5.05194e-01,-8.69027e-01,-7.93111e-01,-5.94636e-01,-1.10640e-01,4.91575e-01,-1.24066e+00,-1.97004e-01,4.93077e-01,
1.00867e-01,5.66441e-02,-2.19015e-01,-4.46011e-01,-2.24936e-02,-5.84250e-01,-3.99049e-01,1.34943e-02,8.93403e-01,2.17156e-01,1.18976e-01,-1.77088e-01,-5.17157e-01,-1.18911e-01,-1.06978e-01,-5.47877e-01,7.64177e-01,3.75395e-02,-2.58157e-01,2.76361e-01,-4.17644e-01,3.08325e-01,-2.32250e-01,6.48894e-03,6.49612e-02,-4.72872e-01,5.26341e-01,7.00034e-02,-1.69864e-01,1.59045e-02,
5.87826e-01,6.38434e-03,-8.47937e-01,2.82077e-01,-2.80248e-04,1.24692e-01,2.54030e-01,1.75075e-01,1.72843e-02,-1.15967e-01,-8.90827e-01,1.28209e+00,-2.55207e-02,3.90987e-02,3.77576e-01,-4.30805e-01,1.22000e-01,2.87218e-01,-2.21897e-02,-4.81598e-01,-2.33520e-01,-2.21312e-01,1.57907e-01,6.54917e-01,3.72818e-02,-1.52053e-01,-1.06890e-01,9.15921e-01,3.33332e-02,-1.53778e-03,
-1.79063e-01,-1.80721e-01,-5.11084e-03,-4.29574e-02,-3.14844e-01,-2.50717e-01,-1.77416e-01,9.31468e-02,-1.31054e-01,-2.71914e-03,-2.65798e-01,-3.11514e-01,-1.58945e-01,7.20509e-02,-1.70780e-01,-2.96659e-01,1.02809e-02,1.17822e-02,9.24281e-02,-3.82378e-02,-2.39150e-01,-3.96661e-02,1.51774e-01,-5.72668e-02,-8.86409e-02,1.98615e-01,-1.15741e-01,3.64637e-02,1.35728e-01,-5.38008e-02,
4.99910e-01,1.90199e-02,7.29975e-01,1.34203e-01,-3.95704e-01,6.39948e-01,4.73046e-01,-6.27103e-01,-3.44249e-01,-1.95745e-01,1.36715e-01,-9.60565e-01,2.96977e-01,-1.97641e-01,2.56694e-02,-2.77767e-01,-3.09387e-01,9.15471e-02,-3.69039e-01,-1.45802e-01,1.58090e-01,2.09460e-01,1.03762e+00,-1.76187e-01,-7.18885e-02,-2.21619e-01,1.46706e-01,-8.06730e-01,5.78867e-01,-6.01258e-01,
-1.37062e-01,7.12398e-02,-3.50047e-01,-9.25395e-02,-1.93872e-01,-7.50728e-02,3.37318e-02,-7.77049e-01,1.07671e-01,1.19382e-01,-2.46896e-01,-1.04616e+00,1.19409e-02,2.85270e-01,-9.30181e-02,3.77914e-01,-1.35609e-01,2.42515e-01,-4.77251e-01,1.56233e-02,1.26663e-01,3.58088e-01,-2.57023e-01,-1.58405e-02,-6.17130e-01,5.88660e-01,-1.77747e-01,-1.94974e-01,6.88679e-02,-2.72419e-02,
7.50002e-02,2.72068e-01,-3.88516e-03,-2.84892e-01,2.50924e-01,-1.99759e-01,-2.45118e-01,-1.57097e-01,-8.24360e-01,-3.01805e-01,3.57198e-01,-3.01319e-01,-8.46149e-02,1.49510e-01,6.23376e-01,3.64354e-01,5.09793e-01,1.97423e-01,-9.54044e-02,9.58026e-02,6.89257e-02,5.91155e-02,-8.00406e-02,7.31485e-02,-4.51515e-01,1.58332e-01,5.62959e-01,-8.84644e-01,9.90794e-02,1.50857e-01,
-6.32808e-01,1.60546e-01,-2.68017e-01,-3.57942e-01,2.35729e-01,-5.04204e-01,-3.15472e-01,-4.94587e-01,-3.04503e-02,-9.71518e-02,-2.12291e-01,3.32624e-01,-1.52997e-01,-1.08246e-01,-8.44860e-01,-1.27666e-01,2.50154e-01,1.78646e-02,-1.64313e-01,2.35314e-01,9.42050e-02,4.25409e-01,-1.69880e-01,1.11530e-01,-1.98988e-01,2.08126e-01,-2.82589e-01,-5.47554e-01,-4.00798e-01,-1.60914e-01,
-3.20694e-01,-2.44228e-01,2.06669e-01,-1.43048e-01,3.89968e-01,-5.91080e-01,-4.12287e-01,-7.69183e-02,-5.80304e-01,-3.61959e-01,-1.23495e-01,4.21668e-01,-1.57176e-01,9.36382e-02,4.21202e-02,2.11177e-01,1.21456e+00,-5.85817e-02,5.22563e-01,4.80491e-01,2.26251e-01,-3.95286e-02,-3.24758e-01,9.57448e-02,1.88674e-01,2.84074e-01,-3.95485e-01,1.05720e-01,-8.82593e-02,1.96012e-01,
-9.35000e-03,-1.61845e-01,-1.09630e-01,8.92289e-02,-6.78558e-02,3.78290e-01,2.56660e-01,-1.49918e-01,-8.86757e-01,5.75561e-02,2.92483e-01,5.47345e-02,3.62721e-02,-1.25613e-01,-1.93478e-02,1.25457e-02,2.12428e-01,3.29221e-01,-6.10700e-01,-3.17242e-01,1.07288e-01,-6.01208e-02,-8.13460e-01,-4.05810e-01,-7.80871e-04,2.92309e-01,-1.67049e-02,2.03020e-01,-1.54101e-01,2.99049e-02,
-9.64721e-01,2.67460e-01,4.53496e-01,2.97243e-02,2.00313e-01,-2.46810e-01,-3.19456e-02,1.16065e-01,-1.65686e+00,2.55515e-02,6.02122e-01,-3.78529e-01,2.09129e-01,2.39464e-01,4.33260e-01,2.66394e-01,-5.91388e-01,2.72183e-01,-5.63990e-01,1.60945e-01,2.74963e-02,-1.17220e-01,-9.70125e-01,-3.42633e-01,-3.66164e-01,1.17247e-01,4.11058e-01,-1.74816e+00,-5.87754e-01,3.80806e-01,
-1.79271e-01,-8.02644e-01,-2.96592e-01,1.21974e-01,1.93492e-01,-4.65874e-02,-3.71176e-02,-3.14914e-01,-9.60715e-01,-9.28154e-02,-1.61679e-01,-1.47197e-01,-3.42205e-01,8.31482e-02,1.77064e-01,3.57341e-01,-1.59803e+00,2.52345e-02,5.38646e-01,2.56091e-01,1.66475e-01,4.54844e-01,-3.05604e-01,1.48587e-01,-1.82882e-01,5.82844e-01,-5.30715e-01,-1.89350e-01,-2.26498e-01,4.35571e-02,
-1.28751e-01,-5.06487e-01,-8.97490e-02,-3.91788e-01,-6.05850e-01,-5.64147e-02,7.46368e-02,-1.78614e-01,5.48025e-01,4.91277e-02,6.53529e-01,3.81173e-01,-1.18640e-01,-3.24105e-01,-2.23675e-01,-2.75020e-01,5.31851e-01,2.41708e-01,-5.41902e-01,-1.56402e-01,8.39260e-02,2.75383e-01,-5.07475e-01,-2.83299e-01,-2.46670e-01,5.14252e-01,-1.76234e-02,7.79821e-01,-1.95089e-02,-1.22040e-01,
3.58727e-01,-2.08528e-02,1.67168e-01,8.43441e-02,-1.62872e-01,3.73284e-01,-4.93649e-02,3.04941e-01,-2.48167e-01,-2.27554e-01,-3.30892e-01,8.01343e-02,5.92699e-02,-4.47704e-01,2.30378e-01,-2.14862e-01,-9.99662e-02,-1.06882e-01,3.56342e-01,-9.87929e-02,1.39812e-01,-1.75593e-01,-8.32737e-02,8.01011e-01,1.86439e-01,1.36521e-01,-1.96523e-01,-4.53843e-01,9.90515e-03,8.56377e-02,
4.98055e-01,-3.82955e-01,-1.72526e-02,-6.32083e-02,-3.60882e-01,3.99716e-01,-5.10122e-01,2.01823e-01,3.57350e-01,1.89096e-01,-6.28498e-01,4.58764e-01,-3.98584e-01,-2.12105e-01,-2.81709e-01,1.80413e-02,-5.48607e-02,-7.15387e-03,-2.19173e-01,6.58780e-03,5.02265e-01,1.48941e-01,6.74026e-02,1.15799e-01,-5.58106e-02,-3.72132e-01,-9.19777e-02,8.75421e-01,5.38628e-01,1.93963e-01,
-2.01449e-02,-1.05805e-01,-1.53790e-01,1.35991e-01,-6.41434e-03,-1.89222e-02,2.41249e-01,-2.90316e-01,-3.39813e-01,7.53437e-02,5.63656e-02,-2.51334e-02,-1.91671e-01,4.55522e-02,4.85804e-02,-3.20381e-01,5.38388e-02,-3.07695e-01,2.31035e-01,-2.88967e-01,-2.86260e-01,9.97741e-02,8.57383e-02,-2.16836e-01,-8.77229e-02,-1.65950e-01,9.06278e-02,-1.26993e-01,2.27563e-01,-6.86774e-02,
-2.66752e-01,-2.29778e-01,1.82159e-01,-8.19571e-02,3.52972e-01,2.66249e-01,6.82133e-03,5.55691e-01,7.06432e-01,-1.46974e-01,4.09520e-02,-6.16645e-01,2.54834e-02,-1.91289e-01,-4.00327e-01,7.05027e-01,9.52668e-01,-4.53727e-01,6.97372e-01,7.50839e-02,3.31611e-02,-2.84874e-01,5.37784e-02,7.03001e-01,4.17538e-01,1.13060e-01,-3.30696e-01,3.47459e-01,-6.51643e-01,-2.09033e-01,
-2.02552e-01,1.34926e-01,3.18346e-01,2.09251e-01,2.05004e-01,-2.07909e-02,9.99749e-02,4.15530e-01,1.05047e+00,2.80478e-01,-5.76589e-01,2.03041e-01,-1.88739e-01,-1.93087e-01,2.74853e-01,2.43396e-01,7.34591e-01,-6.27691e-01,-1.27790e-01,2.69690e-01,-1.93194e-01,-1.77648e-01,4.39580e-01,2.10865e-01,3.25674e-01,3.21486e-02,-9.96421e-02,2.50674e-01,1.85894e-01,-3.40234e-01,
-8.71115e-01,1.21592e-01,1.84232e-01,-9.81934e-02,-1.35571e-01,6.03795e-02,5.61466e-04,4.72474e-03,-7.07776e-01,1.40136e-01,1.13184e+00,-4.90121e-01,-2.36233e-01,1.00841e-01,1.90153e-01,7.19486e-01,-1.16457e-01,3.15128e-01,2.20521e-01,-1.32478e-01,1.59096e-01,3.95036e-01,-2.46115e-01,-3.13746e-01,-4.02548e-01,-2.20248e-02,5.25143e-01,-1.67848e+00,-5.10160e-01,2.68581e-01,
2.94258e-01,-6.85218e-01,-1.71542e-01,-3.26356e-01,-3.64468e-01,-1.90987e-02,-3.28650e-01,-1.72581e-01,6.81075e-01,-1.91583e-01,-2.33171e-01,6.61994e-02,2.16284e-01,1.02288e-01,-2.09180e-01,-9.82303e-02,1.84956e-01,1.08928e-01,-1.23510e-02,1.19277e-01,2.36993e-01,-1.34704e-01,3.87854e-01,-1.40115e-01,1.97886e-01,-3.84950e-01,2.68229e-01,4.77490e-01,1.10159e-01,3.43413e-02,
2.11979e-01,-2.29911e-01,2.53933e-02,-3.13420e-01,-1.89063e-02,3.07094e-03,9.53208e-02,2.24434e-01,-6.57373e-02,1.40807e-01,5.36916e-02,1.32212e-01,-2.10127e-02,-3.11990e-01,-6.97865e-02,-2.70428e-01,-6.77438e-02,-3.71058e-02,-3.06368e-01,-2.20239e-01,1.23303e-01,-3.34097e-02,6.75498e-02,-2.80506e-01,8.24777e-02,-1.89747e-01,-8.47607e-03,1.32073e-01,-1.85879e-01,-1.02466e-01,
-2.16523e-01,-5.15527e-01,-5.45100e-01,-3.06277e-01,-8.02478e-02,6.19607e-01,-6.36145e-01,-2.84421e-01,1.19010e-01,8.65816e-02,-2.35849e-01,2.56609e-01,1.43964e-01,-8.67631e-02,-1.95277e-01,-8.26250e-02,1.94407e-01,-9.85832e-01,4.18484e-01,-3.98774e-01,-2.94738e-01,2.47886e-01,8.19284e-01,-2.13732e-01,-1.89059e-02,-1.08050e-01,2.71201e-01,-4.69852e-03,2.44729e-01,-5.71005e-01,
-2.63028e-01,
1.48360e-01,
-3.32471e-01,
-5.29160e-02,
5.81688e-02,
1.31873e-01,
3.11210e-02,
-1.27368e-01,
-7.29456e-02,
-1.42421e-01,
-8.65162e-02,
-5.63204e-02,
-8.53324e-02,
2.22985e-01,
-1.09855e-01,
6.27694e-02,
-4.61812e-03,
1.20944e-01,
-1.55469e-01,
-1.39503e-01,
1.75086e-01,
-7.56555e-03,
7.80502e-02,
-2.42561e-02,
-3.13466e-02,
1.35053e-02,
1.63028e-01,
-4.43861e-02,
-6.41238e-02,
-1.72401e-02,
-2.63110e-01,-3.53861e-01,2.60804e-01,2.30165e-01,-2.04511e-01,9.74118e-02,-2.99244e-01,9.31180e-02,1.53549e-01,-1.04588e-01,-3.44212e-01,7.88308e-02,4.21066e-02,-2.03510e-01,1.25932e-01,9.04796e-03,8.26760e-02,-1.47587e-01,-2.23710e-01,3.01351e-01,2.91653e-02,2.32561e-02,6.15921e-03,2.10407e-01,1.43340e-02,2.29425e-01,1.68599e-01,-1.31920e-01,-2.51830e-01,1.93388e-01,
2.54767e-01,-1.89185e-01,2.56147e-02,1.94719e-01,-7.57392e-02,1.50625e-01,2.33557e-01,1.27452e-01,-8.66706e-01,1.58247e-02,-2.67949e-01,1.36737e-01,9.18626e-01,7.49531e-02,1.50514e-01,-2.19340e-03,1.51772e-01,2.81252e-01,2.62628e-01,3.75247e-01,-2.25029e-01,-1.93167e-01,1.13815e-01,-6.48051e-02,1.65437e-01,5.55382e-04,7.52531e-03,-6.39805e-02,2.39979e-01,2.31204e-01,
-3.29178e-01,2.00263e-02,-3.06127e-01,-3.90420e-01,4.62467e-02,-4.38266e-01,1.01094e-01,-4.05627e-01,-3.16050e-01,-5.87058e-01,6.43554e-02,1.57720e-01,1.71102e-01,-5.24976e-02,3.61643e-01,-3.01815e-01,-3.58279e-01,1.35034e-01,-6.49002e-04,-7.90666e-03,-3.49480e-01,-9.29739e-02,4.83092e-01,-8.01377e-02,2.34352e-01,-2.90096e-01,-1.46014e-01,3.39151e-01,-3.15687e-01,-1.92749e-01,
-3.45878e-01,1.96756e-01,-1.78802e-01,-9.75227e-02,1.95326e-01,6.54620e-02,5.79225e-02,1.88861e-01,5.64232e-01,-7.02321e-02,1.39118e-01,-2.92164e-01,-6.10123e-01,2.52482e-01,2.65567e-02,-3.18831e-02,5.35789e-02,-1.62446e-01,-8.08611e-01,3.17420e-02,-5.51805e-02,-6.49256e-02,1.65344e-01,-5.79638e-02,-5.96561e-02,-1.16834e-02,1.62062e-01,2.65458e-01,-1.65616e-02,-2.16971e-01,
-1.39603e-01,-2.08950e-01,-1.20336e-01,2.26197e-01,-7.51728e-02,-7.17287e-02,-4.45440e-02,3.53819e-02,7.43594e-02,-2.45017e-02,-7.79881e-02,-2.87079e-01,-2.70949e-01,7.16340e-02,-2.41032e-01,1.70412e-01,-9.18693e-02,-4.67646e-02,1.46167e-01,1.78691e-01,-3.00573e-02,2.38255e-01,-3.55158e-02,3.14568e-01,2.84908e-01,1.62296e-01,1.52548e-02,-3.32046e-02,-2.03905e-01,5.38621e-02,
-1.27506e-01,4.10934e-02,-2.63108e-01,-3.02859e-02,-1.15004e-02,1.90923e-01,4.79363e-02,3.95677e-02,4.17201e-01,-5.13035e-01,-1.90895e-01,-1.36629e-01,4.15725e-02,5.05231e-01,2.07801e-01,1.02397e-01,3.10891e-01,2.71522e-01,-3.17405e-01,1.48965e-01,1.25215e-01,7.41994e-02,-4.10417e-02,-3.11016e-01,-4.36334e-03,3.68054e-01,-4.97592e-01,1.72255e-02,1.13364e-01,-5.02173e-01,
-8.44582e-02,-2.59022e-01,2.30435e-03,-1.10895e-01,-1.42472e-01,2.41317e-01,-1.99730e-01,-2.56802e-01,-1.54107e-02,-9.76490e-02,5.11706e-02,-2.67971e-01,3.23094e-02,-1.06729e-01,-6.18234e-02,-1.63324e-01,-2.15053e-01,-1.14055e-01,2.73737e-01,2.14992e-01,2.51527e-01,-1.12287e-01,2.56587e-02,-1.04830e-01,1.55685e-01,1.65538e-02,1.31052e-01,3.21708e-02,-3.00013e-02,-4.77396e-02,
-1.28495e-01,3.66865e-01,-1.60494e-01,-7.68757e-01,-9.61445e-02,-4.41382e-01,-3.68110e-03,9.85651e-02,7.94126e-02,2.67177e-01,3.64560e-01,-1.94983e-01,-7.33336e-01,1.33947e-01,1.02587e-01,-5.04598e-01,-6.08393e-01,-1.50520e-01,-1.00408e+00,-9.44410e-01,-8.23854e-03,7.90518e-02,-4.37793e-01,-2.48824e-01,-4.55863e-01,-9.08500e-02,-1.66595e-01,-1.38321e-01,1.41330e-02,6.56821e-01,
-4.87649e-02,1.02813e-01,1.11766e-01,-2.57707e-01,-9.81516e-03,-2.19367e-01,-1.09437e-01,-4.64317e-03,9.45527e-02,-7.77695e-02,1.29124e-01,-1.76316e-01,-3.09179e-02,1.69060e-01,-1.08607e-01,2.01841e-01,-7.10896e-02,6.64924e-02,-3.15758e-01,-2.03831e-01,2.31895e-01,6.64162e-02,-2.41549e-01,1.15381e-01,-2.97694e-02,2.85180e-02,-2.19084e-01,-7.11077e-02,-2.68040e-01,1.43793e-01,
3.31571e-02,-1.71525e-01,1.89923e-02,-2.38646e-02,8.48530e-02,2.96309e-01,-3.34658e-01,-8.13207e-02,-4.84146e-01,-3.13036e-01,1.40971e-01,-1.28188e-01,-1.98607e-01,1.19903e-01,-3.04212e-02,-3.46382e-01,-1.88036e-01,1.99584e-01,1.32555e-01,-4.46016e-01,-6.17385e-02,2.60295e-01,-9.29991e-01,1.03128e-01,-3.36889e-01,-2.03686e-01,-1.40537e-01,2.01768e-01,-2.06490e-01,-1.71860e-02,
-1.08872e-01,4.23682e-02,2.71617e-01,-2.38568e-01,-1.18241e-01,-3.27205e-01,-4.73228e-02,-6.59722e-02,2.11275e-01,-2.56899e-01,3.27964e-02,6.45714e-02,-5.94257e-02,-3.52008e-02,-4.93932e-02,2.34197e-01,1.62070e-02,-5.85968e-03,1.76244e-01,-5.57110e-02,-3.12490e-02,-2.82844e-02,4.35857e-02,-1.20775e-01,-2.95550e-01,2.76790e-02,-1.09156e-01,-2.38589e-02,-4.57473e-02,9.23615e-02,
1.30684e-01,-1.91558e-01,2.75813e-01,-2.23254e-01,1.17269e-01,-1.13701e-01,-2.23580e-01,-2.58092e-01,4.26306e-02,-1.68080e-01,-8.34912e-02,-3.12413e-01,2.45075e-01,-1.46796e-01,2.19020e-01,5.68053e-02,-2.01907e-02,-3.02211e-01,1.13367e-01,2.70655e-02,-2.99806e-01,1.26828e-01,2.07933e-02,-3.12830e-01,9.01571e-02,-1.80914e-01,7.27244e-02,6.99630e-02,2.00246e-01,2.67780e-01,
-1.37510e-01,1.03724e-01,1.41139e-01,-3.18418e-02,2.73281e-03,-7.58253e-02,-2.45353e-01,-2.41038e-01,-1.09728e-01,-1.01651e-01,9.73678e-02,2.10534e-01,7.38690e-02,1.68284e-01,-1.59211e-01,2.40023e-01,6.93554e-03,-5.19603e-03,5.76128e-02,-2.00836e-01,1.03875e-01,-1.81543e-01,-1.89470e-01,-7.79951e-03,1.96955e-01,-5.57727e-02,-3.15290e-01,-2.18086e-01,2.64946e-01,1.57681e-01,
-5.75367e-01,1.73092e-01,2.52604e-02,2.25901e-01,1.57575e-01,-2.27777e-01,-2.36623e-01,1.50801e-01,6.93305e-01,-3.34403e-01,3.34228e-01,-1.36637e-01,-4.50742e-01,-1.40275e-01,-2.31965e-01,-2.83729e-02,1.95038e-01,2.47740e-01,-5.78202e-01,-1.93925e-01,2.06770e-01,2.95970e-01,-6.46307e-02,-1.34604e-01,-3.90418e-02,2.26199e-01,5.62698e-01,2.04078e-04,-2.06896e-01,1.05700e-01,
3.99712e-01,3.15456e-01,1.79315e-01,3.33199e-01,-4.31001e-01,3.76338e-01,-3.53238e-01,-2.78235e-01,-2.91222e-01,-6.04651e-01,-4.14801e-01,-2.26413e-01,-1.12684e+00,-6.00967e-01,-5.97025e-01,-6.14793e-01,-8.77019e-02,-4.53458e-01,-3.11060e-02,-6.70920e-01,4.67083e-01,-1.81853e-01,6.72626e-03,-1.70557e-01,-7.32313e-01,1.40500e-01,-2.16859e-01,-5.09072e-01,2.69018e-01,-2.52015e-02,
-1.59184e-01,-3.86962e-02,-7.66264e-02,-1.43610e-01,-2.39434e-01,-1.60356e-01,-1.91085e-01,2.93056e-01,9.77095e-02,2.71080e-01,1.75333e-01,2.43030e-01,2.36784e-01,9.07422e-02,-2.92408e-01,-1.29860e-01,-9.77090e-02,-2.04573e-01,5.12831e-02,3.43925e-02,-3.02369e-01,-1.27245e-01,-2.63464e-01,-2.71086e-01,1.55432e-01,-1.50710e-01,4.65562e-02,1.46546e-01,-2.39259e-01,8.73022e-02,
-5.71882e-01,2.22150e-01,-2.18401e-01,-2.64772e-01,1.73982e-02,-1.25433e-01,-5.16648e-01,-1.78337e-01,-3.85990e-01,-1.15514e+00,5.54501e-01,1.88588e-01,-5.06638e-01,2.87775e-01,2.05606e-01,-9.19055e-02,-7.11689e-01,-1.94537e-01,-7.63287e-01,-3.54792e-01,-4.94617e-01,-3.34628e-01,-5.96107e-01,2.03215e-01,4.10260e-01,-1.65112e-01,-6.17809e-02,-3.70899e-01,1.58170e-01,4.82595e-01,
-6.09735e-01,3.84389e-01,1.27944e-01,-4.15038e-02,-6.17701e-02,1.65920e-01,-4.35955e-01,-5.88409e-02,2.31395e-01,-8.24498e-01,1.03590e-01,-1.10418e-01,2.24632e-01,2.15506e-01,-2.52181e-01,-1.90835e-01,3.07273e-01,5.37764e-02,-1.29729e+00,-4.59107e-01,1.55289e-01,1.26205e-01,-1.15580e-02,-1.44116e-01,-3.15277e-01,-8.37439e-02,2.01245e-01,-4.68314e-02,2.44413e-01,4.21092e-01,
4.32421e-02,-3.25217e-01,9.73589e-02,-2.05664e-01,-2.47170e-01,6.51250e-02,-3.15234e-01,2.86650e-01,6.50563e-01,-4.01962e-01,2.72843e-02,2.79401e-01,4.15684e-02,-1.48618e-01,-2.25640e-01,1.24563e-02,2.49764e-01,2.73176e-01,-6.90922e-01,-4.14537e-01,3.07373e-01,-1.51139e-01,-1.74539e-01,1.57059e-01,-2.74917e-02,3.38103e-01,2.69405e-01,-4.04343e-02,1.84827e-01,1.78594e-01,
-1.86215e-01,-1.69811e-01,1.36888e-01,2.18648e-01,-2.77909e-01,-7.30060e-02,-7.05645e-02,2.20717e-02,-2.45587e-01,2.81736e-01,1.85567e-01,2.58228e-01,-2.29595e-03,1.21096e-01,2.48511e-01,-2.43709e-01,1.14822e-01,1.50437e-01,1.41127e-01,-8.87639e-02,-2.74180e-01,-1.62441e-01,-1.57310e-01,-2.12310e-01,2.43420e-02,-1.36814e-01,1.50947e-02,1.26793e-01,3.16218e-01,-8.38092e-02,
6.09490e-02,-3.61790e-03,1.06092e-02,-3.57887e-02,-1.15981e-01,-5.19925e-02,-2.78004e-02,7.32972e-02,-3.04682e-02,3.89081e-02,-1.99344e-02,5.43663e-02,1.39001e-01,-3.95727e-02,4.42609e-02,-7.46297e-02,-4.60258e-02,-1.90565e-02,-7.04029e-02,-1.43557e-02,-1.28251e-01,-7.49826e-02,1.15549e-01,-6.85926e-02,-6.53453e-02,-9.96363e-02,-7.70166e-02,-3.48658e-02,-2.25498e-01,7.06229e-02,
3.67777e-01,-2.46817e-02,4.82382e-02,-3.37630e-01,-1.32453e-01,2.15364e-01,-2.41923e-02,-2.73856e-01,4.52659e-01,-7.46739e-02,-2.41044e-01,7.48361e-03,-2.14459e-01,3.40080e-01,7.97297e-02,4.02328e-03,2.20254e-01,2.20191e-01,-4.64135e-01,1.45663e-01,1.86534e-01,-1.16720e-01,-1.52850e-01,1.30651e-01,-2.83267e-02,2.77169e-01,-1.20553e-01,3.23725e-01,-2.55850e-01,-2.97380e-01,
-4.21883e-01,1.25824e-01,-2.79331e-01,-2.39516e-01,-5.87453e-01,1.76989e-01,-8.68612e-02,-3.96928e-02,1.99765e-01,-1.60524e-01,-3.88606e-01,-2.43102e-01,8.76035e-02,-6.29073e-02,-2.66268e-01,-8.89872e-03,-4.82950e-01,4.45049e-02,-3.90112e-01,-1.85177e-01,-2.14552e-01,-3.88059e-02,1.97234e-01,1.68900e-01,-6.88789e-01,8.69002e-02,-2.82386e-01,-1.16529e-01,-1.38485e-01,4.17386e-02,
-3.25704e-01,1.71665e-01,-1.42362e-01,-5.15389e-01,-9.23620e-01,-4.10354e-01,1.08919e-02,-1.53891e-01,2.37174e-01,-4.17939e-01,-1.42437e-01,2.36532e-01,4.17001e-01,-9.85971e-03,2.62028e-02,-1.57753e-01,-9.85382e-01,4.10121e-01,-5.00679e-01,6.85375e-01,-2.78821e-01,1.21197e-01,1.42932e-01,1.84495e-01,-7.41895e-02,3.78360e-01,5.11340e-02,-1.30711e-01,9.01932e-02,6.85862e-01,
2.33591e-01,1.36932e-02,2.35469e-01,2.43499e-01,-1.68743e-01,5.06981e-02,4.46360e-02,1.59933e-01,-2.70397e-01,2.38011e-01,-1.83948e-01,2.01925e-01,-1.72630e-01,1.11789e-02,2.33651e-01,-2.14149e-01,1.80538e-02,-1.96819e-01,2.17368e-01,-3.30330e-02,1.85786e-01,2.41823e-01,-1.58002e-01,7.85505e-02,1.41891e-01,-2.71919e-01,-2.78876e-02,-2.23456e-01,1.79204e-01,8.10848e-02,
-1.42027e-01,7.28913e-02,2.73502e-01,-2.59962e-02,2.26809e-01,1.22611e-02,-8.32730e-02,-5.41695e-02,-2.44572e-01,-7.04817e-01,-7.33630e-02,3.18381e-01,-2.46576e-01,-5.06365e-02,1.40759e-01,-4.08545e-03,-3.30932e-02,6.83499e-02,2.14065e-01,-2.62131e-01,-7.53918e-02,8.38205e-02,-1.52862e-01,2.88720e-01,-8.86127e-02,-1.55938e-01,-1.32628e-01,-5.47128e-02,-3.49519e-02,-2.06772e-01,
-2.01337e-02,6.61422e-03,-6.14018e-02,9.77439e-02,-2.41465e-01,5.37429e-03,-2.67250e-01,-1.22720e-01,6.39149e-01,-2.90142e-01,5.59517e-02,2.82752e-01,2.69188e-02,4.27664e-02,-3.98708e-01,2.40132e-01,-1.36641e-01,-1.63575e-01,-4.57591e-01,-1.72676e-03,3.32553e-01,3.13938e-01,-1.10075e-01,1.95693e-01,-1.12120e-01,2.78934e-01,-2.56376e-01,-2.21643e-01,-7.43800e-02,-6.08358e-01,
-1.77842e-01,1.73766e-02,-1.56355e-01,2.56130e-02,-2.44170e-01,-7.98736e-02,2.05575e-01,1.11183e-01,-2.84786e-01,2.19732e-01,2.43472e-01,-2.16148e-01,2.37876e-01,-4.81658e-03,1.92455e-01,-7.15396e-02,-2.21543e-01,-2.27374e-02,-2.16151e-01,1.80261e-01,-5.30112e-02,-3.15418e-01,-1.40360e-01,-2.09379e-01,-1.11264e-01,1.09050e-01,-2.59598e-01,-8.45409e-02,-1.96638e-01,-1.72744e-01,
2.22460e-01,-2.53646e-01,1.19339e-01,-2.21213e-01,1.52555e-01,-8.42412e-02,-2.98618e-01,-2.40283e-01,1.11429e-01,-2.34125e-01,-9.51836e-02,-1.90863e-01,-3.00173e-01,-8.03140e-02,-9.03377e-02,-2.65012e-01,7.24318e-02,1.30143e-01,1.83549e-01,-2.71988e-01,-2.00152e-01,-2.72218e-01,3.42175e-02,-1.41482e-02,4.72326e-02,-3.11604e-01,5.05669e-02,1.54622e-02,-8.06420e-02,-3.04500e-01,
-1.44963e-01,1.59689e-01,-1.87243e-01,-7.37831e-02,-2.36454e-01,-3.24932e-01,-3.04963e-01,9.38566e-02,-1.98824e-01,-2.76070e-01,1.17468e-01,2.96301e-01,2.87270e-02,-4.05585e-01,3.37610e-02,-6.02381e-02,-3.41883e-01,-2.50292e-01,2.12226e-01,7.97543e-02,-3.62391e-01,-4.29611e-02,-3.23156e-01,1.15450e-01,-2.37711e-01,1.57035e-01,-1.46756e-01,-1.21929e-01,-1.23798e-01,1.02671e-01,
-2.81386e-01,
-7.63028e-02,
1.22340e-01,
-1.37291e-01,
-3.08462e-01,
-2.69267e-01,
-2.30061e-01,
1.29782e-01,
-2.29212e-01,
7.23347e-02,
-9.08067e-02,
-1.27820e-01,
-2.87560e-01,
-9.18283e-02,
2.00243e-01,
-2.52257e-02,
1.89347e-01,
-5.96006e-02,
2.41400e-02,
-2.18735e-01,
1.87240e-01,
-1.04985e-01,
7.36722e-02,
-6.96183e-02,
-2.70215e-01,
1.18153e-01,
7.36767e-02,
-2.16240e-01,
-8.03116e-02,
9.23300e-02,
-2.81630e-01,-5.73647e-02,-1.52714e-01,2.52744e-01,1.60224e-01,1.80621e-01,-1.30962e-01,3.70600e-02,1.05297e-01,2.65090e-02,1.50600e-01,6.34009e-03,-2.89709e-01,-2.18776e-01,6.22016e-02,-1.65257e-01,-7.70260e-02,2.86231e-01,2.14425e-01,1.22268e-01,1.18662e-01,-3.36680e-02,-2.00899e-01,-2.16191e-01,2.97350e-01,2.62411e-01,-3.18915e-02,3.11518e-01,9.14307e-02,3.88896e-02,
-5.12044e-02,5.92691e-02,4.83490e-02,9.04205e-02,3.95859e-02,-2.63636e-01,-4.76651e-02,-2.42052e-01,-9.61918e-02,1.07940e-01,-7.81528e-02,1.53042e-01,1.04959e-01,-1.32115e-01,1.79025e-01,-1.00118e-03,1.62576e-01,8.24651e-02,1.85527e-02,2.53170e-01,-1.25198e-01,-1.25187e-01,-1.46393e-01,7.87120e-02,2.63348e-01,1.14839e-01,-1.18224e-01,6.58272e-02,-2.10095e-01,1.18169e-01,
5.80574e-02,-6.36889e-03,3.40419e-01,2.58649e-01,-2.70567e-01,-1.31731e-01,3.03303e-01,3.94846e-02,1.60565e-01,-2.59976e-01,-2.98799e-01,-1.04299e-01,3.09170e-01,1.22614e-01,2.01667e-01,1.34438e-01,6.67906e-02,1.11676e-01,-1.67682e-01,-2.00699e-01,-1.86874e-01,9.21684e-02,-1.24610e-01,4.58412e-02,2.11576e-01,-1.76205e-01,1.39802e-01,-7.96675e-02,-2.00146e-01,-3.45033e-02,
1.94241e-01,-1.37982e-01,1.36757e-01,-1.36130e-01,2.28177e-01,2.11365e-01,2.23526e-01,-4.70324e-02,1.10247e-01,2.01776e-01,3.23038e-01,-1.71221e-01,-1.66986e-01,-2.23142e-01,-2.56623e-01,-1.92901e-02,1.38707e-01,4.28627e-02,1.66640e-01,-4.57794e-02,4.38882e-02,-1.66152e-01,6.83721e-02,-1.15505e-01,-1.84775e-01,1.83359e-02,-1.70481e-01,-1.74540e-01,2.91321e-01,-1.36296e-01,
-9.88252e-02,-2.21562e-01,6.21082e-01,-2.71487e-01,-2.93193e-01,3.32245e-01,1.62310e-01,-1.28228e-01,-1.53971e-01,-6.83031e-01,2.90580e-01,1.24126e-01,-1.69959e-01,-7.37166e-01,-1.30939e+00,-2.62959e-01,2.37576e-02,1.09382e-01,1.30693e-01,1.67074e-01,-1.86743e-02,-7.55394e-01,8.11788e-01,-2.55078e-01,1.60233e-01,-6.62838e-02,-3.72324e-01,-1.18389e-01,3.06015e-01,1.81052e-01,
-2.19350e-01,-1.04426e-02,-1.80512e-01,1.47511e-01,3.05156e-01,-1.95873e-01,1.45746e-01,-2.04699e-01,-2.37932e-01,-6.96758e-02,2.35072e-01,2.55513e-01,-2.44059e-01,-2.09124e-01,-2.78019e-01,2.51379e-01,4.18991e-02,-8.30954e-02,1.60775e-02,1.32500e-02,-3.62890e-01,-2.40181e-01,1.95802e-01,-2.92388e-02,-2.09585e-01,3.47173e-02,6.10052e-02,3.83073e-02,2.55127e-01,1.26167e-01,
-2.89001e-01,1.90331e-01,-2.59814e-01,4.62632e-02,7.90519e-02,-1.41545e-01,5.71479e-02,-7.41052e-01,7.10774e-02,1.34710e-01,-1.98435e-01,2.41577e-01,-1.41133e-01,1.57910e-01,-7.00291e-02,1.48301e-01,-1.86229e-01,2.92285e-01,-2.45192e-03,4.39596e-03,2.16575e-01,7.67858e-02,9.87343e-02,-2.02307e-01,1.30559e-01,-1.43537e-02,1.06107e-01,-8.32012e-02,-1.93529e-01,2.20847e-01,
4.49988e-02,1.50842e-01,-8.90659e-02,-1.93318e-01,-1.58234e-01,-3.83306e-02,4.96387e-02,-2.95871e-01,-1.55179e-01,-1.94939e-01,-7.63921e-02,-3.88233e-02,-1.44825e-01,-1.09298e-01,-2.46484e-01,1.38145e-01,-3.45262e-02,-6.07637e-03,6.82252e-02,2.40910e-01,-1.25861e-01,8.14315e-02,2.78091e-01,1.58539e-01,-2.81233e-01,6.55339e-02,4.66131e-02,2.48708e-02,-2.54817e-01,-1.59881e-01,
1.23211e-01,7.34728e-02,-6.34992e-03,1.68487e-01,8.05229e-03,-1.15061e-01,-3.00601e-01,7.33939e-01,4.91085e-02,-8.05397e-02,-1.69246e-01,1.34955e-01,-2.76523e-01,4.64815e-02,3.64214e-01,-2.11999e-01,8.38023e-01,4.85340e-02,1.39337e-01,2.35863e-01,-2.46459e-01,-2.99629e-02,4.96201e-03,-1.94804e+00,-2.31279e-01,-1.22062e-01,3.81722e-02,1.81897e-01,3.65713e-02,-1.01467e-01,
-8.64011e-02,1.13330e-02,-2.56718e-02,7.88723e-02,-5.32037e-02,2.83816e-02,-2.25319e-01,1.24243e-01,-1.22634e-01,6.16591e-03,1.75030e-02,2.10319e-01,4.97884e-03,2.79914e-01,2.18135e-01,-5.24588e-02,-3.34079e-01,-2.08170e-01,-1.24987e-01,6.26407e-02,2.03261e-01,-1.00727e-01,-1.22219e-03,1.83622e-01,-6.94559e-02,-1.33185e-01,1.32145e-01,3.51597e-02,-2.59909e-01,2.95778e-01,
-2.86528e-01,2.87520e-01,2.58227e-01,-1.86779e-01,5.58859e-02,-2.15118e-03,-2.13037e-02,2.01688e-01,-2.59730e-02,8.56539e-02,8.49773e-02,-2.12792e-01,-2.02552e-01,-1.71818e-01,2.93054e-01,-1.54039e-01,-4.84686e-02,1.95300e-01,1.36348e-01,-7.78367e-02,-2.74939e-02,-1.36606e-01,2.72479e-01,2.87634e-01,1.91744e-01,1.26090e-01,2.65760e-01,7.42337e-02,8.96757e-02,7.30086e-02,
1.67957e-01,-6.82207e-02,-2.97502e-02,-1.76811e-01,-2.43546e-01,5.40691e-02,-6.19291e-02,-8.51295e-02,-9.01696e-03,-1.05694e-02,2.32287e-01,-1.68087e-01,4.13069e-02,3.55792e-02,-1.14867e-01,4.03294e-03,1.13999e-01,-7.13667e-04,-6.62200e-02,-6.78423e-02,-9.75700e-02,-9.64196e-02,3.93962e-01,-2.62637e-01,-2.65083e-01,-3.66344e-01,-2.29433e-01,-2.25178e-01,-5.04730e-02,-1.21016e-02,
2.37529e-01,4.41522e-03,-2.16471e-01,-1.95175e-01,-9.43622e-02,1.36925e-01,-2.69359e-01,-1.73709e-01,2.04653e-01,-3.13126e-01,3.12109e-02,-7.98323e-03,-9.94473e-02,-2.40602e-01,-1.12172e-01,-1.65644e-01,-1.07674e-01,-1.33645e-01,4.60599e-02,-2.92745e-01,-3.96123e-01,1.80850e-01,1.22239e-01,2.53123e-01,-9.44862e-02,1.45481e-01,-3.75784e-01,2.66652e-01,5.38561e-02,1.92879e-01,
2.48634e-01,1.26507e-01,-3.74436e-01,-1.62316e-02,-2.77833e-01,6.41839e-02,1.96357e-01,-1.68493e-02,-2.12307e-01,-4.26055e-01,5.77605e-02,-1.75251e-01,7.46543e-02,-2.54596e-01,-7.18586e-02,2.76011e-01,-9.61430e-02,-1.81179e-01,-1.18785e-01,-1.18253e-02,3.29594e-02,-1.51632e-01,1.93890e-01,7.73633e-02,2.45497e-01,-2.77746e-01,-4.13449e-01,-1.18469e-01,2.88483e-01,2.96375e-01,
2.86325e-01,-1.09227e-01,1.72603e-01,-7.67615e-02,-2.43153e-01,-4.86341e-03,-5.72652e-03,4.64420e-02,2.35237e-01,1.53502e-01,-1.66244e-01,2.05121e-01,-1.11064e-01,-9.44100e-02,-7.69083e-02,-2.72767e-01,1.76569e-01,5.84895e-02,5.98313e-02,2.12914e-01,5.62373e-02,6.31990e-02,-1.81602e-01,-1.06799e-01,-2.53174e-02,1.79065e-01,-1.66760e-01,-2.05966e-01,2.23381e-01,-1.80657e-01,
3.64532e-02,-2.66608e-01,1.37260e-01,3.15431e-01,2.68867e-01,-3.07839e-01,2.51433e-01,1.31286e-01,4.92171e-02,1.37225e-01,-1.24090e-01,-7.51184e-02,1.78746e-01,1.05010e-02,2.12435e-01,2.55019e-01,-2.52894e-01,-2.24372e-01,-6.79063e-02,7.05952e-02,-1.96507e-01,3.73162e-02,1.86554e-01,-1.78854e-01,9.62492e-02,-2.36533e-01,-2.24400e-01,-1.24937e-01,6.82558e-02,-4.02765e-02,
1.77563e-01,-2.63630e-01,1.60946e-01,-2.07532e-01,1.70178e-01,3.40065e-01,-4.16972e-02,4.61082e-01,1.02952e-01,-1.80681e-01,6.52672e-02,-8.07116e-02,-2.82493e-01,-5.45573e-01,-7.07839e-01,1.83111e-01,2.28194e-01,1.25248e-01,3.32636e-01,2.17310e-01,1.85009e-01,-6.86102e-01,3.60215e-01,-5.68271e-01,-2.30305e-02,1.48337e-01,-3.64012e-01,-9.79153e-03,-5.33058e-02,-1.28075e-01,
-2.65177e-01,8.72853e-02,-4.55093e-02,-1.62069e-01,-6.78041e-02,-1.80623e-01,-1.41394e-01,-6.25003e-02,1.40790e-01,-2.45638e-01,-1.27400e-01,-2.02236e-01,-1.75003e-01,-2.63180e-01,-1.48436e-01,-2.40311e-01,-6.52438e-02,-3.03143e-01,2.81114e-01,-3.14204e-01,-2.96327e-01,1.65737e-01,-7.15134e-02,2.81188e-01,2.25216e-01,-1.43074e-01,-1.22253e-01,7.13624e-02,-1.04078e-01,2.09815e-01,
1.20808e-03,-2.10031e-01,7.81783e-02,-1.30240e-02,-1.75453e-01,2.13909e-01,2.29350e-01,3.84038e-01,3.18113e-03,-1.38694e-01,1.66792e-02,-2.57602e-01,8.61898e-02,-1.95953e-01,-6.09326e-02,-1.37379e-01,8.86066e-02,-5.96950e-03,-1.97711e-03,-1.77939e-01,-2.84180e-01,-2.30769e-01,3.13844e-01,-3.25422e-01,-7.75489e-02,-3.25336e-01,-1.79304e-01,1.72092e-01,-3.53433e-02,-1.23046e-01,
1.92264e-01,-1.57521e-02,-1.44730e-01,1.90918e-01,2.05842e-01,2.36339e-01,-1.35609e-01,2.28309e-02,2.13256e-01,-6.24463e-02,1.46135e-01,-2.74724e-01,3.04697e-01,-1.53728e-01,4.91001e-03,7.89857e-02,-2.85698e-02,3.21514e-02,9.00552e-02,2.28066e-01,-1.81240e-01,-3.07399e-01,2.38028e-01,-8.44216e-02,2.87123e-02,-3.05309e-01,1.39847e-01,-2.28091e-01,4.96979e-02,3.12987e-01,
-1.87162e-02,-1.36734e-01,-1.91858e-01,8.49365e-02,-2.00635e-01,-8.95260e-02,-8.71064e-02,-8.87940e-02,-2.35208e-01,-1.85973e-01,2.97695e-01,-2.29191e-01,6.41333e-02,-1.32859e-01,-5.75268e-02,-3.07695e-01,1.39612e-01,-7.16150e-03,-2.43249e-01,1.59546e-01,-1.18259e-01,1.04294e-01,-1.10108e-01,2.60224e-01,-3.10885e-01,-2.96433e-02,-2.80773e-01,9.58543e-02,-2.16611e-01,-3.05032e-01,
-2.76669e-01,3.01613e-01,-3.36638e-01,4.38359e-01,-6.50493e-02,-2.84961e-01,-2.36865e-01,2.89703e-01,6.24517e-03,-2.77067e-02,2.35117e-01,-2.16465e-01,5.33752e-02,3.73865e-01,7.00458e-01,-6.63898e-02,-9.54849e-03,-1.81029e-01,-2.20239e-01,7.55167e-02,3.72467e-01,2.93423e-01,-4.58392e-01,4.19530e-01,4.61883e-02,1.33035e-01,2.58521e-01,2.09135e-01,-1.30009e-01,2.15543e-03,
1.15601e-01,6.36917e-02,1.46283e-01,-9.01834e-02,2.50113e-01,1.42497e-03,-4.07298e-02,4.10582e-02,6.40160e-02,-1.77332e-01,1.56079e-01,2.47505e-01,-2.56383e-01,1.25852e-01,1.60209e-01,2.66240e-01,-1.44528e-01,7.59625e-02,-5.34171e-03,-1.37414e-01,-2.44202e-01,-7.28933e-02,1.60269e-01,1.81456e-01,1.53531e-01,-3.75251e-02,-2.21404e-01,-2.13123e-01,3.09445e-01,4.70528e-02,
-1.31512e-01,-7.22195e-02,1.54240e-01,-2.45235e-01,2.11555e-01,-7.31582e-02,2.13982e-01,-2.12215e-01,-3.81169e-02,-2.04080e-01,-1.80681e-01,-1.88580e-01,1.64440e-01,-4.80594e-02,-2.20839e-01,-5.90199e-02,-1.20640e-02,-5.86864e-02,1.46805e-01,5.06860e-02,-3.29456e-01,2.25725e-01,-2.47310e-01,2.49659e-02,2.89116e-01,2.91631e-02,1.18089e-01,2.65685e-01,-5.29620e-02,-1.56827e-02,
-2.26956e-01,-1.80036e-01,-2.68765e-01,-2.46062e-01,1.90779e-01,-1.85637e-01,-1.66625e-02,-2.22801e-01,-1.24631e-01,-1.66300e-01,-2.33781e-01,2.87896e-01,-1.92623e-02,1.76201e-01,1.04035e-01,3.10967e-01,-1.66805e-01,2.33715e-01,-1.56377e-02,1.87382e-01,-3.57329e-01,2.75855e-01,-2.62591e-01,1.66086e-01,-9.35724e-02,1.17899e-01,-2.78638e-01,-6.49661e-04,1.49325e-01,-2.63628e-01,
-1.24883e-01,1.61565e-01,-2.98423e-01,9.42377e-02,1.17886e-01,2.52577e-01,1.68139e-01,8.13831e-02,-5.08496e-02,3.14078e-01,-4.98366e-02,-1.62181e-01,-1.39761e-01,9.88848e-02,-1.42576e-01,9.44729e-02,1.68683e-01,9.10315e-03,2.36561e-01,1.75652e-01,-1.77456e-01,-2.28915e-01,2.78390e-01,-2.75150e-01,-6.91991e-02,-3.14329e-01,2.84703e-02,3.03944e-01,-7.66143e-03,2.75684e-01,
3.12053e-01,2.41371e-01,-1.97041e-01,2.87835e-01,-9.16643e-02,1.69203e-01,-2.43526e-01,-3.91921e-02,8.76439e-03,-2.12506e-01,2.08592e-01,1.57278e-01,-2.20163e-01,-1.71458e-01,3.65824e-04,1.79363e-01,-1.81483e-01,-2.17828e-01,-1.51974e-01,1.87812e-01,2.84521e-01,-1.17066e-01,5.39237e-02,-1.52727e-01,-1.94750e-01,-2.35044e-01,1.18633e-01,1.67525e-01,-1.49200e-01,1.70249e-02,
3.02624e-01,1.36651e-01,-2.63047e-01,1.96529e-01,2.80913e-01,-1.66132e-01,2.55542e-01,-2.17802e-01,2.23025e-01,-2.80818e-02,1.67549e-01,-1.51699e-01,-8.52987e-02,-1.50772e-02,8.75002e-02,2.34595e-01,1.83711e-01,2.61859e-01,-6.07798e-03,2.03886e-01,-1.73272e-01,1.20245e-01,-1.02515e-01,-1.63532e-01,-1.37966e-01,-3.14966e-02,1.05630e-01,2.78218e-01,-2.29250e-01,-1.69766e-01,
2.65128e-01,3.62457e-01,6.48141e-02,3.67796e-01,-3.02674e-01,-3.31840e-01,-2.05405e-01,1.38956e-01,-2.98250e-01,-4.66148e-01,-2.16492e-01,-3.20068e-02,8.14660e-02,4.92822e-01,6.04826e-01,-1.65600e-01,-2.86724e-01,-2.85148e-01,-5.10390e-01,-2.26350e-01,-1.19262e-01,3.08140e-01,1.00160e-01,7.52173e-01,3.16434e-01,-2.63464e-01,4.88494e-01,1.17030e-01,-2.73927e-01,-2.77594e-01,
1.11404e-01,-2.87229e-01,-1.42931e-01,1.28005e-01,-8.49849e-03,2.73717e-01,2.03575e-01,-1.51204e-02,1.57353e-01,3.15872e-02,-8.56942e-02,-1.84780e-01,1.82997e-01,-1.99331e-02,1.26196e-02,1.64589e-01,-1.53184e-01,-2.17069e-01,1.98216e-01,-1.73524e-01,-2.70791e-01,-8.83691e-02,-1.23292e-01,-2.12359e-01,1.45949e-01,-1.33479e-01,-7.58290e-02,-1.36791e-01,-1.64503e-01,1.96611e-01,
-2.86110e-01,
-1.25415e-01,
2.21499e-02,
1.84980e-01,
2.15004e-02,
-3.09532e-04,
-8.37206e-03,
6.06385e-02,
1.99381e-02,
6.46827e-02,
-2.25513e-01,
7.02819e-02,
-4.82196e-02,
-4.64092e-02,
2.95853e-01,
-2.15257e-01,
3.63700e-02,
-1.29379e-01,
1.08953e-01,
8.55634e-02,
-2.41118e-01,
-8.04268e-02,
-1.94416e-01,
-9.58269e-02,
-8.44479e-02,
-2.35936e-01,
-1.91378e-01,
1.23610e-01,
-2.51225e-02,
-1.77798e-01,
2.36375e-01,9.13276e-02,1.48382e-01,9.03311e-02,4.25333e-01,2.17208e-01,1.87241e-01,1.72815e-01,2.17892e-01,3.50479e-01,3.90888e-02,-9.28879e-02,-2.02103e-01,2.69594e-01,2.11943e-01,-1.98837e-01,-3.13422e-01,8.00200e-02,2.21526e-01,-1.73277e-01,-1.30002e-01,-1.78518e-01,1.71199e-01,-3.16597e-02,3.26654e-02,-1.80772e-01,-1.40090e-01,-7.79767e-02,2.33527e-02,-5.04898e-02,
-2.45266e-01,6.89670e-03,-4.24144e-02,2.49191e-01,-2.72472e-01,-2.52758e-01,7.33950e-03,1.45851e-01,-6.74914e-02,2.29704e-01,-2.99449e-01,7.47565e-02,-5.26995e-02,-1.80014e-01,2.83704e-01,-3.04783e-01,8.77120e-02,-1.41706e-01,-1.11084e-01,1.07869e-01,2.88521e-01,-1.04127e-01,-1.19303e-01,2.42280e-02,-2.02460e-01,1.89645e-01,1.94235e-01,1.82136e-01,1.49796e-01,-3.47240e-02,
-2.33094e-01,2.36854e-01,-1.39412e-01,2.41626e-01,-1.07325e-01,-8.89611e-02,3.03717e-02,2.70074e-01,-2.27375e-01,2.81480e-01,-2.79354e-01,-1.50390e-01,1.17956e-01,-1.11616e-01,8.39767e-02,-2.37155e-01,4.60654e-04,4.45609e-02,-2.92803e-01,8.48576e-02,-8.44587e-02,2.49127e-02,2.81546e-01,5.08338e-02,1.53939e-01,-1.31361e-01,8.62255e-02,-2.81756e-01,1.28502e-01,1.44484e-01,
1.20848e-01,2.84096e-01,-1.92023e-01,2.23705e-01,2.01387e-02,-3.10391e-01,1.59921e-01,3.65257e-02,-1.89574e-01,1.89925e-01,1.86216e-01,-1.20039e-01,-2.77134e-01,-2.27481e-01,1.04141e-01,2.39182e-01,2.03199e-01,3.00422e-01,1.59201e-01,-2.77975e-02,1.48529e-01,-1.81313e-02,2.88366e-01,6.83125e-02,-3.08945e-01,3.00743e-01,-9.64723e-02,2.53466e-01,-1.28142e-01,-1.77575e-01,
2.85239e-01,8.45145e-02,-1.57465e-01,2.52257e-01,-8.49871e-02,-2.74320e-01,-1.94249e-01,1.80597e-01,1.34331e-02,1.68457e-01,-1.60350e-01,8.66461e-02,-1.49134e-01,1.84156e-02,-2.31743e-01,-2.71436e-01,-2.00282e-02,-1.32229e-01,1.45880e-01,-7.48986e-03,-2.58481e-01,-2.97310e-01,1.69088e-01,1.75523e-01,-2.20812e-02,1.16704e-01,-2.98041e-01,-2.49968e-01,-2.78549e-01,-1.05081e-01,
-2.86062e-01,1.80732e-01,1.12774e-01,-3.66245e-02,2.65225e-01,1.20685e-01,4.99391e-02,1.71970e-01,6.02296e-02,7.53140e-02,-1.30728e-01,-1.67074e-01,9.73451e-03,-7.40006e-02,1.73886e-01,-1.27439e-01,-8.29341e-02,-2.66397e-01,2.80021e-01,-1.92442e-01,-4.47062e-02,-2.74878e-02,2.89201e-01,4.08119e-02,-1.70118e-02,1.37393e-01,-2.74818e-02,1.63212e-01,8.59926e-02,-1.69255e-01,
-2.03839e-01,-2.51123e-01,2.64045e-01,-2.38570e-01,2.13532e-01,-7.79104e-02,-1.32603e-01,-6.15973e-02,-2.93949e-01,2.47910e-01,2.50839e-01,-1.83580e-02,-3.04422e-03,2.64695e-01,-1.48137e-01,1.71574e-01,1.00107e-01,-2.52810e-02,-2.69270e-01,-2.21616e-01,-3.07751e-02,-2.76204e-01,-6.77481e-02,2.02191e-01,-1.56856e-01,7.26999e-02,-2.85050e-01,2.99414e-02,1.55145e-01,-1.24620e-01,
2.33426e-01,-2.27818e-01,-2.34670e-01,-1.50675e-01,-9.02489e-03,1.05134e-01,-5.61334e-02,-2.48318e-01,1.26791e-03,1.91499e-01,2.80552e-01,-2.36701e-01,-1.07845e-01,-8.33948e-02,-1.29814e-02,-2.61048e-01,2.13759e-01,1.18501e-01,1.19754e-01,2.98758e-01,-2.08141e-01,-1.53485e-01,9.74296e-02,1.21212e-01,-1.68549e-02,2.85507e-01,-2.44887e-01,4.77709e-02,-6.99260e-02,1.92923e-01,
2.17533e-02,-1.27857e-01,-3.34818e-02,-8.56616e-02,2.28114e-01,-2.75535e-01,-3.92613e-01,-4.75001e-02,-3.12329e-03,-2.35135e-01,1.67865e-01,-1.48866e-01,-3.74985e-02,-2.57277e-01,-3.01263e-01,-3.35686e-02,2.31446e-01,-2.55763e-01,-6.02092e-02,-1.87914e-02,-2.85253e-01,-2.88524e-01,3.46487e-02,2.95207e-01,2.28520e-01,1.97018e-01,2.46789e-01,-1.00993e-01,-3.33120e-01,-7.03008e-02,
-2.13626e-01,-7.66993e-02,-4.02000e-02,-2.18585e-01,-4.11431e-02,-7.20789e-02,-1.73044e-01,2.45693e-01,-2.79728e-01,1.41829e-01,2.79520e-01,2.45232e-01,-1.72656e-01,-2.15723e-01,-4.90617e-02,-2.72392e-01,2.48839e-01,-1.09979e-01,-2.49655e-01,-2.17651e-01,-4.04661e-02,1.81878e-01,1.60390e-01,4.18965e-02,2.97945e-01,1.39697e-01,1.42121e-01,2.18639e-01,-8.34668e-02,-3.20143e-02,
2.08967e-01,-1.00050e-01,1.08155e-01,-2.41816e-02,1.78965e-01,-2.75799e-01,-7.11165e-02,-2.94834e-01,1.76239e-02,3.46080e-02,8.20215e-02,-4.70500e-03,-7.04834e-02,2.97628e-01,-1.94920e-01,1.55931e-01,2.14175e-01,8.93491e-02,7.24689e-02,8.79817e-02,6.19237e-02,4.56354e-02,1.92470e-01,-3.95608e-02,-9.05253e-02,1.46680e-01,-5.27308e-02,8.50936e-02,-3.26789e-01,1.58189e-01,
-2.65181e-01,7.84562e-02,-1.74496e-01,-2.63780e-01,1.62196e-02,3.02066e-01,-2.95042e-01,8.38919e-02,-3.13357e-02,2.30720e-01,-6.79532e-02,1.22633e-01,-7.27915e-03,2.56256e-01,-3.20456e-01,2.16021e-01,-4.71150e-03,-2.14222e-01,-1.87706e-01,6.56050e-02,-3.04931e-01,2.15482e-01,-1.85940e-01,2.37087e-01,2.04078e-01,-1.88854e-01,-1.53995e-01,1.30527e-02,-3.47030e-01,-1.16731e-01,
-1.45110e-01,4.95782e-02,2.18497e-02,-1.79993e-01,1.00846e-01,3.18843e-01,4.98484e-02,-3.31210e-01,-2.26879e-01,-4.12711e-01,-8.66941e-02,1.50731e-01,1.88661e-01,1.44475e-01,-2.17884e-01,7.27626e-02,-1.81871e-01,-1.13040e-01,-1.76270e-01,1.11064e-01,6.10268e-02,4.44552e-01,2.50001e-01,-4.24051e-02,-7.89679e-02,1.60577e-01,2.54633e-01,-3.34813e-01,-2.20903e-01,-3.15982e-01,
4.12767e-02,-1.37205e-01,1.84467e-01,1.66256e-01,1.50805e-01,-3.04110e-01,1.14842e-01,-1.02821e-01,-7.04292e-02,-1.01701e-01,2.75427e-01,-2.27275e-01,2.74932e-01,-8.12375e-02,2.44249e-01,2.91270e-01,7.97675e-02,2.42603e-01,3.98527e-02,-1.72286e-01,-2.46419e-01,-2.55842e-01,2.79963e-02,-2.28857e-02,1.65411e-01,-3.05326e-01,4.00151e-02,-5.00805e-02,-1.88355e-01,5.64971e-02,
-7.62194e-02,1.13616e-01,1.53961e-01,-2.49351e-01,-2.78063e-01,-1.17507e-02,1.17346e-01,-2.69416e-01,-7.91336e-02,-2.63146e-01,2.11715e-01,2.93733e-01,9.10257e-02,2.71556e-01,2.87794e-01,-2.70061e-01,-1.40224e-01,-1.46696e-01,-1.05721e-01,5.46825e-02,-3.79028e-02,7.68964e-02,2.06224e-02,2.08490e-02,1.24923e-01,4.03777e-02,-7.06486e-02,2.08436e-01,2.83257e-01,-1.98240e-01,
-8.58121e-02,2.34775e-01,-2.36819e-01,2.15256e-01,2.53241e-01,-1.18162e-01,3.06698e-01,-3.69812e-01,2.70132e-02,6.05257e-02,-4.36829e-02,-1.27152e-01,-3.87836e-02,-1.57300e-01,2.60881e-01,2.54430e-01,-2.80102e-01,-2.71157e-01,5.85201e-02,1.38679e-01,1.92920e-01,2.22153e-01,1.47978e-02,2.45497e-01,-7.42191e-02,1.03048e-01,1.40265e-01,1.59095e-01,6.42903e-02,2.10450e-02,
1.97556e-01,3.04289e-01,1.37923e-02,1.46869e-01,-1.83320e-01,-7.33657e-02,2.45273e-04,7.28901e-02,-3.14192e-01,-2.90692e-01,7.43069e-02,-2.95075e-01,-1.10194e-01,3.00677e-01,2.13194e-01,1.04377e-01,-2.74709e-01,-1.34706e-02,2.27571e-01,-1.12310e-01,2.31149e-01,-7.24250e-02,1.38343e-01,2.65877e-01,-2.81099e-01,-1.57969e-01,-2.10481e-01,5.89433e-03,-4.30262e-03,-3.09188e-01,
-1.39844e-01,-5.13572e-03,-8.17258e-03,-2.59003e-01,3.45850e-01,-2.66984e-01,-2.70458e-01,-1.43286e-01,5.09690e-02,-1.78540e-02,-1.06124e-01,7.92315e-02,-2.76706e-01,-2.92236e-01,-1.79237e-01,2.99406e-01,-2.22580e-01,2.32489e-01,-8.56457e-02,3.58813e-02,-9.25851e-02,2.84901e-01,1.67568e-01,2.49225e-01,-3.00911e-01,-4.85197e-02,2.82603e-01,1.61859e-01,-2.63698e-01,2.09675e-01,
-1.80467e-01,-2.40630e-02,-8.71300e-02,-6.91046e-02,-2.98182e-01,-9.68454e-02,2.64589e-02,-8.37937e-02,-3.07448e-01,1.69575e-02,4.67168e-02,-2.06067e-02,2.21143e-01,2.63083e-01,-4.78967e-02,1.41346e-01,5.48986e-02,1.32695e-01,-2.59375e-01,1.09906e-01,1.76742e-01,-7.90280e-02,-2.05226e-01,8.68031e-02,2.23321e-01,-2.94047e-01,-6.15448e-02,-3.65716e-01,-3.41183e-02,4.29594e-02,
-2.30984e-01,2.49970e-01,-6.73813e-02,-2.29385e-01,7.39116e-02,-2.17301e-01,2.39756e-01,-1.05684e-02,2.58005e-01,-1.82983e-01,2.08794e-01,1.36901e-02,1.30486e-01,1.34834e-01,2.86631e-01,2.53191e-01,1.76658e-01,2.40723e-01,1.19739e-01,1.49035e-01,1.17494e-01,-1.70943e-01,-1.15138e-01,2.58483e-01,1.26795e-01,4.37940e-02,6.47315e-02,-1.77954e-01,8.58620e-02,2.21713e-01,
-1.89242e-01,1.71936e-01,2.35590e-01,2.07779e-01,4.00889e-02,1.23794e-01,-4.83937e-02,1.43543e-01,-7.74247e-02,-1.66860e-02,-1.01604e-01,-1.13389e-01,-1.72899e-01,1.55267e-02,2.71341e-02,4.06683e-02,-5.06409e-02,-8.64542e-02,1.74233e-01,-2.56759e-01,-7.29660e-02,-9.37932e-02,1.75081e-01,-1.09985e-01,-2.66668e-02,2.24324e-01,2.07003e-01,2.10980e-01,1.84911e-01,-2.89768e-01,
-2.92709e-01,-2.81958e-01,-8.20013e-02,-4.13481e-01,1.87321e-01,4.01201e-02,9.63011e-02,1.12041e-01,2.84445e-01,1.59937e-01,2.56488e-01,-2.06337e-01,-1.73344e-01,2.74941e-01,-6.43812e-03,1.32476e-02,1.53221e-01,-2.59108e-01,-5.40227e-02,-1.02591e-01,-2.39611e-01,-1.89699e-01,6.64762e-02,3.46758e-02,1.56319e-01,1.27357e-01,3.06730e-01,2.73184e-02,-9.85933e-02,-1.95508e-01,
-1.00362e-01,-2.24991e-01,2.16531e-01,-1.07226e-01,-3.00570e-02,-1.66120e-01,2.42051e-01,1.53484e-01,-4.77256e-02,2.88415e-01,-2.77454e-02,6.62991e-02,-1.46122e-01,-3.04339e-01,-1.81716e-01,1.97635e-01,-3.03509e-01,2.46168e-01,2.94703e-01,-1.10469e-01,6.28608e-02,-1.38091e-01,-4.10082e-02,2.27707e-01,-1.03266e-02,2.46276e-01,-2.49100e-01,1.93103e-01,3.05091e-01,5.85229e-02,
-3.02990e-01,-1.10268e-01,-1.26194e-01,-2.92967e-01,4.76900e-01,-2.13128e-02,-3.13856e-01,-2.49282e-01,1.10023e-01,9.28522e-02,2.95758e-02,-7.55348e-02,-1.94003e-01,2.35312e-01,-3.94614e-01,2.88890e-01,-7.86938e-01,-1.00108e-01,-1.13953e-01,3.93491e-02,-1.39309e-01,6.49878e-01,-1.61986e-01,-2.79033e-01,-9.96432e-02,3.40123e-02,-1.97952e-01,1.73684e-01,-3.40213e-01,2.13049e-01,
1.19487e-01,8.59648e-03,-1.94090e-01,1.18008e-01,1.33757e-01,1.27078e-02,6.73240e-02,-7.08832e-02,-2.01148e-01,-2.95011e-01,-2.16422e-01,-6.77693e-03,-4.92290e-03,2.86077e-01,-4.55627e-02,2.56394e-01,-1.86107e-01,1.30946e-01,-1.38279e-01,3.02868e-01,5.38149e-02,1.38617e-02,-7.33989e-02,4.34616e-02,1.91192e-01,-2.83610e-01,-1.10112e-02,1.93900e-01,-1.85527e-01,-2.70191e-01,
2.31361e-01,-1.63405e-01,-3.26216e-02,1.12353e-01,6.27505e-02,-2.79493e-01,7.40111e-02,-1.52302e-01,3.37729e-01,-3.42434e-02,-1.05682e-02,3.94413e-02,-6.27393e-02,-6.33550e-02,-4.37399e-02,-6.92403e-02,1.53095e-01,-3.01082e-01,2.04482e-01,1.38454e-02,-1.42366e-02,-9.21458e-02,-2.92597e-01,-1.52315e-01,2.45959e-01,-1.47493e-02,-2.72675e-01,-1.00952e-01,-8.65029e-02,2.48104e-01,
1.96542e-01,-1.88500e-01,-5.94300e-02,2.49356e-01,-2.24783e-01,2.51431e-01,-2.61611e-01,-1.92848e-01,-3.09488e-01,6.37907e-02,8.03700e-02,1.96186e-01,2.21813e-01,7.92330e-02,-1.35754e-01,-2.49833e-01,1.20178e-01,-2.87127e-01,-2.41104e-01,-7.48431e-02,5.34695e-02,2.51917e-02,1.67654e-01,4.15561e-02,-1.05252e-01,-3.87720e-02,2.75669e-01,6.63913e-02,-1.79765e-01,2.00086e-01,
1.34132e-01,3.01905e-01,-1.16105e-01,1.64607e-01,2.03252e-01,-4.52926e-02,-5.62203e-02,-4.50628e-01,-6.05369e-01,8.74912e-03,3.66124e-02,-5.32082e-01,-1.51061e-01,-2.67361e-01,1.54826e-01,8.58949e-02,-2.74348e-01,-8.84711e-02,-1.13099e-01,-3.67508e-01,2.99245e-01,4.73503e-02,-8.83399e-02,9.77765e-02,1.87951e-01,-7.04494e-03,-2.06282e-01,-7.69683e-02,3.53670e-01,-7.55107e-02,
-1.27998e-01,-2.00274e-02,1.52684e-02,-3.14049e-01,-2.04500e-01,-4.09613e-02,2.25186e-01,3.99642e-02,-1.03943e-01,1.91531e-02,1.28563e-01,-2.86856e-01,-2.10468e-01,-1.83308e-01,-1.66248e-02,-1.19081e-01,-5.70102e-02,-1.75494e-01,-2.17816e-01,2.53656e-01,-6.48685e-02,-1.90482e-01,2.78962e-01,-1.99637e-01,-8.80676e-02,-1.37690e-01,-2.87127e-01,-2.25171e-01,-7.46748e-02,3.07970e-01,
1.44105e-01,2.63362e-01,-1.92556e-01,6.00062e-02,-2.29808e-01,2.90703e-01,1.94498e-01,-2.68906e-01,-8.85034e-03,4.32027e-02,1.08069e-01,-2.97333e-01,-2.64273e-01,2.99860e-01,2.09088e-01,1.22102e-01,-1.97911e-01,-2.58738e-01,2.96491e-01,2.66602e-01,-1.39743e-01,-2.57735e-01,1.20982e-01,-1.59012e-01,2.27844e-01,-2.46921e-02,-3.22242e-02,9.64365e-02,-2.40301e-01,-6.78642e-02,
-1.01483e-01,
3.56906e-01,
-2.04137e-01,
-2.98161e-01,
-2.92104e-01,
3.17695e-02,
-2.21081e-01,
-1.57134e-01,
8.33707e-02,
-1.82697e-01,
-6.67855e-02,
1.97711e-01,
2.03228e-01,
-2.79502e-01,
-2.27270e-01,
-1.17822e-01,
-3.13466e-01,
2.15889e-01,
1.89290e-01,
2.71924e-01,
-6.72889e-04,
6.21367e-02,
-2.39598e-01,
1.79398e-01,
-2.84992e-01,
3.32379e-02,
-2.19132e-01,
1.99178e-02,
3.95108e-02,
-2.40610e-01,
-4.46957e-03,3.96763e-01,2.63881e-01,-3.53521e-01,-2.58341e-01,2.21156e-01,-1.77194e-01,-3.67615e-01,-2.94107e-02,-3.76894e-01,2.95201e-01,1.18639e-01,1.03498e-01,-5.23326e-02,2.54949e-01,1.20227e-02,-3.56880e-01,1.00719e-01,2.42865e-01,3.12504e-01,2.44587e-01,-1.41649e-03,-1.73157e-01,6.68110e-02,-1.58785e-01,1.30068e-01,-2.01991e-01,-3.72750e-03,-1.48738e-01,1.34024e-01,
-4.65517e-03,4.80786e-01,1.02260e-01,2.94646e-01,-3.94635e-01,1.46612e-01,3.95004e-02,1.39665e-01,-3.40640e-01,-1.36923e-01,-3.03472e-01,1.46537e-01,4.64859e-02,3.87024e-01,-2.85254e-01,4.56337e-02,1.56102e-01,2.35828e-01,1.17820e-01,2.64820e-01,1.71315e-01,2.70564e-03,1.40467e-01,-2.88266e-02,3.21400e-01,1.10017e-01,-3.86149e-01,4.70407e-02,2.87428e-01,3.99331e-01,
-1.78485e-02,-1.45684e-01,1.78561e-01,-2.38915e-01,3.01946e-01,-2.54053e-01,2.06819e-01,3.19432e-01,6.85294e-02,3.82743e-02,3.33221e-02,-1.38093e-01,-2.77772e-02,-3.30061e-01,3.11727e-01,-6.90410e-02,-2.35555e-01,-5.08650e-02,-1.81387e-01,7.64529e-02,-2.09753e-01,-6.75534e-03,2.19142e-01,-1.47730e-02,2.45948e-01,-7.65956e-02,6.45913e-02,7.51116e-02,1.24630e-01,1.12641e-01,
-4.81712e-02,8.13971e-02,1.53411e-01,-2.98920e-01,-3.10755e-01,1.60346e-01,-1.87682e-01,-2.33757e-01,-4.65712e-02,-2.33621e-01,-9.89887e-02,-1.60331e-01,8.82445e-03,-2.31759e-01,-1.59880e-01,-8.45917e-02,2.08117e-01,-8.24174e-02,-1.50054e-01,-1.59424e-01,-3.92491e-01,2.00363e-02,1.80203e-01,-1.60308e-02,-3.70216e-01,6.05052e-02,4.08887e-01,5.88197e-02,5.11374e-02,-2.50309e-01,
-1.42675e-02,-2.02621e-01,4.01525e-01,-3.17348e-01,2.60780e-01,-3.49508e-01,-3.87321e-01,2.36520e-01,3.81961e-01,-1.63091e-02,-3.56257e-01,4.20997e-02,-1.93508e-02,-2.01436e-01,2.32909e-01,2.81988e-02,2.98942e-01,-1.78369e-01,-2.06968e-01,6.44454e-02,6.47529e-02,2.01830e-02,3.67656e-01,-1.59413e-02,3.48176e-01,-1.43321e-02,-2.79387e-02,7.08708e-02,2.12277e-01,8.44963e-02,
-4.23664e-01,
-4.43772e-01,
1.15096e-01,
2.76871e-02,
1.43848e-01,
