// Neural Network File Format by Kyle Julian, Stanford 2016
6,5,5,30,
5,30,30,30,30,30,5,
0.000,
499.000000,-3.141600,-3.141600,100.000000,0.000000,
36656.000000,3.141600,3.141600,472.000000,1200.000000,
17688.500000,0.000000,0.000000,249.000000,532.000000,9.330048,
36157.000000,6.283200,6.283200,372.000000,1200.000000,423.773936,
4.55953e-01,-3.83839e-01,4.53785e-01,-3.06615e-03,-8.33525e-02,
-7.83428e-01,1.23529e-01,2.31660e-02,9.19950e-02,-2.09011e-01,
9.83940e-02,-8.31726e-01,7.94313e-01,-1.91728e-02,1.95421e-01,
4.80191e-01,9.80152e-03,-9.37273e-02,2.90801e-01,-6.33633e-01,
-5.17181e-02,1.16536e-02,9.48309e-01,-1.86529e-02,-1.90354e-01,
-7.27050e-01,-9.01162e-03,8.07451e-02,-6.42692e-02,1.40263e-01,
-2.32816e-01,-8.29258e-01,7.30519e-01,5.27837e-02,2.31055e-01,
-2.11432e-01,-1.82976e-01,-4.86382e-01,-2.21887e-01,3.61986e-01,
1.97845e-02,-2.95286e-01,6.42125e-01,-1.09754e-01,3.10810e-01,
1.49889e-02,8.52036e-01,-8.24339e-01,-1.03720e-01,2.90731e-01,
-1.05330e+00,5.65722e-02,6.06415e-02,6.48431e-02,-1.91619e-01,
-3.59943e-01,-3.14412e-01,-1.98257e-01,-5.89532e-02,4.54419e-01,
3.69331e-02,5.98490e-01,5.37764e-01,2.76911e-01,-1.66964e-01,
-3.71096e-02,-2.05793e-01,-6.36668e-01,1.89357e-01,-2.47045e-01,
-8.59145e-02,-3.86394e-01,-8.37352e-02,2.08689e-01,-4.53539e-01,
1.93860e-01,3.93843e-02,-5.63278e-03,1.55516e-01,-3.67893e-01,
-2.23819e-02,-1.19138e-01,9.50360e-01,-7.62942e-02,5.63370e-01,
-4.22253e-01,9.69765e-02,6.17961e-02,-1.91305e-01,1.32491e-01,
7.51003e-01,6.39050e-01,-1.71862e-01,4.27882e-02,-3.75086e-02,
5.90944e-01,-5.82123e-01,3.94598e-02,4.67479e-02,-4.85679e-02,
9.13026e-02,8.56617e-01,-9.76577e-01,3.67566e-02,2.53691e-01,
1.22042e-01,-1.12816e-01,-3.99705e-01,-1.57471e-01,4.53778e-01,
-7.32207e-01,-6.24032e-01,1.37296e-01,-2.57189e-02,4.46860e-02,
2.64334e-02,5.23291e-01,5.27423e-01,-7.86556e-02,-4.63797e-02,
-2.34240e-01,7.18012e-01,-7.76182e-02,1.60905e-01,-8.13523e-02,
3.37894e-01,2.51800e-02,7.62281e-02,-2.56864e-02,-1.07779e+00,
-5.53145e-02,2.64506e-02,-2.61998e-01,-1.33589e-01,1.60868e-01,
-1.02042e-01,-6.96151e-02,-7.16142e-01,3.03217e-01,-3.51588e-01,
-2.94275e-01,3.02735e-01,-2.19594e-01,-1.51392e-01,7.03318e-01,
-4.44362e-01,2.08022e-04,2.63406e-02,1.92800e-01,6.14382e-01,
3.56473e-01,
-3.12616e-01,
-2.47869e-01,
1.31697e-01,
-1.13446e-01,
-2.74050e-01,
-1.10363e-01,
-3.91906e-02,
3.71400e-01,
-3.63717e-01,
-1.28538e-01,
1.21995e-01,
-1.26110e-01,
-8.77143e-02,
-1.43117e-03,
1.99835e-01,
2.25365e-01,
1.16190e-02,
8.78468e-02,
3.24831e-01,
-2.47034e-01,
2.27543e-01,
-7.93880e-02,
4.92260e-02,
1.18408e-01,
-2.15877e-01,
-3.20914e-01,
-2.94544e-01,
9.46543e-02,
1.54296e-01,
-4.54798e-01,4.34444e-01,4.20301e-01,4.95262e-01,4.68582e-01,-9.14091e-02,2.92426e-01,-8.38974e-01,-1.63320e-01,-8.45380e-01,-5.15475e-02,2.82117e-01,1.18363e-01,4.06467e-02,-2.57950e-01,9.66812e-02,-5.01341e-02,2.53791e-01,-2.93312e-01,2.44354e-01,-3.49622e-02,3.59110e-01,-4.98551e-01,-1.43965e-01,3.70629e-01,4.43312e-01,2.36934e-01,-3.15179e-01,-1.79568e-01,9.23665e-02,
-3.31463e-02,4.65042e-02,4.38782e-01,-8.57606e-02,-5.58396e-01,-3.63701e-01,-2.09249e-01,-2.37427e-01,-1.65770e-01,5.61530e-02,1.78512e-01,3.51041e-01,-1.67561e-01,-3.47346e-01,2.81501e-01,3.60016e-01,2.09058e-01,1.84445e-01,1.02235e-01,-3.53027e-01,-1.14686e-01,7.02203e-02,-7.90848e-02,1.41845e-01,7.80985e-02,6.55354e-01,-6.40102e-02,-2.35391e-01,-1.72259e-01,-6.05515e-01,
9.37990e-02,-1.32573e-01,-6.40257e-01,1.25990e-02,-1.06051e+00,-9.52096e-01,2.84638e-02,-7.72660e-02,-1.27110e-01,-1.79795e-01,-8.38770e-02,-2.80829e-01,5.90421e-02,-4.00925e-02,4.49645e-02,2.78371e-01,9.85603e-01,-1.52174e-01,5.53834e-01,-9.86542e-01,2.19977e-01,-2.04195e-01,-4.48110e-01,2.49196e-01,-1.40565e-02,2.41087e-01,2.46990e-01,-2.48305e-01,-5.32053e-01,-1.62659e-01,
-3.74104e-01,4.18509e-01,-1.04066e+00,-5.47494e-01,-7.65917e-01,3.17902e-01,8.84221e-02,-1.52844e-02,-1.93385e-01,5.54385e-03,-2.37938e-01,1.34010e-01,2.81683e-01,-7.31918e-02,5.14241e-01,1.81916e-02,-2.81238e-01,3.39524e-02,4.86946e-01,8.39967e-02,1.94860e-01,4.34358e-01,1.10814e-01,3.51644e-01,5.66250e-02,-3.14161e-01,8.44862e-02,-5.00647e-01,2.89005e-01,-4.52541e-02,
3.09151e-02,1.71806e-01,-7.01948e-02,-4.75829e-01,-6.59038e-01,-1.70720e+00,-6.38347e-02,-7.07314e-01,1.04986e-01,-3.29637e-02,1.00526e-01,6.51151e-02,2.43269e-01,-5.85147e-01,-3.68959e-02,-3.17649e-01,-7.68374e-01,3.47775e-01,-1.90936e-02,5.04725e-01,2.54775e-01,-6.38700e-01,3.45849e-01,2.73609e-01,1.85787e-01,-1.74053e+00,8.60815e-02,-9.12229e-02,2.12161e-01,2.60396e-01,
4.82837e-01,4.36734e-01,7.77428e-01,2.76906e-01,8.27760e-02,-5.23879e-01,3.88168e-01,1.20714e-01,-2.82374e-01,9.81058e-01,-3.44474e-01,-2.55043e-01,-1.55818e-01,2.25791e-01,5.54706e-02,2.52064e-01,3.32792e-01,-2.20565e-02,-3.43026e-01,6.69145e-02,-2.23799e-01,-4.14832e-01,-8.57259e-02,1.30951e-02,9.87747e-02,3.82649e-01,2.91862e-01,-1.10132e-01,3.21518e-01,-1.60176e-01,
-3.58209e-01,5.36096e-01,2.81258e-01,-6.06834e-02,4.16170e-02,1.64347e-01,-2.04339e-01,-5.42062e-02,-1.25849e-02,-9.13243e-02,8.28162e-01,2.76446e-01,9.05581e-03,-1.62185e-02,2.62948e-01,-1.74742e-01,-5.01748e-02,1.16798e-01,-4.94422e-01,-5.18665e-01,3.66436e-01,-2.21067e-01,8.01598e-01,1.47441e-01,3.85266e-02,1.47518e-01,-2.65672e-02,-1.68416e-01,9.92781e-02,-3.70107e-02,
3.69886e-01,2.64173e-01,1.35354e-01,4.79356e-01,-4.14749e-01,-3.71590e-01,3.74343e-01,1.73538e-01,-2.77390e-01,5.35359e-01,1.47962e-01,-6.98810e-01,1.28231e-01,-7.97494e-02,2.31402e-01,2.73764e-01,2.93081e-01,-1.16008e-01,-3.22827e-01,-1.88351e-01,2.47667e-01,-1.53650e-01,-4.85438e-01,7.24402e-02,8.59541e-03,5.96735e-01,-1.52918e-01,-8.17659e-01,-3.77852e-02,1.01396e-01,
-3.63417e-02,-1.02727e+00,1.63798e-01,-1.22750e-01,2.53543e-01,4.41548e-02,1.87286e-01,-3.09341e-01,1.35075e-01,1.16799e-02,-1.48180e-01,1.76003e-02,-1.88301e-01,2.53500e-01,1.40359e-01,1.72676e-01,8.99853e-02,-2.05118e-01,1.72797e-01,-3.26498e-02,-2.67038e-01,-3.19516e-01,-1.23177e-01,-1.28388e-01,2.45391e-02,-1.03726e-01,2.65907e-01,1.13826e-01,7.89026e-01,1.94371e-01,
1.82392e-01,-2.48940e-01,-2.80725e-01,-2.34821e-01,-2.99517e-01,-1.92509e-01,-6.43552e-02,1.48859e-02,5.71576e-02,-2.24177e-01,-2.79371e-01,1.42029e-01,-2.18883e-01,-1.61521e-01,7.71087e-02,-2.56795e-01,2.99929e-02,-1.33277e-01,-8.14375e-02,-2.44327e-01,1.31239e-01,-2.23183e-01,1.90012e-01,-8.54631e-02,-9.93319e-02,1.85763e-01,-2.62448e-01,2.44292e-01,1.44760e-01,-2.87901e-01,
4.75666e-02,-5.09044e-01,1.44750e+00,3.86920e-02,2.28650e-01,6.68425e-01,3.17068e-02,-1.66183e-02,-7.59872e-02,8.79961e-01,-8.80975e-02,-5.91985e-02,-1.03331e-01,-6.77080e-02,3.46602e-01,5.88719e-02,-7.26066e-02,-1.94735e-01,-1.64739e-01,-2.63300e-01,4.98626e-01,-3.46843e-02,3.27588e-01,1.04296e-01,3.32972e-01,-8.44608e-01,-2.78603e-01,2.82776e-02,2.86202e-02,-1.24437e-01,
-6.78271e-02,3.80553e-01,4.06799e-01,-5.50225e-01,2.87525e-01,-3.47535e-01,-1.69846e-01,-2.42684e-02,6.71471e-02,4.68482e-01,1.77059e-01,-1.78619e-01,-3.67408e-02,5.09320e-01,1.61704e-01,-1.35154e-01,6.02650e-02,4.45622e-01,-2.95783e-01,-1.30943e-01,2.29461e-01,-1.36894e-01,4.49482e-01,-1.67065e-01,1.49562e-01,1.83194e-01,1.45791e-01,1.62099e-02,3.34712e-01,-1.49047e+00,
5.40511e-02,-1.16308e-01,-5.20216e-01,-2.48761e-01,7.40904e-01,2.28079e-01,-3.53807e-01,-9.19080e-02,-3.31955e-01,1.30298e-01,4.25338e-01,8.61777e-01,-4.12578e-02,4.94655e-01,-2.90451e-01,-6.98485e-03,-7.60929e-01,-2.03921e-03,-1.59526e-01,5.81106e-01,-3.54476e-01,1.84946e-01,3.89358e-02,-3.83499e-01,1.27172e-02,-6.06013e-01,9.36141e-02,-1.13378e-01,1.83976e-02,2.15687e-01,
2.01753e-01,1.25860e+00,4.01630e-02,-4.41315e-01,-4.10281e-01,1.07505e+00,2.27839e-01,-2.78783e-01,2.47651e-01,1.26711e-01,1.42781e-01,6.48806e-02,8.13524e-02,1.31554e-02,-1.32742e-01,-3.73155e-01,5.92338e-01,9.33516e-02,1.74679e-01,-2.26980e-01,1.78981e-01,-8.51293e-01,2.03785e-01,-2.21376e-01,1.69023e-01,-4.95558e-01,-2.00990e-01,6.50502e-03,-4.52284e-01,7.57446e-02,
3.87385e-03,-6.47154e-02,-7.97826e-02,-2.53020e-01,2.35281e-01,-9.29403e-03,9.18780e-02,-1.63154e-01,-9.98137e-02,-5.07716e-02,-1.45334e-01,-1.46980e-01,-3.05811e-01,1.27211e-01,2.66871e-01,6.96783e-02,-2.15743e-01,9.50514e-02,-1.46232e-01,-2.37227e-01,-2.19247e-01,5.37705e-02,-1.56853e-01,2.12813e-02,2.22951e-01,-3.13804e-01,1.93505e-01,6.06518e-02,1.14425e-01,-1.30727e-01,
2.27636e-01,1.85476e-01,-4.28501e-01,-6.44156e-02,1.65901e-01,-5.44722e-01,2.79900e-01,3.29273e-01,-1.13414e-01,-4.73150e-01,7.60501e-02,4.98137e-02,-4.89072e-01,-6.46044e-02,-2.78895e-01,-5.14113e-01,-4.26904e-02,-1.49935e-02,1.43223e-02,5.61786e-02,-1.75877e-01,1.71159e-01,2.27935e-01,6.80087e-01,1.48002e-01,5.04714e-01,-3.72894e-02,4.41565e-01,2.10282e-01,-3.44483e-01,
-2.16395e-01,-1.54750e+00,2.28566e-01,-2.27213e-01,2.11376e-01,-2.57465e-01,-3.21093e-01,4.53557e-01,-3.97533e-02,8.47557e-02,-1.74987e-01,-4.41515e-01,2.57922e-01,-1.64888e-01,3.13516e-01,1.30757e-01,-2.14248e-01,-6.18501e-01,4.77895e-01,-4.66480e-01,6.78844e-01,-2.18207e-01,-6.50204e-02,-2.12466e-02,1.93866e-01,2.36096e-01,5.70646e-03,-6.37716e-02,-3.69068e-03,-3.00276e-02,
2.82803e-01,-3.44402e-02,-2.05392e-01,-3.45930e-01,-1.23870e-01,3.47694e-01,-7.43569e-01,-1.08021e-01,2.70702e-01,-4.73766e-02,-2.57553e-01,2.81930e-01,-3.89621e-01,4.49396e-02,-4.76286e-01,1.18568e-02,-1.24092e-01,-4.18624e-01,6.98537e-02,-1.79451e-01,5.52844e-01,-2.76738e-01,2.21307e-01,-1.29801e-01,1.80896e-01,-5.71406e-01,-1.20578e-01,1.19261e-01,6.01722e-02,-1.12956e-01,
4.00747e-01,3.90037e-01,6.72609e-01,-2.44400e-01,-1.84088e-01,2.49185e-02,5.29750e-01,2.13200e-01,4.57107e-01,1.81496e-01,3.43741e-01,-1.08040e-01,-1.44659e-01,-4.34806e-02,1.95932e-01,1.19672e-01,4.37198e-01,-1.31824e-01,2.48170e-03,-3.09142e-01,6.66561e-01,-4.60754e-01,2.81910e-01,-5.48062e-01,-5.26514e-02,1.52458e-01,-2.14379e-01,2.38330e-01,-4.15820e-01,-2.96883e-01,
1.57544e-01,-4.04646e-01,1.56150e-01,-4.25412e-03,-8.62758e-02,3.23883e-01,-1.17589e-01,1.40982e-04,6.87161e-02,-7.23901e-01,1.14829e-01,-6.34698e-01,1.32321e-01,-2.76732e-01,-5.79945e-02,6.81408e-02,-1.23009e-01,-6.39731e-02,-4.69791e-01,3.65011e-01,4.45317e-01,-4.51215e-01,3.62670e-01,2.36137e-01,-5.20061e-01,5.06845e-01,-7.19616e-02,-1.97440e-01,-1.90091e-01,1.07055e-01,
-4.86609e-02,-1.81504e-01,1.77917e-01,5.77813e-02,1.52533e-01,8.38843e-02,4.17320e-02,8.19602e-02,-1.30013e-01,-1.87953e-01,-3.02905e-01,-2.16065e-01,-4.46486e-02,-2.81583e-01,2.44783e-01,-2.93126e-01,-9.33671e-03,3.03042e-02,-1.88967e-01,5.68728e-02,-1.15412e-01,-9.52794e-02,1.89939e-01,-1.06097e-01,-2.66193e-01,4.23339e-02,1.36354e-01,-1.48176e-01,-1.33407e-01,-2.46626e-01,
-2.99947e-01,-2.09383e-01,-5.09770e-02,-5.86959e-02,6.32536e-02,-1.54275e-01,-5.25314e-02,-2.79684e-01,2.83792e-01,2.31435e-02,-1.45603e-01,-2.50903e-01,-1.28646e-01,2.98350e-01,2.10358e-01,-8.38755e-02,-2.25908e-01,2.26516e-01,1.66811e-01,-9.86675e-02,-1.19517e-01,-8.61583e-02,1.80555e-01,-1.51078e-01,-3.14734e-01,-7.76787e-02,2.06261e-01,-1.37068e-01,-1.92425e-01,7.27260e-02,
-5.79043e-01,2.64282e-01,-5.11119e-03,3.08534e-02,2.82497e-01,9.10291e-01,2.72874e-01,-1.27840e-02,2.31914e-02,3.46979e-01,9.23324e-01,-2.40051e-01,4.57303e-02,7.72325e-02,2.67043e-01,-2.38922e-01,2.18869e-02,2.90369e-01,-5.69954e-01,1.95189e-02,1.12513e-01,1.79473e-01,5.07952e-01,4.74396e-02,1.35482e-01,-1.51577e-01,2.45258e-01,-8.35974e-02,1.78625e-01,2.06045e-01,
1.37243e-01,2.72574e-01,-7.50581e-01,-3.53989e-01,2.20236e-01,-3.63789e-01,-2.99627e-01,4.34848e-01,3.63396e-01,-1.49373e-01,-1.71517e-01,-1.13763e-02,2.60187e-01,-3.19361e-01,-8.90464e-02,4.16153e-02,1.08304e-01,-3.06753e-02,2.54244e-01,-5.22610e-01,7.70719e-02,7.82305e-02,-2.29988e-01,3.29237e-01,-2.23277e-01,-4.73103e-01,1.78640e-01,2.90448e-01,-2.22377e-01,4.48552e-02,
3.94563e-01,-1.37860e-01,-1.97649e-01,6.13751e-02,-3.70677e-01,-2.57578e-01,-4.04749e-01,5.03395e-01,-3.12216e-02,-9.60036e-01,3.75929e-01,-3.45384e-01,1.18859e-01,-2.64936e-01,-4.04604e-01,8.12614e-02,5.08655e-01,4.51787e-02,2.50291e-01,-6.01087e-01,4.10285e-02,-1.73609e-01,-3.16290e-01,-4.66477e-01,3.29629e-01,5.35344e-01,-9.81705e-02,4.39009e-01,2.53386e-01,6.12696e-02,
-1.05488e-01,-7.62469e-02,-7.77840e-02,-4.95171e-02,1.38700e-01,-2.67279e-01,-7.37229e-01,6.19899e-02,-2.75177e-02,-1.39307e-01,-2.51694e-02,3.66094e-01,-2.88712e-01,4.64261e-01,-3.84137e-01,-5.63977e-02,-3.94417e-01,1.05715e-01,4.74371e-02,-1.09238e-02,4.86052e-01,1.80834e-01,-9.45641e-02,2.13963e-01,-2.02450e-02,3.17574e-02,8.75795e-02,-1.66745e-01,-4.94726e-01,1.57380e-01,
6.22303e-01,1.20352e-01,-5.85876e-01,-3.65133e-01,-4.84782e-01,4.85174e-01,-4.72431e-01,-1.74025e-01,5.33546e-01,-6.64125e-01,1.17979e-02,2.77875e-01,2.62527e-01,2.71771e-01,-1.95984e-01,-1.70294e-02,-4.54118e-02,1.11814e-01,-2.12042e-01,2.44689e-01,-9.02237e-01,2.68704e-01,1.98958e-01,2.18047e-01,-3.09769e-01,-2.81359e-01,1.12881e-01,5.41507e-01,1.79740e-01,1.85210e-01,
3.43572e-01,1.14148e-01,-1.16205e-01,3.85487e-01,2.60073e-01,-3.50698e-01,-4.70834e-01,-9.36733e-03,2.72055e-01,-1.85591e-01,-3.70129e-01,2.68469e-01,2.04547e-01,4.17676e-01,2.45439e-01,-2.78752e-01,-4.29675e-01,-4.60511e-01,2.37735e-02,1.28055e-01,1.70274e-01,2.82475e-01,7.33168e-02,3.64703e-01,-2.27668e-01,6.39767e-01,-4.68788e-02,-4.43998e-01,-8.49048e-02,1.19395e-01,
-5.49593e-01,1.21894e-03,6.20173e-01,5.21860e-02,1.03943e+00,-2.42334e-01,7.01939e-01,1.70307e-01,-9.18416e-01,1.12082e+00,1.72046e-01,-1.12318e-01,-4.22113e-01,-2.36038e-01,7.46057e-02,4.13163e-01,-9.46689e-02,-1.03352e-01,3.28254e-01,-2.49286e-01,9.59176e-01,-1.21533e-01,-3.42696e-01,-1.27141e-01,5.01659e-01,2.03002e-01,2.63291e-03,-6.00500e-01,-1.57236e-01,-1.17957e-01,
-4.31284e-02,6.40054e-01,-1.24884e+00,9.62895e-02,1.35862e-02,-7.54435e-01,-3.85740e-01,-5.83543e-01,-1.21165e-01,7.53565e-02,4.02238e-01,-3.46423e-02,7.50030e-02,-3.42974e-01,6.40866e-01,2.05453e-01,-1.48843e-02,5.06144e-01,-7.12336e-01,4.29969e-01,-4.75301e-01,-5.90354e-01,3.60025e-02,-4.40599e-01,-6.30400e-01,6.18890e-01,2.00212e-01,-1.17231e-02,9.62365e-01,-2.52382e-03,
5.25357e-02,
2.83768e-01,
2.63590e-01,
-2.60838e-02,
3.14585e-02,
6.55314e-02,
-4.24055e-01,
1.60993e-01,
2.13162e-01,
-9.12675e-02,
-1.71392e-02,
3.23213e-02,
8.56874e-03,
-1.87583e-01,
-1.94958e-01,
9.28896e-02,
-6.26639e-02,
3.23535e-01,
-1.46605e-01,
3.70928e-01,
-2.04727e-01,
-9.92818e-02,
-2.23690e-01,
2.56703e-01,
1.76180e-01,
2.95359e-01,
-9.62586e-02,
2.42642e-01,
-3.96190e-02,
-6.25050e-02,
-1.77200e-01,1.31049e-01,-1.27262e-01,-1.61712e-01,1.18006e-02,-1.81121e-01,4.07604e-01,-1.07483e-01,9.04578e-03,-2.12325e-01,-3.01502e-02,1.66088e-01,4.13594e-01,-3.10870e-01,-8.95246e-02,6.66349e-02,-8.45505e-01,7.25826e-02,2.21750e-01,6.70340e-02,-2.33644e-02,-2.46139e-01,7.25742e-01,8.68963e-03,2.53858e-01,1.90007e-01,6.65348e-02,-1.90050e-01,2.83852e-01,2.91187e-01,
2.05610e-01,-9.75791e-02,-1.93212e-01,-1.97393e-01,3.10390e-01,-1.07222e-01,-3.13756e-01,-3.11493e-01,-2.84147e-01,1.97577e-01,2.22837e-01,-2.42164e-01,2.75283e-01,2.74573e-02,3.96509e-02,6.72328e-02,-1.52525e-01,-8.60351e-03,1.75325e-01,-5.87422e-03,1.72985e-01,-4.98734e-02,-1.02892e-01,-3.07803e-01,4.85800e-02,1.09637e-01,-3.09165e-01,-2.03133e-01,-1.73099e-01,6.44609e-02,
3.13381e-02,1.94233e-01,-1.06779e+00,-1.96862e-02,1.11882e-01,-3.56793e-01,-4.28187e-01,3.78324e-02,3.73487e-01,-2.28555e-01,2.89888e-01,-1.23781e-02,2.01016e-01,-2.49622e-01,-3.08926e-01,1.09181e-01,1.82500e+00,-1.45732e-01,4.01349e-01,6.88089e-02,2.61427e-01,1.30425e-01,-2.67366e-01,-2.50338e-01,-1.45722e-01,2.48461e-01,-5.80465e-01,-1.27116e-02,-1.99993e+00,-9.94129e-03,
1.04794e-01,4.08869e-01,3.19334e-01,1.37580e-01,1.19212e-01,4.77162e-01,-2.01107e+00,-3.16561e-01,1.69551e-01,-2.31920e-01,1.51634e-01,1.57810e-01,1.89332e-03,-5.87347e-02,2.29456e-01,-1.97836e-01,3.03143e-01,1.80411e-01,-9.54792e-02,1.13480e-01,-1.88804e-01,-2.30823e-01,-4.90356e-01,1.03822e-02,1.36216e-01,-2.83883e-02,1.04829e-01,5.03487e-01,-6.53093e-02,5.16545e-03,
-3.34967e-01,-8.32564e-02,-4.62525e-01,1.21326e+00,4.47614e-01,6.28701e-01,1.92226e-01,-3.91387e-01,-8.55665e-02,2.76124e-01,4.84598e-01,-6.37767e-02,-7.78292e-01,1.69799e-02,1.14932e-01,-1.08028e-01,-6.33983e-01,-5.55276e-01,5.43619e-01,2.53817e-01,1.83153e-02,5.43664e-02,-1.31538e-02,-7.32189e-01,-5.82791e-01,7.54591e-01,-1.20380e-01,-3.09179e-02,-1.86592e+00,6.12431e-01,
1.66145e-01,3.25922e-01,-1.00969e-01,-2.93683e-01,-4.84549e-01,-1.64643e-02,-6.12585e-02,-3.46142e-02,5.04975e-01,-2.70601e-01,-1.48131e-01,6.76054e-02,1.88177e-01,7.07503e-01,2.00999e-01,-2.48420e-01,-6.36251e-01,-2.93849e-03,-1.17551e-01,2.74621e-03,-2.31933e-01,1.42864e-01,-5.12238e-02,2.62113e-01,-1.71280e-01,-8.37025e-02,-3.49972e-02,-8.48485e-02,2.47157e-01,-1.07196e-01,
-8.44980e-02,2.57433e-01,-1.32819e-01,1.40554e-01,-2.84149e-01,-5.57075e-02,-2.30355e-01,2.20306e-02,-1.48405e-01,2.25247e-01,-2.04595e-01,2.21896e-02,2.25251e-01,-2.66996e-01,3.09550e-01,-1.94956e-01,2.98018e-02,-1.00916e-01,-1.34151e-01,-3.29087e-03,-2.72018e-01,5.98184e-02,-2.58842e-01,-2.29828e-01,6.70103e-02,1.92169e-01,1.45789e-01,-1.33041e-01,2.13868e-02,1.13346e-01,
3.49517e-01,6.79058e-02,1.57732e-01,5.16929e-01,-3.91333e-01,2.36064e-01,-1.41930e-01,-6.44902e-02,3.30051e-02,2.91900e-01,5.00572e-01,-2.49501e-01,-2.34614e-01,-3.87772e-01,-1.41350e-01,-2.28241e-03,-2.33815e-01,4.48995e-01,4.44692e-01,-2.83925e-02,-9.55105e-02,-1.95059e-01,-2.07872e-01,2.97669e-01,2.22576e-02,3.54945e-01,2.05232e-01,1.86184e-01,-3.10157e-01,2.29261e-01,
-3.70813e-01,-8.57879e-02,-5.18471e-01,9.97073e-01,2.01644e-02,3.90890e-01,-5.52407e-02,2.09108e-01,1.14535e-01,2.89091e-03,1.83226e-01,1.72604e-02,-5.59468e-01,9.11232e-02,1.85401e-01,9.96541e-02,2.72275e-02,-5.29862e-01,4.84955e-01,3.37689e-01,-2.71778e-01,-1.17472e-01,-6.94570e-02,-4.25393e-01,-3.77915e-01,1.00498e+00,-9.84046e-02,-2.92647e-01,-1.21379e+00,5.47614e-01,
-3.36009e-02,1.14208e-01,-1.06880e-01,-2.51208e-01,2.95487e-01,5.13704e-01,-1.21773e+00,-1.85746e-01,3.10913e-01,-1.93128e-01,2.02489e-01,1.87483e-01,5.40881e-01,-5.26479e-01,2.84720e-01,-7.22899e-02,3.10662e-01,-1.21294e-02,3.39711e-01,3.90839e-01,-2.13936e-01,1.51473e-01,-4.88949e-01,-2.48913e-01,-2.57697e-01,2.20717e-01,-1.90810e-01,-3.22177e-01,-1.00270e+00,5.77161e-01,
-3.69298e-01,-1.96655e-01,4.04461e-01,-3.20092e-01,4.00969e-01,-1.56453e-01,-1.26481e+00,4.08380e-01,-2.26726e-02,1.31507e-01,-2.60499e-01,2.22540e-02,-2.76756e-01,4.20883e-01,2.92014e-01,2.27640e-01,-8.55591e-02,8.66654e-02,1.94177e-01,-2.96088e-01,-1.92577e-01,-2.49151e-01,-5.10380e-02,1.15055e-01,3.33887e-01,6.65564e-01,-8.03203e-02,1.77539e-01,-2.03983e+00,-2.44433e-01,
-3.17564e-01,2.56943e-01,3.00314e-01,-4.07542e-01,5.07267e-01,-1.55516e-01,-2.50670e+00,-7.74942e-02,8.21329e-02,-1.47582e-01,-1.62608e-01,1.53589e-01,-2.06251e-01,-5.60226e-02,-2.19299e-01,-3.40853e-01,-1.87800e-01,-2.90053e-01,-7.82893e-01,6.11888e-01,8.34376e-02,-1.33940e-01,-1.85901e-01,2.41658e-01,1.81187e-01,3.96827e-01,4.55365e-01,5.20867e-01,4.37374e-01,-1.27237e-01,
-2.47137e-02,4.32008e-01,9.15716e-02,2.58360e-01,2.01361e-01,-1.01338e-01,-6.20768e-01,-1.79135e-01,3.63495e-01,5.41871e-02,-2.01843e-02,1.68079e-01,1.05963e-01,1.44129e-01,-1.42597e-01,-8.89210e-02,5.24845e-02,-2.42365e-01,2.13098e-01,-4.71032e-01,1.70680e-01,-1.89127e-01,4.13468e-01,-8.77615e-02,1.77189e-01,4.30377e-01,-5.87692e-01,2.30772e-01,-4.44263e-01,3.15858e-01,
-2.23054e-01,2.63587e-01,-1.41780e+00,-1.19386e-01,-3.66568e-01,-1.01863e-01,-1.19573e-01,-2.16851e-01,7.86019e-02,-3.04956e-01,-6.45607e-01,1.35776e-01,4.10121e-01,-1.05246e+00,2.12911e-01,-5.58271e-01,2.92799e+00,-1.82329e-01,5.13226e-02,1.13080e-02,2.97634e-01,2.19092e-01,-1.15112e-01,-3.55170e-02,-1.54033e-01,-6.42888e-02,-1.25682e-01,2.88012e-01,-3.09328e+00,-1.55669e-01,
-4.93643e-01,6.22493e-01,4.89336e-02,-1.39040e-01,2.49097e-01,-1.62980e-01,1.30960e-01,3.43140e-01,-1.36207e-02,1.94824e-01,6.54217e-02,2.22270e-01,1.63836e-01,3.39004e-01,9.69302e-02,6.39822e-02,6.44060e-01,6.25366e-02,-1.40420e-01,6.28348e-02,1.82323e-01,-4.10708e-02,-2.01798e-03,3.95759e-03,-1.79855e-01,2.65545e-01,2.71884e-01,2.70170e-01,8.81145e-02,-1.84927e-01,
-1.14965e-01,-2.58738e-02,-4.44168e-01,-1.75106e-03,5.16379e-01,3.78552e-01,4.32918e-01,-5.05493e-01,2.08004e-01,-1.66795e-01,-3.39336e-01,7.84381e-02,5.52368e-01,-7.16994e-01,8.88103e-03,2.58385e-01,4.38038e-01,-2.30765e-01,-3.67441e-02,-1.56164e-01,-1.38004e-01,2.47002e-01,-4.18577e-02,2.26529e-01,-1.69002e-02,-1.80953e-01,-3.98622e-01,1.55755e-01,1.14012e+00,7.38581e-01,
-1.70216e-01,1.62810e-01,-8.68912e-02,-3.49609e-02,-3.52318e-01,-1.54294e-01,1.28419e+00,-1.55613e-02,3.50972e-01,7.67243e-02,2.01615e-01,-8.58954e-02,2.93491e-02,2.18494e-01,-2.33062e-01,2.01188e-01,-9.36803e-01,1.38564e-01,-2.69118e-01,1.78427e-01,1.22333e-01,-2.28105e-02,3.30260e-02,1.67538e-01,-1.05291e-01,-2.63594e-01,4.75211e-02,-9.40389e-02,6.92277e-01,-7.30927e-03,
5.03497e-02,3.02957e-02,-3.62416e-01,-1.13077e-01,1.52506e-01,-7.36098e-02,-2.31756e-01,-6.18752e-02,4.01311e-01,8.98059e-02,1.61614e-01,3.67411e-01,3.55745e-01,-4.17374e-01,-1.94621e-01,-2.36921e-01,-1.56796e-01,-2.03414e-01,-5.99445e-03,9.34105e-02,-1.90720e-02,-2.47845e-01,-4.82062e-01,3.77644e-01,-1.28968e-01,2.61677e-01,2.55473e-01,-7.66311e-02,2.81554e-01,1.50165e-01,
-2.26880e-01,1.92376e-01,-1.76276e-01,5.23335e-02,5.63745e-01,-2.90921e-01,-1.05930e+00,1.00222e-01,-1.24646e-01,1.67164e-01,1.90308e-03,1.31825e-01,4.63310e-01,-3.20249e-01,-2.62934e-01,4.34409e-03,-2.01780e-01,2.05530e-01,5.47447e-02,-1.05397e-01,-3.85289e-02,-2.46714e-01,-1.88818e-01,3.38777e-01,5.37179e-01,2.47617e-01,-1.09954e+00,-2.83934e-01,-7.65263e-01,8.06961e-01,
-1.00445e-01,-2.54198e-01,-2.18142e-01,-9.05590e-02,7.17973e-01,2.30706e-01,1.48849e-01,-2.33098e-01,3.21625e-01,2.22442e-01,2.46323e-02,-1.18306e-01,9.40438e-03,3.10247e-01,2.74213e-01,-2.10097e-01,-9.28289e-02,-3.76395e-01,-2.84303e-01,-1.53568e-01,1.14893e-01,-2.07261e-01,-2.59477e-02,-1.26704e-01,-4.57094e-02,-4.22978e-02,1.02114e-01,1.28474e-01,3.45384e-01,-2.56932e-02,
1.53449e-01,1.30033e-01,1.49216e-01,4.74356e-02,-7.77226e-01,-1.02542e-01,5.86735e-01,6.40330e-02,-1.12980e-01,1.88706e-01,3.31206e-01,-7.57529e-02,4.41576e-01,-2.66242e-01,-1.28414e-01,5.38259e-02,2.10641e-01,-4.71440e-01,3.20452e-01,-1.26594e-01,1.73703e-01,-2.83983e-01,-1.16962e-01,-1.80278e-01,5.35193e-01,-3.00986e-01,-1.43718e-01,6.47942e-02,1.21683e-01,-1.78370e-01,
2.47963e-02,8.11506e-02,-1.95440e-01,-9.02451e-02,4.08904e-01,2.49497e-01,-3.34003e-01,-2.12911e-01,-4.93196e-01,1.67544e-01,-6.64043e-01,3.58314e-01,6.13062e-02,1.17031e-02,1.13680e-01,-1.87176e-02,7.76211e-01,9.56873e-02,1.04680e-01,6.87251e-02,-3.10191e-01,3.60270e-02,9.23388e-01,-2.01049e-01,-3.38355e-02,-9.90982e-02,-2.33665e-03,-3.78072e-01,-1.36209e-01,-1.51905e-03,
-3.56260e-01,3.17852e-01,4.47415e-01,-1.28234e-01,-1.22458e-01,-7.14266e-02,-5.77242e-01,5.94152e-01,1.32276e-01,1.15982e-01,-2.15990e-01,-2.45756e-03,-3.02552e-01,3.45925e-01,2.87228e-01,-1.04370e-01,7.28127e-02,-1.64747e-01,1.60053e-01,-3.77542e-01,1.01608e-01,2.83443e-01,-6.20793e-02,2.05460e-01,-1.19018e-01,1.06556e-01,3.15260e-01,3.60799e-01,-3.33343e-01,2.65380e-02,
3.64927e-01,3.36739e-01,-2.37310e-01,3.84206e-02,-1.17208e-02,-6.27586e-01,3.04987e-01,5.80925e-02,-6.60778e-01,-1.75338e-01,-3.42163e-02,1.15013e+00,1.16684e-01,1.64254e-01,1.34417e-02,6.58561e-02,-6.51730e-01,-2.79306e-01,2.75469e-01,3.97199e-02,-2.86132e-01,8.60966e-02,-8.31979e-03,1.36158e-01,-5.32480e-02,1.50559e-01,7.62636e-02,-2.45485e-01,6.83316e-02,8.95365e-02,
-1.70479e-01,-1.14595e-01,-3.83837e-01,-6.43772e-02,-8.07046e-03,2.79207e-01,-6.07039e-01,1.63966e-02,2.96516e-02,1.66040e-01,2.87417e-01,4.78118e-02,-2.20150e-01,1.81795e-01,1.18252e-01,8.87294e-03,-2.70674e-01,6.77297e-02,-4.09022e-01,2.97869e-02,1.36336e-01,-1.33136e-01,1.57932e-01,8.48379e-02,-3.73714e-02,2.11903e-01,6.58048e-01,-7.05974e-02,-2.78669e-01,-3.02135e-01,
2.53740e-01,1.20829e-01,1.02077e+00,-1.38712e+00,6.12024e-01,2.56530e-01,1.31904e-01,3.38826e-01,-4.75771e-01,-2.83911e-01,1.71399e-02,2.55998e-01,4.59599e-01,-3.91873e-01,2.16572e-01,2.20916e-01,-1.23495e+00,-4.83724e-01,2.11269e-01,-6.70408e-02,1.41071e-01,1.18453e-02,-3.89051e-01,-2.34872e-01,3.28044e-01,-1.23362e-01,-8.12650e-02,-4.98121e-01,-1.84682e-01,-2.74571e-01,
4.00418e-01,1.95916e-01,3.34166e-01,-2.48079e-01,2.60682e-02,-3.99262e-01,-3.03046e-01,-1.40713e-01,-2.42555e-01,6.83165e-02,1.10402e-01,7.60427e-02,1.23666e-01,-1.02429e-01,8.42517e-02,-9.18337e-02,-3.43592e-01,2.42289e-01,-7.47006e-01,1.39622e-02,9.17703e-02,1.06576e-01,-3.93000e-01,5.63117e-01,4.46552e-01,-3.61889e-01,5.46236e-01,2.72187e-03,5.21945e-01,-2.45092e-01,
3.13290e-01,8.62272e-03,-1.24245e-01,-4.91688e-02,-9.82224e-02,2.52457e-03,4.69677e-01,4.19686e-01,2.42474e-01,2.66135e-01,-3.14271e-01,-3.13793e-01,-5.04233e-02,1.25485e-02,7.34002e-02,2.53217e-01,1.85551e-01,9.06912e-02,-3.46455e-01,3.16152e-01,-3.07218e-01,-2.02225e-01,2.59592e-01,1.55858e-01,-1.31267e-01,-2.50833e-01,-1.30892e-01,-2.13830e-01,4.23448e-02,2.57664e-01,
1.12017e-01,-3.40288e-01,-1.80221e-01,-2.83356e-02,-7.73964e-01,-3.26802e-01,5.82062e-01,1.47984e-01,1.62976e-01,2.76170e-01,3.21985e-01,-3.93128e-01,2.04944e-01,4.47893e-02,-3.15869e-01,-1.02772e-01,5.39936e-02,4.26962e-01,-9.27525e-02,-1.51059e-01,1.04992e-01,1.53975e-01,2.47223e-01,2.30063e-01,3.88298e-02,7.04375e-02,-1.72194e-01,1.55270e-01,-1.05675e-01,-1.70870e-01,
-2.80249e-01,-4.60444e-02,-1.86898e-02,5.28843e-01,1.67118e-01,-6.43212e-02,-2.09590e-01,-1.26020e-02,1.78606e-01,-1.31353e-01,3.49442e-01,2.75528e-01,-2.98800e-01,-2.44839e-01,1.00009e-01,1.24068e-01,-2.00962e-03,-1.62665e-01,5.09687e-01,5.82698e-01,1.51557e-01,1.77400e-01,-9.65023e-02,3.72991e-02,-3.70778e-01,-2.26510e-01,-7.36522e-02,5.70875e-02,-1.46544e+00,4.94267e-01,
-4.36903e-01,
-1.68615e-01,
1.61158e-01,
8.83372e-03,
-1.47963e-01,
-5.98979e-02,
-2.23019e-01,
-2.88044e-01,
-2.70171e-01,
-2.50985e-01,
-6.18994e-02,
-2.11760e-01,
-2.34490e-01,
2.52366e-01,
-1.80154e-01,
-2.41651e-02,
9.38163e-02,
2.15960e-01,
1.21771e-01,
2.75583e-01,
1.00410e-01,
1.41236e-01,
-2.73498e-03,
-3.73884e-01,
1.71119e-02,
-9.77393e-02,
4.98073e-02,
1.40259e-01,
2.46418e-01,
-6.74930e-02,
2.89069e-01,3.10226e-01,-7.31875e-02,-2.10395e-01,8.48030e-05,2.04221e-01,1.14884e-01,-1.36380e-01,-3.90389e-01,-4.71820e-01,-1.04454e-01,7.31561e-02,5.88462e-01,-2.76709e-01,-2.21205e-01,-1.66164e-01,3.00349e-03,8.68289e-03,3.61377e-01,-3.18815e-01,1.16229e-01,6.97723e-01,-1.00304e-01,5.17847e-01,7.14950e-02,-2.41616e-01,-4.71325e-01,-1.69957e-02,1.74451e-02,2.46899e-01,
-1.75764e-01,-1.15601e-02,1.16627e-01,-1.06459e+00,-1.82106e-02,6.44418e-02,3.05826e-02,1.98493e-01,-2.26424e-02,1.07197e+00,7.34767e-02,3.12713e-01,-3.89993e-01,-4.41815e-01,3.10676e-01,-1.92586e-01,2.40969e-01,7.20112e-02,-2.57726e-02,-2.05282e-01,-3.25530e-01,2.29096e-01,-1.02218e+00,1.28870e-01,-1.14066e+00,4.85399e-01,-9.83917e-02,3.39097e-01,2.50279e-01,-5.03341e-01,
1.85182e-01,-2.32623e-01,1.61255e-01,1.03461e-01,1.09016e-01,-9.26923e-02,1.32755e-01,-1.38211e-01,-1.78555e-01,-2.84467e-01,7.24992e-02,-2.55560e-01,6.71864e-03,-3.75125e-01,2.80022e-01,-2.49278e-01,1.07292e-02,5.69526e-01,7.01486e-02,7.69019e-02,1.64264e-01,2.28403e-01,4.18238e-02,5.20674e-01,-2.21114e-01,-4.28624e-01,1.09026e-01,2.22857e-01,-1.46065e-01,1.48585e-01,
-4.68532e-01,-1.78205e-01,-1.40668e-01,-1.10720e-01,1.20614e-01,3.39130e-01,-4.63400e-02,5.66129e-01,-3.65665e-01,-2.97461e-01,-2.71011e-01,-5.91368e-01,-8.30689e-02,-3.05793e-01,2.35320e-02,1.52556e-01,-6.32762e-01,-3.08629e-01,2.77884e-01,1.57361e-01,-2.00916e-01,-3.96493e-01,8.31232e-02,2.21981e+00,9.44075e-02,-1.11272e+00,-2.05174e+00,-7.27753e-02,-4.99349e-01,3.68020e-01,
3.42393e-01,8.89570e-04,3.48096e-01,-2.83291e-01,-1.08954e+00,4.58338e-03,2.29575e-01,9.82100e-02,-3.12057e-01,-2.18248e-01,-1.30109e-02,-5.30090e-01,7.89426e-02,8.81913e-01,4.08410e-02,-4.86720e-02,-1.25901e-01,-2.85511e-01,1.23057e-01,3.07126e-01,-3.35185e-01,-1.12603e-01,7.63132e-02,-2.66608e-01,-3.53824e-01,-9.04716e-01,-1.77287e-01,1.74818e-01,1.77581e-01,4.21304e-01,
-2.16798e-01,-2.27345e-01,-7.12586e-02,-2.67187e-02,3.47480e-01,6.63735e-01,-2.24732e-01,-6.41715e-01,-1.46591e-01,8.22812e-02,1.22447e-01,-1.91072e-01,2.54499e-01,-4.20865e-02,-2.98115e-01,3.01029e-01,8.16142e-02,3.99435e-02,2.65015e-01,-7.52229e-01,-2.36825e-01,4.12431e-02,8.09524e-02,-4.18792e-01,2.15915e-01,3.05942e-01,-6.77521e-02,3.16326e-02,-6.16287e-01,-5.98249e-02,
-2.76474e-02,-1.50730e-01,-1.66875e-01,1.28386e-02,2.78044e-01,6.93719e-02,-2.92222e-01,-1.52856e-01,-2.73494e-01,-2.47048e-01,4.33771e-02,8.37120e-02,-5.02100e-02,-3.44410e-01,9.15851e-02,-3.09713e-01,2.50724e-02,3.47384e-01,8.66470e-02,-1.37158e-01,7.73341e-02,-5.36442e-01,-2.32731e-01,-1.09403e+00,-3.60634e-01,-8.40310e-02,-1.83413e-01,4.53960e-02,-7.95060e-02,6.33841e-03,
3.78186e-01,2.03010e-01,-1.54497e-01,2.40727e-01,5.74448e-01,3.86752e-01,2.52560e-01,-1.04413e-01,-6.42435e-01,-9.43100e-01,-5.63419e-01,-7.98790e-01,-2.87197e-01,-2.09319e-01,2.01027e-01,1.32616e-01,-3.13424e-01,-4.04231e-01,2.79225e-01,-3.15485e-01,7.07874e-02,5.30498e-01,1.83540e-01,-8.51362e-02,1.63138e-01,-3.64808e-01,-8.21630e-01,2.64651e-01,1.58912e-01,-1.43456e-01,
-6.68440e-01,-1.91116e-01,3.22836e-01,-2.71628e-01,-4.21285e-01,3.19901e-01,2.03639e-01,1.38540e-01,-5.70451e-01,-3.86175e-01,-2.80745e-01,-8.00606e-02,5.47972e-01,-3.12776e-01,-2.60057e-01,-2.52373e-01,-3.09733e-01,3.12319e-01,4.13841e-01,-3.55905e-01,2.70062e-01,-2.40328e-02,3.81500e-01,-6.28232e-02,1.40754e-01,-1.44142e-01,-2.55698e-01,-9.78931e-02,2.85911e-03,5.77111e-01,
-4.19269e-01,6.52590e-02,6.89392e-01,-4.75636e-02,-1.36047e+00,-6.84584e-02,6.17880e-02,5.27064e-02,1.07816e+00,1.52927e-01,-4.58310e-01,-1.57480e-01,2.68870e-02,4.64335e-01,-3.48373e-02,1.53867e-01,1.92797e-01,-4.04280e-02,2.79246e-02,9.83490e-02,-3.78445e-02,8.48579e-02,3.38692e-01,-6.06909e-01,-6.92030e-02,5.27515e-02,1.83714e-01,-1.13176e-01,-1.76252e-01,2.52731e-01,
1.98010e-02,-1.83644e-01,-3.74457e-01,3.75268e-01,-1.03503e-01,2.07895e-01,-2.98679e-01,-1.01586e-01,4.38886e-02,-5.41719e-02,-2.26000e-01,-4.20817e-01,8.39909e-02,1.21426e-01,8.27137e-02,-1.18375e-01,3.86773e-03,-2.69971e-01,8.03586e-01,3.43111e-01,-5.38052e-03,-4.30938e-01,1.79987e-01,9.51832e-01,4.42321e-01,-1.94883e-01,9.82261e-04,-2.62279e-01,5.29331e-03,-3.83661e-02,
4.30486e-02,1.61933e-01,5.34923e-01,-2.08118e-01,-6.59186e-01,-2.21619e-01,-2.27741e-01,-6.01060e-02,1.31034e-01,-1.38204e-01,-4.01711e-01,-1.24622e+00,7.27602e-01,-5.30141e-01,-1.93628e-01,-3.42078e-01,-1.63614e-02,-1.03789e-02,7.11666e-01,-1.55765e-01,-1.53815e-01,-1.18260e-01,1.16855e-01,1.00010e-01,-1.73962e-01,-1.58813e+00,-1.87694e-02,7.00223e-02,1.28596e-01,7.38421e-01,
3.77224e-01,-2.20409e-01,-1.02095e-01,-1.22945e-01,-6.48520e-01,1.69882e-01,-1.46140e-01,-9.29189e-02,2.21452e-01,-2.34819e-01,-6.39512e-02,5.37358e-02,7.78852e-01,-4.89650e-02,1.28535e-01,-3.04850e-01,-3.92890e-02,-2.62123e-01,4.17318e-01,-7.49617e-02,2.24263e-01,9.83123e-02,-4.61162e-02,6.58974e-01,5.66407e-02,-9.43736e-01,-3.63137e-01,1.00478e-01,-9.20202e-02,5.61062e-01,
-1.73985e-01,2.50490e-01,-1.42780e-01,-2.51316e-01,-1.20317e-01,2.32500e-01,2.29999e-01,2.48257e-01,-6.77778e-02,-1.40974e-02,-1.78898e-01,-1.73511e-01,-2.62994e-01,3.86648e-02,-2.69609e-01,-9.35271e-02,-4.18876e-02,-1.93482e-01,7.23920e-02,1.67237e-01,1.21191e-01,-1.60343e-01,8.06832e-02,6.36576e-02,1.62354e-02,-2.08627e-01,-2.43914e-01,1.41527e-01,-8.58079e-02,-1.23396e-01,
-2.81476e-01,2.43348e-02,-1.96743e-01,-1.99818e-01,-2.82033e-01,-2.99310e-01,-2.54480e-01,6.36366e-02,-2.25020e-01,2.78509e-01,3.37750e-02,-2.72155e-01,2.02937e-01,-1.32876e-01,-2.54852e-01,9.78839e-02,4.65456e-02,-2.26045e-01,2.50882e-01,-2.72847e-02,-3.60069e-02,-1.80782e-01,-5.33142e-02,-5.57259e-02,-2.51312e-01,-1.13862e-01,-1.41638e-01,-9.26988e-02,-1.82963e-01,-1.12931e-01,
1.20886e-01,-1.55667e-01,4.76400e-02,1.36164e-01,1.76886e-01,-4.06491e-01,1.70056e-01,1.60046e-02,-1.61646e-01,2.24343e-03,1.64658e-01,-4.85177e-04,1.78259e-01,-2.04571e-02,-3.59786e-01,8.21375e-02,-2.39985e-01,8.43101e-02,1.87754e-01,2.04208e-02,-3.88705e-01,-7.86990e-02,-3.86205e-01,-4.27475e-02,-2.34553e-01,-3.30344e-01,-3.09380e-01,-2.31437e-01,7.79984e-02,1.47881e-01,
1.59088e-01,2.59200e-01,-7.42567e-02,9.38236e-02,8.89263e-02,2.07221e-01,2.15796e-01,-9.67271e-02,-1.51665e-01,-2.30637e-01,-1.77301e-01,-6.84192e-02,-2.72032e-01,-2.83239e-01,4.31187e-02,-1.28753e-02,-2.00786e-01,-2.59216e-01,-2.27260e-02,-5.23766e-02,-2.04669e-02,-1.77379e-02,1.93356e-01,-3.10228e-02,-2.66660e-01,-5.10597e-03,-2.17431e-01,2.12963e-01,-1.01838e-01,4.79654e-02,
-7.43338e-02,-9.31589e-02,-1.04490e-01,-4.95187e-01,5.12613e-03,2.61883e-01,8.93027e-02,3.58028e-01,-2.15808e-01,-1.21230e+00,-3.45934e-01,-8.45110e-02,4.63762e-01,-1.33805e+00,1.34012e-02,-1.90726e+00,-9.01367e-02,1.82658e-01,5.04434e-02,1.59154e-01,-5.73680e-01,7.46277e-02,1.14577e-01,-3.57637e-01,-4.64047e-01,-2.88492e-01,-2.12654e-03,2.09952e-01,-3.67696e-01,7.26608e-03,
1.99609e-01,-1.92906e-01,2.81017e-02,3.90591e-01,9.45070e-02,4.75610e-02,9.87691e-02,-4.32269e-01,2.87335e-01,4.83047e-02,-2.08973e-02,1.58009e-01,-6.88558e-02,2.87220e-01,-5.68894e-03,4.29191e-01,-2.37570e-01,-9.19706e-02,-2.80824e-01,1.80705e-01,2.04763e-01,8.21183e-02,3.19545e-01,-1.68687e-01,1.46286e-01,1.04745e+00,-7.01057e-02,3.37722e-01,4.08914e-01,-1.40915e-01,
-8.30855e-01,-8.14905e-02,-8.03761e-01,4.01667e-02,5.17776e-01,4.36334e-01,-2.82832e-01,3.77721e-01,-2.31357e-01,4.19930e-02,-1.11196e-02,-7.21099e-01,8.86123e-01,-6.77831e-01,-2.05080e-01,4.28901e-01,-5.79922e-01,-1.08434e-01,-2.28370e-01,-8.97145e-02,-1.95065e-01,-4.27361e+00,2.07760e-01,2.03859e-01,-5.56780e-02,-1.39209e+00,-3.91486e+00,-2.08220e-01,-1.61174e-01,4.35132e-01,
8.41474e-01,-2.49226e-01,-2.35561e+00,2.31035e-01,-7.51519e-01,-3.80032e-01,7.28031e-02,-2.13449e-01,-7.57888e-01,-9.64842e-02,1.97153e-01,-2.00079e-01,1.35067e-01,-2.99305e-01,-2.54578e-01,-1.13394e-01,8.24406e-02,-6.15604e-01,4.79469e-01,8.09804e-02,2.35504e-01,1.33805e-02,7.84783e-02,4.64428e-01,1.72318e-01,-2.81063e-01,-2.62609e-02,-6.22903e-03,1.01118e-02,7.63141e-02,
7.22339e-02,1.36898e-02,9.44695e-03,-2.78161e-01,-8.62532e-02,2.96289e-01,-1.99235e-01,7.45103e-03,-2.58224e-01,-1.85212e-01,1.57711e-01,2.58491e-01,3.28535e-02,-2.97241e-01,-1.51117e-01,-6.44502e-03,-2.40571e-01,-2.55347e-02,-1.23825e-01,2.26543e-01,2.91060e-02,-1.88289e-02,-2.09819e-01,-1.94320e-01,-5.57129e-02,-1.82519e-01,4.67347e-02,6.82523e-02,-3.13300e-01,1.52531e-02,
4.42775e-01,-9.79633e-02,-3.35302e-01,1.17965e-01,7.40738e-01,3.65504e-02,-2.59834e-01,-2.77990e-01,1.79564e-01,6.75000e-01,3.34388e-01,3.81492e-01,-3.41186e-01,5.35540e-02,1.66022e-01,6.14000e-01,-1.83132e-01,-3.28470e-01,-5.63134e-01,-2.65710e-01,-4.36530e-02,-4.51456e-01,-1.19158e-01,2.19200e-01,4.95796e-01,7.37952e-01,3.12386e-01,9.77128e-03,3.76563e-01,-3.31564e-01,
-2.91668e-01,-2.06720e-01,-1.24726e-01,-3.86107e-01,3.11992e-01,1.04676e-01,4.91662e-02,9.35695e-02,-9.87477e-01,-8.01089e-01,-3.48316e-02,-7.75860e-01,5.13810e-01,-4.62959e-01,4.57858e-01,-2.56175e-01,-3.03463e-03,1.11851e-01,1.45191e-01,-1.77718e-01,2.05226e-01,2.86078e-01,1.78991e-01,-2.88854e-01,1.09505e-02,-2.74704e-02,-8.30630e-02,2.26937e-02,-4.11366e-01,1.95634e-01,
3.54092e-01,-1.11825e-01,4.44638e-01,-7.29620e-01,-1.83378e-01,-2.66900e-03,1.11753e-01,2.98796e-01,4.95310e-02,-4.88770e-01,4.75367e-01,-1.00026e+00,3.01813e-01,1.43059e-01,3.22286e-01,-2.47017e-01,1.79799e-02,2.93738e-01,-1.24623e-01,1.68418e-01,9.50926e-02,1.15176e-01,-4.84071e-01,7.52431e-01,-2.15000e-01,-1.59861e-01,3.71903e-01,2.36581e-01,-3.74260e-01,2.32265e-01,
-2.91583e-01,1.84701e-02,-1.08318e-01,5.77313e-01,6.55023e-01,-2.54584e-01,1.94845e-01,-2.61530e-01,-3.62026e-01,2.23531e-01,6.28590e-01,1.98949e-01,1.69883e-01,-2.96701e-01,8.37284e-02,2.57401e-01,3.55052e-02,-5.18622e-02,-2.14498e-01,-2.23547e-01,3.14728e-01,-2.75923e-01,-1.67537e-02,2.72765e-01,3.83793e-01,1.10310e+00,1.48434e-02,-1.65305e-01,1.46251e-01,-1.83980e-01,
6.40811e-02,1.34038e-01,-6.61854e-02,1.03669e-01,1.37624e-01,-1.01266e-01,7.10516e-02,-1.35560e-01,1.15151e-01,-3.20384e-01,6.83255e-02,5.51456e-02,3.26743e-01,2.11953e-01,-1.86514e-01,7.31253e-02,-8.94790e-03,2.35200e-01,8.39505e-02,2.93310e-01,2.03400e-01,-3.99205e-01,3.40126e-01,-4.49146e-01,2.75247e-01,-1.60132e-01,-2.34458e-02,3.96696e-01,2.33604e-01,6.21032e-03,
2.89606e-01,1.38432e-01,-3.92687e-02,-1.00263e-01,-2.43873e-02,-2.23949e-01,1.58206e-01,-2.53547e-01,9.34663e-01,5.38363e-01,2.43299e-01,4.50644e-01,-1.06590e-01,3.13975e-01,4.33159e-02,3.58724e-01,2.70696e-01,2.55095e-01,-3.81720e-01,-1.52250e-01,1.40022e-02,-1.43942e-01,8.22777e-03,-5.74530e-02,4.18251e-01,-2.51278e-01,6.31296e-01,1.28113e-01,1.03418e-01,-4.22432e-02,
-4.22852e-01,-2.81787e-03,-1.45246e-01,1.03138e-01,-2.62866e-01,-2.46357e-01,3.26537e-03,-1.82953e-01,4.98274e-01,7.09080e-02,2.21406e-01,6.49363e-01,1.76098e-01,4.71811e-01,-4.54772e-01,-2.96337e-02,4.07308e-01,4.63982e-02,-4.50056e-02,-7.45759e-02,5.32973e-02,6.95736e-01,-1.37857e-01,-4.60722e-01,-6.31974e-03,3.82095e-01,-1.31747e-02,-1.05364e-01,-1.41459e-02,-7.53078e-02,
4.60053e-01,1.95166e-03,1.56783e-01,-1.41826e-02,5.17326e-01,-8.94060e-02,1.90196e-01,3.74617e-01,-1.14164e+00,4.34535e-01,2.83591e-01,1.05515e-01,-4.71247e-01,1.28662e-01,-3.07992e-01,-1.59688e-01,-2.02577e-01,-2.68758e-02,4.21847e-01,-7.12095e-02,-2.43924e-01,-2.75134e-01,-3.90957e-01,-2.94972e-01,1.43978e-01,2.41247e-01,-1.74687e-01,-5.42468e-01,-2.62861e-01,-1.19986e-01,
3.50427e-01,
5.32468e-02,
-4.89892e-02,
7.31000e-02,
-2.37583e-01,
6.85389e-02,
3.88809e-01,
-2.03368e-01,
7.31011e-02,
1.78429e-01,
-2.76965e-02,
-2.58949e-01,
2.75704e-01,
-2.79501e-01,
-1.32588e-01,
-2.28232e-01,
-3.10435e-01,
2.63017e-01,
-8.79455e-02,
-1.90373e-01,
-1.96200e-01,
-1.76844e-01,
1.37595e-02,
2.47139e-01,
7.28939e-02,
2.68859e-01,
5.49457e-02,
-1.85431e-01,
1.11029e-01,
1.72805e-01,
2.45571e-01,3.12398e-01,1.10147e-01,-8.35624e-01,-2.51356e-01,-1.56838e-01,2.14281e-01,-7.41623e-02,2.47478e-01,-2.65118e-01,2.23996e-01,-2.88755e-01,4.24589e-01,-1.23179e-02,6.14618e-02,-1.27171e-01,-2.01915e-01,-1.70852e-02,-2.71447e-02,-1.71604e-01,-5.98136e-01,-8.35445e-02,4.41306e-01,5.67999e-01,6.30458e-01,-3.09292e-01,6.15513e-02,-2.71800e-01,4.93761e-02,4.79065e-01,
-2.58844e-01,1.90297e-01,-1.40598e-01,1.96032e-01,-9.64632e-02,-9.75819e-02,2.21588e-01,-2.71927e-01,-3.15530e-01,6.05144e-02,1.12000e-01,1.56891e-01,-1.00016e-01,4.34756e-02,-1.55857e-01,-2.43827e-01,-2.81520e-01,2.88155e-01,-2.54345e-01,-1.49650e-01,-2.46561e-01,-2.94837e-01,-1.99696e-01,-2.28655e-01,-1.95443e-02,-1.67730e-01,1.97943e-01,1.25520e-03,1.79097e-01,2.99910e-01,
4.89208e-01,-4.61361e-01,3.00604e-01,-6.67477e-02,2.53152e-01,5.70336e-02,3.36342e-01,1.96678e-01,4.53367e-01,-3.23998e-01,6.54625e-02,-3.49943e-01,-4.13707e-01,2.46113e-01,2.47382e-01,1.07858e-01,1.25339e-01,-4.75527e-01,-1.38016e-01,-8.10731e-01,-2.60608e-01,-2.74536e-01,-1.39138e-01,2.30436e-02,-1.37928e-02,1.86325e-01,-8.55151e-02,-1.45074e-01,-2.11340e-01,1.16165e-01,
-1.05680e-01,-8.56878e-02,2.98474e-01,6.66283e-02,-3.78996e-01,-1.10603e-01,-9.27726e-02,-6.03984e-01,-3.72535e-01,4.13727e-01,5.87196e-02,-1.39687e-01,3.01436e-01,-8.65339e-02,1.23597e-01,1.51384e-01,-4.48939e-02,-4.21814e-01,3.06175e-02,6.63455e-01,2.86074e-01,-2.59910e-02,2.93695e-01,-2.16541e-01,-9.44134e-03,-2.30817e-01,1.44083e-01,-1.24356e-01,3.55289e-01,-1.50399e-01,
-1.82278e-01,1.86793e-01,3.73492e-02,5.41685e-01,6.03195e-01,-4.85244e-01,-3.11401e-01,-1.05350e-01,-1.72028e-01,-3.25360e-01,-1.81703e-01,3.52022e-01,2.73833e-02,-1.97186e-02,-2.06699e-01,-5.48674e-02,9.08882e-02,2.81139e-01,1.14462e-01,1.52650e-02,-1.28561e-01,1.76261e-01,9.75649e-02,6.81570e-01,3.45076e-01,1.71439e-01,-9.64871e-02,9.23345e-02,3.54448e-01,-5.36026e-01,
-1.16268e-01,1.58928e-01,3.07949e-01,-2.38409e-01,-3.75699e-02,-8.74583e-02,3.15393e-01,-8.98832e-03,5.97006e-02,4.60970e-02,-2.91645e-01,1.08731e-01,-3.00173e-01,-5.55253e-02,4.72987e-03,1.72784e-01,8.45479e-02,7.03044e-02,6.19412e-02,-2.54573e-01,1.37195e-01,2.18163e-01,-2.55930e-01,-2.23781e-01,6.76236e-03,-2.34468e-01,8.82246e-02,-1.18727e-01,-1.58765e-01,-3.05957e-01,
-4.00079e-02,6.60932e-02,-4.42505e-01,-9.08926e-02,-1.32424e-01,1.27632e-01,-2.01439e-01,-5.22109e-01,4.76333e-01,-3.43140e-02,-5.66424e-02,4.59133e-01,-6.21023e-02,-1.65598e-01,-1.37296e-01,2.45416e-01,1.40485e-01,6.03282e-01,2.00193e-01,-6.90184e-02,-2.89922e-01,1.51158e-01,-6.10128e-02,1.87662e-01,-6.68855e-03,1.10663e-01,-2.09785e-01,1.37974e-01,-2.91452e-01,-1.36800e-01,
3.85865e-01,2.79265e-01,1.70603e-01,-7.69100e-01,-2.48871e-01,8.51852e-02,2.49556e-01,-3.64473e-01,1.80300e-01,-1.92759e-01,2.16582e-01,-4.47741e-01,4.39688e-01,2.96225e-01,-8.93573e-02,-4.50259e-02,-2.77167e-01,2.92989e-01,-1.15924e-01,-5.26980e-01,-8.74834e-01,5.19833e-02,5.36223e-01,5.60582e-01,6.42450e-01,-2.30109e-01,2.03552e-01,-3.72396e-01,-9.13695e-02,4.97939e-01,
1.99186e-01,-7.66744e-02,-2.45376e-02,-2.64369e-01,-9.49607e-02,-8.87756e-02,-2.29579e-01,2.37476e-01,-1.17404e-01,-2.97443e-01,7.17979e-02,-1.89454e-01,-2.16184e-01,1.40778e-01,1.59979e-01,-4.39861e-02,3.10399e-01,-1.38573e-01,-2.25069e-01,-2.39869e-01,8.73292e-02,6.91912e-02,2.09121e-01,-2.67642e-01,2.42429e-01,-2.45162e-01,3.03236e-01,-4.48706e-02,-2.72524e-01,-2.27551e-01,
3.97494e-01,1.80963e-01,-7.37979e-02,7.85969e-01,2.09610e-01,-4.16572e-01,-4.13512e-01,-1.35734e+00,-2.30826e-01,-2.03808e-01,1.26109e-03,-4.39808e-01,-8.40066e-03,-1.75675e-01,-1.84978e-01,-2.94211e-01,5.30227e-02,-1.41449e+00,-1.24454e-01,-6.24757e-02,2.95435e-01,4.78848e-02,1.61555e-01,1.37864e-01,3.50455e-02,-5.28910e-01,4.07611e-01,-1.35269e-02,2.66317e-01,-6.34748e-02,
-2.54750e-01,-4.61274e+00,3.80695e-02,-9.59789e-02,-8.47719e-02,-3.55671e-01,3.30054e-01,-1.42834e+00,5.26220e-01,1.97181e-01,-7.53882e-03,2.97886e-01,3.81877e-01,-2.21023e-01,2.55742e-01,-1.63245e-01,1.70751e-01,-4.35097e-01,-1.10812e-01,5.01285e-01,4.91872e-02,-3.53183e-02,6.34243e-02,3.44042e-01,-6.50845e-02,1.77767e-01,2.83880e-02,1.08526e-01,6.18219e-02,-2.04024e-01,
-1.99876e-01,-2.01696e-01,1.98761e-01,3.61827e-01,-3.12356e-01,5.61835e-01,-2.43854e-02,-5.87826e-02,-3.06788e-03,-3.35218e-01,1.12019e-01,-2.92139e-01,-2.60329e-01,-2.60299e-01,-3.90580e-02,2.28739e-01,2.35517e-02,-2.54466e-01,2.92931e-01,-2.70559e-01,-2.95011e-02,-2.42593e-01,-6.88666e-03,-2.85106e-01,2.20587e-01,-5.43753e-01,-4.98921e-01,-1.50684e-01,4.42027e-01,2.31382e-01,
-1.27414e-01,1.90360e-01,2.02920e-01,1.00832e+00,1.84323e-01,5.71118e-01,3.54344e-01,-8.12755e-01,4.86830e-01,-4.43836e-02,5.51102e-01,-2.89120e-01,1.25562e-01,1.86816e-02,-8.80837e-04,-1.44369e-01,8.23222e-02,-1.95935e-01,-5.99976e-01,-4.29755e-01,-1.23102e-01,-1.26374e-01,6.70561e-01,-1.20925e-01,2.62588e-01,-2.50030e-01,-9.08983e-01,-4.24459e-01,3.47057e-01,-1.99610e-01,
-8.70021e-03,1.25246e-01,1.26482e-01,-2.06228e-01,1.83756e-02,-1.87979e-01,1.50760e-01,-1.81456e-02,3.41940e-01,-8.96492e-02,7.46688e-03,-5.13629e-01,1.08941e-01,-6.91954e-02,-2.02747e-01,1.74448e-01,-1.05485e-01,-9.29173e-02,1.13703e-01,1.43393e-01,1.32216e-01,8.99065e-03,1.13518e-01,4.56672e-02,-1.83652e-02,-2.10788e-01,-2.29453e-01,3.46753e-02,6.79164e-02,1.35399e-01,
-9.09422e-02,9.88215e-02,-1.02792e-01,2.32145e-01,2.41728e-01,1.77003e-01,-1.80094e-01,1.94664e-01,-2.64010e-01,-3.17994e-01,-2.78061e-01,-2.80997e-01,2.45837e-01,-3.19019e-02,-2.13081e-02,-1.55495e-01,1.06957e-01,1.99981e-01,-3.01073e-01,-3.04245e-01,2.05441e-02,3.15269e-02,2.47801e-01,4.85295e-02,-6.78409e-02,-5.63979e-02,2.08949e-01,-2.14866e-01,-2.54721e-01,-7.64797e-02,
-3.60201e-01,-3.64081e-01,-3.12583e-01,4.22907e-01,-1.11575e-01,-1.37625e-01,3.50578e-02,-2.99015e-01,-4.30087e-01,1.10204e-01,-5.24358e-03,1.54205e-01,3.51320e-01,1.90258e-01,-2.40227e-01,-2.33706e-01,2.40246e-01,-7.00584e-01,3.65342e-01,6.89743e-01,2.73773e-01,-1.74536e-01,-2.22484e-01,-6.18743e-02,1.20775e-01,-1.72275e-01,-1.46582e-02,3.52156e-01,2.63566e-01,-1.73374e-01,
2.90926e-01,-2.26838e-01,-1.52461e-01,-2.95347e-02,-3.98018e-02,-2.48929e-01,-2.51236e-01,2.76209e-01,-1.91162e-01,1.47270e-01,-1.30513e-01,1.53783e-01,-2.10761e-01,4.96378e-02,-2.00957e-01,-6.46975e-02,1.37609e-01,1.30468e-01,1.12632e-01,6.96991e-01,6.94433e-01,2.19786e-01,-3.86427e-02,2.50727e-01,-1.45585e-02,-7.46826e-02,1.57091e-01,2.90923e-01,-9.09020e-02,-2.72617e-01,
9.15391e-02,1.60920e-01,1.83107e-03,-1.24128e-01,-2.38865e-01,-3.64362e-02,1.43868e-01,-1.72061e-02,3.04526e-02,9.78859e-02,5.62846e-02,-3.05984e-01,2.92521e-02,4.42164e-02,3.54246e-02,2.10260e-01,-2.68337e-01,-6.74987e-01,-5.36392e-02,4.85951e-02,1.61862e-01,-1.64568e-01,3.79624e-02,-3.60518e-01,1.60309e-03,-1.82177e-01,1.00018e-01,1.77019e-01,-1.17103e-01,2.58328e-01,
3.42147e-02,-7.29290e-01,-2.22828e-01,-5.82796e-01,5.30011e-01,4.55724e-01,3.98222e-01,1.18917e-01,6.97406e-01,-2.49565e-03,-1.40545e-01,-3.71533e-01,-7.42833e-02,1.02675e-01,-1.54610e-01,-7.16658e-02,-2.69941e-01,-1.97531e-01,1.55369e-02,5.33999e-01,7.35903e-01,3.13681e-01,2.81469e-01,3.30416e-01,6.27853e-01,-5.87235e-02,4.67260e-01,-3.31576e-02,-2.48947e-01,4.10474e-01,
-1.89597e-01,-2.36711e-01,1.95856e-01,-2.04670e-02,-1.84067e-02,-2.20614e-02,-1.56961e-01,4.93072e-01,-3.44386e-01,-1.33509e-01,-1.34870e-01,4.90099e-03,1.91210e-01,4.05105e-02,-5.21654e-02,-6.82932e-02,-7.07378e-02,3.02404e-01,1.61310e-01,3.87759e-01,1.89857e-01,2.02523e-02,2.46272e-02,2.89086e-02,1.09826e-01,1.37171e-01,2.88952e-01,-1.03617e-01,1.92835e-01,-2.32086e-01,
3.69666e-02,-8.50505e-02,1.90304e-01,-1.50687e-01,-6.47286e-02,2.75669e-01,-5.08137e-02,1.68827e-02,-6.38531e-02,3.79944e-02,4.06056e-03,-1.12983e-01,-1.75111e-01,-5.08434e-02,-2.34732e-01,-1.12044e-01,1.76424e-03,1.40983e-01,-8.64261e-03,-6.41889e-02,2.00660e-01,-2.88858e-01,2.43372e-01,4.47362e-02,-2.12021e-01,-1.46832e-01,-3.44304e-02,-2.34957e-01,6.63301e-02,1.47371e-01,
2.53785e-01,2.18402e-01,1.74908e-01,-4.60344e-01,7.38028e-02,-3.72683e-01,-8.98268e-03,1.14922e-02,4.57386e-01,-1.52066e-01,-2.86727e-03,-1.97109e-02,1.20394e-01,2.81600e-01,2.36798e-01,-1.52431e-01,1.32492e-01,4.48866e-01,-8.68136e-02,3.47454e-03,-2.86620e-01,2.61793e-01,-1.35033e-01,4.74369e-01,3.25481e-01,3.55784e-01,1.40764e-02,-1.58102e-01,-1.56982e-01,-7.13774e-02,
-1.10581e-01,-4.21308e-01,-1.25810e-01,-1.07608e-01,1.26948e-01,7.78553e-02,9.39537e-02,4.24446e-01,-2.67980e-02,-2.22244e-01,6.60008e-02,6.69048e-01,-2.67640e-01,9.61671e-02,4.05034e-02,-1.97083e-03,8.32905e-02,-2.39366e-02,4.70356e-02,-4.40206e-01,-1.98327e-01,2.15010e-01,-4.30135e-02,2.74391e-01,-2.09593e-02,2.27489e-01,-1.81342e-01,4.06037e-02,-1.15620e-01,7.65863e-02,
8.23345e-02,-3.17028e-01,1.84906e-02,5.62264e-02,1.65444e-01,-2.03352e-01,1.12906e-01,2.84565e-02,-1.96182e-01,1.52289e-01,-1.67644e-01,-6.48014e-02,-2.93181e-01,-6.65661e-02,-1.37940e-01,-8.54864e-02,1.78786e-01,-2.58832e-01,9.24328e-02,2.86367e-01,-2.66082e-01,-2.00239e-01,-2.95009e-01,2.26915e-02,-1.78953e-01,-5.07488e-02,-2.19801e-01,-9.56231e-02,-1.12840e-01,-3.05874e-01,
-1.45752e-01,3.07893e-01,1.20317e-01,1.64176e-01,-4.10603e-01,5.25052e-01,-4.24116e-02,-6.26352e-01,7.63278e-02,3.37923e-01,6.26878e-01,-5.65557e-01,1.67340e-01,1.71880e-01,3.82409e-02,-3.72126e-02,-8.19913e-02,-5.95951e-01,-3.78411e-01,-1.30988e+00,1.26207e-01,1.39787e-01,1.46234e-01,3.06029e-01,2.63247e-01,-3.17823e-01,-3.51875e-01,-5.21556e-01,-2.07879e-01,-4.40011e-02,
-2.29590e-01,-9.37331e-02,7.99919e-02,-5.44083e-02,2.65884e-01,-3.53921e-02,-1.84174e-01,-2.93893e-01,-1.28003e-01,5.47635e-02,2.32861e-01,-1.41817e-03,-9.27535e-03,1.74033e-01,-1.52382e-01,-4.04074e-02,1.36675e-01,4.57402e-02,1.44289e-01,-1.00571e-01,-2.22459e-01,-2.01594e-01,-1.67828e-01,-4.32629e-02,1.49187e-01,-1.15054e-01,-2.91645e-02,-4.18240e-02,3.00753e-02,-1.35838e-02,
-2.22670e-01,-2.88178e-01,3.05581e-01,3.00802e-01,9.02111e-02,-2.82737e-02,-2.84891e-01,-1.58648e-02,2.71844e-01,5.81988e-02,2.72254e-01,-3.66172e-02,-3.14957e-01,1.99911e-01,-2.63225e-01,-2.40855e-01,-3.01293e-01,-3.07437e-01,-9.31548e-04,5.39580e-02,-1.38432e-01,1.19283e-01,1.19046e-01,-8.07515e-02,2.27074e-01,-2.17735e-01,7.68912e-02,-2.31080e-01,1.42714e-01,2.79118e-02,
3.46628e-01,5.84995e-01,-1.24862e-01,-6.80954e-01,-3.64818e-01,7.46579e-02,2.14982e-01,-4.30736e-01,3.14739e-01,3.58544e-01,2.48882e-01,2.19972e-01,1.02719e-01,1.05045e-01,-1.60144e-01,2.52085e-01,1.01592e-01,-2.20925e-02,-2.33236e-01,7.46574e-03,-4.78515e-01,-8.28302e-02,4.38641e-01,3.62240e-01,4.84486e-01,-4.19158e-01,2.55296e-02,-3.35461e-01,2.11039e-02,5.36364e-01,
-2.77382e-01,-1.52892e-01,-3.12424e-01,8.59763e-01,2.37080e-01,2.16347e-02,-6.02427e-02,-1.40886e-01,-1.55672e-01,1.28737e-01,-1.14750e-01,1.58769e-01,3.07886e-01,-2.70489e-01,-1.52045e-01,2.84614e-01,-2.01837e-01,-5.16557e-01,-3.01521e-03,1.78237e-01,-1.95004e-01,-3.53408e-02,-7.80440e-02,-2.00506e-01,2.59417e-01,-1.34633e-01,1.26760e-01,-5.18423e-02,3.51211e-01,-3.32168e-01,
-8.45544e-02,-1.51681e-01,5.06011e-01,-6.10579e-01,-5.99663e-02,4.68771e-02,3.64720e-01,6.29155e-01,-1.44366e-01,-3.17733e-01,3.19762e-02,-6.97287e-01,8.74864e-02,1.52356e-01,-1.12551e-01,-1.04688e-02,-3.13294e-01,5.55642e-01,2.29497e-01,2.34157e-01,6.11691e-01,2.45363e-01,-1.10031e-01,-1.71292e-01,-2.07859e-01,5.12613e-02,-1.63703e-01,2.36708e-01,-8.91156e-03,2.15179e-01,
-3.33121e-02,
-1.27727e-01,
-4.29076e-02,
-1.06897e-01,
-3.08389e-03,
-2.04979e-01,
2.11668e-01,
-7.94971e-02,
-2.12684e-01,
-3.63648e-01,
-2.62600e-01,
3.63874e-01,
1.77982e-01,
2.37023e-01,
-1.42296e-01,
3.77003e-02,
2.01811e-02,
3.30042e-01,
-2.55005e-01,
-5.11386e-02,
2.35051e-01,
1.63811e-01,
3.04151e-01,
-2.51883e-02,
2.82928e-01,
-2.26581e-01,
-2.24792e-01,
2.46177e-02,
2.29639e-01,
-2.54931e-02,
-6.09391e-01,-2.67382e-01,5.25149e-02,-7.95347e-02,3.22060e-02,4.01929e-01,-1.17476e-02,6.18148e-01,-3.43267e-01,-2.18775e-01,-1.02900e-01,-1.40813e-01,4.06713e-01,2.25900e-01,3.55401e-01,1.64138e-01,9.19408e-02,2.38992e-01,-1.12335e-01,3.03839e-02,1.19122e-01,3.00966e-01,8.03692e-02,-3.28363e-01,2.17674e-01,-3.67379e-01,-2.43953e-01,2.95960e-01,1.82061e-02,-6.63721e-02,
6.60043e-02,-1.33131e-01,2.01855e-01,-9.70868e-02,6.53077e-02,2.13821e-01,-1.97250e-02,9.45899e-02,1.94703e-01,-1.62799e-01,-1.37987e-01,2.68256e-01,3.84838e-01,3.54983e-02,-1.08327e-01,2.10302e-01,-4.09853e-02,-2.49889e-01,1.15382e-02,-1.51974e-01,-1.89179e-01,4.15375e-02,-2.51883e-01,1.87160e-01,2.26203e-01,-2.07964e-01,-1.95822e-01,1.62255e-01,-2.33576e-01,-9.40873e-04,
2.01428e-01,-1.15572e-01,5.54249e-02,9.99350e-02,1.28438e-01,-4.95987e-02,-8.32034e-02,-6.91907e-04,3.87340e-01,-1.56610e-01,-2.04888e-03,2.74506e-01,4.24119e-01,-4.72887e-02,3.70186e-01,-1.02329e-02,-1.09102e-01,-7.75356e-02,6.46014e-02,-6.87583e-02,6.38558e-02,-2.77839e-02,-1.61255e-01,1.40221e-01,1.88951e-01,2.17138e-01,-8.48272e-02,2.35036e-01,-1.62262e-01,-8.56926e-02,
2.00859e-01,-1.83880e-01,2.57146e-01,-2.97974e-01,7.05253e-02,-4.06747e-01,1.15756e-01,-1.08590e-02,2.56071e-01,-3.83748e-01,-2.06159e-01,4.10633e-01,3.40740e-01,-1.77623e-01,3.35349e-01,4.69032e-01,-3.50055e-03,-1.61970e-01,-2.96827e-02,-3.27945e-01,-2.63397e-02,2.40485e-01,-3.28161e-01,-1.15444e-01,1.91233e-01,7.90575e-03,-2.49608e-01,4.57524e-02,-1.43812e-01,1.90231e-01,
-7.87044e-02,1.48318e-01,-9.85145e-02,1.74000e-01,7.05885e-02,-7.18855e-02,-1.75693e-02,-4.69500e-04,-9.30891e-02,-2.52239e-01,-9.55810e-02,4.32160e-01,3.84468e-01,8.08996e-02,-3.23056e-01,-5.76245e-02,6.88691e-03,7.38479e-02,1.42007e-02,-5.88880e-02,-2.42701e-02,1.27443e-01,7.16819e-02,2.35448e-01,3.38437e-01,2.01341e-01,-3.23651e-01,4.20886e-01,4.38359e-02,-3.05421e-02,
-2.70966e-01,
2.58513e-01,
1.17025e-01,
1.62820e-01,
-1.00732e-01,
