// Neural Network File Format by Kyle Julian, Stanford 2016
6,5,5,30,
5,30,30,30,30,30,5,
15
499.000000,-3.141600,-3.141600,100.000000,0.000000
36656.000000,3.141600,3.141600,472.000000,1200.000000
17688.500000,0.000000,0.000000,249.000000,532.000000,9.330048
36157.000000,6.283200,6.283200,372.000000,1200.000000,423.773936
5.57127e-03,6.87063e-01,7.19122e-01,1.68033e-01,-7.82732e-02,
-2.93068e-02,-1.21416e-01,9.38381e-01,1.13895e-01,-2.44887e-01,
-1.28791e+00,-1.93248e-03,-5.08738e-03,5.70273e-05,4.07305e-03,
-1.15720e-02,-4.70842e-05,7.87360e-02,-6.69273e-02,-1.08632e+00,
3.41017e-02,1.61068e-01,-1.25636e-01,1.76028e-01,1.21285e-01,
-3.38637e-02,6.55037e-01,5.78536e-01,2.10194e-01,-4.65602e-01,
5.69638e-02,-7.80554e-01,-8.07790e-01,1.14899e-01,-1.18313e-01,
-4.41480e-02,3.11430e-01,-5.81991e-02,6.24806e-02,1.83473e-01,
1.47266e-02,1.22852e+00,-3.49690e-02,1.30635e-02,8.11226e-02,
-1.45879e-01,-9.88844e-01,1.24629e+00,4.35411e-03,3.12937e-03,
-1.36571e-02,-6.13026e-02,-6.44552e-01,-2.52034e-01,2.95045e-01,
1.02941e-01,-7.78379e-01,8.45063e-01,-1.30838e-02,2.37449e-01,
-3.49053e-02,4.19674e-01,6.86105e-01,-1.19184e-01,1.02447e-01,
1.27206e-03,-1.33496e-01,4.78194e-01,2.73563e-01,-8.63184e-01,
1.85865e-01,-2.56489e-01,-2.56840e-02,3.75259e-02,6.71157e-02,
2.10464e-02,4.67417e-01,9.70381e-01,4.01920e-02,-4.13787e-02,
-1.74974e-01,-5.74676e-01,9.46854e-01,-7.33996e-02,4.83357e-01,
1.39469e-01,-4.18520e-01,4.83827e-01,-1.96841e-02,5.49042e-02,
3.70643e-02,9.50238e-02,-6.67086e-02,3.93399e-01,-7.13844e-01,
2.05092e-01,-7.45617e-01,1.40934e-01,-1.05774e-02,-3.21744e-01,
-1.46428e-01,8.33302e-01,-9.57238e-01,3.62490e-02,2.01556e-01,
-3.29874e-02,8.90751e-02,-1.53856e-01,-3.33445e-02,1.91671e-01,
-6.63439e-01,1.76464e-01,5.82591e-01,1.01414e-01,-6.22911e-02,
-6.89226e-02,6.81544e-01,-5.89151e-02,3.43856e-02,-4.14088e-02,
-8.15939e-01,9.38517e-02,-9.83482e-02,-2.33023e-02,3.97948e-02,
-3.06618e-02,1.03428e-01,5.23388e-01,-2.30782e-01,3.05284e-01,
4.14826e-02,-6.51642e-02,-7.56750e-03,4.49619e-01,-2.99305e-01,
-1.47395e-02,-7.71641e-01,-2.77703e-01,2.88517e-01,-6.74502e-01,
-1.30864e-01,-6.38181e-01,3.93365e-01,-7.85322e-03,2.79979e-01,
2.56897e-01,4.26016e-01,-1.64235e-01,-8.95887e-02,1.60424e-01,
-2.80764e-01,
4.24295e-02,
-3.83548e-01,
-3.88406e-01,
6.99720e-02,
-2.54668e-01,
-3.24946e-01,
1.81605e-01,
3.54626e-02,
-1.70836e-01,
1.86745e-01,
-3.24500e-01,
7.56523e-02,
5.02201e-02,
1.52883e-01,
-1.86405e-02,
-2.26749e-01,
2.22843e-01,
6.43938e-02,
5.61829e-02,
-1.71479e-01,
-2.68182e-01,
-2.59018e-01,
1.79960e-01,
-5.30332e-02,
1.71404e-01,
2.49648e-02,
-2.32657e-01,
3.98085e-01,
1.79063e-01,
4.15026e-01,7.11069e-02,5.40111e-01,-8.00391e-01,1.58816e-01,-8.00001e-01,4.33999e-01,2.83525e-02,-6.76455e-02,-1.29123e+00,1.50742e-02,-3.13289e-01,2.17809e-01,-1.58111e-01,-3.63925e-01,-7.39936e-01,1.54629e-01,-1.82260e-01,-2.20059e-01,2.54658e-01,-3.62634e-02,1.00470e-01,-5.50582e-01,-4.59870e-01,6.33454e-01,9.88433e-02,-1.32683e-02,8.69041e-02,3.28377e-01,-1.36417e-01,
-1.25491e-01,3.54880e-01,1.10302e+00,2.66032e-01,-1.89228e-01,-4.53832e-01,-7.63701e-01,-5.24911e-01,1.30259e-01,4.65372e-01,-4.44517e-01,5.71424e-01,-1.93298e-01,-2.46410e-02,2.46063e-01,-4.41540e-02,4.24179e-01,3.50571e-01,3.48301e-01,4.48516e-01,-1.46186e+00,-2.72739e-01,6.26156e-02,-6.99859e-01,2.95353e-01,-1.42565e-01,8.78885e-02,-1.53197e-02,1.56781e-01,-4.99981e-01,
-1.20439e-01,-2.44225e-01,2.31858e-02,-5.64058e-01,-4.04716e-03,1.57227e-01,-6.59827e-02,3.05831e-02,-6.57463e-01,5.25870e-01,3.65134e-01,-1.14577e-01,-1.04711e-01,-4.47164e-01,-2.71462e-01,2.04220e-01,3.81871e-01,2.32643e-01,-6.24343e-03,-1.68585e-01,-3.41816e-02,2.99406e-01,3.77855e-01,3.87792e-01,-2.21130e-01,9.77217e-02,3.51231e-01,-1.85953e-01,-1.68449e-01,-1.22552e-01,
1.88467e-01,2.54293e-01,8.40117e-03,1.93350e-01,2.88860e-01,-1.00730e-01,-2.67689e-01,-1.60271e-01,1.34308e-01,-2.10005e-01,-1.58699e-02,-2.79541e-01,-9.73136e-02,1.65245e-02,1.19245e-01,-1.78107e-01,2.07888e-01,5.96472e-03,-6.94070e-02,-1.36593e-01,-2.51543e-01,-8.60829e-02,-7.33935e-02,-2.59316e-01,-1.51428e-01,2.32363e-01,2.21509e-01,-6.32659e-02,-1.77954e-01,-3.74332e-02,
-2.41173e-01,-8.14834e-02,-4.13700e-01,-9.76963e-01,2.57860e-02,3.03944e-01,1.56813e-01,3.73803e-01,2.57188e-01,-2.02979e-02,1.61870e-01,2.00672e-01,1.82120e-01,-6.79163e-02,6.26213e-01,2.94105e-01,-8.67500e-01,-2.63665e-01,-1.66215e-01,2.02802e-01,4.23890e-01,-1.29662e-01,-7.18719e-01,-9.28730e-02,1.22514e-01,2.29481e-01,9.70205e-02,-3.10500e-02,1.38657e-01,3.49912e-01,
3.43773e-02,-8.30921e-02,1.59144e+00,4.19158e-02,5.89741e-02,-1.80249e-02,-1.18919e-01,-1.25065e-01,-2.46982e-01,3.43760e-01,1.12950e-01,2.03527e-01,3.32223e-02,-1.43506e-01,-2.36735e-01,-1.64982e-01,1.19503e-01,-4.64880e-01,4.21232e-02,-1.54761e-02,5.73761e-01,-2.85394e-01,1.99121e-01,1.44202e-01,6.64175e-01,-1.56254e-02,1.53377e-01,1.47807e-01,-2.70830e-01,1.76402e-01,
1.12965e-02,-4.89566e-01,7.78410e-01,-8.52025e-01,2.59739e-01,6.94734e-01,-1.73837e-01,-3.51605e-02,-6.28573e-01,-3.41781e-01,2.14730e-01,4.27170e-02,4.10917e-01,-4.03100e-01,-8.07655e-02,5.46471e-01,-3.39348e-01,-5.17514e-02,-3.08567e-01,-1.02627e-01,-7.57028e-01,-3.05742e-01,9.24806e-02,-1.42958e-01,-9.45124e-02,4.16728e-01,5.81681e-01,-3.57658e-01,2.98148e-01,2.50320e-01,
-2.69842e-01,2.38240e-02,1.08904e-01,2.53509e-01,2.51419e-01,-4.57416e-02,1.45610e-01,-1.52377e-01,-8.36407e-02,-2.77426e-01,-2.28154e-01,-2.88892e-01,1.54295e-01,-2.34970e-01,-6.24433e-02,2.36293e-01,-1.66024e-01,2.23223e-01,2.39772e-01,-1.54115e-01,2.11318e-01,-1.87768e-01,2.64004e-02,9.36881e-02,-2.54962e-01,-8.22739e-02,-1.62627e-01,-2.68839e-01,-9.81399e-02,-1.32559e-01,
3.30473e-01,4.66346e-02,1.01703e-01,1.67796e+00,2.36860e-01,4.84677e-01,8.72496e-02,-2.07769e-01,1.32487e-02,-8.21587e-01,7.17247e-02,-2.25642e+00,4.31553e-01,-4.61054e-01,-4.17949e-01,4.38129e-01,-1.25235e+00,4.66812e-01,-7.02469e-01,-1.49405e-01,-2.41784e-01,1.77467e-01,6.17363e-01,6.57545e-02,2.38662e-01,4.52961e-01,3.34222e-01,9.94205e-01,-3.05520e-01,1.31712e-01,
-2.75971e-01,4.39968e-01,-5.39158e-01,8.03012e-01,6.57972e-02,-7.47160e-01,-1.71648e-01,3.90587e-01,-2.39032e-01,-6.88240e-01,2.27039e-01,-1.73613e-01,4.10008e-01,3.68666e-01,4.32027e-03,9.38441e-02,-3.02893e-01,1.45476e-01,1.31257e-01,-2.17398e-01,-6.24235e-01,2.83332e-01,3.56729e-02,-2.73944e-02,8.71800e-02,-9.21414e-02,-1.82081e-01,-2.82121e-01,-1.20310e-01,1.44201e-01,
-3.73962e-02,3.77943e-02,3.16335e-01,6.54742e-01,-1.28557e-01,-1.11723e-01,8.39819e-02,-1.04599e-01,-9.23284e-01,-1.45006e-01,6.94681e-02,1.52468e+00,1.46300e-01,4.36816e-01,-2.82098e-01,1.14822e-02,-1.66895e-01,1.66657e-01,4.78518e-01,-1.61380e-01,5.76331e-02,-2.44658e-01,1.20932e-01,7.53520e-02,6.15264e-01,-3.92595e-01,-2.63466e-01,-1.42608e-01,-2.90347e-01,4.20556e-01,
-8.53091e-02,7.39913e-01,-2.28255e-01,8.92567e-01,5.13618e-02,-2.90009e-01,-2.44013e-01,-1.31185e-01,2.63473e-01,9.76326e-02,1.07409e-01,-4.02203e+00,-2.16867e-01,1.03142e+00,1.23382e-01,-2.05989e-01,-3.79800e-01,-5.70131e-01,1.35581e-01,-4.39910e-01,5.51745e-01,4.71241e-02,2.46681e-02,1.64733e-01,-1.03811e-01,-2.98521e-01,-3.07068e-01,-6.32536e-01,-9.43244e-01,2.82523e-01,
-2.65695e-02,1.58410e-01,1.40368e-01,1.28585e+00,4.61049e-01,-1.57571e-01,-5.23862e-01,-8.57765e-02,-6.05859e-01,-2.69010e-01,-3.24459e-01,1.31738e+00,1.12883e-01,2.59571e-01,-9.95623e-02,-5.16594e-01,-1.47585e-01,5.62633e-02,4.54029e-01,1.17864e-01,6.31109e-01,2.15070e-02,8.59635e-02,9.75135e-02,-1.56637e-01,-8.69168e-02,-3.35718e-01,-8.66796e-02,6.02110e-02,1.18484e-01,
-7.62261e-02,-2.99018e-01,-2.12933e-01,2.00489e-01,3.46589e-03,-3.07703e-01,2.97883e-01,2.58277e-02,1.08281e-01,-1.03681e-01,2.70667e-01,9.70413e-02,1.32329e-01,4.90491e-02,-2.40625e-01,-1.69924e-01,2.67534e-01,-6.72250e-02,1.31104e-01,-6.22715e-02,-2.16242e-01,1.32779e-01,-1.48421e-01,-1.00370e-01,2.14007e-01,-1.21129e-01,8.80902e-02,-1.64518e-01,-2.02055e-01,2.12270e-01,
2.69841e-01,-6.23164e-01,-4.28083e-01,-7.99019e-01,-2.45053e-02,5.83241e-02,7.08883e-02,-3.97820e-01,1.11312e-01,1.62072e-01,4.91605e-01,1.36478e-01,1.45660e-01,-5.29099e-01,2.96133e-01,6.37775e-01,-1.86144e-01,-2.81998e-01,-1.62212e-01,-4.38591e-01,-2.08713e-01,-2.90294e-01,-7.19453e-01,2.38514e-01,9.36982e-03,-1.90446e-02,5.13075e-01,1.75263e-01,-3.72475e-01,-3.98106e-02,
-2.01785e-01,-1.81966e-01,-5.86447e-02,4.57614e-01,9.01303e-02,-4.00812e-01,-4.02539e-01,1.65358e-01,3.94113e-01,1.32259e-01,3.33556e-01,-1.07560e-01,-1.09119e-01,5.53275e-01,1.73053e-02,-3.12104e-01,2.28471e-01,-8.13141e-01,2.61822e-01,2.80289e-01,6.73317e-01,-2.73963e-01,-2.58343e-01,1.55976e-01,2.86509e-01,-4.05880e-01,-8.28224e-02,-2.31324e-01,-5.30100e-01,2.37711e-01,
2.72247e-01,1.00747e-01,-1.40091e+00,-9.36700e-01,5.93513e-01,5.31083e-01,4.63665e-01,-3.90776e-01,-1.97072e-01,-2.57177e-01,3.54006e-01,2.50207e-02,-2.17547e-01,-1.95931e-01,9.03971e-02,3.74132e-01,-2.02317e-01,3.57410e-01,-3.16411e-01,4.38969e-02,-7.68731e-01,-7.74397e-02,1.17901e-01,-5.71755e-01,-1.32233e-01,2.13765e-01,5.03909e-02,1.75921e-01,1.24083e-01,-8.69884e-02,
-4.80401e-01,3.87921e-01,-3.03838e+00,-2.94592e+00,1.13864e-01,-7.13993e-02,1.29570e-01,-1.03628e-01,3.01160e-01,1.90786e-01,3.83384e-01,8.34457e-02,-2.37009e-01,-8.00987e-01,2.42740e-02,-2.34395e-01,8.35701e-01,-3.54444e-01,1.87764e-01,-3.32603e-01,7.79533e-01,2.86586e-01,5.69916e-01,1.19647e-01,-2.80930e-01,-3.91658e-01,4.53960e-01,-4.97605e-02,-6.90216e-01,3.62332e-01,
2.87202e-01,-2.08063e-01,-3.70505e-02,3.07315e-01,-7.71158e-02,-2.42085e-02,5.98572e-02,-1.03311e-01,1.76195e-01,-3.02232e-01,-2.15841e-01,2.09445e-01,-2.08196e-01,-2.15135e-02,2.52128e-01,-3.15546e-01,-2.86593e-01,-1.34093e-01,8.89737e-02,-2.07462e-01,-6.69014e-02,-8.78068e-02,-1.90879e-01,-3.03823e-01,-1.06582e-01,-2.94443e-01,-2.59559e-01,-2.99524e-01,1.44969e-01,-2.17164e-01,
-1.38256e-01,-1.61733e-02,1.40140e+00,1.55994e-01,1.86238e-02,-1.40612e-01,1.42884e-01,-1.44486e-01,-3.05917e-01,1.75954e-01,2.90058e-01,-2.60247e-01,1.88031e-02,-2.07845e-02,-7.57831e-01,9.30120e-02,9.35226e-02,-8.61551e-02,2.74601e-01,4.20157e-02,4.69663e-01,5.08070e-02,5.13865e-01,1.82077e-01,7.01347e-01,9.38497e-02,1.77496e-01,-1.75145e-01,1.70473e-01,-6.48719e-01,
-5.63810e-01,-7.80860e-02,-1.04243e+00,9.81097e-01,1.10342e-01,-1.71754e-01,-3.01100e-01,-2.42021e-01,5.92389e-01,5.76405e-01,-1.03650e-01,-3.89987e-01,9.84816e-02,2.33832e-01,-6.62536e-03,-9.38376e-02,3.72775e-01,8.81386e-02,4.36534e-01,2.06684e-01,-9.20925e-01,1.49717e-01,-3.69954e-01,-1.39283e-01,-4.52663e-01,-4.70786e-01,-2.70154e-01,-1.84982e-02,2.46914e-01,-1.34200e-02,
7.12845e-02,4.64513e-01,1.05644e-01,2.47076e-01,-2.46680e-01,4.87109e-01,1.05267e-01,-2.82682e-02,-1.07016e+00,5.12413e-01,-3.55924e-01,-1.25165e-01,-5.27592e-02,7.64907e-02,1.64437e-01,-2.62665e-01,5.56538e-01,2.18952e-01,-6.87271e-03,-2.40008e-01,6.86797e-01,-1.46368e-01,4.04423e-01,-1.80092e-01,4.33597e-02,3.87936e-01,5.09422e-02,-3.21652e-01,1.43128e-02,-5.77412e-02,
-7.77804e-01,-1.22569e-01,-3.97235e-01,1.25113e-01,-1.61315e-01,-3.55027e-01,1.28606e-02,1.44505e-01,1.21574e-01,7.55911e-03,-1.87442e-01,7.51092e-02,-4.15226e-01,-6.37911e-01,9.45138e-02,1.17584e+00,5.26426e-02,3.56261e-01,6.92409e-02,-1.66532e-01,1.87068e-01,-1.19275e-01,1.86225e-01,1.30213e-01,-1.84134e-02,-1.73899e-01,2.58988e-01,4.95783e-01,-1.75755e-01,-3.59587e-01,
-2.35681e-01,-9.59634e-04,4.60540e-01,8.71053e-01,-7.52651e-02,3.52155e-01,7.12575e-01,-1.72306e-01,2.02711e-01,-6.08297e-02,-1.32371e-01,7.72746e-01,3.98226e-01,-5.09138e-02,1.41378e-01,1.00895e-01,-4.65836e-01,6.76040e-02,6.60120e-02,2.05828e-01,-3.38812e-01,8.47417e-02,-9.04412e-02,1.38029e-01,9.02482e-02,1.46767e-01,-4.00522e-01,2.23745e-01,1.83489e-01,4.70159e-02,
8.66279e-02,-3.14500e-01,2.48499e-01,1.61470e-01,-1.76389e-01,-8.97848e-02,-1.70541e-01,-1.45047e-01,-2.47556e-01,1.59931e-01,-7.19566e-02,1.74202e-01,-1.23121e-02,-1.70543e-01,-7.10777e-02,-1.65156e-01,-2.09572e-01,3.12299e-01,-1.81531e-01,-1.96767e-01,5.01815e-02,-1.28421e-01,-1.91875e-01,7.42435e-02,-2.67907e-01,-4.31427e-02,-5.26130e-02,5.64802e-02,-1.96562e-01,-4.03602e-02,
1.56624e-02,-4.65935e-01,-1.96432e+00,1.60584e-02,1.65492e-01,2.60610e-01,-1.91253e-02,-1.42549e-01,-9.97807e-02,-1.66545e-01,2.82398e-01,2.48978e-01,2.35833e-01,-1.93331e-01,2.19414e-01,2.05006e-01,-1.70122e-01,3.15425e-01,2.54452e-01,-1.35657e-01,-2.09275e-01,3.23412e-01,-7.47045e-02,2.81799e-01,-1.96721e-01,-6.50350e-02,3.81446e-02,7.38211e-02,2.67756e-01,3.10693e-01,
7.15858e-01,4.20090e-01,-7.46187e-01,-6.18047e-01,-6.45684e-03,8.08532e-01,1.22311e-01,-4.89308e-01,-1.93508e+00,6.03854e-01,4.62663e-01,6.64896e-01,1.17554e-01,-7.27067e-02,-1.50336e-01,2.74916e-01,2.47892e-01,2.07184e-02,-1.31774e+00,8.57618e-02,-1.59923e-01,-9.46486e-02,-2.90333e-01,-1.10510e-01,-3.22767e-01,8.26096e-03,4.84855e-01,1.02467e+00,-3.74522e-01,-4.36935e-01,
7.86815e-01,-1.02857e-01,-4.60967e-01,-1.99274e-01,-4.78207e-03,5.28508e-01,5.11111e-01,1.17500e-01,4.14051e-01,-5.65966e-01,2.51868e-02,-2.42332e-01,4.53135e-01,-1.04140e-01,1.49432e-01,3.59749e-01,1.50335e-01,1.75835e-01,1.93094e-02,-3.26627e-01,-2.34449e-01,3.28947e-02,4.99707e-01,-6.16774e-01,-1.30713e-01,-3.70140e-01,1.64217e-02,7.58725e-01,2.29176e-01,-1.73269e-02,
-4.11281e-01,4.66211e-01,-7.26830e-01,2.54143e-01,-3.40194e-01,-4.39864e-01,-1.10420e+00,-4.21135e-01,-6.07451e-01,6.43715e-01,-6.68654e-01,1.18757e+00,-4.37117e-01,1.69656e-01,-1.73260e-03,-4.25390e-01,5.86379e-01,2.19202e-01,4.33038e-01,3.92853e-01,-7.19723e-02,-2.12568e-01,-6.96575e-02,-5.37439e-01,-1.20100e-01,-5.01953e-02,2.06444e-02,-6.33383e-02,-1.35267e-01,-2.57080e-01,
4.23136e-01,3.08355e-02,-7.00075e-01,-4.90334e-01,-4.89998e-03,8.33305e-02,1.70437e-01,-6.58038e-02,1.03139e-01,-2.90229e-01,1.25640e-01,-1.03822e+00,2.26399e-01,-3.38899e-01,3.07305e-01,-2.23534e-02,-6.24528e-01,-7.14752e-02,-3.04062e-01,5.87828e-01,-2.31468e-01,-2.73048e-01,6.50006e-01,-2.16698e-01,-1.59239e-02,2.02817e-01,6.14855e-02,2.01088e-01,5.81833e-01,-7.61170e-02,
2.69734e-01,
-2.73148e-01,
2.71284e-01,
-2.67890e-01,
-2.34561e-01,
-1.89554e-01,
1.19589e-01,
-1.58396e-01,
-2.22026e-01,
3.17729e-01,
-2.52643e-01,
-1.54665e-01,
-1.15138e-02,
-3.00144e-01,
3.21460e-01,
-2.92900e-01,
4.28177e-02,
-1.77163e-01,
-2.24923e-01,
-3.32731e-01,
4.94796e-02,
-3.10265e-02,
2.52957e-01,
-4.93448e-02,
-2.24612e-01,
1.41784e-01,
-3.72084e-01,
1.79557e-01,
-3.62954e-01,
8.46487e-02,
-1.11905e-01,7.60278e-01,-2.04888e-01,-2.91622e-01,1.41536e-01,3.46263e-01,-1.74948e-01,-2.56630e-01,-1.56921e-01,7.97319e-02,4.74088e-01,-4.69902e-01,2.75018e-01,-2.17706e-01,3.93720e-01,-4.46478e-03,2.94381e-01,-1.27203e-01,-3.15107e-01,2.98320e-01,-5.53200e-03,1.51025e-01,-1.28501e-01,1.92369e-01,-7.15792e-04,1.40715e-01,-7.70224e-01,-1.69223e-01,-1.65550e+00,-1.03754e-01,
-1.90168e-01,1.03204e-01,-2.49147e-02,2.44466e-01,-1.86354e-01,-1.50616e-01,-8.89857e-02,-2.29098e-01,1.31598e-01,-2.94056e-01,1.49172e-01,-2.29071e-01,2.81158e-01,1.49041e-03,1.82722e-01,1.02075e-01,-4.59189e-02,2.82855e-02,1.64815e-01,-7.81459e-03,-4.66269e-02,-1.23967e-01,1.32967e-01,3.27233e-02,2.17097e-01,-4.44311e-02,-9.47426e-02,-1.85747e-01,-2.37681e-01,3.97262e-02,
1.05399e-01,-2.26259e-01,-3.04358e-01,1.57727e-01,-5.01879e-01,4.41999e-02,4.16247e-02,2.96350e-01,-5.68175e-02,7.34731e-02,1.22790e-01,5.28313e-01,-2.57012e-01,6.38630e-02,-1.41366e-01,5.33960e-02,-1.49365e-01,5.95147e-01,1.43209e-01,-2.80093e-01,-1.13709e-01,-1.61062e-01,-4.84018e-02,-1.34065e-02,1.41741e-01,3.92298e-01,1.10383e+00,2.05099e-01,1.32357e+00,1.38463e-01,
-1.58836e-01,-3.10677e-01,-2.60813e-01,-1.58773e-01,-2.40673e-01,-1.64121e-01,2.34194e-01,-1.93719e-01,-2.69850e-01,-1.65268e-01,-1.87022e-01,1.27986e-01,-2.71885e-01,-1.24556e-01,5.83260e-02,1.37263e-01,-2.13945e-01,-5.30109e-02,2.42956e-01,2.24080e-01,1.55598e-01,-1.76049e-01,-2.24247e-01,1.88579e-01,1.97288e-01,-2.69660e-01,2.08706e-01,-1.78086e-01,1.02515e-01,-7.86979e-02,
-5.79941e-01,-7.10204e-02,-1.04082e-01,-2.33797e-01,4.78139e-01,5.86449e-02,-4.06729e-01,1.50799e-01,6.51709e-01,-4.22431e-01,7.32497e-02,6.24587e-01,-2.64072e-01,1.04678e-03,-1.43493e-02,3.64923e-01,-5.76374e-01,1.01804e+00,7.69246e-02,4.26524e-03,-4.30028e-02,-3.49831e-01,-2.70782e-01,-1.93979e-01,-6.12504e-02,1.25832e-01,1.19808e-01,-1.58114e-01,3.47044e-02,-6.36703e-01,
-4.26022e-02,1.40245e-01,-2.55718e-02,2.60379e-01,-8.99365e-02,1.57032e-01,2.67392e-01,7.84431e-02,-3.30408e-01,7.84211e-02,7.70181e-02,1.59689e-01,-1.80173e-01,2.09849e-01,8.37677e-02,-2.88122e-01,-4.25331e-02,1.62936e-01,-7.86105e-02,-1.95605e-01,9.20257e-02,-1.20944e-01,-2.61767e-01,-1.31921e-01,1.51138e-01,-8.69667e-02,-1.80176e-01,1.71525e-01,-3.78468e-02,5.18543e-02,
1.74658e-02,-3.18264e-02,3.39342e-01,-2.40150e-02,3.23405e-01,-1.85849e-01,-6.27137e-03,1.67439e-01,2.03906e-01,-1.81332e-01,7.47343e-01,-1.41201e-02,-1.01341e-01,-1.44285e-01,-3.77864e-01,-7.70307e-02,-2.34994e-01,-2.89281e-01,-3.40202e-02,-5.82619e-02,-2.08668e-01,-1.92974e-02,1.22321e-02,-2.92764e-01,-2.94682e-01,-5.25985e-02,-1.20235e-01,-2.33067e-01,2.65866e-01,-2.06970e-01,
-9.09851e-02,-1.80418e-01,-1.26448e-01,1.18246e-02,-3.48248e-01,3.43646e-01,-2.37905e-01,1.51322e-01,-1.13902e+00,1.09656e-01,-1.48574e-01,7.53104e-01,-8.44437e-01,2.73111e-01,3.10625e-01,-9.20786e-02,9.58157e-01,4.96552e-01,2.05481e-01,-2.37384e-01,-2.30968e-01,1.81301e-01,-2.20234e-01,3.78972e-02,-3.26320e-02,2.78294e-01,-2.74209e-01,2.59273e-01,-9.03081e-02,-4.59914e-01,
-5.14442e-01,9.78623e-03,1.83644e-01,2.46857e-01,-1.24007e-01,-1.24147e-01,3.85031e-01,-1.66696e-01,5.15453e-02,3.76280e-01,-1.10828e+00,1.03759e+00,-5.95799e-02,-1.77783e-01,-4.34185e-01,5.24774e-01,7.02599e-01,1.30382e+00,2.52318e-01,-3.52199e-01,1.14112e-01,5.99758e-02,8.71399e-02,2.97226e-02,2.10638e-01,-7.43110e-01,-2.73452e-01,1.40269e-01,-6.01307e-01,-1.00853e-01,
-1.50089e-02,-4.37976e-02,-8.73782e-02,1.62893e-01,4.97574e-02,1.10857e-01,5.89480e-01,-1.56027e-01,-4.84563e-01,-9.75771e-02,-9.84131e-01,6.18887e-01,5.46845e-02,1.89727e-01,1.03069e-01,1.69908e-01,-1.93898e-01,-3.12099e-01,6.54908e-02,4.41131e-01,2.44398e-01,-2.23885e-01,5.60409e-01,1.40590e-01,1.98697e-01,1.12978e-01,-8.64340e-01,-1.19568e-01,6.54563e-01,2.77968e-01,
8.78628e-02,8.52289e-02,-1.50048e-01,1.21420e-01,-1.79802e-01,-1.63924e-01,1.39765e-01,-5.77286e-02,-6.62029e-02,-1.22194e-01,-1.49681e-01,-3.04640e-01,1.09734e-01,9.43685e-02,-6.35412e-02,2.73841e-01,-1.77232e-01,1.90089e-01,-4.88861e-02,-8.66340e-02,-1.68345e-02,1.13614e-01,1.52858e-01,5.49643e-02,-1.92262e-01,2.45815e-02,6.71995e-02,-2.96402e-01,-1.77556e-01,2.51702e-01,
-2.21890e-01,1.11708e-01,2.79079e-01,-2.69381e-03,-3.80158e-02,-2.06545e+00,-1.75212e-01,-1.83597e-01,-3.13542e-01,-3.01390e-01,9.27319e-01,8.01633e-03,-1.89635e-01,1.36119e-01,-3.74401e-02,1.94919e-02,-3.36476e-01,6.03972e-02,2.18161e-01,1.21555e+00,-2.08372e-02,1.08437e-01,-2.75697e-01,3.57037e-01,-2.49043e-02,9.68976e-02,-3.83548e-01,1.45094e-01,-1.03385e+00,-1.17018e-01,
1.41092e-01,-5.64207e-01,1.53836e-02,-5.10041e-02,-1.41721e-02,-3.67161e-01,1.21505e-01,2.44701e-01,-1.64177e-01,-2.04058e-01,-5.10436e-01,6.45068e-01,-3.39137e-01,-6.67985e-02,-6.87962e-01,2.83579e-01,-2.02375e-02,-9.39808e-02,2.41129e-01,-4.33610e-03,5.93723e-02,-3.35599e-01,3.29155e-01,5.60330e-02,-2.07067e-01,1.59598e-01,-3.81334e-01,2.42450e-01,1.51245e+00,-2.71685e-01,
1.24199e-01,2.79107e-01,-1.14905e+00,3.10905e-01,-7.69796e-01,9.70216e-02,-1.90425e+00,5.17879e-02,-2.58048e+00,-6.31799e-01,-1.57850e-01,5.67993e-02,-1.42966e-01,1.55412e-01,-2.55952e+00,-1.71907e-01,-3.63372e-01,-1.88673e-01,2.81012e-01,4.07322e-01,7.88538e-02,-1.86490e-01,2.13026e-01,2.80545e-01,-1.61308e-01,-7.92254e-01,-7.84549e-02,-1.14400e-01,-2.56037e-01,4.92459e-01,
-6.68936e-02,-2.50862e-01,2.25292e-01,4.49740e-02,3.78193e-02,-1.60721e-01,-2.83231e-01,1.59065e-01,1.93921e-01,-1.50055e-01,2.53285e-01,-3.02550e-01,-2.34743e-01,-2.43731e-01,1.52917e-01,6.49496e-02,1.23225e-01,1.98091e-01,-9.62382e-02,1.46903e-01,-2.01092e-02,-3.04522e-01,-2.80702e-01,-2.54641e-01,-4.34530e-03,2.90080e-02,5.28869e-02,-1.48491e-01,-4.44156e-03,2.91929e-02,
1.17732e-01,-1.41559e-01,2.90792e-01,-1.11847e-01,-1.53881e-01,4.51818e-02,-3.21544e-01,1.82487e-01,4.65587e-02,6.40734e-02,5.76590e-01,-6.11134e-02,-4.77329e-01,2.87908e-03,-3.10255e-02,1.72318e-01,-1.26867e-01,2.46966e-01,2.23003e-01,-3.56649e-01,-3.74339e-02,9.91778e-02,-1.30576e-01,4.24254e-01,1.98277e-01,-1.24910e-01,-1.98552e-01,-8.49650e-02,-1.10535e-01,1.43429e-01,
2.97137e-01,-4.19220e-01,4.16538e-02,5.54875e-02,-3.68998e-01,1.80315e-01,-1.22725e-01,1.07630e-01,-1.93553e-01,3.13188e-01,-1.52454e-01,3.04535e-01,-3.72975e-01,-1.50446e-01,-3.56446e-01,-2.30690e-01,2.91064e-01,1.54394e-01,1.60438e-01,2.20752e-01,-9.59399e-02,-3.35037e-01,-2.50232e-01,4.18231e-01,1.67877e-01,1.55375e-01,5.03740e-01,5.13894e-01,1.40613e+00,2.52078e-01,
2.13194e-01,-8.42166e-02,-4.12722e-02,1.11982e-01,-1.25578e-01,1.29334e-01,-2.80884e-01,1.93167e-01,-3.29435e-03,-2.06284e-01,-3.98242e-01,3.45073e-01,-7.27848e-02,-1.71385e-01,-5.02250e-01,3.42265e-01,3.54858e-02,3.63018e-01,8.10077e-02,3.25957e-01,6.31872e-02,-6.45525e-03,-1.67755e-01,-3.66002e-02,2.03350e-01,2.82946e-01,-1.08227e-01,3.00667e-01,9.73522e-01,-5.77822e-02,
-6.30225e-02,-5.86301e-01,1.69680e-01,-1.63680e-01,1.39778e-01,-1.08346e+00,2.07949e-02,-2.21139e-01,-8.24637e-01,-3.74777e-01,-4.53990e-02,1.19894e-01,6.33597e-01,1.19119e-01,3.20422e-01,-1.68780e+00,-1.69358e+00,-1.11483e+00,-1.40727e-01,-6.08029e-01,-7.19841e-01,-2.13709e+00,1.06622e-01,1.70642e-02,2.00664e-01,2.12759e-01,1.71737e-01,3.96074e-01,-2.45570e-01,5.27367e-01,
1.28983e-01,8.62838e-02,3.11310e-01,7.69230e-02,6.39482e-02,-8.09657e-01,-3.68821e-01,-2.30278e-01,5.32203e-04,-2.29024e-01,1.24484e-01,-1.77898e-01,4.37332e-01,-2.37432e-01,-1.34646e-01,1.93333e-01,-1.57534e-01,1.98386e-01,-1.22291e-01,5.98287e-01,-2.62204e-01,2.18603e-01,7.37375e-02,-2.16467e-01,2.37752e-01,-1.32385e-01,-4.46589e-01,-1.83073e-01,-1.23173e+00,-1.01739e-01,
7.26960e-02,1.76364e-01,-2.23557e-01,1.14587e-01,2.15536e-01,1.36885e-01,-1.25387e-01,-2.53478e-01,-2.96928e-02,2.06470e-01,3.07914e-01,3.08977e-02,-3.35179e-01,1.04332e-02,6.04720e-03,-6.82278e-02,2.36807e-03,3.87818e-01,2.65616e-03,-3.96740e-01,9.34507e-02,1.79380e-01,-2.60125e-04,-2.70582e-01,5.57137e-02,-4.10778e-01,3.46257e-01,6.81324e-01,-6.72720e-02,-4.72570e-02,
-2.89353e-01,-7.71757e-01,3.32624e-01,2.30223e-01,-4.49905e-01,-7.97537e-02,2.16423e-01,-2.04644e-01,3.42649e-01,4.96237e-01,1.15783e-01,2.41699e-01,-5.39725e-02,2.46660e-02,-2.87646e-01,2.91671e-01,-1.18865e-01,4.42440e-01,1.49054e-01,9.35106e-02,1.67377e-01,-2.47620e-01,-3.69739e-01,-1.15394e-01,2.42089e-01,2.28745e-01,3.49696e-01,-2.35179e-01,1.34858e+00,8.40776e-02,
3.50922e-02,3.14433e-01,-1.43898e-02,1.43271e-01,1.56625e-02,1.83104e-01,6.87385e-02,2.34862e-01,-2.24490e-01,2.73647e-01,-1.04791e-02,2.63660e-01,1.96495e-01,2.29224e-01,3.69845e-01,1.86370e-01,1.67267e-01,8.15129e-02,2.20821e-01,-7.20748e-02,3.05962e-01,4.01261e-02,-5.50982e-02,1.50775e-01,1.64467e-01,-3.59396e-02,4.47475e-01,4.72649e-02,5.12097e-02,2.34332e-01,
1.59499e-01,2.12853e-01,2.56711e-02,2.20954e-01,-2.97453e-01,-4.59494e-02,1.10330e-01,-1.24464e-01,1.21084e-02,2.73540e-01,2.23229e-01,1.04136e-01,-1.91555e-01,-1.89480e-01,-5.44262e-02,1.65261e-01,1.04079e-01,8.05257e-02,-4.47936e-02,-1.79475e-01,-1.91585e-01,-3.66170e-02,-4.76786e-02,-4.43348e-02,2.77727e-01,-7.00293e-02,2.90284e-02,-2.49768e-01,1.50742e-01,8.01411e-02,
3.39714e-01,-9.70381e-02,-7.77046e-03,1.20396e-01,-1.56606e-01,-1.86140e-01,2.37712e-01,2.45025e-01,3.90906e-01,-9.63278e-01,9.29483e-01,-1.09346e-01,4.55841e-01,2.34626e-01,-4.54351e-03,-2.72597e-01,1.59570e-01,-5.95194e-01,-8.43000e-03,1.77332e-01,2.27817e-01,-3.27744e-02,-4.44443e-01,1.00721e-01,9.24122e-02,-2.51831e-01,1.47316e-01,-2.32442e-01,-9.73245e-01,4.39762e-01,
-2.67263e-01,-1.84536e-03,-3.09065e-01,1.36520e-01,1.59019e-01,-2.76461e-02,-2.12564e-01,-2.88051e-01,1.72621e-01,-4.18004e-01,-3.09410e-01,-2.62148e-01,-2.11245e-01,7.47062e-02,-1.00215e-01,2.35319e-01,1.79336e-01,1.27658e-01,1.14994e-01,-6.97461e-02,2.99114e-02,-2.68078e-01,-1.10201e-01,9.89717e-02,-2.03483e-01,1.42901e-02,2.01034e-01,-2.06994e-01,2.20461e-01,-1.72913e-01,
3.37473e-01,6.24242e-01,-6.07239e-01,3.08860e-01,-2.03263e-01,-4.93221e-01,4.89500e-01,2.70715e-01,-2.19777e-02,-1.88360e-01,1.76868e-02,-1.59752e+00,3.34070e-01,-2.32524e-01,1.11772e-01,-4.40342e-01,-3.74650e-01,1.19914e-01,3.25367e-02,2.71633e-01,7.97047e-01,-2.75069e-01,-4.94900e-01,-1.28674e-01,-7.87523e-02,-6.22651e-01,1.11445e-01,1.85697e-01,-1.28360e+00,-2.22952e-01,
4.89982e-01,-6.11929e-01,2.10380e-03,6.36159e-02,6.68876e-02,2.07927e-01,-1.11735e+00,1.06159e-01,5.79805e-01,2.49656e-01,2.33615e-01,-4.18543e-02,4.12549e-01,1.53256e-01,9.05369e-02,-6.51884e-01,8.50666e-01,-1.80053e-01,1.40699e-01,1.96333e-01,2.97453e-02,4.14414e-02,-1.81613e-01,-3.08456e-01,4.44291e-02,-1.72428e-01,1.76146e+00,-1.43308e-01,6.50000e-01,-5.67129e-01,
8.70870e-02,-7.72222e-01,-1.20276e-02,-4.44112e-01,-4.66214e-02,-5.41215e-01,4.99181e-01,-2.12218e-01,5.13884e-02,1.14365e-01,-2.18793e-01,5.07554e-01,2.53861e-01,-2.36109e-02,-3.49055e-01,2.06002e-01,-1.88083e-03,3.66209e-01,2.88903e-01,2.89646e-03,3.13428e-01,-4.67024e-02,1.86182e-01,-2.51761e-02,1.70904e-01,-6.57000e-03,1.52810e-01,-1.81774e-01,1.37464e+00,2.79771e-02,
9.12127e-02,-2.32014e-01,1.94452e-01,1.58149e-01,-1.38848e-01,2.29182e-01,-1.21223e-01,-2.35000e-01,1.16723e-01,5.24283e-02,-3.29417e-01,-4.92157e-01,-3.38487e-02,1.66116e-01,-1.15472e-02,2.08336e-01,-4.29896e-01,2.30846e-01,-4.42494e-02,-3.07938e-01,2.91082e-01,2.45484e-01,-1.32559e-01,-1.13555e-01,2.35499e-01,1.63574e-02,-5.59086e-01,1.89518e-01,-1.78134e-01,2.64295e-01,
-5.33780e-03,
-1.37029e-01,
1.00976e-01,
-8.46201e-02,
-1.78354e-01,
-2.67003e-01,
3.30719e-01,
-3.05447e-01,
-3.50740e-01,
-8.90174e-02,
-2.17610e-01,
1.22607e-01,
2.66229e-01,
-6.60958e-02,
-1.93224e-01,
4.83368e-02,
-6.44104e-02,
7.28013e-02,
5.55185e-02,
2.72969e-01,
1.18528e-01,
1.33478e-01,
-3.64661e-01,
-3.54979e-01,
-1.58927e-01,
-2.11787e-01,
4.64583e-02,
1.54372e-01,
8.55534e-02,
1.01317e-02,
-1.14380e-01,-8.59317e-02,1.22850e-01,-3.05615e-01,3.82999e-01,-3.03418e-01,-2.20777e-01,-2.32901e-01,-3.83811e-01,3.38526e-02,-2.44854e-01,-3.59064e-01,1.40946e-01,2.10144e-01,2.32270e-01,1.05196e-01,2.34031e-01,1.62851e-01,6.64657e-01,-1.59713e-01,-2.57399e-02,2.16781e-01,9.58293e-02,2.02502e-01,-2.80021e-01,6.73868e-02,4.56040e-01,-3.63142e-01,1.06501e-01,1.63209e-02,
-3.05800e-02,8.29694e-03,-1.44905e-01,-3.21607e-01,1.69873e-01,-3.31914e-02,1.86980e-01,-3.76922e-01,7.59601e-02,3.89553e-03,-4.50112e-02,-8.07216e-02,-4.34914e-01,1.40373e-01,-1.65189e-01,2.15379e-01,4.12246e-02,-1.35183e-01,1.91914e-01,-6.56975e-02,-2.05358e-01,2.81673e-01,2.88411e-01,6.75153e-02,-1.50155e-01,-1.10528e-01,1.24624e-01,-6.69063e-02,3.91253e-04,1.90722e-02,
3.12182e-01,-2.13136e-01,-1.85175e-01,-3.10177e-02,3.38705e-01,-4.19942e-02,-2.81769e-01,-2.29308e-01,-7.07998e-01,3.91165e-02,1.40230e-01,-2.23722e-01,6.84790e-02,-7.23919e-01,2.40997e-01,1.01081e-01,5.50639e-02,1.07424e-02,-2.58489e+00,3.09463e-01,-1.36865e-01,2.30859e-01,-1.88681e-01,-2.35473e-01,3.70569e-01,2.31254e-01,2.90379e-01,-7.89634e-02,1.58749e-01,1.66875e-01,
2.48454e-01,1.27283e-01,-1.54324e-01,-1.25026e-01,8.71114e-01,-2.48745e-01,9.86805e-02,-5.26528e-01,-5.93276e-01,-2.61947e-01,1.55861e-01,1.13249e-01,7.57626e-02,9.72226e-02,-4.05368e-02,-3.40609e-02,4.25419e-01,1.55143e-01,3.12240e-01,-2.37471e-01,-1.95670e-01,1.69988e-01,8.21451e-02,2.61276e-01,-3.94397e-01,-2.40263e-01,1.64020e-01,-1.72734e-01,-1.30785e-01,3.44588e-02,
-4.04579e-03,-1.95672e-01,4.89649e-02,-2.10879e-01,-1.47038e-01,6.73640e-02,1.98870e-01,6.98460e-02,2.18837e-01,1.61841e-01,2.44453e-01,-4.48324e-03,-8.43653e-02,9.36586e-02,1.83462e-01,-1.08781e-01,4.27664e-03,3.69118e-02,-8.62517e-02,1.00778e-01,1.96087e-01,-2.91895e-02,9.68732e-04,-3.09941e-01,1.77366e-01,-3.04850e-01,-1.77437e-01,1.86222e-01,-7.91616e-02,2.09525e-01,
9.31333e-02,-4.37406e-02,-3.81632e-02,8.60176e-02,-1.72766e-01,-2.32113e-01,-3.39899e-02,5.38692e-02,1.29298e-01,-1.90253e-01,-3.85624e-02,-1.44248e-01,3.76977e-02,-1.04576e-01,-2.71354e-01,3.15351e-01,-7.94123e-02,-2.90834e-01,7.08903e-02,1.90692e-01,-1.05626e-01,1.21125e-01,1.52693e-01,-2.72848e-01,2.52342e-01,2.38844e-01,1.18561e-01,5.81907e-02,-1.80394e-01,-1.85808e-01,
3.74251e-01,-7.76431e-02,-2.13373e-01,-2.19034e-01,-7.53565e-01,1.38240e-01,1.57731e-02,4.51583e-01,4.71267e-01,1.05941e-01,2.51692e-01,4.96590e-01,-3.20130e-01,-4.37185e-01,2.93035e-01,2.05496e-01,-4.12338e-01,-1.20671e-01,-1.03339e+00,3.38597e-01,1.39561e-01,-1.66057e-01,-2.93095e-01,-5.27918e-04,7.75192e-01,-2.96534e-01,-9.70354e-01,7.43571e-01,-2.61193e-01,8.03465e-02,
-3.66550e-02,-1.17823e-01,-4.51779e-03,3.01492e-01,-1.07372e-01,-7.84894e-02,-3.14331e-02,5.51907e-02,-2.70457e-02,-1.44239e-01,-2.84745e-01,1.41364e-01,4.14965e-03,-2.72513e-01,-1.09925e-01,-2.35921e-01,-8.47355e-02,-1.12335e-02,-3.07007e-01,3.98506e-02,-1.50427e-01,-1.74839e-01,2.35418e-02,-2.14619e-01,-2.98545e-01,3.14357e-02,1.32239e-01,-1.78542e-01,-2.60587e-01,-1.96465e-01,
-7.43446e-02,5.96311e-02,3.83035e-02,-1.82461e-01,4.74967e-01,-2.22238e-01,-1.83792e-01,-6.75267e-01,-2.12883e-01,-5.53210e-02,9.82886e-02,-3.10967e-01,-7.63681e-02,5.41165e-02,-1.39991e-01,2.59919e-02,2.95112e-01,2.55031e-01,3.59540e-01,-4.73460e-01,-9.73493e-02,1.84784e-01,1.02371e-01,-2.25682e-01,-5.23312e-01,3.62791e-02,3.44636e-01,-4.47482e-01,-1.27841e-01,3.08212e-01,
8.68763e-02,2.23093e-01,1.70914e-01,1.41128e-01,3.21452e-02,1.05097e-01,3.78260e-01,-2.46044e-02,1.11672e-01,8.89689e-02,-2.46187e-02,6.40462e-02,-3.26083e-02,2.90069e-02,3.33015e-03,-4.78967e-01,7.72704e-02,2.99330e-02,-5.88353e-03,-1.10436e-01,2.36596e-01,-6.03297e-02,-1.04736e-01,-1.87249e-01,1.11145e-01,-8.82081e-02,-6.88915e-02,-1.65565e-02,4.63628e-02,3.04948e-01,
-4.92563e-02,-2.11112e-01,-3.01410e-01,-1.99136e-01,-1.96275e-01,-1.69288e-01,-1.00221e+00,5.47109e-02,3.15935e-01,-3.42520e-01,-2.42002e-01,2.11956e-01,-6.12096e-01,2.55782e-01,-5.01531e-02,-2.97580e-02,2.32803e-02,-8.91455e-01,-3.22375e-01,-9.86537e-02,4.28337e-02,4.40569e-02,-9.25706e-02,-6.38963e-02,-3.40682e-01,2.74626e-01,-1.65700e+00,4.62879e-01,1.25533e-01,3.45866e-03,
-3.45330e-01,2.15138e-01,-2.34613e-02,7.30991e-02,2.01659e-01,-4.07535e-02,-2.15261e-02,-2.14121e-02,-5.11634e-01,1.71617e-01,1.16053e-01,-5.52649e-01,4.91415e-01,7.39635e-01,2.00761e-01,5.29241e-02,3.36626e-02,-1.68965e-01,3.47197e-01,-3.28362e-01,-2.92691e-01,1.74826e-01,-6.04913e-01,1.76854e-01,-6.11164e-01,-1.13075e-01,8.62908e-01,-4.05932e-01,4.23196e-01,-6.64908e-01,
-3.19815e-01,4.76541e-02,-1.60965e-01,2.24062e-01,-1.75041e-01,-2.75827e-01,-7.91544e-02,2.94452e-02,1.36723e-01,1.21468e-01,-2.09937e-01,-7.11457e-03,-2.46758e-01,-2.34069e-01,2.18525e-01,1.92261e-01,-1.23265e-01,1.63870e-01,-7.81326e-03,2.80005e-01,-7.88416e-02,-1.35509e-01,-1.84299e-01,-1.05262e-01,4.05013e-01,2.59877e-01,-3.25319e-01,-5.86375e-02,7.82587e-02,-1.02294e-01,
-2.02967e-01,-8.12188e-02,5.70301e-01,-2.16394e-01,3.13101e-01,-3.06934e-01,-2.00614e-01,-1.50577e-01,-8.45126e-01,-4.61218e-02,-7.02926e-02,-1.39906e-01,1.12886e-01,-1.71079e-01,1.03472e-02,1.25774e-02,-4.53182e-01,-5.86585e-01,-1.17372e-01,-1.12600e-01,-1.49375e-01,2.60650e-02,-5.80212e-01,1.69631e-01,8.23637e-01,-1.37846e-01,5.39044e-01,-1.15516e-01,-2.56947e-01,-2.07633e-01,
6.39638e-02,-4.80949e-02,-1.13789e-01,-2.47787e-01,2.83034e-01,2.65550e-01,-9.76861e-02,-2.46729e-01,-1.00098e-01,-1.49107e-01,2.66684e-01,9.14616e-03,-1.09315e-01,2.66462e-01,-3.71513e-02,-1.03365e-01,2.30972e-01,2.50991e-01,3.45756e-01,1.84105e-02,1.63581e-01,1.33576e-01,-2.78838e-01,-3.08009e-02,-2.93149e-01,1.30344e-01,1.91448e-01,-8.39260e-02,1.78197e-01,-1.27839e-01,
1.18694e-01,-1.95852e-01,1.71456e-01,7.63859e-02,3.27162e-01,4.91745e-02,1.87253e-01,-1.02008e-01,-3.40678e-01,1.00839e-01,1.83696e-01,-8.16747e-02,1.46316e-01,1.83475e-02,-1.65478e-01,-1.07562e-01,2.46811e-01,1.44599e-01,4.77964e-01,-2.47428e-01,2.18365e-01,1.93538e-01,-1.25423e-01,1.48493e-01,-4.06452e-01,1.92450e-01,4.00717e-01,-3.29897e-01,1.51455e-01,-9.37952e-04,
2.97532e-01,-2.37603e-01,-1.76199e-01,-2.71814e-01,-5.70700e-01,-1.62306e-01,3.84088e-01,3.28553e-01,4.54134e-01,-3.52017e-02,-3.52312e-02,5.93858e-01,-2.39793e-01,-3.95982e-01,-2.25814e-01,-2.78433e-01,-3.18992e-01,-2.63917e-01,-1.11223e+00,1.92293e-01,6.83601e-02,-2.97239e-01,-2.40333e-01,2.82360e-01,5.06278e-01,2.32862e-01,-7.20097e-01,6.07664e-01,-1.94098e-01,3.50891e-02,
5.69047e-02,-2.56077e-01,1.15728e-01,-2.68632e-01,4.32451e-01,-1.09117e-01,1.65267e-01,-1.56498e-01,-6.26181e-01,8.45304e-02,-9.89827e-02,-2.69425e-01,3.16294e-01,-9.00587e-02,1.83478e-01,1.77939e-01,2.40427e-01,1.00134e-01,6.62189e-01,-3.23104e-01,1.61067e-01,3.20111e-01,-1.63723e-02,-2.90327e-01,-6.67346e-01,1.78638e-01,6.81206e-01,-5.73942e-01,1.51357e-01,-2.11990e-01,
1.37567e-01,-1.60670e-01,-3.42594e-01,-1.29198e-01,-5.56889e-01,1.18745e-01,-2.35754e-01,2.84858e-01,2.56053e-01,-5.16261e-02,2.11637e-01,2.33007e-01,-2.12758e-01,-3.87079e-02,3.05876e-02,2.32072e-01,-3.29367e-01,-1.18297e-01,-8.18408e-01,3.66205e-01,1.92683e-02,-1.14347e-01,-2.24959e-01,-1.28427e-02,6.69122e-01,2.62063e-01,-8.00178e-01,5.49595e-01,-1.28091e-01,-1.78794e-02,
2.32146e-02,2.44637e-01,2.92761e-01,1.03788e-01,-2.31015e-02,-3.10619e-01,1.80071e-01,-4.22790e-02,-5.99611e-02,1.80487e-01,1.70028e-02,1.10537e-01,-1.59957e-01,2.18663e-01,-1.35252e-01,-3.87600e-02,4.80126e-03,-4.22686e-02,-2.44561e-02,5.47783e-03,1.68322e-01,-1.10930e-02,-1.42623e-01,2.48499e-01,-4.06407e-02,-1.24872e-02,-1.50703e-01,2.42329e-02,1.93129e-02,1.03739e-02,
-3.75933e-01,-2.94452e-01,1.73234e-02,-1.71143e-01,-1.73744e-02,-2.38259e-01,3.13057e-01,-3.38866e-01,9.10620e-02,-1.31724e-01,2.79126e-01,-3.00828e-01,2.97324e-02,1.26380e-01,1.52778e-01,-1.45809e-03,-1.02670e-01,-2.71330e-01,3.53941e-01,2.61595e-01,2.28531e-01,-7.84045e-02,5.62689e-01,3.03847e-01,1.06861e-01,2.25776e-01,2.37164e-01,-8.92032e-02,1.30280e-01,1.53319e-01,
-1.19162e-01,1.11087e-02,-1.31971e-01,-2.77167e-01,1.00117e-01,2.69111e-01,-1.41041e-01,1.77822e-01,1.23478e-01,-1.25583e-01,8.72231e-02,6.83310e-02,-1.39508e-03,-1.60175e-01,2.13116e-01,6.29844e-02,1.71192e-01,-3.90199e-02,-3.21060e-01,-2.90846e-02,-1.63758e-01,-1.05361e-01,-1.32837e-01,-2.59360e-01,-2.08629e-01,-2.70079e-01,7.79757e-02,1.91962e-02,-2.42857e-01,-1.63465e-01,
2.57969e-01,3.05740e-01,1.87024e-01,-2.90317e-01,-2.33099e-01,-1.37813e-01,1.36145e-01,-2.91910e+00,8.07858e-01,4.13454e-01,-1.21355e-01,1.00671e-03,-1.58394e-01,2.77207e-01,1.50346e-01,-4.96610e-01,-1.76365e-01,2.31622e-01,1.07939e-01,-1.59239e-01,-5.98004e-01,-8.05431e-01,1.57632e-01,1.19438e-01,-1.77552e+00,7.89932e-02,-6.99694e-02,1.70940e-01,-6.71777e-01,-1.46182e-01,
3.04403e-01,1.21026e-01,5.64969e-02,1.73528e-01,-2.39472e-01,7.05941e-02,7.62922e-02,2.00674e-01,6.93611e-02,2.29603e-01,1.83771e-01,1.86010e-01,-9.59607e-03,-5.89359e-01,-2.36171e-01,3.69031e-01,-2.98737e-02,9.43763e-02,-1.62506e-02,2.41649e-02,1.81981e-01,1.70157e-01,-4.62332e-02,1.20268e-02,-1.36581e-01,-2.15614e-01,5.53024e-02,1.35411e-01,-9.70435e-02,-6.52978e-02,
-8.43778e-02,-1.59787e-01,-2.68174e-01,9.44120e-02,1.04644e-01,2.08177e-01,8.85614e-02,1.21372e-01,-1.08579e-01,-6.54357e-02,2.58672e-01,2.19791e-04,1.57668e-01,1.74502e-01,-1.39041e-01,8.48533e-02,1.01100e-01,-5.72548e-02,4.79062e-02,1.00490e-01,5.01788e-02,6.58333e-02,9.32192e-02,2.24869e-01,-2.86433e-01,-2.62887e-01,1.34025e-01,3.85736e-02,-1.35384e-03,-2.24774e-01,
1.09663e-01,-3.29316e-03,-1.66665e-02,2.80606e-01,4.48747e-02,-2.54076e-01,1.08092e-01,6.86655e-02,-9.04239e-02,9.07427e-02,-2.79839e-01,-3.45949e-02,5.56248e-02,1.21460e-02,-1.14835e-02,4.26704e-02,5.73518e-02,1.33835e-01,-1.89242e-02,-5.51700e-02,9.73160e-02,1.52801e-02,-2.06398e-01,-2.60851e-01,1.01048e-02,-2.97480e-01,1.63833e-02,-8.07282e-02,2.10589e-02,3.56438e-06,
2.47385e-02,-1.31592e-01,-1.51589e-02,-8.58795e-02,4.96220e-02,2.68333e-01,-1.58990e-02,-9.73791e-02,-1.27038e-01,8.38236e-03,2.75043e-01,-5.17241e-02,-4.05284e-02,1.13585e-01,1.39780e-01,2.28718e-01,2.36520e-02,8.63187e-02,1.42927e-01,3.92883e-02,1.17749e-01,9.32168e-02,-1.30641e-01,2.23621e-01,-1.83936e-01,7.77568e-02,9.80453e-02,-7.56847e-02,5.73269e-02,-1.90122e-01,
2.59513e-01,9.62319e-02,-3.23436e-01,1.14903e-01,-7.59651e-02,-2.67660e-01,-3.41072e-01,-4.62216e-01,4.33482e-02,2.29428e-01,-6.34065e-02,-2.62783e-01,2.18572e-01,2.59179e-01,-2.77054e-01,-1.34700e-01,-4.90739e-03,1.41180e-01,-8.45601e-02,1.17450e-02,1.23004e-01,1.74634e-03,-1.43905e-01,2.78247e-01,2.45035e-01,4.86284e-02,-2.14589e-01,-1.93483e-01,5.03769e-03,-2.77977e-01,
1.28347e-01,-7.31269e-02,-1.86315e-01,-1.59281e-01,-1.10045e-01,-8.18278e-02,-1.90811e-01,5.25925e-02,1.53554e-01,-2.37910e-02,-2.95806e-01,-3.04675e-01,-1.42409e-01,-1.78173e-01,3.02384e-01,1.34612e-01,-2.66563e-03,1.23065e-01,1.42814e-01,-9.42070e-02,-2.10495e-02,-3.02994e-01,-2.19396e-01,7.39060e-02,1.81656e-01,-2.56819e-01,-3.14908e-01,1.42122e-01,-2.90626e-01,-1.93580e-01,
-3.23165e-01,-2.89953e-02,3.83403e-01,1.84890e-01,-4.53975e-01,2.78693e-01,6.10536e-02,9.36584e-01,-2.12124e+00,-1.58972e+00,-2.53054e-02,-1.43384e-01,-2.73731e-01,-7.27694e-01,4.42503e-02,3.70573e-01,5.64929e-02,-5.42281e-02,-1.96454e-01,2.74811e-01,-5.41615e-01,3.89774e-01,-1.19045e+00,1.42465e-01,-3.71888e-02,-1.52149e-02,8.01286e-01,8.01130e-02,-1.52035e-01,9.34640e-02,
-1.59103e-01,
-6.21691e-03,
-1.35759e-01,
2.47216e-03,
-3.79853e-02,
-2.16935e-01,
1.48110e-02,
-1.83923e-01,
1.41807e-01,
-9.09843e-02,
1.21370e-01,
1.73446e-01,
1.04836e-01,
1.06885e-01,
-1.20368e-02,
8.32876e-02,
2.04975e-01,
-2.39424e-01,
1.84168e-01,
-9.53741e-02,
8.73443e-02,
-6.87457e-02,
-1.47036e-01,
-1.18612e-01,
4.01644e-02,
-6.33295e-02,
-1.81986e-02,
-2.49516e-01,
-1.61234e-01,
-1.11202e-01,
3.70428e-01,-2.32919e-02,-4.16707e-03,-3.62156e-02,1.65429e-01,2.70146e-01,-7.53601e-02,2.02656e-01,-1.38283e-01,-2.57537e-02,1.56011e-01,-1.32964e-01,1.60717e-01,-1.59663e-01,-2.95986e-02,-1.53976e-01,1.40675e-01,2.69502e-02,5.37521e-02,3.65669e-01,4.85481e-02,1.70134e-01,-6.53489e-02,3.75361e-02,6.94943e-03,-2.80319e-01,-1.15743e-01,1.90628e-01,-2.29534e-01,3.49379e-01,
-1.07794e-01,-3.79855e-01,-2.01437e-01,1.46267e-01,-3.27901e-01,-8.44311e-02,-3.70511e-01,-3.14599e-01,-3.72926e-01,2.76387e-02,-2.94220e-01,-2.40444e-01,-3.24830e-01,-8.76706e-02,-2.22896e-01,-3.72850e-01,9.18051e-03,2.07135e-01,-1.31448e-01,-2.29184e-01,-2.60706e-01,2.84856e-01,1.96196e-01,-8.37768e-02,-2.33262e-01,-1.34092e-02,-3.12959e-02,-2.78947e-01,2.82028e-01,-1.12945e-01,
-4.89722e-03,-8.07164e-02,-2.69004e-02,-3.73938e-02,-8.03260e-02,1.36177e-01,2.68512e-01,3.00784e-01,6.42021e-02,2.21133e-01,-7.07558e-02,-2.71184e-02,3.81477e-01,1.87881e-01,1.99513e-01,4.08091e-02,-1.64219e-01,-1.12064e-01,-2.90537e-02,-6.60881e-02,-1.70747e-01,7.08853e-02,-8.31401e-02,-1.30972e-02,1.52936e-01,-1.17199e-01,-3.56621e-02,2.23948e-01,3.18268e-02,-7.20074e-02,
4.01500e-02,-3.35168e-01,-4.56019e-01,-8.59754e-02,-1.13156e-01,-1.62075e-01,2.20242e-02,2.23849e-01,-1.68757e-01,-1.79131e-01,2.87026e-01,-3.62892e-01,-2.94953e-02,1.64396e-01,1.88527e-01,-3.43896e-02,1.37993e-01,1.27757e-01,5.09317e-02,1.84789e-01,-3.30510e-01,-9.21383e-02,-1.68783e-01,-5.19672e-01,-2.77992e-01,2.06141e-01,3.36494e-02,1.38441e-01,-1.86460e-01,4.75922e-02,
2.31829e-01,-7.66049e-02,7.78044e-03,-5.61687e-02,-7.49196e-02,-2.08010e-01,1.42226e-01,-2.44803e-01,-1.49507e-01,3.61760e-01,-4.27548e-02,1.93530e-02,1.73761e-03,3.46476e-02,-3.51418e-02,5.86675e-02,-7.23748e-02,-2.32440e-01,5.84539e-02,3.41480e-02,-7.72374e-02,2.45755e-01,4.88599e-02,-2.35281e-01,-9.69921e-02,-1.01110e-01,1.10921e-01,-5.57181e-02,2.75108e-01,-1.76011e-02,
-2.48063e-01,-3.17172e-01,5.53761e-01,-5.56832e-02,-6.52299e-02,1.40900e-01,-1.35900e-01,-3.42629e-02,1.66334e-01,8.43099e-02,-9.46410e-03,1.36319e-01,1.17938e-01,-4.62011e-01,2.13473e-01,2.77738e-02,3.26592e-01,1.01843e-01,-1.00916e-01,8.14554e-02,1.65502e-02,-2.46962e-01,1.80531e-01,-4.99059e-02,-1.19882e-01,2.62881e-01,-3.07332e-02,-1.50914e-01,2.40915e-01,-8.66233e-02,
-1.38028e-01,-2.51227e-01,2.00999e-01,2.55395e-01,1.55990e-01,2.47076e-03,-2.03024e-01,2.65031e-01,-1.73991e-02,1.55215e-01,-8.60315e-02,-2.15319e-02,2.38424e-01,3.51520e-02,-1.55709e-01,-1.66158e-01,-6.90135e-02,-1.89898e-01,-2.49923e-01,1.39574e-02,-1.91295e-01,2.46289e-01,-1.28983e-01,2.08663e-01,-1.72908e-01,-4.21961e-02,-1.47204e-01,2.51315e-01,1.90611e-01,1.77666e-01,
7.05626e-02,-1.88950e-01,-6.32389e-02,2.77268e-01,-7.87847e-02,-2.27486e-01,-6.77547e-02,-2.94816e-01,6.22981e-02,2.61743e-02,3.56554e-01,4.35909e-02,1.78142e-01,2.55127e-01,8.13409e-02,-1.25007e-01,8.32803e-02,1.30675e-02,2.51847e-01,2.79231e-01,-1.50705e-01,2.27349e-01,2.04493e-01,-5.81657e-02,2.00520e-01,-9.82111e-02,1.18578e-02,1.42165e-01,1.17638e-02,-1.04680e-01,
-9.37209e-02,-1.72047e-01,-1.74020e-01,3.04829e-02,-2.53486e-01,-1.56277e-01,9.21019e-02,-1.54277e-01,-8.50457e-04,3.95036e-01,-2.45478e-01,-5.71577e-02,-2.36159e-01,7.61183e-02,-6.74953e-02,-4.77419e-02,1.12542e-01,-7.75972e-02,-3.82672e-01,2.10035e-01,-3.27653e-01,-4.98013e-02,3.92650e-02,-1.92511e-01,-1.90863e-01,1.25928e-02,3.06972e-01,-2.36532e-01,7.24211e-02,-6.52348e-02,
-7.21132e-02,2.55738e-02,1.67183e-01,2.85381e-01,-4.66653e-02,1.92530e-02,-1.30739e-01,8.87138e-02,1.20564e-01,-1.39584e-01,-3.32648e-01,1.06778e-01,-1.21754e-01,-9.46278e-02,-9.24413e-02,1.69367e-01,-2.50907e-02,6.47862e-02,-1.98245e-01,2.61833e-01,7.18708e-02,1.94537e-01,5.63111e-01,-8.89830e-02,-4.99572e-02,-1.44078e-02,1.20785e-01,7.10689e-03,2.98076e-01,-2.61132e-01,
-3.13891e-01,-1.94097e-01,2.06919e-01,-2.51967e-01,-2.24486e-01,1.26498e-01,-1.39538e-01,3.11989e-01,-2.48178e-02,1.29621e-01,2.82300e-01,1.58750e-01,-3.94933e-02,-2.89723e-01,-3.42884e-01,-3.05651e-01,-1.96063e-01,7.94737e-02,1.10105e-01,2.46893e-01,-2.82370e-01,-2.37870e-01,2.09104e-01,-4.04667e-02,2.32060e-01,5.17860e-03,1.04552e-01,-5.18718e-02,-2.76022e-02,2.08970e-01,
-1.86092e-01,7.67060e-03,-2.68725e-01,2.78567e-02,5.04687e-02,1.01864e-04,1.39735e-01,6.48939e-02,-1.99504e-02,1.76974e-01,6.02375e-02,9.53358e-02,7.50016e-02,-2.23374e-01,-3.14986e-02,-2.88227e-01,1.57910e-02,-3.07902e-01,1.47655e-01,2.41077e-01,-1.77514e-01,2.96080e-01,-2.13641e-01,-2.01588e-01,1.71100e-01,-1.68392e-02,8.40829e-02,2.70847e-01,-3.03751e-01,4.87348e-02,
-4.26597e-02,-6.85019e-03,-7.76376e-02,-2.13103e-02,1.07493e-01,-1.94205e-01,-6.94666e-02,2.90078e-01,6.83387e-02,9.80470e-02,-1.32419e-01,5.65666e-02,3.47660e-01,-1.77118e-01,2.38337e-01,-7.04978e-02,5.25032e-02,-1.62568e-02,-1.05848e-01,5.47454e-02,-1.07139e-01,-2.48276e-01,-6.34629e-02,1.30617e-01,-7.57107e-02,-2.93270e-01,1.33333e-01,6.55361e-02,2.94253e-02,-2.80089e-01,
-1.26882e+00,-1.03968e-01,-3.36502e-01,-2.50461e-01,-1.21655e-01,-1.93108e-01,2.91933e-02,1.24651e-01,-2.89885e-01,-1.02862e-01,1.11913e-01,-4.09991e-01,1.06891e-01,2.57785e-01,-1.76914e-01,-2.01487e-01,4.94990e-01,2.65587e-01,3.37762e-01,-1.94182e-01,-1.62357e-01,-2.28787e-01,-8.71843e-01,-5.55021e-02,1.08776e-01,1.88172e-01,-2.70792e-02,2.82796e-02,1.14875e-01,-3.58635e-01,
-3.03522e-01,-1.13751e-01,-7.71802e-02,-2.56339e-01,8.33387e-02,-3.07912e-02,-1.70294e-01,4.77871e-02,2.55345e-01,-1.36456e-01,1.58423e-01,2.79743e-01,-1.76964e-01,-2.88409e-01,8.72888e-02,-1.96046e-01,-5.45588e-02,2.99514e-01,1.64080e-01,1.26801e-01,9.33502e-02,-2.56040e-01,1.63273e-02,1.04532e-02,-1.53334e-01,1.85544e-01,1.87879e-01,-1.88768e-01,-2.83145e-02,-9.00901e-02,
-9.36411e-02,2.00612e-01,4.08312e-01,2.66094e-01,2.18461e-01,-2.62558e-01,3.28658e-01,1.66138e-01,-6.25409e-02,-1.15835e-02,-3.42588e-01,1.57670e-01,6.74121e-01,-8.11369e-01,8.73531e-02,8.15893e-02,1.77847e-02,1.36250e-01,-3.51812e-01,1.96322e-02,2.22744e-01,-1.09272e-01,-3.91457e-02,-3.85186e-02,1.77145e-01,4.93342e-01,-3.41442e-01,-2.12750e-01,2.37048e-01,4.27758e-01,
-2.79020e-01,9.79719e-02,-3.23725e-01,-3.39963e-01,-1.50425e-01,7.25040e-02,-1.13614e-01,2.10610e-02,-3.82479e-01,1.45283e-01,-3.66562e-02,-3.56770e-01,1.23960e-01,-6.89912e-02,-3.28512e-01,1.52849e-01,-1.59808e-01,8.77235e-02,2.49619e-01,5.98462e-02,-3.32936e-01,2.33026e-01,-9.56277e-02,1.54440e-02,-2.61773e-01,1.16292e-01,2.24985e-01,1.74602e-01,2.34218e-01,-2.11111e-01,
-4.44018e-01,1.58200e-01,1.40610e-01,-2.01727e-02,-1.40096e-01,-1.75304e-01,4.06753e-02,-1.22647e-01,3.35594e-01,-9.74447e-02,-3.84126e-01,1.04872e-01,1.57390e-01,-1.51115e-02,1.06561e-01,2.04182e-01,-2.82846e-01,5.88597e-02,-1.98384e-01,-4.67107e-01,5.90626e-02,3.61715e-02,6.83363e-02,2.85016e-01,1.53386e-01,1.12168e-01,1.80646e-01,1.17359e-01,-2.21839e-01,-3.84183e-01,
-2.26737e-01,1.70484e-02,-2.29943e-01,-2.95320e-02,-1.31418e-01,-1.08265e-01,-2.10588e-01,1.70996e-01,1.25560e-01,2.77349e-01,2.39095e-01,-3.08296e-01,-1.05867e-01,-4.71216e-03,-2.86458e-01,-9.07475e-02,-6.42185e-02,2.83289e-01,7.26678e-02,1.54110e-02,-2.18640e-01,-4.43741e-02,-1.28382e-02,-9.12423e-02,2.80484e-01,-2.79752e-01,-2.28542e-01,-2.34909e-01,1.67937e-01,-2.91541e-01,
-2.85217e-01,-3.41175e-02,1.02025e-01,-2.08100e-01,2.64298e-01,2.95210e-01,6.23521e-02,2.34304e-02,-4.53509e-03,-2.07532e-01,2.11986e-01,-4.60676e-02,-3.15435e-02,-1.10341e-01,2.68442e-02,1.79388e-01,2.62054e-01,3.09543e-02,5.34820e-02,-2.56439e-01,-8.84209e-03,-1.27975e-02,-2.98897e-01,-2.62149e-02,-1.18050e-01,1.58779e-01,-1.28420e-01,-2.47563e-01,-3.75673e-02,2.23383e-01,
2.72915e-01,-6.24714e-02,-2.41725e-01,-1.38346e-01,-2.77935e-01,-2.02836e-01,-6.85145e-02,1.69216e-01,-4.60843e-02,-4.68028e-02,1.49809e-01,-7.04571e-03,2.95467e-02,-2.70760e-01,-1.41531e-01,-1.69392e-01,-2.97183e-01,-2.28352e-01,3.15284e-02,-2.83347e-01,-3.37915e-02,-1.50283e-01,2.24472e-01,-1.12431e-01,8.92839e-02,-1.71493e-02,1.31707e-01,-2.64159e-01,9.98742e-02,-2.63041e-03,
-2.70207e-01,2.59245e-01,1.84546e-01,2.72868e-01,-1.33954e-01,-1.30773e-01,4.84073e-01,-8.47030e-02,3.00920e-01,2.18263e-01,-1.03991e+00,4.33808e-01,-6.50741e-03,-3.79264e-01,2.51483e-01,2.56066e-01,-7.70632e-01,2.35189e-02,-7.84747e-01,-1.19685e-01,3.34103e-01,-1.62702e-01,1.27777e+00,-1.03099e-01,3.99961e-02,1.33833e-01,2.79484e-02,-4.24401e-02,-1.66923e-01,-1.22019e+00,
3.75111e-02,1.13458e-01,-3.87663e-02,9.93029e-02,-2.91133e-02,-2.98142e-01,3.91296e-01,-8.68310e-03,-1.01285e-01,-1.65089e-02,-3.47300e-01,1.08083e-01,1.46875e-01,-1.41161e-01,9.53731e-02,1.25711e-01,-3.41476e-01,-3.63229e-02,-2.89999e-01,-6.26520e-02,1.41750e-01,-1.49154e-01,1.30933e-01,-1.71069e-01,1.20160e-02,1.73866e-01,-1.96534e-01,1.12405e-01,-9.14084e-02,-3.08756e-01,
2.24354e-01,2.37796e-01,4.23856e-02,1.35376e-01,1.69708e-01,3.09008e-01,7.02816e-01,1.88099e-01,-1.95789e-01,2.15005e-02,-1.24744e-01,-4.60885e-03,2.22965e-02,-1.09351e-01,-1.94842e-02,-2.02720e-02,-3.13143e-01,-1.65084e-01,-1.70196e-01,9.23824e-02,-2.08338e-02,-1.48784e-01,3.07185e-02,-2.15811e-01,-7.80311e-03,2.00861e-01,1.06500e-01,-8.24992e-02,4.80397e-01,-1.71849e-01,
-7.38069e-01,1.31999e-01,-4.38196e-01,1.16275e-01,-3.40416e-01,2.79033e-01,-2.15200e-01,1.10307e-02,-6.32226e-02,-1.16925e-01,-2.53137e-01,-2.36515e-02,8.43386e-03,-1.25659e-01,-1.37339e-01,1.02181e-01,1.46943e-03,-4.19360e-01,3.80462e-01,3.64176e-01,1.19492e-01,-2.68729e-01,2.93594e-02,-9.35698e-02,-3.48799e-01,7.55652e-01,1.07978e-01,2.58412e-01,9.42872e-02,-1.27886e-01,
-2.58523e-02,-9.25739e-03,-1.26178e-01,8.90060e-02,1.32302e-02,1.78988e-01,-2.93373e-01,-2.78581e-01,-1.50936e-01,-2.85478e-01,-2.72890e-01,-6.17896e-03,-3.35763e-01,-1.93100e-01,-3.81010e-01,-2.32762e-02,1.24211e-02,1.76529e-01,-2.06972e-01,-7.43884e-02,4.73523e-02,1.51435e-02,-4.51028e-02,3.22803e-02,-2.32972e-01,-8.65726e-02,-2.33256e-01,1.04731e-01,1.42385e-01,1.68297e-01,
1.77194e-02,1.23172e-01,3.06205e-01,1.15815e-01,3.80417e-01,-1.81178e-01,-8.64840e-02,1.80021e-01,1.56428e-01,-2.10679e-01,-4.88258e-02,6.68576e-02,-3.10039e-02,6.84439e-02,9.75719e-02,7.24796e-02,3.06418e-02,1.41590e-02,1.63157e-01,2.41367e-01,6.38456e-02,-1.04871e-01,5.43892e-01,5.13197e-02,-3.23301e-03,-2.11767e-01,-9.99250e-02,-1.10908e-01,2.17215e-01,-1.32074e-01,
-1.01304e-02,-5.80133e-03,3.27875e-03,9.28819e-02,6.85045e-02,2.50079e-01,-1.66256e-02,2.72046e-02,-7.39896e-02,6.27785e-03,-2.28280e-01,2.01736e-01,-1.19694e-01,-1.14907e-01,8.11655e-02,1.47983e-01,-6.67881e-02,-2.04487e-02,-1.29133e-01,5.73554e-02,1.55948e-01,-9.35482e-02,4.03728e-01,-2.42991e-01,-1.80127e-01,3.93039e-02,-2.12197e-01,-1.49867e-01,-2.30997e-01,-3.71905e-01,
-1.52148e-01,1.67366e-01,1.76494e-01,-4.83048e-02,7.10841e-02,9.86674e-02,4.98388e-01,-1.44792e-01,2.26169e-01,1.80992e-01,-2.49902e-01,1.17946e-01,8.80433e-02,-3.41467e-01,1.20275e-01,1.39047e-01,-2.92143e-01,-8.23659e-02,-3.51259e-01,-9.52899e-02,1.63224e-01,-2.79429e-01,5.86688e-01,1.34628e-01,1.34251e-01,3.75202e-02,6.65690e-02,-2.65040e-01,1.90698e-01,-4.34363e-01,
-1.38700e-01,-2.53030e-01,-2.95946e-01,-3.68314e-01,6.27212e-02,-1.28061e-01,9.54752e-02,2.33477e-01,-4.10668e-01,-3.13730e-01,9.08096e-01,-5.67114e-01,7.57720e-02,3.42436e-01,-2.97435e-01,-2.47514e-01,7.52723e-01,-1.23254e+00,4.27502e-01,-8.74392e-02,-3.55083e-01,2.78436e-01,-1.50408e+00,-2.55950e-01,1.55321e-01,-1.49084e-01,-1.50526e-02,4.36995e-02,-1.24888e-01,7.96326e-01,
1.61610e-01,
1.32111e-01,
2.91650e-02,
-5.18093e-02,
1.07241e-01,
-4.44850e-02,
-8.61409e-02,
5.85617e-02,
2.06520e-01,
3.25389e-01,
2.37254e-02,
-3.04795e-01,
1.08873e-02,
1.73378e-01,
-3.08383e-01,
-1.02435e-01,
-1.23552e-01,
3.78451e-01,
-1.58541e-01,
1.65856e-01,
4.49826e-02,
-1.36028e-01,
2.65206e-01,
8.30846e-02,
-2.25242e-02,
-7.01855e-03,
-6.60375e-02,
2.89138e-01,
3.93000e-02,
1.57507e-01,
-6.86041e-02,1.81645e-01,8.21386e-03,3.34469e-01,-3.76454e-02,2.21183e-02,2.53235e-01,-4.92750e-02,-4.43938e-02,-1.92449e-01,1.65881e-01,-2.64433e-01,-5.18483e-03,1.89246e-01,3.90158e-01,4.70976e-02,9.08402e-02,-2.23946e-01,-4.11338e-01,-5.04750e-02,3.39033e-01,2.72702e-01,-2.26000e-01,-5.65166e-03,-5.77234e-03,1.61386e-01,6.46571e-03,-2.39918e-01,-1.99331e-01,-3.43907e-01,
-3.68516e-02,-1.48856e-01,-2.61975e-01,-2.45433e-01,1.50349e-01,6.71634e-02,3.96531e-01,6.40952e-02,7.15412e-02,-3.29353e-01,-6.04844e-02,3.96377e-01,-5.74741e-02,-7.35282e-03,-3.05550e-01,4.11087e-02,-2.73252e-01,6.86326e-02,4.05411e-01,-3.33892e-01,-8.48745e-02,1.33053e-02,4.45041e-02,-5.05947e-02,-4.50913e-02,-7.14604e-02,8.13799e-02,-1.59566e-01,3.51680e-02,-8.17468e-03,
-3.42316e-01,-3.02544e-01,2.50020e-02,1.16721e-01,-1.52908e-01,9.21211e-02,3.55264e-01,-1.82974e-01,-3.32470e-02,-1.17394e-01,-2.25236e-01,2.32835e-01,4.42955e-02,-1.09825e-02,-2.38458e-01,1.88262e-02,2.64159e-01,-3.49844e-01,3.95927e-01,-3.43023e-01,-9.93484e-02,3.72703e-03,1.35837e-01,-9.59792e-02,-8.39656e-04,2.36529e-01,9.26298e-02,-2.45117e-01,5.59331e-02,4.81375e-03,
-1.81292e-01,-2.55330e-01,1.48204e-01,-7.99377e-02,-8.08154e-02,5.83715e-02,-1.84411e-01,-1.44379e-01,-1.24603e-01,-6.46937e-02,-3.32417e-02,3.30632e-01,-3.78207e-02,-4.00936e-03,-4.10692e-01,4.39471e-02,6.94269e-02,-1.41255e-01,2.72384e-01,-3.97110e-01,-1.23737e-01,7.85328e-03,-4.25768e-01,1.07361e-01,-4.34548e-02,-4.58323e-02,-1.44199e-01,8.21467e-02,7.67837e-02,-5.41544e-03,
-1.71388e-01,-2.84300e-02,-1.86508e-02,2.78642e-01,-2.24982e-01,1.15310e-01,-1.51306e-01,-1.21871e-01,6.63304e-02,-3.04937e-01,2.63025e-02,-2.00373e-01,-5.02845e-02,-9.35759e-03,8.60807e-02,2.26513e-02,-3.10122e-01,-1.76463e-01,4.05003e-01,-3.81611e-01,-3.63172e-02,8.78021e-03,9.74512e-02,-4.24843e-02,7.93056e-02,-3.06850e-01,1.34584e-01,-8.10290e-02,9.22426e-03,3.15288e-03,
3.68347e-01,
2.13356e-01,
3.72428e-01,
3.27385e-01,
3.04841e-01,
