// Neural Network File Format by Kyle Julian, Stanford 2016
6,5,5,30,
5,30,30,30,30,30,5,
15
499.000000,-3.141600,-3.141600,100.000000,0.000000
36656.000000,3.141600,3.141600,472.000000,1200.000000
17688.500000,0.000000,0.000000,249.000000,532.000000,9.330048
36157.000000,6.283200,6.283200,372.000000,1200.000000,423.773936
6.15016e-02,-1.46937e-01,-5.08120e-02,-1.02475e-01,1.82121e-01,
-3.07266e-02,-1.96629e-01,-1.88881e-01,9.68475e-02,-2.16249e-01,
1.73872e-01,-2.13874e-01,2.05687e-01,-4.31582e-02,2.34000e-02,
4.87095e-02,-3.61379e-01,-4.47102e-01,-1.33544e-02,-3.27329e-02,
-2.95255e-01,3.75534e-02,-2.52326e-02,1.13975e-01,-1.19339e-02,
1.87945e-01,4.23523e-02,-1.29355e-02,-2.24450e-01,-5.89782e-01,
-1.49892e-01,1.26959e-02,-9.34910e-03,-1.88917e-01,5.52198e-01,
-1.05442e-01,-1.14009e-01,7.47463e-02,-4.02830e-02,-8.33933e-01,
-5.97870e-01,4.24976e-03,1.24782e-02,8.20656e-04,2.17228e-02,
8.49733e-04,-5.47519e-01,6.37806e-01,6.13102e-03,1.98882e-04,
-1.23651e-01,7.00258e-02,-1.43952e-01,1.10030e-01,-4.22595e-02,
-2.15242e-02,-9.71217e-02,-1.66040e-03,-8.66075e-02,6.37415e-02,
-1.72748e-02,-2.87469e-01,-1.37783e-02,2.30024e-02,-5.26834e-01,
-5.51122e-02,-1.19919e-01,5.79266e-03,-1.34581e-01,4.84356e-01,
-3.58868e-02,-1.77147e-01,-6.59613e-02,1.07471e-01,1.83872e-01,
-4.29973e-03,5.31052e-01,-5.78847e-01,-1.30324e-02,-1.25089e-01,
5.47747e-02,5.75255e-02,9.72323e-02,-6.68127e-03,-6.55681e-02,
-1.29867e-01,-6.31387e-01,-1.76564e-02,-7.03461e-02,8.15408e-02,
6.84793e-03,-5.78598e-01,-3.05851e-01,1.39172e-01,-1.62176e-01,
2.43108e-01,4.36996e-02,4.56608e-02,6.08772e-02,2.17440e-01,
1.85725e-02,3.26251e-01,-3.47561e-01,-4.63771e-02,8.24593e-02,
-1.04256e-01,8.84431e-03,-3.62779e-03,-2.32953e-01,2.81319e-01,
-3.30271e-02,5.05676e-01,-7.42332e-01,8.87856e-02,-1.84575e-01,
-2.38643e-02,-7.22059e-01,7.00077e-01,1.12369e-02,-1.23552e-01,
-1.61453e-03,6.82929e-01,-7.83317e-01,2.96509e-02,-1.64570e-02,
5.96573e-02,4.17986e-01,1.74423e-01,2.52470e-02,-6.97923e-02,
1.09300e-02,-5.41845e-01,2.74933e-04,-2.75680e-03,3.15306e-01,
-4.71907e-01,7.22927e-02,-8.09138e-02,-3.41445e-02,-6.31364e-01,
1.59115e-01,1.50196e-01,-1.77260e-01,2.23239e-02,2.37297e-01,
-7.26691e-02,8.53261e-01,-4.59027e-01,4.75586e-03,3.60662e-02,
1.69959e-01,
6.92853e-02,
1.44474e-01,
3.92538e-02,
-2.55847e-01,
-1.86707e-01,
3.91810e-02,
-3.78636e-01,
-1.71174e-01,
-2.76389e-01,
-2.52111e-01,
9.29225e-02,
-1.23832e-01,
1.26617e-01,
1.54302e-01,
1.58908e-01,
5.08839e-02,
-1.16294e-01,
-1.16691e-01,
-3.32361e-01,
1.81765e-01,
8.30883e-02,
-2.31755e-01,
8.95319e-02,
-3.23372e-01,
1.21752e-01,
4.57005e-02,
-4.49141e-01,
1.09054e-01,
-2.97386e-01,
1.20244e-01,3.54697e-02,6.57228e-02,3.10840e-01,-1.74486e-01,2.00699e-01,-1.43993e-01,2.93995e-01,-4.63114e-01,5.52508e-01,2.80740e-01,3.72936e-01,2.02144e-02,-1.61737e-01,8.43280e-02,-3.25412e-01,1.08900e-01,-7.73136e-02,-2.61344e-01,2.17739e-02,3.88439e-02,2.17803e-01,-9.65245e-01,-4.41022e-01,-2.01821e+00,-2.71378e-01,-2.33094e-01,-1.75477e+00,1.30053e-02,2.41292e-02,
-5.35757e-02,4.87414e-01,2.75880e-01,-1.63505e-01,-1.28774e-01,-1.14930e-01,2.07979e-01,-1.24961e+00,8.69931e-02,7.14911e-01,1.74394e-01,-3.50477e-02,-1.51766e-01,-3.10702e-01,3.32511e-01,-3.39288e-01,3.04381e-01,-2.89504e-01,1.02462e-01,-9.04602e-02,3.02107e-01,-3.47782e-02,-9.40828e-02,-3.66196e-01,3.51373e-01,-3.45479e-02,4.32571e-02,-2.16316e-01,-5.94509e-01,4.49918e-01,
5.27833e-02,7.32083e-02,2.43643e-01,1.69972e-02,-1.95047e-01,-3.27322e-02,9.88508e-02,3.08669e-01,-3.44781e-01,1.72396e-02,-2.59532e-01,1.41210e-01,2.59503e-01,-5.96132e-02,5.27480e-02,-1.55700e-01,-1.20131e-01,9.93512e-02,-1.47365e-01,-3.82374e-02,-1.94685e-01,-4.83640e-02,1.07146e-01,-2.98279e-01,2.35453e-01,-2.78435e-01,-1.48721e-01,2.46851e-02,-1.68230e-01,-1.62027e-01,
4.33886e-01,3.34765e-01,3.38785e-01,3.40388e-02,2.72901e-01,5.09039e-01,4.65085e-01,4.24492e-01,-7.31351e-01,1.28930e+00,-3.20982e-02,2.96440e-01,5.02690e-01,-5.28311e-01,4.30914e-01,-6.32881e-02,1.49806e-01,-1.15969e-01,3.08910e-01,-1.86118e-01,1.50820e-01,-2.44568e-01,-3.43382e-01,-1.72086e-01,-2.63277e-01,-2.67855e-01,-2.79657e-01,-7.90469e-01,-2.49737e-01,-1.19118e-01,
4.68059e-02,-2.07006e-01,-4.76280e-01,2.74991e-02,-1.97787e-01,-1.00357e-01,-5.38548e-02,9.56760e-01,8.51925e-02,1.04861e-01,-6.43756e-02,-1.98453e-01,-2.36401e-01,-6.42552e-01,-3.54446e-02,3.77830e-01,-2.19172e-01,6.34526e-01,6.38688e-02,-2.22121e-01,2.20861e-01,2.57479e-01,-4.19492e-01,4.69374e-01,-9.84833e-01,-3.33584e-01,-5.26769e+00,-9.62493e-01,1.57081e-01,1.40038e-01,
-2.02214e-01,2.15646e-01,-1.32727e-01,2.90096e-01,3.58098e-02,-2.81649e-02,2.43833e-01,-1.56617e-01,-1.57471e-01,2.16936e-01,-2.88319e-01,4.85624e-02,1.52405e-01,1.07995e-01,-1.20451e-01,9.45430e-02,-2.40059e-01,-1.79369e-01,-3.00147e-02,7.90099e-02,2.26715e-01,-7.80000e-02,-2.43206e-01,-2.85859e-01,1.89929e-01,-1.07902e-02,7.73854e-02,-2.84627e-01,-6.42921e-02,-1.86007e-03,
-4.14176e-01,-1.25261e-01,-4.67680e-02,-3.98713e-01,-4.73018e-02,2.77847e-01,2.05571e-01,6.62484e-01,-4.03754e-01,-1.15685e+00,-2.04880e-01,-2.66660e-01,-6.65041e-01,2.14860e-01,-2.29469e-01,1.57011e-01,3.90251e-01,2.07527e-01,-1.25207e-01,2.75375e-01,-4.24669e-02,-5.83435e-01,1.38637e-01,-7.69101e-02,1.13340e+00,4.28350e-01,5.00299e-01,5.33240e-01,-1.51381e-01,-8.27463e-01,
4.36604e-02,5.07921e-02,-3.95644e-01,-7.61422e-02,2.33434e-01,1.89397e-02,1.94949e-01,-4.57002e-02,5.06398e-01,1.16696e-01,-1.30164e-01,1.75785e-01,1.70605e-01,-1.42084e-01,2.06898e-01,-1.38532e-01,-1.06099e-01,-3.39417e-01,-1.63164e-01,1.15002e-01,-9.53113e-02,1.33836e-01,8.84940e-03,-1.29206e-01,2.48551e-01,3.07314e-03,-9.91070e-02,-5.01029e-01,-2.02011e-01,-1.26253e-01,
3.52211e-01,3.51135e-01,3.98954e-02,-4.11139e-01,1.50626e-01,-1.97051e-01,-4.64233e-01,-4.61690e-02,7.48212e-02,-1.56402e-01,-9.59763e-02,1.45988e-01,-5.54729e-01,-6.14819e-02,-1.60116e-01,2.37858e-01,-2.74578e-01,-1.83078e-01,9.22095e-02,1.80718e-01,-1.20193e-01,8.69623e-02,-1.97365e-01,3.05941e-01,-4.81024e-01,-3.20113e-01,-2.38960e-01,2.11400e-01,3.77116e-01,6.50192e-01,
1.35233e-01,1.32685e-02,9.17707e-02,2.85744e-01,-3.16224e-02,2.66313e-01,-1.15639e-01,-5.68937e-02,2.88460e-01,2.36997e-01,-7.61868e-02,-1.04623e-01,2.07104e-01,9.26022e-02,-3.08732e-01,-2.39025e-01,-3.06543e-01,4.00504e-03,-1.63452e-02,4.33656e-02,-1.87320e-01,-2.21374e-01,-8.03560e-04,-1.61394e-01,2.95419e-01,-5.48149e-02,-3.09037e-01,-2.48457e-01,1.90278e-01,2.65164e-01,
1.21580e-01,-1.96058e-02,-8.19292e-02,3.28205e-02,-1.17814e-01,-2.94931e-02,-1.62367e-01,2.92243e-01,5.17754e-01,-9.26367e-01,2.37193e-02,1.84675e-01,4.80899e-01,-1.83919e-02,1.69601e-02,3.11727e-01,1.34600e-01,3.75903e-02,-3.84341e-01,1.79669e-01,-2.17595e-01,2.90947e-01,2.78303e-02,5.18024e-01,-2.95461e-01,2.78413e-03,-1.19728e-01,7.00445e-01,2.33850e-01,-1.19480e-01,
-1.78358e-01,1.16752e-01,1.15234e-01,-5.70007e-01,-5.22635e-02,-1.89167e-02,-6.46978e-02,7.12204e-03,-1.02712e-02,-5.28273e-01,-1.02910e-02,-4.12030e-01,6.99100e-02,2.55736e-01,-4.00736e-01,2.00346e-01,2.02736e-01,2.91296e-01,-2.06554e-01,-2.29457e-01,-1.29155e-01,-2.75309e-01,2.51225e-01,8.67874e-03,3.65688e-01,-1.91885e-02,3.69596e-01,2.00686e-01,6.72164e-02,-5.34135e-01,
-1.54940e-01,1.92425e-01,7.58732e-02,1.21497e-01,2.27718e-01,-1.16188e-01,1.28016e-01,-1.37096e-01,-1.52230e-02,3.06257e-01,-1.79116e-01,2.07465e-01,-1.61157e-01,1.73887e-01,1.62355e-01,2.72427e-01,-1.26440e-01,7.51760e-02,1.25114e-01,-2.00984e-01,-9.64424e-02,-2.17960e-01,-1.43402e-01,2.36916e-01,-5.96886e-01,-2.07256e-01,-2.25181e-01,1.55181e-01,1.64191e-01,5.39089e-01,
3.66173e-02,1.29075e-01,-2.62238e-01,-1.61484e-01,2.38555e-01,3.38662e-01,1.52020e-01,5.34623e-01,-7.46563e-01,-8.08597e-01,1.24212e-01,-2.26158e-01,6.70934e-02,-2.67408e-01,-9.36866e-02,2.12253e-01,7.18944e-02,5.47416e-01,-4.88615e-02,1.07583e-01,-3.81308e-01,-2.61970e-01,1.25382e-02,-3.95392e-02,1.50169e-01,2.53004e-01,1.36773e-01,-5.63586e-01,-1.64439e-01,-3.57746e-02,
-2.22477e-01,-2.11648e-01,-2.86019e-01,1.84058e-01,-2.95547e-01,-7.57965e-01,-2.19251e-01,3.16057e-01,4.76023e-01,1.39896e-01,1.59864e-01,-1.16560e-01,-7.34995e-02,3.39212e-01,5.08404e-02,8.40696e-02,-1.44337e-01,8.00029e-02,-1.55798e-01,-3.02743e-01,-2.90884e-01,2.58202e-01,-2.07499e-01,6.30885e-02,5.14857e-01,-5.56025e-02,-9.58576e-02,1.13826e+00,1.28526e-01,-7.59872e-01,
-2.64500e-01,1.46324e-01,1.95513e-01,-1.97738e-02,1.05884e-01,8.22912e-02,-2.14563e-01,2.49600e-01,5.62707e-02,1.65747e+00,-6.05899e-02,-8.71360e-03,2.86251e-01,1.25196e-01,-2.20197e-01,-3.99984e-01,-8.51016e-02,9.68558e-03,-6.90496e-02,-2.44328e-02,8.85188e-02,1.19198e-01,-6.49665e-03,-7.57496e-01,3.55494e-01,-7.20604e-03,4.27611e-01,4.69560e-01,-2.49098e-01,-3.35890e-01,
-4.54399e-02,-4.47115e-01,-2.68597e-01,-6.21891e-01,-1.84472e-01,-3.23258e-01,-4.20197e-01,-9.75906e-02,1.20259e-01,-4.77650e-01,2.36807e-01,6.06436e-02,-6.19151e-02,1.22836e-02,6.75247e-03,1.34702e-01,1.20377e-02,3.41651e-01,1.36507e-01,1.44320e-01,-4.85170e-01,2.59789e-01,-1.21377e+00,2.02860e-01,-3.31818e+00,-6.50231e-02,6.90797e-02,-3.75306e-02,2.08966e-01,9.83479e-01,
3.58117e-01,-1.48619e-01,2.45040e-01,1.95536e-01,1.16372e-01,2.42313e-02,1.43421e-01,-6.33024e-01,2.04175e-01,-3.65130e-01,-5.43354e-02,9.24741e-02,-7.14955e-02,-2.52910e-01,-2.79052e-01,-1.07108e-01,-2.17460e-02,2.28018e-01,3.97272e-01,-5.33258e-01,8.57623e-02,-4.45289e-02,-2.78643e-02,-5.76358e-02,5.50893e-01,1.31252e-01,-4.13436e-01,-2.49928e-01,-2.00365e-01,-8.82940e-02,
3.33303e-01,-7.42836e-03,-7.96277e-02,-1.18371e-01,2.02872e-01,-1.37175e-02,-2.73149e-01,-1.05147e+00,-3.49814e-02,-1.83134e+00,2.25832e-01,3.38635e-01,-4.51262e-01,7.96176e-02,3.99079e-02,-5.20695e-01,-2.35154e-01,2.58762e-01,4.66092e-02,-2.74303e-01,-5.96213e-02,1.87150e-01,-5.56597e-02,-9.75088e-02,1.19990e+00,-1.39300e-01,-5.46840e-01,-5.85072e-01,1.43695e-01,1.61342e-01,
-1.84048e-02,4.90648e-02,-3.47498e-02,-2.86629e-01,-1.34440e-01,-5.48438e-02,2.33751e-01,-9.35976e-02,1.35419e-02,-1.12332e-01,1.89826e-01,-7.12814e-02,-2.08676e-03,2.47530e-01,-1.35751e-01,-1.78859e-01,7.18403e-02,-2.33317e-01,-2.78996e-01,-3.42916e-02,1.46709e-01,-2.38974e-01,1.95807e-01,1.47776e-01,-3.14765e-02,-1.30289e-01,1.49993e-01,2.32414e-02,-2.40593e-01,-8.52316e-02,
2.77880e-01,-2.69912e-01,-2.87632e-02,-1.31645e-02,-3.12078e-01,-1.62119e-01,-6.25010e-01,-8.31192e-01,6.42053e-02,1.20149e+00,1.00676e-01,-1.64459e-02,-3.46670e-01,2.93845e-01,-8.50322e-02,-1.46910e-01,-1.92924e-01,1.91677e-01,1.47785e-01,1.80266e-01,5.96355e-02,3.53302e-01,-1.88641e-01,-3.96783e-01,-4.91044e-01,-1.46633e-03,-6.11096e-02,-3.89965e-01,-9.63144e-02,5.18488e-01,
-3.10101e-01,-3.47745e-01,-1.79673e-01,2.68793e-01,9.11019e-02,3.63282e-02,1.27039e-01,3.87277e-01,1.07214e-01,3.10858e-01,2.57431e-01,-1.73599e-02,5.74314e-02,7.10258e-02,-1.26456e-01,2.32986e-01,-8.91468e-02,-2.51584e-01,1.18643e-01,2.18685e-01,-1.84782e-01,-6.13040e-04,-1.78215e-02,1.78900e-01,-1.77739e-01,3.80929e-01,1.66821e-01,-5.99264e-01,8.72212e-02,-3.70531e-01,
1.59676e-01,4.27182e-02,1.69850e-01,9.04664e-02,1.73637e-01,1.54657e-01,-2.55105e-01,4.82599e-01,-2.25571e-01,-4.99021e-01,1.65854e-01,3.51399e-01,-2.83407e-01,-2.95809e-03,1.49210e-01,2.81673e-01,-2.56642e-01,-1.78673e-01,-2.13219e-01,2.42021e-01,-1.49696e-04,1.62339e-01,-1.99207e-02,1.73582e-01,-5.05373e-01,1.78123e-01,-2.00285e-02,5.96183e-01,6.46647e-02,-2.19080e-02,
-1.74344e-01,1.44272e-01,1.13986e-01,-1.51357e-01,2.17335e-01,-3.12730e-01,2.42571e-01,-1.82541e-01,4.53871e-01,5.74367e-01,-5.16307e-02,-3.99940e-02,-1.88428e-01,1.61022e-01,3.72140e-01,-3.37802e-01,-3.27841e-01,-2.23573e-01,2.22940e-01,-1.11569e-01,1.06841e-01,-1.63917e-01,-7.66788e-02,-3.01399e-01,3.85031e-01,-6.82718e-04,-1.61247e-01,-2.25954e-02,-2.36454e-02,1.88602e-01,
1.02654e-01,2.00053e-01,-5.40960e-02,-4.07116e-01,-2.90020e-01,1.79684e-01,-4.37458e-01,4.93711e-01,4.40736e-02,8.62685e-01,-1.10208e-01,7.07773e-02,-9.67309e-02,-2.86788e-01,-1.78667e-01,1.79741e-01,-2.63959e-01,1.23118e-01,4.07450e-02,-3.08494e-01,2.04774e-01,2.22509e-01,-9.44376e-01,2.38268e-01,-7.29917e-01,-1.81717e-01,5.32937e-02,-1.10006e+00,3.68994e-01,-3.02578e-01,
-1.25281e-01,-1.39376e-01,-2.10035e-01,-1.02340e-01,-5.82393e-02,5.42681e-03,-2.07300e-01,-2.21147e-01,2.56133e-01,4.72809e-01,-1.08744e-01,1.24600e-01,-3.94979e-01,-5.85815e-02,-3.12490e-01,-4.04290e-01,-3.66968e-01,1.70272e-01,-2.76378e-01,-3.50170e-02,3.29343e-02,1.70780e-01,1.70782e-01,-2.08830e-01,1.16668e+00,3.28031e-01,3.59888e-01,1.33893e+00,1.95861e-01,-5.72178e-01,
9.98428e-02,7.34994e-02,-3.00790e-01,-2.67395e-01,2.97151e-01,-1.94805e-01,-1.69654e-01,-6.06355e-03,-2.99544e-01,2.14826e-01,2.49437e-01,-8.54475e-02,-1.03472e-01,2.58057e-01,-5.32685e-02,7.06633e-02,-2.35804e-01,1.12766e-01,1.45600e-02,-2.33196e-02,1.56018e-01,1.01602e-01,2.22979e-01,2.20483e-01,1.49908e-01,-1.49578e-01,-2.34202e-01,-1.44072e-01,1.02625e-01,-1.87721e-01,
-6.87852e-02,-6.31684e-02,2.51303e-01,-5.51106e-01,2.16823e-01,-2.00464e-01,1.34061e-01,-2.71427e-01,1.75464e-01,-7.41590e-01,1.77311e-01,3.71420e-02,-4.49066e-02,-1.57544e-01,-8.53835e-02,9.79418e-01,-1.14221e-01,-1.18395e-01,-3.46245e-01,7.33789e-02,-2.08168e+00,1.74863e-02,7.78272e-02,3.24489e-01,-1.69036e-01,-2.53079e-01,1.09406e-01,2.00187e-01,1.95690e-01,8.68143e-02,
1.41376e-01,2.70505e-02,-2.22035e-01,-2.61030e-02,1.66506e-01,8.03710e-02,-1.58245e-01,1.49661e-01,2.30552e-01,6.24518e-01,6.63168e-02,2.24598e-01,2.46429e-01,4.00225e-02,2.43814e-01,-2.60226e-01,1.10806e-01,-5.58070e-02,3.02229e-02,2.26601e-01,-1.79902e-01,5.26833e-02,-2.74604e-01,-3.53391e-01,3.09560e-01,-1.55903e-01,-6.16605e-02,2.42635e-01,-8.42635e-02,-2.41102e-01,
-2.75522e-01,-3.20431e-01,-7.26374e-02,3.22698e-01,-1.82565e-01,1.77908e-01,2.99144e-01,1.19865e-01,-2.62323e-01,-9.82679e-02,1.12938e-01,-3.02170e-01,1.74749e-01,1.68570e-01,-1.10921e-04,-8.65756e-02,1.42992e-02,-1.07528e-02,-2.71138e-02,1.30242e-01,2.70542e-01,7.75352e-02,5.19056e-02,1.01437e-01,-2.99736e-01,-4.41410e-02,5.55357e-02,-1.45677e-02,2.62868e-01,-1.06974e-01,
1.18448e-01,
4.00888e-02,
1.61517e-01,
-8.87698e-02,
-2.38316e-02,
-2.67253e-01,
-4.18201e-02,
9.40753e-02,
1.05646e-02,
-2.64121e-01,
-1.53603e-01,
1.18620e-01,
-9.88737e-03,
1.01272e-01,
1.02817e-01,
1.77887e-01,
1.40486e-01,
2.37814e-02,
1.63340e-01,
-1.81852e-01,
1.52048e-01,
3.75100e-02,
-1.20562e-01,
1.89137e-01,
-3.24869e-02,
1.72033e-01,
5.88365e-02,
4.63921e-02,
1.92495e-01,
-2.74174e-01,
-4.30694e-01,2.74153e-02,4.00624e-01,-2.71963e-01,1.06398e-01,1.40448e-01,-1.30806e-01,1.12267e-01,-6.77546e-02,-8.09432e-02,-3.74348e-02,-3.22546e-03,9.94657e-02,-9.42544e-02,-1.11273e-01,-2.12031e-01,1.43140e-02,-5.31642e-02,-1.46613e-01,1.42080e-01,-9.39432e-02,8.39903e-03,3.86666e-01,-6.77556e-02,2.50912e-01,-4.69148e-01,1.89270e-01,-3.78266e-01,-2.78944e-02,3.05886e-02,
-1.71987e-01,-5.37114e-02,2.93544e-02,-2.16205e-01,2.31440e-01,-4.74139e-02,4.45056e-02,1.19311e-01,2.08537e-02,2.25461e-01,-5.65575e-02,-5.88591e-02,-2.09354e-01,2.20819e-01,1.77157e-01,4.71469e-01,3.78303e-01,2.47607e-01,-6.47815e-03,-2.07682e-01,-3.69881e-01,-1.40839e-01,4.91173e-03,1.49140e-01,3.38576e-01,-2.55637e-01,-4.90810e-02,-4.14870e-01,-3.84580e-01,-1.09431e-01,
-8.77795e-02,6.47202e-02,9.60446e-02,-2.10815e-01,-3.37164e-01,3.14189e-01,-2.70483e-01,4.41226e-02,-1.81181e-01,-1.34319e-01,-2.48235e-01,6.24159e-02,-1.55877e-01,3.12214e-02,-1.31054e-01,-9.24764e-02,2.94978e-01,6.69274e-02,1.36444e-01,-1.84920e-01,-1.16928e-01,6.75686e-02,7.52146e-02,4.88955e-02,1.62223e-01,1.17873e-01,2.91378e-01,-1.45078e-01,1.97228e-01,4.44998e-04,
8.82569e-02,-1.46684e-02,-2.60909e-01,1.70043e-01,4.62575e-02,5.12476e-02,4.12401e-01,3.49158e-02,-1.27663e-01,2.50924e-01,2.32914e-01,-2.11911e-01,6.06507e-03,-2.19819e-01,1.00902e-01,1.33394e-01,-5.03505e-01,8.93047e-03,-3.97713e-02,-2.99898e-01,1.37378e-01,-9.64370e-02,-2.72950e-01,1.11925e-01,-1.14575e-01,2.00789e-01,-3.32175e-01,3.91019e-01,-4.09863e-01,-1.28590e-01,
-2.44851e-01,-3.10287e-01,2.94171e-01,2.50715e-01,2.92911e-01,-7.81122e-02,-9.01793e-02,-2.12864e-01,-1.50981e-01,4.89659e-02,-2.53253e-01,-3.56988e-02,-1.61948e-01,-1.06810e-02,1.10390e-01,-1.75866e-01,1.11322e-01,-2.37257e-01,-2.81192e-01,2.77500e-01,-6.38522e-02,-1.73662e-01,1.50866e-01,-2.51414e-01,-2.84452e-01,-3.11563e-01,1.89617e-01,5.10889e-03,8.15609e-02,-2.46037e-01,
-2.22636e-01,4.33890e-03,9.37557e-02,1.12318e-01,4.16091e-01,-2.30303e-01,-2.03973e-01,5.03142e-01,5.28584e-01,8.82231e-02,9.09426e-03,-6.91070e-02,3.23748e-01,4.36836e-02,-1.94242e-02,2.23300e-01,-2.37248e-01,-6.56470e-02,-7.85132e-01,-1.22337e-01,1.72266e-01,-2.12678e-01,3.39053e-01,-1.29510e-02,-1.82940e-01,-4.04945e-02,5.17808e-01,8.19016e-01,2.66495e-01,-1.18398e-01,
-2.69767e-01,-2.27656e-01,-3.20247e-03,3.51993e-02,-2.73876e-01,-1.69722e-01,-3.67487e-02,4.86363e-02,-5.92879e-02,2.23343e-01,2.50180e-01,-1.02055e-01,-1.65930e-01,-2.44961e-01,8.41659e-02,-8.51218e-02,2.56010e-01,1.66875e-01,7.77007e-02,-2.22310e-01,3.08816e-01,2.94396e-01,3.20613e-02,1.96130e-01,-1.02086e-01,-2.84720e-01,2.17539e-01,-1.32197e-01,-2.59814e-01,-2.95736e-01,
-1.02232e-01,-3.43551e-02,-9.74625e-02,-1.22847e-01,-7.82914e-02,1.34456e-01,-1.10588e-01,1.93696e-01,2.38519e-01,-1.02407e-01,-7.94652e-02,7.20060e-02,-4.40802e-02,1.47388e-01,1.34800e-02,2.14787e-01,-6.92554e-02,-9.80249e-02,-1.53816e-01,-1.65905e-01,-1.23846e-01,-2.80990e-01,1.67925e-01,-1.59736e-01,7.06596e-02,7.82226e-02,-1.80643e-01,-6.32941e-02,-3.16068e-01,-1.29361e-01,
-4.40490e-01,3.78026e-01,3.86198e-01,-4.56401e-01,4.75852e-02,-2.46431e-01,-9.23117e-01,6.96625e-02,4.96154e-01,1.76418e-02,4.09258e-01,-8.68435e-02,4.75272e-02,-2.48484e-01,-1.54547e-01,4.60078e-02,-8.24096e-02,5.76012e-01,-3.94318e-01,7.23395e-02,-3.19862e-02,1.82656e-01,3.88002e-01,-8.24694e-01,3.72794e-02,-7.91822e-02,2.43109e-01,-2.71808e-01,2.98807e-01,2.30621e-01,
-9.25999e-02,-1.73723e-01,-9.64643e-02,-1.94812e-01,1.41453e-01,-1.94547e-01,1.39765e-01,-3.23172e-02,-1.61392e-01,-2.85761e-01,-1.02946e-01,-2.04059e-01,-1.61773e-01,4.89757e-02,-1.48382e-01,3.35238e-01,2.03694e-01,-3.71140e-02,8.80373e-02,1.41019e-01,-2.04826e-01,-7.37137e-02,3.65635e-02,-9.71787e-02,-5.01961e-02,-1.80930e-02,1.65210e-01,3.81182e-02,3.32603e-03,-6.48643e-02,
2.17226e-01,8.74916e-02,-1.31000e-01,-1.33791e-02,-2.05619e-01,8.27238e-02,-2.76181e-01,-6.52963e-02,-1.89403e-01,-7.45382e-02,2.33941e-01,-2.28714e-01,-6.83793e-02,1.67680e-01,1.12532e-01,2.25388e-01,3.82909e-02,6.59810e-02,-1.18528e-01,-2.35763e-01,-1.13110e-02,2.31171e-01,-5.72245e-02,2.42678e-01,-2.73215e-01,-9.80527e-02,-1.80993e-01,-1.95650e-01,-1.22122e-01,1.88535e-01,
1.54602e-01,1.57829e-01,-2.08057e-01,-5.08361e-01,-5.38124e-01,-8.64049e-02,-4.49283e-01,-1.87966e-01,-1.59278e-01,-1.31702e-02,-7.21130e-01,3.65578e-01,-4.73610e-01,3.06754e-01,1.00342e-01,3.99022e-01,3.03586e-01,-1.00454e-01,5.83456e-01,6.05843e-02,-2.42736e-01,2.63936e-01,2.09595e-01,-1.76601e-01,-2.62022e-01,-2.27618e-01,-7.40706e-02,-5.73706e-01,-4.04541e-01,-1.90245e-01,
5.43730e-01,1.08307e-01,-4.55520e-01,2.32031e-01,6.17054e-02,-2.74379e-01,6.14036e-02,6.39710e-02,2.50647e-01,-2.60745e-01,5.56599e-02,2.81679e-01,-3.68579e-01,-9.70003e-02,-4.74827e-03,-1.97290e-01,2.06119e-01,3.16418e-01,1.06536e-03,-1.83538e-01,-2.91003e-01,-2.07102e-01,7.76036e-02,1.52421e-01,-2.00890e-01,-7.34618e-02,6.18049e-02,-5.68303e-01,-3.50336e-01,-2.53431e-01,
1.95616e-01,-2.34741e-01,-1.48805e-01,7.24311e-02,2.43442e-01,-1.07686e-01,-6.85109e-02,1.13936e-01,2.93634e-02,-2.25502e-01,-1.46473e-02,-1.13725e-01,2.03286e-01,1.96503e-01,-1.87784e-01,-2.53264e-01,-2.49687e-02,5.25992e-02,-8.22716e-02,1.16267e-01,-6.71875e-02,-3.27941e-01,-3.25970e-01,-1.94552e-01,8.32251e-02,1.12931e-01,-2.37924e-01,-3.46984e-02,1.84791e-01,7.19859e-02,
2.72755e-01,-2.09726e-01,-1.46074e-01,4.67514e-01,-3.04964e-01,-1.12715e-01,-6.34219e-01,-2.16206e-01,4.85494e-01,-2.88943e-01,1.50561e-02,2.62175e-01,-2.80652e-01,1.38248e-01,2.41337e-01,-2.91324e-01,-2.41472e-01,-2.63748e-01,7.22287e-02,-2.89680e-01,-9.03746e-02,-1.84256e-02,-9.48074e-02,2.15074e-02,-2.12144e-01,2.26381e-01,4.55173e-02,-7.27651e-02,3.06387e-02,6.06620e-03,
8.08325e-02,-6.00244e-03,3.59435e-01,3.22034e-02,-4.28424e-02,2.74338e-01,-1.70685e-01,1.07099e-01,4.93052e-03,7.70195e-02,3.37782e-03,4.43859e-01,2.72967e-01,1.50554e-03,8.36565e-02,-2.05271e-01,1.42596e-02,6.64815e-02,1.70392e-01,-1.18076e-01,8.04522e-02,2.98154e-01,3.58765e-01,-2.82802e-02,1.00314e-01,-7.64287e-03,-8.13376e-02,-2.05070e-01,1.77363e-02,2.82201e-01,
-2.98474e-02,-7.53397e-02,3.47340e-01,7.33945e-01,2.88210e-01,8.79342e-02,-7.96289e-01,-1.72774e-01,2.72011e-01,1.78572e-01,2.72286e-01,2.15148e-02,4.20184e-01,-2.70056e-01,3.02369e-01,-7.49038e-01,-6.26973e-01,1.08486e-01,-6.49880e-01,7.89945e-02,8.92412e-01,-7.51681e-01,-1.80083e-01,3.18633e-01,-1.19001e-02,1.32695e-01,-4.77999e-02,8.97180e-01,2.35791e-01,5.94790e-02,
-4.64677e-01,1.91366e-01,5.05792e-02,-4.40880e-01,2.48689e-01,-1.23880e-02,-6.53513e-01,4.79284e-01,1.99347e-01,-2.92587e-01,2.21802e-01,7.98968e-02,5.14214e-01,-1.37420e-01,-7.87756e-03,8.42285e-02,3.48713e-01,-1.18965e-01,-6.02752e-02,6.64892e-03,-4.08206e-01,2.47185e-01,1.08971e-01,-3.27003e-01,-3.50135e-01,-3.80047e-02,3.37161e-01,-3.39133e-01,5.68106e-02,1.92026e-01,
-1.14846e-01,5.80443e-02,3.62921e-03,2.12939e-01,4.06294e-02,1.45850e-01,4.40735e-03,-1.89568e-01,1.96099e-04,2.68189e-02,-2.00894e-01,-1.32811e-01,-2.46680e-01,-1.85541e-01,-9.51740e-02,1.26823e-01,-8.74735e-02,1.21972e-01,-8.05966e-02,-1.56126e-01,5.19140e-02,-8.30458e-02,-2.16492e-01,2.89278e-02,-1.76426e-01,-2.72903e-01,-1.08460e-01,-3.15329e-02,-5.67475e-02,2.11345e-01,
-9.57430e-02,8.56527e-02,1.14410e-02,-7.73614e-02,-2.53362e-01,-1.93506e-01,-3.81988e-03,-1.86290e-03,-5.69765e-02,-1.66870e-01,-6.87283e-02,5.84609e-02,-1.32606e-01,9.51261e-03,6.14157e-02,1.45629e-01,3.88434e-02,-8.71791e-02,8.46617e-02,-2.84536e-01,-3.45833e-02,1.21572e-01,1.62162e-01,7.67335e-02,-1.01215e-02,4.37617e-02,8.23351e-02,1.13337e-02,-1.61244e-01,-3.99918e-02,
1.30662e-01,-9.52258e-02,2.21493e-02,2.56088e-01,5.27987e-01,-2.33318e-01,2.35965e-01,-1.43250e-01,2.10396e-01,2.20904e-01,2.63768e-01,-2.18226e-02,2.29393e-01,-1.53168e-02,1.27890e-01,-3.38819e-02,-1.34878e-01,-4.80919e-02,-1.40984e-01,1.62825e-01,1.49900e-01,9.66190e-03,-1.03534e-01,-6.81864e-02,-1.95553e-01,-3.08691e-01,-1.77578e-01,2.86690e-02,3.35943e-02,1.46405e-01,
-8.90541e-02,2.61931e-02,-1.75130e-01,3.19709e-02,3.46038e-02,3.05365e-01,4.73283e-01,-3.58948e-02,-3.12572e-01,-2.37391e-01,1.65040e-01,-8.22799e-02,1.29959e-01,-5.54780e-02,2.02503e-01,2.04193e-01,1.20685e-02,-2.57882e-01,8.07306e-02,-2.59477e-02,7.01776e-02,-1.39620e-02,-7.95775e-02,4.32446e-02,-2.49890e-01,-3.11211e-01,-1.40106e-01,-3.86426e-02,-4.10194e-01,1.05245e-02,
5.18041e-01,-5.10583e-01,1.64565e-01,-2.00788e-01,-1.57592e-02,2.22239e-01,-4.60740e-01,-6.67494e-02,-1.75372e-01,-6.94828e-02,-3.78236e-01,-9.03706e-02,-4.62057e-01,-9.84173e-02,-3.75727e-01,-5.68116e-01,6.06362e-02,2.82911e-01,2.92896e-01,8.24863e-02,1.64891e-01,-1.00870e-01,-1.81813e-01,1.46471e-01,-1.92905e-01,2.50393e-01,-1.39620e-01,-3.42656e-01,3.37695e-01,1.92384e-01,
-1.38918e-01,-5.38341e-02,2.37513e-01,-3.58164e-02,1.49807e-01,1.61772e-01,-4.88360e-01,-4.20038e-02,1.87073e-01,1.20151e-01,7.04696e-03,2.13424e-02,-1.70465e-01,3.69330e-02,-2.88370e-03,2.32773e-01,5.54039e-02,3.79191e-02,-3.76214e-02,4.87870e-03,-1.08064e-01,-1.69352e-01,1.04130e-01,-1.37297e-01,1.95478e-01,-3.14482e-01,-5.08685e-02,-1.03398e-01,-1.56071e-01,-1.35027e-01,
-7.05917e-02,-1.39561e-01,1.96145e-01,-6.01719e-02,-1.88971e-01,-2.28217e-01,2.31400e-02,-1.01217e-01,2.34600e-01,6.18848e-02,-1.17479e-01,-2.31339e-01,-3.16958e-01,-1.71994e-01,2.16430e-01,1.55630e-01,-1.11626e-01,-2.62468e-01,1.44186e-01,-3.06700e-01,9.87295e-02,-1.59900e-01,-1.39035e-01,4.14614e-03,-2.42564e-01,-2.04669e-01,-1.80135e-01,-1.63514e-01,6.25669e-03,2.64644e-01,
-2.88436e-02,1.07034e-01,-2.14516e-01,-8.64510e-03,1.61328e-01,-2.11047e-01,2.12775e-01,6.72034e-02,1.06845e-01,-1.69185e-01,2.80834e-01,1.16508e-01,8.05159e-02,-3.89292e-01,-3.38006e-02,-4.33049e-02,-1.03651e-01,9.88118e-02,-7.12930e-02,-3.95065e-02,1.16690e-01,7.85213e-02,2.28548e-01,-3.13236e-02,-5.74725e-02,-1.71924e-01,7.48156e-02,-2.09133e-01,8.15280e-02,-1.86685e-01,
-2.61922e-01,3.79378e-01,1.53082e-01,-1.42479e-02,6.21952e-01,-2.38414e-01,-3.31608e-01,1.20283e-01,-6.53044e-02,-1.52642e-01,-3.87030e-02,-1.39931e-01,-1.76967e-01,-3.68695e-01,-6.95728e-01,5.16908e-01,6.20718e-02,-6.45417e-02,4.53572e-01,-1.18549e-01,1.97831e-02,-1.40553e-01,5.56330e-02,-5.09684e-01,-9.81506e-02,6.48029e-01,-3.13150e-01,6.61216e-03,8.53080e-02,1.53585e-01,
-4.57636e-02,9.14399e-02,-1.58967e-01,-3.18453e-01,2.69964e-01,3.96768e-02,-1.07190e+00,-3.23905e-01,-3.25331e-01,4.31608e-02,-1.05716e-01,1.72947e-02,-3.35083e-01,1.15611e-01,-4.23333e-01,1.92317e-01,4.02588e-02,-1.29159e-02,3.47393e-01,-1.62575e-02,-4.17467e-01,1.41914e-01,1.02561e-01,-7.39501e-02,7.14649e-02,-5.92604e-02,8.24785e-02,-3.74205e-01,1.17462e-02,-2.31931e-01,
-2.00796e-02,1.29369e-01,9.87637e-02,-7.43130e-02,-2.57257e-01,2.59503e-01,-3.56818e-01,3.72618e-02,-7.66697e-02,2.80362e-01,-1.44976e-01,1.69153e-01,2.06953e-01,2.49416e-01,-1.07835e-01,1.31893e-02,-2.31906e-02,7.27242e-02,1.44143e-01,6.27722e-02,-1.36656e-02,5.35378e-02,2.31015e-01,-1.37442e-01,3.23935e-01,1.95900e-01,-2.69236e-01,9.45173e-02,5.53012e-03,-7.31203e-02,
-1.03681e-01,-5.82605e-02,-1.58044e-01,4.20239e-02,-3.64420e-02,2.92686e-01,1.05442e-01,1.72207e-01,-2.25354e-01,6.41232e-02,3.77162e-02,1.63575e-01,-1.19423e-01,-3.14194e-01,1.78310e-01,9.75521e-02,-2.37765e-01,4.75260e-02,-1.16646e-01,-1.80857e-01,2.36549e-01,-2.23242e-01,-5.52130e-02,8.27475e-02,-1.14669e-01,-1.10538e-01,-2.02996e-01,1.23378e-02,1.19300e-01,-1.47653e-01,
6.54106e-03,
5.25863e-02,
2.99396e-01,
1.28427e-01,
-2.43447e-01,
-1.38404e-01,
-2.48349e-01,
1.67741e-01,
-6.50884e-02,
9.78143e-02,
-2.95587e-01,
6.45863e-02,
2.09665e-02,
1.13182e-01,
6.31961e-03,
-1.07974e-01,
-1.47003e-01,
-7.32578e-02,
-1.66902e-01,
9.56486e-02,
2.15950e-01,
1.06495e-01,
4.72137e-02,
6.25727e-02,
-3.36900e-02,
6.33425e-03,
4.73971e-02,
8.25326e-02,
-2.13598e-02,
-1.08780e-01,
-1.03999e-02,1.72568e-01,2.42378e-01,-3.90664e-02,3.09139e-02,-1.67311e-02,-4.72050e-02,3.78337e-01,-1.06169e-01,-1.42959e-01,2.42212e-01,-1.20684e-01,1.36624e-01,-1.55620e-02,1.07886e-01,-2.71389e-01,1.76908e-01,1.75961e-01,-2.64486e-01,3.62969e-01,3.15288e-01,2.92544e-01,2.18292e-01,1.94015e-02,1.96865e-01,4.64791e-02,8.42803e-02,-5.25392e-02,-9.99117e-02,-6.44439e-02,
1.80707e-03,-2.31174e-01,1.68334e-01,-2.54716e-01,-2.29753e-01,-2.43436e-02,5.95252e-02,-6.59985e-02,-2.53676e-01,3.64310e-02,-2.64129e-01,1.08497e-01,-1.56182e-01,1.72509e-01,1.23209e-01,-1.00398e-01,-7.92468e-02,5.90571e-02,-2.34205e-01,-6.19351e-02,-1.17236e-01,2.18596e-01,3.35937e-02,-2.39651e-01,2.15185e-01,-2.81855e-02,2.27802e-01,2.14995e-01,-2.06409e-01,-2.42024e-01,
2.68680e-01,-1.11883e-01,1.45231e-01,-7.88957e-02,1.37182e-01,3.12978e-01,-2.77466e-01,-5.46334e-02,2.89570e-01,-1.72467e-01,-2.91285e-01,-1.50819e-01,2.15456e-01,6.55236e-02,1.05457e-03,1.49883e-01,-1.37312e-01,-6.06557e-02,5.49355e-02,8.34178e-02,1.33181e-01,2.38617e-01,2.01639e-02,2.43687e-01,2.07869e-01,1.26276e-01,2.90148e-01,4.15201e-02,-1.32861e-01,7.67336e-02,
-3.32001e-01,-3.16127e-01,9.16146e-02,4.13893e-02,2.11034e-01,-1.43412e-01,1.68196e-01,-1.28368e-01,-2.87341e-01,-3.32987e-01,-2.05619e-01,-9.53673e-02,-1.30225e-01,1.55958e-02,-1.07690e-01,1.07303e-01,-2.30352e-01,1.64952e-01,-5.36388e-03,-3.55259e-01,-9.12776e-02,-2.21953e-01,-1.03737e-01,-2.63959e-01,-2.80419e-01,8.02803e-02,8.92142e-02,-1.32128e-01,1.05807e-01,3.05100e-01,
3.61425e-01,1.87751e-02,-3.24997e-01,4.06924e-01,9.25466e-02,4.26977e-01,-1.19121e-01,-3.19878e-01,-1.12235e-01,-1.16718e-01,7.66191e-02,5.73929e-01,2.72950e-01,-1.19756e-01,5.10151e-01,1.82373e-01,-3.46003e-01,-2.55120e-01,-1.92653e-01,2.29070e-01,2.32077e-01,-7.70889e-02,5.71916e-01,-2.11763e-01,2.01696e-01,6.59433e-02,-3.20127e-01,-4.35542e-01,4.85254e-02,-1.64746e-01,
-4.24404e-02,8.36241e-02,-1.05710e-01,4.79466e-03,-1.20537e-01,-2.80701e-01,2.26252e-01,1.19163e-01,-3.98102e-01,-1.39806e-01,-2.89190e-01,2.67173e-01,-5.81612e-02,-2.87982e-01,2.84435e-01,-2.96108e-02,1.47012e-01,1.30910e-01,2.11172e-01,-2.92356e-02,-1.84716e-01,1.46810e-01,1.21881e-01,-1.51618e-02,-2.86866e-01,-9.59569e-02,-2.22263e-01,-2.38459e-01,1.27464e-01,-1.97579e-01,
1.22386e-01,1.88798e-01,-6.56027e-02,6.29507e-02,-1.72495e-01,7.11484e-02,-1.68464e-01,1.61873e-01,2.32751e-01,1.56306e-01,2.58633e-01,-1.77347e-01,-8.02178e-03,-1.24321e-01,-1.54706e-01,-2.53920e-01,-4.76317e-02,-1.32107e-01,1.67413e-02,-2.18702e-01,1.90456e-01,-2.22271e-01,5.63786e-02,-2.80737e-01,2.33358e-01,2.49645e-02,1.76286e-02,1.16248e-01,-1.14491e-01,2.73892e-01,
-2.91027e-01,-9.88909e-02,1.96509e-01,3.61979e-02,1.30337e-01,-1.45864e-01,-3.03719e-01,-3.18462e-03,1.89014e-01,6.33471e-02,4.58713e-02,-2.30801e-01,2.20159e-02,5.15937e-01,-4.52822e-01,1.13957e-01,2.00714e-01,9.19928e-02,-2.84565e-01,2.24731e-01,-2.75232e-01,1.61137e-01,-8.71375e-02,2.89559e-01,2.85674e-02,2.28973e-01,8.17606e-02,6.13310e-01,1.96749e-03,-2.19306e-01,
-1.52330e-01,5.98289e-02,-1.99085e-01,-3.56620e-01,-2.56929e-01,-6.32847e-01,-2.09556e-01,1.39731e-01,4.05361e-01,-7.17247e-03,-2.76749e-01,-1.01287e+00,-4.27757e-01,8.52669e-02,-5.28100e-01,1.29005e-01,-1.97210e-01,-2.91083e-01,-3.01378e-01,2.60594e-01,6.35691e-02,-2.96545e-01,-8.43238e-01,4.04267e-01,1.27201e-01,3.39295e-01,4.00361e-01,4.07662e-01,5.05929e-02,-2.62317e-01,
-2.38983e-01,1.75537e-01,1.97563e-01,-1.44955e-01,-2.17261e-01,8.73214e-02,1.12938e-01,1.54687e-01,6.82837e-02,-1.33838e-01,-3.10690e-01,-2.58207e-01,-1.29292e-02,-1.03375e-02,-1.29225e-01,-3.87540e-01,-1.06212e-01,1.00251e-01,8.37837e-02,4.49407e-02,2.39138e-01,2.60407e-02,-5.28755e-02,4.25399e-02,1.14417e-01,1.10313e-03,1.47238e-01,-2.21670e-02,-1.49990e-01,-2.10622e-01,
-2.64506e-01,-2.17983e-01,-9.57184e-02,-1.05560e-01,-2.75998e-01,7.93194e-02,2.08044e-01,-2.25291e-01,6.26014e-02,-2.01125e-01,-2.08872e-01,2.55001e-01,1.91533e-01,1.12580e-01,2.30696e-01,2.23768e-01,3.07797e-01,-9.18472e-02,-2.68106e-01,2.20778e-01,8.95656e-02,2.76595e-01,1.75328e-01,1.16776e-01,-1.35232e-01,-2.67907e-01,2.30207e-02,2.31762e-01,5.81901e-02,2.18415e-01,
3.70002e-02,2.08408e-01,1.14547e-01,1.19244e-01,-1.35046e-02,-2.78128e-01,1.01529e-01,-2.35733e-01,6.74094e-03,1.17269e-01,2.92767e-01,3.03690e-02,-1.67026e-01,-1.38492e-01,-1.07235e-01,-2.33436e-01,-1.67189e-01,1.06673e-01,-2.02074e-01,2.02203e-01,-1.44256e-01,5.34907e-02,-1.87762e-03,-2.23471e-01,2.99048e-02,-6.42844e-02,-1.34300e-01,1.24005e-01,2.23379e-02,-2.03241e-01,
2.71397e-01,1.03235e-01,-3.00177e-02,-3.30093e-01,-3.14216e-01,-1.67558e-02,5.26737e-02,-1.36508e-01,9.12750e-02,-1.92193e-01,-2.52244e-01,-4.51016e-02,-3.40425e-01,1.78464e-01,-2.77283e-01,-1.44674e-01,-2.20103e-01,2.63397e-01,2.46130e-01,1.36370e-01,-2.70464e-01,-3.12536e-01,-1.47314e-01,-1.93539e-01,2.46913e-01,-2.35931e-01,-2.88800e-01,2.02304e-01,-1.92485e-01,-8.31026e-02,
-1.77826e-01,-2.36362e-01,-5.56851e-02,2.44888e-01,-2.78169e-01,-4.07982e-02,9.78404e-02,-1.73982e-01,-7.27530e-02,3.28943e-01,-2.63626e-01,6.84435e-02,2.00701e-01,2.51948e-01,-4.35273e-02,1.31724e-01,-9.09345e-02,-1.60538e-01,-2.48493e-01,9.67863e-02,4.73331e-02,8.90477e-02,1.81813e-01,-1.45692e-01,2.17746e-01,-1.45444e-01,-1.76693e-01,-6.16037e-02,4.88948e-02,1.42926e-01,
2.37944e-01,-1.49290e-01,1.04760e-01,-3.17930e-01,-2.81297e-01,-1.08668e-01,2.97342e-01,-3.34652e-01,-3.21070e-01,-1.92277e-01,1.74571e-01,-2.43733e-01,-1.02104e-01,-2.31000e-01,-1.74118e-01,-4.43022e-02,1.00896e-01,-2.83568e-01,1.14552e-02,8.36891e-02,-1.76726e-01,1.70618e-01,-2.75321e-01,-1.39429e-01,1.68257e-01,-3.19518e-01,8.15033e-02,-1.38074e-01,-1.40002e-01,-6.68436e-02,
9.45507e-02,7.97470e-02,2.79027e-01,-2.93626e-01,8.53679e-03,-9.63486e-02,-1.92517e-01,2.49452e-01,8.29319e-02,1.81578e-01,-8.77088e-02,-2.97736e-01,1.38219e-01,-1.53295e-01,-9.98394e-02,1.06256e-03,3.69314e-01,7.14867e-02,3.38250e-03,-4.20562e-02,1.97369e-01,1.37206e-01,-7.78001e-02,6.42067e-05,7.23788e-02,-8.02709e-02,2.70747e-01,9.26854e-03,1.39467e-01,1.38824e-01,
-4.05214e-01,-4.98948e-01,1.50225e-03,2.66378e-02,1.91005e-01,-1.51748e-01,1.74265e-01,1.26858e-01,-1.82549e-01,1.09592e-01,6.98704e-02,2.53592e-01,-2.22800e-01,-9.95629e-02,2.21296e-01,-2.25160e-02,5.08771e-02,1.69825e-01,1.40661e-01,-4.01659e-01,-2.40448e-01,1.16122e-01,-1.40269e-01,4.58533e-03,2.48182e-01,-3.96874e-01,-1.35348e-01,-1.12528e-01,-2.83275e-01,-7.86990e-02,
-2.65134e-01,1.47853e-01,1.41401e-01,4.59868e-02,-2.48385e-01,1.46450e-01,2.58368e-01,5.83069e-02,-2.55462e-02,-1.90789e-01,-1.38233e-01,1.52804e-01,-1.72170e-01,9.84006e-02,5.51312e-04,-1.96803e-01,8.42053e-02,9.66284e-02,-3.47577e-02,-4.51995e-02,2.30118e-02,-2.64707e-01,2.07167e-02,-8.79688e-03,1.65930e-01,2.48012e-01,-1.05879e-01,1.06701e-01,5.97594e-02,-3.14370e-01,
9.11188e-02,5.52691e-01,-1.84964e-01,-1.76238e-01,-1.56362e-01,-2.56663e-01,1.88472e-01,7.59204e-02,-1.63624e-01,1.42281e-01,-2.64993e-01,3.22041e-03,2.37869e-01,-3.11920e-01,-9.17588e-03,4.58878e-02,4.43484e-01,3.14507e-01,2.70087e-01,3.77048e-02,-1.88408e-01,1.87984e-01,2.93411e-01,-1.24014e-01,1.62754e-01,4.73699e-02,-6.84299e-02,-3.41342e-02,4.75711e-01,-2.09520e-02,
-2.24097e-01,-7.98818e-02,1.88878e-01,1.92690e-01,2.09467e-01,2.91412e-02,4.68257e-02,-3.18200e-01,-7.74586e-02,-2.13417e-01,1.22545e-01,2.08367e-01,-1.11116e-01,-2.95553e-01,-2.99514e-01,-9.65330e-03,2.09908e-02,-3.89237e-02,2.87540e-01,-2.72421e-01,-3.81264e-01,1.21771e-01,-1.97819e-01,1.92871e-01,2.03198e-01,-7.97051e-02,7.87202e-02,-1.26397e-01,-1.93046e-01,-1.80429e-01,
3.27599e-01,1.86354e-01,-1.21444e-01,-7.10292e-02,-2.19850e-01,-3.77332e-01,-1.47197e-01,-8.27904e-02,7.46635e-01,1.88396e-01,-2.29706e-01,-1.14831e+00,-4.04516e-01,3.21496e-01,-3.00729e-01,-7.52943e-01,-8.46762e-01,-5.46685e-01,-2.24726e-01,-4.99274e-01,1.79993e-01,-2.80402e-01,-1.06730e+00,5.25000e-02,-6.16065e-02,1.36074e-01,5.36376e-01,-1.55742e-01,-1.88214e-01,-3.08895e-01,
7.05877e-02,-4.15293e-01,-4.22014e-01,-9.85549e-02,-3.03372e-01,1.81609e-02,-6.77118e-02,-1.22946e-01,-3.32018e-01,-2.32668e-01,2.40747e-01,3.21846e-02,4.52073e-02,-1.30497e-01,-2.49899e-01,2.86885e-01,-6.27026e-02,-3.98230e-02,2.13823e-01,-2.33108e-01,-6.46516e-02,-3.75583e-01,-1.13691e-01,-3.51267e-01,1.15267e-02,-2.97426e-01,1.53156e-01,-1.62992e-01,-8.54676e-02,-1.02887e-01,
2.65752e-01,-1.37504e-01,-2.37513e-01,1.67889e-02,2.93760e-02,-1.21706e-01,-4.17588e-02,-7.95474e-02,2.80245e-01,-3.34840e-01,-4.32563e-02,-2.30796e-01,-5.20020e-01,1.42122e-01,-2.61788e-01,-8.65264e-02,-8.45935e-01,-8.87527e-01,-1.25484e-01,-1.49961e-01,2.17564e-01,-4.20565e-01,-1.08180e+00,4.38198e-01,3.65677e-02,1.52450e-01,4.92646e-01,-4.16601e-01,-3.63194e-01,2.41556e-01,
1.61710e-01,-3.79255e-01,1.39117e-01,-5.69090e-02,2.81461e-01,-3.46883e-01,1.34229e-02,2.73917e-01,-2.03988e-01,4.75396e-01,2.21303e-01,-5.94644e-01,-1.96403e-01,2.24055e-01,-1.55787e-01,6.83930e-02,1.54258e-01,3.64614e-01,-6.23095e-02,1.91722e-01,2.70315e-01,1.87639e-02,-3.00887e-01,2.69807e-01,-2.74269e-01,1.86942e-01,1.54927e-01,2.30716e-01,-5.76702e-02,-1.19427e-01,
3.09875e-01,1.66056e-01,-2.19293e-01,7.46163e-02,-2.29391e-02,-1.51263e-01,9.83723e-02,2.16449e-01,-1.68912e-01,-1.92844e-01,2.41235e-01,-4.64957e-02,-5.19999e-02,5.54984e-02,3.99500e-02,2.04294e-01,7.41388e-02,-3.06864e-02,6.47029e-03,1.79184e-01,3.59794e-02,-1.23796e-01,-5.22671e-02,1.15880e-01,3.12433e-01,1.51181e-01,-4.30792e-02,3.39353e-02,8.41157e-02,5.72617e-02,
-1.06204e-01,-6.10453e-02,-2.29289e-01,2.14475e-01,2.46892e-01,2.31260e-02,-4.27307e-02,-3.40295e-01,-4.41546e-02,-4.63664e-02,2.30834e-01,6.57604e-02,-9.76191e-02,-3.78402e-01,5.56298e-02,7.77294e-02,1.32846e-01,1.90362e-01,2.56246e-01,-3.52139e-03,1.44951e-01,9.70723e-02,-2.60900e-01,1.01885e-01,1.50671e-01,-3.70570e-01,-3.38600e-01,2.64366e-01,-2.99961e-01,4.95100e-02,
1.32994e-01,-1.46709e-01,-1.18786e-01,-1.77261e-01,2.73486e-01,-2.13102e-01,-1.75847e-01,1.93175e-01,-3.29791e-01,2.17307e-01,-2.06731e-01,-2.18675e-02,-3.26303e-01,3.50763e-02,-2.07229e-01,-1.44783e-02,-3.00927e-02,1.60487e-01,1.81234e-03,-2.98504e-01,-3.16366e-01,-2.66433e-01,-4.28364e-02,-2.35917e-01,-7.93249e-02,-1.29708e-01,1.75516e-01,-2.92621e-01,2.52940e-01,1.51450e-01,
-9.79524e-02,1.15696e-01,-1.21177e-01,1.05046e-02,-2.80608e-01,2.66148e-01,2.90424e-01,-2.28784e-01,7.32402e-02,-1.83200e-01,-1.56759e-02,-1.18308e-02,-2.99895e-01,1.09528e-01,2.15118e-01,1.83417e-01,-1.51950e-01,9.96158e-02,2.88838e-01,-1.36679e-01,2.71030e-01,-1.00085e-01,-2.09665e-01,7.95553e-02,1.94171e-01,-3.12456e-01,-1.33493e-01,9.36025e-02,1.99266e-02,-1.60211e-01,
-2.73853e-01,-7.82548e-02,2.69325e-01,1.72507e-01,-2.91316e-01,3.41850e-01,-2.60569e-01,-8.48807e-03,4.18108e-02,2.79076e-01,-1.11547e-01,6.76921e-01,2.23234e-01,-2.86941e-02,3.70279e-01,6.74737e-02,6.20144e-01,5.34457e-01,1.11003e-01,-1.76443e-01,-1.56442e-01,2.28377e-01,6.56456e-01,-2.50342e-01,1.87510e-01,1.38140e-01,-2.04474e-01,8.04129e-02,1.02978e-01,-1.20917e-01,
-5.02660e-02,-1.89088e-01,-1.52567e-01,-3.76169e-02,2.14085e-01,-2.17077e-01,-8.72458e-02,3.30110e-02,-2.06986e-01,-2.91129e-01,1.93651e-01,2.12412e-01,-4.08878e-04,-1.31401e-01,2.25639e-01,9.75331e-02,-3.08093e-01,-9.21684e-02,-1.87885e-01,-3.11178e-01,6.96347e-02,1.09052e-01,2.05709e-01,1.70464e-01,-2.84637e-01,-1.61760e-01,1.07649e-01,-2.29456e-01,-3.49835e-01,1.32558e-01,
-2.26312e-01,
-1.13587e-01,
2.60206e-01,
2.04554e-02,
6.31371e-02,
1.91368e-01,
2.65684e-02,
-4.40667e-02,
6.55049e-02,
2.90524e-01,
-2.92823e-01,
1.95278e-01,
3.55074e-02,
3.91605e-02,
6.93353e-03,
1.78366e-02,
2.04430e-01,
3.18326e-01,
9.22990e-02,
-4.10184e-02,
4.64002e-02,
1.90478e-01,
1.13156e-01,
-1.35714e-01,
2.79865e-01,
-7.91959e-02,
6.64285e-02,
-2.07076e-01,
-8.53005e-02,
2.67219e-02,
-4.23348e-02,-1.11602e-01,2.86753e-01,1.11077e-01,3.90746e-01,-6.33751e-02,1.15489e-01,1.48653e-01,2.21373e-01,7.59857e-02,5.09341e-02,1.95463e-01,-6.00008e-02,5.97629e-02,-1.34487e-01,2.39244e-01,4.25967e-01,3.33874e-01,2.60849e-01,-2.03970e-01,2.61688e-01,-5.99302e-02,2.22835e-01,-6.07864e-02,3.65728e-01,1.48588e-02,-1.75908e-01,-9.43202e-02,-2.45334e-01,-1.04406e-02,
-2.13848e-01,2.98007e-01,-4.12693e-02,-1.79470e-02,1.79554e-01,1.66253e-01,-2.43567e-01,1.22600e-01,2.24138e-01,-4.05827e-01,-2.16207e-01,4.33729e-02,1.12778e-01,-1.61855e-01,-2.39914e-01,-3.60444e-01,4.59252e-02,9.53143e-02,-2.90709e-02,-3.98023e-02,-1.02842e-01,-1.25644e-01,8.12979e-02,-2.19253e-01,-3.51809e-01,9.29282e-02,2.18646e-01,-2.16528e-01,-3.20144e-01,7.05771e-02,
2.70434e-01,1.34484e-01,-2.24983e-01,-1.08688e-01,-2.07208e-01,2.26048e-01,1.36677e-01,6.18849e-02,-4.38874e-02,3.94824e-02,-3.71759e-02,-1.55031e-01,9.45144e-02,1.81203e-01,-2.32310e-01,1.52910e-01,-2.11561e-01,1.40061e-01,-1.96410e-01,-2.49788e-01,-3.10189e-01,1.24231e-01,-3.61707e-01,8.39736e-02,-2.27445e-01,4.12056e-02,2.78595e-01,-1.77708e-01,-5.63993e-03,3.09254e-01,
-8.27145e-01,-2.14077e-01,3.81836e-02,1.16705e-01,-2.73450e-01,-6.70522e-01,2.10172e-01,6.56731e-02,-2.70797e-01,1.63576e-01,-6.06279e-02,-5.00870e-01,-1.20181e-01,-1.03376e-01,2.69626e-01,1.51853e-01,-8.56849e-02,1.88867e-01,-9.63245e-02,1.46222e-01,-4.93488e-01,-1.13749e-01,3.20947e-01,5.90511e-01,-3.38405e-01,-2.19449e-01,1.05969e-01,6.71616e-02,-7.82472e-01,1.54269e-01,
-3.99388e-01,-9.48694e-02,-2.56095e-01,2.17417e-01,-1.72634e-01,-3.74982e-01,1.41087e-02,1.63270e-03,-2.33046e-01,5.40787e-02,1.11740e-01,-1.33213e-01,1.59895e-02,1.52664e-01,-2.97474e-01,-1.99801e-02,1.40177e-01,1.22064e-01,-2.69787e-01,1.08125e-01,1.98231e-01,-3.04402e-01,-3.37162e-01,-1.86856e-01,-3.86358e-01,9.79969e-02,-2.04208e-03,-1.77574e-01,-8.88174e-02,5.34419e-02,
1.08655e-01,1.97183e-02,-1.86382e-01,4.38646e-02,-1.89904e-01,1.21929e-01,-1.64698e-01,-3.12607e-01,2.16665e-01,-1.28792e-01,-2.50452e-01,-7.95656e-02,2.92147e-02,-1.20574e-01,-3.05904e-01,2.79580e-02,1.33100e-01,-2.50114e-01,1.82343e-03,1.62463e-01,9.16867e-02,1.94199e-01,2.24746e-02,-1.09295e-01,1.14293e-01,1.99052e-01,-1.43218e-01,7.65947e-02,-1.68181e-01,2.62295e-01,
2.16698e-01,1.50526e-03,2.68075e-01,2.27743e-01,2.31569e-01,-2.90735e-01,-2.67372e-01,-9.42696e-02,2.80621e-01,-2.26350e-01,-4.09724e-02,-5.27901e-02,2.38825e-01,-7.07594e-02,-8.19755e-02,1.93199e-01,-1.31702e-01,-2.78148e-01,-2.44778e-01,1.26746e-01,-8.40867e-02,2.07303e-01,-2.93192e-01,-4.18593e-02,-8.90539e-02,-8.22446e-02,-1.93941e-01,1.86173e-01,-3.13085e-01,-1.47175e-01,
-1.19542e-01,-6.14145e-02,1.10330e-02,4.47545e-03,2.15963e-02,1.30338e-01,-2.45512e-02,-3.52775e-01,1.13827e-01,-3.06300e-01,8.99938e-02,-1.05071e-01,-3.15901e-02,1.93520e-01,1.23072e-01,6.38630e-02,-3.34307e-01,-1.30454e-01,1.68968e-01,-2.80427e-01,-6.56919e-03,-2.52118e-01,1.42172e-01,-2.91826e-01,-2.64900e-01,-7.66392e-02,5.28861e-02,3.12132e-01,2.44046e-01,-1.84315e-01,
-3.74442e-01,6.04580e-02,-3.34980e-01,1.57045e-01,2.47224e-01,-1.54216e-01,-3.73326e-01,-1.80037e-01,-1.08128e-01,-9.86397e-03,-1.84463e-01,-3.04351e-01,1.71283e-01,5.34234e-02,2.03702e-01,1.86347e-01,1.93876e-01,-3.35387e-01,1.36431e-01,-3.20946e-01,6.58247e-02,9.77253e-02,2.52836e-01,1.02116e-02,2.89609e-02,4.53210e-02,-3.13984e-01,-7.47302e-02,-1.52264e-01,-1.72099e-01,
-2.93179e-01,2.50596e-01,9.36578e-02,-8.37902e-02,2.97137e-01,-2.91895e-01,-1.31353e-02,2.50223e-01,-2.33127e-01,-2.02701e-01,1.44508e-01,-1.21918e-01,2.95157e-01,-1.14863e-01,2.45442e-01,3.90104e-02,-1.46859e-01,5.39848e-02,1.44194e-01,2.30183e-01,4.99696e-02,3.04674e-01,2.53876e-01,-1.60775e-01,-3.13434e-01,7.61104e-02,2.74343e-01,8.22034e-02,-5.38084e-03,1.38846e-01,
2.60155e-01,-1.68889e-01,-2.07886e-01,-1.17762e-01,-3.15743e-01,-2.45126e-01,-2.14911e-01,-2.20505e-01,9.15716e-02,-2.57194e-01,-4.76340e-02,-9.39429e-04,1.34490e-01,-2.62387e-01,-2.88293e-01,2.90996e-01,1.32875e-01,-1.53120e-01,1.00869e-01,-3.47323e-02,2.06563e-01,2.41108e-01,1.72365e-01,-1.82057e-01,1.66794e-02,2.60797e-01,-2.75992e-01,1.10741e-02,-2.44699e-01,2.01492e-01,
-7.20278e-02,-2.65494e-02,1.93469e-01,-1.92573e-01,1.97067e-01,-7.59469e-02,-3.15411e-01,-6.50463e-02,1.27623e-02,-9.45223e-02,2.59025e-01,-2.84113e-01,2.47910e-01,4.89060e-03,1.91134e-01,2.15454e-01,-1.30545e-01,-3.24753e-01,-2.38675e-01,3.01418e-01,5.09845e-02,-1.47136e-02,-1.21239e-01,6.30921e-02,-2.04571e-01,-9.19287e-02,-2.36297e-01,5.03281e-03,2.36413e-01,9.10495e-02,
-3.51072e-01,-2.90686e-01,2.31337e-01,2.74900e-01,1.14907e-01,-9.08275e-02,-3.27707e-01,-6.29252e-02,7.67356e-02,1.52733e-01,-4.42196e-02,-1.60577e-01,-2.82950e-01,1.52979e-01,2.74543e-01,3.43241e-04,3.41866e-01,1.70408e-01,2.58413e-01,2.35306e-01,1.55407e-01,6.65209e-02,2.76839e-01,-2.32206e-02,-1.75860e-01,-3.09646e-03,6.97113e-02,-2.76367e-01,-1.48452e-01,2.28157e-01,
-2.46166e-01,-8.44037e-02,4.60137e-02,-1.13533e-01,1.55422e-02,1.30795e-01,-3.48940e-02,-4.41042e-02,-2.93268e-01,1.33008e-01,-3.16540e-02,2.21728e-01,-3.81822e-02,2.79678e-01,-1.41100e-01,8.60125e-02,-6.56476e-02,1.76878e-01,-1.25966e-01,-9.16128e-02,-2.04183e-01,2.62673e-01,-1.05884e-01,-1.32370e-02,1.00554e-01,-1.55042e-01,-1.28592e-01,-1.19110e-01,-8.91974e-02,1.06941e-01,
7.40379e-02,1.37130e-01,-2.57790e-01,-3.66336e-02,-2.83155e-02,-2.67935e-01,2.14640e-01,1.70624e-01,6.80905e-02,2.08637e-01,2.80831e-01,1.92807e-01,-3.23631e-01,-3.11838e-01,-3.29853e-01,-1.70377e-01,-8.47256e-02,-1.30808e-01,-1.83793e-01,-6.25571e-02,1.70945e-01,2.60760e-01,-8.02348e-02,-6.67002e-02,-1.92805e-01,9.96073e-02,2.40349e-01,-2.80792e-02,9.56463e-02,-2.02333e-01,
7.52463e-02,-7.52266e-02,9.71692e-02,-1.33349e-01,-9.16663e-02,-1.18601e-01,2.39533e-01,-4.91456e-02,2.55219e-01,2.76955e-01,2.60566e-01,-3.30538e-02,7.13602e-02,2.54196e-01,8.36956e-02,1.31787e-01,-4.62697e-02,-2.53249e-01,-1.51642e-01,-3.40259e-03,-5.83882e-02,-8.39667e-02,3.71582e-02,-9.78520e-02,2.20807e-01,-2.32867e-01,5.45418e-02,1.19499e-01,1.69999e-01,6.68859e-02,
2.90842e-01,-2.07260e-01,3.12770e-01,5.78900e-02,2.78568e-03,2.22597e-01,2.27816e-01,-2.02744e-02,1.40791e-01,5.68773e-02,-2.56147e-01,-1.65889e-01,5.20290e-02,2.21299e-01,-2.95635e-01,-2.31625e-01,1.12895e-02,-3.11632e-01,5.98843e-02,-2.44565e-01,-1.99670e-01,2.22450e-01,-3.03769e-01,-9.44169e-02,-1.45092e-01,7.73186e-02,1.64562e-01,-2.33499e-01,-6.07469e-02,-1.64863e-01,
3.83356e-01,1.46907e-01,2.93162e-01,1.81184e-03,-2.32091e-01,1.66413e-01,-2.07458e-01,-1.22760e-01,1.79960e-01,-2.95359e-01,-2.11056e-01,-2.58301e-01,1.97270e-01,-2.10438e-01,8.03793e-02,7.17745e-02,7.63086e-02,1.97656e-01,1.35580e-01,-1.67932e-01,7.24855e-02,-1.51267e-01,-3.09428e-01,5.29724e-02,-4.69721e-02,-1.25248e-01,-8.15128e-02,1.49140e-01,2.76056e-01,-1.72624e-01,
-7.41605e-02,-8.83768e-02,-9.20533e-02,2.44840e-01,2.59759e-02,2.17997e-01,-2.99513e-01,7.39227e-02,-3.04780e-02,6.19610e-02,-1.45685e-02,1.56181e-01,-8.53610e-03,-2.38743e-01,-1.00338e-01,1.37782e-01,2.38786e-02,3.26236e-01,1.89875e-04,-1.96418e-01,2.95996e-01,-1.57337e-01,-1.95258e-02,1.61149e-01,1.79698e-01,-2.37855e-01,-2.55682e-01,2.70757e-01,8.02601e-02,-1.27368e-01,
-2.40359e-01,-1.03649e-01,-1.65864e-01,-1.65635e-01,2.32168e-01,-2.15031e-01,-2.50645e-01,-2.58402e-01,-1.72468e-01,1.04911e-01,7.96465e-02,-1.53076e-01,-2.28061e-01,2.46223e-01,-1.48469e-01,7.65811e-02,-1.80627e-01,-2.78057e-01,2.13556e-01,1.07519e-01,2.38022e-01,-1.80159e-01,1.17361e-01,2.78743e-01,-8.64233e-02,3.87972e-03,-9.15253e-02,7.79423e-02,-1.06038e-02,-1.12124e-01,
-2.05402e-01,6.61588e-02,-2.77951e-01,-1.62090e-01,-2.74540e-01,-1.26614e-01,-1.66585e-01,2.98931e-01,-2.68524e-01,-1.44863e-01,-2.96799e-01,-4.39861e-02,-1.90932e-01,2.69482e-01,6.28465e-02,-1.35737e-01,-4.66145e-02,-1.20050e-02,-2.78283e-02,1.34485e-01,-3.00811e-01,-3.10285e-01,3.57832e-02,1.16994e-01,-2.33542e-01,2.82237e-01,-1.78837e-02,2.79020e-01,-2.63939e-01,6.16239e-02,
-7.56765e-02,2.45779e-02,-1.49576e-01,5.01600e-02,3.22725e-01,-7.64339e-02,-2.36108e-01,1.34872e-01,3.43825e-02,1.13793e-01,-1.06079e-01,1.08536e-01,3.81055e-01,-2.72614e-01,9.77823e-02,2.81637e-01,-1.19650e-02,-2.67017e-01,-1.59099e-01,1.36863e-01,9.34822e-02,-4.13913e-02,-1.70527e-01,-8.19574e-02,2.26617e-01,1.33257e-01,-1.53764e-01,1.21252e-01,1.32172e-01,-2.64513e-01,
-2.57929e-01,-9.48691e-02,-2.12298e-01,-2.08030e-01,-1.62949e-01,-1.94120e-01,-1.23219e-01,-2.03115e-01,1.15866e-01,-5.10108e-02,2.94286e-01,2.76834e-01,-2.11810e-01,4.91604e-02,1.59077e-01,1.49566e-01,-2.11563e-01,-4.84700e-02,-2.96064e-01,1.69834e-01,-4.27481e-02,-1.79238e-02,-2.61432e-02,2.56393e-01,8.11340e-02,-1.81843e-01,3.54737e-04,3.58194e-02,-8.54549e-02,-1.65748e-01,
-4.30382e-02,1.69155e-01,1.89222e-01,-5.20849e-02,1.91356e-01,-2.17450e-02,2.37190e-01,3.51696e-02,8.60607e-02,1.71879e-01,6.63187e-02,-6.63772e-02,1.61528e-01,1.72000e-01,-2.00688e-01,-4.51173e-02,9.44694e-02,-2.82872e-01,4.79380e-02,2.47539e-01,4.32477e-02,1.77958e-01,3.34214e-02,-2.39979e-01,2.23976e-01,2.04694e-01,2.86696e-02,-1.28352e-01,-7.81566e-02,1.37548e-01,
-1.87277e-02,-1.05641e-01,1.32027e-02,-4.66845e-02,9.55999e-02,6.64827e-02,-1.76733e-01,1.72808e-01,5.36118e-02,-2.01957e-01,-1.95076e-01,-2.45154e-01,-1.48907e-01,-1.58727e-01,1.36259e-01,-2.47575e-01,9.20839e-02,-3.12139e-02,1.52769e-05,-2.20770e-01,1.84527e-01,-1.66243e-01,3.85413e-02,-1.14811e-01,-2.41168e-01,1.88944e-02,-1.41059e-01,-2.09374e-02,1.46682e-01,-1.27261e-01,
-2.73067e-01,-1.87997e-01,2.47386e-01,7.31086e-02,-5.70684e-02,-1.87187e-01,9.49090e-02,-9.27331e-02,1.57317e-01,1.54910e-01,-2.36223e-01,9.18246e-02,-2.00838e-01,1.70541e-01,1.78562e-01,1.97906e-01,1.30211e-01,-4.02156e-02,-1.92836e-02,1.89242e-01,-1.44902e-01,-1.72709e-01,1.94983e-01,5.74030e-02,-7.02723e-03,1.30854e-01,-6.50586e-02,-2.62502e-01,1.32611e-01,-1.14386e-01,
2.36724e-01,-1.49211e-01,6.59924e-02,-2.31807e-01,-3.19427e-01,-2.61558e-01,2.50792e-01,-9.97920e-03,-1.90170e-01,-7.65262e-02,-1.41440e-02,-6.39965e-03,1.66538e-01,4.29701e-02,-1.78995e-01,-1.21234e-01,-3.77053e-03,-2.33492e-01,-3.60060e-01,1.75753e-01,-2.68587e-02,2.83489e-01,2.33690e-01,6.26336e-02,2.39193e-01,1.24195e-01,1.28844e-01,1.31726e-01,1.28519e-01,1.14257e-01,
-2.87989e-01,2.12472e-01,-2.43489e-01,-8.40713e-02,-6.20411e-02,2.60017e-01,-2.57838e-01,1.67156e-01,-2.65379e-03,-2.58427e-01,-2.04168e-01,1.02056e-02,-1.41661e-01,1.98660e-01,-1.81352e-01,-1.16082e-01,2.63739e-01,-1.10754e-01,2.64290e-01,1.85967e-01,2.78392e-01,-1.12672e-01,8.52404e-02,-1.70449e-01,-2.21565e-01,-1.56005e-01,1.47549e-01,1.03121e-01,1.30828e-01,2.29582e-01,
-1.15523e-01,-2.04624e-02,-2.11943e-01,1.27583e-01,2.25769e-01,-1.63441e-01,1.18852e-02,-2.12392e-01,5.04193e-02,-7.33141e-02,1.11785e-01,-1.45364e-01,2.22689e-01,1.38379e-01,-2.92594e-03,-3.17244e-01,1.64010e-01,-1.69430e-01,-2.48317e-02,3.11792e-01,-2.94407e-01,2.84311e-01,5.21788e-02,1.55477e-01,3.25580e-02,-1.62059e-01,-2.81177e-01,-1.00798e-01,2.26064e-01,-1.98301e-01,
-1.71699e-01,9.10275e-02,1.57019e-01,1.62359e-02,2.70174e-01,-2.48567e-01,1.67995e-01,-3.30960e-01,7.38816e-02,-1.95481e-01,2.27522e-01,-1.75429e-01,1.89457e-01,1.12373e-01,-3.08792e-01,-1.71654e-02,2.77841e-01,-5.16848e-02,-2.61477e-01,-2.72880e-01,1.77955e-03,-1.60112e-02,-2.42448e-01,-1.40701e-01,1.94077e-01,2.23711e-01,-2.34219e-01,-3.07605e-02,1.70551e-01,-2.57713e-01,
9.93478e-02,
2.12041e-01,
3.25666e-01,
-1.27485e-02,
1.46190e-01,
-1.87288e-01,
-1.46295e-01,
1.04533e-01,
1.81049e-01,
-8.68585e-02,
-1.88039e-02,
-4.41418e-02,
-1.37533e-01,
-6.47808e-03,
6.34196e-02,
-1.03491e-01,
-2.78945e-01,
2.09380e-03,
1.56180e-01,
1.01577e-01,
1.47004e-01,
8.79029e-02,
1.83878e-02,
8.74871e-02,
1.27172e-01,
3.78791e-01,
-1.64237e-01,
1.14974e-01,
1.05625e-01,
-9.73357e-02,
3.01478e-02,1.18714e-01,-6.53919e-02,-2.42821e-02,1.32362e-01,1.63253e-01,-1.51004e-01,-1.33170e-01,1.07007e-01,1.95404e-01,-2.43351e-02,-3.56273e-01,4.83720e-03,4.03931e-01,-2.79297e-01,2.99860e-01,3.58813e-01,9.35076e-02,4.70860e-01,2.99228e-01,1.56416e-01,-1.29388e-01,-2.33049e-01,2.83920e-01,-3.23863e-01,2.30934e-01,7.14268e-02,1.68397e-01,-3.02240e-01,-3.42156e-01,
2.03783e-01,-2.49197e-01,3.02524e-01,-2.52445e-02,-2.30039e-01,-2.78429e-01,-3.14938e-01,-3.31292e-01,-2.78857e-01,8.11130e-04,-1.73250e-01,-1.25743e-01,-2.68023e-03,-7.62693e-02,7.38172e-02,-1.96334e-01,-1.47977e-01,-7.95041e-02,1.80381e-01,-1.68382e-01,3.54039e-01,2.12941e-01,2.75072e-01,1.89782e-01,3.41881e-01,3.43885e-01,-1.96726e-01,6.31245e-02,-1.83375e-01,-2.42287e-01,
3.54709e-02,-4.30052e-01,-1.30746e-01,2.38628e-01,2.81555e-01,-3.99958e-02,2.65665e-01,2.76815e-02,3.63174e-01,-3.85970e-01,7.41446e-02,-1.82262e-01,1.64508e-02,-4.47292e-01,-3.14878e-01,-1.64224e-01,9.62757e-02,-8.59873e-02,-5.43992e-01,-3.03585e-02,1.88249e-01,-2.87247e-02,3.97647e-01,-4.55475e-01,3.53149e-01,-3.06174e-01,-3.98204e-01,2.87294e-01,-3.28763e-02,5.48465e-02,
4.39548e-01,-1.94089e-01,1.50618e-01,-1.78333e-02,2.30873e-02,3.40253e-01,-3.94758e-01,1.58120e-01,8.21313e-04,8.53443e-02,3.32063e-01,-1.83351e-01,-1.35440e-03,3.87234e-01,-3.36867e-01,1.14060e-01,1.11047e-01,9.23981e-02,9.74827e-02,1.20640e-01,-2.74436e-01,1.55719e-01,6.62236e-02,-8.52372e-02,-3.91849e-01,3.11995e-01,-1.13528e-01,-3.63515e-01,2.89163e-01,2.25152e-01,
1.61629e-01,3.39552e-01,-3.27236e-02,2.26093e-01,-2.69979e-01,9.54520e-02,1.60226e-01,2.62441e-01,-2.92661e-01,-1.67978e-01,1.75965e-01,-1.64549e-01,-6.29061e-02,-5.73580e-02,3.43003e-01,-2.67207e-01,2.50925e-01,8.52110e-02,-1.66726e-01,5.51544e-02,-2.54973e-01,-2.07815e-01,-3.74850e-01,7.53885e-03,-1.42783e-01,1.69404e-01,-2.59664e-01,1.44494e-01,2.58013e-01,-1.87302e-01,
-4.73952e-01,
-5.11639e-01,
5.68078e-01,
-6.21007e-01,
-1.01742e-01,
