// Neural Network File Format by Kyle Julian, Stanford 2016
6,5,5,30,
5,30,30,30,30,30,5,
15
499.000000,-3.141600,-3.141600,100.000000,0.000000
36656.000000,3.141600,3.141600,472.000000,1200.000000
17688.500000,0.000000,0.000000,249.000000,532.000000,9.330048
36157.000000,6.283200,6.283200,372.000000,1200.000000,423.773936
-6.30346e-02,1.07383e+00,-8.32923e-01,2.81275e-02,1.06328e-01,
-1.21722e-01,-8.55862e-01,9.05706e-01,5.25739e-03,1.07956e-01,
-1.41348e-01,-3.88674e-01,3.78384e-01,3.54893e-02,-3.20976e-01,
-2.94787e-02,4.13485e-01,-6.98154e-01,1.27498e-01,-1.50887e-01,
-5.84259e-01,-3.71217e-01,4.65760e-01,6.95186e-03,6.37770e-02,
2.39979e-02,-7.52433e-01,4.98056e-01,1.36764e-01,2.04204e-01,
3.80663e-02,-1.72524e-02,-1.71374e-01,2.30065e-01,-4.80196e-01,
-2.46108e-01,-8.46212e-01,3.08542e-03,-6.53473e-02,1.19092e-01,
-3.06703e-03,-6.99671e-02,-2.12275e-01,1.69038e-01,-5.67173e-01,
-2.52809e-02,-6.29388e-02,4.95553e-01,4.83310e-02,-6.49300e-01,
7.37982e-02,-2.35181e-01,4.29945e-01,-5.99739e-02,2.65558e-01,
1.47114e-01,7.76640e-01,-5.49286e-01,8.45444e-02,-2.01940e-01,
-1.60993e-01,5.43756e-01,9.10171e-02,8.53049e-02,-3.48580e-02,
3.39808e-02,-7.80319e-01,-3.94022e-01,2.05829e-01,-2.05525e-01,
1.63854e-02,5.54815e-01,1.03343e-01,2.09187e-01,-6.57955e-01,
4.95127e-02,-4.00040e-01,-4.97386e-01,2.31320e-01,-3.09254e-01,
-1.84111e-01,1.52444e-01,6.03773e-01,-6.61543e-02,2.24287e-01,
-8.98297e-03,1.28053e-01,-3.17849e-01,-1.47378e-01,4.73806e-01,
1.41650e-02,9.24152e-01,3.39027e-01,2.21193e-01,-4.10849e-01,
6.64438e-02,-7.05265e-01,8.98447e-02,7.98964e-02,-6.07291e-01,
-7.08566e-01,2.63474e-01,-4.59440e-01,-9.17628e-03,4.03120e-02,
1.60666e-02,4.84534e-03,-6.97135e-04,2.87574e-01,-1.07782e-01,
-1.15536e-01,-4.87760e-01,-8.00603e-02,5.53016e-02,9.30662e-02,
1.49305e-02,1.38839e-01,-2.89431e-01,-2.35905e-02,4.09149e-01,
3.06135e-01,-3.65704e-02,-3.17937e-02,1.57141e-01,1.28416e-01,
1.35054e-01,1.46440e-01,-5.65950e-02,-4.27503e-02,-7.42233e-01,
-8.53692e-03,2.87883e-01,4.31774e-01,1.80534e-01,-3.24999e-01,
-5.57292e-01,1.46646e-01,-3.31166e-02,8.99485e-02,-5.15583e-01,
1.47814e-01,-7.82604e-01,7.68986e-01,-5.65205e-03,1.98472e-01,
-1.00456e-01,5.84357e-01,-5.97208e-01,4.56287e-02,5.06782e-03,
-2.63030e-01,
-2.76195e-01,
6.68465e-02,
-2.43770e-01,
-3.00922e-01,
-1.18004e-02,
4.24422e-02,
-1.47429e-01,
-6.47170e-02,
-2.52622e-01,
2.72204e-01,
-1.25550e-01,
1.10245e-01,
-1.95460e-01,
-7.49816e-02,
-1.40965e-01,
8.63971e-02,
-2.09718e-02,
-1.93702e-01,
-3.12220e-01,
-3.09884e-01,
9.76997e-02,
1.12429e-01,
2.83967e-01,
-3.61195e-01,
-1.95450e-01,
-8.46644e-02,
-3.32950e-01,
-2.40890e-01,
-7.04602e-02,
-3.69749e-01,-7.76648e-01,-2.35793e-01,3.34146e-02,-2.66445e-02,-7.40940e-01,2.30301e-01,8.35719e-01,-2.02519e-01,-1.01402e+00,-7.26706e-02,-5.18748e-01,1.81235e-01,-5.06193e-01,2.21207e-01,-9.88430e-02,2.09818e-01,-5.92543e-01,4.66226e-01,1.19289e-01,4.88023e-01,3.12890e-01,-2.61542e-01,1.89889e-02,1.13813e-01,-8.32977e-01,-1.08758e+00,-1.36904e-02,3.86030e-01,-7.08494e-01,
-4.09551e-02,-1.13879e-01,-9.76855e-02,-1.05952e-01,4.20009e-01,2.10560e-01,1.82651e-01,-3.31273e-01,-2.62760e-01,-2.25779e-01,-1.97486e-02,-2.86555e-01,2.82623e-02,-4.82888e-02,1.01276e-01,-2.40987e-01,9.40427e-02,-1.97747e-01,6.32047e-02,1.92287e-01,3.70282e-01,-4.08926e-02,3.63495e-02,7.06219e-02,-1.71533e-01,8.94400e-02,-1.93677e-02,-1.04012e+00,-5.54538e-01,7.87305e-02,
3.60822e-03,1.21731e-01,2.09361e-01,1.81921e-01,-5.30452e-01,2.24062e-01,3.65101e-01,6.17166e-02,-1.28037e-01,-2.56235e-02,5.28125e-02,4.46242e-01,-7.04495e-02,1.54139e-01,2.63242e-01,1.26568e-01,-1.34978e-01,3.99485e-01,-2.62988e-01,1.64363e-01,-2.67034e-01,3.73091e-01,-3.28062e-01,-1.95419e-01,2.39640e-01,5.01074e-01,-3.72877e-02,2.56419e-01,-6.16120e-02,-5.88682e-02,
5.87407e-02,-7.99334e-02,1.68233e-01,-5.34454e-01,8.62342e-01,-4.46279e-02,1.11861e-01,2.28994e-01,1.33399e-01,5.26344e-01,-4.98969e-01,-6.93648e-01,5.62049e-01,-2.13801e-01,-4.39625e-01,7.21407e-02,-2.45623e-02,-3.09107e-02,-2.29897e-01,-6.63445e-01,3.73309e-01,-8.01255e-03,8.39658e-02,4.35585e-03,-3.84312e-02,-1.22330e-01,6.30746e-02,6.19657e-01,3.27466e-01,3.61554e-01,
4.28084e-01,2.22619e-01,-1.40283e-02,-3.47761e-01,1.33217e-01,4.55678e-03,-3.12497e-01,6.77276e-01,-1.08670e-01,3.37030e-01,-2.96827e-01,6.66602e-02,-7.55364e-02,-3.45347e-01,-5.58336e-01,-1.12980e-02,8.54002e-02,-1.26817e-01,-1.99871e-01,-1.23284e+00,2.36692e-01,2.88192e-01,2.93709e-01,1.81745e-01,-2.40789e-01,-7.49630e-01,1.29627e-02,1.04174e+00,5.08810e-01,-3.04240e-02,
-1.40729e+00,-3.64223e-01,-2.71963e-01,1.16214e-01,2.33051e-01,-3.54375e-01,-4.32025e-02,5.66444e-02,-2.62404e-01,-1.92837e-01,3.24618e-01,-3.52257e-01,3.96059e-01,4.62651e-01,-8.68237e-03,-1.16283e-01,1.56265e-01,-1.94850e-02,4.00372e-01,4.88610e-01,1.84824e-01,2.92923e-03,-2.02038e-01,2.13418e-01,2.39240e-01,5.93920e-02,1.32568e-01,2.47646e-01,-1.34182e-01,-1.01786e-01,
3.14928e-01,3.45189e-01,-1.78146e-02,2.32255e-02,2.63404e-01,-4.96114e-02,-1.79339e-01,-9.12576e-02,1.71344e-01,2.90833e-01,-1.31138e-01,-3.50063e-01,-2.83945e-02,-1.86910e-03,-1.60351e-01,-7.97774e-04,-3.97180e-02,-1.59024e-01,-9.60042e-02,-7.39849e-01,-5.07500e-02,7.49703e-02,3.58718e-01,1.45380e-01,3.42478e-01,-1.17113e-01,-3.12481e-02,4.63761e-01,-9.80379e-02,8.48336e-02,
2.32673e-01,-2.76731e-01,7.13987e-02,3.28400e-01,1.96022e-01,1.79138e-01,-5.17629e-02,-1.45496e-01,2.12603e-01,1.00361e-01,-1.01332e-01,-3.06627e-01,2.14638e-01,1.73335e-02,2.41381e-02,6.43182e-02,1.67548e-01,2.22892e-01,-9.39781e-02,3.80388e-02,-8.98049e-02,4.54372e-01,2.16116e-02,3.70179e-01,1.50634e-01,-7.64611e-01,-4.88246e-02,-1.39539e-01,-1.54405e-01,-1.29683e-01,
1.64831e-01,-1.07551e+00,-2.50669e-01,-3.84257e-02,-3.28578e-01,-6.56774e-02,-4.02967e-02,2.95276e-01,3.03515e-01,1.10975e-01,1.67629e-01,1.52516e-01,1.07245e-01,2.20910e-01,-1.88362e-01,4.24079e-01,2.25733e-01,-2.56744e-01,-2.36123e-01,3.47763e-01,8.00651e-02,-4.67407e-02,3.05355e-03,4.23561e-01,1.24175e-02,-3.25743e-01,2.70514e-01,-3.28411e-01,-3.21763e-01,-4.74503e-01,
-3.41714e-01,-5.19527e-01,4.73182e-01,-8.22080e-01,-9.66431e-02,2.22599e-01,1.46128e-01,-3.34450e-01,3.18355e-01,8.30928e-01,1.26515e-02,1.82243e-01,-1.60830e-01,3.18445e-01,-4.41578e-01,-2.04119e-02,-5.72023e-01,-3.34685e-01,-1.56070e-01,2.20786e-01,-7.15858e-01,-1.53329e-01,-2.94326e-01,-4.55774e-02,-6.17550e-02,-1.95348e-01,-3.19064e-01,-9.40721e-01,7.66408e-02,3.15857e-01,
-7.05970e-01,-8.97724e-01,-7.12043e-01,8.70361e-01,-1.33853e+00,-8.90665e-02,-4.58064e-01,1.92193e-01,-2.29113e-01,-2.07752e-01,2.24750e-01,-3.97325e-01,1.18201e-01,-2.49444e-02,-2.28791e-01,-2.42979e-02,1.28352e-01,-2.21573e-01,1.53130e-01,7.73679e-01,-3.03107e-01,-1.11946e-01,-2.08540e-03,8.44447e-02,-1.36542e-01,4.49158e-01,3.65279e-01,-3.55949e-01,-7.47080e-01,-4.93854e-01,
-1.19868e+00,-7.80376e-02,-2.24637e-01,-1.08830e+00,-1.89729e-01,-1.00512e+00,-1.27477e-01,-7.55675e-04,-1.05637e-01,1.15992e+00,2.08392e-01,-3.54362e-01,-2.85637e-01,3.58096e-01,-4.36803e-01,5.43847e-01,-9.71539e-01,-4.07825e-01,-6.06027e-01,-2.10264e-01,-6.11957e-01,1.32636e-01,2.85099e-01,3.23800e-01,1.78433e-01,-4.43571e-01,-2.19620e-01,-8.00486e-01,-2.47069e-01,-1.20359e-01,
1.13623e-01,2.96017e-01,-2.92217e-01,-2.92403e-01,2.52172e-01,-3.01849e-02,1.19509e-01,1.02064e-01,3.20281e-02,-2.02051e-02,-2.22124e-01,-2.18583e-01,-1.85836e-01,2.96340e-03,-1.26445e-01,1.08622e-01,-1.81201e-01,-2.39667e-01,-1.88425e-01,1.60852e-01,-1.38065e-01,-1.29997e-01,1.09696e-01,1.08233e-01,-6.06110e-02,-5.79573e-02,3.08577e-01,-1.71633e-01,-2.29647e-02,8.71237e-02,
-2.54058e-01,1.78257e-01,-2.90455e-01,-3.72707e-01,1.25469e-01,-4.48533e-01,9.17476e-02,3.20404e-01,-8.47859e-02,5.33842e-01,1.27137e-01,-3.26410e-02,2.45939e-01,1.54507e-01,-3.93556e-01,1.32612e-02,3.25209e-01,1.86010e-01,-4.92732e-03,2.31019e-01,-2.15586e-01,6.37531e-01,-1.44508e-02,1.70162e-01,1.10877e-01,3.35680e-01,-1.62024e-01,1.72152e-01,2.45373e-01,-4.82421e-02,
-3.03557e-01,-2.03123e-01,-7.03695e-02,-1.15608e-01,1.62297e-01,2.18808e-01,1.44227e-01,2.01617e-01,-9.46433e-02,-7.76200e-02,-1.53129e-01,-1.77081e-02,-1.86637e-01,5.23458e-01,-1.05425e-01,6.40154e-02,-3.72000e-01,-7.73829e-02,7.77239e-01,7.02484e-02,1.68794e-01,-1.65333e-01,-1.46034e-01,-5.84639e-03,-1.79821e-01,-8.50075e-02,5.09863e-03,3.38691e-01,2.47838e-01,-1.91985e-01,
-1.13636e-01,-3.24496e-01,-9.13842e-02,4.47051e-02,1.13750e+00,-3.04982e-01,-2.43929e-01,-1.30943e-01,-2.72359e-01,-1.74575e-01,2.06131e-01,2.30888e-02,5.84953e-02,3.61081e-01,1.11064e-01,1.87150e-02,1.00503e-01,3.08999e-02,1.05641e-01,-1.05270e+00,2.71210e-01,2.87386e-01,3.20002e-01,-6.46828e-03,-8.23298e-02,-2.70295e-01,-7.90777e-02,8.23084e-01,-2.42504e-01,-3.65416e-01,
2.13244e-01,-6.93056e-02,2.56374e-01,-2.91387e-01,4.72326e-01,2.29025e-01,1.18288e-01,1.38533e-01,4.92910e-01,5.68078e-01,-3.44677e-01,4.24493e-01,3.00494e-01,-6.62327e-01,-7.84464e-01,-3.40868e-01,-4.07766e-01,-6.48349e-01,-2.13673e-01,5.95449e-01,8.89469e-02,2.47692e-01,4.08624e-01,-1.34086e-02,-2.49556e-02,-3.25819e-01,6.14984e-02,1.08605e+00,-2.16414e-01,4.85866e-01,
1.59593e-01,5.52675e-01,2.59301e-01,2.37516e-01,-4.56062e-01,2.41236e-01,5.73105e-01,-2.35942e-01,8.94083e-01,1.01063e-01,8.82038e-02,-5.16195e-01,-4.65294e-01,-2.90046e-01,-3.12330e-01,-2.94380e-01,-2.02165e-02,1.73064e-01,-6.44987e-01,-1.75000e-01,-2.29689e-01,1.40866e-01,2.31694e-01,-7.51823e-01,-2.01309e-01,1.77181e-01,-4.19978e-01,-7.58019e-01,7.23418e-01,-1.18257e+00,
-5.44262e-01,-1.48984e-01,2.23020e-01,-4.81425e-01,-1.61117e-01,3.44976e-01,-1.93594e-01,5.16501e-01,-1.78567e-01,2.02580e-01,2.50356e-02,5.40283e-01,-4.15310e-02,2.85501e-02,-5.37175e-02,-2.61185e-01,1.86888e-02,-2.14208e-01,-1.49858e-01,-6.72473e-01,3.51455e-02,-1.11397e-02,1.93888e-03,-4.15049e-03,1.47645e-01,-3.63928e-01,-4.48497e-02,-3.13710e-01,-2.46513e-01,8.08884e-01,
6.75745e-02,-1.45314e-02,1.56142e-01,1.12514e-01,-3.32847e-01,-3.16761e-01,1.99658e-01,1.29909e-02,1.61696e-01,-3.60483e-02,-3.53184e-02,-1.01511e-01,-4.14352e-03,-1.02966e-01,-5.06518e-02,-3.13929e-01,8.40376e-02,-7.86865e-02,1.08667e-02,1.78462e-01,3.11196e-01,2.19089e-01,2.88854e-01,1.29633e-01,2.92522e-01,2.78821e-01,-2.42752e-01,-2.16141e-01,1.24364e-01,-2.16799e-01,
3.84177e-01,-1.83799e-02,6.86543e-01,2.04852e-02,-6.53641e-01,1.83524e-02,3.36077e-01,1.28799e+00,9.97150e-02,1.93935e-01,-7.47627e-01,5.41836e-01,-1.08814e-01,-7.55074e-01,3.50771e-01,-7.07862e-01,-3.19668e-01,8.30115e-01,-1.95250e-01,-9.09843e-01,-3.63510e-01,2.90867e-01,-6.87150e-01,-1.99069e-01,-1.89406e-01,6.88351e-02,-6.21481e-01,-3.78847e-02,4.89617e-01,3.78091e-01,
2.36517e-01,2.68425e-01,-2.75293e-01,-2.62764e-01,1.84075e-01,-1.87210e-01,1.96529e-01,1.32833e-01,-2.30943e-01,-8.51714e-02,-1.73422e-01,-2.91996e-01,1.81697e-01,-7.17644e-02,-6.14564e-02,-2.04509e-01,1.91792e-01,-1.58465e-01,5.11651e-02,2.96365e-01,7.67651e-02,6.64731e-02,-2.12692e-01,-9.13699e-02,6.42314e-02,3.03583e-01,2.70609e-01,-3.09881e-01,-1.56308e-01,-1.56786e-01,
-1.37271e-01,2.57871e-01,-1.41175e-01,2.47338e-01,1.80274e-01,-1.21937e-01,5.39928e-02,-1.14449e-01,2.79608e-01,9.31716e-02,2.84963e-02,-1.57704e-01,-8.75314e-02,-2.53927e-01,3.92496e-02,2.02417e-01,3.12226e-01,2.98741e-01,3.14740e-01,-3.10555e-01,-3.11053e-02,-1.67036e-03,-1.09099e-01,-6.85022e-02,6.44299e-02,-2.76085e-01,-1.91509e-01,-3.12873e-01,-2.41812e-01,2.00344e-01,
-7.10628e-01,-3.65212e-01,-1.44656e-01,8.12217e-02,2.83966e-04,1.20579e-01,-8.24786e-02,3.83377e-01,2.45457e-01,2.50011e-01,-1.03336e-01,-1.72556e-01,2.37609e-01,2.83232e-02,-1.16759e-02,1.61917e-01,1.52810e-01,2.20031e-02,-1.57092e-01,-1.19986e+00,-9.71036e-02,-1.70429e-02,9.98001e-02,6.81809e-02,-2.22926e-03,-2.81641e-01,8.92319e-02,6.81883e-01,8.28431e-02,5.91065e-01,
2.10971e-01,2.45996e-01,-2.00129e-01,1.07119e-01,-2.80557e-02,1.99812e-02,1.42049e-01,-3.30212e-01,-1.30275e-01,-3.01700e-01,2.41501e-02,-5.09035e-01,3.64708e-03,3.50296e-03,2.89913e-01,5.80755e-02,2.38342e-02,2.53156e-01,8.45087e-02,3.19379e-01,-1.97143e-02,-2.13442e-03,2.02992e-01,2.31259e-02,-2.24940e-03,-1.88358e-01,3.80085e-01,-5.02190e-01,-7.34319e-02,-1.31316e-01,
-6.85541e-01,7.81606e-02,-1.08686e-01,1.67838e-01,-1.15208e-02,-3.43123e-01,-3.37555e-02,5.64711e-03,-2.30525e-01,-7.12522e-01,3.92973e-01,-1.86035e-02,9.34213e-02,6.75408e-01,-1.60273e-01,1.44193e-01,2.49613e-01,9.33945e-02,2.31348e-01,1.58677e+00,4.94305e-01,-4.99530e-02,-3.06175e-01,-8.17744e-02,7.08969e-02,-2.34475e-01,-3.09572e-01,-1.53206e+00,-2.13705e-01,1.19915e-01,
-1.25697e+00,-7.72931e-01,-3.29814e-01,-6.63161e-01,3.60190e-01,-8.44419e-01,3.12060e-01,-1.67086e+00,3.11908e-01,1.69280e-02,1.72762e-01,-2.46198e-01,-5.81183e-01,5.91009e-01,-3.45296e-01,2.46910e-01,-4.14978e-01,-1.13664e-01,-6.20575e-01,-4.67996e-01,-7.46486e-01,-3.61733e-01,1.75367e-01,-2.22536e-02,2.21464e-01,-2.60770e-01,2.95579e-02,-8.14861e-01,6.59033e-01,1.55477e-01,
-1.25714e-01,-1.99623e-01,-2.51293e-01,1.53208e-01,7.83813e-02,2.68015e-01,2.38453e-01,2.66413e-01,1.40868e-01,-2.44053e-01,7.81339e-02,-3.15854e-01,-2.44915e-01,-2.10231e-01,2.25027e-01,-8.35777e-02,-2.44813e-01,2.01466e-01,-6.15284e-02,-1.43864e-01,2.60247e-01,-1.74878e-01,-2.64694e-01,-1.88873e-01,-4.71718e-02,-2.60519e-02,-2.02803e-01,-1.18175e-01,-1.30828e-01,1.00897e-01,
-5.48270e-01,-1.06615e-01,-2.16435e-01,-4.80064e-01,-8.67548e-01,7.84642e-02,-9.34020e-02,3.46307e-02,1.86571e-01,1.90106e-01,-2.43273e-01,-1.63433e-01,6.23680e-02,-2.23755e-01,-2.02702e-01,1.48971e-01,1.43602e-01,7.79214e-03,-2.95363e-01,-7.00998e-01,-8.35938e-01,-6.50510e-02,-1.64368e-01,4.11474e-03,9.34975e-02,1.92833e-01,-3.53907e-02,-2.63559e-01,4.84868e-02,3.25895e-01,
6.49401e-03,3.21825e-01,-6.51498e-02,2.58747e-01,-4.27123e-01,1.55786e-01,-2.08791e-01,-2.35022e-01,-5.36110e-02,6.98859e-02,2.35770e-01,-1.44892e-01,-2.07788e-01,1.26297e-01,1.32693e-02,1.05323e-01,-3.75263e-01,-2.35083e-01,-3.95743e-03,-2.82419e-01,-4.17818e-01,-2.45624e-02,-4.93294e-01,2.36068e-01,6.77135e-03,-4.83221e-01,3.28201e-02,-8.87762e-02,-1.91716e-01,-5.62513e-02,
8.50487e-02,
9.38084e-02,
-5.64500e-02,
6.23330e-03,
-6.61148e-03,
1.14619e-01,
5.44503e-02,
-3.93447e-02,
-3.38258e-02,
7.66057e-02,
2.33272e-01,
1.25096e-01,
-1.39581e-01,
-9.38873e-02,
1.52146e-01,
9.98351e-03,
-2.30320e-01,
-2.02527e-01,
-1.36445e-02,
-3.12321e-01,
-1.36089e-01,
-2.28766e-01,
-2.72214e-01,
5.08495e-02,
7.12955e-02,
7.64928e-02,
8.28580e-02,
-2.71616e-01,
2.05121e-01,
1.75936e-01,
8.55418e-02,-1.95664e-03,-1.61884e-01,-2.76805e-02,-1.96304e-01,-1.28046e-01,-2.34872e-01,6.40144e-02,-2.93771e-01,-1.42710e-01,2.21975e-01,2.59133e-01,-2.99245e-01,2.47126e-01,3.07158e-01,1.18545e-01,-1.94093e-01,-2.47335e-01,5.11357e-03,2.54189e-01,2.86936e-01,2.03980e-01,-2.39440e-01,-1.54266e-01,1.33433e-02,-1.77654e-01,5.65764e-02,1.96273e-01,-5.06568e-03,1.98763e-01,
2.61624e-02,-1.75694e-01,-8.63423e-02,-9.92723e-02,-1.61281e-01,1.61541e-02,-2.40477e-01,3.58467e-02,-1.73716e-01,8.67730e-02,-1.09730e-01,-9.43545e-02,-1.02133e-02,-8.18765e-02,-9.77844e-03,-4.50575e-02,-5.66632e-02,-1.45924e-01,2.56613e-01,2.71661e-01,-2.10853e-01,-3.95105e-02,4.40886e-02,4.96614e-02,-1.32852e-01,-7.93389e-02,1.32221e-01,-3.61313e-02,5.19260e-02,1.88282e-03,
1.88061e-01,1.18656e-01,3.66444e-02,1.92626e-01,-1.72080e-01,-5.74861e-02,1.73495e-01,-8.38213e-02,1.38786e-01,5.58059e-01,-3.44834e-01,-5.23796e-01,-2.82996e-01,-9.00303e-02,1.81584e-01,6.24432e-02,1.21238e-02,-2.60640e-01,1.58109e-01,1.53201e-01,-2.82864e-01,-1.11530e-01,-7.43312e-02,2.14706e-01,-2.56158e-02,7.82613e-02,-2.44852e-01,-1.58524e-01,-2.11937e-01,1.50598e-01,
-2.85464e-01,-6.49691e-03,9.47631e-02,1.84719e-01,-1.33546e-01,-6.95825e-02,9.39023e-03,-3.08413e-01,2.36505e-01,-6.23435e-04,-2.70740e-01,-2.39797e-01,2.28855e-01,-1.81742e-01,-2.91627e-01,-1.38740e-01,-8.95519e-02,4.44158e-02,-2.12917e-01,3.03270e-02,-1.87737e-01,7.92507e-02,-1.94982e-01,-9.97809e-02,1.60209e-01,5.09539e-03,-3.70084e-02,1.74735e-01,2.53648e-02,-9.75106e-02,
2.01220e-02,-1.30131e-02,-1.34228e-02,-4.44703e-01,3.51549e-02,1.06890e-01,-3.33466e-01,-1.06972e-01,1.16278e-01,7.62043e-02,-3.46721e-01,-1.56046e-01,-3.00714e-01,-6.77787e-02,-1.53643e-01,3.76527e-01,2.45927e-01,-3.01278e-01,1.65414e-01,1.38678e-01,1.88865e-02,3.79255e-02,-3.01677e-01,2.95576e-02,1.65264e-01,-2.21693e-01,1.78831e-01,3.03211e-01,3.11226e-01,-8.41898e-02,
2.62820e-01,5.47522e-02,7.81677e-02,-1.26115e-01,-1.34722e-01,-2.06286e-01,-1.57310e-01,2.78649e-01,-2.37645e-01,1.57887e-01,1.15317e-01,-4.59680e-02,3.02434e-01,-2.78894e-01,9.23426e-02,8.30041e-02,-2.82305e-01,-5.48198e-01,-5.68795e-01,2.46229e-01,-3.59134e-01,-1.15255e-01,-2.78691e-01,-3.39662e-01,-2.11122e-01,-2.12379e-02,6.92769e-02,-1.57789e-01,-1.55462e-01,-4.87429e-01,
6.85560e-01,-8.01803e-01,-1.03752e+00,6.07945e-01,-9.78652e-01,-4.25664e-01,-2.06107e-01,-7.12707e-01,-8.71120e-02,8.08334e-02,-6.69221e-02,-7.81330e-01,-7.48463e-03,4.23051e-01,2.67034e-01,-4.56019e-01,-1.11253e+00,-8.75131e-01,2.54589e-01,-2.67397e-01,-3.24969e-01,2.18229e-01,-2.91179e-01,-1.51843e-01,-1.55263e-01,-3.01222e-01,-2.29684e-01,-2.68053e-01,1.55245e-01,-1.79381e-01,
3.18947e-01,-1.32424e-01,-1.00337e-01,-4.09950e-01,5.71880e-02,-7.93984e-02,-5.59984e-02,2.68348e-01,2.01505e-01,4.67741e-01,-2.51746e-01,9.33631e-01,-6.19213e-02,4.33927e-02,-2.71937e-01,-9.07759e-01,-4.80321e-01,1.97478e-01,1.07769e-01,7.17881e-02,1.74437e-01,9.51382e-02,-1.08385e-01,-4.77880e-01,-2.47555e-01,-1.13888e+00,7.75695e-02,-2.92545e-01,-2.05111e-01,-2.36489e-01,
2.66217e-01,-1.45328e-01,-1.84881e-01,-1.75755e-01,2.65878e-01,-1.53164e-01,1.03633e-01,-1.70876e-01,9.59587e-02,1.21863e-01,-1.41403e-01,-2.16647e-01,3.35671e-02,2.66558e-04,-2.71851e-01,-2.57600e-01,-1.77452e-01,-6.26631e-02,7.65834e-02,1.54146e-02,1.97928e-01,1.95638e-01,-8.93601e-02,9.21421e-02,-1.53196e-01,-2.63210e-01,1.23433e-01,2.15824e-01,-2.20256e-01,-2.76212e-01,
7.49137e-03,1.12105e-01,-2.76809e-02,-1.20739e-01,1.82985e-01,-5.79512e-02,-1.52840e-01,-7.62284e-02,-3.04856e-02,-7.28536e-02,7.33133e-02,-1.41004e-01,1.50314e-01,-2.09495e-02,7.93596e-02,1.87870e-01,-7.41594e-02,-7.02448e-02,-2.82281e-01,2.56164e-01,6.21614e-02,2.04898e-01,1.71180e-02,1.88956e-04,-9.85417e-02,2.04272e-02,-3.91150e-01,8.65046e-02,-5.81090e-02,-6.19019e-02,
-4.50921e-02,1.18732e-01,-1.06720e-01,-1.80875e-01,1.23005e-01,-1.14439e-03,-2.99457e-01,-1.21718e-01,-4.30767e-02,4.46368e-02,-2.35085e-01,2.05357e-01,-2.52721e-01,4.26762e-02,6.61915e-03,6.18338e-03,2.11181e-01,-2.17566e-02,-1.91720e-01,-1.78743e-01,-1.15271e-01,-2.34862e-01,-9.63722e-02,-9.61879e-02,-2.02361e-01,1.22068e-02,-1.09391e-01,6.46568e-02,2.57456e-01,-8.78397e-03,
-6.24265e-02,-1.41984e-02,-5.28544e-02,-1.60304e-01,4.79738e-02,-6.98990e-02,-3.32871e-01,-9.08607e-02,1.44718e-01,-1.46600e-01,2.07541e-02,1.35496e-01,1.76407e-01,9.81311e-03,-1.20194e-02,2.42737e-01,1.71828e-01,2.19000e-01,-4.03288e-02,2.36298e-01,-1.48886e-01,-1.26042e-01,1.55214e-01,-7.30154e-02,-6.99750e-02,-4.42210e-02,1.15401e-01,1.85527e-01,1.19331e-01,3.33694e-02,
-2.30974e-01,2.85799e-02,-6.30420e-02,3.01181e-01,-2.75888e-01,-1.37434e-01,2.43670e-01,1.04352e-01,-2.56972e-01,-2.27224e-01,-2.43267e-01,-1.19322e-01,-1.67158e-01,-1.22076e-01,-3.86369e-01,-1.10597e-02,6.84318e-02,-4.55705e-01,4.88390e-01,3.01698e-02,-3.33258e-01,-8.07196e-03,8.94176e-02,3.17396e-01,7.46587e-02,2.82820e-01,-3.28043e-01,1.38494e-01,1.00197e-01,-5.99244e-01,
2.59837e-01,1.61859e-02,4.46666e-02,5.53309e-02,-2.66418e-01,-8.07744e-01,8.06415e-02,-1.26440e-02,-5.76110e-01,3.91653e-01,-7.65065e-01,-9.43915e-01,-2.97861e-01,2.34696e-01,6.50484e-02,-1.07060e-01,-2.17107e-01,-1.66472e+00,9.57079e-02,-2.41802e-01,-1.32001e+00,3.00334e-01,-2.11975e-01,1.41234e-01,2.37854e-01,3.51067e-01,-8.27586e-01,-1.17806e-01,3.20334e-01,1.65660e-01,
1.80691e-01,4.52663e-02,-3.47411e-01,-2.95013e-01,-2.69860e-01,-1.55672e-01,-3.05227e-01,-7.38917e-02,-2.46937e-01,1.69902e-01,-1.80402e-01,-2.16674e-01,1.54079e-01,2.66044e-01,2.17709e-01,1.24478e-01,-8.11032e-02,-3.83848e-01,2.04288e-01,-2.17508e-01,-1.30426e-01,1.66629e-01,-2.04970e-01,1.87420e-01,-3.41935e-01,-1.07434e-01,-1.93627e-01,-2.52472e-02,1.26193e-01,-2.95701e-02,
3.84454e-01,1.61133e-01,3.36323e-02,7.97593e-02,-3.91082e-01,-4.36893e-01,1.65111e-01,-2.38451e-01,-2.68172e-01,4.24489e-01,-5.41847e-01,-6.75192e-01,2.58837e-01,4.22166e-01,-1.77815e-01,-1.50768e-01,-2.53832e-01,-1.10598e+00,9.24553e-02,-1.15057e-02,-8.57280e-01,1.67165e-01,1.91434e-01,2.38569e-01,-1.11163e-01,-4.52631e-02,-6.97038e-01,5.88527e-02,1.71617e-01,2.27317e-01,
-1.00460e-01,1.82748e-01,-1.87783e-01,-1.78271e-01,1.04791e-01,1.64811e-01,-4.77642e-02,8.44648e-02,2.94258e-01,-2.09429e-01,-3.06708e-02,-1.68495e-01,-2.91508e-01,-9.27315e-02,7.07377e-02,-1.48188e-01,5.14404e-02,2.68638e-02,-1.17392e-01,-1.02439e-01,-1.53189e-01,4.24284e-03,-1.10020e-01,-1.08264e-01,1.09436e-01,9.96087e-02,-8.94603e-02,2.90526e-01,-7.11134e-02,-1.42314e-01,
-1.55942e-01,-6.08934e-02,-1.39999e-01,-3.00245e-01,-2.02498e-01,-4.32218e-02,-2.78375e-02,-1.59731e-01,1.56812e-01,-8.06530e-02,4.64195e-01,3.18459e-01,9.12503e-03,1.85295e-01,4.96770e-02,1.03252e-01,-3.03121e-02,7.23592e-01,1.46949e-01,1.12720e-02,3.28345e-01,-2.66278e-01,2.01297e-01,2.23907e-01,1.38564e-01,-8.85519e-02,3.67424e-01,-2.93705e-02,-1.39640e-01,1.14681e-01,
-1.20172e-02,3.38040e-01,1.12789e-01,3.31173e-01,2.54018e-01,-4.86643e-02,6.39874e-02,9.84102e-02,-1.79843e-01,-1.16748e-01,8.90167e-02,2.19093e-01,-2.65713e-01,4.69410e-02,2.00833e-01,-2.05860e-01,7.51920e-02,-1.53263e-01,-2.87005e-01,-1.15112e-01,-4.11342e-02,1.67752e-01,-2.62016e-01,-2.19551e-01,-2.14589e-01,1.04627e-01,-1.42272e-02,-2.42110e-02,9.15504e-03,1.70367e-01,
-2.01038e-01,5.52558e-02,-3.05846e-01,-2.47033e-01,6.52811e-02,2.37807e-01,-2.31971e-01,2.75301e-01,6.65323e-03,2.43116e-01,-9.93808e-02,2.25973e-01,1.12079e-01,3.35844e-03,1.67938e-02,1.09013e-01,2.01483e-01,-1.42841e-01,1.11910e-02,-6.99995e-02,9.52513e-02,1.30952e-01,-2.63745e-01,2.99072e-01,-1.16187e-01,-3.12683e-01,2.06152e-01,-8.31905e-03,-1.28362e-01,-1.43636e-01,
6.56815e-02,-4.89576e-02,7.80808e-02,-3.77913e-01,-1.24132e-01,8.01046e-03,-1.93079e-01,2.69940e-01,-3.82915e-01,-9.33763e-02,-1.84652e-01,-5.62945e-01,-4.71193e-02,-3.95623e-02,7.56871e-04,5.06389e-02,-6.58356e-02,-1.25953e+00,-1.32353e-01,-1.64676e-01,-7.77039e-01,1.97774e-01,1.93574e-01,-1.07178e-01,-3.51874e-01,4.86706e-02,-7.17430e-01,-2.57774e-01,1.87190e-01,-3.75915e-03,
-1.30892e-01,-1.16897e-01,-1.16973e-01,1.12023e-01,5.73796e-02,3.80495e-03,-1.52067e-01,1.62364e-02,1.49282e-01,-1.18173e-01,-1.75472e-02,-2.10821e-01,-2.28325e-01,-4.50535e-02,-1.73484e-02,-1.61396e-01,1.51966e-01,-1.30851e-01,1.58354e-01,1.33475e-01,-1.98082e-02,1.42073e-01,1.43016e-01,1.55113e-01,8.03266e-02,4.23433e-02,-3.81721e-01,-9.55622e-02,1.82837e-02,9.37812e-02,
-1.84273e-01,-2.07013e-01,1.60258e-02,1.34880e-01,-1.44469e-01,-5.11746e-02,-1.55195e-01,2.14219e-01,4.61730e-02,1.89402e-01,-5.23475e-02,6.78046e-02,-2.44471e-01,1.70239e-01,-1.69562e-02,-2.61910e-01,1.08242e-01,8.74752e-02,-2.98955e-02,-8.12166e-02,1.96979e-01,-5.05846e-02,-1.40297e-02,-2.19256e-01,4.39391e-02,-1.03460e-01,-2.90424e-01,4.97290e-02,7.80783e-02,-1.23056e-01,
-4.33235e-02,2.87090e-01,-2.90642e-01,-1.71774e-01,2.02543e-01,2.32331e-01,-2.14777e-01,-2.77887e-01,-2.62115e-01,1.60244e-01,-1.46273e-01,2.97228e-03,1.05212e-01,-2.15587e-01,1.93557e-01,3.01861e-02,1.23304e-01,-3.11634e-01,-1.58920e-01,2.65361e-01,2.46064e-01,-1.93877e-01,2.62440e-01,1.71371e-01,1.93512e-01,3.42876e-02,2.44143e-01,3.00422e-01,5.61112e-02,-1.71476e-01,
2.99519e-01,-3.23681e-01,2.09775e-01,-3.88148e-02,-3.91853e-02,-6.43005e-02,9.13871e-02,1.29812e-01,8.95113e-02,1.63548e-01,6.38395e-02,4.53509e-02,-2.88440e-01,1.94437e-01,-2.86979e-01,-2.90514e-01,1.72339e-01,2.23752e-02,1.03941e-03,-1.96578e-01,-5.19644e-02,-1.96314e-01,2.41013e-01,-1.77378e-01,-1.59469e-01,-1.11884e-01,-8.94182e-02,-6.02755e-02,-2.59617e-01,-3.01597e-01,
-2.91190e-01,-9.65151e-02,-1.25491e-01,-2.94792e-01,1.55619e-01,-2.72298e-01,-2.27698e-02,-1.59989e-01,-3.18228e-02,-1.77622e-01,-2.61023e-01,-2.91073e-01,1.25393e-01,2.71747e-01,-1.07033e-01,2.05335e-01,-5.70962e-02,-2.91048e-01,-1.30209e-01,-2.05365e-01,2.44116e-01,-2.73513e-01,5.21466e-03,-2.18312e-01,8.27528e-02,2.30299e-01,2.37176e-01,-6.19397e-02,-4.76059e-02,9.68089e-02,
-5.26871e-02,-3.21965e-02,-5.07711e-01,-6.05657e-02,-5.18839e-01,-6.58851e-02,4.37047e-01,-8.03460e-01,-4.16738e-02,-6.02632e-02,-7.06179e-02,-2.87303e-01,-1.51351e-01,-4.17008e-01,1.77066e-02,-9.26822e-01,1.85767e-01,-3.03977e-01,5.02741e-02,-2.18660e-01,8.25607e-02,2.56049e-01,2.60759e-01,1.18787e-01,-5.13975e-04,2.86268e-01,-1.26337e-01,2.40064e-01,-2.52422e-02,2.49323e-02,
-1.69005e-01,-8.52667e-02,-3.33977e-01,1.26444e-01,-1.19963e-01,-3.11867e-01,-2.01726e-01,6.18891e-02,-3.52660e-01,-1.12976e-02,2.49328e-01,-1.97628e-01,2.42933e-02,9.17993e-02,4.25387e-02,-4.11114e-01,-1.44516e-01,-1.79727e-01,-1.86811e-01,5.80779e-02,-2.31792e-01,1.02194e-01,-2.18968e-01,3.10656e-01,-1.69000e-01,7.06770e-02,-1.44913e-02,1.51110e-02,-2.69979e-01,-2.08231e-01,
1.94415e-01,4.39979e-02,2.36765e-01,7.59106e-02,6.55830e-02,-1.28364e-02,3.54635e-01,1.34386e-01,-2.90555e-02,-1.38551e-01,2.60411e-01,1.56404e-01,1.82551e-01,-4.45021e-02,2.11487e-02,1.25857e-01,-2.06060e-01,1.40061e-01,-1.31708e-01,1.71374e-02,1.55074e-01,1.99246e-02,-2.87053e-01,-2.48491e-01,1.83743e-01,-7.80422e-03,5.74535e-02,-1.18965e-01,-6.57997e-02,-7.33308e-02,
3.02523e-01,2.00153e-01,1.32893e-01,1.14925e-01,3.13315e-01,-2.47295e-02,-6.72987e-01,-9.83924e-02,-6.12604e-02,3.58765e-02,-8.89412e-02,-2.71779e-01,-1.36374e-01,-8.79434e-02,7.15489e-02,4.32449e-01,1.85054e-01,-5.51429e-02,-1.98568e-01,-8.86735e-02,-4.18920e-01,9.83744e-02,-4.76560e-02,-1.14560e-01,-4.50369e-01,-1.17361e-01,-2.06245e-02,-6.55011e-02,1.09053e-01,3.93818e-02,
-2.90162e-01,
1.21333e-01,
-3.45614e-02,
-2.87326e-01,
3.46846e-02,
1.41825e-01,
2.53901e-01,
6.65585e-02,
-1.69451e-01,
8.18009e-02,
1.66149e-01,
7.11170e-02,
2.05166e-02,
9.11141e-02,
9.15708e-02,
1.34256e-01,
-2.48422e-01,
-3.79718e-02,
-2.03355e-02,
-2.85440e-01,
8.36064e-02,
2.00285e-02,
-2.67854e-01,
-2.47709e-01,
-2.50031e-01,
-2.91162e-01,
1.36302e-03,
1.47510e-01,
-3.70738e-02,
7.37976e-02,
-1.71298e-03,2.05705e-01,1.70233e-01,1.36635e-01,3.47852e-02,2.88444e-01,-3.49838e-02,-2.60103e-01,2.87560e-01,-1.48359e-01,2.16215e-01,1.74056e-01,-5.50309e-02,-1.21486e-01,-5.91302e-02,6.89006e-02,2.46838e-01,-2.27701e-01,2.90291e-01,-6.86536e-02,8.15124e-02,3.52639e-02,-6.83859e-03,2.18481e-04,2.83588e-01,-2.60000e-01,-1.23219e-01,9.59307e-04,1.63835e-01,-2.23014e-01,
1.46835e-01,-2.16831e-01,-1.62982e-01,-1.38875e-01,-7.51645e-02,2.26794e-01,-2.66852e-02,1.23900e-02,1.88738e-01,-1.78488e-01,-4.27891e-02,5.33495e-02,2.68374e-01,-2.27640e-01,-2.31108e-01,5.53016e-02,3.06145e-01,1.30908e-02,9.95605e-02,2.73572e-01,-2.32599e-01,-2.16810e-01,2.23303e-01,1.23178e-01,3.81676e-02,-3.03403e-01,1.89480e-01,2.41902e-01,-7.76991e-02,-7.38990e-02,
1.82399e-01,2.39766e-01,-8.07844e-02,-1.89385e-01,1.21605e-01,2.21559e-01,6.09455e-02,2.19218e-01,-5.28976e-03,-2.99706e-02,2.15527e-01,1.02220e-01,-1.58828e-01,2.11889e-01,-3.20694e-01,2.65561e-01,-1.51381e-01,-1.15741e-02,-3.10063e-01,4.31686e-02,2.17366e-01,2.71575e-01,7.66309e-02,2.10594e-01,2.86611e-01,-1.02817e-01,9.06723e-02,-2.46547e-01,-3.52019e-01,-2.63114e-01,
-8.52338e-02,-2.70010e-01,5.59964e-02,2.49588e-01,-2.16367e-01,-5.23347e-02,-1.14460e-01,1.50462e-01,-1.12139e-01,1.69756e-01,1.96032e-01,-1.01960e-01,2.09975e-01,2.04859e-01,2.00682e-01,-1.87059e-01,-2.97381e-01,-2.84017e-01,-1.79623e-01,-3.53312e-02,-5.64478e-02,-2.89263e-01,-3.17754e-01,-6.79308e-02,-2.70068e-01,-1.24166e-01,4.72602e-02,-3.34615e-01,1.97137e-01,-3.35181e-02,
-2.27520e-01,-2.81612e-02,2.38126e-01,9.99431e-02,3.28482e-02,2.74748e-01,1.20345e-01,3.03240e-01,-1.08857e-01,8.81273e-03,-1.69456e-01,1.52271e-02,-1.34153e-01,-1.01647e-01,-1.38092e-01,1.18435e-01,-1.58468e-01,-2.69096e-01,1.08777e-01,-2.87672e-01,-2.36147e-01,-2.52597e-01,-3.07514e-01,3.71189e-02,3.00215e-02,-1.66158e-02,-4.91769e-02,-1.70659e-02,2.59555e-01,-3.03864e-01,
3.70218e-02,9.80663e-03,-2.79409e-01,-2.48418e-01,2.33146e-02,1.39771e-01,-1.97076e-01,-3.17500e-01,-5.80094e-02,-4.86856e-02,-3.22451e-02,-3.15051e-01,1.24180e-01,2.51437e-01,3.39096e-02,-2.87807e-01,-1.89753e-02,-6.58146e-02,2.76249e-02,-2.33061e-01,-1.45582e-01,3.09154e-01,2.04631e-01,-1.02595e-01,-9.61686e-02,3.04713e-01,-5.83549e-02,-1.58418e-01,3.03238e-01,2.10636e-01,
2.82689e-01,-1.09063e-01,-1.51824e-01,-2.40738e-01,-2.66742e-02,1.39271e-02,-3.88145e-02,8.57995e-03,1.52837e-01,-3.27299e-01,-1.59890e-02,-1.57829e-01,-9.65813e-01,-9.59999e-01,1.65771e-01,-1.61736e-01,-7.26568e-02,-5.00618e-02,-1.98243e-01,-2.96041e-01,8.73500e-02,8.80797e-03,-1.44936e-01,-1.93865e-02,7.28934e-02,-1.10669e-01,-5.57788e-01,-6.15480e-03,-8.27515e-02,3.76765e-02,
-1.86165e-01,-1.03189e-01,1.82831e-01,-1.56801e-01,2.38514e-01,-2.96098e-01,-1.17859e-01,-1.57207e-01,1.78882e-01,3.36371e-02,2.15994e-01,9.44971e-02,5.65401e-02,2.09522e-01,-2.08620e-01,-1.17469e-01,1.03590e-01,-2.53654e-02,1.83823e-01,4.18043e-02,-2.74063e-01,5.66620e-03,-5.12219e-02,-2.63944e-01,-2.25810e-02,1.66346e-01,-1.84655e-01,-1.10244e-01,2.48386e-02,-3.78856e-02,
-4.67193e-02,9.86111e-02,-1.22813e-01,1.30641e-01,8.05781e-02,2.60990e-01,-1.78390e-01,-2.24374e-02,2.65795e-01,-2.07816e-01,-2.36596e-01,-3.43105e-01,-1.51931e-02,-4.04639e-02,-1.77145e-01,-2.49582e-01,8.72362e-03,2.15920e-01,1.63663e-02,2.46844e-01,1.21512e-01,-1.38718e-01,1.58933e-01,-7.88575e-02,6.53786e-02,-1.80142e-01,-1.24051e-01,9.16711e-02,6.82359e-02,4.77340e-02,
2.11962e-01,-5.73738e-02,-2.51162e-01,2.85180e-01,3.10441e-02,-7.21708e-02,2.61673e-01,-1.14641e+00,-2.58935e-01,-1.33418e-02,-1.37913e-01,2.72452e-02,6.89240e-02,3.28730e-01,9.95378e-02,2.83776e-01,-1.89124e-01,-2.46962e+00,-3.83474e-02,-1.93474e-02,6.29193e-02,2.20156e-01,-4.68847e-02,6.40475e-02,-2.95648e-01,-2.24688e-01,1.31614e-01,1.20786e-01,1.79950e-02,1.42257e-01,
2.20244e-01,-1.02658e-01,-2.16059e-01,1.24941e-01,-1.77314e-01,-1.57476e-01,-2.67422e-01,-4.51662e-02,-2.79331e-01,-1.62200e-01,2.50072e-02,-2.67408e-01,2.65163e-01,-2.58554e-01,-7.99161e-02,-2.90449e-02,-1.39636e-02,-1.50193e-01,-1.85614e-01,-2.59870e-01,3.04538e-01,3.17981e-02,6.60464e-02,-2.99152e-01,3.40802e-02,-1.47635e-01,8.70237e-02,4.63181e-02,3.12143e-01,-3.06484e-01,
-2.75780e-01,-3.26004e-01,-6.39685e-02,8.84847e-02,-3.24059e-02,1.54511e-01,-8.97374e-02,3.10867e-01,6.01089e-02,3.65648e-02,-3.39194e-01,-2.60777e-01,8.93303e-02,2.52945e-02,-4.01105e-01,-3.81959e-01,6.77512e-02,2.71242e-01,2.10338e-01,7.76204e-02,4.41567e-01,-2.00210e-01,-5.34650e-02,-2.95049e-01,9.48053e-02,-3.01143e-02,-2.00424e-01,-3.03117e-01,-5.48235e-01,1.06209e-01,
1.01425e-01,-1.85417e-01,7.77658e-02,-1.48662e-01,-6.10040e-02,-1.16006e-01,-2.33721e-01,1.28878e-01,-2.27108e-01,2.51965e-01,2.36855e-02,1.12519e-01,1.01215e-01,-1.80892e-01,-5.37335e-02,-6.17231e-02,2.88472e-01,5.23503e-03,1.18792e-01,-5.72957e-02,9.67517e-02,-7.73114e-03,-1.93249e-01,-1.96339e-01,6.54671e-02,2.14446e-01,-1.54258e-01,-2.56054e-01,-2.64953e-01,-1.26336e-02,
-3.06829e-02,2.33967e-02,2.39345e-02,1.33457e-01,4.70409e-02,-8.94935e-02,3.27474e-01,-6.23930e-02,-1.66034e-01,-1.15788e-01,1.82527e-01,1.39824e-01,-8.85915e-02,2.50705e-01,6.91912e-02,1.94734e-01,9.86007e-02,-1.35931e-01,-1.16448e-01,1.59196e-01,-9.88578e-02,1.96322e-01,-2.67493e-01,1.28006e-01,-1.97425e-01,1.75652e-01,1.51392e-01,1.41222e-01,2.07401e-01,5.27474e-02,
1.51565e-01,2.04271e-01,-1.49488e-01,-3.75021e-03,-1.15860e-01,3.89590e-01,1.20598e-01,-8.00051e-01,6.40225e-02,-3.23307e-01,1.17223e-02,-6.35696e-02,-3.12524e-02,-3.05979e-01,-6.66143e-02,3.58415e-01,2.01640e-02,-8.22767e-01,1.35098e-01,-1.80021e-01,-8.50314e-02,-9.41674e-02,1.66389e-01,-1.38517e-01,3.16614e-03,3.11120e-01,-2.95860e-01,6.58450e-02,4.54131e-02,-3.24370e-01,
-8.83393e-02,-2.43700e-01,-1.21358e-01,2.70207e-01,-1.16921e-01,-3.99427e-02,-4.35372e-02,1.13820e-01,3.85197e-02,-1.62094e-01,-3.39556e-02,-9.24776e-03,2.83024e-02,-2.95100e-01,1.88517e-01,-1.81496e-01,-6.74114e-02,-8.02228e-02,-1.03700e-01,-1.76073e-01,2.04281e-01,-1.76597e-02,-1.66983e-01,2.01920e-01,2.48114e-01,2.41659e-01,4.28786e-02,-2.73879e-01,-3.30818e-01,-1.39987e-02,
-2.58024e-01,1.50868e-01,-2.11246e-01,2.35132e-01,-2.60732e-01,-2.77331e-01,1.33211e-01,-2.58826e-01,-1.82436e-01,-1.90521e-02,-3.03147e-01,-1.41596e-01,1.82651e-01,8.41278e-02,1.17576e-01,-1.47985e-01,2.27091e-01,2.13562e-01,2.17210e-01,2.77856e-01,-5.63163e-02,-2.46455e-01,-2.99073e-01,1.33187e-01,-7.37817e-02,-2.34420e-01,-2.47416e-01,-4.02475e-02,-1.53126e-01,-1.90378e-01,
1.30201e-02,-1.91507e-01,-3.39685e-01,-2.25922e-01,5.07262e-01,2.28664e-01,8.93883e-01,-2.95228e-01,1.18102e-01,-6.63588e-01,-1.88918e-02,-2.53586e-02,-4.84898e-02,-4.67197e-02,-1.46005e-01,9.10597e-02,2.94245e-01,-1.10428e+00,-4.55437e-01,1.18214e-01,-4.50970e-01,-2.52430e-01,2.71894e-01,3.44044e-02,-2.08741e-02,1.96079e-01,1.86650e-01,3.43160e-01,1.32696e-01,-3.78853e-01,
-2.11351e-01,2.81022e-02,-1.30967e-01,7.26583e-02,-1.36888e-01,8.30879e-02,1.22892e-01,-1.03072e-02,6.22324e-02,-1.39778e-01,-1.35572e-01,-1.56104e-01,-6.04241e-01,-3.73245e-01,2.71843e-01,-1.43222e-01,-1.57243e-01,-2.39616e-02,-1.04539e-01,1.67024e-01,-3.32594e-03,-2.02525e-01,8.31941e-02,-1.87553e-01,6.95019e-02,-2.69125e-01,-9.78069e-02,-3.71974e-02,-1.96690e-01,-1.12307e-01,
-7.07358e-02,9.71920e-02,-1.78310e-01,-1.13189e-01,-4.00513e-01,-1.78395e-01,1.94569e-01,-3.78470e-01,8.44260e-02,4.99393e-02,1.43944e-02,2.03462e-01,-2.82822e-01,-2.12896e-01,1.92240e-01,1.93479e-01,-1.87261e-01,-7.26292e-01,-9.19657e-01,1.34615e-01,-2.81693e-01,-1.69942e-01,8.72315e-03,-3.10805e-01,1.29826e-01,4.58178e-02,2.19649e-01,-2.32502e-01,7.42281e-02,1.55755e-01,
2.69363e-01,-7.24569e-02,5.77919e-02,-1.81732e-01,-8.46976e-01,1.44706e-01,1.56903e-01,-1.22448e-02,-2.17572e-01,-4.79185e-02,-1.10112e-01,-3.28457e-01,-7.67640e-02,9.14405e-02,-2.08364e-01,2.21131e-01,2.83347e-01,-1.74459e-01,1.89328e-01,-4.28580e-02,-9.40951e-01,-2.98340e-01,1.38322e-01,-3.41663e-02,1.15181e-01,-1.26443e-01,-1.48269e-01,2.17516e-01,-5.77644e-02,1.61514e-01,
-1.93229e-01,9.35877e-02,1.17582e-01,1.52598e-01,-1.69764e-01,-1.07502e-01,-6.11027e-01,9.51721e-02,1.06532e-01,-1.52037e-02,-7.72386e-02,-1.64950e-02,1.71415e-01,-3.45332e-01,-1.11317e-01,-4.39234e-02,-2.03462e-01,-8.87630e-02,3.11499e-01,-6.24105e-02,2.40016e-01,3.52096e-02,-1.73544e-01,1.94105e-01,3.02787e-01,2.80673e-01,1.36587e-01,5.74685e-01,9.67670e-02,3.90308e-02,
-3.03229e-01,-1.09340e-02,-3.83031e-01,9.96328e-02,-4.84396e-01,-2.75237e-01,-8.12686e-02,-3.21949e-02,5.00983e-03,-1.85667e-01,-1.85986e-01,2.05882e-01,-6.77266e-01,-1.03777e+00,2.48514e-01,6.29954e-01,2.07540e-01,-3.01554e-01,-3.33402e-01,1.92992e-01,-8.30462e-04,-1.61103e-01,-3.16606e-01,-2.70168e-01,2.26793e-01,2.96995e-01,-3.58018e-01,3.57465e-01,-3.11637e-01,-1.41494e+00,
-9.00710e-03,8.26497e-03,1.60719e-01,1.79685e-01,-1.22047e-01,1.29135e-02,1.15021e-01,-7.29727e-02,-2.78754e-01,1.27802e-02,1.82536e-01,-2.38680e-01,-2.72767e-01,-2.29010e-01,-2.77677e-01,-1.03555e-01,1.09443e-01,-1.72541e-01,1.42388e-02,-2.63205e-01,-1.82844e-01,-1.94842e-01,2.15675e-01,-1.55699e-01,-2.91547e-01,6.57158e-02,2.60449e-01,1.84571e-01,1.04177e-01,9.16347e-03,
2.72067e-01,1.03242e-01,1.69900e-02,-1.77759e-01,-1.78463e-01,-3.51577e-02,-8.98183e-02,-3.53055e-02,1.98636e-01,2.22916e-01,-9.97642e-02,6.07073e-02,7.68577e-02,-2.75759e-01,2.81376e-01,6.34430e-02,1.99737e-01,-6.26749e-02,5.51002e-02,-3.83759e-03,-1.50763e-01,-2.71422e-01,-2.45826e-01,-2.67114e-01,-1.12845e-01,-1.82810e-01,1.45142e-01,-7.96027e-02,-2.07036e-01,-2.24812e-01,
7.78821e-02,-4.02184e-01,-2.44657e-01,-1.33578e-01,-2.35738e-01,-1.38437e-01,-9.41625e-02,2.61432e-02,2.62289e-01,-2.20172e-03,1.95611e-02,-1.77993e-01,1.40330e-02,2.78742e-01,-1.59025e-01,-3.58983e-01,-2.02627e-01,-3.31723e-01,-8.23460e-02,-3.82859e-02,-3.82866e-02,-3.85152e-01,6.71100e-02,3.03550e-01,-1.01223e-01,1.39081e-01,-2.26310e-01,-1.81282e-01,-1.59490e-01,-2.25295e-01,
-1.04645e-01,-2.45686e-01,-4.62452e-02,5.39491e-02,9.96752e-02,4.54919e-02,-3.29778e-01,9.97372e-02,-2.82418e-02,4.42820e-02,1.53741e-02,-2.59577e-01,-1.84498e-01,-2.15552e-01,5.14355e-02,1.85108e-01,3.12438e-01,2.32431e-01,6.14569e-02,4.96436e-02,2.50177e-01,8.36922e-02,-1.95247e-02,-1.71839e-01,-1.42141e-01,4.77890e-02,2.47407e-02,-9.80082e-02,-1.23864e-01,1.43326e-01,
-1.94256e-01,1.63573e-01,9.04752e-03,2.57645e-01,-3.82039e-03,-3.77027e-02,1.05170e-01,-2.44997e-01,-1.53045e-01,-1.96519e-01,1.25373e-02,2.48437e-01,2.58679e-02,-2.25825e-01,-1.40290e-01,-1.18862e-01,2.08157e-01,1.14088e-02,3.08680e-01,1.82410e-01,1.87869e-01,-2.52585e-01,-2.78047e-01,-1.71675e-01,-2.59962e-01,1.32748e-01,8.78115e-02,-2.84544e-01,-1.60012e-01,6.80540e-02,
-9.94087e-02,9.29978e-02,-2.00430e-01,8.29357e-02,-1.63620e-01,-3.06909e-02,-4.19334e-03,-3.15994e-01,-1.71993e-01,-7.00254e-01,-7.17035e-02,2.11674e-02,-6.54936e-01,-9.25188e-02,-7.16939e-02,2.14297e-01,8.11336e-02,-6.33262e-01,-2.88123e-01,-4.26364e-03,-3.84124e-01,-4.31987e-01,2.07919e-02,2.40242e-01,1.70577e-01,8.61377e-03,-3.93185e-01,1.10901e-02,-1.35986e-01,-1.59556e-01,
8.34256e-02,-1.49588e-01,-7.99694e-01,-1.22985e-01,-4.17456e-01,-2.20186e-01,2.15397e-01,-9.05196e-01,2.15999e-01,-2.33979e-04,-1.73484e-01,-3.25559e-01,3.58062e-01,6.19063e-01,-1.32756e-01,1.06879e-01,7.80243e-02,-8.42306e-01,-1.52469e-01,2.51170e-01,-2.77790e-01,-7.34735e-02,7.38484e-03,8.56491e-02,-2.88549e-01,9.81110e-02,2.07980e-01,8.98580e-02,-8.84071e-02,1.84852e-01,
-2.29813e-01,
-1.25886e-01,
-1.62549e-01,
-8.16167e-02,
-2.70463e-01,
-2.42407e-01,
6.47484e-02,
-1.42684e-01,
1.71472e-01,
-6.04181e-03,
-1.01902e-01,
6.92279e-02,
2.29833e-01,
2.22429e-01,
-1.60584e-02,
8.94571e-02,
-6.34632e-02,
-3.65842e-02,
9.11401e-02,
1.31707e-02,
1.14170e-03,
-1.46626e-01,
5.16778e-02,
-6.24356e-02,
1.07957e-01,
1.04676e-02,
-1.19484e-03,
-1.04828e-01,
3.79528e-02,
-2.54835e-02,
-1.58316e-01,1.93224e-01,-1.65331e-01,2.89081e-01,-2.27405e-01,-1.72455e-01,3.03687e-01,-1.66559e-01,-1.97880e-01,6.86106e-03,2.67642e-01,-4.18938e-02,-1.10584e-02,-2.22582e-01,-9.39521e-02,1.44080e-02,8.22875e-02,-2.37113e-01,-2.43477e-01,-8.34183e-02,1.92661e-01,1.91837e-01,2.81241e-01,-2.41259e-01,2.18912e-02,6.07010e-02,2.12514e-01,-1.91052e-01,-1.04088e-01,7.19221e-02,
2.25107e-02,-7.33021e-02,-2.62950e-02,1.81344e-01,-2.19149e-01,-1.46256e-01,-7.55153e-02,-2.44427e-01,1.68990e-01,-1.24039e-01,2.44957e-01,-1.50928e-02,-5.09389e-02,2.58245e-01,-1.28414e-01,1.27859e-01,-2.39097e-01,8.69421e-03,-1.57234e-01,-7.30332e-02,1.47051e-01,-9.46051e-02,6.59955e-02,1.74419e-01,-1.40600e-01,-2.27222e-01,6.51143e-02,-1.50204e-02,4.68662e-03,-3.81847e-02,
-1.34696e-01,-2.23800e-01,-2.19767e-01,2.28563e-01,2.05711e-01,-8.16777e-02,-2.31582e-01,2.91346e-01,-8.38736e-02,2.64950e-01,2.16662e-01,-2.96338e-01,-9.41334e-02,-2.97123e-01,-1.84000e-01,6.26540e-02,1.14081e-01,-5.04673e-02,9.18883e-02,1.90909e-01,-2.74265e-01,2.54058e-01,-1.14921e-01,-1.32732e-01,-2.09917e-01,1.87936e-01,-2.94808e-01,-1.82278e-01,-2.17369e-02,-1.81254e-01,
-1.53328e-01,-1.17028e-01,-1.17339e-01,-1.99652e-01,-4.92752e-02,-1.58890e-01,-1.63899e-01,-2.52961e-01,-8.71619e-02,-1.24508e-01,-1.66291e-01,-1.40824e-01,1.49485e-03,3.96723e-02,1.68990e-01,8.55707e-02,-2.58219e-01,-1.46547e-02,9.84412e-03,-2.54447e-01,-2.15344e-01,-2.40393e-01,1.05022e-01,-6.87667e-02,-2.92015e-01,3.15440e-01,-3.09667e-01,2.44445e-01,1.14012e-01,-2.44989e-01,
2.27691e-01,9.76177e-02,-5.75332e-02,-2.68659e-01,-2.78943e-02,1.21951e-01,-1.05560e-04,8.35277e-02,-2.37570e-01,-6.22935e-02,2.57768e-01,-1.12266e-01,-3.22753e-02,-1.99008e-01,1.93682e-01,5.52191e-02,2.03699e-01,1.39295e-01,2.22125e-01,-2.07481e-02,-1.03283e-01,-1.44402e-01,-3.10328e-01,1.08541e-01,1.21062e-01,-1.92399e-01,2.32880e-01,2.98521e-01,8.61219e-03,9.71596e-02,
2.24344e-01,-1.66563e-01,1.12310e-01,-1.18373e-02,7.36099e-03,-1.17057e-01,-1.73670e-01,4.70026e-02,1.29193e-01,5.75953e-03,3.04047e-02,1.01073e-01,1.88122e-01,2.28046e-01,-6.45885e-02,-7.52279e-02,6.11523e-02,2.10822e-01,-1.65308e-01,-7.71697e-02,3.75052e-02,3.99623e-02,-1.34572e-01,2.13818e-01,1.29229e-01,-1.46369e-01,1.91787e-02,1.73797e-02,1.97278e-01,5.98607e-02,
2.12002e-01,2.11508e-01,-2.15173e-01,3.30414e-02,1.48773e-01,-1.07561e-01,-2.82213e-01,-3.73464e-02,-3.00309e-01,-1.95434e-02,-1.84817e-01,-3.52245e-02,1.02930e-01,-2.42962e-01,-2.13822e-01,-2.97482e-01,-1.53593e-02,2.49135e-01,1.14279e-01,-2.19227e-01,-2.73883e-01,-1.38012e-01,2.48439e-01,-3.08273e-01,-2.12415e-01,-9.68121e-02,-2.59562e-01,-1.26731e-01,-2.08299e-01,-1.29949e-01,
-2.60267e-02,4.24590e-02,5.33810e-02,2.60070e-01,9.81937e-02,1.80600e-02,2.86352e-01,-2.63691e-01,-2.09957e-02,-5.83369e-02,2.17369e-01,-9.75894e-02,-2.77928e-02,-9.24794e-02,1.63029e-01,-2.80332e-01,4.53528e-02,-6.31443e-02,3.09936e-01,1.71978e-01,-1.98667e-01,-3.10570e-01,-1.55429e-01,6.41089e-02,-2.51909e-02,2.12949e-01,3.08332e-01,-3.67678e-02,2.05561e-01,-8.76920e-02,
-2.96922e-01,-9.65954e-02,-8.89477e-02,3.98596e-02,-1.76558e-01,2.95219e-01,-2.58702e-01,-3.08358e-01,1.69413e-01,-3.77053e-02,3.11125e-01,-5.23959e-02,-3.21120e-03,-3.44515e-02,-2.67868e-01,3.83532e-03,2.64785e-01,1.54498e-01,-2.30252e-01,2.38472e-01,-3.01711e-01,-8.00916e-02,-1.99199e-01,1.23672e-01,9.87806e-02,-6.39518e-02,-2.54555e-01,8.02890e-02,1.36038e-01,-6.62582e-02,
-1.22088e-01,-2.51119e-01,2.79139e-02,2.82660e-01,-2.11393e-02,-1.78162e-01,-6.54192e-01,-2.22106e-01,1.10673e-01,-9.23276e-01,-5.99494e-02,-7.03272e-02,9.03827e-02,2.02867e-01,-1.43372e-01,-1.43712e-03,2.36370e-01,6.14686e-01,2.80690e-01,3.29330e-01,5.01458e-01,-1.74997e-01,3.89291e-03,2.31845e-01,-2.01135e-01,-4.57493e-02,-3.61164e-01,-9.00550e-02,6.70659e-02,-2.76330e-01,
-2.48221e-01,-1.70708e-01,1.62153e-01,-2.35545e-01,1.06753e-01,-1.82070e-01,-1.94552e-01,7.79484e-02,-2.95360e-01,-3.10938e-01,2.23978e-01,1.95477e-02,-2.95140e-01,4.88349e-02,-9.84976e-02,-1.68700e-01,-2.77828e-01,-1.32357e-02,2.38315e-01,-1.37119e-01,5.22805e-03,-2.63925e-02,2.28131e-01,1.75058e-01,-8.59942e-02,5.01442e-02,2.86252e-01,-2.51857e-01,2.41505e-01,-1.03142e-01,
2.65497e-01,-1.18540e-01,3.62922e-02,9.10440e-03,3.07531e-01,-2.61997e-01,6.72330e-02,1.40127e-01,1.33522e-01,-1.56029e-01,7.49802e-02,-1.03171e-01,-2.34372e-01,3.05778e-01,2.16528e-01,2.31155e-02,-4.87449e-02,-1.86603e-01,9.76505e-02,2.24832e-01,1.52310e-01,7.11328e-02,1.94709e-02,1.27663e-01,2.30564e-01,1.64280e-01,-4.42884e-02,1.15144e-02,3.31770e-02,-2.12867e-01,
-1.71841e-01,1.19898e-01,-1.43768e-01,-2.58752e-01,-1.70300e-01,1.31675e-01,1.59153e-01,-2.53716e-01,7.32313e-02,-7.96659e-02,8.81326e-03,2.81390e-01,-1.71010e-01,-9.66391e-02,-2.97845e-01,1.00163e-01,-1.05964e-01,1.70334e-01,4.76131e-02,2.76755e-01,9.18078e-02,8.47702e-02,9.26420e-02,2.34937e-01,-2.06223e-01,-7.38527e-02,-5.09839e-02,2.69722e-01,2.94580e-01,1.00829e-02,
2.90160e-01,1.36507e-01,2.09416e-01,-2.72142e-01,3.32694e-02,2.43688e-02,-2.99934e-01,-1.64515e-01,-1.12048e-01,1.23044e-02,-1.77749e-01,-6.84584e-02,1.75394e-01,-3.08488e-01,-3.44476e-01,1.16481e-01,2.89598e-01,-1.83737e-01,9.69538e-02,3.34320e-02,2.63200e-01,2.61114e-01,1.43648e-01,2.69383e-01,-1.45360e-01,2.35109e-01,-7.19541e-02,2.55566e-01,3.15077e-01,-2.75992e-03,
-1.05390e-01,-3.10449e-01,1.37926e-01,1.52719e-01,-1.73883e-01,1.90325e-01,-7.53406e-02,-8.54905e-02,-2.99000e-01,2.36527e-01,-5.49763e-02,-2.80066e-01,2.30485e-01,-3.77442e-01,-1.13975e-01,-3.28091e-01,-7.93241e-02,2.56685e-01,2.51626e-01,2.42201e-01,1.97051e-01,3.05363e-01,-6.63428e-02,-4.83815e-02,-3.64955e-01,1.50155e-01,1.45198e-01,2.65833e-01,1.89543e-01,-2.29479e-01,
7.10978e-02,-1.42194e-01,1.14452e-02,-1.97693e-01,-1.34839e-01,-2.32206e-01,1.45829e-01,2.24644e-01,2.45771e-01,6.77382e-02,2.29875e-01,-8.90351e-02,3.38034e-01,2.14766e-01,6.55637e-02,-1.67388e-02,-8.71226e-02,1.13822e-03,1.53233e-01,-1.90858e-02,-1.38562e-01,-1.51986e-01,1.59068e-02,-4.88460e-02,1.55502e-01,1.24585e-01,3.92039e-02,2.74297e-01,-7.61232e-02,-4.06692e-02,
-1.92138e-01,-1.62263e-02,-2.83148e-01,-2.13344e-01,-1.99951e-01,2.96196e-01,-2.80338e-01,3.10956e-01,-5.55864e-02,2.27079e-02,1.41357e-02,-1.20581e-01,1.34388e-02,2.11897e-01,7.92707e-02,-6.88926e-02,-2.51520e-01,-9.09043e-02,1.64135e-01,-6.16380e-02,2.08993e-01,-3.11747e-01,3.30571e-02,5.95940e-02,1.46965e-01,2.10490e-01,-2.34613e-01,-5.00135e-02,-9.49323e-03,2.72210e-01,
-2.62524e-01,-2.08114e-02,2.62770e-01,1.08025e-01,-2.78517e-01,-5.22842e-02,1.87307e-02,9.98715e-03,4.56028e-02,-1.69601e-01,-2.64600e-01,-3.01403e-02,-3.32763e-01,1.38801e-01,-3.79937e-01,1.08349e-01,3.11325e-01,-6.99679e-01,-7.71549e-02,1.04048e-02,1.57167e-01,1.08920e-01,3.24453e-01,3.14518e-01,-5.12903e-01,1.83524e-01,-1.15160e-01,2.79607e-01,-3.45266e-01,1.70449e-01,
-3.05400e-01,2.17546e-01,1.42529e-01,-3.03756e-01,2.75565e-02,-1.95486e-01,-4.59102e-02,-7.28615e-02,-2.10623e-01,1.03821e-02,2.49398e-01,2.06064e-01,-1.53710e-01,2.38723e-02,2.03712e-01,-1.94575e-01,1.08551e-01,-3.61052e-03,1.19365e-02,2.15777e-01,-1.10341e-01,1.15029e-01,-1.56395e-01,-9.22225e-02,2.58689e-01,1.46977e-01,-9.78094e-02,-7.32460e-02,1.44436e-01,9.47295e-02,
-2.38947e-01,1.03315e-01,-1.65527e-01,-1.75963e-01,-1.30837e-01,1.34064e-01,4.04634e-02,6.98931e-02,-4.63241e-02,9.73015e-02,-2.58186e-01,1.42410e-01,1.59187e-02,4.06983e-03,1.52129e-01,-7.18024e-02,4.47065e-02,-2.30681e-02,-1.10766e-01,-1.26633e-01,-1.01368e-01,-7.15947e-02,-4.24460e-02,-6.09076e-02,1.97448e-02,-1.50421e-01,-8.59538e-03,-1.38295e-01,-1.60934e-01,1.56477e-01,
-1.75103e-01,-1.32937e-01,6.66696e-02,-2.65057e-03,-1.13015e-01,7.39226e-02,-2.76476e-01,4.18682e-02,-1.46257e-01,-1.73435e-01,-1.44982e-01,1.22142e-01,4.23655e-03,2.32503e-01,-1.93222e-01,1.77962e-01,-7.92780e-02,1.37795e-01,-2.08210e-01,-1.85445e-01,-2.36946e-01,1.43230e-01,-2.91622e-01,1.01254e-01,1.33166e-01,1.88309e-01,8.11797e-02,2.99983e-01,-1.05696e-02,2.27986e-01,
-3.22130e-03,-2.73821e-01,-8.24798e-02,-2.56663e-01,-5.45973e-02,1.10935e-02,1.10613e-01,-3.15065e-01,7.03022e-02,1.32354e-01,-1.77018e-01,-1.94941e-01,1.25952e-01,-2.74413e-01,-1.65218e-01,2.24182e-01,-2.30830e-01,-6.53774e-02,-1.07245e-02,-7.65166e-02,6.07850e-02,1.20531e-01,1.52746e-01,1.84705e-01,-1.38980e-01,-8.45476e-02,4.72637e-02,2.29038e-01,-1.32051e-01,-1.32152e-01,
-1.80521e-01,2.16357e-01,-3.25884e-01,-2.30921e-01,1.60508e-01,-2.77904e-02,-2.94572e-01,-2.66431e-01,-4.36521e-01,-2.43048e-01,1.61377e-01,-4.02522e-01,3.64979e-02,3.09170e-02,-5.28926e-01,-4.06254e-01,2.78044e-01,-2.36735e-01,-1.59808e-02,-3.23565e-02,-2.00295e-01,1.42929e-01,-7.39062e-02,-6.35710e-02,-6.29839e-02,-7.72503e-02,-2.67656e-01,2.64146e-01,-2.92968e-01,-2.72525e-01,
-1.00639e-01,1.61764e-01,-1.42075e-01,-3.00262e-01,-3.16005e-01,-8.01410e-02,-3.53294e-01,-2.44379e-01,-2.86224e-01,-3.03593e-01,-1.42709e-02,-1.97658e-02,-1.94905e-01,-3.58550e-01,3.31652e-02,-8.44284e-02,-1.30440e-01,-2.94904e-01,-4.63393e-02,-2.99032e-01,3.10223e-02,2.50794e-01,-1.21615e-01,1.17792e-01,1.41897e-01,-1.95156e-01,-2.23190e-01,-1.21078e-02,-2.78558e-01,1.29962e-01,
8.51095e-02,-2.45388e-01,-2.52204e-01,-1.04796e-01,-1.41825e-01,-2.99280e-01,1.68081e-01,-1.22416e-01,2.22480e-01,2.08089e-01,-1.66091e-01,-2.75850e-02,-9.02363e-02,9.21446e-02,6.92175e-02,1.90999e-01,-1.44254e-02,-3.89273e-01,-3.13021e-01,1.48525e-02,-1.98345e-02,1.90937e-01,-5.29369e-03,1.22495e-01,4.43334e-01,-3.11665e-01,1.32722e-01,-2.31477e-01,2.00879e-01,-5.13822e-02,
-1.01781e-02,1.15892e-02,-3.94072e-02,1.94770e-01,-2.99757e-01,-1.01034e-01,3.79874e-01,2.83596e-01,-1.27305e-01,4.25680e-01,2.44409e-01,3.74301e-01,2.19765e-01,-1.70804e-01,-6.26298e-01,-3.02537e-01,1.20611e-02,-7.32756e-01,-1.35892e-01,3.90791e-01,-1.14623e+00,5.85576e-01,9.65301e-02,6.40036e-02,-1.63709e-01,-1.64358e-01,-3.68217e-01,-4.40625e-02,-3.21047e-01,9.21846e-01,
2.63822e-01,8.18989e-02,2.48415e-02,2.83495e-01,1.02733e-01,1.41584e-01,-3.38210e-02,2.17677e-01,3.00200e-01,-8.04532e-02,3.71491e-02,2.12118e-01,-7.98440e-02,1.02171e-01,-1.70400e-01,-1.51670e-01,1.48164e-01,1.55953e-01,-2.42130e-01,1.96252e-01,-2.44529e-01,3.29149e-03,-2.36212e-01,-1.37063e-01,-1.96438e-01,1.94591e-01,-1.71662e-01,-1.42801e-01,2.52840e-01,2.66354e-01,
-1.59302e-01,2.68460e-01,2.95821e-01,2.86054e-02,-1.16855e-01,-1.55150e-01,4.02572e-02,-2.66999e-01,-2.04951e-01,-3.69766e-02,1.48337e-01,4.88806e-02,1.26529e-01,-1.62134e-01,8.60512e-02,-2.19824e-01,-3.87723e-02,-2.77854e-01,-1.43199e-01,-9.38718e-02,2.57917e-01,5.33283e-02,-2.87089e-01,8.64734e-02,-1.28755e-01,2.73218e-01,1.04917e-02,-2.02063e-02,-2.90023e-01,7.56992e-02,
1.65500e-01,-1.42664e-01,-1.02432e-01,1.16906e-01,-2.78040e-01,-4.67178e-02,1.32716e-01,1.03811e-01,2.46513e-02,-2.14821e-01,-2.29490e-01,-3.56548e-02,3.92846e-02,-1.27147e-01,-4.04912e-02,-4.29797e-01,3.56198e-02,-4.03787e-02,5.85132e-02,-3.41131e-01,-8.23422e-02,-1.64213e-01,-1.80796e-01,-1.05855e-01,-2.41045e-01,7.60411e-02,-1.22214e-01,-2.70061e-01,2.27331e-02,2.29155e-01,
2.13560e-01,2.61107e-01,-2.59001e-01,2.87282e-01,2.33792e-01,1.72196e-01,-9.09401e-02,1.12985e-01,-4.39824e-02,-2.49173e-01,2.09575e-01,2.57799e-01,2.54568e-01,2.41653e-01,3.77963e-02,6.84231e-02,-2.31026e-01,2.06065e-01,-7.55055e-02,1.64813e-01,-1.18908e-01,2.16029e-01,-3.44274e-02,1.67146e-01,-1.54082e-01,1.24948e-01,-3.18488e-02,2.68478e-01,3.14158e-01,4.33439e-02,
-6.10909e-02,
3.03301e-01,
-2.32182e-01,
-6.86931e-02,
-1.93490e-01,
6.21251e-02,
8.92092e-02,
-2.70712e-01,
-7.03702e-02,
-9.63917e-02,
2.01871e-02,
1.31782e-02,
-2.34722e-01,
1.24742e-01,
8.19572e-02,
2.30495e-01,
-2.09146e-01,
9.46513e-02,
1.46109e-01,
2.78416e-01,
-1.83548e-01,
2.67918e-01,
1.04113e-02,
1.53597e-01,
-6.75297e-02,
3.27341e-02,
-1.38302e-01,
-2.55400e-01,
9.31551e-02,
-9.62808e-02,
-8.63616e-02,-3.74868e-01,3.95426e-01,2.66002e-01,-1.24806e-01,1.84247e-01,3.89908e-01,-2.05581e-01,3.74552e-01,-5.89298e-02,-6.28086e-02,1.68730e-02,-5.04234e-02,-2.20734e-01,1.32416e-01,-3.15431e-01,1.15831e-01,4.34510e-02,-1.14982e-01,-3.67473e-02,1.93208e-01,9.42454e-02,-1.56970e-01,8.33794e-02,-9.02630e-03,-1.32768e-02,3.52410e-02,-3.17627e-01,-8.12390e-02,1.26902e-03,
3.49721e-01,-1.88880e-01,-4.17722e-02,5.25532e-02,-7.92562e-02,-2.90786e-01,5.03854e-02,6.24407e-02,-3.02198e-01,1.41838e-01,3.43735e-01,-3.45466e-01,-1.39990e-01,-1.36249e-01,-2.72897e-01,-2.39944e-01,-3.08978e-01,2.14460e-02,-7.58012e-02,-4.62507e-01,2.74695e-01,-3.71597e-01,3.17497e-01,1.69063e-01,1.03941e-01,-3.33240e-02,-1.81419e-01,1.38096e-01,-3.36879e-02,1.14873e-03,
-2.63252e-01,-2.99309e-01,2.94561e-01,2.51022e-01,-1.96095e-01,-2.20885e-01,-1.47447e-01,-4.13826e-01,3.92216e-01,7.94025e-02,3.17857e-01,-1.03594e-01,-1.78724e-01,-1.24808e-01,-2.10075e-03,-4.87993e-01,3.55590e-01,-7.54839e-02,-3.43439e-01,-1.82981e-01,3.86722e-01,-3.43463e-01,2.77542e-01,-5.48792e-02,7.31617e-02,1.09048e-02,2.01425e-01,1.20155e-02,-6.95169e-02,-9.03627e-04,
-3.98973e-01,3.93256e-01,-3.21796e-01,2.73998e-01,2.69949e-01,2.60944e-01,-3.97698e-01,-3.26171e-01,-1.47402e-01,1.47667e-01,9.77675e-03,1.21135e-01,-9.24197e-02,-1.55876e-02,-1.92269e-01,4.68900e-01,-3.19541e-01,1.35316e-02,2.92540e-01,1.07088e-01,-3.92944e-01,1.32357e-01,-2.40772e-01,-2.03433e-01,-7.30581e-02,2.76179e-03,-1.39317e-01,1.69876e-01,-5.84364e-02,1.84212e-03,
3.79963e-01,-8.25025e-02,-1.88213e-01,3.36381e-02,6.33649e-02,2.00924e-01,3.49441e-01,-2.74039e-01,3.91701e-01,1.10725e-01,-2.58883e-01,7.94228e-02,-3.53802e-01,-8.30318e-02,-3.24250e-01,8.71924e-02,3.54756e-01,2.78127e-02,-1.06049e-01,-5.87498e-03,9.83196e-02,-1.12806e-01,-3.49920e-01,-3.37818e-01,-7.12169e-03,-1.43149e-03,3.73085e-01,-6.21583e-02,-9.04628e-02,2.77809e-02,
2.27791e-01,
4.58532e-01,
5.17330e-01,
-5.04333e-01,
-2.26422e-02,
