// Neural Network File Format by Kyle Julian, Stanford 2016
6,5,5,30,
5,30,30,30,30,30,5,
15.000
499.000000,-3.141600,-3.141600,100.000000,0.000000
36656.000000,3.141600,3.141600,472.000000,1200.000000
17688.500000,0.000000,0.000000,249.000000,532.000000,9.330048
36157.000000,6.283200,6.283200,372.000000,1200.000000,423.773936
-1.10380e-01,-1.04867e-01,1.17663e-01,-1.89296e-01,4.99187e-01,
2.44376e-03,-2.32405e-01,3.73615e-01,1.88269e-01,-4.38266e-01,
1.83810e-01,1.94249e-01,3.22697e-02,-2.92177e-02,1.05641e-01,
-2.12950e-02,6.48922e-01,-6.37800e-01,1.89380e-02,5.10961e-02,
5.02308e-02,1.09646e-01,1.49755e-01,-2.31503e-01,2.99008e-01,
5.84780e-02,4.76938e-01,4.43822e-01,1.22003e-01,-5.10383e-01,
7.89575e-03,4.16994e-01,-2.29938e-01,-6.01271e-02,1.93954e-01,
8.07780e-02,4.13238e-01,-3.10789e-01,-1.17703e-01,4.34758e-01,
-3.48761e-02,-1.00981e+00,7.77860e-01,1.05342e-02,-4.96454e-04,
-3.84286e-01,1.74899e-03,-1.05018e-02,-6.52090e-03,2.27548e-02,
-8.91734e-01,-3.59323e-02,1.66369e-02,-9.38676e-03,-9.90506e-04,
5.65238e-02,1.83522e-01,2.25439e-01,-1.58421e-02,-1.51025e-01,
9.85963e-02,-3.70120e-03,-8.63581e-02,2.84888e-02,-7.39833e-02,
1.88415e-01,6.18964e-03,1.95803e-01,-2.21989e-01,-5.71133e-01,
-4.57066e-02,-5.45453e-01,7.36418e-01,9.12856e-03,-8.66921e-02,
2.85858e-02,-2.03236e-01,1.93776e-01,8.10362e-02,7.82425e-02,
-9.73451e-02,-5.06251e-02,6.11681e-02,-8.21181e-02,-7.73391e-01,
3.00691e-01,-1.57985e-02,-3.86571e-04,1.35309e-02,1.90777e-03,
1.49583e-01,-1.28945e-01,-6.88990e-03,-3.66894e-02,7.57189e-02,
2.65690e-02,-5.29144e-01,-1.52279e-02,-8.39982e-02,-2.90310e-01,
-2.31735e-03,-1.12065e+00,-8.06349e-04,7.01909e-03,-2.31413e-02,
-3.80432e-02,2.95567e-01,-5.00560e-01,8.44983e-02,-3.62716e-01,
-1.47187e-01,1.99385e-02,-4.48741e-02,-1.19044e-01,3.74033e-01,
-1.05567e-01,-5.07733e-01,-4.06137e-02,3.02002e-02,1.12794e-01,
5.01501e-02,-2.16805e-01,3.40704e-01,-6.45475e-02,2.91127e-01,
-6.73832e-03,-3.46789e-01,-5.49199e-01,5.02200e-02,-1.51623e-01,
-4.10728e-02,5.29198e-01,4.81459e-01,1.78219e-01,-1.30504e-01,
-8.91233e-02,1.38152e-01,2.31121e-01,-1.32461e-01,1.99378e-01,
1.19568e-02,-6.48866e-01,-1.05909e-01,-6.58808e-02,-1.67995e-02,
-1.89966e-02,-2.34176e-01,2.57993e-01,-4.77810e-02,-2.22700e-02,
1.42068e-02,
1.07148e-01,
9.72193e-02,
-2.36172e-01,
7.79303e-02,
-1.73917e-01,
1.60081e-01,
4.84822e-02,
-2.19502e-01,
-1.40683e-02,
-2.79118e-01,
2.80701e-02,
3.41533e-02,
-2.56904e-01,
-4.05175e-02,
1.58501e-01,
-2.88882e-01,
6.69053e-02,
1.04998e-01,
-2.23550e-02,
1.22185e-02,
1.00117e-01,
5.72921e-02,
1.27614e-01,
-1.89447e-02,
-4.55401e-02,
-1.56051e-01,
6.64190e-02,
-9.52834e-02,
1.13800e-01,
1.29013e-01,-2.75505e-01,1.85346e-02,-6.92137e-01,1.34729e-01,1.90108e-01,1.60512e-01,-1.24986e-01,4.14318e-01,1.95604e-01,-1.35059e-01,2.34418e-02,-3.71664e-01,5.60675e-02,3.72087e-01,1.53783e-01,4.46456e-01,-3.67852e-02,2.78096e-02,-2.55164e-01,7.30935e-02,1.93366e-01,1.02742e-02,-2.66022e-01,1.31531e-01,2.21454e-01,2.01633e-01,-3.71206e-02,1.36891e-01,-4.18076e-01,
1.53374e-01,-2.07159e-01,2.47773e-01,8.35040e-02,2.16350e-01,1.21150e-01,2.81863e-01,-4.74715e-02,8.22469e-02,-6.36954e-02,-2.99165e-02,-2.90944e-01,-1.91633e-01,9.44784e-02,2.36345e-01,-2.31644e-01,1.56959e-02,-2.53483e-01,-1.36389e-02,-2.54430e-01,1.15709e-01,3.74413e-02,-1.43762e-01,-2.22033e-01,-1.41040e-01,-3.07867e-01,-2.17179e-01,1.51591e-02,-2.97265e-01,1.96169e-01,
3.69865e-01,-2.57401e-02,3.83424e-01,5.25938e-03,-4.64381e-01,1.85012e-01,2.12697e-01,-3.80889e-01,5.29279e-01,-1.87406e-01,-7.54058e-01,1.96273e-01,-3.40613e-02,9.58386e-02,1.98876e-01,-8.56649e-02,-2.31356e-02,-6.58541e-02,2.39620e-01,-3.96611e-01,2.20609e-01,1.67477e-01,1.62466e-01,-8.21322e-02,6.26609e-02,-2.04595e-01,8.70317e-03,1.74918e-01,-1.18066e-01,-3.22847e-01,
-3.03147e-01,-1.49869e-01,1.91871e-01,-7.92549e-01,-4.49560e-02,-2.98916e-01,4.15687e-01,5.71273e-02,3.16301e-01,-1.39694e-01,-1.66087e-02,1.05426e-01,-1.97692e-02,-4.17053e-01,-4.24023e-01,5.96028e-02,-2.63451e-01,-2.53186e-01,2.24026e-01,-1.42665e-01,-1.98007e-01,-7.83651e-02,2.32976e-01,1.23884e-01,-1.22177e-01,-1.20753e-02,2.10082e-01,1.28618e-01,2.32601e-01,2.37785e-01,
-8.10075e-02,-2.62282e-01,6.41417e-02,-4.24475e-01,2.12972e-01,2.14628e-01,-7.58663e-02,-2.25192e-01,3.23326e-01,2.50313e-01,3.63517e-01,-1.35617e-01,-1.51088e-01,-3.14458e-01,1.51962e-01,-3.13082e-02,-5.30988e-01,1.11151e-01,-1.18136e-01,-6.29891e-01,5.52794e-02,-6.60536e-02,6.15123e-02,-2.28505e-02,-3.99458e-02,2.35340e-01,-1.21560e-01,2.57133e-01,1.55728e-01,-2.72198e-01,
-1.26658e-01,-1.22669e-01,-3.48881e-03,-4.96052e-01,5.20125e-02,4.65183e-02,-1.04060e-01,-1.98739e-02,1.68217e-01,-1.01866e-01,-1.25339e-03,-1.51802e-01,3.70664e-02,-4.56216e-02,-2.16875e-01,2.12842e-01,-4.26219e-01,-6.71411e-02,-3.99531e-02,2.43615e-01,-6.53531e-01,-3.26809e-01,-2.69891e-01,4.61905e-01,-2.15802e-01,4.72719e-02,4.41131e-02,1.45085e-01,-2.71367e-02,7.76668e-02,
-4.69746e-01,5.38122e-02,-2.87121e-02,1.76651e-01,1.60899e-01,-4.27406e-01,5.77019e-02,3.01567e-01,-9.42708e-01,6.46889e-02,5.07273e-01,-5.22179e-03,-4.10395e-02,-1.97660e-01,-6.47103e-02,1.96442e-01,-1.28349e-01,4.08726e-02,2.07833e-01,-7.00649e-02,-4.63647e-02,-2.40647e-01,2.90525e-01,3.85910e-01,-3.37297e-01,1.68737e-01,-1.41904e-01,1.48014e-01,2.50406e-01,2.99945e-01,
-3.51890e-02,9.14429e-02,2.45682e-01,-3.44993e-01,-3.59759e-01,-2.12902e-01,3.22846e-01,-3.38344e-01,-1.90398e-02,2.44897e-02,-8.72486e-01,-7.37022e-01,-1.16597e-01,4.63683e-01,-1.31331e-01,3.10094e-01,-1.07853e-01,3.94165e-02,1.49857e-01,3.67930e-01,-7.05692e-01,-8.49877e-02,3.49057e-01,1.30951e-01,-2.67304e-01,-5.95354e-02,-2.33615e-01,4.99589e-02,-2.60019e-01,5.27204e-02,
-2.65366e-01,-3.70850e-01,-3.01125e-01,-7.74462e-01,-6.83843e-03,-1.06500e-01,1.88613e-01,5.60927e-01,1.46364e-01,4.25105e-01,-4.88491e-01,2.89035e-01,-1.96354e-01,-4.13234e-01,2.52687e-01,-7.85282e-01,8.08108e-01,1.57097e-01,-3.29853e-02,5.35419e-01,-4.22270e-01,1.80890e-01,-8.29186e-01,-1.14749e-02,5.06683e-02,-1.92392e-01,4.06822e-01,-1.76198e-01,-7.21614e-01,3.15070e-03,
2.11663e-02,2.35469e-02,2.94859e-04,-2.89416e-01,-1.00629e-01,2.25711e-01,-5.38435e-02,1.07599e-01,-6.73954e-02,-2.14324e-01,1.72267e-01,-2.73274e-01,3.12996e-01,-2.35717e-01,-1.28117e-01,1.64540e-01,9.21059e-03,-3.00991e-01,3.04429e-01,-1.07058e-01,-2.31205e-01,-1.49522e-01,-3.13227e-01,-3.13728e-01,-5.64176e-03,2.52743e-01,-1.95264e-01,1.08040e-01,-1.75096e-01,2.12115e-01,
2.94136e-01,-1.72045e-01,1.63774e-01,-2.99388e-02,1.96872e-02,3.20181e-01,-7.49251e-02,3.27761e-03,8.32708e-01,1.45842e-03,1.00306e-02,1.06811e-01,1.13259e-01,-3.41472e-01,1.20443e-01,-3.07396e-02,-1.56752e-01,-2.74432e-01,1.32881e-01,4.21016e-01,-5.01499e-01,2.58214e-01,2.74986e-01,-1.67832e-01,2.23648e-01,3.70305e-01,2.91241e-02,-2.97288e-01,4.11451e-01,3.38303e-02,
1.97925e-01,1.85534e-01,8.41018e-02,1.66893e-01,-3.96751e-01,1.49254e-01,1.48843e-01,1.26410e-02,-5.65219e-02,-4.24909e-01,5.30364e-01,-2.64814e-01,2.98734e-01,-2.60079e-01,6.39092e-02,-1.29240e-01,9.44325e-02,-1.46532e-01,1.75555e-01,2.67638e-01,3.12387e-01,1.79018e-01,-2.59693e-02,-6.96763e-02,1.08077e-01,-1.13384e-01,2.95212e-01,1.60846e-01,-3.78071e-01,-5.26017e-02,
-2.77970e-02,3.05478e-02,1.90784e-01,1.22075e-01,-1.52593e-01,7.65939e-02,1.45432e-01,-4.62263e-01,3.60200e-01,3.05506e-03,6.78279e-01,-3.20144e-01,-4.20749e-01,3.28147e-02,-6.25467e-01,2.01200e-01,2.41627e-01,-1.94316e-01,2.08737e-01,6.59618e-02,-1.26728e-01,-5.39160e-02,-7.89324e-02,-8.09144e-02,2.27095e-01,-2.06744e-01,-1.98371e-01,1.55680e-01,3.57160e-02,-1.31066e-01,
-5.42478e-02,1.87983e-01,-2.23271e-01,-3.52387e-01,1.78484e-02,-2.63790e-01,5.67643e-01,1.25904e-01,5.24604e-01,3.87215e-02,-1.22298e-02,1.85266e-01,2.83697e-01,-4.53189e-01,1.82618e-01,3.23592e-01,1.66394e-01,-1.38449e-01,6.34802e-02,-1.17898e-01,-3.32785e-01,-6.19844e-02,-1.15705e-01,-1.77291e-01,2.50543e-01,-3.18387e-01,-3.25365e-01,-1.46399e-01,4.35718e-01,1.44988e-01,
-1.38216e-02,3.00677e-01,2.20272e-01,1.31652e-01,-6.45062e-02,1.36145e-01,2.90249e-01,1.07489e-02,-1.61493e-01,2.63881e-02,-6.21919e-01,1.25843e-01,-6.95561e-02,1.99689e-02,4.36419e-02,9.98179e-02,-9.18978e-02,-3.27695e-01,1.84848e-01,-3.36209e-01,-5.77162e-02,4.44589e-02,-9.07162e-02,-3.82193e-01,2.92294e-01,1.39979e-01,-2.81234e-01,-1.99501e-01,4.86588e-01,1.49562e-02,
2.50375e-01,2.16397e-01,-1.33239e-01,1.51634e-01,2.13354e-03,-1.03083e-01,-9.39270e-01,2.83188e-01,6.22247e-01,2.29876e-02,-1.41538e-01,-3.95648e-01,5.47742e-02,-2.08853e-01,5.06844e-01,1.23731e-01,-1.08639e-01,1.69231e-01,1.07536e-01,3.40459e-02,-1.59999e-01,8.23024e-01,-1.98138e-01,6.51365e-03,2.62376e-01,-3.71111e-01,-3.87505e-01,-5.99031e-02,-2.15310e-01,2.19841e-01,
-6.90789e-02,-1.32054e-02,-2.23476e-01,1.42832e-01,-3.19564e-01,-6.09539e-02,1.50280e-01,-6.77787e-02,-1.28540e-01,9.82243e-03,7.27412e-02,-4.43890e-01,-7.59216e-02,-2.74271e-01,1.01057e+00,-2.11091e-01,-9.26764e-02,3.12805e-01,-3.28127e-01,-9.08604e-02,-2.94508e-01,-9.06768e-02,-1.66701e-01,1.93470e-01,3.86323e-01,-3.58514e-01,-2.87989e-01,2.58183e-01,2.11801e-01,-6.55309e-01,
-1.63079e+00,-9.02812e-02,1.32678e-01,-4.73519e-03,6.51674e-01,1.02383e-01,2.52734e-01,-7.57672e-01,-2.38181e-01,1.93500e-01,1.76406e-01,1.87524e-01,-3.98263e-01,-1.23630e-01,-2.64175e-01,-3.52204e-02,-7.48815e-02,-1.00757e-01,1.79422e-01,-2.05845e-02,4.46006e-01,-1.08448e-01,-7.29994e-01,4.88705e-01,8.81212e-02,-7.79651e-01,-2.63625e-01,3.04729e-01,1.96400e-01,-6.24065e-02,
5.82560e-02,-2.17520e-02,-6.39302e-02,4.68230e-01,1.54172e-02,1.73075e-01,-5.21381e-01,-2.79187e-01,-2.07441e-01,2.13276e-01,1.52053e-01,-4.69664e-01,1.03940e-01,-3.38382e-01,1.78245e-01,-4.63749e-02,1.20849e-01,1.82100e-01,2.32157e-01,-4.42052e-02,-3.78609e-01,1.33147e-01,-3.73949e-02,4.20800e-01,6.68539e-02,-1.74256e-01,-5.29827e-02,-7.47026e-02,-2.52972e-02,3.43034e-01,
-3.23714e-01,-4.43666e-01,-9.62750e-02,1.58550e-01,6.30228e-02,3.81017e-03,-8.82728e-02,8.56928e-03,4.68428e-02,7.39737e-03,-9.20957e-02,3.83259e-02,-9.11689e-02,2.19118e-01,-2.50096e-01,-5.22204e-02,8.55912e-02,-1.50322e-01,1.06524e-01,-2.06158e-01,-7.93021e-03,-1.76003e-01,-2.17566e-01,2.43646e-01,-2.94893e-02,1.22136e-01,-8.93795e-02,4.42631e-02,1.25854e-01,1.02876e-02,
-4.79791e-01,-1.90468e-01,-1.80037e-01,-5.47375e-01,1.22917e-01,-2.72639e-01,-2.45738e-01,2.85002e-01,1.23306e-01,4.61801e-02,-3.25634e-01,-3.02085e-03,-8.84933e-02,-3.32135e-01,7.87364e-02,1.67912e-01,-1.50544e-02,1.24824e-01,-6.22339e-02,1.07306e-01,-5.36266e-01,-2.19737e-01,-8.76085e-03,4.26825e-01,-1.98093e-01,1.17193e-01,-5.08919e-02,3.85500e-01,-2.10984e-01,3.81124e-01,
2.60181e-03,-3.44133e-02,1.09787e-01,6.76003e-01,-3.93613e-01,-3.26010e-01,1.22718e-01,-2.54247e-01,-2.41990e-02,-5.57083e-03,8.99591e-01,-2.09817e-01,-3.66338e-01,7.85434e-02,3.51333e-01,-2.68309e-01,-1.00188e-01,9.98275e-02,1.19887e-01,-6.87396e-02,5.27191e-02,-1.62714e-01,-2.65287e-01,-2.88607e-01,-4.38223e-02,-9.46671e-02,-2.37098e-01,3.64181e-02,-2.97341e-01,-5.87751e-02,
-2.00227e-02,-3.63155e-03,1.66921e-01,4.35651e-01,-8.18889e-02,-1.94308e-01,-3.30378e-01,2.22123e-01,2.29117e-02,-2.95229e-01,-3.29310e-02,1.00067e-01,-2.22094e-01,-1.29377e-01,1.40018e-01,1.64809e-01,2.70339e-01,-1.14479e-01,1.46082e-01,1.67996e-01,-1.20350e-01,8.12408e-03,-2.22428e-02,-4.14398e-02,-9.07194e-02,-1.24035e-01,-2.40987e-01,-6.65945e-02,-2.82634e-01,2.88598e-02,
2.38110e-02,-1.17837e-01,-1.64321e-01,-2.65855e-01,2.97295e-01,-1.82467e-01,-1.53122e-01,1.05183e-01,-1.18044e-01,2.78898e-02,4.12163e-01,1.74332e-01,1.90645e-01,-3.02812e-01,2.48022e-01,2.32376e-01,1.31647e-01,-1.69958e-02,-1.10149e-01,-3.45116e-01,-1.11711e-01,-1.88901e-02,-2.28051e-01,1.83401e-01,2.68740e-01,1.86058e-01,6.01335e-02,-1.44165e-01,-1.61504e-01,-4.98494e-02,
-1.72885e-01,-3.37672e-01,-2.14314e-01,-3.04601e-01,1.00786e-01,6.61922e-02,-1.79805e-02,3.23916e-02,6.49385e-02,4.34358e-01,2.81978e-01,-6.01984e-02,-2.11024e-01,2.11781e-01,-1.87330e-02,2.88425e-01,1.39801e-02,5.82401e-01,-4.13379e-01,2.41289e-01,-2.19175e-01,-4.56390e-02,4.21025e-01,2.14724e-01,-2.98436e-01,5.71914e-02,2.10567e-01,-1.31710e-02,-7.11349e-02,-3.44491e-02,
-2.48479e-01,-5.79936e-01,8.65938e-02,-1.71175e+00,3.31803e-01,3.86840e-01,-1.66904e-01,-3.71650e-01,-1.79880e-01,-2.93294e-02,-1.54149e-01,-1.52826e-01,-1.98528e-01,-2.76677e-01,-5.08291e-01,3.78412e-01,-3.27469e-01,-2.54678e-02,6.78387e-02,-1.62743e-02,-5.77371e-01,-5.23159e-01,1.46964e-01,2.84815e-01,-2.06511e-01,4.43897e-01,4.41717e-01,2.67803e-01,2.90416e-01,1.32098e-01,
-1.14961e-01,1.56235e-01,-1.87551e-01,-7.58297e-01,-4.34890e-02,4.96001e-01,7.12696e-02,3.35472e-01,6.84883e-01,1.24651e-01,5.77997e-01,2.76373e-01,-7.46837e-02,-4.42434e-01,5.22697e-02,5.40694e-02,2.03055e-01,1.52564e-01,-3.75370e-01,-5.41801e-02,2.01692e-01,5.74384e-01,-1.34739e+00,1.40004e-01,5.90213e-01,-6.97797e-02,-4.47517e-01,-4.13862e-01,-9.78010e-01,2.12450e-01,
-2.58329e-01,1.74193e-01,2.56190e-01,9.61612e-02,-1.56586e-01,-3.07788e-01,2.57748e-01,1.10187e-02,-3.72690e-01,-1.96486e-01,-1.37197e+00,1.61492e-01,7.69735e-02,1.64942e-01,-1.55847e-02,-1.54815e-01,-9.11910e-02,-4.10250e-01,1.94367e-01,2.01621e-01,4.06524e-01,-1.55691e-01,-4.34044e-02,-8.98999e-02,-2.59639e-01,7.43804e-02,-1.03851e-01,-6.95568e-02,-3.98980e-01,2.49583e-01,
3.46504e-02,2.84451e-02,-6.64096e-03,4.90817e-02,-1.03575e-01,1.62083e-01,-1.24902e-01,1.36808e-01,8.58236e-02,-1.84000e-01,-3.09313e-01,-7.70583e-02,-2.27654e-01,-2.10729e-01,-2.11359e-01,-1.27649e-01,2.68622e-01,-7.22816e-03,-2.14251e-01,-1.62013e-01,-1.93647e-01,2.34331e-01,-8.90937e-03,-1.93717e-01,2.18945e-01,-9.80970e-02,2.54928e-01,3.02572e-01,-1.77766e-02,-1.19993e-01,
-2.74697e-01,-8.44978e-02,2.52849e-01,-2.08118e-01,2.86269e-02,-3.07917e-01,-5.90581e-02,1.66454e-01,-1.85336e-01,-2.15732e-01,-2.36801e-01,-1.79107e-01,-2.17135e-01,-3.34628e-02,8.94678e-02,-1.03465e-01,1.37594e-01,-3.19291e-02,1.84159e-01,8.56544e-02,-4.01977e-02,-8.65249e-02,-1.41445e-01,6.69364e-02,1.49728e-01,-1.01027e-01,-2.65384e-01,-2.98564e-01,-2.65368e-01,-7.60142e-02,
3.52927e-03,
-3.01947e-01,
-1.47594e-02,
1.85900e-03,
1.25246e-01,
2.13544e-01,
-1.12015e-02,
4.55462e-02,
-4.20403e-02,
-2.95736e-01,
-5.57698e-02,
-5.07958e-02,
8.54422e-02,
-1.78457e-01,
-2.55670e-02,
-3.30636e-01,
1.13775e-01,
-1.50974e-02,
3.10601e-02,
-7.59284e-02,
2.34306e-01,
1.11308e-01,
7.73128e-02,
-3.09139e-01,
5.59309e-02,
2.57619e-01,
-2.13153e-01,
5.74939e-02,
-2.39755e-01,
-1.93649e-01,
4.99749e-02,-2.88856e-01,3.14645e-01,1.08495e-01,2.29605e-01,2.87616e-01,2.17889e-02,-2.66445e-02,3.20308e-04,-1.57666e-01,4.18253e-02,-1.07411e-01,-1.15241e-01,-2.20872e-01,-1.72144e-02,-1.81177e+00,1.76293e-01,7.52629e-02,-3.24329e-01,-2.46558e-02,-9.29581e-02,-4.94123e-01,-2.32618e-01,6.61510e-03,-2.15011e-01,-2.21932e-01,-3.05111e-01,1.30708e-01,1.69910e-01,-1.87419e-01,
2.35418e-01,-4.98671e-02,-2.52053e-01,-1.39549e-01,-4.75147e-01,-2.74603e-01,1.69008e-01,-1.46054e-01,-7.91192e-02,-1.72891e-01,1.20367e-01,1.89662e-01,-7.36770e-04,2.60503e-01,-3.18189e-01,6.72931e-03,-5.00565e-02,1.46141e-02,9.81595e-02,-6.70237e-02,3.05395e-02,-1.92947e-01,-1.94524e-01,1.99795e-01,2.74957e-01,-1.89864e-01,-6.24405e-02,-2.57663e-01,-9.09211e-02,2.35518e-01,
-2.21396e-01,-6.41434e-02,1.47884e-02,1.46685e-02,2.69449e-02,-7.57774e-02,1.30238e-02,8.12124e-02,-2.34844e-01,2.59334e-01,4.27916e-02,-8.30841e-02,-8.97203e-02,9.84047e-02,-2.12706e-01,-1.01433e-02,1.03558e-01,-2.74071e-01,1.19416e-01,2.28094e-01,-3.00054e-01,2.67632e-02,1.07695e-01,-2.83613e-01,5.79841e-02,1.32008e-01,3.59719e-02,8.06919e-02,1.99167e-01,2.94443e-01,
4.14600e-02,6.55357e-02,-2.41444e-01,-2.24679e-01,2.38293e-01,-2.52509e-01,2.83366e-01,-1.06635e-01,-8.77291e-02,1.58150e-01,1.04041e-01,9.96149e-02,1.19103e-01,2.94745e-01,2.21585e-01,-2.29527e-02,-1.95443e-01,-2.06766e-01,-2.99897e-01,-2.01908e-01,1.94523e-01,-3.20858e-01,1.75366e-01,-2.69178e-02,-7.45600e-02,3.78748e-02,-3.05067e-01,2.09512e-01,-2.48168e-01,-2.07932e-01,
3.29687e-02,-1.86427e-01,2.27614e-01,-1.80691e-01,-3.12843e-02,-5.68294e-02,1.44320e-01,-5.78738e-02,-5.40358e-02,-3.06489e-01,-8.83878e-02,1.94333e-01,1.63978e-02,2.13867e-01,1.75172e-01,2.38230e-01,-4.08609e-01,2.16890e-01,-2.54787e-01,9.13799e-02,-1.13128e-02,1.86006e-01,-1.28647e-01,6.66360e-02,-4.35194e-02,1.72237e-01,5.28982e-02,2.47146e-01,-1.20299e-01,5.86437e-02,
3.72973e-01,-1.33282e-01,2.20823e-02,5.21193e-01,5.47550e-02,3.84478e-01,-5.17520e-01,7.12668e-03,3.48332e-01,-1.25814e-01,3.89051e-01,-5.99648e-02,3.59028e-01,-3.37296e-02,-3.45326e-02,-2.01676e+00,-3.31139e-01,2.60121e-01,4.18807e-01,-1.99415e-01,5.04700e-01,-2.27860e-01,1.67731e-01,3.86399e-02,2.03377e-01,-1.34247e+00,-3.06672e-01,-2.87668e-01,3.12756e-01,2.71515e-01,
-2.36222e-02,1.63622e-01,2.36915e-01,-9.82962e-02,8.61508e-02,1.41237e-01,1.09594e-01,8.23139e-02,-1.52462e-01,1.84219e-01,1.41942e-02,8.46187e-02,-1.71914e-01,2.19123e-02,1.27087e-01,-9.61447e-02,-1.33959e-01,2.85852e-02,9.78567e-02,-1.38821e-01,1.28200e-01,1.17932e-01,-2.06932e-01,-2.58714e-01,2.37857e-01,-1.05413e-01,6.38109e-02,2.04302e-02,-2.66663e-01,-7.00467e-02,
-2.69013e-01,1.62158e-01,1.00398e-01,-9.30359e-03,-2.28892e-01,7.45961e-02,-6.38510e-03,1.82865e-01,2.99676e-01,-2.46767e-01,-2.63955e-01,-3.54296e-02,-5.24922e-02,3.00643e-01,-2.62399e-01,-2.37118e-01,-2.34931e-01,-1.42922e-01,1.77481e-01,-5.83578e-02,2.12596e-01,1.55011e-01,-3.10136e-01,2.94865e-01,-2.71616e-02,9.61437e-02,2.82443e-01,2.58817e-01,2.70943e-02,2.84368e-01,
-8.59035e-02,2.75140e-01,5.37533e-01,-6.38741e-02,-1.45004e-01,1.39169e-01,3.32957e-01,1.21041e-01,5.60515e-02,5.47312e-02,-9.86385e-02,2.62485e-01,2.87591e-01,5.05356e-01,3.34144e-01,6.66439e-01,-8.74412e-01,2.57500e-01,-1.83851e-01,2.79772e-01,-1.48969e-01,1.73858e-01,5.59867e-02,-4.08154e-01,-4.50040e-01,4.26909e-01,-2.28012e-01,3.89202e-01,3.04259e-01,-1.17682e-01,
2.83956e-01,2.71375e-01,-1.19986e+00,-1.16377e+00,-1.69603e+00,-4.47621e-02,-1.03585e+00,-1.79488e+00,6.17098e-01,-5.28231e-02,8.51006e-02,-5.19744e-01,9.75107e-02,-8.16781e-01,1.59371e-01,-8.61551e-01,-4.18875e-02,3.80124e-01,-5.24133e-02,2.50730e-01,2.80153e-01,-2.52575e-01,1.29351e-01,1.17349e-02,3.82349e-01,-7.60892e-01,-6.99458e-01,-8.62255e-01,-2.06666e-01,2.39883e-02,
-1.35937e-01,2.95313e-01,1.35596e-01,-2.47367e-01,-2.90024e-01,2.18870e-02,1.25218e-01,-3.00438e-01,3.98415e-03,2.27196e-01,-2.74908e-01,2.41253e-01,8.29721e-02,7.87166e-03,-1.24414e-01,-2.21934e-01,7.51609e-03,-1.83868e-01,-2.35354e-01,-1.92543e-01,-2.70897e-01,2.53011e-02,8.31741e-02,-7.06028e-02,3.05103e-01,9.94586e-02,-2.38226e-01,6.45380e-02,2.12529e-01,2.79724e-02,
-3.97027e-02,1.01789e-02,2.01129e-01,-5.02435e-02,-3.04139e-01,3.62053e-02,1.64086e-01,6.60312e-03,1.06635e-01,-2.14580e-01,-3.59630e-02,-9.46013e-02,1.45172e-01,9.29234e-03,1.48968e-01,7.20301e-01,-2.73027e-01,-3.12984e-03,-5.26670e-02,2.74185e-01,-1.04685e-01,1.35578e-01,6.09593e-03,-1.52993e-01,-2.52789e-01,4.46120e-01,-1.37644e-01,7.07455e-02,1.01366e-01,4.83694e-02,
-1.38631e-01,3.15045e-01,1.55246e-02,-1.95747e-03,1.49123e-01,2.79208e-01,-2.84647e-01,-2.36852e-01,2.52887e-01,3.23885e-02,-2.42633e-01,1.13448e-01,1.20933e-02,-1.76192e-01,-2.21743e-01,-1.40357e-01,1.25329e-02,1.65547e-01,-1.90125e-01,-1.10676e-01,1.33847e-01,-2.99802e-01,-1.59184e-02,1.54102e-01,-6.55190e-02,2.89540e-01,2.04434e-01,1.78944e-01,2.66161e-01,-1.81003e-01,
4.18337e-01,-5.30861e-02,2.24790e-01,5.22547e-02,2.56967e-02,5.89925e-01,-9.28404e-02,-1.89231e-01,-5.36836e-02,1.65821e-01,4.83346e-02,7.00613e-02,8.53665e-02,6.41723e-01,-3.46788e-01,-9.56262e-01,-2.47077e-01,3.90203e-02,2.76587e-02,-5.39548e-02,-2.76991e-02,-6.03560e-01,-1.03144e-01,9.61490e-03,3.29161e-01,-9.31470e-01,-5.40763e-03,-8.71632e-03,-1.39114e-01,2.90572e-01,
-4.23735e-02,2.55564e-01,-2.34248e-01,4.08410e-01,4.24638e-01,2.12994e-01,-3.19842e-01,-9.95928e-03,-4.67413e-02,2.19514e-01,2.66678e-01,-2.40987e-01,-1.57674e-01,-3.65132e-01,1.44310e-01,-8.33035e-01,3.30286e-01,-3.36650e-01,2.58657e-01,1.13502e-01,1.47082e-01,1.56679e-02,4.26636e-02,3.75786e-02,3.27497e-01,-7.67654e-01,1.09238e-02,-2.37803e-01,2.50165e-01,-1.01221e-01,
1.19660e-01,-3.15179e-01,-1.56282e-01,1.82933e-01,-2.44613e-01,2.14067e-02,-9.39372e-02,-2.36958e-01,6.68638e-02,2.97922e-01,9.44433e-02,-3.23876e-01,1.75280e-01,9.64136e-02,-2.42803e-01,-2.39169e-02,1.38291e-01,1.13241e-02,-6.09748e-02,-1.84785e-01,-3.10214e-01,-1.19632e-01,7.95476e-02,1.48921e-01,-2.50009e-01,3.85614e-02,-5.70675e-03,1.04351e-01,4.59774e-02,-3.68002e-03,
-8.43897e-02,-2.59279e-01,-8.97887e-02,-5.64615e-02,1.28002e-01,-1.57218e-01,-2.00786e-02,1.30422e-01,1.13421e-01,-1.76310e-01,-1.01797e-01,2.10606e-01,3.88554e-02,-9.54986e-02,9.87899e-02,1.45332e-01,-1.37340e-02,-2.94348e-02,-5.88498e-02,7.51137e-02,1.42591e-01,-1.63880e-02,1.52037e-01,3.36709e-01,-5.42757e-02,8.73141e-02,-7.28251e-02,-1.02495e-01,-1.65711e-01,-1.62771e-01,
4.43556e-02,1.52372e-01,-5.92945e-01,-7.32058e-02,-3.54454e-01,1.59135e-01,-2.73126e-01,-4.99617e-01,2.81034e-01,1.92939e-01,3.24573e-01,-7.29446e-01,-2.11267e-01,-3.28191e-01,-1.49213e-01,1.30739e-01,1.67746e-01,-2.17475e-02,-1.62382e-01,3.10501e-01,-1.30489e-02,-1.06522e-01,3.55433e-02,-1.54017e-01,-7.71508e-02,-2.12191e-01,-8.31560e-02,-3.51881e-01,8.15065e-02,2.04586e-01,
-2.43735e-01,-3.12056e-01,-2.82584e-01,2.17313e-01,-1.13771e-01,2.55214e-01,1.83063e-01,5.77741e-03,1.47552e-01,-1.12783e-01,-3.03938e-01,5.49076e-03,-2.46894e-01,-1.53608e-02,-1.49697e-02,2.17810e-01,-2.06892e-01,-2.77543e-01,-7.79931e-02,3.11501e-01,-3.22186e-01,-2.11187e-01,-1.60110e-01,1.69079e-01,2.16869e-01,-1.48251e-02,1.96238e-01,7.01645e-02,-2.10339e-01,-1.94333e-01,
3.21031e-02,7.77890e-02,-2.63508e-01,4.86025e-02,-1.59001e-01,-1.63951e-01,-1.63393e-01,-1.25324e-01,-3.11604e-01,2.20294e-01,6.95219e-02,-3.10316e-01,-1.46186e-01,-2.71898e-02,-3.63502e-01,-1.59736e-01,4.19294e-01,-2.26439e-01,1.60244e-01,2.62870e-02,-2.35226e-01,-1.53396e-02,-7.48848e-02,-6.00300e-02,2.37724e-01,-1.22733e-02,1.14398e-01,-8.07656e-02,-1.84099e-01,-1.05651e-02,
-1.85305e-01,-1.77128e-01,-1.29157e-02,-1.17098e-02,-3.99411e-01,-7.48496e-02,2.83692e-03,-2.26655e-01,4.36131e-02,3.34930e-02,-9.41044e-02,-3.19180e-01,-4.29200e-01,2.78091e-01,-1.33115e-01,2.40001e-02,-3.34486e-01,7.11454e-02,-1.73635e-01,3.76043e-02,3.72873e-02,-3.80573e-01,-9.73200e-03,1.01724e-01,1.85200e-01,8.36038e-02,9.78829e-02,-2.50291e-01,7.58017e-02,-2.98681e-01,
-9.66395e-02,1.71694e-01,1.43956e-01,-2.31497e-01,-2.17589e-01,-8.34552e-02,9.87088e-02,-2.69589e-01,-3.69223e-02,-5.51764e-02,-3.05388e-02,-8.72311e-02,6.19277e-02,-2.82166e-02,7.23192e-02,-1.04277e-01,2.91799e-01,1.37817e-01,-3.13247e-01,-8.12630e-02,-2.61889e-01,-6.75368e-02,8.81437e-02,1.60625e-01,1.60689e-01,2.46364e-01,2.28854e-01,2.63382e-01,-1.82162e-01,-2.47007e-01,
-7.38782e-02,1.91620e-01,-2.82977e-01,-2.24645e-01,2.67204e-01,2.59616e-01,3.07280e-02,3.28498e-03,6.21425e-02,6.14639e-02,1.64193e-02,-1.41673e-01,-6.15569e-02,2.46308e-01,-1.45973e-01,3.05513e-01,-2.52284e-01,1.21781e-01,-1.16024e-01,7.16706e-02,2.83060e-01,-2.04101e-01,6.53018e-02,2.61758e-01,-2.14262e-01,2.70699e-01,3.07617e-02,-9.15446e-02,-2.49119e-01,-2.59349e-01,
6.01746e-01,4.03934e-02,3.56527e-01,-5.96755e-02,-3.61324e-02,-5.61486e-01,-3.50448e-01,1.71558e-01,4.27963e-02,5.54181e-02,9.16704e-02,1.87670e-01,3.18139e-01,-5.81834e-01,1.76881e-01,-6.63137e-01,4.19985e-01,1.50094e-01,-1.52084e-01,-9.61062e-02,2.04022e-01,-3.77680e-01,6.79501e-01,2.25827e-01,8.35476e-03,-8.07639e-01,2.07715e-01,1.85309e-01,2.52217e-01,-1.03010e-01,
9.94677e-02,2.61657e-01,-3.03102e-02,7.65998e-03,-3.08896e-01,-1.09333e-01,-7.21140e-02,2.00405e-01,6.84661e-02,-7.14801e-02,-5.01568e-02,-2.87635e-01,1.53646e-01,-4.07203e-01,4.17044e-02,-1.33364e-01,1.94042e-01,-6.63292e-02,1.59620e-01,1.19660e-02,1.70091e-01,7.91760e-02,-3.59141e-01,3.34716e-01,-9.39213e-02,-8.65402e-02,1.99207e-01,1.01996e-02,1.30873e-01,-1.15141e-01,
-9.37006e-02,1.73981e-01,1.36162e-01,-1.64600e-02,-2.78078e-01,3.93666e-02,-1.40730e-02,1.03068e-01,-1.43668e-01,2.31722e-02,-3.40840e-02,-3.12474e-02,1.43516e-01,2.20613e-01,-3.39367e-03,-2.48519e-01,-2.19342e-02,2.48439e-01,-3.56468e-02,-1.78157e-01,-2.33348e-01,3.43218e-02,-1.09823e-01,8.87145e-02,1.12040e-01,1.45228e-01,2.38863e-01,1.21915e-02,3.16075e-01,-2.47668e-01,
-1.17262e-01,-2.76253e-01,6.83119e-02,1.42919e-01,-2.61276e-01,-5.02179e-03,-6.86248e-03,-3.81678e-01,1.57648e-01,9.72902e-02,-1.70720e-01,-7.52935e-02,-3.78950e-01,2.20409e-01,3.06303e-02,1.50986e-01,2.01806e-01,-1.27007e-01,-1.73792e-01,1.33160e-01,-7.39599e-02,-6.96832e-02,-3.19290e-01,-1.30415e-01,-1.16957e-03,-1.39210e-04,-3.52828e-01,-1.86198e-01,-1.55362e-01,1.14133e-01,
-2.80728e-01,6.69631e-02,1.91658e-01,2.83383e-01,-2.05153e-01,1.13390e-01,7.10553e-02,-3.75338e-02,-1.31731e-01,-7.97237e-02,-1.85430e-01,1.06379e-01,-2.79063e-01,-9.28393e-02,5.33436e-03,-1.52227e-01,1.10886e-01,-2.70161e-01,-1.34593e-01,2.52369e-01,1.65113e-01,2.49897e-01,-1.34622e-01,-1.72449e-01,8.67375e-02,1.71732e-01,-1.51057e-01,-8.99200e-03,-2.69528e-01,2.60182e-01,
4.90514e-02,2.35822e-02,-1.68955e-02,8.14516e-02,4.78064e-02,1.32659e-01,-3.28386e-01,3.76991e-01,3.56383e-01,1.69902e-02,6.17723e-02,4.11677e-02,-1.65173e-02,3.33337e-01,-3.81089e-01,-4.53688e-01,-4.77358e-01,7.02554e-02,4.72327e-01,1.74634e-01,1.09429e-01,1.12456e-01,1.09175e-02,4.92384e-03,-8.50659e-02,1.93352e-02,1.17024e-01,1.08845e-01,1.14534e-01,-4.96959e-02,
6.83539e-02,-1.24669e-02,1.87167e-01,8.34154e-02,-2.24130e-01,2.61436e-01,5.33131e-03,-1.78462e-01,-6.57344e-03,-2.50756e-01,2.28905e-01,-3.71331e-01,-1.35638e-01,-2.87165e-01,-5.79813e-02,-2.98202e-01,1.41909e-01,-4.79403e-02,2.06629e-03,-1.90192e-01,-1.54515e-02,-1.07968e-01,-2.94407e-02,-1.88860e-01,-7.78275e-03,-2.51993e-01,6.08388e-02,6.64549e-02,-1.73759e-01,-1.18859e-02,
1.42907e-02,
-9.12000e-02,
9.43063e-02,
-1.97477e-01,
-1.46263e-02,
-4.66559e-02,
1.14056e-01,
-1.72952e-01,
-7.54745e-02,
6.54714e-02,
-1.46775e-01,
1.57829e-02,
-2.54562e-01,
-1.29997e-02,
-4.67416e-02,
2.32729e-01,
2.08739e-01,
1.47711e-01,
-1.07358e-01,
1.74376e-01,
-5.11101e-02,
3.98846e-02,
-2.30812e-01,
-9.72469e-02,
1.72013e-02,
2.93447e-02,
-9.97428e-03,
-2.81905e-01,
-5.82569e-02,
3.04611e-02,
2.44321e-01,1.99097e-01,4.53578e-03,-2.40946e-01,-1.25267e-01,6.59656e-02,-1.72539e-01,1.28674e-01,6.47164e-02,-2.93365e-02,-2.14732e-01,1.10784e-01,-2.03875e-01,2.24305e-01,1.68884e-01,-8.98741e-02,2.74683e-01,-1.62298e-01,7.30162e-03,2.67655e-01,-2.64170e-01,-6.12230e-02,-2.88150e-01,1.79318e-01,-1.94534e-02,-2.26443e-02,-1.59472e-01,7.68830e-02,2.73960e-01,2.10681e-01,
-8.16006e-02,3.64684e-02,-1.42634e-01,2.49752e-01,-1.15328e-01,8.60943e-02,1.99619e-01,-1.24159e-01,6.26818e-02,2.93168e-01,5.34244e-02,-8.88051e-02,2.44334e-01,-8.27944e-02,-1.99517e-01,2.48030e-01,2.82052e-01,7.25106e-02,-9.28159e-02,2.05732e-02,2.26116e-01,1.50346e-01,2.07634e-01,-6.47640e-02,7.48239e-02,-8.17304e-02,-3.14032e-02,3.16834e-01,-2.13753e-02,2.34185e-01,
-2.09396e-01,4.81642e-02,-2.53272e-01,-2.86028e-01,1.66510e-01,-8.29736e-01,-3.88670e-01,-2.01475e-01,-5.18745e-01,-5.65709e-02,2.09431e-01,3.37595e-01,-2.93672e-01,3.98433e-01,-1.07924e+00,5.70079e-02,-4.59460e-02,1.76459e-01,2.63236e-01,-4.75412e-01,1.42649e-01,1.60612e-01,9.97936e-02,3.73674e-01,9.74518e-02,-3.25849e-01,-2.84891e-02,5.50490e-02,-2.24760e-01,1.28659e-01,
2.24080e-01,-3.00631e-01,-2.01877e-01,-1.96782e-01,-3.23219e-01,5.21279e-02,7.57752e-02,-1.22406e-01,2.93803e-02,-1.17907e-02,-3.02588e-01,1.16718e-01,-2.93314e-01,1.86307e-01,7.27204e-02,3.18841e-02,-3.13126e-01,-1.08822e-01,-2.42740e-01,1.75256e-01,2.23461e-02,-2.89783e-01,-3.07188e-01,-1.18011e-02,7.11892e-02,6.81507e-02,1.28869e-01,-2.02431e-01,-1.34703e-01,2.37760e-01,
9.44133e-02,1.86554e-01,2.70003e-02,-2.62449e-01,2.80953e-01,-1.09098e-01,1.54524e-01,1.32839e-01,-7.38865e-02,-8.02525e-01,2.85722e-01,8.20088e-02,2.59697e-01,1.38051e-01,2.02521e-01,-1.31989e-01,2.15987e-01,-2.34276e-02,3.01439e-01,5.95909e-02,-2.50916e-01,-1.84694e-01,-3.08277e-01,2.56699e-01,1.77206e-01,-9.51226e-03,-1.87517e-01,3.64118e-03,-1.94533e-02,-3.46753e-01,
1.78357e-02,1.91959e-01,5.33866e-02,-2.15714e-01,4.88286e-01,7.59768e-01,4.95492e-02,-2.20302e-01,-1.76296e-01,7.79825e-01,-6.66058e-02,-7.61777e-02,1.08533e-02,-7.22323e-01,-2.97872e-01,4.62683e-01,1.67368e-01,-1.32809e-01,-2.45070e-01,-1.77056e-01,1.81471e-01,-1.20315e+00,2.13379e-01,-9.88153e-02,-5.32598e-01,7.79669e-01,1.00516e-01,2.96221e-01,-1.71128e-01,2.96005e-01,
-2.41206e-01,2.66795e-01,1.62367e-02,8.17599e-02,1.62798e-02,2.98196e-01,-1.24154e-01,-2.89694e-01,1.53510e-01,1.25507e-01,3.06227e-01,2.15612e-01,-1.60368e-01,-1.89465e-01,-1.69317e-01,-1.55662e-01,-5.55630e-02,2.56908e-01,-1.27726e-01,-7.65043e-02,1.66384e-01,-3.94351e-02,3.11035e-01,2.67221e-02,-1.73436e-01,-5.68241e-02,1.02431e-02,2.94693e-01,2.02625e-01,-2.92852e-01,
6.21910e-02,1.12585e-01,1.08962e-01,-1.48212e-01,-1.62439e-02,4.10581e-01,-2.69019e-01,-7.23615e-02,-1.60976e-01,1.20996e+00,-2.40189e-01,3.15617e-01,-1.33064e-01,-1.82616e-01,-1.78497e-01,1.29180e-01,-1.40377e-02,3.06365e-01,-2.06436e-01,1.20278e-01,2.65061e-01,5.75093e-02,-5.21972e-02,3.74097e-01,2.61186e-02,-1.29310e-01,-2.65424e-01,3.25805e-01,-2.52832e-01,-4.99389e-01,
1.52609e-01,-3.29083e-02,-3.19631e-02,8.73900e-02,-2.59150e-01,-3.22634e-01,2.69306e-01,7.93480e-02,-7.05091e-02,-2.51303e-01,1.48224e-01,-3.12620e-01,1.99266e-01,2.87470e-01,7.12666e-02,-1.88005e-02,-1.79821e-01,1.47611e-01,-2.48628e-01,-4.50276e-02,-4.71535e-02,1.80041e-01,-7.42415e-02,-3.74977e-02,7.35382e-02,2.09005e-01,1.03932e-01,-2.81038e-01,-1.69384e-01,-7.59075e-02,
1.52134e-02,1.26856e-01,2.37804e-01,-2.78771e-01,4.48828e-02,-3.24090e-02,6.49971e-02,6.73935e-02,2.29613e-01,5.94696e-02,-2.77272e-01,2.22748e-01,1.74387e-01,1.74686e-01,3.77931e-02,-1.26909e-02,-9.35741e-02,1.88590e-01,-2.10326e-01,-1.37742e-01,2.27748e-01,-2.35352e-01,2.74967e-01,3.04677e-01,1.33346e-01,-3.26841e-02,-1.01427e-01,6.17060e-02,-2.69560e-01,-2.73707e-01,
1.84510e-02,1.65818e-01,-2.73563e-01,-5.59894e-02,-1.02327e-01,-1.70971e-01,2.75278e-01,-8.06713e-02,-1.61798e-01,1.54758e-01,-1.85179e-01,-1.71126e-01,2.14160e-01,6.03659e-03,6.70346e-02,-2.94182e-03,-3.10712e-01,1.29197e-01,2.56700e-01,7.16051e-02,8.21628e-02,-2.83618e-01,-2.03172e-01,-3.19718e-01,2.69450e-01,-8.10401e-02,3.14365e-01,2.25953e-01,4.47014e-02,1.66636e-01,
9.22926e-02,3.93953e-02,2.23504e-01,1.63347e-01,1.89725e-01,2.96820e-01,2.64611e-01,-1.79793e-01,1.62968e-01,-2.06864e-01,-2.35049e-01,-1.24623e-01,-1.83371e-01,1.45672e-01,3.69070e-02,2.18393e-02,3.07810e-01,1.61958e-01,1.30238e-01,2.32351e-01,7.78301e-02,-2.02746e-01,1.28506e-02,-1.86598e-01,1.01604e-01,1.96243e-01,-1.79106e-01,-2.88368e-01,6.84373e-02,5.47654e-02,
3.37194e-01,-1.96263e-01,-2.14655e-01,3.02984e-01,8.54059e-01,1.11854e+00,-1.89593e-01,-2.33148e-01,3.15241e-01,7.76372e-01,1.75696e-01,-1.31379e+00,3.56087e-03,-1.55342e+00,-1.58509e+00,1.77824e-01,1.63590e-01,8.18304e-01,2.50783e-01,1.93530e-01,-2.23286e-01,-7.86746e-01,2.45122e-01,-8.68544e-01,4.31591e-01,-9.96412e-02,2.49050e-01,-1.23940e-01,-1.02776e+00,-1.22331e-01,
1.09122e-02,-1.29440e-01,9.13395e-02,8.72336e-03,-2.13157e-01,9.83535e-02,5.26674e-02,3.11919e-01,3.56705e-02,-8.93605e-02,-3.05912e-02,1.00409e-01,-9.68015e-02,-1.19560e-01,-1.91382e-01,-1.89561e-01,3.30603e-03,-5.64828e-02,2.09651e-01,5.15422e-02,-7.50218e-02,1.53566e-02,2.63669e-01,1.77901e-02,-1.81455e-01,1.47267e-01,1.02503e-01,2.09700e-01,-7.27998e-02,9.55005e-02,
-1.05356e-01,1.21525e-01,6.65716e-02,1.79510e-02,2.10901e-01,1.52743e-02,1.66157e-01,-1.99213e-01,-1.63235e-02,2.51564e-01,-2.11336e-01,-1.73699e-01,-1.33227e-01,-2.46512e-01,1.44635e-01,1.59191e-01,-3.25790e-01,-7.44189e-02,-5.70277e-02,5.50579e-02,-5.07316e-02,9.08943e-02,-1.41762e-01,-1.92452e-01,2.12430e-01,2.33171e-03,-2.60016e-01,1.01284e-02,-5.40998e-02,-7.65463e-02,
2.87594e-01,-3.53943e-02,-8.29444e-02,2.93994e-01,-9.60861e-01,4.01343e-01,3.46209e-01,-1.77395e-01,7.50711e-01,1.08667e-01,-2.79744e-01,-1.17683e+00,-1.71290e-01,-3.02957e-01,-1.42470e-01,-1.57101e-02,-2.62061e-01,1.74173e-01,-2.98211e-02,3.81932e-01,-2.55742e-01,-7.42167e-02,3.08044e-01,-3.54006e-01,3.64598e-01,-1.62097e-01,2.40920e-02,-9.00226e-02,-2.13764e-01,-2.44057e-01,
1.13888e-01,-1.59016e-01,5.39901e-02,3.59379e-02,2.97489e-01,-1.20301e-01,2.57493e-01,-1.54254e-01,-2.38996e-01,-3.06071e-01,-3.49897e-02,2.97385e-01,-5.08687e-02,3.27240e-01,5.52895e-03,4.65568e-02,4.22978e-01,1.41702e-01,7.03955e-03,-4.32017e-02,-1.58948e-01,1.38172e-01,1.91582e-01,9.43819e-02,2.81771e-01,-1.25067e-01,-2.62561e-01,-1.31689e-01,-8.57245e-02,-2.11090e-01,
9.54958e-02,8.71369e-02,-1.87884e-02,1.52595e-01,2.50698e-01,2.43378e-01,2.73826e-01,2.99224e-02,2.62831e-02,-4.60638e-02,9.42989e-02,1.86491e-03,8.68530e-02,2.57184e-01,-9.43989e-02,3.53297e-02,6.02258e-01,2.40887e-01,2.07888e-01,1.63435e-01,1.38094e-01,-3.34428e-02,2.14785e-01,-7.98779e-03,3.29667e-01,-3.76027e-02,7.52337e-02,-3.07223e-02,3.79749e-02,1.33962e-01,
-1.80912e-01,1.14539e-01,-3.66092e-01,-2.65604e-01,-9.41453e-02,1.02515e-01,1.80025e-01,9.34693e-02,9.31707e-02,5.61669e-02,-1.80265e-01,-2.08375e-01,1.32487e-01,-2.10682e-01,-2.78908e-01,-3.92148e-02,2.73274e-01,1.66731e-01,-2.50150e-01,-2.28972e-01,3.42586e-01,-3.37277e-01,2.09176e-01,2.60619e-01,-2.02249e-01,1.69127e-02,-1.10211e-01,-9.68269e-02,-8.34993e-02,-6.52157e-03,
2.79427e-01,-1.09829e-01,-1.95068e-01,2.26334e-01,-4.36996e-02,-1.75086e-01,5.57063e-02,-1.34116e-01,2.28482e-01,2.63138e-01,-1.78475e-01,-1.31587e-01,8.03232e-03,8.69473e-02,-3.02471e-01,-4.56229e-02,-4.99715e-02,5.44108e-02,-1.12795e-01,1.27936e-01,2.82285e-02,-1.08536e-01,1.47426e-01,-2.80215e-01,1.92269e-01,1.13608e-01,-2.39464e-01,-5.07810e-02,-9.84297e-02,-2.60605e-01,
-2.33867e-01,3.56815e-02,-6.66471e-02,8.58903e-02,-2.32085e-01,4.46565e-02,-6.89814e-02,2.77701e-01,-2.88576e-01,-3.95087e-02,-2.99241e-01,-1.72086e-01,4.54628e-03,-4.10220e-02,7.09081e-02,-2.62219e-01,-2.41537e-01,-2.20228e-01,-2.84372e-02,-9.23568e-02,-3.10095e-01,1.42311e-01,2.47908e-01,-9.38750e-02,-1.24103e-02,-2.42525e-01,-2.12670e-01,-1.29495e-01,7.36266e-03,1.31250e-01,
-1.99897e-01,1.51798e-01,-1.49487e-01,-2.10756e-01,2.72573e-01,-1.01102e+00,-2.63997e-02,1.97835e-01,-5.20948e-01,-5.04956e-01,-1.17064e-01,3.20270e-01,2.49832e-01,3.88000e-01,-1.17865e+00,2.75210e-02,3.20908e-02,1.62830e-01,2.59669e-02,-2.81674e-01,3.33709e-01,5.78895e-02,2.86219e-01,4.49916e-01,9.94472e-02,-1.78405e-01,-1.69185e-01,1.48216e-02,-2.54878e-01,4.29847e-02,
1.47352e-01,-1.29549e-01,-1.93871e-01,-2.14724e-02,9.47870e-02,2.65743e-01,-1.56757e-01,-2.58938e-01,7.35115e-02,2.33733e-01,-3.21121e-02,-2.93691e-01,2.57398e-02,2.52659e-01,-2.44782e-01,-7.60077e-02,-6.23560e-02,1.41114e-01,3.15898e-01,-1.33525e-01,1.47369e-01,-7.73678e-02,4.31629e-02,5.11240e-02,-9.89930e-02,-3.18315e-01,7.75901e-02,-3.06934e-04,2.52849e-01,5.94405e-02,
1.28663e-01,-2.69852e-01,-5.23372e-02,-7.45447e-02,2.49491e-01,1.67316e-02,1.66403e-01,-4.11215e-02,-6.46568e-02,-1.61049e-01,-1.88976e-01,2.49849e-01,-1.08539e-01,-1.80031e-01,1.70331e-01,2.18333e-02,-2.58308e-01,-2.89819e-01,3.11451e-01,-3.48112e-02,5.44560e-02,-2.80351e-01,6.30536e-02,-1.09644e-01,-2.67192e-01,-3.05654e-02,1.24065e-01,-2.44643e-01,-1.40458e-01,2.12561e-01,
3.74641e-02,2.54693e-01,-7.60609e-03,-3.14089e-01,-2.71906e-01,1.10266e-01,-4.60443e-02,-4.65856e-02,8.62947e-02,-1.00338e-01,2.24395e-02,-3.32511e-01,-1.91305e-01,-8.92285e-03,-2.51253e-01,-2.26431e-01,-2.29582e-01,1.82506e-01,1.09829e-01,-3.45661e-01,1.75598e-01,-1.14603e-02,-8.08018e-02,-1.51091e-01,-3.60615e-01,2.15185e-01,1.76114e-01,2.73614e-02,-9.69454e-02,-2.16548e-01,
-8.31855e-02,-6.69926e-03,2.81273e-02,2.05103e-01,-3.69209e-01,-7.65783e-03,1.26178e-01,1.99354e-01,-3.53790e-01,-2.97934e-01,-2.94612e-01,3.03517e-03,-5.04920e-02,-3.51169e-01,-1.04523e-01,-1.10922e-01,-1.81769e-01,-2.02974e-01,1.97670e-02,-3.32985e-01,-1.58141e-01,1.75039e-01,-2.59371e-01,9.49965e-02,-1.98147e-01,-4.63521e-02,-3.28277e-02,-1.10932e-01,-3.86909e-01,-1.15456e-01,
9.86937e-02,1.52258e-01,-1.42386e-01,-3.14218e-01,-2.05205e-02,7.70420e-02,2.51940e-01,2.04779e-01,-1.01054e-01,3.25509e-01,-1.55141e-02,2.27789e-01,2.53395e-01,-5.08117e-02,-2.54248e-01,-1.35343e-01,4.12899e-01,-4.25771e-03,-1.13400e-01,1.99486e-01,2.09437e-01,3.33287e-01,-1.24395e-01,1.95851e-01,3.12186e-01,-1.54770e-01,3.32138e-01,-2.16681e-01,-1.62147e-03,1.90298e-01,
-1.64540e-01,1.50545e-01,-2.13432e-02,-1.42027e-01,2.35410e-01,1.84303e-01,-3.52412e-01,4.86032e-02,5.06186e-02,-2.55832e-01,2.87365e-01,-1.22804e-01,-2.03465e-01,-9.89592e-02,2.63752e-01,-3.64133e-01,-1.98057e-01,2.07598e-01,-1.12965e-02,-9.14948e-02,3.20229e-01,2.42750e-01,2.26726e-01,-8.11473e-02,-3.12844e-01,8.27662e-02,-2.43796e-01,5.62051e-02,-3.41032e-01,-1.87711e-01,
-1.75185e-01,1.40855e-01,-1.64363e-01,2.52964e-01,-2.18980e-01,-3.41319e-01,3.95686e-02,1.82410e-01,4.51908e-01,-5.76056e-01,6.06948e-03,-4.41285e-01,-1.97597e-01,-9.06602e-03,-8.87319e-01,1.92127e-01,2.11178e-01,2.45378e-01,-9.10910e-02,2.82843e-01,-5.02248e-02,-3.77779e-04,2.04390e-01,-3.47416e-02,3.73457e-01,-9.26200e-02,2.51373e-01,-2.87706e-01,-1.30735e-01,-2.11264e-02,
-2.37523e-01,2.76090e-01,1.33502e-01,-8.77576e-02,1.54162e-01,1.21636e-01,-1.63403e-01,-3.12939e-01,1.17227e-02,-1.70777e-01,-2.59161e-01,-2.75466e-01,-2.57818e-01,-1.67138e-02,-8.58431e-02,-1.71716e-01,-3.26234e-01,-3.12186e-01,-1.34219e-01,-3.09416e-01,6.65768e-02,-3.38639e-01,3.04600e-01,-1.62221e-01,-1.97379e-01,3.33345e-02,-2.81130e-01,-1.16418e-01,-5.54689e-02,7.43066e-03,
-6.06696e-03,
1.91844e-01,
1.72471e-01,
-2.08376e-01,
-4.48844e-02,
-1.20612e-01,
-2.34797e-01,
2.93583e-02,
-1.82655e-01,
-2.06113e-01,
-1.35783e-01,
2.22386e-01,
-8.88169e-02,
2.52694e-02,
9.84586e-02,
-7.77466e-03,
3.36356e-01,
-2.06066e-01,
2.67159e-01,
-2.22028e-01,
-2.58402e-01,
6.02417e-02,
-6.89946e-02,
-1.33091e-01,
7.13433e-02,
3.04065e-02,
-1.26826e-01,
7.18635e-02,
-5.29508e-02,
1.11032e-01,
1.58799e-01,2.75976e-01,-1.18296e-01,-6.60027e-02,-2.01328e-02,8.41203e-02,1.37898e-01,3.45180e-02,2.26717e-01,-2.97699e-01,-2.50319e-01,2.07776e-01,2.73143e-01,-2.71372e-02,-1.07588e-01,-8.88808e-02,3.14311e-01,-1.94097e-01,-3.07288e-02,1.52722e-01,3.09308e-02,-1.99593e-01,-1.99660e-01,2.98978e-01,-2.39612e-01,-2.59238e-01,1.00143e-01,-1.44466e-01,-3.56442e-02,9.43994e-02,
-1.71190e-01,-1.18251e-02,1.90460e-01,-2.81480e-01,-2.13198e-01,2.99622e-01,2.48700e-01,-2.72868e-01,-1.16224e-01,-2.56725e-02,-2.59597e-01,2.09575e-01,2.89749e-01,-2.11499e-01,3.00949e-02,8.09448e-02,1.51881e-01,1.82802e-01,-2.68473e-01,-7.17536e-02,8.11876e-02,1.75605e-01,1.33243e-01,-1.39233e-01,-1.14400e-01,-1.68791e-02,-3.10717e-01,1.91689e-01,2.97192e-01,1.22502e-01,
-1.24174e-01,2.06645e-01,2.08634e-01,-1.90723e-01,7.40337e-02,4.18863e-02,-2.02680e-01,6.00915e-02,-3.24505e-01,2.67746e-01,-1.54533e-01,1.32690e-01,-2.14238e-01,-3.77498e-02,2.94601e-01,-5.48847e-02,-1.94982e-01,-2.92170e-01,3.01770e-01,2.23897e-01,1.72918e-02,2.07473e-01,-2.43339e-01,-1.68412e-01,5.47124e-02,-1.38005e-01,-6.35085e-02,-1.25225e-01,-6.68980e-02,-4.02483e-02,
-1.96224e-02,-2.00707e-01,-5.98201e-01,2.21143e-01,-1.46704e-01,3.40992e-01,2.57050e-01,2.58747e-01,2.52542e-01,7.57489e-03,1.43071e-01,-1.19995e-01,1.65865e-01,-2.61761e-01,7.77407e-02,3.17566e-01,1.50187e-01,2.96962e-01,4.06799e-02,-3.03117e-01,-2.14565e-01,-2.54618e-01,3.05173e-01,7.55548e-02,-2.06775e-01,-6.34621e-02,-9.60266e-02,-3.23197e-01,-1.34450e-01,2.57825e-01,
3.07113e-02,-2.99208e-01,-2.65777e-01,1.53805e-01,2.43138e-01,-2.18245e-01,1.50228e-01,-4.17012e-02,2.68732e-01,-2.29127e-01,1.86213e-01,2.44684e-01,-2.28331e-01,1.06670e-01,-1.52505e-01,-5.71288e-02,-2.90937e-01,-2.32378e-01,9.53286e-02,-2.84381e-01,2.03723e-01,2.40065e-01,8.63116e-02,8.27900e-03,7.24200e-02,-5.78859e-02,2.44076e-02,-8.81608e-02,1.01353e-01,-2.43133e-01,
-1.37189e-03,3.23682e-02,6.19543e-02,2.32481e-01,-2.90039e-01,-2.05419e-01,-6.39713e-02,3.13460e-01,-1.49024e-01,2.34219e-01,4.10894e-02,2.18327e-01,-1.36539e-01,-2.30120e-01,-2.90608e-01,-4.84351e-02,-2.71397e-01,-9.24864e-02,-7.40203e-02,-1.67381e-01,-8.96687e-02,1.59230e-01,3.16034e-01,7.23311e-02,-4.48600e-02,9.92828e-02,-3.59276e-02,-2.94410e-01,1.00329e-02,-3.32488e-02,
2.76684e-02,-2.86679e-01,1.32140e-01,2.85669e-01,-9.02003e-02,-2.13474e-01,3.69689e-02,-3.74259e-02,-8.18199e-02,2.61631e-01,1.78921e-01,1.97230e-01,-8.67514e-02,-1.22161e-01,-1.09556e-01,2.86477e-01,6.52601e-02,1.13307e-01,-7.30067e-03,7.99077e-02,-1.75616e-01,1.58686e-01,2.46305e-01,-1.38854e-01,-1.32799e-01,7.96097e-02,1.19075e-01,-2.05606e-01,-1.21265e-01,2.02149e-01,
-6.38737e-02,-3.06738e-01,-2.95034e-01,-1.52791e-01,2.37473e-02,9.88543e-03,-1.83789e-02,-6.65492e-02,1.76475e-01,1.68608e-01,-2.85655e-02,-2.45981e-01,9.52119e-02,-3.84464e-02,-7.17894e-02,-2.04073e-01,1.12837e-01,-1.56754e-01,-2.74433e-01,3.08628e-01,9.74020e-02,-2.26035e-02,1.89693e-01,1.62364e-01,2.78894e-02,1.51930e-01,-8.42990e-02,7.76862e-02,1.44858e-01,-6.50927e-02,
-1.17468e-01,5.84164e-03,-6.71648e-02,-1.59773e-01,-3.07132e-01,-3.12812e-01,1.58573e-01,-3.22435e-01,-5.73344e-02,-2.08103e-01,-3.05688e-01,8.54745e-02,2.88188e-01,2.39779e-01,-4.25732e-02,-8.87053e-02,4.66386e-02,5.16403e-03,2.23402e-01,-1.89789e-01,2.15317e-01,-1.85239e-01,-2.73369e-01,2.22368e-01,1.32950e-01,-2.39848e-01,-1.51058e-01,2.31551e-01,1.40472e-01,4.57402e-02,
3.24965e-02,-1.97520e-02,1.28314e-01,-2.44622e-02,4.02173e-03,-4.92506e-02,2.26347e-01,1.43985e-03,3.56177e-03,9.25337e-02,2.84645e-01,-2.54446e-02,-5.45855e-02,1.30636e-01,1.78786e-01,1.75091e-02,-1.57144e-02,2.43406e-02,8.24895e-02,1.31304e-01,-1.52375e-01,3.21897e-03,1.16575e-01,-1.13158e-01,-1.91783e-01,-1.40755e-01,-7.32795e-02,-2.71802e-01,1.48638e-02,-1.46424e-01,
5.83499e-01,1.24633e-01,-2.22297e-01,-9.69726e-02,3.90657e-01,-2.80113e-01,-1.88607e-01,-5.56198e-01,2.58552e-01,-6.09339e-02,-3.02662e-01,-2.00370e-01,-3.45410e-02,-6.01215e-02,1.07104e-01,1.31516e-01,-1.70075e-01,8.13873e-02,-1.91588e-01,-1.73313e-01,2.70469e-01,7.02033e-01,-1.45205e-01,1.02849e-01,2.56731e-01,-1.64823e-01,-5.41422e-01,1.65265e-01,2.46336e-01,-2.15701e-01,
2.23201e-01,3.50287e-01,-2.18980e-02,5.04880e-02,-6.97270e-02,-3.58190e-02,2.25286e-01,5.39931e-03,6.48848e-02,-7.31095e-02,-6.49343e-02,1.50148e-01,-7.66545e-02,8.53406e-02,1.58946e-01,8.23594e-02,3.69328e-01,-2.72773e-01,1.50709e-01,2.11717e-01,-1.77619e-01,4.38200e-02,-1.18175e-01,-1.89453e-01,2.21097e-01,3.42785e-02,-1.08754e-01,2.14019e-01,2.41634e-02,-1.50624e-01,
-2.65333e-01,-2.33704e-01,-2.35116e-01,-8.15680e-02,2.93415e-02,8.80005e-02,1.88630e-01,-1.10186e-01,-1.41648e-01,2.44454e-01,-9.22967e-02,1.96330e-01,1.91789e-01,-2.73427e-01,-1.62326e-01,-1.13840e-01,2.47503e-01,-1.13571e-01,-2.73034e-01,2.58601e-01,-2.26008e-02,1.66134e-01,6.46959e-02,-2.99637e-01,-5.07999e-02,-2.21840e-01,-1.75945e-01,-7.86251e-03,2.70857e-01,2.98755e-01,
1.43459e-01,-7.69648e-02,2.08009e-01,-3.07080e-02,1.61627e-01,-7.43585e-02,-7.16777e-02,-5.16177e-02,2.49622e-01,2.67244e-01,2.05528e-01,-2.87689e-01,-2.14149e-02,7.97591e-02,1.28773e-01,-2.26889e-01,1.89888e-01,5.06733e-02,-1.81811e-01,2.63533e-03,-1.70468e-02,2.30791e-01,-2.53547e-01,-2.13549e-01,-3.64320e-02,-2.07576e-01,-1.21143e-01,-4.80508e-02,-3.41913e-01,-2.30220e-01,
3.26871e-01,1.76690e-01,-1.32543e+00,8.30192e-02,3.08937e-01,5.27728e-01,2.14434e-01,-1.75628e-01,-3.99878e-02,-3.02065e-02,2.42078e-01,2.76181e-01,8.24964e-01,2.33128e-01,-2.73800e-02,3.23040e-01,-1.73212e-01,-2.06754e-01,-2.13137e-02,2.45821e-01,-1.68884e-01,7.48224e-01,1.49074e-01,6.48755e-03,-2.24739e-01,-1.77706e-01,8.71882e-02,-1.47626e-01,1.07762e-01,2.98939e-03,
-3.10314e-01,-2.76261e-01,-2.53749e-01,9.12637e-03,-2.75790e-01,-2.40523e-02,8.24855e-02,5.26425e-02,2.18584e-01,-4.84002e-02,2.51515e-01,2.10528e-01,2.37192e-02,-1.55596e-01,-1.35319e-01,-2.04841e-01,4.22020e-02,1.81571e-02,-9.84669e-02,1.24664e-01,-2.15924e-01,-7.08580e-02,-2.05427e-01,3.01140e-01,5.33194e-02,-5.26534e-02,-3.14771e-01,-2.94656e-01,1.78064e-01,-2.76129e-01,
-2.47555e-01,2.85522e-02,-6.54418e-02,1.72558e-01,-2.70145e-01,-3.08761e-02,1.59450e-01,1.33538e-01,2.52179e-01,1.53858e-01,-1.35610e-01,-3.12429e-01,1.62506e-01,-1.89305e-01,2.66338e-01,-3.08624e-01,-3.18951e-01,-1.69806e-01,-1.86079e-01,1.28852e-02,-1.28046e-02,8.20638e-02,-1.60708e-01,-4.93301e-02,-1.88501e-01,1.83154e-01,-7.79694e-02,-8.17930e-02,-5.93876e-02,-2.64475e-01,
-2.02623e-01,-2.93954e-01,2.84155e-01,2.94431e-01,-4.16442e-02,2.90175e-01,9.82364e-02,-2.06154e-01,-1.56022e-01,6.97149e-02,1.92941e-01,2.05401e-01,-1.68371e-01,2.58018e-01,-2.73959e-01,-7.83773e-02,1.92451e-01,-1.72105e-01,-1.66146e-01,-1.95497e-02,-2.35105e-01,1.41379e-01,1.55322e-01,2.13976e-02,3.14739e-01,-2.16161e-02,3.87923e-02,2.51767e-01,-8.40276e-03,-2.43716e-01,
-1.77578e-01,3.98686e-02,-1.57664e-01,-2.35037e-01,-3.68337e-01,-3.11914e-01,-2.97331e-01,-1.76089e-01,9.37430e-02,-3.43698e-02,-1.48166e-01,-3.61740e-01,1.19261e-01,5.95905e-02,-4.49686e-01,-3.56341e-01,1.03055e-01,-1.97631e-02,-1.52118e-01,2.63116e-01,-1.53630e-01,-3.23487e-01,2.20558e-01,2.37970e-01,1.93730e-01,-2.64470e-01,-2.26089e-01,-2.39723e-02,-3.35043e-01,3.04354e-01,
1.40383e-01,-3.03223e-01,-7.43010e-02,-2.53664e-01,-1.26984e-01,-2.95904e-02,-1.77860e-01,-1.96661e-01,-1.01790e-01,8.72618e-02,-9.54434e-02,9.53057e-02,-2.44120e-01,-1.93282e-01,-2.87953e-01,6.70208e-01,-6.31625e-04,1.96909e-01,-3.10259e-01,1.41369e-01,-1.24772e-01,3.10714e-01,-2.20349e-02,1.50083e-01,-2.27829e-02,1.86036e-01,-1.03047e-01,-1.73763e-01,1.98659e-01,2.09506e-01,
3.20783e-02,-2.58912e-01,1.08004e-01,8.54040e-02,-1.93749e-01,-1.91169e-01,2.79667e-01,-2.10385e-01,-1.97263e-01,4.02919e-02,1.39142e-01,-1.28729e-01,-1.08158e-01,-1.93916e-01,1.24970e-01,-6.92726e-02,-2.09229e-01,-2.06628e-01,-3.13285e-01,3.53137e-02,-2.49602e-01,1.14444e-01,-2.60089e-01,2.16658e-01,1.64339e-01,-2.58481e-01,2.56712e-01,1.38852e-01,7.13999e-02,-1.25809e-01,
1.24725e-01,1.67094e-01,-9.56157e-02,-2.26432e-01,-2.11465e-01,1.87621e-01,2.92227e-01,1.31659e-01,-2.45090e-01,-1.77932e-01,3.17222e-01,-2.33978e-02,3.73371e-01,9.93292e-02,6.15882e-02,8.01828e-02,2.16065e-01,1.15415e-01,1.29376e-01,1.84324e-01,1.11569e-01,-1.16665e-01,1.51426e-01,2.51087e-01,1.50015e-01,1.59741e-01,3.54162e-02,-1.39870e-01,-2.66444e-02,-2.78341e-01,
-2.52655e-01,-2.54283e-01,-2.02836e-01,8.30518e-02,1.20936e-01,-7.24949e-02,9.79900e-02,-3.29403e-01,2.76573e-01,-1.79986e-01,1.38123e-01,2.59691e-01,1.36068e-01,1.47863e-01,-2.30880e-02,-1.35488e-01,-1.19128e-01,-2.51232e-01,-9.98484e-02,-2.34108e-01,2.45008e-01,-5.33419e-02,-9.36802e-02,2.36110e-01,2.25377e-01,-8.72706e-02,-2.48885e-01,-1.89503e-01,-2.06858e-01,1.64747e-01,
9.26172e-02,-4.82412e-02,1.00153e-01,2.56545e-01,1.69713e-01,-2.39614e-01,3.54180e-03,-1.66797e-01,1.48201e-01,-1.31311e-01,1.24131e-01,3.52055e-01,-2.93789e-01,-1.48012e-01,-4.64855e-02,-1.47217e-01,1.64834e-01,-5.06672e-01,-1.01579e-01,-2.15827e-01,-1.73276e-01,-4.30563e-02,-1.44345e-01,2.61853e-01,-2.00924e-01,-6.98228e-02,5.50640e-02,-6.50136e-02,4.70183e-02,-2.02020e-01,
1.82642e-01,-3.13711e-01,1.76464e-01,9.19138e-02,-7.53926e-02,-1.36463e-01,2.17590e-03,2.03296e-01,2.74181e-01,1.67583e-01,2.60664e-01,3.00237e-01,-2.27480e-01,2.31920e-01,-2.94220e-01,2.75911e-01,1.85301e-02,2.63474e-01,-2.70056e-01,1.20317e-01,7.76941e-03,-1.33461e-01,2.05726e-01,3.27203e-02,2.51876e-01,-7.63221e-02,-8.00241e-02,2.06581e-01,-1.66339e-01,2.54492e-01,
-2.41237e-01,-7.24179e-03,-1.49154e-01,2.30805e-01,1.00560e-01,-1.13880e-01,2.38007e-01,-2.47856e-01,5.73612e-02,7.41538e-02,-2.15883e-02,7.36906e-02,4.30838e-02,-2.22334e-01,-1.03043e-01,-2.75742e-02,-1.21034e-01,1.76148e-01,2.41451e-01,-1.89316e-01,-4.57152e-02,3.98057e-02,2.74440e-01,-3.01086e-01,-2.56849e-01,-3.05623e-01,-7.67909e-02,-1.26962e-01,2.57481e-01,3.74875e-02,
-2.09473e-01,2.87053e-01,3.03222e-01,4.30180e-02,-1.14788e-01,2.06326e-01,3.01951e-02,-2.47658e-01,1.13205e-01,-3.00183e-01,1.81453e-01,-2.69687e-01,1.40335e-01,2.31549e-01,-2.77114e-01,3.70824e-02,-1.13857e-01,1.64790e-01,-5.16669e-03,-3.80915e-02,-2.19398e-01,7.52438e-02,-2.71862e-02,5.47401e-02,-1.78621e-01,2.98285e-01,-2.37401e-02,1.37929e-01,-1.41884e-01,-5.75328e-02,
-7.05994e-02,-2.64951e-01,-3.25384e-01,1.61093e-01,-1.40444e-01,-1.55923e-01,9.68243e-02,-5.06697e-02,-8.13508e-02,-3.09458e-01,-9.68106e-02,-1.17579e-02,-5.29094e-02,-2.16637e-01,-1.03028e-01,-2.91678e-01,-5.48463e-02,-3.02144e-01,6.75252e-02,-3.01900e-01,-7.93467e-02,2.83516e-01,-1.23742e-01,-2.70621e-02,-2.67123e-01,-7.15728e-02,-3.34643e-01,4.17581e-03,-1.37679e-01,-9.66982e-02,
-2.98539e-02,-3.01739e-01,-9.91191e-02,-2.00912e-01,-1.15827e-01,-2.78071e-01,2.93620e-01,2.39186e-01,-3.14598e-01,4.99595e-02,9.33434e-02,-6.29950e-02,-3.04596e-01,-1.50401e-01,-2.38280e-01,5.18343e-02,5.01828e-02,-1.24304e-01,4.91462e-02,1.70897e-01,-1.27056e-01,2.86310e-01,1.66025e-02,1.80755e-01,-1.00084e-01,3.08900e-01,2.67293e-01,6.99851e-02,-1.14127e-01,-1.50189e-01,
-3.62385e-02,5.35967e-02,-1.16796e-01,1.98247e-01,3.58220e-01,6.59177e-01,-1.36588e-01,-7.19054e-03,-2.47203e-01,-1.50373e-01,1.49569e-01,1.65680e-01,9.69363e-01,-4.26183e-01,2.48683e-01,-2.06103e-01,-2.42459e-01,-3.69971e-01,9.73769e-02,1.94875e-01,1.32588e-01,9.93771e-02,-2.50585e-02,-1.57769e-01,2.47806e-02,1.71600e-01,4.29458e-02,6.67978e-02,-2.05496e-01,2.26424e-01,
3.92134e-01,
-3.17438e-01,
-4.55340e-02,
-6.77824e-02,
-2.60074e-01,
-2.67407e-01,
-2.12962e-01,
2.02237e-01,
-2.13198e-01,
1.64974e-01,
1.28490e-01,
1.80770e-02,
-2.30279e-01,
-1.16240e-01,
-1.03244e-01,
2.11920e-02,
2.39812e-01,
-2.20722e-01,
1.44839e-01,
1.76010e-01,
-3.04062e-01,
-9.84447e-02,
4.98394e-02,
3.24947e-02,
-2.90661e-01,
-5.70919e-02,
-2.34525e-01,
9.81172e-02,
-1.39108e-01,
1.60756e-02,
-2.36708e-01,2.33279e-01,-2.52355e-01,3.61005e-03,2.57208e-01,1.67436e-01,-3.06277e-01,5.87627e-02,-1.37470e-01,-2.83243e-01,1.45957e-03,-1.56180e-01,-1.10366e-01,2.39676e-01,2.71749e-02,9.44168e-02,1.87528e-01,-3.17572e-01,3.04654e-01,-3.15130e-02,-2.74617e-01,-3.85738e-01,2.31019e-01,-4.31316e-01,3.29206e-01,-1.64814e-01,3.91346e-01,2.21228e-01,-1.45959e-01,9.95502e-03,
3.50525e-01,2.03500e-01,2.22590e-01,-5.99788e-02,-1.50966e-01,-3.41446e-01,-3.35360e-01,-3.38655e-02,-1.41957e-01,-1.37868e-01,1.70632e-03,-2.70792e-01,3.28239e-01,1.10739e-01,-1.31609e-03,3.54062e-01,3.47474e-01,-2.92025e-01,-2.16124e-01,7.06856e-02,3.77945e-01,-1.70545e-01,-1.72429e-01,-1.16620e-01,2.94941e-01,-1.42452e-01,6.89914e-02,-3.87710e-01,-3.66443e-02,-2.34790e-02,
-2.73878e-01,-1.44588e-01,-1.29768e-01,-8.43500e-02,6.33180e-02,2.93108e-01,2.78695e-01,-1.77627e-01,-7.66888e-02,-1.57274e-01,1.93581e-02,-5.45183e-01,4.04894e-01,-4.42755e-01,-2.21067e-02,1.28714e-01,-8.21735e-02,-1.53568e-01,3.04830e-01,-1.66085e-03,3.78745e-01,3.04493e-02,-1.64943e-01,-1.73809e-01,-3.64612e-01,1.11444e-01,2.62833e-02,2.00262e-01,-2.46278e-01,-7.60951e-03,
1.71313e-01,-1.20422e-01,7.02403e-02,-8.70507e-02,2.97712e-01,-2.41057e-01,-1.64140e-01,3.68945e-02,-2.43503e-01,3.58236e-02,2.26672e-02,3.72435e-01,3.03418e-01,-2.19688e-01,-1.55814e-02,2.31509e-01,-3.00450e-01,-2.80900e-01,-2.70719e-01,1.12472e-02,-3.84018e-01,1.65998e-02,-2.98826e-01,-8.62294e-03,-4.12702e-04,1.74300e-01,1.17532e-01,-3.36407e-01,-2.45071e-01,4.83810e-02,
-2.06124e-02,-3.58055e-01,-1.30200e-01,-8.08413e-02,-2.10389e-01,3.72221e-01,-9.05306e-02,-4.09593e-01,1.04694e-01,4.72568e-02,1.97840e-02,-2.53825e-01,-4.00171e-01,-1.45119e-01,-2.12079e-02,-2.74441e-01,-2.30640e-01,1.97472e-01,2.10077e-01,-2.75234e-03,4.53551e-02,-2.30118e-01,2.79586e-01,-3.10735e-01,2.24048e-01,-2.60123e-01,2.77435e-02,2.83422e-01,-2.56345e-01,1.40059e-02,
4.11522e-01,
-1.01162e-01,
4.80683e-01,
-3.16270e-01,
1.91773e-01,
