// Neural Network File Format by Kyle Julian, Stanford 2016
6,5,5,30,
5,30,30,30,30,30,5,
15.000
499.000000,-3.141600,-3.141600,100.000000,0.000000
36656.000000,3.141600,3.141600,472.000000,1200.000000
17688.500000,0.000000,0.000000,249.000000,532.000000,9.330048
36157.000000,6.283200,6.283200,372.000000,1200.000000,423.773936
-2.37114e-01,6.06391e-01,5.68299e-01,-5.25586e-02,3.75872e-01,
6.70267e-02,3.54830e-02,4.90980e-01,-1.20641e-01,-7.96936e-01,
2.81096e-01,5.20054e-01,7.46355e-02,1.47933e-01,-5.87132e-01,
-2.97943e-02,2.86760e-01,4.92798e-02,-2.39344e-01,5.74558e-01,
-1.16004e-01,3.75169e-01,2.94153e-01,-3.10503e-01,4.75241e-01,
-5.28172e-03,-4.69609e-02,-2.82183e-01,-3.57982e-01,8.35020e-01,
4.05085e-01,1.83226e-01,8.93225e-02,-2.28458e-02,1.52081e-01,
-1.60747e-02,-6.30010e-01,-6.22287e-01,2.10941e-01,-1.08664e-01,
1.05335e-02,-6.14019e-01,6.45024e-01,-1.37293e-02,-8.52008e-03,
-1.23214e-02,-2.89484e-01,-5.11448e-01,-1.72348e-01,7.54310e-02,
2.92494e-01,-1.69782e-01,-2.76074e-01,-2.00429e-01,1.18318e-01,
-1.15757e-01,-2.93469e-01,4.57492e-01,1.32898e-01,-3.26420e-01,
-3.07865e-01,2.05222e-02,1.85593e-01,-1.78931e-01,8.48853e-01,
5.79625e-02,8.37475e-01,-3.50965e-02,7.17816e-02,-2.41877e-01,
5.04865e-01,7.04598e-01,-5.93715e-01,-2.14646e-02,5.63885e-02,
-5.75999e-01,-6.34429e-02,-6.42621e-01,3.22562e-02,3.07296e-01,
-5.55365e-01,-2.08973e-01,1.18807e-01,2.21310e-01,-2.52680e-01,
-4.26160e-01,9.65754e-02,4.70842e-02,-5.97422e-02,3.14329e-01,
-2.84583e-01,-1.69459e-02,-1.77397e-01,-1.58126e-01,-5.77856e-01,
5.51935e-01,-9.16610e-02,-2.30593e-01,-2.65645e-02,-1.85733e-01,
3.29407e-02,-9.47365e-01,9.55240e-01,-4.01019e-02,2.71341e-01,
-6.03610e-01,-7.14925e-01,-1.26142e-02,4.57407e-02,6.03790e-02,
-9.47509e-01,-6.22715e-02,7.15919e-02,-7.44483e-03,-1.55305e-03,
-5.20149e-03,8.39927e-01,-9.11829e-01,1.59029e-04,2.25403e-01,
1.61513e-01,1.72120e-01,-1.59333e-01,-4.77243e-03,-1.01351e+00,
1.52835e-01,-6.32549e-01,7.36204e-01,-8.07678e-04,-9.34896e-02,
1.96288e-01,1.13657e-01,6.93109e-01,1.10292e-02,-9.06927e-02,
-8.36884e-01,2.24662e-02,6.89827e-02,-1.00435e-01,-1.97653e-02,
-1.26733e-01,1.02895e+00,-7.06761e-01,-1.85026e-02,-4.61757e-01,
1.08767e-01,3.28750e-02,-7.57413e-01,1.66579e-01,-3.14922e-01,
2.43556e-01,
-3.77903e-01,
-6.80785e-02,
1.36635e-01,
-1.20560e-01,
2.93977e-01,
3.05518e-01,
-1.41744e-01,
3.05982e-01,
3.59520e-02,
9.34390e-02,
1.78064e-01,
5.27004e-02,
-1.11313e-01,
-1.32791e-01,
-1.07609e-01,
-1.62510e-01,
1.38702e-01,
-6.49511e-02,
3.64768e-01,
-3.20607e-01,
-3.07174e-01,
-3.55408e-01,
-2.90235e-01,
-3.37270e-01,
3.99724e-02,
1.50576e-01,
-1.95810e-01,
1.91954e-02,
-3.02818e-02,
-4.52374e-01,2.24077e-01,7.48036e-02,-4.16570e-01,1.92816e-01,5.50540e-02,1.46157e-01,2.47890e-01,-4.61107e-02,4.90790e-02,2.44316e-01,6.38351e-02,2.32605e-01,2.14563e-01,-1.72438e-01,-3.02663e-01,5.18469e-04,2.53051e-01,-3.62540e-01,-2.93178e-01,-2.70142e-02,-1.86979e-01,6.88393e-01,-3.19799e-01,-2.29373e-01,-5.18519e-01,1.02893e-01,-1.12943e-01,1.78216e-01,2.50543e-01,
-3.99912e-02,4.91845e-02,2.34715e-01,1.63412e-02,-3.07578e-01,1.97855e-01,4.55154e-01,-5.94261e-02,1.48080e-01,-1.15326e-01,2.37613e-02,-2.79799e-02,-8.66641e-02,-2.63637e-01,4.43453e-02,4.58526e-01,5.58742e-02,1.57083e-01,-2.62063e-01,-1.28756e-01,7.76543e-02,3.86872e-01,3.67541e-01,1.13573e-01,3.79466e-01,-6.05797e-01,4.70343e-01,-5.53293e-01,-1.79453e-02,-7.29304e-02,
3.67579e-01,7.24474e-03,1.68308e-01,3.98913e-02,-1.68910e-01,2.42737e-01,1.52549e-01,5.24190e-01,5.61889e-03,3.97137e-01,1.52059e-02,-3.78021e-01,-1.19558e-01,2.44906e-01,-4.80295e-01,-1.06242e-01,-9.30819e-03,1.13642e-03,4.98554e-02,4.76257e-02,-1.25962e+00,9.94987e-02,1.08445e-01,-1.56855e+00,-5.37342e-01,-6.30688e-01,2.54342e-01,1.56679e-02,-6.27817e-01,9.92476e-02,
-1.30139e-01,6.80713e-01,-4.21549e-01,-1.35781e-01,4.34520e-01,1.61549e-01,-3.38711e-01,9.66454e-02,-1.91460e-01,-1.58215e-01,1.24593e-01,4.79749e-05,-7.39712e-01,2.85933e-01,-9.83297e-02,-4.21730e-01,1.44547e-01,-3.82028e-01,6.90425e-01,2.81352e-01,-1.05668e-01,1.15931e-01,6.04454e-01,4.31942e-02,-5.55788e-02,-1.63259e-01,1.13095e-01,7.43352e-01,6.15106e-02,1.72912e-01,
3.28094e-01,-8.29342e-02,2.93499e-01,4.23540e-03,2.44527e-01,-3.28365e-01,-1.41200e-01,2.00937e-01,1.17066e-01,3.81721e-01,2.66607e-01,5.86299e-02,3.74072e-01,-1.72852e-01,-1.32135e-01,-5.18168e-02,2.72340e-01,9.82863e-02,2.49874e-01,5.34669e-02,-5.14043e-02,-1.59399e-01,-6.63319e-01,-5.27470e-01,8.86818e-01,-1.49762e-01,3.39607e-01,-1.00051e-01,3.72672e-01,-2.99470e-01,
3.15737e-01,-4.96780e-01,9.48857e-02,1.52993e-01,9.39278e-02,3.74052e-01,-1.70005e-01,-8.16812e-01,-2.98380e-01,-4.05420e-01,9.48035e-02,6.86133e-02,-4.26223e-01,-1.52278e-01,4.24094e-02,4.59231e-02,-2.90497e-01,2.37528e-01,7.26833e-02,1.54299e-01,-6.48254e-01,2.60167e-01,-7.06639e-01,1.50981e-01,9.82509e-02,-1.28910e-01,-1.98376e-01,-2.09087e-01,-3.33849e-01,2.81297e-01,
4.12916e-02,1.78882e-01,-1.35769e-01,1.27435e-01,-5.45551e-02,7.92901e-02,-1.23940e-01,-1.97866e-01,-5.53695e-01,1.25798e-02,-2.14920e-01,-8.74476e-02,-1.47980e-01,-3.45043e-02,5.70649e-01,3.70383e-02,6.14649e-01,9.45284e-02,1.18877e-01,-1.67928e-01,1.13172e-01,1.01060e-01,1.75204e+00,8.87100e-02,-3.78516e-01,-3.97136e-01,-6.60035e-02,7.54346e-01,-1.24138e-01,3.80658e-01,
-9.51908e-02,-3.58460e-01,-7.00020e-01,1.12687e-01,-3.13697e-01,-1.90611e-01,-1.14532e-02,2.45004e-01,2.02179e-01,-1.44961e-01,-1.04807e-01,-1.93560e-01,3.14286e-01,-6.70034e-01,5.87474e-02,9.49324e-02,5.20893e-01,1.25488e-01,8.44365e-03,3.36203e-01,-3.79200e-01,-6.01207e-01,1.33695e+00,-1.39096e+00,2.77258e-01,-2.56383e-01,-3.16611e-01,-1.56019e-02,-4.53519e-01,5.20842e-01,
5.43801e-02,1.81372e-01,-2.09534e-02,3.37809e-01,-2.76335e-01,-1.35322e-01,-2.92507e-01,1.01422e-01,1.62815e-01,-5.29722e-01,-5.36801e-01,-2.61800e-01,-1.19681e-01,1.59460e-01,1.87263e-01,-1.02628e-01,-3.16564e-01,2.87449e-01,2.22600e-01,6.30938e-01,-4.18847e-01,2.13827e-01,-9.15699e-01,4.41917e-01,-4.38829e-01,7.59469e-02,-4.08360e-01,4.25140e-01,1.46405e-01,-2.18271e-01,
1.08914e-01,1.47412e-01,3.40600e-01,-5.43657e-01,-2.45207e-01,-3.53378e-01,8.15381e-02,-1.19277e-01,7.53143e-02,3.22875e-01,4.49602e-01,1.66637e-02,8.10496e-01,3.11549e-01,-7.08482e-01,-5.01147e-01,-3.16902e-01,-5.28067e-01,2.36720e-01,-1.17703e-01,-1.80587e-01,-1.64979e-01,-3.45811e-01,-4.47524e-01,1.04284e+00,3.35860e-01,2.37667e-01,-4.78141e-01,-1.59932e-01,-1.35484e-01,
1.64217e-01,-1.42993e-01,5.40513e-02,-1.24854e-01,3.76379e-02,-2.61078e-01,-7.28224e-02,4.38034e-02,4.10886e-02,2.53469e-01,-1.67935e-01,-1.65187e-01,-1.73702e-01,-1.35450e-01,1.46119e-01,-2.48804e-01,4.30127e-02,2.46467e-01,-7.70085e-02,1.47300e-01,2.87394e-01,1.14164e-01,7.61622e-02,-2.20745e-01,-3.10231e-01,-2.07764e-01,-2.08418e-01,-1.99626e-01,-1.02052e-01,-1.99234e-01,
1.07501e-01,-4.39685e-01,-1.05931e-01,-1.42544e-01,-2.94813e-01,3.05974e-01,1.39966e-01,-9.82098e-02,-2.32979e-01,-2.74205e-01,2.84759e-01,2.22587e-01,-1.72342e-01,-3.52570e-01,4.74389e-01,-2.51519e-01,-2.93140e-01,-2.15020e-01,-7.74153e-02,-5.63530e-02,1.97853e-01,1.36314e-03,-1.65440e-01,1.19043e-01,8.45576e-02,1.48027e-01,9.24369e-03,-4.29236e-01,2.77576e-01,6.90820e-02,
1.64077e-01,1.20884e-01,4.61173e-01,3.65659e-03,1.45179e-01,1.27015e-01,-2.15939e-01,-7.49260e-01,2.20099e-01,1.70886e-01,-1.82541e-01,2.05506e-01,-6.23354e-01,-2.24440e-02,1.95300e-01,-6.50567e-02,-4.66363e-02,1.08950e-01,-8.23644e-02,-3.11300e-02,1.33025e-01,7.15793e-02,-8.77087e-01,-2.51056e-02,-4.67456e-01,2.86696e-01,-8.09550e-02,7.33677e-02,-1.92975e-01,-2.29371e-01,
-4.10483e-01,-5.87377e-02,1.24909e-01,3.62035e-01,1.89538e-01,2.14367e-01,-1.44558e-01,-1.19782e-01,2.33154e-01,1.73151e-01,9.19201e-02,3.91945e-01,3.55530e-01,-3.79129e-01,-3.00903e-01,3.27758e-01,2.16206e-01,4.31840e-01,-1.56624e-01,-8.49741e-02,2.65406e-01,-2.31669e-01,4.14074e-01,8.22205e-01,1.36083e-02,1.90584e-01,-1.31670e-01,1.80167e-01,3.02804e-01,5.78007e-01,
8.91872e-02,2.99797e-01,-5.56676e-01,-2.26956e-01,-2.91765e-01,-2.14288e-01,5.71211e-02,-3.62187e-02,2.37418e-02,4.09046e-01,2.17747e-01,6.95640e-01,8.47406e-02,-1.11096e-01,-2.23521e-01,-1.79144e-01,-1.58396e-01,2.21077e-01,3.26915e-01,1.72379e-01,8.39801e-01,-4.91449e-01,-1.47958e+00,5.92889e-02,4.79639e-01,1.14904e-01,-8.96696e-02,1.03335e-01,-1.03985e-01,-1.65746e-01,
2.58860e-01,-4.43516e-01,3.11533e-03,3.37183e-01,-1.03521e-01,2.20714e-01,3.98253e-02,1.45129e-01,-2.77308e-01,1.70525e-01,8.35468e-03,-3.16464e-01,-4.62473e-02,4.16085e-02,1.41917e-02,-1.64754e-01,-2.95331e-01,-3.89113e-02,-1.05870e-01,9.75402e-02,-9.30623e-01,6.46464e-01,7.44758e-01,-1.05811e+00,-1.59549e-01,4.34635e-01,4.32768e-01,-6.00210e-01,-2.17179e-01,3.27522e-01,
-1.86376e-02,3.14917e-01,-1.84772e-01,-1.12616e-01,1.02119e-01,-2.70236e-01,-1.58567e-01,-1.66285e-01,-1.39215e-01,-5.33990e-02,-3.05202e-02,-6.26903e-02,-3.10780e-01,-5.72238e-02,-3.29138e-01,3.44553e-01,5.54541e-01,3.30548e-01,4.84028e-01,-2.90135e-01,2.09957e-01,5.16569e-01,2.05061e+00,4.86971e-01,-8.51663e-02,-3.19567e-01,-1.09401e-01,1.01476e+00,1.97980e-01,-2.44581e-01,
-4.99020e-01,3.35179e-01,-9.26031e-02,-2.58471e-01,4.57342e-02,-5.18629e-02,3.02750e-01,-1.59269e-01,2.89393e-02,-2.07524e-01,-4.79229e-01,7.70568e-02,-1.32466e-01,-1.68178e+00,2.47520e-01,-4.63945e-01,-1.70059e-01,3.58037e-01,7.26772e-02,-7.88480e-01,5.88056e-01,7.77655e-01,-1.64103e-01,-6.69988e-01,1.68609e+00,2.12778e-02,1.60114e-02,4.87662e-01,4.69934e-01,7.44039e-02,
-3.55517e-02,-3.44133e-01,-5.43623e-01,-1.09546e-01,-4.21218e-02,2.38656e-02,1.87726e-01,-1.34294e-01,1.18927e-01,-7.31728e-01,-1.74035e-01,1.63017e-01,4.94691e-02,4.02447e-01,1.89050e-01,-1.05325e-02,6.61134e-01,2.23769e-01,-2.53187e-01,-1.93660e-01,-3.42537e-01,1.52730e-01,6.20648e-01,5.23653e-01,-4.74193e-01,3.76841e-01,-3.20621e-01,-5.95510e-01,1.58305e-02,8.65118e-01,
-1.75812e-01,-1.29914e-01,-2.66113e-01,-2.64255e-01,-6.99428e-02,-7.85434e-02,-3.42095e-01,-5.23236e-01,8.69521e-02,-1.43701e-01,-8.10039e-02,1.45571e-01,4.33945e-01,-6.03747e-02,-4.57777e-01,7.01023e-01,3.54900e-01,6.49822e-02,-1.97941e-01,-1.27917e-01,-9.89211e-02,-9.55489e-01,1.17305e-01,-1.87712e-01,-4.16635e-01,1.22676e-01,5.08604e-02,1.40123e-01,4.13067e-01,-1.38333e-01,
3.78734e-01,-1.10553e+00,3.09012e-01,1.21600e-01,-1.20769e-01,2.42910e-01,1.81977e-01,7.00176e-02,-1.52379e+00,-2.97680e-01,-2.29594e-01,-1.15548e-01,-5.41707e-01,1.36139e-01,-3.03631e-02,3.10879e-01,-3.42616e-01,-3.05509e-02,1.44687e-01,1.14752e-01,5.58074e-01,7.98306e-01,-4.51289e-01,-5.93677e-01,-5.35673e-01,3.62157e-01,-7.46326e-02,-2.08038e-01,-3.51956e-01,-1.84585e-01,
7.90996e-03,1.22323e+00,-5.25483e-01,3.57289e-01,6.08134e-01,1.97105e-01,-2.80367e-02,3.09093e-01,4.22663e-02,-3.17593e-01,-1.48273e-01,-3.30564e-01,-3.33361e-01,3.27909e-01,-3.13535e-01,3.51105e-01,-1.84619e-01,-9.98570e-03,6.66788e-02,6.43043e-01,-2.38838e-01,-8.22588e-02,-4.75591e-01,-8.93558e-02,-7.35663e-01,-2.39494e-01,-1.07727e+00,-2.89802e-01,-2.97962e-01,-4.11228e-02,
1.96475e-01,1.53035e+00,-4.19666e-01,-8.62788e-02,-1.55294e-01,2.98888e-01,-1.71389e-01,3.67865e-01,-1.00077e+00,1.37267e-01,3.50889e-01,-7.00085e-02,-3.36246e-01,1.30487e-01,-2.84176e-02,-1.68545e-03,1.70037e-01,2.56700e-01,-1.37111e-01,-1.96714e-01,-5.68451e-01,-1.30795e-01,1.26697e+00,-6.64455e-01,-9.88451e-01,-2.16061e-01,-5.10966e-01,3.60357e-01,-7.52459e-02,-5.73966e-01,
3.78193e-01,-2.61936e-01,4.70389e-01,-4.06315e-01,-4.25353e-01,3.19402e-01,-4.02400e-01,7.86966e-02,4.29449e-01,5.36359e-02,5.95194e-01,-4.42875e-03,-1.98509e-01,2.54916e-01,5.73214e-01,-3.10370e-01,-8.83452e-02,1.50579e-01,1.50235e-01,-6.87800e-01,-3.85994e-01,1.89870e-01,1.38131e+00,5.50778e-01,1.31910e+00,-3.14674e-02,2.33701e-01,4.04481e-01,-4.78727e-01,3.45076e-01,
2.79225e-01,-1.88754e-01,1.19380e-01,4.17200e-01,1.37202e-01,3.96770e-02,1.07337e-01,3.51064e-02,1.61500e-01,1.23807e-01,1.20606e-01,-1.37458e-01,-5.23742e-01,6.43261e-01,3.00486e-01,3.06356e-01,-2.76075e-01,2.60854e-01,-2.90186e-01,-7.53642e-02,5.66576e-01,3.12401e-03,5.65047e-01,5.31857e-01,-1.20365e-01,1.88093e-01,-1.71041e-01,-4.72902e-01,5.53349e-01,-3.80579e-01,
-3.83979e-01,6.33992e-01,-3.96233e-01,5.52324e-02,3.04763e-01,-8.29289e-02,-2.54681e-01,-5.74062e-02,-2.86111e-01,3.43910e-01,-2.43101e-01,2.24481e-03,-3.61403e-01,3.04349e-01,3.71573e-01,4.88770e-01,-2.03643e-01,3.38388e-01,5.67901e-01,1.34452e-01,1.14131e-01,-2.83559e-01,-1.06650e-01,-4.14040e-01,-8.68713e-01,2.56829e-01,2.73083e-02,3.93506e-01,-2.04651e-01,1.57121e-01,
2.81875e-01,-1.94726e-01,-6.20681e-01,-9.22315e-03,1.41775e-01,-5.29967e-01,5.71235e-01,4.61794e-01,-4.88368e-01,5.01465e-02,-1.55507e-01,7.59180e-02,1.30041e-01,2.35019e-01,-1.27121e+00,-5.71710e-01,6.50137e-02,1.01769e-01,1.02961e-01,2.13440e-01,-1.75402e-01,-5.70055e-01,1.98630e-01,-3.25501e-01,-1.69577e+00,-1.62926e-01,-2.12250e-02,-2.46907e-02,-3.57573e-01,-3.80116e-01,
-6.57604e-01,-2.14808e-02,-4.40896e-01,3.84458e-01,2.52788e-01,-5.62252e-01,-3.73725e-01,-2.80253e-01,2.36058e-01,-1.76034e-01,-1.55514e-01,4.12064e-01,6.54480e-01,-5.11530e+00,5.94795e-01,-1.29845e-01,2.24515e-01,-2.06221e-01,8.45346e-02,2.38632e-01,6.70637e-01,8.04139e-02,7.70893e-02,6.65438e-01,5.35657e-01,2.95175e-01,1.03604e-01,-4.20326e-02,7.74946e-03,2.42919e-01,
-2.08189e-01,1.12339e-01,-6.88948e-02,-1.58625e-01,-1.72349e-01,-4.91339e-01,-1.79981e-01,2.50612e-02,-1.68950e-01,-3.88279e-02,-3.60100e-01,-7.60536e-03,3.56564e-01,1.17806e+00,7.36356e-01,1.91126e-01,1.29000e-01,-6.34094e-01,5.73673e-02,3.72615e-01,-3.84378e-01,2.52961e-01,1.04889e-01,9.76132e-01,-4.40061e-01,9.21483e-01,9.34435e-02,-4.20615e-01,1.41763e-01,2.26102e-01,
2.42234e-02,-1.28801e+00,6.69792e-01,3.74688e-01,3.83521e-01,2.22679e-01,-3.75531e-02,3.70138e-02,-5.88369e-01,2.85939e-01,2.70635e-01,2.47437e-01,1.74313e-01,4.85077e-01,-7.65569e-01,3.20341e-01,-8.26520e-02,-4.84764e-01,-1.33454e-01,4.72917e-02,1.95553e-01,2.03789e-01,-5.18242e-01,-4.50783e-01,-7.79916e-01,2.18793e-01,-3.14919e-01,1.43777e-02,-3.12445e-01,8.95255e-02,
3.76769e-01,
6.83255e-02,
1.83259e-01,
-2.78798e-01,
-1.14935e-01,
2.47492e-01,
3.94171e-03,
3.45513e-01,
2.04103e-01,
2.93503e-01,
-5.49300e-02,
3.16736e-01,
2.51821e-01,
-1.85801e-01,
9.52125e-02,
1.00042e-01,
-4.08417e-01,
-6.46428e-02,
1.35913e-01,
1.02167e-01,
3.15820e-01,
3.36934e-01,
2.50238e-01,
-1.18126e-01,
2.64285e-02,
3.34507e-01,
8.98325e-02,
-2.36851e-01,
1.18663e-01,
6.30777e-02,
-2.93229e-01,-1.96394e-01,-4.26059e-01,3.05953e-01,3.70981e-01,6.11726e-01,-1.89629e+00,-1.74388e-01,-2.11930e-02,2.57944e-01,-2.91533e-01,-2.60510e-01,-2.46770e-01,-2.19058e-01,9.67706e-02,-4.58991e-01,-6.01941e-02,4.27879e-01,-2.32020e-01,-1.80463e-01,4.77257e-01,2.91539e-01,4.35402e-01,2.01231e-01,-4.46577e-01,2.60817e-01,-2.78703e+00,3.06674e-01,4.49811e-01,3.61519e-01,
-2.55614e-01,6.12476e-02,9.52518e-01,-4.80616e-01,3.07026e-01,-5.66181e-01,-4.77914e-01,-2.81983e-01,6.14168e-01,-2.98428e-01,-3.03462e-01,-6.55530e-02,1.64794e-01,-2.14429e-01,-7.44932e-02,-6.86006e-03,-5.67184e-01,6.77942e-01,4.06242e-01,1.46296e-01,-3.37566e-01,-1.11413e-01,-2.96887e-01,-3.43200e-01,-5.81684e-03,2.30528e-01,-9.74391e-02,-3.18923e-01,-1.17138e-01,8.91446e-02,
-2.47873e-02,2.49546e-01,2.68197e-01,-1.07015e+00,2.13695e-01,5.16758e-02,-2.88492e-01,6.71061e-02,4.28690e-02,3.25341e-01,-9.53410e-02,5.02399e-02,9.23129e-02,5.28782e-02,-2.93298e-01,-6.62113e-01,1.00211e-01,-1.77497e-01,2.97353e-01,-1.73901e-02,-2.18504e-01,7.05367e-02,-3.13486e-01,-4.80639e-01,-9.48618e-02,3.30908e-01,-7.20750e-01,8.51792e-01,7.13719e-01,-1.29402e-01,
-2.77042e-01,-3.38113e-01,-2.11747e-01,1.75521e-01,-1.63877e-02,2.66937e-01,-2.16929e-01,4.16466e-02,-2.59392e-01,2.66038e-02,2.78624e-02,-1.12958e-01,-9.14702e-02,-2.41619e-01,-2.18617e-01,2.49881e-01,-2.14723e-01,2.60886e-01,-2.16905e-01,-1.55890e-01,-1.69584e-01,8.86268e-02,-5.32639e-02,-9.14065e-02,-1.95836e-01,2.78328e-01,2.72964e-01,2.07709e-01,-2.71604e-01,1.05452e-01,
2.46511e-01,-1.85449e-01,6.32617e-01,5.99694e-01,7.88724e-02,3.92911e-02,-2.77970e-01,-5.31686e-01,5.14681e-01,2.22769e-01,-2.69934e-01,3.40288e-01,-1.17887e-01,-9.23327e-02,1.79843e-01,-3.97697e-01,-8.21471e-01,6.56056e-02,2.36862e-01,3.37749e-01,-4.64717e-01,-3.65270e-01,-3.31331e-01,1.85298e-01,3.87101e-01,5.70384e-01,-1.07401e-01,1.11831e+00,-3.03612e-02,2.14242e-01,
-4.85908e-01,-2.76747e-01,4.34783e-01,-1.04516e+00,3.08173e-02,-5.51060e-02,-2.52663e-01,2.04312e-01,-4.11619e-01,6.12687e-01,-2.27486e-01,2.16792e-01,4.02640e-01,4.38803e-01,-4.67000e-02,1.58280e-02,-3.50618e-01,-4.08741e-01,1.40845e-01,-4.65447e-01,5.80931e-01,6.09903e-01,-2.83646e-02,-2.88022e-01,1.84943e-01,-1.27802e-01,-3.25930e-01,6.94694e-01,-2.07143e-01,-2.12325e-01,
-1.04597e-01,-3.10424e-01,1.05526e-01,2.44798e-01,1.09798e-01,-1.55223e-02,-1.81484e-01,-2.05828e-01,1.22396e-01,-1.96359e-02,1.90863e-01,3.46341e-02,-3.00580e-01,-6.02673e-02,8.08133e-02,-5.88583e-02,-7.58075e-02,-2.70317e-01,-3.08487e-01,2.37760e-01,1.39841e-01,1.27528e-01,4.73407e-02,-1.37105e-01,-2.93172e-01,-1.11424e-01,-1.27921e-01,1.02558e-02,-2.54001e-01,-1.17777e-01,
-3.01190e-02,6.89275e-01,1.91081e-01,2.58208e-01,5.34387e-01,-1.00842e-03,-3.52291e-01,2.84027e-01,2.76102e-01,-2.03340e-01,-2.58320e-01,1.06917e-01,2.07303e-01,-1.94814e-01,3.86421e-02,1.39164e-01,-7.73395e-02,4.12960e-01,1.21775e-01,-7.36656e-02,-1.56072e-01,-9.90365e-02,-1.28815e-01,-3.26514e-01,-1.71340e-01,1.33742e-02,4.35798e-01,-2.90013e-01,-8.56988e-02,1.59190e-01,
2.94248e-01,5.78113e-02,-5.35726e-02,6.28821e-01,-1.71026e-02,-2.51326e-01,-2.59995e-01,-4.18504e-01,-4.54767e-02,-5.53102e-01,3.91218e-02,4.00114e-01,-3.40086e-01,5.19494e-01,4.66549e-01,-2.78928e-02,-2.42785e-01,-3.61137e-01,-2.62627e-01,5.93164e-02,8.18351e-02,2.88718e-01,-5.35050e-01,-6.08138e-01,-2.78719e-01,3.64184e-01,4.06203e-01,1.13873e-01,4.39694e-01,-7.02296e-01,
4.28918e-02,2.83002e-01,1.45744e+00,1.88693e-01,8.36532e-02,1.04157e-01,4.88776e-02,-3.89580e-01,3.73715e-01,4.47970e-01,7.70115e-02,2.84442e-01,-1.95752e-01,4.10468e-01,-2.99555e-01,-7.20739e-01,-5.78828e-02,3.34647e-01,1.68036e-01,-3.03910e-01,-3.87752e-01,1.47339e-01,-9.09982e-01,2.32653e-01,2.36163e-01,-1.59340e-01,8.07690e-01,1.62335e-01,-8.57719e-01,-3.75887e-01,
2.86809e-01,-8.61635e-02,-3.64217e-01,1.30224e+00,-1.19620e-02,-8.98347e-02,1.14159e-01,1.48103e-01,3.65529e-01,-3.62047e-01,6.80863e-02,-3.73500e-02,2.04417e-01,-1.82472e-01,4.38745e-01,6.03799e-02,3.83904e-01,4.27191e-01,-3.19243e-01,-1.91610e-01,1.55474e-01,1.17317e-01,4.19250e-01,-6.46822e-03,1.95388e-01,5.05591e-01,-1.58427e-01,-5.60976e-01,6.96180e-02,1.89575e-01,
-2.70589e-01,-2.19223e-01,-6.68288e-01,-1.12795e-01,2.90343e-01,-1.35533e-01,-1.56689e-02,4.13394e-01,1.50793e-01,-1.22650e-01,3.03713e-01,-2.11353e-01,3.60280e-01,2.56387e-01,4.96215e-01,5.39871e-01,1.30876e-01,-3.35006e-01,-5.19643e-02,2.90103e-01,1.70701e-01,4.51288e-01,4.46976e-01,-2.54217e-01,6.46738e-02,3.71128e-02,-4.15580e-01,-8.37357e-01,-2.54363e-01,-2.38535e-01,
-3.59706e-01,2.36897e-01,-2.12699e-01,3.90601e-02,3.90223e-02,-1.04845e-01,2.48437e-01,-2.56521e-01,3.63962e-01,8.70204e-02,-1.68075e-01,-5.19570e-02,-2.36342e-01,-5.75161e-03,1.78199e-01,-1.88787e-01,-3.60511e-01,-4.33252e-01,5.12327e-01,-3.18323e-01,2.33643e-01,-7.52287e-01,-1.07063e-01,-1.86305e-01,4.77043e-01,3.80717e-01,1.45323e-01,6.01966e-01,1.12912e-02,4.31686e-01,
2.58771e-01,-9.94967e-03,-1.25414e-01,-7.28515e-02,1.69090e-01,6.65030e-02,1.87968e-01,4.02421e-02,-1.91252e-01,3.22542e-01,-1.19535e-01,1.53199e-01,-1.86776e-01,7.11761e-01,-1.04244e-01,2.91953e-01,-1.09072e-01,3.44358e-01,4.82439e-01,2.99474e-01,4.08178e-01,4.87849e-03,-6.48962e-02,3.80001e-02,8.60077e-02,-2.35859e-01,-1.76644e-01,1.92727e-01,3.04740e-01,-2.56752e-01,
1.26426e-01,-3.31970e-01,-6.33220e-01,1.11430e+00,3.73979e-01,-1.19654e+00,7.51550e-01,2.19458e-01,2.00789e-01,1.52033e-02,1.39026e-01,4.62135e-02,2.82990e-01,-4.68965e-01,2.98651e-01,1.99893e-01,-9.59181e-03,1.23008e-01,2.97652e-01,2.37240e-01,-6.08444e-01,-2.90388e-01,-3.66973e-01,1.34128e-01,2.59734e-01,-4.76542e-01,-2.29143e-01,6.38235e-01,-1.45731e-01,6.30606e-01,
4.60291e-01,2.65808e-01,3.40066e-01,-7.61984e-01,-3.20351e-01,-2.95595e-02,5.78649e-01,1.88950e-02,-2.37575e-01,6.19723e-01,2.41153e-01,-3.92472e-01,-1.52319e-01,2.53308e-01,-1.97663e-01,1.42106e-01,1.56355e-01,1.00699e-01,4.25647e-01,2.79267e-01,-2.76039e-01,3.25440e-01,3.52717e-01,3.54209e-02,3.35657e-01,-1.15156e-01,5.12840e-01,-1.19913e-01,-3.71450e-01,-5.02692e-01,
-1.92447e-01,3.31981e-01,-9.98031e-01,4.91568e-01,-3.85652e-01,-8.33141e-02,-4.68125e-01,7.31856e-01,3.22677e-01,2.75929e-02,-2.57757e-01,-2.19303e-01,2.67780e-01,5.64147e-02,2.50610e-01,2.44938e-01,1.68649e-01,-9.73950e-01,-1.88082e-01,-1.11914e-01,2.24912e-02,5.17889e-01,6.68526e-01,-5.24685e-01,-7.01131e-01,1.98666e-02,-1.04869e+00,-9.49716e-01,9.36922e-02,-1.90129e-01,
8.94370e-03,2.84989e-01,6.01359e-01,5.92990e-01,4.74080e-02,3.22770e-02,-5.91608e-01,-1.29167e-01,3.96663e-01,-1.98300e-01,1.71036e-01,-5.10368e-02,2.91320e-01,-1.58338e-01,4.62309e-01,-5.28566e-02,-5.79357e-01,-3.19954e-01,-9.99827e-02,-4.23051e-02,-4.70676e-01,-2.05973e-02,-1.91150e-01,-6.44357e-01,-2.11903e-01,-2.05479e-01,-1.78731e-01,5.10793e-01,5.67629e-01,4.00427e-01,
2.25056e-01,2.03023e-02,-2.53028e-01,4.31278e-01,1.50939e-01,5.91580e-02,-3.32123e-01,1.99176e-01,3.03556e-01,-1.88604e-01,1.45205e-02,-4.85680e-01,2.80365e-01,1.59128e-01,1.02239e-01,2.70606e-01,-3.08207e-01,9.08482e-02,4.19578e-02,-4.10270e-01,-1.38759e-01,2.03936e-01,6.91212e-02,4.93290e-01,-4.55928e-01,1.48274e-01,2.07480e-01,-3.52489e-01,-2.62798e-01,1.36825e-01,
2.73521e-02,4.70745e-01,3.83977e-01,-3.91059e-01,4.67722e-01,2.45190e-01,-1.19407e+00,3.26286e-01,-2.84024e-01,-3.07386e-01,-2.46673e-01,1.33997e-01,2.29317e-01,-3.15025e-01,-8.88034e-02,-1.49309e-02,2.80707e-01,3.97028e-02,-1.44916e-01,-3.07166e-01,-5.96377e-01,5.70087e-01,-2.35105e-01,-3.20875e-01,-2.74590e-01,3.94398e-01,5.05384e-01,-6.31311e-01,-3.70109e-01,-2.41035e-01,
1.31235e-02,1.13244e-01,-6.95938e-02,-2.75752e-01,2.51606e-01,6.81959e-02,-5.51048e-02,-1.92424e-01,7.19629e-02,-5.09709e-01,3.06145e-01,2.28515e-01,2.30827e-01,-8.32818e-02,6.25549e-02,-1.12515e-02,-8.77296e-02,-1.58733e-01,1.38708e-01,-2.91287e-01,-1.43478e-01,-5.39548e-01,-3.28256e-02,5.72867e-01,-6.41915e-02,-3.99432e-01,3.24857e-01,2.83885e-01,-4.96841e-01,3.08775e-01,
-4.88816e-01,1.36399e-01,1.52524e+00,-2.83451e-01,1.56714e-01,-6.97196e-02,3.71297e-02,5.42934e-01,-1.03738e-01,-2.52205e-01,1.48416e-01,-1.59341e-02,2.35836e-01,2.11780e-01,-5.75122e-02,-1.66678e-01,-1.64889e-01,-3.13848e-01,-4.29625e-01,5.28301e-04,-5.96950e-01,3.66217e-01,1.51215e-02,-2.69997e-01,2.96014e-01,-2.17170e-01,3.90997e-03,7.74511e-01,1.08483e-01,-4.32419e-01,
4.08325e-01,1.52993e-02,9.36566e-01,-5.13717e-01,-2.07122e-01,2.61738e-01,-2.46710e-01,-5.51789e-02,-8.35192e-03,2.52116e-01,1.63639e-01,5.33584e-02,-4.23047e-02,-3.43049e-02,2.73435e-01,-3.69148e-01,-9.82903e-01,2.57115e-01,-3.17891e-01,-3.17109e-01,-3.92887e-01,3.12135e-01,-4.16212e-01,-9.34156e-02,4.02993e-01,9.42750e-02,6.99184e-01,2.90948e-01,7.08229e-02,-3.99375e-02,
-3.66093e-01,2.56683e-01,-2.73847e+00,6.02252e-01,-1.14023e-01,4.24757e-01,-1.15522e+00,-4.60278e-02,-2.35225e-01,5.63674e-01,2.32485e-01,-5.53630e-01,2.83526e-01,2.00565e-01,-1.69605e-01,-6.48013e-01,1.05216e-01,7.09464e-01,2.89895e-01,-4.09411e-01,-1.28916e+00,1.73345e-01,-3.82771e+00,1.66492e-02,2.84791e-01,-1.49793e-02,1.01666e+00,5.06097e-01,-8.41903e-02,-2.71976e-01,
2.86342e-01,1.54276e-02,1.29700e+00,-9.86098e-02,-1.58701e-02,3.89803e-02,1.56240e-01,-1.98524e-01,2.73970e-01,2.92069e-01,-2.76435e-02,1.19020e-02,-1.64722e-01,1.18133e-01,-3.30355e-01,-1.67787e-01,-1.23284e-01,-4.67314e-01,3.91665e-02,3.38930e-01,-5.30075e-01,4.95320e-02,-9.58384e-01,3.02294e-01,2.10901e-01,1.52718e-01,4.67957e-01,9.83859e-01,-6.87428e-02,-1.85199e-01,
1.97771e-01,5.36364e-02,8.01763e-01,8.14480e-02,5.45398e-02,-1.37932e-01,3.14654e-01,-4.48122e-01,4.58148e-01,3.44814e-01,-3.81318e-02,1.95150e-01,-1.48528e-01,-7.67424e-02,-5.85967e-01,-1.37538e-01,9.47576e-01,7.48505e-01,3.52399e-01,2.80061e-01,-4.88227e-01,-2.92224e-02,-6.14058e-01,5.12947e-02,-1.71972e-01,-8.11036e-02,2.09281e-01,7.79174e-01,-9.06147e-02,9.22766e-02,
1.83368e-01,3.53587e-01,2.93220e-01,-1.55664e-01,3.42068e-01,-7.00858e-02,-1.51848e-01,6.93836e-03,-3.40435e-01,3.27261e-01,2.47208e-01,-5.87986e-02,-1.04190e-01,3.57702e-01,-4.47500e-03,8.64344e-03,-1.21738e+00,-7.54546e-01,3.91754e-01,3.00984e-01,9.02943e-02,1.42082e-01,2.67314e-01,-1.75819e-01,-4.23610e-02,-1.58603e-01,2.86876e-01,6.93143e-01,1.23048e-01,-6.24141e-02,
2.73970e-01,1.07595e-01,1.78863e-01,-9.34795e-01,4.04660e-01,-1.21190e-02,3.64705e-01,-1.18961e-01,3.65506e-01,-9.87210e-02,-2.14890e-01,-3.02092e-01,-6.06409e-02,2.04322e-01,-3.23522e-02,1.35006e-01,7.76306e-01,6.20611e-02,-1.97957e-01,6.37043e-02,5.19167e-01,-4.27464e-01,-5.71779e-01,-2.77383e-02,1.18706e-01,-1.17907e-01,7.38669e-01,-2.22887e-01,-3.19633e-01,-1.99924e-01,
1.59743e-01,2.15581e-01,2.84188e-03,5.78970e-02,2.49820e-01,5.33876e-01,4.25992e-01,-1.98929e-02,-3.62634e-03,-5.16211e-01,-2.88735e-01,-2.62254e-01,-3.26993e-01,-5.13006e-01,-4.38538e-01,-3.38144e-01,-2.83635e-01,-1.08964e-02,-2.78625e-01,2.42947e-01,-2.92912e-01,-6.48711e-02,-1.25041e-01,7.21207e-01,3.59098e-01,1.46352e-01,-1.36926e-01,1.70364e+00,-1.61554e-01,1.95300e-01,
-1.02796e-01,1.01005e-01,3.09558e-01,6.28251e-01,-3.34162e-02,-6.01698e-02,2.47101e-01,-5.11124e-02,7.53825e-02,3.24821e-01,-2.28097e-01,2.08810e-02,-1.63915e-01,-3.17314e-01,-2.53741e-01,9.23653e-03,-5.26250e-01,-7.51139e-01,-2.40116e-01,4.38779e-02,-1.73804e-01,3.22575e-01,-3.12115e-01,-6.36918e-01,-1.49669e-01,3.56074e-01,-3.69173e-01,9.36808e-01,4.93584e-01,-1.42307e-01,
-5.49185e-02,
2.79270e-01,
1.70248e-01,
5.22342e-02,
-1.11145e-01,
-2.74056e-01,
-2.16794e-01,
1.51564e-01,
1.15532e-02,
-6.04653e-02,
6.51537e-03,
5.54498e-02,
-1.24123e-02,
-8.23666e-02,
-2.49512e-01,
-9.26575e-03,
-2.76159e-01,
9.93984e-02,
2.48522e-01,
-9.87113e-02,
1.15654e-01,
-3.40221e-02,
7.91209e-02,
-1.69263e-01,
-2.16594e-01,
2.04349e-01,
-1.27979e-01,
1.65969e-01,
-6.85358e-02,
2.97268e-01,
7.77512e-02,1.93894e-01,-4.06833e-01,-2.14696e-01,4.93934e-01,1.35776e-01,-2.95720e-02,-1.78539e-01,-1.18591e-01,-5.92192e-01,3.85875e-01,-8.04311e-02,-1.55586e-01,-1.11066e-01,-2.36011e-01,-3.70995e-01,-7.02774e-01,-5.50980e-01,4.52357e-01,-8.56685e-02,2.78723e-02,-4.94331e-02,-3.01223e-01,1.92047e-01,-3.00139e-01,-2.41971e-01,1.46595e-01,1.98249e-05,5.19442e-01,-2.49374e-01,
-1.62907e-01,2.93573e-01,2.19227e-03,2.68394e-01,-5.41411e-01,-4.00364e-01,1.37048e-01,-4.03725e-01,-4.06140e-01,1.65163e-02,2.88563e-01,3.72091e-01,1.55097e-01,1.82069e-01,4.48711e-01,2.17647e-01,3.06956e-01,1.20889e-01,1.06788e-01,-4.86005e-02,-1.92352e-03,-2.59297e-01,-2.17432e-01,9.27619e-01,2.62990e-01,-3.23408e-02,9.59549e-02,2.72225e-01,-1.04165e+00,1.15479e-01,
-1.02761e-02,1.04543e-02,-2.80672e-01,-9.42196e-02,2.08495e-01,-1.43132e-01,2.32914e-01,3.17864e-01,2.64510e-01,-5.78744e-01,-5.20579e-01,-1.82202e-01,4.98275e-02,2.25778e-01,2.62391e-01,-3.33785e-02,5.19223e-01,-4.23915e-01,-3.93530e-03,-4.23978e-02,-2.92316e-01,3.24774e-01,2.33060e-01,-6.25617e-02,-2.50806e-01,2.05628e-02,-1.44897e-01,9.23937e-02,-1.37657e-01,1.46384e-01,
1.52453e-01,-1.72405e-01,2.29364e-01,2.81787e-01,1.19286e-01,2.26080e-01,1.69240e-01,-2.08615e-01,-7.56134e-02,3.96564e-01,2.83682e-01,2.06201e-01,-3.95737e-01,1.97236e-01,3.00902e-01,-1.26815e-01,9.37837e-03,7.87744e-02,3.84668e-02,1.50869e-01,-1.74071e-02,-4.83667e-02,2.28512e-01,-3.92928e-01,-5.62247e-01,2.96062e-02,1.08140e-01,1.81340e-01,9.04239e-02,-1.82676e-02,
-1.91195e-01,-2.36415e-01,1.01943e-01,-2.07835e-01,-2.00770e-01,4.50974e-02,-6.55322e-02,1.07175e-01,-4.98697e-02,-1.50928e-02,-1.38352e-01,1.13260e-02,-1.31700e-01,2.44937e-01,6.36793e-01,4.89903e-01,-1.02530e-01,1.87123e-02,6.92329e-02,2.90895e-01,-1.43982e-01,-3.50749e-01,1.67469e-01,-4.16192e-02,9.38697e-02,-2.28413e-01,-3.61461e-01,-6.13759e-02,5.67569e-01,1.09670e-01,
5.37880e-02,-1.65025e-01,-1.24667e-02,-1.05256e-01,-6.20772e-02,-6.50856e-02,-3.96448e-03,5.45945e-01,4.87236e-02,9.70959e-02,3.63939e-02,8.64411e-02,2.08376e-01,-1.96173e-02,2.31077e-01,-3.25982e-01,-2.56171e-01,-1.63173e-01,-1.93508e-01,3.38488e-02,3.84007e-01,-1.72218e-01,2.38240e-01,7.23403e-02,4.38417e-01,-6.39229e-02,1.70946e-01,-2.43401e-01,-2.97194e-01,3.83107e-02,
-5.17803e-01,4.90721e-01,-8.87162e-02,5.82518e-02,-4.58201e-01,1.55480e-01,-1.15233e-01,3.39159e-01,1.98684e-01,-2.56188e-01,1.41074e-01,1.29567e-01,-4.23295e-01,-1.22413e-01,-5.42374e-01,-5.12054e-02,-7.36636e-01,-4.24565e-04,2.86570e-01,-3.31595e-01,-3.53874e-01,-1.56037e+00,-3.55339e-02,1.07216e+00,3.00392e-01,-5.51753e-01,2.19112e-01,2.29343e-01,5.58508e-01,-1.72608e-01,
-5.27279e-01,-5.83393e-02,6.48882e-02,1.72048e-01,2.05765e-02,-1.32290e-01,2.99339e-01,2.66254e-01,-4.97868e-01,1.62413e-01,2.93461e-01,3.15068e-02,2.50763e-01,2.00554e-01,3.64386e-01,9.27629e-02,-2.74779e-01,6.54868e-02,5.24290e-01,-4.38781e-02,-1.37956e-01,-2.95312e-01,-1.17023e-01,1.87454e-01,6.59246e-01,-6.02049e-01,-2.07244e-01,2.02287e-02,-1.53339e-01,2.50497e-01,
2.80986e-01,2.40912e-01,-9.18957e-01,-1.55908e-01,-1.40876e-01,-1.01073e-01,1.39990e-01,2.15664e-01,3.64523e-01,-3.54287e-01,3.72529e-01,-1.88573e-01,2.72325e-01,3.64263e-02,6.10386e-01,-8.57434e-03,3.63087e-01,-5.63930e-01,-2.05853e-01,-7.42584e-01,-2.29726e-01,-4.86900e-02,1.86592e-01,6.62040e-01,-8.72073e-02,-2.79960e-01,-1.14098e-01,-3.46074e-02,1.91753e-01,4.61119e-02,
-9.99512e-03,-2.16198e-01,-1.42190e-01,2.00887e-01,2.02475e-01,2.49193e-02,-1.19872e-01,-4.96560e-01,-1.45604e-01,1.45491e-01,-2.80152e-02,-2.27872e-01,-3.40700e-01,-5.41252e-02,-3.51404e-01,2.75745e-01,-4.86401e-02,6.64385e-01,3.17597e-02,-6.78844e-02,7.39362e-01,4.00562e-01,2.07837e-01,-4.44020e-01,-3.68864e-01,6.60674e-01,-7.10043e-03,4.41656e-01,-1.47483e-01,2.40257e-01,
1.21666e-01,2.40880e-01,-2.42846e-01,-6.99281e-02,2.85438e-01,2.59059e-01,-4.29391e-02,3.15751e-01,5.28698e-01,2.32914e-01,-2.68796e-01,-5.34307e-01,4.41538e-02,-3.90448e-01,-2.24902e-01,-1.16907e-01,-5.68412e-01,-1.04832e-01,3.32204e-01,-4.20277e-01,-2.74439e-01,5.94932e-02,-1.38366e-02,-1.84727e-01,-5.37450e-01,4.17320e-01,1.46202e-01,6.54696e-02,-1.48263e-01,-1.28255e-01,
2.23552e-01,3.89443e-01,1.15347e-01,-1.34331e-01,-1.45371e-01,2.10332e-02,-1.95669e-02,-5.22766e-02,-4.66637e-02,1.78660e-01,3.60677e-01,1.86527e-01,1.29464e-01,-8.12404e-02,-1.07828e-01,-1.34998e-01,-6.04990e-02,3.72536e-02,7.68156e-02,8.58117e-02,-4.09417e-01,-1.80857e-01,-2.28466e-01,2.33331e-01,-9.95745e-02,-2.11690e-02,2.48069e-01,-3.14095e-02,-8.95061e-02,-2.69636e-01,
8.81089e-01,-6.09683e-02,1.36703e-01,-1.07221e-01,9.40023e-02,-7.56748e-01,-1.90258e-01,-1.63584e-01,-2.23344e-01,2.93825e-01,7.12969e-03,-3.27260e-01,2.10849e-01,-2.06236e-02,-4.61956e-01,-6.30957e-01,-4.83810e-01,1.54606e-01,3.81224e-02,3.77055e-01,-1.22811e+00,1.62385e-01,-2.98045e-02,-1.93072e-01,-3.11464e-01,-3.48152e-01,1.38872e-01,-6.82869e-02,-5.44849e-01,3.94563e-01,
-4.31862e-01,4.22974e-02,-8.63304e-02,7.48799e-02,6.08490e-02,2.75664e-01,2.24573e-01,2.24559e-01,1.84563e-01,-5.16215e-01,-2.40908e-01,-2.97835e-02,-4.75683e-02,-6.78833e-01,-2.51936e-01,1.81377e-01,-1.03747e+00,-3.00046e-01,2.05944e-01,-4.12684e-01,-6.05670e-01,-4.23235e-01,3.42440e-02,1.62044e-01,-4.27848e-01,3.38344e-01,4.77856e-02,1.73179e-01,8.38962e-01,-4.06570e-01,
1.38530e-01,2.64325e-01,-1.95190e-01,2.05621e-01,2.14445e-03,-1.90607e-01,2.16304e-01,1.33348e-01,-1.00891e-01,-5.79638e-02,-4.12334e-02,-1.45442e-01,1.58193e-02,2.21253e-01,4.99110e-01,3.66774e-01,2.98349e-01,3.73531e-01,-3.30599e-02,3.96054e-01,-1.91618e-03,1.20120e-01,2.50523e-01,-7.14873e-02,-1.99307e-01,2.65288e-01,1.88262e-03,2.02761e-01,-3.31935e-01,2.14513e-01,
4.42622e-01,1.17294e-01,1.65865e-01,8.91148e-02,2.71956e-01,1.72150e-01,-3.02263e-01,1.51808e-01,-1.33082e-01,-5.84296e-04,5.18807e-01,2.36882e-01,-5.20754e-02,-2.94428e-01,-5.93372e-01,-2.81285e-01,-5.54062e-02,-2.68241e-01,-1.47154e-01,-6.84339e-02,-3.36156e-01,1.58400e-01,-5.61856e-01,1.90660e-01,-1.36648e-01,1.53166e-01,4.46820e-01,2.63292e-01,1.17320e-01,-3.27591e-01,
2.92599e-01,-2.03351e-01,-7.12624e-02,-1.65010e-01,-1.36515e-02,-5.70431e-02,1.33442e-01,9.80411e-02,-5.04851e-02,-2.52578e-01,-2.32340e-01,-2.93372e-01,1.90633e-01,-2.65713e-01,-3.22538e-01,1.04733e-01,3.56340e-02,7.77286e-03,1.41400e-01,7.25496e-02,-1.75911e-01,1.68544e-01,5.56868e-02,-2.30719e-01,-2.49026e-01,1.15158e-01,-2.91444e-01,-1.98738e-01,2.38221e-01,4.08288e-02,
-5.37021e-01,2.59351e-01,-3.71685e-01,-2.77116e-02,9.69501e-02,-4.66609e-02,-2.79704e-01,5.20692e-02,4.28718e-02,-3.14635e-01,4.54888e-03,5.37751e-01,-2.85871e-01,1.27431e-01,-2.92099e-01,1.96266e-01,-7.08771e-01,-1.26515e-01,2.47069e-01,-1.73086e-01,-6.36342e-02,-7.70965e-01,-3.85074e-01,2.96917e-01,3.67388e-01,-8.67030e-02,-1.44003e-02,-2.84522e-01,-3.62498e-01,-6.01501e-02,
5.59674e-01,-7.48858e-02,1.86700e-02,1.01234e-01,2.42429e-01,-1.23287e-01,-3.62260e-02,-2.70600e-01,5.22337e-01,7.56172e-01,2.98786e-01,8.35643e-02,-1.46065e-01,-3.78962e-01,4.62296e-01,-3.52584e-01,-3.07202e-01,8.35147e-02,7.33541e-02,3.53797e-01,8.67680e-02,-1.00656e-01,-4.66913e-01,-5.82983e-02,3.42379e-01,-9.18031e-02,7.31264e-01,1.48913e-01,-7.65492e-02,2.02490e-02,
-2.67058e-01,-2.09475e-01,-3.19513e-01,1.41746e-01,1.92408e-01,-1.63854e-02,-8.04143e-02,-2.65579e-01,-1.88621e-01,3.14870e-02,-3.50874e-02,3.35523e-02,-1.65950e-01,-2.67028e-01,-5.05213e-03,5.56374e-02,7.76325e-02,-1.33662e-01,-8.88739e-02,2.09530e-01,-6.89940e-02,-2.63488e-01,2.49946e-01,3.06734e-01,-2.39149e-01,-1.13717e-01,-6.51411e-02,-1.00155e-01,9.83523e-02,5.95708e-02,
-1.63112e-01,-1.57127e-01,5.00840e-02,3.00348e-01,-9.21249e-02,5.35132e-02,-1.23789e-01,-4.07203e-03,2.64592e-01,-1.80645e-01,3.74211e-01,1.36885e-03,-1.79244e-01,-2.64623e-01,5.68914e-02,-2.82948e-02,-5.80346e-01,-3.52914e-01,3.29751e-01,-5.04197e-01,-1.08984e-01,-1.03896e-02,-4.44396e-01,7.44338e-02,8.85758e-03,3.23953e-01,-6.53731e-02,3.36489e-01,7.17857e-02,-4.03642e-01,
1.24655e-01,-3.35606e-01,-1.77592e-01,-1.68905e-01,-1.49225e-01,-4.19736e-01,2.90514e-01,-9.97911e-02,-4.31959e-01,3.20958e-01,4.14623e-01,-5.07889e-02,1.48698e-01,2.62710e-01,3.77933e-01,-3.81716e-01,9.02136e-01,4.40306e-01,-2.56410e-01,5.94296e-01,-3.69502e-01,2.43461e-01,2.48345e-01,4.16177e-02,1.81689e-01,3.57687e-01,3.76154e-01,8.45845e-02,-1.15170e+00,3.41525e-01,
-3.02372e-01,-4.90570e-03,-2.23623e-01,2.16093e-01,-8.39947e-02,4.82239e-02,1.62518e-01,-2.64399e-02,-1.08955e-01,-1.75810e-01,8.87999e-02,-1.08615e-01,-3.36900e-01,2.64056e-01,4.28057e-02,1.00325e-01,1.32907e-01,-5.28701e-02,-2.45539e-01,-2.37302e-01,-2.50301e-02,-3.31681e-01,1.31944e-01,5.47825e-02,-1.29886e-01,-1.66342e-01,-3.05881e-01,-1.61197e-01,-1.10205e-01,1.40858e-01,
1.62034e-01,1.32553e-01,4.28161e-01,7.63547e-02,5.68066e-01,4.72644e-01,9.88116e-02,2.72645e-02,-3.90365e-02,7.55442e-01,1.28866e-01,-3.95961e-01,-4.79837e-02,-2.12447e-01,5.50576e-02,-2.25479e-01,1.02303e+00,9.28776e-02,-2.30825e-01,1.79312e-01,-1.11538e-01,6.87120e-01,2.25256e-01,-7.60378e-01,-9.67499e-01,2.07068e-01,8.95540e-02,-1.01982e-01,-9.90277e-01,-4.09066e-02,
-1.89504e-01,1.17684e-01,9.83168e-03,2.93079e-01,-4.51319e-01,-2.67357e-01,1.13219e-01,3.05031e-01,1.57179e-01,2.93790e-01,-1.21866e-01,2.07922e-01,-1.00700e+00,-2.42016e-01,2.42383e-01,1.48121e-01,-1.01736e+00,1.20301e-01,5.81658e-01,-3.70055e-01,-1.65480e+00,-8.38920e-01,-3.57920e-01,7.03565e-01,-1.09300e-01,-7.53918e-01,-1.08063e-02,-4.07193e-01,8.79361e-01,2.70300e-01,
1.08125e-01,-2.51941e-01,6.40550e-02,-6.91724e-02,1.09953e-01,1.44488e-01,2.20464e-01,1.92058e-02,-1.23329e-01,1.36804e-01,2.49782e-01,-3.56489e-01,-2.83457e-01,-6.34971e-02,2.07458e-01,-2.40266e-01,-1.67794e-01,-2.42357e-01,-8.70785e-02,-2.21548e-01,-2.45345e-01,1.08825e-01,1.54639e-01,-2.31783e-01,-2.05924e-01,-1.56960e-02,9.07830e-02,2.25119e-01,-3.14963e-01,-2.11242e-01,
-8.18240e-02,-1.28843e-01,-3.31013e-01,3.98536e-02,-2.02612e-01,2.70126e-01,-1.50509e-01,-2.29737e-01,2.35250e-01,1.98706e-02,-2.91819e-01,-3.41211e-01,-3.46845e-01,-2.13791e-01,2.61537e-01,1.86430e-01,-1.50150e-01,2.70912e-02,-2.15658e-01,1.27880e-01,7.31639e-02,-1.58458e-01,-2.07313e-01,-2.77977e-01,2.40784e-01,2.44060e-01,2.96195e-02,5.08069e-02,-2.28973e-01,-1.45483e-01,
2.36679e-01,-6.76402e-02,-1.48984e-01,1.64596e-01,6.30862e-02,-1.34306e-01,1.71780e-01,1.27364e-02,2.36271e-02,-3.22468e-02,-1.62619e-01,2.54578e-01,-3.14086e-01,3.75104e-01,-5.36487e-02,-9.63422e-02,-8.98015e-01,5.89143e-02,2.01509e-01,-1.83158e-01,7.14776e-01,-1.52000e-01,4.75287e-01,-1.10180e-01,-2.05823e-01,1.55447e-01,8.08157e-02,2.02320e-01,-1.29543e-02,1.11488e-01,
-8.76250e-02,2.22522e-01,2.89757e-01,1.07072e-01,6.06105e-01,2.29480e-01,-8.45798e-02,2.05977e-01,1.53932e-01,-6.01770e-02,1.56796e-01,-1.83777e-01,-1.16799e-01,-2.51637e-01,-2.87145e-01,2.20961e-01,3.45108e-01,-1.94032e-01,1.72118e-01,-2.44549e-01,-2.61747e-01,2.23746e-01,-2.06293e-01,-1.65598e-01,-4.57443e-01,-7.39853e-02,1.23324e-01,-3.17373e-02,-1.27360e-02,-4.60866e-01,
-2.27410e-02,2.30296e-01,-1.91257e-02,3.07612e-01,4.91429e-02,3.75590e-02,-2.95629e-01,1.79243e-01,-6.41379e-02,2.53884e-01,-6.24112e-01,-8.29804e-02,7.63785e-02,3.11604e-01,5.44960e-01,3.81612e-01,1.22497e-01,-2.47574e-01,1.48324e-01,1.82708e-02,4.42420e-02,2.15941e-01,4.05519e-01,-2.85302e-01,-4.58595e-01,1.15513e-01,-5.04187e-01,4.19237e-02,-4.11328e-01,3.51417e-01,
-1.21593e-01,
-2.39355e-02,
3.35863e-01,
-1.88578e-01,
1.50307e-01,
7.16549e-02,
1.93895e-01,
-2.81963e-01,
6.15943e-02,
-1.44551e-01,
2.54676e-01,
2.65562e-01,
2.17795e-01,
4.20426e-01,
-1.03577e-01,
2.29989e-01,
-2.72212e-02,
1.67287e-01,
-3.82321e-02,
4.63856e-02,
3.64057e-01,
-3.87160e-01,
-1.61117e-01,
-2.21785e-01,
2.68932e-01,
-2.12910e-01,
8.99997e-03,
-2.00168e-01,
-1.86117e-02,
-2.06563e-01,
1.25852e+00,-3.27832e-01,-8.90990e-02,-4.97573e-02,-7.89082e-02,1.30533e-01,6.76526e-01,-2.67636e-01,-7.86064e-01,-4.41737e-01,1.79404e-01,-2.41042e-01,8.18211e-02,-7.15602e-01,3.02824e-01,-2.14323e-01,9.11475e-02,-1.62540e-01,-3.27487e-01,-2.08725e-01,-2.43621e-02,-1.17510e-01,-2.34234e-02,7.55043e-01,-1.68609e-01,-1.63602e-01,-2.11442e-02,-1.59571e-02,-2.39481e-01,5.89820e-02,
-1.58763e-01,-6.68049e-02,-2.37553e-01,-2.10452e-01,-2.54550e-01,-1.71105e-01,8.94982e-02,-1.82169e-01,2.46595e-01,9.68577e-02,9.58594e-02,-3.08906e-01,4.98634e-02,2.07467e-01,-1.10690e-02,9.14379e-02,-7.31955e-02,-5.44034e-02,-1.89422e-01,-1.26761e-03,-2.43629e-01,-4.64396e-02,-2.21983e-01,1.25971e-02,-5.83231e-02,-1.67419e-02,-1.43192e-01,-1.53407e-01,3.83648e-02,-8.61062e-02,
-2.06696e-01,-3.78658e-02,1.28238e-01,-1.46509e-01,-9.69203e-02,1.89030e-01,-1.26989e-01,1.98312e-01,7.07537e-02,-2.62639e-01,1.18448e-01,-1.14670e-01,-6.56187e-02,1.89196e-01,-2.33283e-01,-1.65963e-01,1.41983e-01,4.29168e-02,5.23322e-02,-1.65087e-01,4.68840e-02,6.02147e-02,-5.46312e-02,7.09703e-02,1.94468e-01,-1.11306e-01,1.27402e-01,-6.18566e-03,-2.80384e-01,2.85200e-01,
1.18929e-01,-2.89714e-01,-8.77582e-03,-2.95417e-01,-1.82248e-01,-5.46477e-02,-4.55920e-02,-3.51609e-02,-9.91537e-02,2.60173e-01,-2.41733e-01,1.01157e-01,-5.31530e-02,-2.96946e-01,-2.49029e-01,-2.29487e-02,-2.57649e-01,-1.47939e-01,-4.45997e-02,-3.04274e-01,-1.15736e-01,-1.26229e-01,2.42273e-01,-9.03848e-02,1.30138e-01,1.20006e-01,-2.20349e-01,-2.27258e-01,2.57546e-01,1.49154e-01,
5.24782e-01,2.60924e-02,-5.09088e-01,-1.95624e-01,-1.00498e-01,3.98412e-02,1.15324e-01,3.68987e-01,2.96848e-01,-2.16951e-02,8.79690e-02,1.84007e-01,9.94096e-03,-6.97619e-02,1.03150e-01,-1.40750e-01,3.01428e-01,2.17926e-02,3.36048e-01,2.89702e-01,5.34193e-02,4.75326e-02,-2.42775e-01,-3.45965e-01,-2.48012e-01,-2.44980e-01,-7.73463e-02,-8.44117e-02,2.45213e-01,-7.43857e-02,
-1.19092e-01,1.83328e-03,2.20362e-01,2.69415e-01,1.90037e-01,2.76499e-01,-3.82603e-01,1.56059e-01,-6.47627e-01,-4.10328e-02,1.38742e-01,-2.01985e-01,2.62127e-01,-1.05480e-01,2.39499e-01,6.73290e-04,-7.97106e-02,-3.54731e-01,-1.55833e-01,1.82498e-01,1.76012e-01,-1.53268e-01,7.39773e-02,5.85834e-01,1.84394e-01,5.73757e-02,2.30802e-01,8.45299e-02,1.84218e-01,7.91949e-03,
2.66866e-01,-2.99599e-01,-2.65752e-01,-1.55793e-01,-2.25376e-01,-1.05420e-01,-1.73672e-01,1.00016e-01,3.01321e-01,-3.20529e-02,-1.21372e-01,2.22645e-01,1.12962e-01,2.34176e-01,1.73399e-01,-2.38233e-01,-5.59103e-02,1.62132e-01,2.44400e-02,-1.70738e-01,-2.56952e-01,4.93793e-02,-7.51980e-02,-3.01806e-02,2.29966e-01,-2.71347e-01,-1.97930e-01,2.24403e-01,-1.45145e-01,-2.46930e-01,
-2.69625e-02,2.07405e-01,5.63351e-02,2.54341e-01,-1.64034e-01,1.43352e-01,2.76670e-01,1.29770e-01,4.33853e-01,1.65435e-01,-3.32783e-01,1.76815e-01,8.65658e-02,1.11491e-01,1.16861e-01,4.95326e-02,-7.91195e-02,3.25246e-01,1.20917e-01,7.67233e-02,-1.46581e-02,-1.41271e-01,-6.64660e-02,-9.31821e-02,7.25608e-01,-1.38233e-01,9.32718e-02,1.04468e-01,1.57034e-01,-2.80831e-02,
9.94513e-01,1.28288e-01,-2.46466e-02,-6.85059e-02,9.95380e-02,3.09310e-01,-7.08265e-01,1.47303e-01,3.25633e-01,4.02380e-01,-4.09123e-01,-5.06326e-02,3.75906e-01,-1.80784e-01,2.39425e-01,-1.63254e-01,-1.27723e-01,-1.64898e-01,-1.40053e-01,1.45521e-01,-7.03646e-02,-6.37850e-01,1.11992e-01,4.96539e-01,1.11663e+00,1.54159e-01,-2.19483e-01,-2.38917e-01,-1.70542e-01,-2.23665e-01,
1.52235e-01,2.01865e-01,-1.77660e-01,2.70461e-01,-2.30676e-01,-3.22771e-01,9.98770e-02,3.22151e-02,-8.87866e-02,-4.54932e-02,-2.39921e-01,5.34835e-02,-6.87956e-02,-2.35159e-02,-7.56122e-02,-2.13393e-02,-8.90042e-02,-3.13191e-01,2.34137e-02,6.07851e-02,1.30455e-01,-2.57862e-01,-1.61914e-01,-2.68071e-01,7.40458e-02,-5.48363e-02,-1.71852e-01,-1.62468e-01,1.11539e-01,1.97029e-01,
-7.38168e-02,-7.22171e-02,7.15355e-02,-4.27060e-01,-4.28609e-01,-5.11047e-01,8.14705e-03,1.34259e-01,1.59140e-01,-5.34183e-01,1.85854e-01,1.21497e-01,-6.80466e-01,7.79287e-01,-2.58279e-01,-7.16640e-02,-8.88898e-02,1.07728e-01,5.96329e-01,-2.19059e-01,-7.19092e-02,-2.58986e-01,1.45935e-01,-1.48526e-01,3.96655e-02,1.48507e-01,2.49162e-01,-2.83791e-01,5.24642e-02,5.60481e-01,
9.28575e-02,9.98755e-02,2.48154e-01,-1.36835e-01,-3.01137e-01,1.34778e-01,-2.01196e-01,-1.43423e-01,-1.03702e-01,1.30178e-01,1.62694e-02,1.69275e-01,-4.56537e-02,-2.99543e-01,-2.71226e-01,-3.05699e-01,1.59357e-02,1.36703e-01,-1.20187e-01,2.86300e-01,-2.49099e-01,1.37836e-02,-1.87175e-02,-1.97859e-02,-2.99694e-01,-1.84522e-01,2.89855e-01,1.97940e-01,-3.25390e-02,1.37078e-01,
-3.16172e-01,7.44133e-02,-2.20285e-01,-3.28124e-01,-2.65225e-01,-2.07283e-01,-1.66842e-01,-8.03658e-02,2.05713e-01,3.91905e-02,5.92482e-03,-9.36065e-02,2.58663e-01,-3.10946e-01,1.64097e-01,-1.48196e-01,5.92951e-02,-1.48880e-01,2.21489e-02,-1.39262e-01,-3.08987e-02,1.50638e-01,7.05370e-03,-1.14243e-01,2.43082e-01,-2.03597e-01,3.00912e-01,8.25387e-02,-1.63042e-01,-4.68221e-02,
2.17896e-01,-1.21513e-02,1.58529e-01,1.72671e-01,-3.07067e-01,2.70742e-01,1.92347e-02,-2.06938e-01,-1.31487e-01,2.64777e-01,-2.58571e-01,9.50212e-04,3.34643e-02,-2.43754e-01,-1.52008e-01,-2.01916e-01,-2.64839e-01,2.73155e-01,-2.89469e-01,2.57878e-01,3.72901e-02,1.17101e-01,-2.47172e-01,4.05160e-02,1.25824e-01,-1.26581e-01,8.45679e-02,-5.91597e-02,4.06299e-02,2.89130e-02,
1.69868e-01,2.32276e-01,3.64969e-02,1.32397e-01,1.38755e-01,4.31537e-02,-4.82499e-01,2.61613e-01,3.07799e-01,3.19526e-01,-1.66257e-01,1.02610e-01,1.26784e-01,-2.38904e-01,1.24838e-01,-1.62460e-02,-9.50583e-02,4.74118e-01,1.40330e-01,1.10519e-01,3.62906e-03,-3.56547e-01,9.34161e-02,4.77741e-02,4.27444e-01,-1.26578e-01,-2.51707e-02,-1.16906e-02,-2.23300e-01,-2.88979e-01,
6.30502e-01,6.85054e-02,2.92596e-02,3.39073e-01,-1.68880e-01,2.23622e-01,-2.46957e-01,-1.43873e-01,2.59468e-01,-1.16374e-01,2.24535e-01,1.56120e-01,-1.64388e-01,2.91985e-01,-1.63702e-01,6.39345e-02,2.89373e-01,7.98816e-02,2.88871e-02,-7.58657e-02,4.67410e-01,4.59535e-01,-2.72822e-02,-2.33303e-01,9.11738e-02,2.78335e-01,2.75137e-01,5.48729e-02,3.21237e-01,1.43731e-01,
-3.09922e-02,-3.18579e-02,-2.07434e-01,7.84943e-03,-2.32286e-01,-1.84945e-02,-1.48864e-01,-1.44293e-01,8.12504e-01,-2.31250e-01,-3.36942e-01,1.99370e-01,3.17064e-02,-7.29387e-02,4.45195e-01,-2.33108e-01,1.72026e-01,8.18209e-01,7.79673e-03,-1.22203e-01,1.96491e-02,-4.26290e-01,1.49165e-01,5.60013e-01,2.17793e-01,1.55351e-01,1.64380e-01,3.01479e-01,-6.24486e-01,-2.99697e-01,
5.44888e-01,1.04319e-01,2.36543e-01,3.29416e-01,1.97152e-01,-2.22041e-01,5.01472e-01,2.83613e-01,1.17647e-01,-2.24439e-01,2.79715e-01,-1.18397e-01,-4.13435e-02,1.18918e-01,1.14597e-01,2.45905e-01,2.10830e-01,3.31081e-01,2.13299e-01,8.17629e-02,3.85363e-01,1.97811e-01,1.85354e-01,-1.18321e-02,-8.16944e-01,2.89390e-01,1.15435e-02,4.92639e-01,1.96853e-01,-3.05277e-02,
-2.73022e-01,1.07119e-01,-2.11546e-01,1.15541e-01,-2.48244e-01,-4.29876e-02,-2.99831e-02,1.71331e-01,2.25739e-01,-2.56324e-02,-3.25664e-02,-2.90634e-01,-1.56186e-01,-1.88000e-01,-1.28950e-01,-2.68011e-01,-5.15075e-02,-1.47483e-01,2.31210e-01,-8.39477e-02,-1.00294e-01,1.37422e-01,2.28075e-01,-2.56002e-01,2.23587e-01,5.05244e-02,-1.05080e-01,-5.09081e-02,1.20646e-01,-1.38008e-01,
2.87933e-01,8.04481e-02,-3.37681e-02,-3.02898e-01,-1.12606e-01,-2.45687e-01,2.37068e-01,1.13050e-01,-7.60120e-02,1.51589e-01,-1.52100e-02,-9.67763e-02,2.15749e-01,1.27660e-01,-1.44547e-01,-2.73872e-01,1.01686e-01,-1.65671e-01,7.19370e-03,-2.76890e-01,-7.67334e-02,-3.67160e-02,-2.02693e-01,-1.85150e-01,4.68526e-02,5.36447e-02,-6.46582e-02,-1.48613e-01,-1.46205e-01,-2.20161e-01,
-9.19040e-02,-2.75800e-01,6.39502e-02,-2.99816e-01,-3.16504e-01,4.30104e-03,-9.52442e-02,-8.14471e-02,-4.94083e-02,-3.95928e-01,2.67324e-03,-3.41300e-02,9.17853e-02,1.24821e-01,-2.50298e-01,-7.95060e-02,1.50992e-02,-1.46468e-01,-4.06924e-01,2.24262e-01,9.01110e-02,-2.35883e-01,-2.92979e-01,2.19157e-01,-3.18174e-01,2.00756e-01,-4.67642e-02,6.16474e-02,-1.64808e-02,-2.58233e-01,
-1.82077e-01,2.65618e-01,-2.41294e-01,-1.29518e-01,-1.45217e-01,9.02413e-02,-1.93122e-01,3.53121e-02,-4.28964e-01,-4.37808e-01,-7.68257e-01,-1.79446e-01,-3.65022e-01,6.47058e-01,2.34413e-02,4.55529e-01,4.19269e-03,8.85353e-02,3.78623e-01,-1.56307e-01,-5.62748e-01,4.00037e-01,1.56631e-01,-6.06280e-01,-4.18142e-01,1.14393e-01,2.25992e-01,8.77376e-03,2.13924e-01,4.62253e-02,
-4.05551e-01,-2.89697e-01,1.69260e-02,4.02390e-01,-5.03577e-01,1.93987e-01,-2.96377e-01,2.09935e-01,2.33573e-01,2.90277e-02,-4.02787e-02,-1.14508e-01,-1.35157e-01,-4.32245e-01,-3.34181e-01,3.67954e-01,6.27616e-02,-4.26585e-02,-3.75922e-03,1.06374e-01,2.01610e-01,4.30792e-01,-3.03790e-01,-2.49402e-03,2.78255e-01,-1.98853e-01,7.33882e-02,7.51699e-02,-3.20980e-01,-8.71210e-01,
-1.04242e-01,-1.54634e-02,1.25784e-01,3.69692e-01,4.85642e-02,2.37580e-02,-4.77251e-01,3.21715e-01,-5.16559e-01,-1.52287e-01,3.59709e-01,1.04126e-01,4.00634e-02,-3.20320e-01,2.89583e-01,1.11250e-01,1.28869e-01,-2.22767e-01,1.65309e-01,-6.70337e-03,3.25472e-01,-1.09627e-01,-9.09135e-03,7.11039e-02,-1.30129e-01,2.17730e-01,1.91095e-01,5.79971e-02,2.22016e-01,1.76361e-02,
-6.76519e-01,1.50941e-01,1.18258e-01,5.58498e-02,-4.28463e-01,-1.16842e-01,1.19021e-01,2.71732e-01,3.69604e-01,-8.19130e-02,3.36016e-01,1.77370e-01,-4.57920e-01,1.00965e-01,-6.40965e-01,-3.20533e-01,2.71891e-01,-4.06476e-02,2.19218e-01,-2.46213e-02,3.44251e-02,9.64319e-01,-2.38344e-01,-1.04728e+00,-1.83309e-01,-3.07654e-01,-3.69909e-02,1.33406e-01,-2.21287e-01,4.80527e-01,
-5.08912e-01,4.51457e-01,-2.04561e-01,1.28505e-01,-8.18435e-02,2.02728e-01,-3.66794e-01,1.58856e-01,1.46633e-01,8.13873e-01,-7.69966e-01,1.63915e-01,1.65732e-01,-3.20549e-01,-1.78343e-01,-1.24996e-01,-1.60843e-01,3.05662e-01,1.87881e-01,9.49894e-02,-3.67924e-01,-1.00257e-01,-2.73166e-01,-8.39772e-01,1.34812e+00,-2.74044e-01,-8.22853e-02,-2.87755e-01,1.96094e-01,-1.14855e-01,
-5.07962e-02,-2.65122e-02,2.20443e-01,-1.35642e-01,2.74342e-01,2.61692e-02,-3.67661e-01,1.84517e-01,-1.00140e-01,3.20953e-01,1.92310e-01,3.67696e-01,-5.72620e-02,-3.95842e-02,-2.82907e-01,1.07555e-01,-2.09897e-01,-2.59404e-02,1.16290e-01,-1.18589e-01,1.59865e-01,2.04390e-02,9.71935e-02,-3.00495e-01,-1.19491e-01,-1.06203e-01,2.20140e-01,-2.51054e-01,1.58634e-01,6.80632e-02,
4.95833e-02,2.77540e-01,2.66026e-01,5.07181e-02,-1.69289e-01,-1.16410e-01,3.92415e-01,-5.95649e-02,6.56359e-02,-4.37210e-01,-6.40036e-01,-3.63946e-02,9.00731e-02,2.86538e-02,-5.52985e-01,1.48796e-01,2.53599e-01,4.76398e-01,-2.06457e-01,5.66521e-02,-3.15721e-01,-1.17209e-01,-1.21206e-01,2.56356e-01,-3.63744e-01,2.92169e-01,1.45177e-02,-5.90238e-02,-3.23697e-01,-1.28049e-03,
1.19100e-01,-7.75387e-01,-5.24815e-01,1.68872e-01,7.07893e-01,-1.86986e-01,-8.71644e-02,-7.07023e-02,-8.28539e-02,-2.69354e-01,-8.72197e-02,-2.79101e-01,1.52941e-01,-9.65898e-02,-5.18152e-01,-5.90284e-02,-3.15880e-01,2.53107e-01,9.76244e-02,-4.05680e-02,3.31331e-01,1.90377e-01,4.59096e-02,6.87316e-03,-3.57229e-01,-1.48775e-01,-4.14597e-02,-2.86425e-01,3.37237e-01,-2.46536e-01,
6.21261e-01,-1.33491e-01,-1.59676e-01,1.63632e-01,-1.21678e-01,1.66629e-02,1.25814e-01,2.05842e-01,-2.84522e-02,-4.70288e-02,-2.34742e-01,1.64558e-01,-5.53947e-01,9.67258e-02,-2.51933e-01,3.73095e-01,1.82083e-01,-3.31536e-02,1.67418e-01,1.07724e-01,-2.76229e-02,4.29590e-01,2.12067e-01,-8.37041e-01,3.27879e-01,-1.17887e-01,-1.49460e-01,1.10165e-01,2.46443e-01,3.06240e-01,
-5.78955e-02,
5.45159e-02,
-2.95950e-01,
-7.27719e-02,
-2.86673e-01,
2.57414e-01,
-3.14599e-01,
1.77789e-01,
-6.59468e-02,
-3.30790e-01,
1.14728e-01,
-1.83641e-01,
-2.29788e-01,
-3.30117e-01,
6.32001e-02,
8.60282e-03,
4.85557e-02,
-2.04988e-01,
1.01891e-01,
1.58070e-01,
5.34841e-02,
-2.48713e-02,
-2.39227e-01,
-2.48126e-01,
-3.29198e-03,
3.81019e-02,
2.74997e-01,
1.22382e-01,
8.50844e-02,
-2.75050e-02,
3.64529e-01,-3.17774e-01,1.92406e-01,-3.97373e-01,1.97445e-01,-3.80345e-01,-4.86454e-02,1.69912e-01,1.18745e-01,-7.46378e-03,2.94919e-01,1.04576e-01,2.86195e-01,-1.99185e-01,2.15156e-01,4.24548e-02,-2.69000e-01,1.45400e-01,3.54892e-01,9.72944e-03,7.59772e-02,4.23450e-01,6.45727e-01,3.35043e-02,3.10337e-01,-2.61751e-01,-9.08392e-02,1.85743e-02,3.14322e-01,1.99593e-01,
6.33966e-02,-1.11571e-01,-3.77269e-01,1.85507e-01,1.45909e-01,-1.16363e-01,-2.69671e-01,-2.39711e-02,2.16075e-01,1.44832e-01,3.17856e-01,1.64537e-01,-1.51253e-01,1.71543e-01,-1.44852e-01,7.70138e-02,7.73290e-02,2.50443e-01,8.96082e-02,9.18672e-03,-2.11201e-01,2.70103e-01,5.04904e-01,-1.21908e-01,3.83550e-01,-1.09951e-02,2.17593e-01,-9.27849e-02,1.60702e-01,3.13852e-01,
1.43335e-01,-1.59863e-01,3.89856e-01,-3.45573e-01,1.48411e-01,-4.88962e-03,-1.50663e-02,1.51460e-01,1.24583e-02,1.39650e-01,3.32014e-01,3.90198e-01,5.82804e-02,9.28749e-02,6.22977e-02,8.45849e-02,2.18157e-02,6.88335e-02,3.41195e-01,1.28820e-01,-1.77417e-01,4.24054e-01,5.66485e-01,-1.63315e-01,3.15059e-01,-1.54609e-01,2.85815e-01,1.34214e-01,2.09522e-01,3.81478e-01,
3.34345e-03,3.22049e-02,-1.12353e-01,-3.75537e-01,2.73930e-01,-3.50192e-01,1.11580e-01,-2.03915e-01,4.29123e-01,-2.49738e-01,3.69448e-01,-9.99708e-02,3.45103e-01,-3.52169e-01,-2.18618e-01,2.03220e-01,-1.49597e-02,2.69725e-01,4.14861e-01,9.33664e-03,2.04479e-01,-4.66026e-02,5.93139e-01,5.79818e-02,2.01115e-02,4.07819e-03,-9.09874e-02,9.21919e-02,2.38869e-01,8.72500e-02,
1.13049e-01,-1.53278e-03,2.77026e-01,3.84953e-01,1.36142e-01,1.85495e-01,3.19226e-01,2.03745e-01,-1.43431e-01,-3.35647e-01,2.91800e-01,1.44780e-01,2.47716e-01,-3.27679e-01,1.52783e-01,7.21634e-02,8.14586e-02,-3.81188e-02,2.51031e-01,-2.29926e-02,-2.84002e-01,4.67372e-01,5.04635e-01,-2.47063e-01,3.80263e-01,-1.91469e-01,4.31927e-01,3.25363e-01,1.23211e-01,5.11905e-01,
1.67265e-01,
-3.63120e-02,
-1.55967e-01,
2.92840e-01,
-3.52483e-01,
